#mdl#2#2980
#rdr#61/19/0
1:*,
18:u:Tok-1 X=%x[ 0,0],
18:u:tok-1 X=%x[ 0,1],
18:u:tok-1LL=%X[-2,0],
18:u:tok-1 L=%X[-1,0],
18:u:tok-1 R=%X[ 1,0],
18:u:tok-1RR=%X[ 2,0],
27:u:tok-2 L=%X[-1,0]/%X[ 0,0],
27:u:tok-2 R=%X[ 0,0]/%X[ 1,0],
18:*:Fst-1 X=%x[ 0,2],
18:u:Fst-1 R=%x[ 1,2],
27:u:Fst-2 X=%x[ 0,2]/%x[ 0,4],
27:u:Fst-2 R=%x[ 1,2]/%x[ 1,4],
18:*:Lst-1 L=%x[-1,3],
18:u:Lst-1 X=%x[ 0,3],
27:u:Lst-2 L=%x[-1,3]/%x[-1,6],
27:u:Lst-2 X=%x[ 0,3]/%x[ 0,6],
18:u:Pre-1 X=%x[ 0,4],
18:u:Pre-2 X=%x[ 0,5],
18:u:Pre-2 R=%x[ 1,5],
18:u:Suf-1 X=%x[ 0,6],
18:u:Suf-2 L=%x[-1,7],
18:u:Suf-2 X=%x[ 0,7],
18:u:Cap-1 L=%x[-1,8],
18:u:Cap-1 X=%x[ 0,8],
18:u:Cap-1 R=%x[ 1,8],
27:u:Cap-2 L=%x[-1,8]/%x[ 0,8],
27:u:Cap-2 R=%x[ 0,8]/%x[ 1,8],
28:u:Cap-3 L=%x[-1,18]/%x[ 0,8],
18:*:Num-1 L=%x[-1,9],
18:*:Num-1 X=%x[ 0,9],
18:u:Num-1 R=%x[ 1,9],
28:u:Num-2 R=%x[ 0,9]/%x[ 0,17],
28:u:Num-2 R=%x[ 0,9]/%x[ 0,18],
19:u:Nme-1 X=%x[ 0,10],
19:u:Loc-1 X=%x[ 0,11],
19:u:Pub-1 X=%x[ 0,12],
19:u:Jnl-1 X=%x[ 0,13],
19:u:Key-1 L=%x[-1,14],
19:u:Key-1 X=%x[ 0,14],
19:u:Key-1 R=%x[ 1,14],
28:u:Key-2 X=%x[ 0,14]/%x[ 0,8],
29:u:Key-3 L=%x[-1,18]/%x[ 0,14],
29:u:Key-3 x=%x[ 0,14]/%x[ 0,18],
19:u:Pos-1 X=%x[ 0,15],
29:u:Pos-2 L=%x[-1,15]/%x[ 0,15],
29:u:Pos-2 R=%x[ 0,15]/%x[ 1,15],
19:u:Pct-1 L=%x[-1,16],
19:u:Pct-1 X=%x[ 0,16],
19:u:Pct-1 R=%x[ 1,16],
19:u:Brk-1 L=%x[-1,17],
19:u:Brk-1 X=%x[ 0,17],
19:u:Brk-1 R=%x[ 1,17],
19:*:Tmn-1 L=%x[-1,18],
19:u:Tmn-1 X=%x[ 0,18],
19:u:Tmn-1 R=%x[ 1,18],
29:u:Tmn-2 L=%x[-1,14]/%x[ 0,18],
29:u:Tmn-2 R=%x[ 0,18]/%x[ 1,14],
28:u:Tmn-3 X=%x[ 0,18]/%x[ 0,6],
28:u:Tmn-4 R=%x[ 0,18]/%x[ 1,8],
19:u:Id--1 X=%x[ 0,19],
#qrk#9
6:author,
5:title,
4:date,
9:publisher,
15:container-title,
6:volume,
5:issue,
5:pages,
7:journal,
#qrk#1255
1:*,
14:u:tok-1LL=_x-2,
14:u:tok-1 L=_x-1,
12:u:tok-1RR=of,
12:*:Fst-1 X=Lu,
12:u:Fst-1 R=Lu,
14:u:Fst-2 X=Lu/A,
14:u:Fst-2 R=Lu/O,
14:*:Lst-1 L=_x-1,
12:u:Lst-1 X=Ll,
19:u:Lst-2 L=_x-1/_x-1,
14:u:Lst-2 X=Ll/s,
11:u:Pre-1 X=A,
12:u:Pre-2 X=An,
11:u:Suf-1 X=s,
14:u:Suf-2 L=_x-1,
14:u:Cap-1 L=_x-1,
17:u:Cap-1 X=initial,
17:u:Cap-1 R=initial,
22:u:Cap-2 L=_x-1/initial,
25:u:Cap-2 R=initial/initial,
22:u:Cap-3 L=_x-1/initial,
14:*:Num-1 L=_x-1,
14:*:Num-1 X=none,
14:u:Num-1 R=none,
19:u:Num-2 R=none/none,
11:u:Nme-1 X=F,
11:u:Loc-1 X=F,
11:u:Pub-1 X=F,
11:u:Jnl-1 X=F,
14:u:Key-1 L=_x-1,
14:u:Key-1 X=none,
14:u:Key-1 R=none,
22:u:Key-2 X=none/initial,
19:u:Key-3 L=_x-1/none,
19:u:Key-3 x=none/none,
15:u:Pos-1 X=first,
20:u:Pos-2 L=_x-1/first,
14:u:Pct-1 L=_x-1,
14:u:Pct-1 X=none,
14:u:Pct-1 R=none,
14:u:Brk-1 L=_x-1,
14:u:Brk-1 X=none,
14:u:Brk-1 R=none,
14:*:Tmn-1 L=_x-1,
14:u:Tmn-1 X=none,
14:u:Tmn-1 R=none,
19:u:Tmn-2 L=_x-1/none,
19:u:Tmn-2 R=none/none,
16:u:Tmn-3 X=none/s,
22:u:Tmn-4 R=none/initial,
11:u:Id--1 X=F,
12:u:tok-1 R=of,
13:u:tok-1RR=the,
12:u:Fst-1 R=Ll,
14:u:Fst-2 X=Lu/O,
14:u:Fst-2 R=Ll/o,
12:*:Lst-1 L=Ll,
14:u:Lst-2 L=Ll/s,
14:u:Lst-2 X=Ll/e,
11:u:Pre-1 X=O,
12:u:Pre-2 R=of,
11:u:Suf-1 X=e,
12:u:Suf-2 L=us,
12:u:Suf-2 X=ce,
17:u:Cap-1 L=initial,
15:u:Cap-1 R=lower,
25:u:Cap-2 L=initial/initial,
23:u:Cap-2 R=initial/lower,
22:u:Cap-3 L=none/initial,
14:*:Num-1 L=none,
11:u:Pub-1 X=T,
11:u:Jnl-1 X=T,
14:u:Key-1 L=none,
19:u:Key-3 L=none/none,
14:u:Pct-1 L=none,
14:u:Brk-1 L=none,
14:*:Tmn-1 L=none,
19:u:Tmn-2 L=none/none,
16:u:Tmn-3 X=none/e,
20:u:Tmn-4 R=none/lower,
12:u:Tok-1 X=of,
12:u:tok-1 X=of,
13:u:tok-1 R=the,
12:*:Fst-1 X=Ll,
14:u:Fst-2 X=Ll/o,
14:u:Fst-2 R=Ll/t,
14:u:Lst-2 L=Ll/e,
14:u:Lst-2 X=Ll/f,
11:u:Pre-1 X=o,
12:u:Pre-2 X=of,
12:u:Pre-2 R=th,
11:u:Suf-1 X=f,
12:u:Suf-2 L=ce,
12:u:Suf-2 X=of,
15:u:Cap-1 X=lower,
23:u:Cap-2 L=initial/lower,
21:u:Cap-2 R=lower/lower,
20:u:Cap-3 L=none/lower,
20:u:Key-2 X=none/lower,
11:u:Pos-1 X=1,
13:u:Pos-2 R=1/1,
16:u:Tmn-3 X=none/f,
13:u:Tok-1 X=the,
13:u:tok-1 X=the,
12:u:tok-1 L=of,
14:u:Fst-2 X=Ll/t,
14:u:Fst-2 R=Lu/D,
14:u:Lst-2 L=Ll/f,
11:u:Pre-1 X=t,
12:u:Pre-2 X=th,
12:u:Pre-2 R=Di,
12:u:Suf-2 L=of,
12:u:Suf-2 X=he,
15:u:Cap-1 L=lower,
21:u:Cap-2 L=lower/lower,
23:u:Cap-2 R=lower/initial,
13:u:Pos-2 L=1/1,
13:u:Pos-2 R=1/2,
12:u:tok-1LL=of,
13:u:tok-1 L=the,
14:u:Fst-2 X=Lu/D,
14:u:Lst-2 X=Ll/r,
11:u:Pre-1 X=D,
12:u:Pre-2 X=Di,
11:u:Suf-1 X=r,
12:u:Suf-2 L=he,
12:u:Suf-2 X=or,
23:u:Cap-2 L=lower/initial,
11:u:Pos-1 X=2,
13:u:Pos-2 L=1/2,
13:u:Pos-2 R=2/2,
16:u:Tmn-3 X=none/r,
13:u:tok-1LL=the,
14:u:Fst-2 R=Lu/N,
14:u:Lst-2 L=Ll/r,
12:u:Pre-2 R=Na,
12:u:Suf-2 L=or,
13:u:Pos-2 L=2/2,
13:u:Pos-2 R=2/3,
14:u:Fst-2 X=Lu/N,
14:u:Fst-2 R=Lu/I,
14:u:Lst-2 X=Ll/l,
11:u:Pre-1 X=N,
12:u:Pre-2 X=Na,
12:u:Pre-2 R=In,
11:u:Suf-1 X=l,
12:u:Suf-2 X=al,
11:u:Pos-1 X=3,
13:u:Pos-2 L=2/3,
13:u:Pos-2 R=3/3,
15:u:Pct-1 R=other,
14:u:Tmn-1 R=weak,
16:u:Tmn-3 X=none/l,
22:u:tok-1 X=intelligence,
18:u:tok-1 L=national,
11:u:Fst-1 R=P,
14:u:Fst-2 X=Lu/I,
11:u:Lst-1 X=P,
14:u:Lst-2 L=Ll/l,
13:u:Lst-2 X=P/,,
11:u:Pre-1 X=I,
12:u:Pre-2 X=In,
11:u:Suf-1 X=,,
12:u:Suf-2 L=al,
15:u:Cap-1 R=other,
23:u:Cap-2 R=initial/other,
19:u:Num-2 R=none/weak,
19:u:Key-3 x=none/weak,
13:u:Pos-2 L=3/3,
13:u:Pos-2 R=3/4,
15:u:Pct-1 X=other,
16:u:Pct-1 R=hyphen,
14:u:Tmn-1 X=weak,
19:u:Tmn-2 L=none/weak,
19:u:Tmn-2 R=weak/none,
16:u:Tmn-3 X=weak/,,
23:u:tok-1 R=international,
11:*:Fst-1 X=P,
11:*:Lst-1 L=P,
13:u:Lst-2 L=P/,,
14:u:Lst-2 X=Ll/d,
11:u:Suf-1 X=d,
12:u:Suf-2 X=ed,
15:u:Cap-1 X=other,
23:u:Cap-2 L=initial/other,
23:u:Cap-2 R=other/initial,
20:u:Cap-3 L=weak/other,
20:u:Key-2 X=none/other,
19:u:Key-3 L=weak/none,
11:u:Pos-1 X=4,
13:u:Pos-2 L=3/4,
13:u:Pos-2 R=4/4,
15:u:Pct-1 L=other,
16:u:Pct-1 X=hyphen,
14:*:Tmn-1 L=weak,
16:u:Tmn-3 X=none/d,
23:u:Tok-1 X=International,
23:u:tok-1 X=international,
14:u:Lst-2 L=Ll/d,
12:u:Suf-2 L=ed,
15:u:Cap-1 L=other,
23:u:Cap-2 L=other/initial,
13:u:Pos-2 L=4/4,
13:u:Pos-2 R=4/5,
16:u:Pct-1 L=hyphen,
23:u:tok-1 L=international,
12:u:Pre-2 X=No,
11:u:Pos-1 X=5,
13:u:Pos-2 L=4/5,
13:u:Pos-2 R=5/5,
23:u:tok-1LL=international,
14:u:Fst-2 R=Lu/C,
14:u:Lst-2 X=Ll/y,
12:u:Pre-2 R=Co,
11:u:Suf-1 X=y,
12:u:Suf-2 X=ly,
13:u:Pos-2 L=5/5,
13:u:Pos-2 R=5/6,
16:u:Tmn-3 X=none/y,
12:u:Fst-1 R=Ps,
14:u:Fst-2 X=Lu/C,
14:u:Fst-2 R=Ps/(,
14:u:Lst-2 L=Ll/y,
11:u:Pre-1 X=C,
12:u:Pre-2 X=Co,
12:u:Pre-2 R=(2,
14:u:Num-1 R=year,
11:u:Pos-1 X=6,
13:u:Pos-2 L=5/6,
13:u:Pos-2 R=6/6,
16:u:Pct-1 R=period,
16:u:Brk-1 R=parens,
16:u:Tmn-1 R=strong,
20:u:Tmn-4 R=none/other,
12:*:Fst-1 X=Ps,
14:u:Fst-2 X=Ps/(,
14:u:Fst-2 R=Lu/U,
13:u:Lst-2 X=P/.,
11:u:Pre-1 X=(,
12:u:Pre-2 X=(2,
11:u:Suf-1 X=.,
12:u:Suf-2 X=).,
21:u:Cap-2 R=other/other,
20:u:Cap-3 L=none/other,
14:*:Num-1 X=year,
21:u:Num-2 R=year/parens,
21:u:Num-2 R=year/strong,
21:u:Key-3 x=none/strong,
13:u:Pos-2 L=6/6,
13:u:Pos-2 R=6/7,
16:u:Pct-1 X=period,
16:u:Brk-1 X=parens,
16:u:Tmn-1 X=strong,
21:u:Tmn-2 L=none/strong,
21:u:Tmn-2 R=strong/none,
18:u:Tmn-3 X=strong/.,
14:u:Fst-2 X=Lu/U,
13:u:Lst-2 L=P/.,
11:u:Pre-1 X=U,
12:u:Pre-2 X=US,
21:u:Cap-2 L=other/other,
14:*:Num-1 L=year,
21:u:Key-3 L=strong/none,
11:u:Pos-1 X=7,
13:u:Pos-2 L=6/7,
13:u:Pos-2 R=7/7,
16:u:Pct-1 L=period,
16:*:Tmn-1 L=strong,
13:u:Pos-2 L=7/7,
13:u:Pos-2 R=7/8,
11:u:Pos-1 X=8,
13:u:Pos-2 L=7/8,
13:u:Pos-2 R=8/8,
13:u:Pos-2 L=8/8,
13:u:Pos-2 R=8/9,
14:u:Fst-2 R=Lu/R,
12:u:Pre-2 R=Re,
21:u:Num-2 R=none/strong,
11:u:Pos-1 X=9,
13:u:Pos-2 L=8/9,
13:u:Pos-2 R=9/9,
24:u:Tmn-4 R=strong/initial,
16:u:Tok-1 X=Report,
16:u:tok-1 X=report,
14:u:tok-1RR=_x+1,
14:u:Fst-2 X=Lu/R,
14:u:Lst-2 X=Ll/t,
11:u:Pre-1 X=R,
12:u:Pre-2 X=Re,
11:u:Suf-1 X=t,
12:u:Suf-2 X=rt,
24:u:Cap-3 L=strong/initial,
16:u:Key-1 X=report,
14:u:Key-1 R=date,
24:u:Key-2 X=report/initial,
21:u:Key-3 x=report/none,
13:u:Pos-2 L=9/9,
16:u:Pos-2 R=9/last,
19:u:Tmn-2 R=none/date,
16:u:Tmn-3 X=none/t,
14:u:tok-1 R=_x+1,
14:u:tok-1RR=_x+2,
14:u:Fst-1 R=_x+1,
19:u:Fst-2 R=_x+1/_x+1,
14:u:Lst-2 L=Ll/t,
14:u:Pre-2 R=_x+1,
12:u:Suf-2 L=rt,
14:u:Cap-1 R=_x+1,
22:u:Cap-2 R=initial/_x+1,
14:u:Num-1 R=_x+1,
14:u:Key-1 X=date,
14:u:Key-1 R=_x+1,
22:u:Key-2 X=date/initial,
19:u:Key-3 L=none/date,
14:u:Pos-1 X=last,
16:u:Pos-2 L=9/last,
19:u:Pos-2 R=last/_x+1,
14:u:Pct-1 R=_x+1,
14:u:Brk-1 R=_x+1,
14:u:Tmn-1 R=_x+1,
17:u:Pos-2 R=first/1,
17:u:tok-1RR=chinese,
14:u:Fst-2 R=Lu/F,
14:u:Lst-2 X=Ll/a,
12:u:Pre-2 R=Fr,
11:u:Suf-1 X=a,
16:u:Tmn-3 X=none/a,
17:u:tok-1 R=chinese,
18:u:tok-1RR=security,
14:u:Fst-2 X=Lu/F,
14:u:Lst-2 L=Ll/a,
14:u:Lst-2 X=Ll/m,
11:u:Pre-1 X=F,
12:u:Pre-2 R=Ch,
11:u:Suf-1 X=m,
11:u:Nme-1 X=T,
16:u:Tmn-3 X=none/m,
17:u:Tok-1 X=Chinese,
17:u:tok-1 X=chinese,
14:u:Fst-2 R=Lu/S,
12:u:Pre-2 X=Ch,
12:u:Pre-2 R=Se,
12:u:Suf-2 X=se,
18:u:Tok-1 X=Security,
18:u:tok-1 X=security,
14:u:Fst-2 X=Lu/S,
11:u:Pre-1 X=S,
12:u:Pre-2 X=Se,
12:u:Suf-2 L=se,
12:u:Suf-2 X=ty,
12:u:Suf-2 L=ty,
12:u:Suf-2 X=es,
18:u:tok-1LL=security,
14:u:Fst-2 R=Ll/i,
12:u:Suf-2 L=es,
12:u:tok-1RR=to,
14:u:Fst-2 X=Ll/i,
14:u:Fst-2 R=Lu/L,
14:u:Lst-2 X=Ll/n,
11:u:Pre-1 X=i,
12:u:Pre-2 R=Li,
11:u:Suf-1 X=n,
12:u:Suf-2 X=on,
20:u:Num-2 R=roman/none,
16:u:Tmn-3 X=none/n,
14:u:Lst-2 L=Ll/n,
12:u:Pre-2 X=Li,
12:u:Suf-2 L=on,
15:*:Num-1 L=roman,
14:u:Fst-2 R=Lu/P,
14:u:Lst-2 X=Ll/o,
12:u:Pre-2 R=Pr,
11:u:Suf-1 X=o,
16:u:Tmn-3 X=none/o,
12:u:tok-1 L=to,
14:u:Fst-2 X=Lu/P,
14:u:Lst-2 L=Ll/o,
11:u:Pre-1 X=P,
12:u:Pre-2 X=Pr,
12:u:Suf-2 L=to,
14:u:Fst-2 R=Lu/A,
14:u:Cap-1 R=caps,
22:u:Cap-2 R=initial/caps,
19:u:Tmn-4 R=none/caps,
12:u:Lst-1 X=Lu,
14:u:Cap-1 X=caps,
22:u:Cap-2 L=initial/caps,
22:u:Cap-2 R=caps/initial,
19:u:Cap-3 L=none/caps,
11:u:Loc-1 X=T,
19:u:Key-2 X=none/caps,
12:*:Lst-1 L=Lu,
12:u:Pre-2 X=Ca,
12:u:Pre-2 R=Un,
12:u:Suf-2 X=ns,
14:u:Cap-1 L=caps,
22:u:Cap-2 L=caps/initial,
11:u:Fst-1 R=N,
12:u:Suf-2 L=ns,
12:u:Suf-2 X=it,
16:u:Num-1 R=double,
11:*:Fst-1 X=N,
11:u:Lst-1 X=N,
13:u:Lst-2 X=N/2,
11:u:Suf-1 X=2,
16:*:Num-1 X=double,
21:u:Num-2 R=double/none,
16:u:Tmn-3 X=none/2,
11:*:Lst-1 L=N,
13:u:Lst-2 L=N/2,
20:u:Cap-2 R=other/_x+1,
16:*:Num-1 L=double,
12:u:Pre-2 X=Ad,
24:u:Cap-2 R=initial/single,
14:u:Fst-2 R=Lu/T,
12:u:Pre-2 R=Th,
16:u:Cap-1 X=single,
24:u:Cap-2 L=initial/single,
24:u:Cap-2 R=single/initial,
21:u:Key-2 X=none/single,
13:u:Tok-1 X=The,
14:u:Fst-2 X=Lu/T,
11:u:Pre-1 X=T,
12:u:Pre-2 X=Th,
16:u:Cap-1 L=single,
24:u:Cap-2 L=single/initial,
14:u:Fst-2 R=Lu/W,
12:u:Pre-2 X=Ru,
12:u:Pre-2 R=Wa,
12:u:Suf-2 X=an,
14:u:Fst-2 X=Lu/W,
11:u:Pre-1 X=W,
12:u:Suf-2 L=an,
19:u:tok-1RR=strategic,
12:u:Pre-2 R=De,
15:u:Pct-1 R=colon,
18:u:Tmn-1 R=moderate,
19:u:tok-1 R=strategic,
13:u:Lst-2 X=P/:,
12:u:Pre-2 R=St,
11:u:Suf-1 X=:,
12:u:Suf-2 X=e:,
23:u:Num-2 R=none/moderate,
23:u:Key-3 x=none/moderate,
15:u:Pct-1 X=colon,
18:u:Tmn-1 X=moderate,
23:u:Tmn-2 L=none/moderate,
23:u:Tmn-2 R=moderate/none,
20:u:Tmn-3 X=moderate/:,
26:u:Tmn-4 R=moderate/initial,
11:u:Id--1 X=T,
19:u:tok-1 X=strategic,
13:u:Lst-2 L=P/:,
14:u:Lst-2 X=Ll/c,
12:u:Pre-2 X=St,
11:u:Suf-1 X=c,
12:u:Suf-2 X=ic,
26:u:Cap-3 L=moderate/initial,
23:u:Key-3 L=moderate/none,
15:u:Pct-1 L=colon,
18:*:Tmn-1 L=moderate,
16:u:Tmn-3 X=none/c,
19:u:tok-1 L=strategic,
13:u:tok-1RR=and,
14:u:Lst-2 L=Ll/c,
12:u:Suf-2 L=ic,
22:u:Tmn-4 R=weak/initial,
13:u:tok-1 R=and,
14:u:Fst-2 R=Ll/a,
12:u:Pre-2 R=an,
12:u:Suf-2 X=n,,
22:u:Cap-3 L=weak/initial,
13:u:Key-1 R=and,
18:u:Tmn-2 R=weak/and,
20:u:Tmn-4 R=weak/lower,
13:u:Tok-1 X=and,
13:u:tok-1 X=and,
14:u:tok-1RR=2023,
14:u:Fst-2 X=Ll/a,
11:u:Pre-1 X=a,
12:u:Pre-2 X=an,
12:u:Suf-2 L=n,,
12:u:Suf-2 X=nd,
20:u:Cap-3 L=weak/lower,
13:u:Key-1 X=and,
19:u:Key-2 X=and/lower,
18:u:Key-3 L=weak/and,
18:u:Key-3 x=and/none,
13:u:tok-1 X=war,
13:u:tok-1 L=and,
13:u:Fst-2 R=N/2,
13:u:Lst-2 X=P/',
12:u:Pre-2 R=20,
11:u:Suf-1 X=',
12:u:Suf-2 L=nd,
13:u:Key-1 L=and,
20:u:Tmn-3 X=moderate/',
13:u:tok-1LL=and,
13:u:Fst-2 X=N/2,
13:u:Lst-2 L=P/',
13:u:Lst-2 X=N/3,
11:u:Pre-1 X=2,
12:u:Pre-2 X=20,
11:u:Suf-1 X=3,
19:u:Num-2 R=year/none,
16:u:Tmn-3 X=none/3,
14:u:tok-1 L=2023,
13:u:Lst-2 L=N/3,
12:u:Suf-2 L=23,
20:u:tok-1RR=university,
12:u:Suf-2 X=rd,
15:u:tok-1 R=press,
12:u:Suf-2 L=rd,
12:u:Suf-2 X=ss,
19:u:Tmn-2 R=none/_x+1,
19:u:Tmn-4 R=none/_x+1,
14:u:Fst-2 R=Lu/E,
14:u:Fst-2 X=Lu/E,
11:u:Pre-1 X=E,
12:u:Pre-2 X=Ec,
18:u:tok-1 L=economic,
13:u:tok-1 R=new,
12:u:Pre-2 R=Ne,
12:u:Pre-2 X=Ne,
12:u:Suf-2 X=ew,
16:u:Pos-2 R=8/last,
16:u:Pos-2 L=8/last,
12:u:Pre-2 X=Be,
14:u:tok-1 R=2024,
12:u:Suf-2 X=nt,
14:u:Fst-2 R=Lu/M,
12:u:Pre-2 R=Ma,
12:u:Suf-2 L=nt,
18:u:tok-1 R=research,
14:u:Fst-2 X=Lu/M,
11:u:Pre-1 X=M,
12:u:Pre-2 X=Ma,
12:u:Suf-2 X=in,
18:u:Tok-1 X=Research,
18:u:tok-1 X=research,
14:u:Lst-2 X=Ll/h,
11:u:Suf-1 X=h,
12:u:Suf-2 L=in,
12:u:Suf-2 X=ch,
16:u:Tmn-3 X=none/h,
12:u:Suf-2 L=s,,
12:u:Pre-2 X=Do,
12:u:Pre-2 R=An,
14:u:Fst-2 R=Lu/K,
14:u:Fst-2 X=Lu/K,
11:u:Pre-1 X=K,
13:u:Fst-2 R=N/1,
12:u:Pre-2 R=19,
13:u:Fst-2 X=N/1,
11:u:Pre-1 X=1,
12:u:Pre-2 X=19,
12:u:Pre-2 R=Po,
15:u:tok-1 X=power,
12:u:Pre-2 X=Po,
19:u:tok-1RR=deterring,
12:u:Pre-2 X=Bl,
19:u:tok-1 R=deterring,
19:u:Tok-1 X=Deterring,
19:u:tok-1 X=deterring,
15:u:tok-1 R=cyber,
14:u:Lst-2 X=Ll/g,
12:u:Pre-2 R=Cy,
11:u:Suf-1 X=g,
12:u:Suf-2 X=ng,
16:u:Tmn-3 X=none/g,
19:u:tok-1 L=deterring,
14:u:Lst-2 L=Ll/g,
12:u:Pre-2 X=Cy,
12:u:Suf-2 L=ng,
12:u:Suf-2 X=er,
15:u:tok-1 L=cyber,
12:u:Suf-2 L=er,
15:u:tok-1LL=cyber,
12:u:Pre-2 X=Ex,
12:u:Suf-2 X=em,
12:u:Pre-2 R=At,
21:u:tok-1 X=attribution,
16:u:Num-1 R=single,
11:u:Tok-1 X=1,
11:u:tok-1 X=1,
13:u:Lst-2 X=N/1,
11:u:Pre-2 X=1,
11:u:Suf-1 X=1,
11:u:Suf-2 X=1,
16:*:Num-1 X=single,
15:u:Num-1 R=range,
21:u:Num-2 R=single/none,
16:u:Tmn-3 X=none/1,
13:u:Lst-2 L=N/1,
12:u:Pre-2 X=13,
16:*:Num-1 L=single,
15:*:Num-1 X=range,
20:u:Num-2 R=range/none,
11:u:tok-1LL=1,
13:u:Lst-2 L=N/8,
15:*:Num-1 L=range,
14:u:Fst-2 R=Lu/J,
14:u:Fst-2 X=Lu/J,
11:u:Pre-1 X=J,
19:u:tok-1RR=political,
19:u:tok-1 R=political,
19:u:tok-1 X=political,
14:u:Fst-2 R=Ll/e,
14:u:Fst-2 X=Ll/e,
11:u:Pre-1 X=e,
19:u:tok-1LL=political,
12:u:Pre-2 R=in,
12:u:Pre-2 X=in,
18:u:Tmn-2 L=and/none,
17:u:tok-1 R=studies,
13:u:Lst-2 X=N/9,
11:u:Suf-1 X=9,
16:u:Tmn-3 X=none/9,
12:u:tok-1RR=in,
12:u:tok-1 R=in,
12:u:Key-1 R=in,
17:u:Tmn-2 R=none/in,
12:u:Tok-1 X=in,
12:u:tok-1 X=in,
12:u:Key-1 X=in,
18:u:Key-2 X=in/lower,
17:u:Key-3 L=none/in,
17:u:Key-3 x=in/none,
20:u:tok-1 X=cyberspace,
12:u:tok-1 L=in,
12:u:Key-1 L=in,
12:u:tok-1LL=in,
13:u:Lst-2 X=N/6,
11:u:Suf-1 X=6,
16:u:Tmn-3 X=none/6,
13:u:Fst-2 X=N/3,
11:u:Pre-1 X=3,
14:u:tok-1 R=2017,
13:u:Lst-2 X=N/7,
11:u:Suf-1 X=7,
16:u:Tmn-3 X=none/7,
17:u:tok-1RR=foreign,
17:u:tok-1 R=foreign,
12:u:Pre-2 R=Fo,
17:u:Tok-1 X=Foreign,
17:u:tok-1 X=foreign,
12:u:Pre-2 X=Fo,
12:u:Suf-2 X=gn,
22:u:Tok-1 X=Intelligence,
14:u:Fst-2 X=Lu/H,
11:u:Pre-1 X=H,
12:u:Suf-2 X=rs,
18:u:Tmn-2 R=none/and,
18:u:Key-3 L=none/and,
12:u:Pre-2 X=Pl,
16:u:tok-2 R=in/the,
16:u:tok-2 L=in/the,
20:u:Cap-2 R=lower/caps,
17:u:Tmn-2 L=in/none,
17:u:tok-1RR=unknown,
13:u:Lst-2 X=P/?,
11:u:Suf-1 X=?,
16:u:Tmn-3 X=weak/?,
13:u:Lst-2 L=P/?,
12:u:tok-1RR=on,
12:u:tok-1 R=on,
12:u:Pre-2 X=Pe,
12:u:Pre-2 R=on,
12:u:Tok-1 X=on,
12:u:tok-1 X=on,
12:u:Pre-2 X=on,
12:u:tok-1 L=on,
12:u:tok-1LL=on,
20:u:tok-1 L=cyberspace,
12:u:Pre-2 R=Al,
12:u:Suf-2 L=E.,
12:u:Suf-2 X=ne,
12:u:Pre-2 R=Sy,
12:u:Pre-2 X=Sy,
16:u:tok-1RR=review,
16:u:tok-1 R=review,
17:u:Key-1 R=journal,
22:u:Tmn-2 R=none/journal,
17:u:tok-1 L=defense,
17:u:Key-1 X=journal,
25:u:Key-2 X=journal/initial,
22:u:Key-3 L=none/journal,
22:u:Key-3 x=journal/none,
11:u:Tok-1 X=7,
11:u:tok-1 X=7,
11:u:Pre-2 X=7,
11:u:Suf-2 X=7,
17:u:Key-1 L=journal,
22:u:Tmn-2 L=journal/none,
14:u:tok-1RR=2022,
11:u:tok-1LL=7,
14:u:Fst-2 R=Ll/w,
15:u:Tok-1 X=Power,
12:u:Pre-2 X=Tr,
14:u:Fst-2 X=Ll/f,
11:u:Pre-1 X=f,
12:u:Suf-2 X=re,
21:u:Cap-2 R=lower/other,
12:u:Suf-2 X=ts,
12:u:Suf-2 L=ts,
13:u:Fst-2 R=P/*,
13:u:Fst-2 X=P/*,
11:u:Pre-1 X=*,
12:u:Pre-2 R=La,
12:u:Suf-2 X=ia,
12:u:Suf-2 L=ia,
16:*:Num-1 X=triple,
21:u:Num-2 R=triple/none,
16:*:Num-1 L=triple,
13:u:tok-1RR=for,
13:u:tok-1 R=for,
13:u:Tok-1 X=for,
14:u:Lst-2 L=Ll/h,
13:u:tok-1 L=for,
13:u:tok-1LL=for,
21:u:Tok-1 X=Information,
21:u:tok-1LL=information,
14:u:Fst-2 R=Lu/B,
11:u:tok-1 X=a,
11:u:tok-1 L=a,
11:u:tok-1LL=a,
14:u:Fst-2 R=Lu/Y,
12:u:Suf-2 X=le,
12:u:Pre-2 X=Fa,
12:u:Suf-2 X=cy,
14:u:tok-1LL=over,
14:u:tok-1RR=2019,
12:u:Pre-2 X=Ho,
12:u:Suf-2 X=ow,
12:u:Suf-2 X=ks,
12:u:Suf-2 L=ks,
15:u:Tok-1 X=State,
15:u:tok-1 X=state,
15:u:tok-1 L=state,
16:u:tok-1RR=policy,
16:u:tok-1 R=policy,
16:u:tok-1 L=policy,
16:u:tok-1LL=policy,
12:u:Suf-2 L=il,
12:u:Pre-2 R=Go,
14:u:Lst-2 X=Lu/S,
11:u:Suf-1 X=S,
16:u:Tmn-3 X=none/S,
12:u:Suf-2 X=s:,
14:u:tok-1RR=2015,
13:u:Lst-2 X=N/5,
11:u:Suf-1 X=5,
16:u:Tmn-3 X=none/5,
19:u:Tok-1 X=Political,
14:u:Lst-2 X=Lu/A,
11:u:Suf-1 X=A,
16:u:Tmn-3 X=none/A,
14:u:Lst-2 L=Lu/A,
11:u:tok-1 X=j,
12:u:Pre-2 R=Ar,
16:u:tok-1 X=france,
12:u:Pre-2 R=Af,
19:u:tok-1 R=diplomacy,
19:u:Tok-1 X=Diplomacy,
19:u:tok-1 X=diplomacy,
20:u:Cap-2 R=other/caps,
20:u:Cap-2 L=other/caps,
12:u:Suf-2 L=ls,
14:u:tok-1RR=2012,
14:u:Lst-2 L=Ll/p,
12:u:Suf-2 L=de,
12:u:Pre-2 X=Ke,
12:u:Pre-2 R=Me,
12:u:Suf-2 L=ry,
12:u:Suf-2 X=13,
17:u:tok-1 X=keohane,
17:u:tok-1RR=journal,
17:u:tok-1 R=journal,
12:u:Pre-2 R=Jo,
17:u:Tok-1 X=Journal,
17:u:tok-1 X=journal,
20:u:tok-2 R=journal/of,
12:u:Pre-2 X=Jo,
17:u:tok-1 L=journal,
20:u:tok-2 L=journal/of,
17:u:tok-1LL=journal,
14:u:Lst-2 X=Ll/k,
11:u:Suf-1 X=k,
16:u:Tmn-3 X=none/k,
14:u:Lst-2 L=Ll/k,
12:u:Suf-2 L=rk,
12:u:Pre-2 R=Eu,
12:u:Pre-2 X=Eu,
14:u:Tok-1 X=2016,
14:u:tok-1 X=2016,
12:u:Suf-2 X=16,
16:u:Tok-1 X=Oxford,
16:u:tok-1 X=oxford,
12:u:Pre-2 X=Ox,
14:u:tok-1LL=2016,
16:u:tok-1LL=oxford,
14:u:Fst-2 R=Ll/d,
12:u:tok-1 L=by,
14:u:Fst-2 X=Ll/d,
11:u:Pre-1 X=d,
12:u:Suf-2 L=by,
12:u:tok-1LL=by,
23:u:tok-1 X=cybersecurity,
11:u:tok-1RR=6,
22:u:tok-1 X=contemporary,
14:u:tok-1RR=2018,
13:u:Pos-2 L=1/3,
12:u:Pre-2 X=Mu,
12:u:Pre-2 R=Op,
12:u:Pre-2 X=Op,
13:u:tok-1 R=war,
12:u:Suf-2 X=ar,
13:u:tok-1 L=war,
12:u:Suf-2 L=ar,
12:u:Suf-2 L=ey,
16:u:tok-1LL=online,
14:u:tok-2 R=of/a,
14:u:tok-2 L=of/a,
12:u:Pre-2 X=Sc,
12:u:Tok-1 X=US,
12:u:tok-1 X=us,
12:u:Suf-2 X=US,
20:u:Cap-2 R=caps/lower,
20:u:Cap-2 L=caps/lower,
11:u:Tok-1 X=A,
11:u:Pre-2 X=A,
11:u:Suf-2 X=A,
22:u:Cap-2 R=single/other,
21:u:tok-2 R=and/chinese,
21:u:tok-2 L=and/chinese,
21:u:Cap-3 L=none/single,
12:u:Pre-2 R=Si,
12:u:Pre-2 R=Ce,
12:u:Pre-2 X=Ce,
14:u:tok-1 L=2021,
15:u:tok-1RR=after,
17:*:Num-1 X=numeric,
22:u:Num-2 R=numeric/none,
17:*:Num-1 L=numeric,
12:u:Suf-2 X=st,
19:u:tok-1 X=stability,
12:u:Suf-2 L=cs,
12:u:Tok-1 X=EU,
12:u:tok-1 X=eu,
15:u:tok-2 L=us/eu,
16:u:tok-2 R=eu/and,
14:u:Lst-2 X=Lu/U,
12:u:Pre-2 X=EU,
11:u:Suf-1 X=U,
12:u:Suf-2 X=EU,
16:u:Tmn-3 X=none/U,
12:u:tok-1 L=eu,
22:u:tok-1RR=approaches".,
16:u:tok-2 L=eu/and,
14:u:Lst-2 L=Lu/U,
12:u:Suf-2 L=EU,
12:u:tok-1LL=eu,
22:u:tok-1 R=approaches".,
30:u:tok-2 R=chinese/approaches".,
12:u:Pre-2 R=ap,
22:u:Tok-1 X=approaches".,
20:u:tok-1 X=approaches,
18:u:tok-1RR=affairs*,
30:u:tok-2 L=chinese/approaches".,
37:u:tok-2 R=approaches"./*international,
12:u:Pre-2 X=ap,
12:u:Suf-2 X=".,
14:u:Fst-2 X=Ll/r,
11:u:Pre-1 X=r,
18:u:tok-1 L=election,
12:u:Suf-2 L=ct,
12:u:Pre-2 X=Hi,
20:u:Tok-1 X=Washington,
20:u:tok-1 X=washington,
14:u:tok-1 R=post,
25:u:tok-2 R=washington/post,
16:u:Tok-1 X=Advent,
16:u:tok-1 X=advent,
18:u:tok-1LL=arquilla,
15:u:tok-1 L=j.the,
14:u:tok-1 R=rand,
21:u:tok-1RR=corporation,
22:u:tok-2 L=j.the/advent,
21:u:tok-2 R=advent/rand,
12:u:Pre-2 R=Ra,
12:u:Pre-2 X=Ra,
12:u:Pre-2 R=Bl,
12:u:Suf-2 X=ck,
27:u:tok-2 L=national/security,
11:u:tok-1RR=j,
13:u:tok-1RR=int,
11:u:Tok-1 X=J,
13:u:tok-1 R=int,
14:u:Lst-2 X=Lu/J,
11:u:Pre-2 X=J,
11:u:Suf-1 X=J,
11:u:Suf-2 X=J,
16:u:Tmn-3 X=none/J,
13:u:Tok-1 X=Int,
13:u:tok-1 X=int,
11:u:tok-1 L=j,
14:u:tok-1 R=stud,
14:u:Lst-2 L=Lu/J,
11:u:Suf-2 L=J,
12:u:Pre-2 R=32,
12:u:Pre-2 R=Wo,
12:u:Pre-2 X=Wo,
18:u:tok-2 R=of/cyber,
18:u:tok-2 L=of/cyber,
22:u:Cap-2 L=lower/single,
12:u:Suf-2 X=ur,
21:u:Num-2 R=volume/none,
12:u:tok-1LL=35,
16:*:Num-1 L=volume,
18:u:tok-1RR=conflict,
18:u:tok-1 L=conflict,
18:u:tok-1LL=conflict,
16:u:tok-1 R=system,
27:u:tok-2 L=the/international,
16:u:Tok-1 X=System,
16:u:tok-1 X=system,
13:u:tok-1RR=sec,
30:u:tok-2 L=international/system,
20:u:tok-2 R=system/int,
16:u:tok-1LL=system,
15:u:tok-1LL=voter,
18:u:tok-1LL=research,
17:u:Num-1 R=ordinal,
17:*:Num-1 X=ordinal,
22:u:Num-2 R=ordinal/none,
20:u:tok-1 R=conference,
34:u:tok-2 R=international/conference,
21:u:Key-1 X=proceedings,
29:u:Key-2 X=proceedings/initial,
26:u:Key-3 L=none/proceedings,
26:u:Key-3 x=proceedings/none,
21:u:Key-1 L=proceedings,
26:u:Tmn-2 L=proceedings/none,
23:u:Brk-1 L=opening-paren,
14:u:Tok-1 X=IEEE,
14:u:tok-1 X=ieee,
12:u:Pre-2 X=IE,
12:u:Suf-2 X=EE,
22:u:tok-1 L=manipulation,
18:u:tok-1 R=handbook,
29:u:tok-2 L=manipulation/oxford,
25:u:tok-2 R=oxford/handbook,
18:u:Tok-1 X=Handbook,
18:u:tok-1 X=handbook,
25:u:tok-2 L=oxford/handbook,
21:u:tok-2 R=handbook/of,
18:u:tok-1 L=handbook,
21:u:tok-2 L=handbook/of,
12:u:Suf-2 L=ok,
18:u:tok-1LL=handbook,
12:u:Pre-2 R=Ka,
12:u:Pre-2 X=Ka,
17:u:Tok-1 X=Options,
17:u:tok-1 X=options,
16:u:tok-1 L=threat,
22:u:tok-2 L=and/security,
12:u:Suf-2 L=ma,
14:u:tok-1RR=york,
14:u:tok-1 R=york,
15:u:tok-1RR=times,
18:u:tok-2 R=new/york,
12:u:Pre-2 R=Yo,
15:u:tok-1RR=polit,
15:u:Tok-1 X=Polit,
15:u:tok-1 X=polit,
19:u:Key-3 x=date/none,
14:u:Key-1 L=date,
18:u:tok-1RR=american,
18:u:tok-1 R=american,
12:u:Pre-2 R=Am,
12:u:Pre-2 X=Am,
23:u:tok-1RR=cybersecurity,
23:u:tok-1 R=cybersecurity,
26:u:tok-2 R=of/cybersecurity,
23:u:Tok-1 X=Cybersecurity,
26:u:tok-2 L=of/cybersecurity,
23:u:tok-1LL=cybersecurity,
16:u:tok-1 L=header,
24:u:tok-2 L=header/journal,
16:u:tok-1LL=header,
31:u:tok-2 R=cybersecurity/journal,
17:u:Tok-1 X=History,
17:u:tok-1 X=history,
17:u:tok-1 L=history,
14:u:Lst-2 L=Lu/E,
16:u:tok-1 R=voting,
16:u:tok-1 L=voting,
16:u:tok-1LL=voting,
12:u:Suf-2 L=ss,
15:u:tok-1 L=peace,
20:u:tok-1 R=government,
18:u:tok-1 R=politics,
12:u:tok-1RR=16,
13:u:tok-1RR=soc,
17:u:tok-1RR=science,
17:u:Tok-1 X=Science,
17:u:tok-1 X=science,
12:u:Suf-2 X=gs,
12:u:Suf-2 L=gs,
12:u:Pre-2 X=Au,
15:u:Tok-1 X=Trump,
15:u:tok-1 X=trump,
15:u:tok-1LL=trump,
18:u:Tok-1 X=Resource,
18:u:tok-1 X=resource,
16:u:tok-1LL=agenda,
18:u:tok-1 L=building,
27:u:tok-2 L=building/resource,
25:u:tok-2 R=resource/centre,
14:u:tok-1RR=news,
14:u:tok-1 R=news,
21:u:tok-1 R=proceedings,
21:u:Tok-1 X=Proceedings,
21:u:tok-1 X=proceedings,
24:u:tok-2 R=proceedings/of,
21:u:tok-1 L=proceedings,
24:u:tok-2 L=proceedings/of,
21:u:tok-1LL=proceedings,
20:u:Tok-1 X=Associated,
20:u:tok-1 X=associated,
26:u:tok-2 R=associated/press,
17:u:tok-1RR=(2016).,
12:u:Pre-2 R=Fe,
18:u:tok-2 R=the/2016,
18:u:tok-2 L=the/2016,
22:u:tok-1RR=presidential,
17:u:tok-2 R=2016/us,
22:u:tok-1LL=presidential,
19:u:tok-1 R=marketing,
28:u:tok-2 L=election/political,
29:u:tok-2 R=political/marketing,
19:u:Tok-1 X=Marketing,
19:u:tok-1 X=marketing,
29:u:tok-2 L=political/marketing,
22:u:tok-2 R=marketing/in,
19:u:tok-1 L=marketing,
22:u:tok-2 L=marketing/in,
19:u:tok-1LL=marketing,
20:u:tok-1 L=discussion,
16:u:tok-1 R=11–7,
25:u:tok-2 L=discussion/2016,
21:u:tok-2 R=2016/11–7,
12:u:Pre-2 R=11,
18:u:tok-1RR=analysis,
18:u:tok-1 R=analysis,
14:u:Fst-2 X=Lu/Q,
11:u:Pre-1 X=Q,
12:u:Pre-2 R=we,
12:u:Pre-2 X=we,
17:u:tok-1RR=council,
17:u:tok-1 L=council,
29:u:tok-2 L=council/proceedings,
17:u:tok-1LL=council,
18:u:tok-1RR=workshop,
18:u:tok-1 R=workshop,
20:u:tok-2 R=a/workshop,
18:u:Tok-1 X=Workshop,
18:u:tok-1 X=workshop,
20:u:tok-2 L=a/workshop,
21:u:tok-2 R=workshop/on,
12:u:Suf-2 X=op,
18:u:tok-1 L=workshop,
23:u:tok-1RR=cyberattacks:,
21:u:tok-2 L=workshop/on,
22:u:tok-2 R=on/deterring,
12:u:Suf-2 L=op,
18:u:tok-1LL=workshop,
23:u:tok-1 R=cyberattacks:,
19:u:tok-1RR=informing,
22:u:tok-2 L=on/deterring,
33:u:tok-2 R=deterring/cyberattacks:,
23:u:Tok-1 X=Cyberattacks:,
19:u:tok-1 R=informing,
33:u:tok-2 L=deterring/cyberattacks:,
33:u:tok-2 R=cyberattacks:/informing,
12:u:Suf-2 X=en,
12:u:Suf-2 L=e?,
19:u:tok-1 L=terrorism,
12:u:Suf-2 X=lo,
23:u:Tok-1 X=Cyberpolitics,
23:u:tok-1 X=cyberpolitics,
15:u:tok-1LL=kello,
11:u:tok-1 L=l,
25:u:tok-2 L=l/cyberpolitics,
26:u:tok-2 R=cyberpolitics/in,
14:u:Lst-2 L=Lu/L,
11:u:Suf-2 L=L,
11:u:tok-1LL=l,
23:u:tok-1 L=cyberpolitics,
19:u:tok-1RR=relations,
26:u:tok-2 L=cyberpolitics/in,
26:u:tok-2 R=in/international,
12:u:Pre-2 R=Ju,
12:u:Pre-2 X=Ju,
17:u:Tok-1 X=Keohane,
13:u:tok-1 R=ro.,
24:u:tok-2 L=debate/keohane,
21:u:tok-2 R=keohane/ro.,
12:u:Pre-2 R=RO,
19:u:tok-1 L=self-help,
25:u:tok-2 L=self-help/world,
21:u:tok-2 R=world/polit,
12:u:Suf-2 L=lp,
16:u:Tok-1 X=Andres,
16:u:tok-1 X=andres,
12:u:Pre-2 X=Qu,
18:u:tok-1RR=military,
26:u:tok-2 L=peace/associated,
28:u:tok-2 R=political/analysis,
21:u:tok-1 L=experiments,
16:u:tok-1LL=beyond,
31:u:tok-2 L=experiments/political,
12:u:Pre-2 R=FO,
22:u:tok-1 R=contemporary,
22:u:Tok-1 X=Contemporary,
31:u:tok-2 R=contemporary/security,
18:u:Tok-1 X=Approach,
18:u:tok-1 X=approach,
12:u:Pre-2 X=Ap,
14:u:tok-1 L=mass,
17:u:tok-1 L=against,
11:u:Tok-1 X=8,
11:u:tok-1 X=8,
11:u:Pre-2 X=8,
11:u:Suf-2 X=8,
11:u:tok-1 L=8,
11:u:Suf-2 L=8,
21:u:tok-1LL=cyberattack,
17:u:Tok-1 X=Albania,
17:u:tok-1 X=albania,
14:u:Tok-1 X=July,
14:u:tok-1 X=july,
15:u:tok-1 L=since,
19:u:tok-1 R=september,
20:u:tok-2 L=since/july,
18:u:tok-1RR=275–93,
13:u:tok-2 L=8/3,
13:u:tok-2 R=3/3,
16:u:Tok-1 X=August,
16:u:tok-1 X=august,
15:u:Tok-1 X=2016.,
20:u:tok-1LL=innovation,
17:u:tok-1 L=ccdcoe.,
15:u:tok-1 R="osce,
17:u:tok-1RR=expands,
23:u:tok-2 L=ccdcoe./2016.,
21:u:tok-2 R=2016./"osce,
12:u:Pre-2 R="O,
12:u:Suf-2 X=6.,
19:u:tok-1 R=operation,
19:u:Tok-1 X=Operation,
19:u:tok-1 X=operation,
15:u:Tok-1 X=March,
15:u:tok-1 X=march,
20:u:tok-2 L=2023/march,
11:u:tok-1RR=-,
21:u:Key-3 L=none/report,
15:u:Tok-1 X=Diplo,
15:u:tok-1 X=diplo,
16:u:tok-1LL=report,
14:u:tok-1 R=june,
17:u:tok-2 L=-/diplo,
20:u:tok-2 R=diplo/june,
12:u:Pre-2 R=*R,
16:u:Tok-1 X=France,
14:u:tok-1LL=best,
19:u:tok-1 L=practices,
26:u:tok-2 L=practices/france,
26:u:tok-2 R=france/diplomacy,
18:u:tok-1RR=atlantic,
20:u:tok-2 R=march/_x+1,
20:u:tok-1LL=ministers.,
21:u:tok-2 L=september/7,
16:u:tok-2 R=7/2022,
20:u:tok-1 L=multipolar,
26:u:tok-2 L=multipolar/world,
22:u:tok-2 R=world/centre,
17:u:tok-1RR=federal,
17:u:tok-1 R=federal,
17:u:tok-1 L=federal,
17:u:tok-1LL=federal,
18:u:tok-1 R=stiftung,
14:u:tok-1RR=neue,
24:u:tok-2 L=policy/options,
26:u:tok-2 R=options/stiftung,
25:u:tok-1LL=guerrero-saade,,
14:u:tok-1 L=juan,
14:u:tok-1 R=wave,
14:u:tok-1RR=your,
21:u:tok-2 L=juan/andres,
21:u:tok-2 R=andres/wave,
14:u:tok-1RR=open,
14:u:tok-1 L=open,
20:u:Tok-1 X=Subchapter,
20:u:tok-1 X=subchapter,
20:u:tok-1 L=(continued,
12:u:tok-1 R=b,,
31:u:tok-2 L=(continued/subchapter,
23:u:tok-2 R=subchapter/b,,
12:u:Pre-2 R=B,,
16:u:Tok-1 X=Market,
16:u:tok-1 X=market,
21:u:tok-2 L=open/market,
16:u:tok-1LL=board,,
20:u:tok-1 R=*resilient,
25:u:tok-2 L=defense/science,
28:u:tok-2 R=science/*resilient,
14:u:tok-1 R=fomc,
21:u:tok-2 R=market/fomc,
21:u:Tok-1 X=SecureList,,
20:u:tok-1 X=securelist,
14:u:tok-1 L=hood,
19:u:tok-1 R=kaspersky,
13:u:tok-1RR=lab,
26:u:tok-2 L=hood/securelist,,
31:u:tok-2 R=securelist,/kaspersky,
12:u:Suf-2 L=od,
19:u:Tok-1 X=Kaspersky,
19:u:tok-1 X=kaspersky,
14:u:tok-1LL=hood,
21:u:tok-1 L=securelist,,
13:u:tok-1 R=lab,
17:u:tok-1RR=website,
31:u:tok-2 L=securelist,/kaspersky,
23:u:tok-2 R=kaspersky/lab,
12:u:Suf-2 X=ky,
14:u:Lst-2 X=Ll/b,
11:u:Suf-1 X=b,
16:u:Tmn-3 X=none/b,
19:u:tok-1 L=stability,
17:u:tok-1RR=2014-11,
23:u:tok-2 L=stability/and,
19:u:tok-1LL=stability,
17:u:tok-1 R=2014-11,
26:u:tok-2 R=security/2014-11,
17:u:tok-1 L=signals,
13:u:tok-1 R=web,
14:u:tok-1RR=page,
30:u:tok-2 L=signals/intelligence,
26:u:tok-2 R=intelligence/web,
17:u:tok-1LL=novetta,
22:u:tok-1RR=blockbuster:,
25:u:tok-2 L=threat/research,
28:u:tok-2 R=research/operation,
0=3.154668e-02
1=5.056677e-02
2=-2.193055e-03
4=3.801748e-02
5=-1.214827e-03
6=-3.742423e-04
7=-8.084463e-04
8=-6.875498e-02
9=6.653670e-01
10=3.797184e-02
13=-3.888142e-01
18=-9.371493e-01
19=3.434207e-01
20=1.655413e-02
21=-1.441790e+00
22=-2.702242e-02
23=-1.107170e+00
24=-4.696747e-01
25=-1.097987e-01
26=-8.050263e-02
28=-1.131511e+00
29=3.037261e-01
30=5.360447e-01
31=-7.749653e-01
34=-3.152389e-01
37=-5.116698e-01
38=-7.926155e-02
39=8.743263e-01
40=-4.381666e-01
45=-4.494568e-01
46=-1.560925e+00
47=-1.436404e-02
48=-1.469266e+00
49=4.134223e-01
50=2.679370e-01
51=-6.806832e-01
52=-2.834803e-02
53=-9.525372e-02
55=-6.289515e-01
56=-1.210484e-01
57=-9.488441e-02
58=-8.392328e-01
59=9.410381e-01
60=3.875484e-01
67=-8.557306e-02
68=-4.353942e-01
69=8.798311e-01
70=2.970792e-01
74=3.146877e-01
79=3.542931e-02
82=-5.356159e-01
89=4.961210e-01
90=3.318617e-01
91=-8.268218e-02
99=3.318617e-01
100=-8.268218e-02
109=2.401842e-02
112=-7.421638e-02
116=1.169056e-01
117=1.378972e-01
118=8.445660e-03
119=-3.795549e-01
120=1.357571e-01
121=9.097577e-02
122=-1.754620e-03
125=-7.652860e-04
126=1.744864e+00
127=2.958648e-01
135=-2.451459e-01
136=1.876495e-01
139=3.780731e-04
145=-1.584275e-01
146=1.963800e-01
147=3.600414e-01
156=8.072430e-01
157=-9.720832e-02
164=-5.603244e-02
166=3.054969e-01
167=-4.875863e-01
176=1.915139e+00
186=1.243467e+00
206=1.266023e-01
207=1.643959e-01
208=3.237161e-03
210=7.951262e-02
211=2.776167e-02
212=-1.004312e-01
215=-3.338279e-04
216=1.247650e-01
217=-2.890251e-02
220=8.746785e-03
226=-7.086206e-04
229=4.463086e-05
234=3.318617e-01
235=-8.268218e-02
324=7.619100e-02
325=1.406260e-01
326=2.595423e-04
328=7.532176e-02
329=-9.238167e-02
332=9.278095e-02
333=3.318617e-01
334=-8.268218e-02
342=3.479931e-02
343=7.557948e-02
346=-4.508870e-02
351=1.247650e-01
352=-2.890251e-02
355=8.746785e-03
360=4.919835e-01
361=-1.042110e+00
369=3.479931e-02
370=7.557948e-02
373=-4.508870e-02
378=3.318617e-01
379=-8.268218e-02
387=3.318617e-01
388=-8.268218e-02
396=-6.201360e-04
397=3.687821e-04
398=1.540361e-03
400=1.062503e-01
401=-1.450959e-03
404=4.064082e-04
405=6.050273e-02
406=4.392728e-02
408=8.578071e-02
409=5.606573e-02
410=-3.026441e-01
414=1.575449e-01
415=-5.552999e-02
423=2.222804e-02
424=3.839404e-02
426=3.122305e-02
432=1.575449e-01
433=-5.552999e-02
441=3.318617e-01
442=-8.268218e-02
531=3.577899e-02
532=1.236017e-01
533=-1.728982e-01
534=8.950311e-02
535=1.368943e-01
536=-9.398184e-03
537=-1.418858e-02
539=8.203666e-03
540=6.282627e-01
541=1.723268e-01
544=-3.013924e-01
549=-2.892590e-01
550=3.253048e-01
551=-1.473061e-01
552=-5.059819e-01
553=-3.277958e-02
559=-6.277338e-01
560=3.367346e-02
561=4.049487e-01
562=-9.079778e-02
568=-4.608086e-01
570=8.753451e-01
571=-2.474528e-01
577=-1.561952e+00
578=-5.703299e-02
579=-5.079242e-01
580=6.160019e-01
581=-1.390512e+00
584=-1.660168e-01
586=-2.095315e-01
590=4.958943e-01
600=7.729907e-01
613=-4.060448e-01
620=6.649928e-01
621=6.241565e-02
622=2.186157e-01
624=2.851458e-02
625=3.799586e-02
626=-4.042820e-01
628=-3.146859e-02
629=1.046765e-02
630=-1.075783e-03
631=2.798882e-01
632=-3.160754e-01
633=1.724357e-01
634=1.926932e-01
635=-6.581409e-02
636=-1.660299e-01
637=-1.469977e+00
638=4.356062e-02
639=-2.069281e-01
640=9.909851e-02
641=-3.126370e-01
642=5.873915e-05
643=7.441570e-02
644=-1.153594e-02
646=-7.553722e-04
648=-9.349909e-02
649=7.828319e-02
650=-1.174464e-02
651=5.612723e-05
652=5.405845e-02
653=-6.400257e-04
654=-4.538791e-04
655=-1.237521e-03
656=-5.207355e-02
657=-1.352974e-01
658=1.654767e-01
659=1.948340e-03
660=-3.021510e-01
661=-4.374482e-02
664=-6.854343e-04
667=8.407537e-02
668=7.327823e-02
669=-3.186080e-01
670=-8.683707e-02
671=3.643228e-02
675=3.318617e-01
676=-8.268218e-02
684=4.147480e-02
685=7.870869e-02
686=-1.247511e-02
687=4.876315e-04
688=-1.094792e-02
690=-5.396804e-04
691=-5.065534e-04
692=-3.692970e-01
693=4.884152e-02
694=7.985523e-02
695=-2.529212e-02
696=-1.972617e-02
697=2.996622e-02
698=2.090271e-02
699=-3.472005e-04
700=-5.515644e-04
701=-5.365287e-01
703=5.291411e-02
704=-3.977471e-02
705=1.105145e-01
706=8.335438e-02
707=-2.555232e-03
711=3.318617e-01
712=-8.268218e-02
720=4.360261e-03
721=1.087303e-01
722=-1.844676e-03
723=3.102627e-02
724=-4.495905e-03
725=1.743270e-04
728=-1.716705e-02
729=3.318617e-01
730=-8.268218e-02
738=3.318617e-01
739=-8.268218e-02
747=3.318617e-01
748=-8.268218e-02
756=-7.961990e-03
757=1.584435e-01
758=1.060445e-01
759=-1.415081e-01
760=4.552331e-02
761=5.721541e-02
762=-6.037284e-04
763=-6.077747e-01
764=3.561700e-02
765=-1.896639e-02
766=1.037709e-01
767=-1.264994e-02
768=-2.091575e-03
769=1.260213e-01
770=-2.115153e-03
771=-1.744897e-01
772=2.740448e-01
773=1.049908e-02
774=3.318617e-01
775=-8.268218e-02
783=3.524775e-02
784=4.781635e-02
785=-3.424409e-02
787=4.157765e-02
788=-4.395685e-04
789=-4.653524e-04
791=-6.701653e-02
792=4.253773e-02
793=5.796994e-03
794=-2.234393e-02
795=-4.635350e-02
796=1.027349e-01
798=-4.327610e-06
800=-5.546014e-03
801=3.318617e-01
802=-8.268218e-02
891=1.214793e-03
892=8.478732e-02
893=1.569264e-02
894=-6.513338e-02
895=1.163998e-01
896=1.421162e-02
899=2.469425e-02
900=-5.559197e-03
901=1.163079e-01
902=-1.714267e-02
903=-3.618018e-02
904=1.269604e-01
905=3.430383e-02
908=-2.598240e-04
909=1.126156e-02
919=1.649810e-01
920=-5.203577e-03
921=-5.175779e-02
922=6.758431e-02
923=3.740123e-02
925=5.277446e-04
926=-6.538161e-02
927=3.479931e-02
928=7.557948e-02
931=-4.508870e-02
936=7.686841e-02
937=1.002125e-01
939=1.202471e-01
940=-9.031259e-04
941=-2.908533e-01
944=7.497539e-02
945=3.992708e-02
946=8.343897e-02
947=-1.387486e-03
948=-2.509678e-04
949=-1.112687e-03
950=-3.649097e-06
951=-4.167423e-04
952=-1.423414e-03
953=-6.585743e-02
955=-7.861253e-02
958=7.222883e-02
962=8.585772e-02
964=1.559450e-04
967=-1.158073e-03
972=-4.273955e-01
973=3.324624e-02
976=1.299693e-01
982=4.842179e-02
985=-5.757574e-02
991=-5.750948e-02
994=7.086467e-02
998=8.901962e-02
999=-1.587414e-01
1000=2.205410e-01
1001=-9.527692e-02
1002=-1.519697e-02
1003=8.061761e-02
1005=-1.200372e-02
1006=-2.646361e-01
1007=3.224316e-02
1008=1.172143e-01
1009=2.769947e-02
1018=2.651710e-01
1019=-2.020256e-02
1021=-4.084437e-02
1028=4.163897e-03
1036=-5.145068e-03
1038=3.624237e-01
1046=1.609907e-03
1048=2.991898e-01
1049=3.513356e-01
1052=-4.889508e-02
1068=2.145707e-01
1088=6.745462e-01
1089=-1.307541e+00
1090=-8.555042e-02
1093=5.197967e-01
1094=3.739762e-02
1099=4.196403e-02
1102=-1.316639e-03
1108=4.842179e-02
1111=-5.757574e-02
1117=-6.091159e-02
1120=7.210114e-02
1124=8.866362e-02
1126=4.196403e-02
1129=-1.316639e-03
1135=1.315439e+00
1143=3.723073e-02
1144=7.370549e-01
1147=-6.538829e-01
1153=-2.661298e-02
1155=2.315680e-02
1156=1.232677e-01
1157=1.077706e-01
1158=-8.818849e-01
1159=-1.608597e+00
1160=-2.639563e-01
1161=-4.879370e-01
1162=3.017018e-02
1165=1.324619e-01
1170=-6.829187e-03
1171=-3.228850e-03
1173=-1.089823e-03
1174=1.201300e-01
1175=-2.485453e-01
1178=-3.340782e-02
1179=-2.596354e-01
1180=-5.085501e-02
1183=1.214634e-01
1187=2.464267e-02
1188=-2.753844e-02
1189=8.304678e-03
1190=5.404134e-05
1191=1.376711e-02
1192=6.866670e-02
1193=-1.400092e-01
1194=-4.254096e-01
1196=8.211838e-02
1197=-5.012409e-02
1198=2.276009e-01
1199=-1.909365e-01
1200=3.160557e-05
1201=1.484723e-01
1203=-5.353078e-01
1206=1.571992e+00
1207=1.454609e-02
1210=-2.708067e-01
1215=-6.408499e-01
1216=3.428883e-01
1217=4.706196e-04
1218=-1.213639e-02
1219=-1.485670e-01
1220=-7.356295e-01
1221=-1.818749e-01
1223=-7.006025e-02
1227=-4.424268e-03
1234=-4.468265e-01
1235=-2.699138e-02
1236=1.377355e+00
1237=-2.605969e-01
1242=-1.674883e-01
1243=-2.072117e+00
1246=3.856724e-01
1247=3.325095e-01
1250=-6.649648e-02
1266=1.643328e-01
1279=-1.799307e-01
1286=6.905124e-01
1287=1.463787e-02
1288=-3.299340e-01
1290=2.177706e-01
1291=2.269703e-01
1296=-7.020706e-02
1297=1.960875e-02
1298=-4.059900e-01
1299=1.428904e-01
1300=1.528836e-01
1301=-6.288979e-01
1305=-2.021513e-01
1306=5.992212e-02
1307=-2.009698e-03
1309=4.742820e-02
1310=-4.381839e-03
1313=-2.908954e-01
1314=-2.259107e-01
1315=1.064065e-01
1316=1.458584e-03
1317=1.657312e-02
1318=5.315415e-03
1319=8.927883e-03
1320=-3.953041e-04
1322=-8.224698e-02
1323=-2.128697e-01
1324=1.643636e-01
1325=9.082827e-05
1326=-6.428641e-04
1327=6.246887e-02
1328=-3.770681e-04
1329=-1.353262e-01
1330=2.362360e-02
1331=1.551572e-02
1332=-1.845493e-01
1333=1.205027e-01
1335=-4.022796e-04
1336=5.259307e-02
1337=-2.315417e-03
1339=-5.813843e-02
1340=-6.195244e-02
1341=-2.497158e-01
1342=8.913996e-02
1343=5.096659e-02
1345=7.111232e-02
1346=-6.236563e-03
1350=8.692194e-02
1351=2.833905e-03
1360=2.891293e-01
1361=1.784140e-03
1362=-4.049663e-02
1363=7.192353e-03
1364=-1.793759e-01
1365=-1.828621e-01
1366=-7.636496e-02
1369=-8.189489e-02
1370=5.740821e-01
1372=-5.830730e-01
1375=-2.328493e-01
1378=-1.447290e-01
1380=4.104825e-01
1387=-5.531483e-01
1388=1.263846e-03
1389=-1.882237e-01
1390=3.204515e-01
1391=2.822398e-01
1392=-5.224134e-01
1393=-1.581682e-02
1394=-6.159635e-02
1396=-5.523039e-06
1397=-1.187021e-01
1400=3.585002e-01
1401=5.394630e-01
1409=-2.090367e-01
1410=1.951671e-01
1411=3.057415e-01
1415=3.236556e-01
1420=3.207910e-02
1430=6.075122e-01
1431=-1.859644e-01
1432=7.748608e-02
1434=1.121152e-02
1435=4.707473e-02
1436=-4.324770e-04
1438=9.247095e-03
1439=-8.836701e-02
1441=4.196403e-02
1444=-1.316639e-03
1449=-2.833527e-01
1450=-1.634232e-03
1453=1.472143e-01
1459=-2.898480e-02
1462=1.360179e-02
1466=5.837396e-02
1468=-2.903995e-02
1471=1.216659e-02
1475=5.979662e-02
1477=8.706583e-06
1480=-2.263184e-04
1486=9.569655e-02
1489=-1.165986e-02
1504=2.662945e-01
1507=-2.211366e+00
1534=6.427329e-01
1574=1.390589e-01
1576=-1.959878e-02
1579=2.233231e-02
1583=6.059719e-02
1585=-3.894855e-03
1588=4.209674e-02
1594=5.470563e-02
1597=-2.751308e-02
1603=-5.189100e-02
1606=5.240234e-02
1610=7.351900e-02
1612=-1.959878e-02
1615=2.233231e-02
1619=6.059719e-02
1621=-2.482544e-02
1624=1.348523e-02
1628=6.057925e-02
1630=7.557863e-04
1633=1.297140e-02
1639=-5.189100e-02
1642=5.240234e-02
1646=7.351900e-02
1648=-4.178517e-01
1651=3.816704e-01
1657=-2.898480e-02
1660=1.360179e-02
1664=5.837396e-02
1666=9.654616e-02
1669=-2.195916e-03
1670=-3.107418e-02
1675=2.269608e-02
1678=2.239590e-02
1682=5.043221e-02
1684=9.340058e-03
1687=-1.063196e-03
1693=7.841503e-02
1696=2.535645e-03
1702=7.524945e-02
1705=-1.568522e-02
1710=4.645579e-02
1711=8.136451e-02
1719=2.858002e-01
1729=-5.189100e-02
1732=5.240234e-02
1736=7.351900e-02
1738=2.802757e-04
1741=1.368175e-03
1746=-3.426444e-01
1747=-1.713579e-02
1750=2.643505e-01
1756=6.187235e-02
1759=-1.321624e-01
1763=1.375016e-01
1765=-4.759627e-03
1768=1.085246e-02
1774=-4.222562e-03
1777=2.943221e-02
1783=4.495720e-02
1786=-9.579287e-02
1790=7.563247e-02
1792=-4.759627e-03
1795=1.085246e-02
1804=-3.322829e-03
1810=-5.928697e-02
1813=6.912557e-01
1819=6.187235e-02
1822=-1.321624e-01
1826=1.375016e-01
1828=-4.234239e-02
1831=2.648177e-01
1837=1.533134e-01
1838=-2.846625e-01
1840=-1.259337e-02
1841=-9.998491e-03
1844=1.936182e-01
1846=1.760919e-01
1849=-9.033286e-02
1855=3.511708e-02
1858=2.657809e-03
1862=3.981399e-02
1863=2.431858e-02
1872=-6.545276e-05
1873=4.662641e-01
1882=-8.362082e-04
1885=8.381180e-03
1891=9.945079e-02
1894=-1.926276e-02
1900=1.097546e-02
1903=-1.460042e-02
1909=4.326741e-04
1912=7.538412e-03
1918=1.097546e-02
1921=-1.460042e-02
1930=1.550435e-05
1936=4.326741e-04
1939=7.538412e-03
1945=4.130709e-02
1948=-1.925983e-02
1954=-1.062813e-04
1963=6.757532e-02
1966=-1.306057e-02
1970=3.981212e-01
1971=4.045342e-02
1972=4.994063e-01
1975=-4.058526e-01
1981=1.238709e-01
1989=2.275379e-01
1990=-1.259445e-02
1999=4.326741e-04
2002=7.538412e-03
2008=4.502734e-01
2011=-1.448281e-01
2017=-2.552330e-03
2020=2.218324e-04
2026=1.762665e-02
2029=-2.054952e-02
2033=4.617726e-02
2035=-9.498833e-02
2038=7.424581e-01
2044=4.236429e-03
2047=-1.147960e-03
2052=2.622047e-02
2053=1.159507e-01
2056=-9.254460e-02
2062=5.085142e-01
2074=1.162236e-04
2080=1.960834e-02
2083=-4.329192e-03
2089=-6.015491e-02
2092=1.045525e-01
2096=6.454637e-02
2101=1.162236e-04
2110=6.638857e-02
2119=9.434588e-04
2125=-6.015491e-02
2128=1.045525e-01
2132=6.454637e-02
2134=-7.248532e-02
2137=1.241287e-01
2141=1.014063e-01
2143=5.050083e-02
2146=-5.092958e-02
2150=1.833366e-01
2155=-2.276560e-01
2159=6.125116e-02
2161=6.083543e-02
2164=-2.082464e-03
2170=1.224634e-01
2173=-3.537588e-02
2179=-7.574049e-03
2182=3.536143e-01
2188=-6.015491e-02
2191=1.045525e-01
2195=6.454637e-02
2197=7.684929e-02
2200=-6.000216e-02
2206=-1.959403e-03
2218=-9.721316e-02
2224=-1.617845e-02
2227=3.517369e-02
2232=-8.095294e-02
2233=1.648894e-04
2236=4.941957e-02
2241=2.347032e-01
2242=-4.518934e-03
2245=-1.759484e-03
2249=6.341566e-02
2251=-8.550140e-03
2254=3.264041e-03
2260=-1.617845e-02
2263=3.517369e-02
2269=-3.219386e-02
2272=6.219916e-02
2278=-8.550140e-03
2281=3.264041e-03
2286=7.501179e-01
2287=2.544288e-03
2290=-5.628633e-01
2294=7.283424e-02
2295=-1.362365e-01
2296=-3.744378e-02
2297=-9.868467e-03
2298=-1.779618e-01
2299=8.396221e-03
2300=2.047603e-01
2302=9.783957e-02
2305=1.457494e-02
2308=7.529407e-02
2309=-2.690852e-02
2314=5.941209e-02
2317=-2.626284e-02
2323=7.093641e-02
2326=-2.059148e-02
2331=-1.202763e-01
2332=1.048536e-01
2335=6.914869e-03
2344=-3.973411e-02
2348=6.738335e-02
2349=-1.383592e-01
2350=3.274745e-01
2351=-7.086393e-02
2352=6.516725e-06
2353=1.429774e-02
2359=-2.966425e-02
2362=6.885909e-04
2363=4.967268e-02
2364=4.874342e-01
2365=-1.843775e-01
2368=6.709514e-02
2371=-2.142272e-02
2377=1.560632e-02
2380=9.258122e-03
2386=-5.952712e-03
2389=1.068180e-02
2395=-8.550140e-03
2398=3.264041e-03
2404=9.016685e-01
2407=-2.226048e-01
2413=-2.957890e-01
2416=4.067461e-01
2422=4.407231e-01
2431=-1.019433e+00
2434=1.894617e+00
2461=-5.063389e-02
2502=-1.803181e-02
2503=2.940562e-03
2506=2.671495e-02
2512=6.570610e-04
2521=1.647623e-01
2522=1.691047e-01
2524=-2.173575e-01
2532=9.802180e-02
2541=1.131985e-01
2551=2.155193e-01
2592=1.691951e-01
2596=-6.953801e-02
2601=-5.223895e-02
2602=1.338132e-02
2605=-1.168203e-03
2610=-5.223895e-02
2611=1.338132e-02
2614=-1.168203e-03
2620=4.792196e-02
2623=-1.532843e-03
2628=2.073344e-03
2629=-3.496702e-02
2630=2.447775e-03
2631=-2.446348e-02
2632=-2.882698e-02
2633=1.637820e-01
2635=4.169188e-02
2637=5.862689e-03
2638=-7.694238e-01
2639=8.719515e-01
2641=-6.805585e-02
2642=3.436904e-01
2644=-5.659706e-02
2646=1.168507e-02
2647=-1.199060e-04
2648=2.346518e-01
2650=-1.483833e-02
2657=-5.216905e-03
2664=2.073344e-03
2665=-3.496702e-02
2666=2.447775e-03
2667=-2.446348e-02
2668=-2.882698e-02
2669=1.637820e-01
2671=4.169188e-02
2673=3.320056e-01
2674=-7.062433e-03
2675=-2.801281e-01
2677=-2.078033e-03
2683=2.617336e-01
2686=-2.689220e-02
2690=5.733411e-01
2692=3.596622e-01
2695=-5.599079e-01
2699=4.773346e-02
2701=-6.280367e-02
2704=8.922783e-03
2708=9.546879e-02
2709=7.269748e-02
2710=-1.959646e-01
2713=1.338185e-01
2715=9.649954e-02
2719=2.077382e-02
2720=-1.887272e-01
2722=-7.084659e-01
2724=2.870447e-02
2725=3.536500e-01
2727=3.469847e-01
2728=-8.914227e-03
2729=-3.009844e-01
2731=-2.001797e-02
2736=1.092568e+00
2737=-2.177081e+00
2746=3.077129e-01
2749=-7.695176e-01
2766=9.194795e-02
2776=6.278164e-03
2817=-5.223895e-02
2818=1.338132e-02
2821=-1.168203e-03
2827=-1.259924e-02
2836=-6.632717e-03
2839=1.266373e-02
2845=5.077904e-02
2848=-2.241647e-02
2854=1.071730e-01
2857=-7.661206e-02
2863=-1.821027e-01
2864=1.091359e-01
2865=-8.507550e-04
2866=-2.599330e-01
2868=3.982167e-01
2872=5.262940e-04
2873=4.093131e-01
2874=-8.932410e-03
2875=-3.605776e-01
2881=4.142936e-02
2884=1.241701e-02
2888=1.301838e-01
2890=3.298215e-01
2893=-1.658627e-02
2897=1.423241e-01
2902=-3.799379e-01
2903=2.386432e-01
2905=-6.558092e-02
2908=3.575307e-01
2911=-3.445622e-01
2917=1.140957e-02
2926=5.464963e-02
2929=5.345491e-02
2935=2.776335e-01
2938=-1.394169e-01
2944=-1.266091e-02
2947=7.639066e-02
2953=3.136964e-02
2956=-3.761988e-02
2961=-1.277082e-02
2962=-3.157502e-03
2965=9.052741e-03
2969=1.029451e-01
2971=3.443944e-02
2974=-1.385784e-01
2978=1.026651e-01
2983=1.541489e-02
2989=3.443944e-02
2992=-1.385784e-01
2996=1.026651e-01
2998=8.107941e-02
3001=-1.456557e-01
3007=-2.542469e-02
3010=9.533916e-02
3016=8.776712e-02
3019=-1.535220e-03
3025=3.443944e-02
3028=-1.385784e-01
3032=1.026651e-01
3034=2.184759e-01
3042=-2.272456e-02
3043=1.915399e-02
3046=-1.628774e-04
3050=1.599872e-01
3052=2.184759e-01
3060=-3.506957e-01
3061=8.832021e-03
3064=7.635503e-04
3069=-2.272456e-02
3070=1.915399e-02
3073=-1.628774e-04
3077=1.599872e-01
3082=1.087876e-02
3088=2.259334e-01
3091=-3.470853e-02
3097=1.790575e-02
3098=-9.739398e-04
3100=-1.623819e-02
3101=-1.205250e-01
3103=2.650161e-01
3106=4.080870e-02
3107=-4.682832e-02
3109=6.455555e-02
3110=2.172206e-02
3115=9.071420e-02
3116=-6.900242e-03
3118=-5.148576e-02
3124=-1.799475e-02
3125=-1.592322e-02
3127=1.525125e-01
3133=8.355140e-03
3136=9.691787e-02
3142=2.281452e-01
3145=-3.500465e-02
3151=-1.780171e-03
3154=1.288637e-01
3159=-1.366317e-01
3160=-2.579496e-02
3161=-9.822707e-03
3162=-4.321922e-01
3163=1.343841e-02
3164=2.060392e-01
3166=9.880997e-02
3170=2.020879e-01
3188=4.086471e-01
3260=2.020879e-01
3268=3.685702e-02
3271=-3.515791e-01
3277=-2.822027e-01
3280=6.309136e-02
3287=2.020879e-01
3296=3.040241e-01
3304=-2.822027e-01
3307=6.309136e-02
3314=3.040241e-01
3322=-3.877173e-01
3323=-8.086711e-02
3325=-1.120722e-03
3326=3.236752e-01
3328=1.573603e-01
3330=1.074531e-01
3331=-2.175817e-02
3332=6.150848e-02
3333=-7.393025e-01
3334=-1.715926e-01
3335=1.654400e-01
3337=8.368193e-02
3340=-2.357400e-04
3341=1.302760e+00
3343=9.246039e-04
3344=-1.790187e-01
3359=2.836257e-01
3386=4.869135e-02
3389=-9.821316e-02
3413=6.292125e-01
3431=3.040241e-01
3440=2.239920e-02
3442=8.810599e-03
3448=-1.477082e-01
3451=4.761927e-02
3457=-5.520228e-03
3460=1.058137e-01
3466=1.672441e-01
3469=-6.252482e-02
3474=1.737940e-01
3475=-6.138689e-01
3478=1.208171e-01
3481=-1.982302e-03
3485=3.034540e-01
3493=-1.563406e-01
3496=4.287610e-02
3502=-1.771431e-01
3505=2.795053e-02
3511=-7.705395e-02
3514=6.021915e-02
3520=-2.822027e-01
3523=6.309136e-02
3532=-1.109789e-02
3537=-5.566044e-01
3538=1.560083e-01
3539=-1.933898e-02
3540=6.581927e-07
3541=2.050669e-02
3550=-1.109789e-02
3559=4.106417e-05
3566=3.741584e-02
3569=-3.059598e-02
3570=1.490565e-01
3574=-2.813018e-01
3575=1.253418e-01
3602=5.515839e-01
3603=1.362574e+00
3604=-2.072887e-01
3622=5.885426e-01
3629=-1.308153e-02
3652=1.180716e-01
3663=-5.522448e-01
3664=1.567516e-01
3665=-1.869131e-02
3666=5.527872e-07
3667=2.376415e-02
3673=-1.068309e-02
3676=1.127863e-01
3682=4.764698e-02
3685=-3.726597e-02
3691=-1.192621e-02
3694=1.115724e-01
3700=7.359511e-02
3701=-3.354469e-02
3703=2.184703e-02
3708=-5.609940e-01
3709=1.538313e-01
3710=-1.991633e-02
3711=6.729207e-07
3712=1.500032e-02
3717=-3.021116e-01
3718=1.634165e+00
3727=2.150587e-03
3730=-5.163585e-02
3738=1.831209e-01
3757=3.649870e-01
3799=-1.051227e-01
3802=2.177559e-01
3805=1.014634e-01
3808=-2.878982e-03
3811=3.797752e-03
3817=-3.580784e-01
3818=3.488392e-02
3819=6.450298e-02
3820=1.616261e-01
3821=7.262271e-02
3826=-5.000735e-02
3829=6.153694e-02
3830=-3.648520e-04
3835=-4.311545e-02
3836=2.331513e-02
3838=1.006011e-01
3844=-2.563366e-01
3846=3.650921e-06
3847=5.533040e-02
3848=2.189977e-01
3849=-7.020896e-02
3853=-5.672535e-01
3856=2.841109e-02
3857=7.921342e-02
3858=-9.319370e-03
3861=1.151309e-02
3862=-5.459783e-02
3865=4.492887e-02
3871=-2.644245e-04
3874=1.216331e-01
3883=1.018782e-02
3889=-7.094728e-01
3893=-1.362513e-05
3894=1.449861e-01
3898=-4.648309e-03
3901=1.656862e-02
3902=-8.267057e-04
3912=1.242181e-01
3913=-4.717802e-04
3916=-1.587559e-01
3919=1.772139e-02
3925=5.955070e-03
3934=2.250622e-02
3943=-3.298376e+00
3945=3.673082e-01
3946=9.669955e-01
3949=5.369102e-01
3951=2.367150e-02
3952=8.838675e-05
3954=7.272505e-03
3955=-5.349921e-05
3960=1.685247e-02
3961=-2.504976e-03
3964=-9.389590e-04
3969=2.367150e-02
3970=8.838675e-05
3972=7.272505e-03
3973=-5.349921e-05
3978=2.042681e-01
3979=-9.179792e-02
3982=4.123575e-02
3987=1.685247e-02
3988=-2.504976e-03
3991=-9.389590e-04
3997=4.761496e-03
4000=-8.745280e-03
4005=-2.847377e-01
4006=1.776471e-01
4009=-4.976060e-05
4015=2.250622e-02
4024=1.383967e-03
4027=-5.605994e-02
4033=2.250622e-02
4042=5.955070e-03
4054=-2.582839e-03
4057=1.274924e-02
4064=-1.737874e-02
4069=3.234893e-02
4072=-2.195245e-01
4077=1.685247e-02
4078=-2.504976e-03
4081=-9.389590e-04
4088=2.563812e-01
4089=3.144122e-01
4090=-1.188729e-03
4097=2.563812e-01
4098=3.144122e-01
4099=-1.188729e-03
4106=2.563812e-01
4107=3.144122e-01
4108=-1.188729e-03
4115=2.563812e-01
4116=3.144122e-01
4117=-1.188729e-03
4122=-9.855417e-03
4123=5.212039e-02
4126=4.033055e-03
4133=2.563812e-01
4134=3.144122e-01
4135=-1.188729e-03
4141=7.343333e-02
4151=2.563812e-01
4152=3.144122e-01
4153=-1.188729e-03
4161=1.820314e-02
4169=2.563812e-01
4170=3.144122e-01
4171=-1.188729e-03
4177=1.037841e-02
4178=2.624864e-01
4180=-2.526398e-02
4187=2.563812e-01
4188=3.144122e-01
4189=-1.188729e-03
4195=7.993831e-03
4196=2.637279e-01
4198=-2.803779e-02
4204=6.601338e-03
4205=7.715908e-01
4207=-1.384132e-01
4214=2.563812e-01
4215=3.144122e-01
4216=-1.188729e-03
4223=7.044283e-03
4224=1.834739e-01
4232=2.563812e-01
4233=3.144122e-01
4234=-1.188729e-03
4241=2.563812e-01
4242=3.144122e-01
4243=-1.188729e-03
4250=2.563812e-01
4251=3.144122e-01
4252=-1.188729e-03
4259=2.563812e-01
4260=3.144122e-01
4261=-1.188729e-03
4266=1.768212e-01
4276=-9.910458e-03
4279=1.231393e-02
4285=2.541084e-02
4288=-2.252073e-02
4294=8.398537e-03
4297=-4.757183e-03
4303=1.538631e-01
4306=-9.465135e-04
4312=8.398537e-03
4315=-4.757183e-03
4321=8.398537e-03
4324=-4.757183e-03
4330=-9.190090e-03
4333=8.002201e-03
4339=6.473723e-02
4342=-4.336942e-02
4348=-3.668064e-03
4351=5.998666e-03
4356=7.230288e-03
4357=-4.233135e-01
4360=2.478754e-01
4366=3.402943e-02
4369=-1.339367e-03
4375=-3.668064e-03
4378=5.998666e-03
4384=1.055814e-02
4387=-1.417261e-04
4393=3.402943e-02
4396=-1.339367e-03
4401=3.593711e-01
4403=1.382419e-01
4404=-5.527574e-03
4405=-5.644894e-03
4411=3.402943e-02
4414=-1.339367e-03
4420=-7.176973e-05
4423=1.213360e-04
4429=-7.176973e-05
4432=1.213360e-04
4438=1.198257e-02
4441=2.430815e-02
4447=5.408285e-02
4450=-4.376611e-03
4456=2.435899e-04
4459=-3.086241e-04
4465=-1.351566e-03
4468=4.993669e-04
4474=-6.318430e-03
4483=-9.301992e-04
4491=8.981857e-03
4492=-1.557252e-03
4495=1.688240e-02
4500=8.981857e-03
4501=-1.557252e-03
4504=1.688240e-02
4510=-8.858841e-01
4513=2.266502e-01
4518=2.017867e-02
4519=-1.008586e-01
4528=1.068382e-04
4531=-1.496692e-01
4535=8.904896e-02
4537=-7.895410e-04
4540=2.512529e-05
4545=5.225742e-02
4549=-4.307288e-04
4555=3.066961e-02
4558=-2.038700e-02
4564=-5.517335e-05
4567=6.603675e-03
4573=-1.395255e-02
4576=2.215911e-02
4577=7.305805e-01
4582=-1.650966e-04
4585=1.026140e-02
4594=1.185489e-04
4600=-1.032232e-03
4603=3.697280e-03
4608=9.086902e-02
4609=-1.305648e-03
4612=1.338434e-03
4621=1.185489e-04
4627=-1.597035e-02
4630=7.294010e-03
4635=9.086902e-02
4636=-1.305648e-03
4639=1.338434e-03
4645=1.387702e-01
4648=-2.728785e-02
4653=3.831614e-01
4662=9.086902e-02
4663=-1.305648e-03
4666=1.338434e-03
4671=4.836840e-03
4672=1.386053e-02
4675=-1.861234e-03
4678=5.513965e-01
4681=-7.400401e-02
4684=7.467672e-02
4690=-3.215434e-01
4693=4.463662e-01
4696=5.265358e-01
4699=-2.538433e-04
4717=-1.297234e-01
4720=6.859609e-01
4789=-9.757303e-03
4792=1.329628e-02
4798=3.361491e-02
4801=-8.221711e-03
4810=-7.241666e-02
4816=3.361491e-02
4819=-8.221711e-03
4825=3.361491e-02
4828=-8.221711e-03
4834=4.925060e-03
4843=-4.462791e-03
4846=1.662412e-02
4852=5.555494e-01
4855=-1.847674e-02
4861=-4.462791e-03
4864=1.662412e-02
4870=4.335314e-04
4873=-1.302523e-02
4879=5.409248e-03
4888=9.320532e-01
4891=-1.502581e-01
4897=6.773456e-02
4900=-2.548632e-02
4906=9.287378e-02
4909=-2.687359e-01
4915=4.241242e-02
4918=-9.507328e-03
4925=-3.826247e-01
4926=3.833410e-02
4927=1.813315e-01
4932=-2.295819e-02
4933=-4.539772e-02
4935=1.638440e-03
4936=1.800953e-01
4942=5.114174e-04
4945=3.823614e-02
4951=-1.012708e-03
4954=2.818915e-02
4960=-4.340171e-02
4963=1.432166e-01
4969=-3.730016e-02
4972=-1.218336e-04
4977=-2.130455e-02
4978=-3.971140e-02
4981=1.025905e-01
4987=-1.924405e-02
4990=1.506339e-01
5005=-8.953426e-03
5008=2.342665e-02
5035=2.245403e-01
5077=6.934649e-02
5080=-8.353831e-02
5089=-3.170637e-01
5095=3.235585e-01
5098=-7.468703e-02
5103=-9.859863e-02
5104=5.511817e-02
5107=2.215121e-02
5112=-7.321955e-02
5113=1.623296e-01
5116=-5.154280e-05
5122=-2.281064e-01
5123=-3.845115e-03
5124=-2.536341e-01
5125=5.576621e-02
5126=2.496089e-01
5128=9.970497e-02
5129=-2.045666e-04
5131=-5.139414e-02
5134=3.580738e-02
5140=-2.256097e-01
5143=6.829144e-01
5150=2.082879e-01
5158=-1.180435e-02
5159=6.013415e-03
5160=-2.925016e-01
5161=-2.448428e-02
5162=1.680271e-01
5164=9.375398e-02
5176=7.674352e-02
5177=-4.138185e-02
5186=5.224740e-01
5191=-1.466818e-01
5204=9.937872e-03
5206=2.119450e-02
5207=6.530275e-01
5213=-2.448689e-02
5216=3.116687e-01
5217=4.570626e-01
5222=-4.167659e-01
5225=-7.718730e-02
5226=4.006217e-02
5227=9.760689e-01
5231=4.467453e-01
5236=1.858940e-02
5249=5.123594e-02
5251=-1.043666e+00
5252=1.700430e-01
5254=9.341759e-02
5262=4.570666e-02
5271=4.570666e-02
5279=3.044345e-01
5303=2.743152e+00
5324=1.415169e+00
5333=2.330148e-01
5366=4.390890e-02
5368=-2.320128e-01
5369=7.728617e-01
5370=-1.922304e-01
5379=4.570666e-02
5383=-2.386080e-04
5384=1.781611e-01
5387=-1.180618e-02
5388=9.776176e-03
5401=4.819188e-02
5404=3.199405e-01
5411=2.115578e-01
5412=4.588342e-01
5416=-1.485404e-01
5429=-1.684914e-02
5431=3.916374e-04
5432=-3.965814e-02
5438=-1.472869e-01
5441=3.631683e-01
5442=1.161389e+00
5443=2.993709e-02
5450=-4.427222e-02
5452=2.222763e-01
5456=9.656316e-01
5461=2.207710e-02
5478=-1.631710e-01
5479=1.018818e+00
5483=2.368081e-01
5550=2.589148e-01
5551=4.795459e-02
5580=4.925523e-02
5581=-1.094474e-02
5590=-1.193474e-02
5598=8.975440e-02
5599=1.630307e-01
5602=-2.861774e-01
5608=8.906750e-02
5611=-1.397893e+00
5617=-2.763237e-04
5626=2.615711e-02
5629=-4.084035e-02
5635=-5.790772e-02
5638=6.108743e-02
5644=-3.040856e-04
5647=2.938576e-03
5652=-2.065290e-01
5653=-4.347893e-02
5656=1.182803e+00
5662=8.424608e-02
5665=-8.595103e-03
5671=8.424608e-02
5674=-8.595103e-03
5680=2.628910e-03
5683=1.328814e-01
5689=-2.286362e-04
5692=5.427864e-02
5698=-6.018533e-03
5701=3.384372e-01
5707=-2.679590e-03
5716=2.893872e-01
5719=-1.807392e-01
5724=5.412340e-03
5734=-9.974260e-01
5737=9.393333e-02
5743=5.381940e-03
5746=-1.743303e-06
5752=5.381940e-03
5755=-1.743303e-06
5760=9.894906e-03
5764=-5.820291e-02
5770=-1.571811e-01
5773=1.867365e-01
5779=-2.414753e-02
5782=4.533378e-02
5787=-2.853686e-02
5788=-6.034800e-02
5791=1.014228e+00
5796=-1.234563e-01
5797=-2.615704e-02
5800=9.021438e-02
5806=-1.495362e-01
5809=1.482677e-01
5815=-2.146388e-02
5818=8.649512e-02
5824=-3.952149e-02
5827=3.359068e-01
5833=-2.146388e-02
5836=8.649512e-02
5845=1.079484e-02
5851=7.450334e-02
5854=1.702097e-02
5860=6.246962e-02
5863=2.635236e-02
5869=1.757033e-04
5872=7.255480e-02
5878=6.372224e-02
5881=1.942040e-02
5887=5.711909e-02
5890=2.231028e-02
5896=6.119768e-02
5899=1.400368e-02
5905=-2.146388e-02
5908=8.649512e-02
5914=2.479337e-02
5917=9.362631e-03
5923=-3.197415e-02
5926=6.674936e-02
5935=1.325247e-02
5941=3.671776e-02
5944=2.171946e-04
5953=2.123165e-04
5959=3.585874e-02
5971=2.123165e-04
5980=-1.125001e-04
5986=-7.792265e-03
5989=1.128342e-01
5995=3.293903e-03
5998=2.332184e-02
6004=6.372077e-03
6007=-5.297633e-04
6013=1.196932e-02
6016=3.198350e-02
6031=2.678123e-02
6061=5.528056e-02
6106=2.123165e-04
6112=-1.290466e-04
6115=1.422069e-02
6121=1.260328e-02
6124=-2.101853e-02
6130=5.077166e-03
6133=1.711116e-04
6139=6.159637e-03
6142=-9.373972e-05
6148=-1.006618e-03
6151=3.155279e-02
6157=8.046062e-03
6160=3.610139e-03
6166=1.966228e-02
6169=2.580411e-02
6175=1.128335e-02
6178=1.483774e-03
6187=-4.886265e-03
6192=1.495198e-01
6196=2.394613e-03
6202=8.046062e-03
6205=3.610139e-03
6211=4.726535e-02
6220=9.710809e-02
6229=4.859904e-03
6232=-7.990946e-06
6238=4.816367e-03
6241=-1.042474e-05
6247=-3.988593e-02
6250=3.308364e-01
6256=1.301190e-02
6259=2.754100e-03
6265=1.301190e-02
6268=2.754100e-03
6274=9.016607e-03
6277=2.415216e-03
6286=-5.022101e-03
6291=-9.578519e-03
6292=3.242395e-02
6295=-2.008055e-03
6301=1.145069e-01
6310=4.816367e-03
6313=-1.042474e-05
6319=4.859904e-03
6322=-7.990946e-06
6328=3.073390e-03
6337=4.816367e-03
6340=-1.042474e-05
6346=7.824907e-01
6349=-2.353468e-01
6355=1.061970e-01
6358=-1.046470e-01
6364=2.463618e-02
6367=-5.874959e-03
6368=9.545483e-03
6370=1.773066e-01
6373=5.573841e-01
6382=6.523193e-03
6383=-1.094610e-02
6385=1.670806e-03
6387=-8.913928e-02
6388=3.293849e-01
6391=5.573841e-01
6400=1.469943e-01
6403=-1.245634e-01
6409=1.061970e-01
6412=-1.046470e-01
6418=5.573841e-01
6427=1.510238e-01
6430=-1.294798e-01
6436=-1.053764e-03
6437=2.367735e-01
6439=6.074424e-03
6441=-1.780354e-01
6445=-5.776591e-01
6448=6.612516e-01
6455=2.596321e-03
6457=-6.429952e-02
6458=-3.797576e-03
6463=-1.053764e-03
6464=2.367735e-01
6466=6.074424e-03
6468=-1.780354e-01
6472=5.693787e-03
6473=2.145844e-01
6475=5.382565e-04
6477=-5.450136e-01
6482=2.596321e-03
6484=-6.429952e-02
6485=-3.797576e-03
6490=-1.527481e-03
6491=6.708923e-01
6493=-3.682752e-02
6494=-3.718437e-01
6495=-8.939617e-01
6496=1.581045e-02
6500=2.596321e-03
6502=-6.429952e-02
6503=-3.797576e-03
6509=6.616961e-01
6510=-8.124691e-05
6518=4.923765e-02
6527=7.146344e-01
6528=-9.908592e-05
6536=1.142487e-01
6538=-1.148643e-01
6544=-1.248088e+00
6547=5.193550e-01
6553=-3.144501e-02
6562=-1.381562e+00
6565=4.612240e-01
6571=-4.086123e-04
6581=4.106199e-01
6582=1.651704e-01
6590=4.106199e-01
6591=1.651704e-01
6598=1.809258e-03
6601=-6.805817e-05
6610=1.066198e-05
6619=1.066198e-05
6625=1.176637e-03
6634=1.295596e-01
6643=9.035096e-01
6646=-4.000622e-01
6652=8.667200e-03
6664=1.746399e-02
6673=1.068739e-01
6679=-5.884912e-06
6682=5.415080e-01
6689=5.462089e-02
6697=1.983517e-03
6700=-5.378857e-01
6706=4.173714e-01
6709=-5.624808e-02
6715=-1.347450e-01
6718=7.729633e-02
6724=-3.806180e-01
6727=5.277926e-01
6733=-2.307243e-01
6736=7.136309e-02
6742=8.509970e-04
6745=7.928616e-03
6750=7.957265e-02
6754=-4.836857e-06
6760=-1.366319e-04
6761=5.229372e-04
6763=7.421215e-04
6769=-1.366319e-04
6770=5.229372e-04
6772=7.421215e-04
6778=-8.265534e-01
6779=1.265013e-02
6781=3.777427e-02
6787=-1.086349e-02
6790=1.468704e-02
6795=2.417734e-01
6796=-1.149773e+00
6804=2.348709e-01
6805=-1.056248e-01
6813=1.770794e-01
6815=2.162208e-03
6816=-4.170029e-02
6822=1.770794e-01
6824=2.162208e-03
6825=-4.170029e-02
6832=3.589307e-02
6835=-1.474355e-02
6840=1.937756e-01
6842=2.945367e-02
6843=-1.485184e-02
6844=-1.454483e-01
6849=1.770794e-01
6851=2.162208e-03
6852=-4.170029e-02
6859=1.974741e-03
6868=2.083387e-01
6871=-8.490560e-02
6877=-2.223016e-01
6880=1.238642e+00
6886=-7.418897e-05
6895=-3.892883e-04
6898=7.720020e-06
6904=-3.892883e-04
6907=7.720020e-06
6913=-9.067350e-02
6916=6.597817e-03
6917=1.982957e-01
6918=-1.136579e-02
6923=2.902998e-01
6935=-4.395438e-02
6936=5.264392e-01
6937=1.496506e-01
6944=-4.395438e-02
6945=5.264392e-01
6946=1.496506e-01
6950=3.280987e-01
6958=-5.544376e-02
6961=6.299278e-01
6967=7.933333e-06
6970=-1.235697e-04
6976=-1.110710e-02
6979=5.121141e-02
6985=-1.706374e-02
6988=1.761869e-02
6994=3.540676e-03
7003=-1.711271e-02
7006=1.744629e-02
7012=-8.659849e-03
7015=1.097813e-02
7021=-8.659849e-03
7024=1.097813e-02
7030=-1.004093e-02
7033=2.210618e-02
7042=1.434596e-02
7048=-1.855513e-01
7051=2.869810e-02
7055=6.471614e-02
7060=1.434596e-02
7066=1.873014e-03
7069=9.839921e-03
7078=1.434596e-02
7084=-4.149030e-03
7087=4.062097e-03
7093=-1.027301e-03
7096=4.890434e-03
7102=3.792103e-03
7105=1.411728e-02
7109=1.155942e-01
7111=-1.474316e-03
7114=3.728875e-03
7123=9.987529e-03
7129=8.472962e-01
7132=-3.995184e-01
7138=4.263204e-03
7141=-1.588146e-01
7145=1.600085e-01
7147=-1.161516e-01
7150=3.812813e-01
7156=5.531318e-03
7159=-2.916482e-03
7165=1.968774e-02
7168=-1.496375e-02
7174=5.618378e-02
7183=1.055488e-01
7186=-3.117184e-02
7197=1.836342e-03
7206=6.311718e-02
7215=6.232682e-01
7219=1.898946e-02
7223=-2.091197e-01
7233=6.311718e-02
7237=1.898946e-02
7241=-2.091197e-01
7251=6.311718e-02
7259=4.647547e-02
7260=8.074427e-02
7304=1.047198e+00
7323=2.332113e-01
7345=-7.666734e-02
7348=-2.492885e-02
7349=1.446853e-01
7350=3.045730e-01
7351=9.178761e-05
7355=-3.095180e-01
7358=1.814265e-01
7359=1.000208e+00
7360=-6.801072e-01
7363=1.898946e-02
7367=-2.091197e-01
7373=6.951255e-01
7386=-2.302250e-02
7387=2.354115e-01
7448=2.427027e-01
7450=-1.054833e-02
7459=1.759746e+00
7485=1.257424e-02
7486=2.980820e-01
7504=-5.785207e-06
7531=1.725725e-02
7539=3.095921e-01
7549=2.282236e-01
7558=1.320236e-02
7571=-6.853164e-02
7574=-7.779195e-01
7575=1.756172e-01
7576=8.083945e-01
7584=-2.764777e-01
7593=7.471249e-01
7602=1.836901e-01
7661=-2.660395e-01
7665=2.621059e+00
7670=1.237042e+00
7687=1.063901e-01
7690=-4.685185e-01
7694=1.309546e-01
7696=-3.924020e-01
7703=5.121534e-02
7705=-3.924020e-01
7712=5.121534e-02
7714=1.540780e-01
7717=-1.271607e-01
7723=6.962622e-02
7726=-1.510122e-02
7732=-2.271576e-02
7735=2.978287e-02
7741=1.514455e-01
7744=-1.713849e-03
7750=3.300638e-01
7753=-7.358291e-02
7759=3.300638e-01
7762=-7.358291e-02
7768=-7.973071e-05
7777=-1.068122e-04
7780=1.658236e-02
7786=-3.662556e-03
7789=1.332709e-04
7795=1.599070e-01
7798=-1.084036e-01
7804=-4.862269e-01
7807=4.458427e-01
7818=-1.398325e-01
7819=1.419934e-02
7827=-1.398325e-01
7828=1.419934e-02
7836=-1.398325e-01
7837=1.419934e-02
7840=-4.420404e-03
7843=3.068114e-02
7849=-1.001186e-02
7852=1.874670e-02
7858=-1.001186e-02
7861=1.874670e-02
7867=-9.801049e-03
7870=1.883872e-02
7876=-2.068787e-03
7879=1.036136e-02
7885=-2.514615e-03
7888=7.744564e-03
7894=-2.514615e-03
7897=7.744564e-03
7903=-2.068787e-03
7906=1.036136e-02
7912=-2.164013e-03
7915=1.038712e-02
7921=-2.514615e-03
7924=7.744564e-03
7930=6.913112e-02
7939=3.098249e-01
7942=-2.272506e-02
7948=3.098249e-01
7951=-2.272506e-02
7957=2.185127e-03
7960=-3.241270e-03
7967=-3.825512e-03
7970=1.111565e-01
7972=2.963610e-02
7976=-3.825512e-03
7979=1.111565e-01
7981=2.963610e-02
7985=-3.825512e-03
7988=1.111565e-01
7990=2.963610e-02
7997=1.638043e-01
8006=1.638043e-01
8014=-3.952107e-03
8021=1.915506e-02
8023=3.408245e-02
8024=-1.183266e-02
8030=1.915506e-02
8032=3.408245e-02
8033=-1.183266e-02
8039=1.915506e-02
8041=3.408245e-02
8042=-1.183266e-02
8047=6.059795e-03
8050=-5.466714e-03
8056=5.151652e-01
8059=-4.668036e-01
8065=1.115552e-02
8074=-7.297919e-02
8077=2.200454e-01
8083=-7.480091e-02
8086=2.089476e-01
8092=-2.804806e-02
8095=9.459846e-02
8101=-5.753965e-03
8104=6.780663e-04
8110=1.167918e-01
8113=-4.050061e-02
8119=1.348306e-01
8122=-8.816650e-03
8128=1.348306e-01
8131=-8.816650e-03
8137=-1.188039e-02
8140=1.341776e-04
8146=6.523809e-04
8149=3.210041e-02
8155=-1.176035e-03
8158=-6.884129e-06
8167=-1.582000e-02
8173=-1.350335e-02
8176=1.807592e-02
8182=-3.456194e-03
8185=1.033215e-02
8191=1.154992e-01
8194=-2.037564e-02
8200=5.437681e-02
8203=-2.098750e-02
8209=2.042736e+00
8218=6.712703e-02
8221=-1.777460e-02
8227=6.712703e-02
8230=-1.777460e-02
8236=6.189942e-02
8239=-1.690605e-02
8245=-1.673178e-01
8248=1.060910e+00
8254=-6.223573e-02
8257=6.559889e-02
8263=-6.955724e-02
8266=5.171212e-02
8272=-5.807020e-04
8281=-3.200082e-02
8284=3.512302e-02
8290=-1.488898e-02
8293=1.489137e-02
8299=-9.496423e-03
8302=1.313640e-02
8308=-1.607755e-03
8311=4.849251e-03
8317=1.464780e-02
8320=-9.864892e-03
8326=3.220722e-03
8329=-1.285861e-04
8335=-1.320056e+00
8338=1.143971e+00
8344=6.030981e-02
8347=-3.454441e-01
8356=1.965503e-03
8362=-1.247280e-02
8365=2.342642e-01
8371=4.029823e-03
8374=-2.613119e-02
8380=2.675627e-01
8383=-6.546709e-02
8389=-1.022977e-01
8392=2.664133e-01
8398=-2.189469e-01
8401=2.810418e-01
8407=-6.112926e-03
8410=-9.887468e-04
8414=1.164971e-01
8416=-1.804757e-02
8419=5.169341e-04
8423=1.007180e-01
8424=3.341346e-02
8425=-1.543978e-01
8434=-2.547637e-01
8437=9.771367e-02
8441=6.525111e-02
8443=-2.547637e-01
8446=9.771367e-02
8450=6.525111e-02
8452=-2.398449e-01
8455=9.325831e-02
8459=8.701262e-02
8461=-2.495620e-01
8464=1.054014e-01
8468=8.492042e-02
8473=1.669608e-01
8482=1.669608e-01
8491=1.669608e-01
8500=1.669608e-01
8506=-2.150266e-01
8513=5.508885e-02
8515=-2.142815e-01
8522=5.374652e-02
8524=-2.981872e-02
8527=1.007555e-01
8537=-1.077921e-03
8538=2.536143e-03
8542=4.310389e-03
8545=-1.522010e-03
8551=5.835004e-06
8560=6.062598e-01
8563=-3.475933e-01
8569=-4.238931e-04
8572=6.689930e-04
8578=-4.238931e-04
8581=6.689930e-04
8587=5.314235e-03
8590=-1.036941e-03
8596=-1.102008e-02
8599=1.052617e-01
8605=9.380214e-01
8608=-1.563437e+00
8614=-8.745870e-03
8617=5.141576e-03
8622=2.678164e-02
8626=-5.252426e-01
8632=-3.166915e-01
8635=3.940067e-01
8641=-3.166915e-01
8644=3.940067e-01
8650=-5.911957e-04
8659=2.458186e-01
8662=-1.571296e-01
8671=7.369238e-02
8726=4.779084e-01
8770=-1.246748e-01
8771=1.913895e-03
8773=6.747617e-01
8780=-2.114798e-01
8781=2.982656e-01
8834=-8.949710e-02
8835=3.837786e-01
8836=8.560590e-02
8866=-3.375297e-04
8875=-9.664356e-03
8878=7.252569e-03
8884=-2.188397e-05
8896=-1.923003e-03
8902=7.963851e-02
8905=-6.138661e-02
8911=-4.000535e-03
8914=4.899891e-03
8920=-5.149068e-05
8923=2.025390e-02
8929=-7.100279e-04
8932=4.676993e-02
8938=1.032071e-01
8941=-2.103020e-02
8947=2.864486e-03
8956=4.068799e-02
8959=-6.176489e-04
8965=1.556865e-03
8968=-1.937750e-04
8974=-6.617673e-02
8977=3.280539e-01
8983=1.576062e-01
8995=-1.256989e-02
9001=-2.185667e-04
9010=2.424171e-06
9013=-1.527714e-06
9019=-1.538055e-04
9022=1.939080e-03
9028=2.108895e-03
9037=2.851279e-01
9046=5.500919e-01
9049=-3.418617e-01
9055=-4.859945e-01
9058=2.218039e-01
9064=6.266089e-03
9067=-5.895395e-03
9073=6.162413e-06
9082=2.386148e-02
9085=-3.199051e-02
9090=5.315587e-02
9091=-4.501506e-04
9100=-1.048072e-01
9103=3.399623e-01
9112=-3.183369e-05
9119=2.664318e-05
9120=-8.741976e-05
9130=1.154406e-02
9136=-1.610968e-06
9139=1.991620e-06
9148=2.749102e-03
9157=2.749102e-03
9166=2.749102e-03
9172=-7.789728e-03
9175=1.511125e-02
9181=-1.085467e-03
9184=4.753762e-04
9194=1.172982e-02
9203=1.172982e-02
9212=1.172982e-02
9217=-1.010930e-01
9220=8.585572e-02
9226=2.091239e-01
9229=-9.737450e-03
9235=2.091239e-01
9238=-9.737450e-03
9244=2.091239e-01
9247=-9.737450e-03
9253=2.671562e-01
9256=-3.875020e-02
9262=-5.517195e-01
9265=1.647810e-02
9271=3.480280e-02
9280=-2.904667e-02
9283=4.408110e-02
9289=-1.418313e+00
9292=1.509199e+00
9298=-2.009660e-02
9301=6.199294e-02
9307=-7.121921e-04
9310=1.262545e-03
9316=-2.849440e-03
9319=4.075194e-03
9325=-7.299959e-03
9328=1.312699e+00
9334=-4.659840e-03
9336=5.918352e-02
9337=2.686438e-02
9343=2.932899e-03
9346=-4.446739e-03
9357=2.291959e-01
9361=-4.188649e-02
9364=8.092453e-02
9370=5.193932e-02
9379=-2.238078e-01
9391=2.804770e-02
9397=-4.642156e-04
9400=2.557310e-02
9407=6.626562e-02
9415=-6.759791e-02
9418=7.329860e-02
9427=-1.051499e+00
9431=1.310063e-01
9433=1.098587e-02
9436=-1.723427e-01
9440=1.154767e-01
9442=1.425401e-02
9445=-1.658954e-01
9449=1.128811e-01
9451=-7.866242e-02
9458=9.395339e-02
9460=-1.672860e-01
9467=1.023374e-01
9469=-7.691979e-02
9476=9.312814e-02
9478=-9.445558e-02
9485=9.237335e-02
9487=-2.821882e-01
9494=7.820678e-02
9496=-2.786702e-01
9503=7.768442e-02
9505=-2.099225e-01
9512=1.406815e-01
9514=2.621255e-02
9523=2.621255e-02
9532=2.621255e-02
9541=-1.080990e-02
9544=1.884151e-01
9553=1.337135e-01
9562=3.341372e-04
9568=-1.722091e-01
9571=4.785163e-01
9583=5.658491e-02
9587=-4.499166e-03
9592=4.592025e-02
9599=4.106363e-03
9601=2.181166e-03
9604=-2.280099e-01
9607=2.651594e-02
9613=-2.280099e-01
9616=2.651594e-02
9622=-2.280099e-01
9625=2.651594e-02
9631=-1.999777e-04
9634=3.575588e-03
9640=-4.584202e-02
9643=1.161031e-03
9649=4.131143e-03
9658=2.203238e-01
9667=6.239748e-02
9670=-1.034689e-02
9676=6.239748e-02
9679=-1.034689e-02
9685=2.203238e-01
9694=6.267785e-02
9710=1.375443e-01
9712=9.910787e-03
9721=-1.905755e-01
9724=2.710907e-01
9730=-4.517699e-04
9733=2.011713e-04
9739=-1.483255e-06
9748=3.175910e-02
9751=-4.040609e-03
9757=-3.892271e-04
9766=3.336419e-02
9769=-3.651423e-02
9775=8.355942e-06
9784=5.539039e-01
9787=-3.778802e-01
9793=-4.088775e-03
9796=7.913043e-03
9802=1.868969e-04
9805=-1.745541e-05
9811=8.745645e-03
9826=1.891861e-01
9829=-1.823290e-02
9832=1.762587e-02
9838=-1.823484e-02
9841=1.727642e-02
9846=1.983109e-01
9847=-5.586714e-01
9859=4.115539e-05
9865=-1.692901e-03
9877=9.846859e-05
9883=-1.289190e-03
9886=9.562334e-03
9892=-1.513881e-03
9895=1.606186e-03
9901=7.475581e-02
9904=-2.048017e-03
9910=7.475581e-02
9913=-2.048017e-03
9919=7.475581e-02
9922=-2.048017e-03
9931=-3.166872e-02
9937=-1.172510e-02
9940=1.267157e-02
9946=-5.785339e-04
9949=5.883752e-04
9955=-4.393021e-02
9958=1.771630e-02
9963=2.148307e-04
9973=-3.074773e-02
9982=-1.196494e+00
9985=3.200697e-02
9992=1.777556e-02
10000=-4.341645e-02
10003=6.092425e-02
10027=7.138075e-03
10099=7.380440e-01
10111=-5.925974e-02
10126=4.914167e-01
10163=5.595499e-02
10198=-6.674832e-03
10201=1.599043e-02
10207=4.341947e-03
10210=-1.140475e-03
10216=-6.101638e-01
10219=4.443853e-01
10225=-7.063076e-03
10228=8.726602e-03
10234=-7.063076e-03
10237=8.726602e-03
10243=-7.063076e-03
10246=8.726602e-03
10252=-7.063076e-03
10255=8.726602e-03
10261=-7.063076e-03
10264=8.726602e-03
10270=-7.631895e-03
10273=8.171663e-03
10279=-7.063076e-03
10282=8.726602e-03
10288=-7.063076e-03
10291=8.726602e-03
10297=-7.063076e-03
10300=8.726602e-03
10306=-1.328024e-02
10309=1.552398e-02
10315=-1.328024e-02
10318=1.552398e-02
10324=-1.328024e-02
10327=1.552398e-02
10333=-1.328024e-02
10336=1.552398e-02
10342=-1.328024e-02
10345=1.552398e-02
10351=-9.891954e-04
10354=1.341419e-03
10360=-9.891954e-04
10363=1.341419e-03
10369=-9.891954e-04
10372=1.341419e-03
10378=-7.010952e-04
10381=9.446524e-04
10387=-3.655709e-04
10390=3.950641e-04
10396=-3.655709e-04
10399=3.950641e-04
10405=-3.670687e-04
10408=4.045678e-03
10414=-3.655709e-04
10417=3.950641e-04
10423=-3.655709e-04
10426=3.950641e-04
10432=-3.652059e-04
10435=3.950492e-04
10441=-3.655709e-04
10444=3.950641e-04
10450=1.446004e-04
10459=1.446004e-04
10468=-4.274090e-02
10471=4.378029e-02
10480=5.958970e-03
10486=1.048193e-03
10495=-2.434501e-03
10498=3.637454e-04
10504=-2.434501e-03
10507=3.637454e-04
10513=-2.434501e-03
10516=3.637454e-04
10522=-2.434501e-03
10525=3.637454e-04
10530=2.563372e-02
10531=-1.230418e-02
10539=2.563372e-02
10540=-1.230418e-02
10548=2.563372e-02
10549=-1.230418e-02
10557=2.563372e-02
10558=-1.230418e-02
10566=2.117214e-02
10567=-2.384164e-02
10575=3.903727e-02
10576=-2.667505e-02
10584=2.563372e-02
10585=-1.230418e-02
10593=2.563372e-02
10594=-1.230418e-02
10602=1.865465e-02
10603=-3.179419e-04
10612=3.085605e-02
10621=6.729600e-02
10630=1.753613e-01
10639=-1.248924e-01
10648=4.678550e-02
10651=-9.508394e-02
10657=-4.525120e-02
10660=9.481861e-02
10666=-4.759279e-01
10669=1.843787e-02
10675=5.443915e-05
10678=-3.788672e-05
10684=-4.759279e-01
10687=1.843787e-02
10693=-4.759279e-01
10696=1.843787e-02
10702=-4.759279e-01
10705=1.843787e-02
10711=-4.759279e-01
10714=1.843787e-02
10720=-4.759279e-01
10723=1.843787e-02
10729=-4.745907e-01
10732=5.814850e-01
10738=-4.745907e-01
10741=5.814850e-01
10750=1.593434e-02
10759=1.078647e-02
10768=1.593434e-02
10777=1.593434e-02
10788=-1.941433e-02
10792=-6.041496e-03
10795=7.094589e-03
10804=3.382043e-03
10810=-1.728444e-02
10813=2.808851e-02
10819=-5.843982e-04
10822=2.569997e-03
10828=-1.560463e-01
10831=5.794242e-04
10837=-1.893988e-02
10840=7.949739e-01
10846=1.062898e+00
10849=-2.465160e-01
10850=4.444716e-01
10860=1.468786e-02
10868=3.274860e-05
10922=5.236460e-01
10954=-1.742881e-03
10957=4.108165e-03
10966=1.306898e-02
10972=-1.315944e-02
10975=2.690461e-02
10981=6.533220e-05
10990=1.124351e-03
10993=-1.348728e-03
10999=1.414006e-02
11002=-1.274984e-02
11008=2.110254e-02
11011=-1.594393e-02
11017=2.454660e-03
11020=-2.379311e-03
11026=2.454660e-03
11029=-2.379311e-03
11035=2.454660e-03
11038=-2.379311e-03
11044=-6.244180e-02
11047=3.933281e-01
11053=-8.114176e-02
11056=1.188686e-01
11062=-1.137586e-02
11074=1.641016e+00
11128=1.779238e+00
11173=8.694992e-01
11182=1.664600e-02
11191=1.416682e-02
11197=-1.478055e-01
11200=3.404860e-01
11206=-1.478055e-01
11209=3.404860e-01
11215=-1.768289e-01
11218=3.431412e-01
11224=-1.478055e-01
11227=3.404860e-01
11233=-1.419647e-01
11236=1.905312e-01
11242=-1.419647e-01
11245=1.905312e-01
11251=-5.852382e-02
11254=7.485243e-02
11257=4.322868e-02
11260=-2.019140e-01
11263=1.474727e-01
11269=-2.019140e-01
11272=1.474727e-01
11278=-2.019140e-01
11281=1.474727e-01
11287=-2.019140e-01
11290=1.474727e-01
11296=-1.753517e-02
11299=1.815422e-02
11305=-5.903363e-02
11308=9.320372e-02
11314=-1.903811e-02
11317=2.266311e-02
11323=-5.903363e-02
11326=9.320372e-02
11335=1.262657e-02
11344=1.262657e-02
11353=1.262657e-02
11362=1.262657e-02
11368=-9.525171e-03
11371=1.122721e-02
11377=-9.525171e-03
11380=1.122721e-02
11386=-1.587240e-01
11389=2.110956e-01
11395=-3.275579e-03
11398=8.249478e-03
11404=-7.920777e-02
11407=1.003432e-01
11413=-1.207969e-05
11416=1.301876e-05
11422=1.232320e-05
11425=-3.907581e-05
11431=1.232320e-05
11434=-3.907581e-05
11439=2.501459e-02
11449=1.402422e-02
11452=-5.229601e-03
11458=-5.893770e-03
11461=1.631462e-04
11467=2.306074e-01
11470=-1.996480e-01
11479=2.891492e-01
11485=-2.234971e-01
11488=2.918528e-01
11497=1.418435e-01
11503=-6.279606e-02
11506=3.857787e-01
11512=-5.689633e-01
11515=8.120880e-01
11521=-1.329528e-01
11524=1.584803e-01
11530=-1.329528e-01
11533=1.584803e-01
11539=1.033117e-02
11540=2.679856e-01
11542=-3.525892e-02
11551=1.136922e-02
11557=3.004901e-02
11560=-5.580052e-02
11566=1.544737e-01
11569=-2.458185e-01
11575=1.438146e-01
11578=-1.750208e-01
11584=-5.419752e-02
11587=1.795174e-01
11600=1.055406e-01
11609=1.038612e-01
11611=-1.096369e-02
11618=1.134062e-01
11627=1.574512e-01
11636=1.712318e-01
11638=-1.476433e-02
11645=1.506823e-01
11647=-1.514835e-02
11654=5.894868e-01
11656=-1.514835e-02
11663=5.894868e-01
11672=1.669041e-01
11674=-7.443521e-03
11681=5.905403e-01
11683=3.596459e-01
11686=-1.409963e-01
11692=4.649122e-01
11695=-1.717609e-01
11701=-4.802255e-06
11704=6.770130e-03
11710=-1.686623e-02
11713=7.111009e-02
11719=-1.121055e+00
11722=1.314850e+00
11728=-3.534502e-01
11731=3.925583e-01
11737=-1.592415e-01
11740=1.813171e-01
11746=1.407430e-02
11749=-9.540769e-02
11755=-1.452763e-01
11758=2.289680e-01
11764=-1.321808e-04
11767=5.615106e-05
11773=-7.735323e-03
11776=4.856003e-02
11782=-1.512179e-01
11785=1.919086e-01
11794=1.069837e-01
11800=-8.331444e-02
11808=2.984070e-02
11809=-1.664381e-01
11817=2.984070e-02
11818=-1.664381e-01
11827=-1.650570e-01
11830=1.598304e-01
11836=-1.728411e-01
11839=1.560407e-01
11846=7.445006e-03
11854=3.568296e-02
11857=-1.963019e-02
11863=1.370514e-01
11866=-5.990541e-02
11872=-8.783333e-04
11875=1.406644e-02
11881=-1.854140e-01
11884=2.257908e-01
11890=-1.854140e-01
11893=2.257908e-01
11899=-4.729656e-02
11902=4.903011e-02
11908=-1.413651e-01
11911=1.214912e-01
11917=-1.854140e-01
11920=2.257908e-01
11926=-1.854140e-01
11929=2.257908e-01
11935=5.577032e-01
11938=-3.885016e-01
11944=-6.160422e-02
11947=7.817457e-01
11953=1.073533e-01
11956=-1.104754e-01
11962=-1.254870e-01
11965=1.478630e-01
11971=-1.659661e-01
11974=1.928030e-01
11980=-1.254870e-01
11983=1.478630e-01
11989=-1.279984e-01
11992=1.456925e-01
11998=-1.279984e-01
12001=1.456925e-01
12007=-1.202056e-01
12010=1.398490e-01
12019=2.582553e-04
12028=2.582553e-04
12037=2.582553e-04
12049=1.761034e-01
12052=-1.208839e-04
12055=5.215111e-05
12061=-1.177829e-02
12064=1.097581e-02
12073=1.035497e-02
12082=6.065089e-02
12091=8.242133e-02
12097=-2.904068e-02
12100=1.126281e-02
12106=-8.339250e-02
12109=1.021269e-01
12115=-8.339250e-02
12118=1.021269e-01
12124=-8.339250e-02
12127=1.021269e-01
12133=-8.547303e-02
12136=9.706563e-02
12142=-8.547303e-02
12145=9.706563e-02
12151=-8.547303e-02
12154=9.706563e-02
12160=-8.547303e-02
12163=9.706563e-02
12169=-8.597186e-02
12172=1.029197e-01
12178=-8.597186e-02
12181=1.029197e-01
12187=-7.235062e-02
12190=8.753345e-02
12202=1.989231e-01
12211=1.828384e-01
12220=1.989231e-01
12229=1.989231e-01
12238=7.850136e-02
12241=3.916350e-02
12244=-1.854254e-02
12250=-1.383321e-01
12253=1.490048e-01
12262=9.360358e-05
12271=9.360358e-05
12277=3.139064e-04
12286=-1.794593e-05
12289=2.282919e-05
12295=-1.119468e-04
12298=1.154894e-04
12304=-4.403989e-02
12307=6.160384e-02
12313=-1.859379e-02
12316=2.109545e-02
12322=-2.974574e-02
12325=5.029438e-02
12331=-1.787714e-02
12334=2.031526e-02
12340=-1.805176e-02
12343=2.036406e-02
12349=-1.805176e-02
12352=2.036406e-02
12358=-1.772914e-02
12361=1.774431e-02
12367=-1.772914e-02
12370=1.774431e-02
12376=-1.772914e-02
12379=1.774431e-02
12385=-1.772914e-02
12388=1.774431e-02
12394=-1.007174e-02
12397=1.007047e-02
12403=-1.749729e-02
12406=1.756406e-02
12412=-1.749729e-02
12415=1.756406e-02
12421=-1.749729e-02
12424=1.756406e-02
12430=-1.749729e-02
12433=1.756406e-02
12439=-8.044068e-03
12442=8.282791e-03
12448=-1.094328e-02
12451=1.209329e-02
12457=-1.094328e-02
12460=1.209329e-02
12466=-1.094328e-02
12469=1.209329e-02
12475=-1.094328e-02
12478=1.209329e-02
12484=-1.094328e-02
12487=1.209329e-02
12493=-4.166399e-03
12496=4.909088e-03
12502=-4.166399e-03
12505=4.909088e-03
12511=-4.166399e-03
12514=4.909088e-03
12520=-4.166399e-03
12523=4.909088e-03
12529=-2.031345e-02
12541=7.297622e-03
12547=-8.066106e-01
12550=9.638988e-01
12556=1.319095e-02
12559=-1.696859e-03
12565=-5.041908e-02
12568=6.149830e-02
12574=-5.041908e-02
12577=6.149830e-02
12583=-5.041908e-02
12586=6.149830e-02
12592=-5.041908e-02
12595=6.149830e-02
12601=-5.041908e-02
12604=6.149830e-02
12610=-5.041908e-02
12613=6.149830e-02
12619=-5.041908e-02
12622=6.149830e-02
12628=-5.041908e-02
12631=6.149830e-02
12637=-5.123204e-02
12640=5.787626e-02
12646=-5.123204e-02
12649=5.787626e-02
12655=-5.123204e-02
12658=5.787626e-02
12664=-5.123204e-02
12667=5.787626e-02
12673=-5.123204e-02
12676=5.787626e-02
12682=4.856782e-01
12685=-6.006143e-02
12691=1.401651e-03
12694=-4.239144e-02
12700=-5.810791e-02
12703=7.914306e-02
12709=-5.810791e-02
12712=7.914306e-02
12718=-5.810791e-02
12721=7.914306e-02
12727=-5.810791e-02
12730=7.914306e-02
12736=-5.810791e-02
12739=7.914306e-02
12745=-2.892035e-03
12748=5.823135e-03
12754=-2.892035e-03
12757=5.823135e-03
12763=-2.892035e-03
12766=5.823135e-03
12772=-2.892035e-03
12775=5.823135e-03
12780=2.209400e-02
12781=-7.718320e-02
12789=2.209400e-02
12790=-7.718320e-02
12799=-1.245084e-03
12802=5.766736e-03
12807=3.693500e-02
12808=-1.686425e-02
12820=2.680337e-04
12826=-6.418583e-02
12829=6.446523e-02
12835=-1.083802e-02
12838=1.006004e-02
12844=2.450174e-02
12853=-2.166976e-02
12856=1.873930e-02
12861=1.046784e-01
12862=-6.164218e-02
12871=6.733952e-02
12874=-5.966689e-02
12880=-5.869363e-02
12883=1.469993e-01
12889=-5.869363e-02
12892=1.469993e-01
12898=6.567032e-02
12901=-6.081659e-02
12907=6.567032e-02
12910=-6.081659e-02
12916=5.634981e-02
12925=2.029844e-01
12928=-1.711353e-01
12934=1.296546e-01
12937=-4.551131e-02
12947=8.830647e-03
12956=8.830647e-03
12965=8.830647e-03
12974=8.830647e-03
12983=-1.061056e-03
12984=5.052734e-02
12992=-1.061056e-03
12993=5.052734e-02
12997=5.579488e-02
13000=-1.046590e-02
13006=2.226319e-01
13009=-6.776049e-02
13015=2.226319e-01
13018=-6.776049e-02
13024=1.352117e-01
13027=-8.457324e-02
13033=1.352117e-01
13036=-8.457324e-02
13042=1.525902e-01
13045=-3.672980e-02
13051=2.096592e-03
13054=-7.002764e-05
13060=1.525902e-01
13063=-3.672980e-02
13073=-1.609575e-03
13074=1.947569e-02
13082=-1.609575e-03
13083=1.947569e-02
13091=-1.609575e-03
13092=1.947569e-02
13097=8.164852e-03
13106=8.164852e-03
13117=4.287718e-03
13126=4.287718e-03
13135=4.287718e-03
13144=4.287718e-03
13153=4.287718e-03
13162=4.287718e-03
13171=4.287718e-03
13180=4.287718e-03
13189=4.287718e-03
13194=2.588817e-02
13204=4.590832e-03
13213=4.590832e-03
13223=3.426981e-02
13224=-4.366713e-04
13232=3.426981e-02
13233=-4.366713e-04
13241=3.426981e-02
13242=-4.366713e-04
13252=2.199511e-03
13258=2.688293e-02
13267=5.791973e-03
13276=5.791973e-03
13285=9.722020e-03
13294=5.791973e-03
13303=5.791973e-03
13312=5.791973e-03
13320=3.723488e-02
13330=-8.780845e-02
13333=1.054913e-01
13339=-8.780845e-02
13342=1.054913e-01
13348=-8.780845e-02
13351=1.054913e-01
13357=-8.780845e-02
13360=1.054913e-01
13366=-8.780845e-02
13369=1.054913e-01
13375=8.408753e-02
13378=-1.688564e-02
13385=1.561537e-04
13396=6.933099e-01
13397=-1.221161e-01
13405=6.933099e-01
13406=-1.221161e-01
13414=6.933099e-01
13415=-1.221161e-01
13420=1.628965e-02
13423=-1.612503e-02
13429=1.628965e-02
13432=-1.612503e-02
13438=1.628965e-02
13441=-1.612503e-02
13447=-2.430358e-03
13450=3.482068e-03
13456=-1.057099e-04
13459=1.388454e-04
13465=-1.272621e-03
13473=3.652338e-01
13474=-3.469687e-02
13483=1.286580e-02
13486=-1.131828e-02
13492=1.286580e-02
13495=-1.131828e-02
13501=1.286580e-02
13504=-1.131828e-02
13510=1.286580e-02
13513=-1.131828e-02
13518=2.982696e-02
13519=-1.956704e-02
13527=2.982696e-02
13528=-1.956704e-02
13536=2.982696e-02
13537=-1.956704e-02
13545=2.890270e-02
13546=-1.084124e-03
13554=2.982696e-02
13555=-1.956704e-02
13563=2.982696e-02
13564=-1.956704e-02
13573=-4.809475e-04
13581=7.280498e-02
13582=-2.064165e-01
13591=-4.325688e-02
13594=6.478138e-02
13600=-4.325688e-02
13603=6.478138e-02
13609=-4.325688e-02
13612=6.478138e-02
13618=-4.325688e-02
13621=6.478138e-02
13627=-4.325688e-02
13630=6.478138e-02
13636=-4.325688e-02
13639=6.478138e-02
13645=-4.325688e-02
13648=6.478138e-02
13654=-1.291761e-01
13663=-1.291761e-01
13671=7.557414e-02
13672=-3.048405e-01
13680=3.866783e-02
13681=-1.725890e-02
13689=3.866783e-02
13690=-1.725890e-02
13698=3.866783e-02
13699=-1.725890e-02
13707=3.866783e-02
13708=-1.725890e-02
13716=7.883015e-02
13717=-5.220731e-02
13725=7.883015e-02
13726=-5.220731e-02
13735=-7.956952e-02
13738=1.193759e-01
13744=-7.956952e-02
13747=1.193759e-01
13753=-7.956952e-02
13756=1.193759e-01
13762=-7.956952e-02
13765=1.193759e-01
13771=-7.956952e-02
13774=1.193759e-01
13780=-7.956952e-02
13783=1.193759e-01
13789=-7.956952e-02
13792=1.193759e-01
13798=-7.956952e-02
13801=1.193759e-01
13807=-1.232092e-05
13810=2.206137e-05
13816=-1.232092e-05
13819=2.206137e-05
13825=-1.232092e-05
13828=2.206137e-05
13834=-1.232092e-05
13837=2.206137e-05
13843=-1.232092e-05
13846=2.206137e-05
13852=-1.232092e-05
13855=2.206137e-05
13861=-1.232092e-05
13864=2.206137e-05
13870=-1.232092e-05
13873=2.206137e-05
13879=-1.232092e-05
13882=2.206137e-05
13888=-2.083835e-05
13891=2.319195e-05
13897=-2.083835e-05
13900=2.319195e-05
13906=-2.083835e-05
13909=2.319195e-05
13915=6.400304e-03
13918=-5.706945e-03
13924=6.400304e-03
13927=-5.706945e-03
13933=6.400304e-03
13936=-5.706945e-03
13942=1.942134e-02
13945=-8.469723e-03
13951=1.942134e-02
13954=-8.469723e-03
13960=1.942134e-02
13963=-8.469723e-03
13969=2.040427e-02
13972=-2.003019e-02
13978=2.040427e-02
13981=-2.003019e-02
13987=2.040427e-02
13990=-2.003019e-02
13996=2.040427e-02
13999=-2.003019e-02
14005=2.040427e-02
14008=-2.003019e-02
14013=2.766167e-02
14014=-1.773912e-02
14022=2.766167e-02
14023=-1.773912e-02
14031=2.766167e-02
14032=-1.773912e-02
14040=2.766167e-02
14041=-1.773912e-02
