#mdl#2#2934
#rdr#61/19/0
1:*,
18:u:Tok-1 X=%x[ 0,0],
18:u:tok-1 X=%x[ 0,1],
18:u:tok-1LL=%X[-2,0],
18:u:tok-1 L=%X[-1,0],
18:u:tok-1 R=%X[ 1,0],
18:u:tok-1RR=%X[ 2,0],
27:u:tok-2 L=%X[-1,0]/%X[ 0,0],
27:u:tok-2 R=%X[ 0,0]/%X[ 1,0],
18:*:Fst-1 X=%x[ 0,2],
18:u:Fst-1 R=%x[ 1,2],
27:u:Fst-2 X=%x[ 0,2]/%x[ 0,4],
27:u:Fst-2 R=%x[ 1,2]/%x[ 1,4],
18:*:Lst-1 L=%x[-1,3],
18:u:Lst-1 X=%x[ 0,3],
27:u:Lst-2 L=%x[-1,3]/%x[-1,6],
27:u:Lst-2 X=%x[ 0,3]/%x[ 0,6],
18:u:Pre-1 X=%x[ 0,4],
18:u:Pre-2 X=%x[ 0,5],
18:u:Pre-2 R=%x[ 1,5],
18:u:Suf-1 X=%x[ 0,6],
18:u:Suf-2 L=%x[-1,7],
18:u:Suf-2 X=%x[ 0,7],
18:u:Cap-1 L=%x[-1,8],
18:u:Cap-1 X=%x[ 0,8],
18:u:Cap-1 R=%x[ 1,8],
27:u:Cap-2 L=%x[-1,8]/%x[ 0,8],
27:u:Cap-2 R=%x[ 0,8]/%x[ 1,8],
28:u:Cap-3 L=%x[-1,18]/%x[ 0,8],
18:*:Num-1 L=%x[-1,9],
18:*:Num-1 X=%x[ 0,9],
18:u:Num-1 R=%x[ 1,9],
28:u:Num-2 R=%x[ 0,9]/%x[ 0,17],
28:u:Num-2 R=%x[ 0,9]/%x[ 0,18],
19:u:Nme-1 X=%x[ 0,10],
19:u:Loc-1 X=%x[ 0,11],
19:u:Pub-1 X=%x[ 0,12],
19:u:Jnl-1 X=%x[ 0,13],
19:u:Key-1 L=%x[-1,14],
19:u:Key-1 X=%x[ 0,14],
19:u:Key-1 R=%x[ 1,14],
28:u:Key-2 X=%x[ 0,14]/%x[ 0,8],
29:u:Key-3 L=%x[-1,18]/%x[ 0,14],
29:u:Key-3 x=%x[ 0,14]/%x[ 0,18],
19:u:Pos-1 X=%x[ 0,15],
29:u:Pos-2 L=%x[-1,15]/%x[ 0,15],
29:u:Pos-2 R=%x[ 0,15]/%x[ 1,15],
19:u:Pct-1 L=%x[-1,16],
19:u:Pct-1 X=%x[ 0,16],
19:u:Pct-1 R=%x[ 1,16],
19:u:Brk-1 L=%x[-1,17],
19:u:Brk-1 X=%x[ 0,17],
19:u:Brk-1 R=%x[ 1,17],
19:*:Tmn-1 L=%x[-1,18],
19:u:Tmn-1 X=%x[ 0,18],
19:u:Tmn-1 R=%x[ 1,18],
29:u:Tmn-2 L=%x[-1,14]/%x[ 0,18],
29:u:Tmn-2 R=%x[ 0,18]/%x[ 1,14],
28:u:Tmn-3 X=%x[ 0,18]/%x[ 0,6],
28:u:Tmn-4 R=%x[ 0,18]/%x[ 1,8],
19:u:Id--1 X=%x[ 0,19],
#qrk#9
6:author,
5:title,
4:date,
9:publisher,
15:container-title,
6:volume,
5:issue,
5:pages,
7:journal,
#qrk#1243
1:*,
14:u:tok-1LL=_x-2,
14:u:tok-1 L=_x-1,
13:u:tok-1RR=the,
12:*:Fst-1 X=Lu,
12:u:Fst-1 R=Lu,
14:u:Fst-2 X=Lu/A,
14:u:Fst-2 R=Lu/D,
14:*:Lst-1 L=_x-1,
11:u:Lst-1 X=P,
19:u:Lst-2 L=_x-1/_x-1,
13:u:Lst-2 X=P/,,
11:u:Pre-1 X=A,
11:u:Suf-1 X=,,
14:u:Suf-2 L=_x-1,
14:u:Cap-1 L=_x-1,
17:u:Cap-1 X=initial,
16:u:Cap-1 R=single,
22:u:Cap-2 L=_x-1/initial,
24:u:Cap-2 R=initial/single,
22:u:Cap-3 L=_x-1/initial,
14:*:Num-1 L=_x-1,
14:*:Num-1 X=none,
19:u:Num-2 R=none/none,
19:u:Num-2 R=none/weak,
11:u:Nme-1 X=T,
11:u:Loc-1 X=F,
11:u:Pub-1 X=F,
11:u:Jnl-1 X=F,
14:u:Key-1 L=_x-1,
14:u:Key-1 X=none,
14:u:Key-1 R=none,
22:u:Key-2 X=none/initial,
19:u:Key-3 L=_x-1/none,
19:u:Key-3 x=none/weak,
15:u:Pos-1 X=first,
20:u:Pos-2 L=_x-1/first,
14:u:Pct-1 L=_x-1,
15:u:Pct-1 X=other,
16:u:Pct-1 R=period,
14:u:Brk-1 L=_x-1,
14:u:Brk-1 X=none,
14:u:Brk-1 R=none,
14:*:Tmn-1 L=_x-1,
14:u:Tmn-1 X=weak,
16:u:Tmn-1 R=strong,
19:u:Tmn-2 R=weak/none,
16:u:Tmn-3 X=weak/,,
11:u:Id--1 X=F,
13:u:tok-1 R=the,
14:u:Fst-2 X=Lu/D,
14:u:Fst-2 R=Lu/T,
11:*:Lst-1 L=P,
13:u:Lst-2 L=P/,,
13:u:Lst-2 X=P/.,
11:u:Pre-1 X=D,
12:u:Pre-2 R=Th,
11:u:Suf-1 X=.,
17:u:Cap-1 L=initial,
16:u:Cap-1 X=single,
17:u:Cap-1 R=initial,
24:u:Cap-2 L=initial/single,
24:u:Cap-2 R=single/initial,
14:*:Num-1 L=none,
14:u:Num-1 R=none,
11:u:Nme-1 X=F,
14:u:Key-1 L=none,
21:u:Key-2 X=none/single,
19:u:Key-3 L=weak/none,
21:u:Key-3 x=none/strong,
15:u:Pct-1 L=other,
16:u:Pct-1 X=period,
14:u:Pct-1 R=none,
14:u:Brk-1 L=none,
14:*:Tmn-1 L=weak,
16:u:Tmn-1 X=strong,
14:u:Tmn-1 R=none,
21:u:Tmn-2 L=none/strong,
21:u:Tmn-2 R=strong/none,
18:u:Tmn-3 X=strong/.,
24:u:Tmn-4 R=strong/initial,
13:u:Tok-1 X=The,
13:u:tok-1 X=the,
14:u:Fst-2 X=Lu/T,
14:u:Fst-2 R=Lu/R,
12:u:Lst-1 X=Ll,
13:u:Lst-2 L=P/.,
14:u:Lst-2 X=Ll/e,
11:u:Pre-1 X=T,
12:u:Pre-2 X=Th,
11:u:Suf-1 X=e,
12:u:Suf-2 X=he,
16:u:Cap-1 L=single,
24:u:Cap-2 L=single/initial,
25:u:Cap-2 R=initial/initial,
24:u:Cap-3 L=strong/initial,
15:*:Num-1 L=roman,
11:u:Pub-1 X=T,
11:u:Jnl-1 X=T,
21:u:Key-3 L=strong/none,
19:u:Key-3 x=none/none,
11:u:Pos-1 X=1,
16:u:Pct-1 L=period,
14:u:Pct-1 X=none,
16:*:Tmn-1 L=strong,
14:u:Tmn-1 X=none,
19:u:Tmn-2 L=none/none,
19:u:Tmn-2 R=none/none,
16:u:Tmn-3 X=none/e,
22:u:Tmn-4 R=none/initial,
13:u:tok-1 L=the,
12:u:tok-1RR=of,
14:u:Fst-2 X=Lu/R,
14:u:Fst-2 R=Lu/W,
12:*:Lst-1 L=Ll,
14:u:Lst-2 L=Ll/e,
14:u:Lst-2 X=Ll/n,
11:u:Pre-1 X=R,
12:u:Pre-2 X=Ru,
11:u:Suf-1 X=n,
12:u:Suf-2 L=he,
12:u:Suf-2 X=an,
25:u:Cap-2 L=initial/initial,
22:u:Cap-3 L=none/initial,
19:u:Key-3 L=none/none,
14:u:Pct-1 L=none,
14:*:Tmn-1 L=none,
16:u:Tmn-3 X=none/n,
13:u:tok-1LL=the,
12:u:tok-1 R=of,
12:u:Fst-1 R=Ll,
14:u:Fst-2 X=Lu/W,
14:u:Fst-2 R=Ll/o,
14:u:Lst-2 L=Ll/n,
14:u:Lst-2 X=Ll/y,
11:u:Pre-1 X=W,
12:u:Pre-2 X=Wa,
12:u:Pre-2 R=of,
11:u:Suf-1 X=y,
12:u:Suf-2 L=an,
15:u:Cap-1 R=lower,
23:u:Cap-2 R=initial/lower,
11:u:Pos-1 X=2,
13:u:Pos-2 R=2/2,
16:u:Tmn-3 X=none/y,
20:u:Tmn-4 R=none/lower,
12:u:Tok-1 X=of,
12:u:tok-1 X=of,
12:*:Fst-1 X=Ll,
14:u:Fst-2 X=Ll/o,
14:u:Lst-2 L=Ll/y,
14:u:Lst-2 X=Ll/f,
11:u:Pre-1 X=o,
12:u:Pre-2 X=of,
12:u:Pre-2 R=De,
11:u:Suf-1 X=f,
12:u:Suf-2 X=of,
15:u:Cap-1 X=lower,
23:u:Cap-2 L=initial/lower,
23:u:Cap-2 R=lower/initial,
20:u:Cap-3 L=none/lower,
20:u:Key-2 X=none/lower,
13:u:Pos-2 L=2/2,
13:u:Pos-2 R=2/3,
15:u:Pct-1 R=colon,
18:u:Tmn-1 R=moderate,
16:u:Tmn-3 X=none/f,
12:u:tok-1 L=of,
14:u:Fst-2 R=Lu/S,
14:u:Lst-2 L=Ll/f,
13:u:Lst-2 X=P/:,
12:u:Pre-2 X=De,
12:u:Pre-2 R=St,
11:u:Suf-1 X=:,
12:u:Suf-2 L=of,
12:u:Suf-2 X=e:,
15:u:Cap-1 L=lower,
23:u:Cap-2 L=lower/initial,
23:u:Num-2 R=none/moderate,
23:u:Key-3 x=none/moderate,
11:u:Pos-1 X=3,
13:u:Pos-2 L=2/3,
13:u:Pos-2 R=3/3,
15:u:Pct-1 X=colon,
18:u:Tmn-1 X=moderate,
23:u:Tmn-2 L=none/moderate,
23:u:Tmn-2 R=moderate/none,
20:u:Tmn-3 X=moderate/:,
26:u:Tmn-4 R=moderate/initial,
11:u:Id--1 X=T,
12:u:tok-1LL=of,
14:u:Fst-2 X=Lu/S,
14:u:Fst-2 R=Lu/C,
13:u:Lst-2 L=P/:,
14:u:Lst-2 X=Ll/c,
11:u:Pre-1 X=S,
12:u:Pre-2 X=St,
11:u:Suf-1 X=c,
12:u:Suf-2 X=ic,
26:u:Cap-3 L=moderate/initial,
23:u:Key-3 L=moderate/none,
13:u:Pos-2 L=3/3,
13:u:Pos-2 R=3/4,
15:u:Pct-1 L=colon,
15:u:Pct-1 R=other,
18:*:Tmn-1 L=moderate,
14:u:Tmn-1 R=weak,
16:u:Tmn-3 X=none/c,
13:u:tok-1RR=and,
14:u:Fst-2 X=Lu/C,
11:u:Pre-1 X=C,
12:u:Pre-2 R=Co,
11:u:Pos-1 X=4,
13:u:Pos-2 L=3/4,
13:u:Pos-2 R=4/4,
19:u:Tmn-2 L=none/weak,
22:u:Tmn-4 R=weak/initial,
13:u:tok-1 R=and,
14:u:Fst-2 R=Ll/a,
12:u:Pre-2 X=Co,
12:u:Pre-2 R=an,
22:u:Cap-3 L=weak/initial,
13:u:Key-1 R=and,
13:u:Pos-2 L=4/4,
13:u:Pos-2 R=4/5,
18:u:Tmn-2 R=weak/and,
20:u:Tmn-4 R=weak/lower,
13:u:Tok-1 X=and,
13:u:tok-1 X=and,
14:u:Fst-2 X=Ll/a,
14:u:Lst-2 X=Ll/d,
11:u:Pre-1 X=a,
12:u:Pre-2 X=an,
11:u:Suf-1 X=d,
12:u:Suf-2 X=nd,
20:u:Cap-3 L=weak/lower,
13:u:Key-1 X=and,
19:u:Key-2 X=and/lower,
18:u:Key-3 L=weak/and,
18:u:Key-3 x=and/none,
11:u:Pos-1 X=5,
13:u:Pos-2 L=4/5,
13:u:Pos-2 R=5/5,
16:u:Tmn-3 X=none/d,
13:u:tok-1 L=and,
11:u:Fst-1 R=N,
13:u:Fst-2 R=N/2,
14:u:Lst-2 L=Ll/d,
13:u:Lst-2 X=P/',
12:u:Pre-2 R=20,
11:u:Suf-1 X=',
12:u:Suf-2 L=nd,
15:u:Cap-1 R=other,
23:u:Cap-2 R=initial/other,
14:u:Num-1 R=year,
13:u:Key-1 L=and,
13:u:Pos-2 L=5/5,
13:u:Pos-2 R=5/6,
20:u:Tmn-3 X=moderate/',
13:u:tok-1LL=and,
11:*:Fst-1 X=N,
13:u:Fst-2 X=N/2,
11:u:Lst-1 X=N,
13:u:Lst-2 L=P/',
13:u:Lst-2 X=N/3,
11:u:Pre-1 X=2,
12:u:Pre-2 X=20,
11:u:Suf-1 X=3,
15:u:Cap-1 X=other,
23:u:Cap-2 L=initial/other,
23:u:Cap-2 R=other/initial,
14:*:Num-1 X=year,
19:u:Num-2 R=year/none,
20:u:Key-2 X=none/other,
11:u:Pos-1 X=6,
13:u:Pos-2 L=5/6,
13:u:Pos-2 R=6/6,
16:u:Tmn-3 X=none/3,
14:u:tok-1 L=2023,
11:*:Lst-1 L=N,
13:u:Lst-2 L=N/3,
12:u:Suf-2 L=23,
15:u:Cap-1 L=other,
23:u:Cap-2 L=other/initial,
14:*:Num-1 L=year,
13:u:Pos-2 L=6/6,
13:u:Pos-2 R=6/7,
11:u:Pos-1 X=7,
13:u:Pos-2 L=6/7,
13:u:Pos-2 R=7/7,
13:u:Pos-2 L=7/7,
13:u:Pos-2 R=7/8,
11:u:Pos-1 X=8,
13:u:Pos-2 L=7/8,
13:u:Pos-2 R=8/8,
20:u:tok-1RR=university,
13:u:Pos-2 L=8/8,
13:u:Pos-2 R=8/9,
14:u:Fst-2 R=Lu/U,
12:u:Suf-2 X=rd,
11:u:Loc-1 X=T,
11:u:Pos-1 X=9,
13:u:Pos-2 L=8/9,
13:u:Pos-2 R=9/9,
14:u:tok-1RR=_x+1,
14:u:Fst-2 X=Lu/U,
14:u:Fst-2 R=Lu/P,
11:u:Pre-1 X=U,
12:u:Pre-2 X=Un,
12:u:Pre-2 R=Pr,
12:u:Suf-2 L=rd,
12:u:Suf-2 X=ty,
13:u:Pos-2 L=9/9,
16:u:Pos-2 R=9/last,
14:u:tok-1 R=_x+1,
14:u:tok-1RR=_x+2,
14:u:Fst-1 R=_x+1,
14:u:Fst-2 X=Lu/P,
19:u:Fst-2 R=_x+1/_x+1,
14:u:Lst-2 X=Ll/s,
11:u:Pre-1 X=P,
12:u:Pre-2 X=Pr,
14:u:Pre-2 R=_x+1,
11:u:Suf-1 X=s,
12:u:Suf-2 L=ty,
12:u:Suf-2 X=ss,
14:u:Cap-1 R=_x+1,
22:u:Cap-2 R=initial/_x+1,
14:u:Num-1 R=_x+1,
14:u:Key-1 R=_x+1,
14:u:Pos-1 X=last,
16:u:Pos-2 L=9/last,
19:u:Pos-2 R=last/_x+1,
14:u:Pct-1 R=_x+1,
14:u:Brk-1 R=_x+1,
14:u:Tmn-1 R=_x+1,
19:u:Tmn-2 R=none/_x+1,
16:u:Tmn-3 X=none/s,
19:u:Tmn-4 R=none/_x+1,
14:u:Fst-2 R=Lu/E,
21:u:Num-2 R=none/strong,
14:u:Fst-2 X=Lu/E,
11:u:Pre-1 X=E,
12:u:Pre-2 X=Ec,
12:u:Suf-2 X=em,
14:u:Lst-2 L=Ll/m,
12:u:Suf-2 X=as,
14:u:Fst-2 R=Lu/A,
14:u:Lst-2 L=Ll/s,
12:u:Pre-2 R=An,
12:u:Suf-2 L=as,
13:u:tok-1RR=for,
12:u:Pre-2 X=Ac,
13:u:tok-1 R=for,
14:u:Fst-2 R=Ll/f,
14:u:Lst-2 X=Ll/t,
11:u:Suf-1 X=t,
16:u:Tmn-3 X=none/t,
17:u:tok-1RR=journal,
14:u:Lst-2 L=Ll/t,
14:u:Lst-2 X=Ll/r,
11:u:Suf-1 X=r,
16:u:Tmn-3 X=none/r,
13:u:tok-1 L=for,
17:u:tok-1 R=journal,
14:u:Fst-2 R=Lu/J,
14:u:Lst-2 L=Ll/r,
12:u:Pre-2 R=Jo,
12:u:Suf-2 L=or,
17:u:Key-1 R=journal,
17:u:Tok-1 X=Journal,
17:u:tok-1 X=journal,
13:u:tok-1LL=for,
20:u:tok-2 R=journal/of,
14:u:Fst-2 X=Lu/J,
14:u:Lst-2 X=Ll/l,
11:u:Pre-1 X=J,
12:u:Pre-2 X=Jo,
11:u:Suf-1 X=l,
12:u:Suf-2 X=al,
17:u:Key-1 X=journal,
25:u:Key-2 X=journal/initial,
22:u:Key-3 x=journal/none,
16:u:Tmn-3 X=none/l,
17:u:tok-1 L=journal,
20:u:tok-2 L=journal/of,
14:u:Fst-2 R=Lu/M,
14:u:Lst-2 L=Ll/l,
12:u:Pre-2 R=Ma,
12:u:Suf-2 L=al,
17:u:Key-1 L=journal,
22:u:Tmn-2 L=journal/none,
17:u:tok-1LL=journal,
14:u:Fst-2 X=Lu/M,
13:u:Fst-2 R=N/4,
11:u:Pre-1 X=M,
12:u:Pre-2 X=Ma,
12:u:Suf-2 X=nt,
16:u:Num-1 R=double,
20:u:Tmn-4 R=none/other,
13:u:Fst-2 R=N/1,
12:u:Suf-2 L=nt,
21:u:Cap-2 R=other/other,
20:u:Cap-3 L=none/other,
16:*:Num-1 X=double,
16:u:Num-1 R=single,
21:u:Num-2 R=double/none,
11:u:Tok-1 X=1,
11:u:tok-1 X=1,
13:u:Fst-2 X=N/1,
13:u:Fst-2 R=N/3,
13:u:Lst-2 X=N/1,
11:u:Pre-1 X=1,
11:u:Pre-2 X=1,
11:u:Suf-1 X=1,
11:u:Suf-2 X=1,
21:u:Cap-2 L=other/other,
16:*:Num-1 L=double,
16:*:Num-1 X=single,
15:u:Num-1 R=range,
21:u:Num-2 R=single/none,
16:u:Pct-1 R=hyphen,
16:u:Tmn-3 X=none/1,
13:u:Lst-2 L=N/1,
16:*:Num-1 L=single,
15:*:Num-1 X=range,
20:u:Num-2 R=range/none,
16:u:Pct-1 X=hyphen,
13:u:Lst-2 L=N/8,
13:u:Lst-2 X=N/7,
11:u:Suf-1 X=7,
20:u:Cap-2 R=other/_x+1,
15:*:Num-1 L=range,
16:u:Pct-1 L=hyphen,
16:u:Tmn-3 X=none/7,
18:u:tok-1RR=economic,
14:u:Fst-2 X=Lu/B,
11:u:Pre-1 X=B,
12:u:Pre-2 X=Ba,
14:u:Cap-1 R=caps,
22:u:Cap-2 R=initial/caps,
14:u:Cap-1 X=caps,
22:u:Cap-2 L=initial/caps,
22:u:Cap-2 R=caps/initial,
19:u:Key-2 X=none/caps,
13:u:tok-1RR=new,
14:u:Cap-1 L=caps,
22:u:Cap-2 L=caps/initial,
18:u:tok-1 L=economic,
13:u:tok-1 R=new,
14:u:Fst-2 R=Lu/N,
12:u:Pre-2 R=Ne,
13:u:Tok-1 X=New,
13:u:tok-1 X=new,
14:u:Fst-2 X=Lu/N,
14:u:Lst-2 X=Ll/w,
11:u:Pre-1 X=N,
11:u:Suf-1 X=w,
12:u:Suf-2 X=ew,
16:u:Tmn-3 X=none/w,
17:u:Tok-1 X=Edition,
17:u:tok-1 X=edition,
13:u:tok-1 L=new,
12:u:Suf-2 L=ew,
12:u:Suf-2 X=on,
17:u:Key-1 X=edition,
25:u:Key-2 X=edition/initial,
22:u:Key-3 L=none/edition,
22:u:Key-3 x=edition/none,
13:u:tok-1LL=new,
17:u:tok-1 L=edition,
12:u:Suf-2 L=on,
17:u:Key-1 L=edition,
22:u:Tmn-2 L=edition/none,
16:u:Pos-2 R=8/last,
16:u:Pos-2 L=8/last,
12:u:Pre-2 X=Be,
12:u:Suf-2 L=s,,
12:u:Pre-2 X=Do,
14:u:Fst-2 R=Lu/I,
14:u:Fst-2 X=Lu/I,
14:u:Fst-2 R=Lu/G,
11:u:Pre-1 X=I,
12:u:Pre-2 R=In,
12:u:Pre-2 X=In,
12:u:Pre-2 R=Re,
12:u:Pre-2 X=Re,
12:u:Suf-2 X=ce,
12:u:Suf-2 L=ce,
14:u:Fst-2 X=Lu/K,
11:u:Pre-1 X=K,
12:u:Suf-2 X=us,
12:u:Pre-2 R=19,
12:u:Suf-2 L=us,
12:u:Pre-2 X=19,
12:u:Pre-2 R=Po,
15:u:tok-1 X=power,
13:u:Lst-2 L=N/2,
12:u:Pre-2 X=Po,
12:u:Suf-2 L=92,
12:u:Pre-2 R=Se,
12:u:Pre-2 X=Se,
15:u:tok-1 R=cyber,
14:u:Lst-2 X=Ll/g,
12:u:Pre-2 R=Cy,
11:u:Suf-1 X=g,
12:u:Suf-2 X=ng,
16:u:Tmn-3 X=none/g,
15:u:tok-1 X=cyber,
14:u:Lst-2 L=Ll/g,
12:u:Pre-2 X=Cy,
12:u:Suf-2 L=ng,
12:u:Suf-2 X=er,
15:u:tok-1 L=cyber,
12:u:Suf-2 L=er,
12:u:Suf-2 X=n:,
15:u:tok-1LL=cyber,
12:u:Suf-2 L=n:,
12:u:Suf-2 X=ed,
12:u:Suf-2 L=ed,
12:u:Pre-2 R=At,
17:u:tok-1RR=foreign,
17:u:tok-1 R=foreign,
14:u:Fst-2 R=Lu/F,
12:u:Pre-2 R=Fo,
17:u:Tok-1 X=Foreign,
17:u:tok-1 X=foreign,
14:u:Fst-2 X=Lu/F,
11:u:Pre-1 X=F,
12:u:Pre-2 X=Fo,
12:u:Suf-2 X=gn,
12:u:Pre-2 R=Ha,
14:u:Fst-2 X=Lu/H,
11:u:Pre-1 X=H,
12:u:Suf-2 X=rs,
18:u:Tmn-2 R=none/and,
18:u:Key-3 L=none/and,
12:u:tok-1RR=in,
18:u:Tmn-2 L=and/none,
12:u:tok-1 R=in,
14:u:Fst-2 R=Ll/i,
12:u:Pre-2 R=in,
12:u:Key-1 R=in,
17:u:Tmn-2 R=none/in,
12:u:Tok-1 X=in,
12:u:tok-1 X=in,
14:u:Fst-2 X=Ll/i,
14:u:Fst-2 R=Ll/t,
11:u:Pre-1 X=i,
12:u:Pre-2 X=in,
12:u:Pre-2 R=th,
12:u:Suf-2 X=in,
21:u:Cap-2 R=lower/lower,
12:u:Key-1 X=in,
18:u:Key-2 X=in/lower,
17:u:Key-3 L=none/in,
17:u:Key-3 x=in/none,
13:u:Tok-1 X=the,
12:u:tok-1 L=in,
14:u:Fst-2 X=Ll/t,
11:u:Pre-1 X=t,
12:u:Pre-2 X=th,
12:u:Suf-2 L=in,
21:u:Cap-2 L=lower/lower,
12:u:Key-1 L=in,
17:u:Tmn-2 L=in/none,
19:u:Tmn-4 R=none/caps,
12:u:tok-1LL=in,
12:u:Lst-1 X=Lu,
20:u:Cap-2 L=lower/caps,
19:u:Cap-3 L=none/caps,
12:*:Lst-1 L=Lu,
17:u:tok-1RR=unknown,
12:u:Fst-1 R=Ps,
14:u:Fst-2 R=Ps/(,
12:u:Pre-2 R=(2,
16:u:Brk-1 R=parens,
12:*:Fst-1 X=Ps,
14:u:Fst-2 X=Ps/(,
11:u:Pre-1 X=(,
12:u:Pre-2 X=(2,
12:u:Suf-2 X=).,
21:u:Num-2 R=year/parens,
21:u:Num-2 R=year/strong,
16:u:Brk-1 X=parens,
14:u:Fst-2 R=Lu/L,
14:u:Fst-2 X=Lu/L,
11:u:Pre-1 X=L,
17:u:tok-1 R=chinese,
13:u:Lst-2 X=P/?,
11:u:Suf-1 X=?,
16:u:Tmn-3 X=weak/?,
13:u:Lst-2 L=P/?,
12:u:Pre-2 X=Ch,
22:u:tok-1 R=perspectives,
12:u:tok-1RR=on,
12:u:Pre-2 R=Pe,
22:u:Tok-1 X=Perspectives,
22:u:tok-1 X=perspectives,
12:u:tok-1 R=on,
25:u:tok-2 R=perspectives/on,
12:u:Pre-2 R=on,
12:u:Suf-2 X=es,
12:u:Tok-1 X=on,
12:u:tok-1 X=on,
22:u:tok-1 L=perspectives,
25:u:tok-2 L=perspectives/on,
12:u:Pre-2 X=on,
12:u:Suf-2 L=es,
20:u:Tok-1 X=Cyberspace,
20:u:tok-1 X=cyberspace,
12:u:tok-1 L=on,
12:u:tok-1LL=on,
20:u:tok-1 L=cyberspace,
12:u:Pre-2 X=Bu,
12:u:Pre-2 R=Na,
12:u:Pre-2 X=Na,
14:u:Fst-2 R=Ll/e,
23:u:tok-1RR=international,
14:u:Fst-2 X=Ll/e,
11:u:Pre-1 X=e,
23:u:tok-1 R=international,
23:u:tok-1 X=international,
23:u:tok-1 L=international,
18:u:tok-1 R=handbook,
14:u:Lst-2 X=Ll/h,
11:u:Suf-1 X=h,
12:u:Suf-2 X=ch,
16:u:Tmn-3 X=none/h,
18:u:Tok-1 X=Handbook,
18:u:tok-1 X=handbook,
14:u:Lst-2 L=Ll/h,
14:u:Lst-2 X=Ll/k,
11:u:Suf-1 X=k,
12:u:Suf-2 L=ch,
16:u:Tmn-3 X=none/k,
18:u:tok-1LL=research,
18:u:tok-1 L=handbook,
14:u:Lst-2 L=Ll/k,
12:u:Suf-2 L=ok,
23:u:Tok-1 X=International,
18:u:tok-1LL=handbook,
13:u:tok-1 R=law,
12:u:Pre-2 X=La,
12:u:Pre-2 X=El,
12:u:Pre-2 R=Pu,
12:u:Suf-2 L=ar,
14:u:Fst-2 R=Lu/B,
11:u:tok-1 X=b,
15:u:Tok-1 X=State,
15:u:tok-1 X=state,
12:u:Suf-2 X=te,
15:u:tok-1 L=state,
12:u:Suf-2 L=te,
12:u:Suf-2 X=ne,
12:u:Pre-2 R=Lo,
12:u:Suf-2 X=ns,
12:u:Suf-2 L=ns,
12:u:Pre-2 R=Sy,
12:u:Pre-2 X=Sy,
16:u:tok-1RR=review,
16:u:tok-1 R=review,
22:u:Tmn-2 R=none/journal,
13:u:Fst-2 R=N/7,
22:u:Key-3 L=none/journal,
11:u:Tok-1 X=7,
11:u:tok-1 X=7,
13:u:Fst-2 X=N/7,
11:u:Pre-1 X=7,
11:u:Pre-2 X=7,
11:u:Suf-2 X=7,
14:u:tok-1RR=2022,
14:u:tok-1 R=2022,
23:u:tok-1 X=cybersecurity,
14:u:Fst-2 R=Ll/s,
14:u:Fst-2 X=Ll/s,
11:u:Pre-1 X=s,
12:u:Pre-2 R=Af,
23:u:Brk-1 L=opening-paren,
26:u:tok-2 L=of/international,
12:u:tok-1 L=92,
14:u:tok-1RR=2016,
13:u:Lst-2 X=N/6,
11:u:Suf-1 X=6,
12:u:Suf-2 X=16,
16:u:Tmn-3 X=none/6,
12:u:Suf-2 L='s,
18:u:tok-1RR=security,
18:u:tok-1 R=security,
18:u:Tok-1 X=Security,
32:u:tok-2 L=international/security,
18:u:tok-1LL=security,
13:u:Lst-2 X=N/4,
11:u:Suf-1 X=4,
16:u:Tmn-3 X=none/4,
21:u:Tok-1 X=Information,
21:u:tok-1 X=information,
12:u:Pre-2 R=Ci,
12:u:Pre-2 R=Ge,
11:u:tok-1RR=a,
11:u:tok-1 R=a,
11:u:Pre-2 R=a,
11:u:Tok-1 X=a,
11:u:tok-1 X=a,
14:u:Lst-2 X=Ll/a,
11:u:Pre-2 X=a,
11:u:Suf-1 X=a,
11:u:Suf-2 X=a,
16:u:Tmn-3 X=none/a,
11:u:tok-1 L=a,
14:u:Lst-2 L=Ll/a,
14:u:Fst-2 R=Lu/O,
15:u:Tok-1 X=Order,
15:u:tok-1 X=order,
14:u:tok-1 R=2024,
14:u:Fst-2 X=Lu/O,
11:u:Pre-1 X=O,
12:u:Pre-2 X=Or,
14:u:Fst-2 R=Lu/Y,
12:u:Pre-2 R=J.,
11:u:tok-1 X=j,
12:u:Pre-2 X=J.,
12:u:Suf-2 X=et,
17:u:tok-1 R=studies,
17:u:Tok-1 X=Studies,
13:u:Lst-2 X=N/9,
11:u:Suf-1 X=9,
16:u:Tmn-3 X=none/9,
12:u:Pre-2 R=Li,
12:u:Pre-2 X=Li,
14:u:Fst-2 X=Ll/v,
11:u:Pre-1 X=v,
18:u:Tok-1 X=Control:,
20:u:tok-1LL=liberation,
12:u:tok-1 L=vs,
21:u:tok-2 L=vs/control:,
22:u:tok-2 R=control:/the,
12:u:Suf-2 L=vs,
12:u:Suf-2 X=l:,
12:u:Suf-2 X=re,
12:u:Suf-2 L=re,
11:u:Fst-1 R=P,
13:u:Fst-2 R=P/*,
11:*:Fst-1 X=P,
13:u:Fst-2 X=P/*,
11:u:Pre-1 X=*,
19:u:tok-1 X=democracy,
12:u:Pre-2 R=Ca,
12:u:Pre-2 X=Fa,
12:u:Suf-2 X=L.,
12:u:Suf-2 L=L.,
13:u:tok-1LL=how,
12:u:Suf-2 L=ks,
12:u:Suf-2 L=pe,
14:u:tok-1 R=2019,
12:u:Suf-2 L=s:,
12:u:Pre-2 X=Qu,
14:u:tok-1 R=*the,
19:u:tok-1RR=political,
12:u:Pre-2 R=*T,
19:u:Tok-1 X=Political,
19:u:tok-1 X=political,
19:u:tok-1LL=political,
15:u:tok-1RR=power,
15:u:tok-1 R=power,
15:u:Tok-1 X=Power,
12:u:Suf-2 L=at,
12:u:Pre-2 R=En,
12:u:Pre-2 X=Gr,
14:u:Lst-2 X=Lu/A,
11:u:Suf-1 X=A,
16:u:Tmn-3 X=none/A,
14:u:Lst-2 L=Lu/A,
12:u:Suf-2 X=ia,
12:u:Suf-2 L=ia,
16:u:tok-1LL=russia,
12:u:Suf-2 X=cy,
12:u:Pre-2 R=No,
12:u:Suf-2 L=cy,
12:u:Pre-2 X=No,
12:u:Pre-2 R=US,
12:u:tok-1 X=us,
12:u:Pre-2 X=US,
12:u:Pre-2 R=Go,
16:u:tok-1RR=policy,
16:u:tok-1 R=policy,
16:u:tok-1 X=policy,
14:u:Fst-2 R=Ll/b,
24:u:Cap-3 L=moderate/lower,
18:u:tok-1 R=politics,
12:u:Suf-2 X=ry,
12:u:Suf-2 L=ry,
12:u:Suf-2 L=cs,
12:u:Suf-2 L=ss,
13:u:Fst-2 X=P/',
11:u:Pre-1 X=',
12:u:Pre-2 R=Ar,
12:u:Suf-2 L=':,
16:*:Num-1 X=triple,
21:u:Num-2 R=triple/none,
16:*:Num-1 L=triple,
20:u:Cap-2 R=other/caps,
20:u:Cap-2 L=other/caps,
14:u:Fst-2 R=Ll/w,
14:u:Fst-2 X=Ll/w,
11:u:Pre-1 X=w,
12:u:Suf-2 X=th,
12:u:Pre-2 R=Wo,
12:u:Pre-2 X=Wo,
15:u:tok-1 R=media,
15:u:tok-1LL=media,
14:u:tok-1RR=2012,
14:u:Lst-2 L=Ll/p,
12:u:Pre-2 X=Tr,
12:u:tok-1RR=to,
12:u:tok-1 R=to,
12:u:Pre-2 R=to,
14:u:Lst-2 X=Ll/o,
11:u:Suf-1 X=o,
16:u:Tmn-3 X=none/o,
12:u:tok-1 L=to,
14:u:Lst-2 L=Ll/o,
12:u:Suf-2 L=to,
26:u:tok-2 R=in/international,
14:u:tok-1RR=2018,
12:u:Suf-2 X=ts,
12:u:Suf-2 L=ts,
16:u:tok-1LL=threat,
12:u:Suf-2 L=rk,
17:u:tok-1 X=opinion,
20:u:Cap-2 R=caps/other,
13:u:Fst-2 R=N/5,
13:u:Lst-2 X=N/5,
11:u:Suf-1 X=5,
16:u:Tmn-3 X=none/5,
16:u:tok-1 X=annual,
17:u:tok-1 X=science,
11:u:tok-1 R=3,
12:u:Pre-2 X=Sc,
11:u:Pre-2 R=3,
16:u:Tok-1 X=Oxford,
16:u:tok-1 X=oxford,
12:u:Pre-2 X=Ox,
16:u:tok-1 L=oxford,
16:u:tok-1LL=oxford,
20:u:tok-1 X=technology,
12:u:Suf-2 L=gy,
22:u:tok-1 X=contemporary,
12:u:Pre-2 X=Op,
13:u:Tok-1 X=War,
13:u:tok-1 L=war,
12:u:Suf-2 X=ll,
12:u:Pre-2 R=Bu,
17:u:tok-1LL=digital,
14:u:tok-2 R=of/a,
14:u:tok-2 L=of/a,
12:u:tok-1RR=by,
12:u:tok-1 R=by,
12:u:Pre-2 R=by,
12:u:tok-1LL=by,
21:u:Cap-2 R=lower/other,
21:u:Cap-2 L=lower/other,
17:u:Num-1 R=numeric,
17:*:Num-1 X=numeric,
22:u:Num-2 R=numeric/none,
24:u:Num-2 R=numeric/strong,
12:u:Tok-1 X=US,
14:u:Lst-2 X=Lu/S,
11:u:Suf-1 X=S,
12:u:Suf-2 X=US,
16:u:Tmn-3 X=none/S,
17:u:Num-1 R=ordinal,
21:u:Cap-2 R=other/lower,
17:*:Num-1 X=ordinal,
22:u:Num-2 R=ordinal/none,
21:u:Cap-2 L=other/lower,
12:u:Suf-2 X=gs,
12:u:Suf-2 L=gs,
11:u:Tok-1 X=A,
11:u:Pre-2 X=A,
11:u:Suf-2 X=A,
11:u:Suf-2 L=A,
22:u:Cap-2 L=single/other,
21:u:Tmn-4 R=none/single,
21:u:Cap-3 L=none/single,
12:u:Pre-2 R=Ce,
12:u:Pre-2 X=Ce,
12:u:Pre-2 R=Te,
20:u:Tok-1 X=Technology,
12:u:Suf-2 L=ms,
17:u:tok-1RR=(2022).,
18:u:tok-2 L=of/power,
14:u:Lst-2 X=Ll/i,
11:u:Suf-1 X=i,
16:u:Tmn-3 X=none/i,
12:u:Pre-2 X=Hi,
17:u:tok-1LL=context,
12:u:tok-1 L=eu,
14:u:Lst-2 L=Lu/U,
12:u:Suf-2 L=EU,
18:u:tok-1 X=campaign,
18:u:tok-1 X=election,
18:u:tok-1LL=election,
12:u:Pre-2 R=wa,
12:u:Pre-2 X=He,
19:u:tok-1RR=president,
19:u:tok-1 R=president,
19:u:Tok-1 X=President,
19:u:tok-1 X=president,
19:u:tok-1 L=president,
20:u:Tok-1 X=Washington,
20:u:tok-1 X=washington,
14:u:tok-1 R=post,
25:u:tok-2 R=washington/post,
14:u:Pos-2 R=9/10,
12:u:Pos-1 X=10,
14:u:Pos-2 L=9/10,
17:u:Pos-2 R=10/last,
12:u:Suf-2 X=ck,
12:u:Pre-2 X=ve,
18:u:tok-1LL=conflict,
16:u:tok-1 R=system,
13:u:tok-1RR=int,
16:u:Tok-1 X=System,
16:u:tok-1 X=system,
13:u:tok-1 R=int,
30:u:tok-2 L=international/system,
13:u:Tok-1 X=Int,
13:u:tok-1 X=int,
16:u:tok-1LL=system,
12:u:tok-1LL=38,
12:u:Pre-2 X=Ra,
19:u:tok-1 R=democracy,
17:u:Tok-1 X=Hacking,
17:u:tok-1 X=hacking,
19:u:tok-1 L=democracy,
13:u:tok-1LL=aff,
21:u:Num-2 R=volume/none,
16:*:Num-1 L=volume,
12:u:Suf-2 X=ur,
11:u:tok-1RR=j,
11:u:tok-1 R=j,
11:u:Pre-2 R=J,
22:u:Cap-2 R=lower/single,
11:u:Tok-1 X=J,
14:u:Lst-2 X=Lu/J,
11:u:Pre-2 X=J,
11:u:Suf-1 X=J,
11:u:Suf-2 X=J,
16:u:Tmn-3 X=none/J,
16:u:Tok-1 X=Policy,
12:u:Suf-2 X=mp,
22:u:tok-1 L=manipulation,
29:u:tok-2 L=manipulation/oxford,
25:u:tok-2 R=oxford/handbook,
22:u:tok-1LL=manipulation,
21:u:Cap-2 R=caps/single,
15:u:Tok-1 X=Secur,
15:u:tok-1 X=secur,
12:u:Pre-2 R=Am,
12:u:Tok-1 X=Am,
12:u:tok-1 X=am,
12:u:Pre-2 X=Am,
12:u:Suf-2 X=Am,
15:u:tok-1LL=obama,
17:u:Tok-1 X=Opinion,
17:u:tok-1LL=opinion,
14:u:tok-1 R=york,
15:u:tok-1RR=times,
18:u:tok-2 R=new/york,
12:u:Pre-2 R=Yo,
15:u:tok-1LL=times,
12:u:Suf-2 X=it,
14:u:Key-1 R=date,
19:u:Tmn-2 R=none/date,
14:u:Key-1 X=date,
22:u:Key-2 X=date/initial,
19:u:Key-3 L=none/date,
19:u:Key-3 x=date/none,
14:u:Key-1 L=date,
12:u:Pre-2 R=17,
12:u:Suf-2 X=il,
12:u:Suf-2 L=il,
17:u:Tok-1 X=History,
17:u:tok-1 X=history,
17:u:tok-1 L=history,
15:u:tok-1 R=naval,
16:u:tok-1RR=instit,
20:u:tok-2 L=history/us,
18:u:tok-2 R=us/naval,
14:u:Lst-2 L=Lu/E,
19:u:Tok-1 X=Anonymous,
24:u:tok-2 L=_x-1/anonymous,
19:u:Tmn-2 L=_x-1/none,
12:u:Pre-2 R=Me,
12:u:Pre-2 R=Ba,
17:u:Tok-1 X=Science,
14:u:tok-1LL=user,
18:u:tok-1 L=numbers?,
21:u:tok-1 R=*factsheets,
17:u:tok-1RR=reuters,
26:u:tok-2 L=numbers?/science,
29:u:tok-2 R=science/*factsheets,
17:u:tok-1 R=reuters,
17:u:Tok-1 X=Reuters,
17:u:tok-1 X=reuters,
12:u:Suf-2 L=sh,
16:u:tok-1RR=commun,
18:u:tok-1 R=american,
18:u:Tok-1 X=American,
18:u:tok-1 X=american,
24:u:tok-2 R=foreign/policy,
14:u:tok-1RR=2009,
20:u:tok-1 L=government,
16:u:Tok-1 X=Annual,
21:u:Key-1 R=proceedings,
26:u:Tmn-2 R=none/proceedings,
21:u:Key-1 X=proceedings,
29:u:Key-2 X=proceedings/initial,
26:u:Key-3 L=none/proceedings,
26:u:Key-3 x=proceedings/none,
21:u:Key-1 L=proceedings,
26:u:Tmn-2 L=proceedings/none,
12:u:Pre-2 X=U.,
14:u:tok-1LL=u.s,,
19:u:tok-1RR=september,
19:u:tok-1 R=september,
19:u:tok-1 L=september,
18:u:tok-1RR=measures,
13:u:tok-1 R=u.s,
13:u:Tok-1 X=U.S,
12:u:Suf-2 X=.S,
15:u:Tok-1 X=Trump,
15:u:tok-1 X=trump,
18:u:Tok-1 X=Resource,
18:u:tok-1 X=resource,
16:u:tok-1LL=agenda,
18:u:tok-1 L=building,
16:u:tok-1 R=centre,
27:u:tok-2 L=building/resource,
25:u:tok-2 R=resource/centre,
18:u:Tok-1 X=Atlantic,
18:u:tok-1 X=atlantic,
17:u:Tok-1 X=Cartogr,
17:u:tok-1 X=cartogr,
17:u:tok-1 L=content,
15:u:tok-1 R=geogr,
13:u:tok-1RR=inf,
25:u:tok-2 L=content/cartogr,
23:u:tok-2 R=cartogr/geogr,
12:u:Suf-2 X=gr,
14:u:tok-1RR=ieee,
14:u:tok-1 X=ieee,
12:u:Suf-2 X=EE,
13:u:tok-1RR=soc,
12:u:Pre-2 R=36,
22:u:tok-1LL=presidential,
19:u:tok-1 R=marketing,
28:u:tok-2 L=election/political,
29:u:tok-2 R=political/marketing,
13:u:tok-1LL=was,
18:u:Tok-1 X=Campaign,
20:u:tok-1LL=republican,
20:u:tok-1 L=nomination,
29:u:tok-2 L=nomination/campaign,
21:u:tok-2 R=campaign/am,
18:u:Tok-1 X=Evidence,
18:u:tok-1 X=evidence,
18:u:tok-1 L=opinions,
17:u:tok-1RR=#brexit,
27:u:tok-2 L=opinions/evidence,
23:u:tok-2 R=evidence/from,
18:u:tok-1 L=evidence,
23:u:tok-2 L=evidence/from,
13:u:Fst-2 R=P/#,
21:u:tok-1 L=attribution,
12:u:Pre-2 R=(1,
17:u:tok-1 R=council,
21:u:tok-1 R=proceedings,
21:u:Tok-1 X=Proceedings,
21:u:tok-1 X=proceedings,
17:u:tok-1 L=council,
24:u:tok-2 R=proceedings/of,
21:u:tok-1 L=proceedings,
18:u:tok-1RR=workshop,
24:u:tok-2 L=proceedings/of,
21:u:tok-1LL=proceedings,
18:u:tok-1 R=workshop,
20:u:tok-2 R=a/workshop,
12:u:Pre-2 R=Of,
12:u:Suf-2 X=en,
15:u:tok-1 R=36-40,
14:u:tok-1RR=8-15,
17:u:tok-2 R=1/36-40,
14:u:tok-1RR=conf,
23:u:tok-1RR=cybersecurity,
23:u:tok-1 R=cybersecurity,
26:u:tok-2 R=of/cybersecurity,
23:u:Tok-1 X=Cybersecurity,
26:u:tok-2 L=of/cybersecurity,
23:u:tok-1 L=cybersecurity,
23:u:tok-1LL=cybersecurity,
16:u:tok-1 L=header,
24:u:tok-2 L=header/journal,
16:u:tok-1LL=header,
31:u:tok-2 R=cybersecurity/journal,
15:u:tok-1 R=logic,
19:u:tok-2 R=the/logic,
15:u:Tok-1 X=Logic,
15:u:tok-1 X=logic,
19:u:tok-2 L=the/logic,
18:u:tok-2 R=logic/of,
15:u:tok-1 L=logic,
18:u:tok-2 L=logic/of,
15:u:tok-1LL=logic,
17:u:tok-1LL=kalyvas,
12:u:tok-1 L=sn,
16:u:tok-2 L=sn/the,
12:u:Suf-2 L=SN,
12:u:tok-1LL=sn,
18:u:tok-1RR=violence,
18:u:tok-1 R=violence,
21:u:tok-2 R=of/violence,
12:u:Pre-2 R=Vi,
18:u:Tok-1 X=Violence,
18:u:tok-1 X=violence,
15:u:tok-1RR=civil,
21:u:tok-2 L=of/violence,
21:u:tok-2 R=violence/in,
18:u:tok-1 L=violence,
15:u:tok-1 R=civil,
21:u:tok-2 L=violence/in,
18:u:tok-2 R=in/civil,
15:u:tok-1LL=costs,
17:u:tok-1LL=balance,
17:u:tok-2 R=power/j,
17:u:Tok-1 X=Lawfare,
17:u:tok-1 X=lawfare,
12:u:tok-1 L=bh,
17:u:tok-1 R=remarks,
20:u:tok-2 L=bh/lawfare,
25:u:tok-2 R=lawfare/remarks,
14:u:Lst-2 L=Lu/H,
12:u:Suf-2 L=BH,
17:u:Tok-1 X=Remarks,
17:u:tok-1 X=remarks,
12:u:tok-1LL=bh,
17:u:tok-1 L=lawfare,
25:u:tok-2 L=lawfare/remarks,
20:u:tok-2 R=remarks/by,
17:u:tok-1LL=lawfare,
17:u:tok-1 L=remarks,
20:u:tok-2 L=remarks/by,
16:u:tok-2 R=by/the,
17:u:tok-1LL=remarks,
16:u:tok-2 L=by/the,
23:u:tok-2 R=the/president,
23:u:tok-2 L=the/president,
22:u:tok-2 R=president/to,
18:u:tok-1RR=business,
22:u:tok-2 L=president/to,
16:u:tok-2 R=to/the,
18:u:tok-1 R=business,
20:u:tok-1RR=roundtable,
16:u:tok-2 L=to/the,
22:u:tok-2 R=the/business,
18:u:Tok-1 X=Conjoint,
18:u:tok-1 X=conjoint,
18:u:tok-1 L=conjoint,
22:u:Tok-1 X=Contemporary,
31:u:tok-2 R=contemporary/security,
12:u:Pre-2 R=Is,
12:u:Pre-2 X=Is,
12:u:Suf-2 X=74,
31:u:tok-2 R=international/studies,
16:u:Tok-1 X=Issues,
30:u:tok-2 L=international/issues,
30:u:tok-2 R=issues/international,
14:u:tok-1 R=june,
12:u:Pre-2 R=Ju,
15:u:Tok-1 X=March,
15:u:tok-1 X=march,
16:u:tok-1 X=ccdcoe,
12:u:Pre-2 X=CC,
11:u:tok-1LL=-,
20:u:tok-2 L=2023/march,
15:u:Tok-1 X=Norms,
16:u:Tok-1 X=vember,
16:u:tok-1 X=vember,
17:u:tok-1LL=prague,,
17:u:tok-1 L=czechia,
24:u:tok-2 L=czechia/vember,
18:u:tok-2 R=vember/3,
19:u:tok-1 L=technical,
18:u:Tok-1 X=Albanian,
18:u:tok-1 X=albanian,
29:u:tok-2 R=albanian/government,
13:u:tok-1LL=edi,
14:u:tok-1 L=rama,
23:u:tok-2 L=rama/albanian,
20:u:tok-1LL=ministers.,
21:u:tok-2 L=september/7,
16:u:tok-2 R=7/2022,
17:u:tok-1RR=federal,
17:u:tok-1 R=federal,
17:u:tok-1 L=federal,
12:u:Pre-2 X='S,
18:u:tok-1RR=a/70/174,
18:u:tok-1 R=a/70/174,
27:u:tok-2 R=security/a/70/174,
12:u:Pre-2 R=A/,
18:u:Tok-1 X=A/70/174,
16:u:tok-1 X=a70174,
27:u:tok-2 L=security/a/70/174,
23:u:tok-2 R=a/70/174/2015,
12:u:Pre-2 X=A/,
19:u:tok-1RR=kaspersky,
15:u:Tok-1 X=Proof,
15:u:tok-1 X=proof,
14:u:tok-1LL=lack,
20:u:tok-1RR=2013-02-20,
25:u:tok-2 L=technical/proof,
23:u:tok-2 R=proof/reuters,
20:u:Tok-1 X=Subchapter,
20:u:tok-1 X=subchapter,
20:u:tok-1 L=(continued,
12:u:tok-1 R=b,,
31:u:tok-2 L=(continued/subchapter,
23:u:tok-2 R=subchapter/b,,
12:u:Pre-2 R=B,,
12:u:Tok-1 X=B,,
20:u:tok-1LL=(continued,
20:u:tok-1 L=subchapter,
14:u:tok-1RR=open,
23:u:tok-2 L=subchapter/b,,
20:u:tok-2 R=b,/federal,
12:u:Pre-2 X=B,,
12:u:Suf-2 X=B,,
28:u:tok-1 L='state-sponsored':,
20:u:tok-1 R=official,",
32:u:tok-2 L='state-sponsored':/u.s,
24:u:tok-2 R=u.s/official,",
23:u:Cap-3 L=moderate/caps,
1=3.280405e-02
2=-1.452170e-03
3=-1.083589e-03
4=1.119085e-01
5=-8.311445e-04
8=-1.211216e-01
9=3.172514e-01
10=2.333841e-02
13=-6.336106e-01
18=-1.224141e+00
19=4.224500e-01
20=2.306372e-02
21=-1.037364e+00
22=-7.847346e-02
23=-5.942225e-01
25=-1.182018e-01
28=-1.027190e+00
29=4.411195e-01
30=3.467665e-01
31=-7.043048e-01
34=-6.629068e-02
37=-3.666678e-01
38=-8.455785e-02
39=1.193014e+00
40=-6.682696e-01
45=-5.872492e-01
46=-1.403103e+00
47=-1.132570e-02
48=-7.102630e-01
49=3.304078e-01
50=3.304890e-01
51=-1.189386e-01
52=-2.278368e-02
53=-3.995757e-03
56=-2.392821e-01
58=-3.571563e-01
59=2.039911e+00
60=3.637131e-01
67=-3.294445e-02
68=-2.226291e-01
69=2.879376e-01
70=4.847288e-01
74=5.354091e-01
82=-6.761369e-02
89=2.376198e-01
90=4.145863e-01
91=-6.651860e-02
99=4.145863e-01
100=-6.651860e-02
112=-5.478906e-04
117=1.675613e-01
118=1.589832e-02
119=-1.354581e-01
120=5.781874e-02
121=7.720316e-02
122=-9.485414e-02
123=-2.137576e-01
126=5.401111e-01
127=3.571055e-01
135=-1.164437e-01
136=4.096344e-01
139=1.389531e-03
141=-1.891514e-02
146=8.828758e-02
147=2.982904e-01
156=6.529954e-01
157=-3.761021e-02
162=-1.113721e-01
165=-3.311324e-01
166=2.677327e-01
167=-4.911154e-01
186=9.667295e-04
206=2.031183e-02
207=1.889235e-01
208=7.194813e-04
210=-2.639298e-04
211=1.390761e-03
212=-4.551557e-01
213=-1.623339e-01
217=-1.907811e-03
219=-2.202245e-02
220=6.270346e-03
226=1.839529e-04
234=4.145863e-01
235=-6.651860e-02
324=-2.658846e-01
325=-3.942477e-02
327=6.575654e-03
328=2.367890e-02
333=4.145863e-01
334=-6.651860e-02
343=3.234117e-02
346=1.200616e-03
352=-1.907811e-03
354=-2.202245e-02
355=6.270346e-03
361=3.234117e-02
364=1.200616e-03
369=4.145863e-01
370=-6.651860e-02
378=4.145863e-01
379=-6.651860e-02
387=1.743367e-02
388=2.544137e-02
390=-2.060944e-03
391=6.969326e-02
393=-8.206520e-01
397=-3.233016e-02
400=4.765537e-02
405=1.790806e-01
406=-3.900855e-02
415=-7.662316e-02
418=2.723786e-01
423=1.790806e-01
424=-3.900855e-02
432=4.145863e-01
433=-6.651860e-02
522=8.506471e-02
523=4.075207e-02
524=-2.030860e-01
525=3.001831e-02
526=2.038884e-01
527=-2.133068e-01
528=-2.669057e-02
531=2.950614e-01
532=2.665195e-02
535=-5.170525e-01
540=-7.158206e-02
541=4.118789e-01
542=-1.312737e-01
543=-4.460951e-01
544=-6.239465e-02
550=-6.076705e-01
551=8.537751e-02
552=4.175756e-01
553=-5.699403e-01
559=-2.847836e-01
561=9.525710e-01
562=-2.889131e-01
567=-2.556283e-01
568=-2.496510e+00
569=-2.429057e-01
570=-2.355267e-01
571=5.601830e-01
572=-7.405332e-01
573=-3.364078e-02
586=-6.562033e-02
591=5.669819e-03
604=-4.816902e-02
611=1.259187e+00
612=5.619038e-02
613=3.797676e-01
614=-3.670822e-01
615=5.327354e-02
616=2.349754e-01
617=-7.206984e-01
618=-1.812153e-01
619=-1.356034e+00
620=5.453002e-02
622=5.295572e-02
625=-9.818665e-02
631=-5.196965e-02
633=4.813287e-02
634=2.542206e-03
638=-1.922082e-02
640=5.865578e-02
641=-2.244263e-02
643=1.441956e-01
644=-1.594465e-03
647=-1.003983e-01
648=8.412557e-02
649=1.448949e-01
650=3.829775e-02
651=-2.068557e-01
652=-4.914558e-02
653=-1.545198e-03
654=1.720989e-02
657=7.525466e-02
658=4.596014e-02
659=4.879497e-02
660=-1.283028e-01
661=-1.364520e-01
663=3.417971e-02
666=4.145863e-01
667=-6.651860e-02
675=3.595090e-02
676=3.300773e-02
677=-3.137576e-02
678=2.515241e-02
679=-2.585838e-02
680=-2.571489e-03
683=-3.335822e-01
684=5.887061e-02
685=5.143590e-02
686=-2.710338e-02
687=-1.016020e-02
688=9.268278e-02
692=-1.370782e-01
693=1.815653e-02
694=1.328200e-01
695=-1.400375e-01
696=8.803931e-02
697=2.696923e-02
701=-9.709251e-04
702=4.145863e-01
703=-6.651860e-02
712=6.019367e-02
715=-1.039770e-01
720=4.145863e-01
721=-6.651860e-02
729=4.145863e-01
730=-6.651860e-02
738=4.145863e-01
739=-6.651860e-02
747=-2.124308e-01
748=1.366993e-01
751=4.375499e-02
753=-6.926675e-01
757=-3.198682e-02
760=1.303327e-01
765=4.145863e-01
766=-6.651860e-02
774=-7.641608e-04
775=-2.511646e-02
776=-4.705370e-02
778=1.115330e-01
779=-2.795176e-03
780=1.029408e-05
782=-1.187376e-01
783=3.819998e-02
784=7.247600e-02
785=-2.731897e-02
786=-5.645096e-02
787=2.124176e-01
789=-7.802360e-04
791=-9.823848e-02
792=4.145863e-01
793=-6.651860e-02
883=4.019051e-02
886=-8.953100e-02
892=-1.787406e-02
894=4.734129e-04
895=4.474299e-02
901=4.560168e-03
904=-9.582657e-02
910=3.234117e-02
913=1.200616e-03
918=1.706923e-02
919=3.809158e-02
920=-2.361570e-03
921=-2.630500e-05
922=2.432271e-03
923=-8.980906e-04
926=-1.047032e-01
928=-3.004115e-05
931=-2.042857e-05
937=4.769609e-02
940=-4.797312e-02
946=1.272743e-02
948=-1.292364e-03
949=-2.735198e-02
955=7.903089e-04
957=1.364738e-02
958=1.872580e-02
960=-1.933589e-01
962=-2.968378e-02
963=1.929839e-01
973=7.755032e-02
974=1.999584e-01
976=-2.504223e-01
984=1.289529e-01
993=2.608832e-01
1003=1.457396e-01
1044=4.971511e-01
1045=8.919008e-02
1048=-1.604234e-01
1054=-1.593896e-01
1056=2.752973e-05
1057=3.070061e-02
1063=4.769609e-02
1066=-4.797312e-02
1072=4.435173e-02
1075=-1.102026e+00
1081=-1.593896e-01
1083=2.752973e-05
1084=3.070061e-02
1089=2.229610e-05
1090=1.434106e-02
1093=1.445358e-01
1094=9.743490e-02
1095=-4.971477e-01
1096=-5.500920e-01
1097=-7.480315e-02
1099=-7.758890e-02
1102=2.766870e-02
1107=1.403401e-01
1108=1.029483e-01
1110=-6.629285e-04
1111=-4.878342e-03
1113=-4.021092e-02
1117=-1.936634e-02
1126=-1.218394e-01
1129=1.102217e-01
1134=-2.506631e-02
1135=1.873699e-01
1136=-9.840695e-02
1137=-9.178317e-04
1138=2.333005e-01
1140=-2.662175e-03
1141=-3.636241e-01
1143=4.751745e-01
1144=1.786369e-02
1147=-4.518203e-01
1152=-9.466043e-01
1153=4.191882e-01
1154=5.383451e-02
1155=-5.211552e-02
1156=-1.328218e-01
1157=-5.025354e-01
1159=-3.163637e-02
1163=2.317803e-02
1171=-2.746581e-01
1172=-4.733482e-02
1173=1.224253e+00
1174=-2.854564e-01
1179=-4.749831e-01
1180=-1.493643e+00
1181=2.715428e-04
1182=-8.951378e-03
1183=3.586730e-01
1184=4.479376e-01
1185=-1.475504e-02
1198=-6.371278e-02
1201=-2.938343e-02
1203=1.617822e+00
1216=-4.166825e-02
1223=1.260924e+00
1224=7.883649e-02
1225=6.528920e-02
1226=-3.181673e-02
1227=-3.116613e-04
1228=1.479616e-01
1229=-1.124980e+00
1230=-2.641495e-01
1233=-6.805922e-01
1234=1.048685e-01
1235=-1.100723e-01
1236=-3.547226e-02
1237=1.388020e-01
1238=-3.728183e-04
1239=1.666598e-02
1242=-3.042564e-02
1243=2.914661e-02
1244=-1.033501e-02
1245=2.534539e-02
1246=9.785041e-02
1247=-6.232309e-04
1248=3.902458e-02
1250=-3.012888e-01
1252=-6.638303e-02
1255=7.141305e-02
1260=6.875410e-01
1261=-7.583993e-02
1264=-8.361381e-02
1270=-1.538381e-01
1272=4.678967e-02
1273=2.714054e-02
1279=-1.442209e-01
1282=7.331920e-02
1287=7.835473e-02
1288=-2.038002e-01
1291=3.874252e-02
1296=8.878881e-05
1297=8.482893e-02
1298=-3.471238e-02
1299=-6.721705e-03
1300=1.646868e-01
1301=-3.150027e-03
1302=-9.346218e-03
1303=5.749149e-01
1304=1.717927e-02
1305=-9.211132e-02
1306=8.024811e-02
1307=1.394746e-02
1308=-3.490673e-03
1309=1.467755e-01
1310=-1.701580e-03
1312=-1.448221e-01
1313=-1.108402e-01
1314=7.139575e-01
1318=-1.127025e-01
1323=3.345153e+00
1324=-1.342410e+00
1333=3.746256e-01
1336=-2.418501e-02
1363=4.982444e-04
1405=-1.858923e-01
1407=5.352746e-03
1408=2.792584e-02
1413=4.068971e-05
1414=1.066777e-01
1415=-6.607144e-03
1416=-2.658098e-02
1417=1.585410e-01
1421=1.126922e-03
1423=-1.234307e-01
1426=1.534110e-02
1432=-7.400309e-02
1435=2.333086e-02
1441=-1.593896e-01
1443=2.752973e-05
1444=3.070061e-02
1450=-9.029108e-02
1453=1.045038e-02
1459=-1.709068e-01
1462=1.428918e+00
1468=-1.209023e-01
1471=1.457155e-01
1477=4.488706e-02
1479=-4.395440e-03
1480=7.092162e-03
1486=-1.183226e-02
1489=6.683458e-02
1494=1.119973e-01
1495=1.831575e-01
1497=-3.602042e-04
1498=6.022425e-02
1502=3.387610e-02
1504=1.596682e-01
1506=1.401945e-02
1507=3.876094e-03
1513=2.961503e-02
1515=4.241495e-03
1516=1.632682e-02
1522=4.488706e-02
1524=-4.395440e-03
1525=7.092162e-03
1531=-3.516321e-03
1534=1.073828e-01
1540=2.961503e-02
1542=4.241495e-03
1543=1.632682e-02
1549=-1.210952e-01
1552=1.444870e-01
1558=1.253948e-03
1561=1.795034e-02
1567=-6.599912e-03
1570=2.435937e-02
1575=1.417847e-01
1576=1.221263e-01
1578=5.858125e-02
1579=-2.073019e-02
1585=4.891511e-01
1587=1.760635e-02
1588=-3.315423e-04
1594=-9.175311e-03
1597=4.418638e-02
1612=-7.656817e-03
1615=6.899311e-01
1683=-9.444638e-03
1684=-1.735039e-01
1685=-4.658618e-01
1686=5.131618e-01
1687=2.278766e-01
1691=-1.893619e-03
1692=-5.498396e-02
1693=-1.216285e-02
1694=-1.897750e-01
1695=6.952089e-02
1696=1.773579e-01
1700=-3.496988e-03
1702=3.216584e-01
1704=1.442474e-02
1705=-1.392829e-03
1710=5.255177e-02
1711=8.419491e-02
1712=-7.717384e-03
1714=-2.349374e-02
1715=-1.181548e-03
1718=-6.846224e-02
1720=2.461367e-01
1729=3.063278e-02
1731=1.198515e-02
1732=6.792237e-04
1738=1.810060e-01
1739=1.292510e-01
1740=-3.349242e-02
1741=2.455372e-02
1742=9.991502e-04
1744=-2.869106e-01
1745=1.619385e-02
1747=1.337133e-01
1749=2.167056e-01
1756=2.567850e+00
1765=1.355472e-04
1768=-2.311005e+00
1776=1.983690e-01
1785=5.743622e-02
1795=4.012123e-01
1837=6.410820e-02
1838=-1.516838e-02
1839=-1.570829e-02
1840=1.550822e-01
1841=-2.968406e-04
1842=4.216184e-03
1844=2.997419e-03
1846=5.635893e-02
1847=-7.193280e-03
1848=-1.052408e-02
1849=8.891855e-02
1850=-2.036072e-03
1851=5.593891e-02
1853=-6.752485e-02
1855=1.587886e-01
1856=-4.107403e-02
1857=-7.230250e-03
1858=8.518257e-02
1859=3.659694e-02
1862=-6.320936e-02
1864=2.961503e-02
1866=4.241495e-03
1867=1.632682e-02
1872=3.231931e-01
1873=1.532478e-01
1875=2.122115e-02
1880=3.671072e-02
1882=1.138806e-01
1885=-1.371058e-03
1891=1.450333e-02
1894=-3.546538e-02
1898=6.261671e-02
1899=1.774221e-01
1900=-3.735371e-03
1903=2.380135e-02
1909=-8.529507e-03
1912=1.129632e-03
1918=2.280365e-01
1919=-5.292364e-02
1920=-3.784302e-05
1921=8.743698e-02
1924=-1.594210e+00
1925=1.097549e-02
1926=4.282281e-02
1927=1.482323e-01
1936=3.958046e-01
1937=4.466395e-02
1939=-1.239614e-01
1940=-9.772499e-02
1946=1.746285e-01
1956=8.558962e-01
1966=2.662279e-01
1967=3.410154e-01
1984=-1.568056e-03
1986=6.203005e-01
2006=4.910064e-01
2008=7.367141e-02
2011=-7.151131e-03
2017=-4.286483e-04
2020=1.271484e-02
2025=1.774221e-01
2026=-3.735371e-03
2029=2.380135e-02
2035=1.212339e-02
2038=-1.807781e-02
2044=-4.286483e-04
2047=1.271484e-02
2053=6.123310e-02
2056=-3.015243e-03
2062=-3.001323e-01
2065=1.685592e-01
2071=3.127438e-02
2072=-1.740171e-01
2073=1.162831e-02
2074=6.051341e-02
2078=-2.917098e-02
2079=-2.731264e-02
2080=5.911290e-02
2082=-9.555261e-04
2083=2.336560e-02
2085=-2.917267e-01
2087=1.929210e-04
2088=-5.643256e-02
2089=1.131946e-01
2090=-2.083614e-04
2091=1.661040e-02
2092=3.562340e-03
2093=-5.100996e-03
2096=-7.176059e-02
2097=-1.185113e-01
2098=1.657962e-01
2099=2.963882e-04
2100=-1.126160e-02
2101=9.438396e-02
2102=-1.145189e-02
2105=1.430977e-02
2106=-1.897765e-01
2107=3.874132e-02
2108=6.992317e-02
2109=-5.971465e-03
2110=1.513732e-01
2111=-2.085740e-03
2112=4.753181e-02
2114=1.544939e-03
2115=5.734951e-02
2116=8.849429e-02
2125=4.033763e-01
2126=2.463906e-02
2127=-4.672016e-01
2128=1.362046e-02
2129=-2.229265e-01
2130=-3.172139e-02
2131=-1.200216e-01
2135=4.869400e-01
2136=2.958921e-04
2137=-6.818638e-01
2140=-5.355808e-02
2144=-2.306857e-04
2145=6.254184e-01
2152=-1.198802e-01
2153=-7.728114e-03
2154=-4.033303e-01
2155=2.396588e-01
2156=4.026776e-01
2157=-4.966396e-02
2162=-2.297327e-01
2165=2.488384e-01
2166=9.662028e-01
2173=-3.560656e-03
2174=-1.885730e-01
2175=2.736245e-01
2176=5.001028e-01
2180=5.588675e-01
2195=1.247228e+00
2197=-4.286483e-04
2200=1.271484e-02
2206=3.185381e-01
2209=-7.251917e-02
2215=-4.635219e-02
2218=6.111500e-02
2222=4.059253e-02
2223=-1.394486e-01
2224=1.267313e-02
2227=1.660200e-01
2233=-3.129525e-04
2236=3.704717e-04
2242=-5.497667e-02
2245=8.050002e-02
2249=7.569496e-02
2251=1.255243e-02
2254=2.135957e-02
2260=1.896193e-02
2263=-3.386343e-02
2267=6.754177e-02
2269=-3.129525e-04
2272=3.704717e-04
2278=-5.652951e-04
2281=1.527234e-04
2287=-4.888097e-02
2290=6.100523e-02
2294=4.154595e-02
2296=1.896193e-02
2299=-3.386343e-02
2303=6.754177e-02
2305=4.830835e-05
2313=-1.415696e-01
2314=-1.752477e-02
2317=1.708856e-01
2322=-1.294433e-01
2323=-4.558159e-02
2326=1.369714e-01
2331=1.748597e-06
2332=4.300605e-01
2335=-6.367559e-01
2341=1.361718e-01
2350=1.896193e-02
2353=-3.386343e-02
2357=6.754177e-02
2359=-5.986427e-02
2362=1.617212e-01
2368=-1.315874e-02
2371=1.998969e-02
2375=4.042740e-02
2377=-1.315874e-02
2380=1.998969e-02
2384=4.042740e-02
2386=1.003702e-01
2389=-2.923660e-02
2391=6.348882e-02
2404=3.569569e-01
2407=-3.770231e+00
2424=6.857660e-02
2434=2.776800e-01
2474=1.802933e-01
2476=-1.389305e-02
2479=2.462518e-02
2485=-2.622418e-02
2488=3.627737e-01
2494=-1.198857e-02
2497=1.969300e-02
2503=-1.389305e-02
2506=2.462518e-02
2512=-1.265859e-02
2515=1.987365e-02
2519=2.759929e-02
2521=-6.296757e-02
2524=1.511242e-02
2530=-1.198857e-02
2533=1.969300e-02
2539=-7.790563e-03
2542=1.360984e-02
2546=2.715367e-02
2548=9.647115e-02
2551=-3.794598e-03
2557=1.946363e-03
2560=3.805789e-02
2566=3.216627e-02
2569=1.226973e-02
2575=8.527494e-02
2578=-3.568142e-03
2584=8.405757e-02
2587=-5.432419e-02
2593=1.339326e-01
2596=-1.105723e-01
2602=1.034801e-01
2605=-1.430354e-01
2611=-6.806642e-03
2614=3.133567e-02
2620=-2.946376e-03
2623=2.188547e-02
2629=-1.198857e-02
2632=1.969300e-02
2638=7.237629e-02
2641=-2.373779e-01
2645=4.064218e-02
2647=-8.017427e-02
2650=1.099425e-01
2656=3.518801e-02
2659=-4.472269e-02
2663=4.389796e-02
2665=-2.355228e-03
2668=7.014229e-02
2677=-6.245847e-04
2683=-2.706999e-01
2686=3.958798e-01
2692=-2.355228e-03
2695=7.014229e-02
2701=4.408935e-02
2704=-6.639016e-02
2708=4.095320e-02
2710=-1.353321e-02
2713=1.457966e-02
2719=1.262539e-01
2720=-2.339662e-01
2722=2.019733e-02
2726=8.874075e-02
2728=4.655855e-02
2731=7.093208e-03
2735=6.043972e-01
2737=7.989394e-02
2740=1.270437e-02
2746=9.237933e-02
2749=1.358276e-02
2755=2.095688e-01
2758=-8.610213e-02
2762=1.238119e-01
2764=1.207360e-01
2767=-1.037719e-01
2771=2.213928e-01
2773=6.061080e-02
2782=-9.238414e-03
2785=4.484863e-03
2791=9.287372e-02
2794=1.303493e-02
2800=8.162942e-02
2803=1.064018e-02
2809=8.514181e-02
2812=1.125986e-02
2818=-2.355228e-03
2821=7.014229e-02
2827=3.855760e-03
2830=1.190192e-02
2836=-2.505904e-02
2839=1.548266e-01
2845=8.473501e-03
2848=-1.529238e-03
2854=-2.161431e-04
2857=1.080317e-02
2863=-5.300470e-03
2872=9.638033e-02
2875=-1.083556e-02
2881=-1.177697e-01
2884=1.301677e-01
2890=-2.161431e-04
2893=1.080317e-02
2899=-2.199092e-05
2902=1.186452e-04
2908=-1.177697e-01
2911=1.301677e-01
2917=-3.332805e-02
2920=9.108230e-02
2926=-5.704523e-04
2929=6.528104e-02
2935=-5.377806e-03
2938=6.922145e-02
2944=9.179778e-02
2947=4.918072e-05
2953=5.885719e-02
2956=-4.304482e-02
2960=2.111763e-01
2962=4.936029e-02
2965=-1.077941e-02
2971=5.658310e-02
2974=-2.794886e-02
2980=-1.746085e-03
2983=7.485801e-02
2998=1.623802e-02
3028=3.553388e-02
3070=-2.222370e-03
3073=1.648514e-01
3079=-1.177697e-01
3082=1.301677e-01
3088=-1.032478e-02
3091=3.343301e-02
3097=4.903281e-03
3099=1.194824e-02
3100=7.439420e-04
3106=4.903281e-03
3108=1.194824e-02
3109=7.439420e-04
3115=-4.592353e-03
3118=4.371816e-03
3124=1.941150e-01
3127=-5.209565e-02
3131=1.372394e+00
3133=2.035438e-01
3136=-3.309833e-01
3140=9.620105e-02
3142=7.168948e-02
3145=4.464026e-02
3149=6.501321e-02
3151=7.029636e-02
3154=-1.336035e-02
3160=1.286999e-02
3163=-2.771794e-02
3169=5.115404e-03
3172=2.406983e-02
3178=6.090533e-04
3181=3.899203e-02
3187=-3.512477e-01
3190=2.765565e-01
3196=7.329732e-03
3199=2.377630e-02
3204=1.042542e-01
3205=-3.439285e-02
3208=-3.219583e-02
3214=5.115404e-03
3217=2.406983e-02
3223=8.890322e-02
3226=1.844011e-02
3230=6.501047e-02
3232=1.425862e-01
3235=-3.477230e-02
3239=5.047031e-02
3241=6.170462e-02
3250=9.882508e-02
3259=2.153848e-03
3268=2.102163e-03
3271=4.778773e-05
3277=9.500139e-03
3280=3.424133e-03
3286=2.278452e-02
3289=-5.803637e-04
3295=9.500139e-03
3298=3.424133e-03
3304=3.400398e-03
3307=5.554929e-05
3313=2.278452e-02
3316=-5.803637e-04
3322=1.943708e-02
3325=-2.246261e-03
3331=5.740535e-02
3334=-6.965203e-03
3340=2.102163e-03
3343=4.778773e-05
3349=2.153848e-03
3358=4.534624e-02
3367=2.102163e-03
3370=4.778773e-05
3376=3.637496e-02
3379=5.592733e-02
3385=7.250627e-02
3388=1.073925e-02
3394=1.118743e-02
3397=6.189075e-02
3403=2.278452e-02
3406=-5.803637e-04
3412=2.065397e-01
3415=-9.476556e-02
3421=-1.555928e-01
3422=-2.203124e-03
3423=-1.979992e-01
3424=7.327420e-02
3425=3.026488e-01
3426=1.608209e-01
3431=9.825879e-03
3432=-6.867791e-02
3433=1.404390e-02
3435=-1.145900e-01
3436=4.239797e-01
3439=5.402257e-02
3442=-2.208361e-02
3448=6.685283e-01
3451=-1.663429e-01
3457=1.085496e-04
3458=-1.374957e-05
3460=6.305416e-02
3461=-9.556201e-02
3463=6.713154e-01
3466=6.685283e-01
3469=-1.663429e-01
3475=2.277364e-01
3478=-4.926403e-02
3484=2.248870e-04
3485=-1.882682e-04
3486=-4.044545e-04
3487=8.312471e-03
3488=2.333739e-01
3489=1.836907e-01
3493=1.518179e-02
3495=-6.051295e-02
3496=5.947525e-02
3502=2.062949e-03
3503=-5.236331e-05
3505=-8.108402e-03
3506=-1.690772e-01
3508=5.140501e-01
3511=2.065397e-01
3514=-9.476556e-02
3520=1.079000e-02
3523=2.453050e-02
3529=5.561832e-02
3532=-6.644453e-03
3538=6.685283e-01
3541=-1.663429e-01
3547=4.442669e-01
3550=-5.962702e-01
3557=-1.839698e-05
3559=-6.020406e-02
3560=1.397595e-01
3561=1.148997e-01
3562=9.028956e-02
3574=4.836176e-03
3575=-5.476722e-02
3577=-2.767490e-02
3578=-5.123126e-02
3584=3.311791e-01
3589=-1.247911e-02
3593=-1.561988e-02
3604=2.178790e-01
3605=1.026087e+00
3611=-6.566321e-03
3614=9.852632e-02
3615=3.612459e-01
3620=-4.618246e-02
3623=-2.287693e-05
3624=3.091418e-01
3625=7.601469e-01
3629=4.255108e-01
3646=5.593580e-02
3647=2.412620e-01
3649=1.309744e-04
3651=-2.970123e-01
3652=-2.362640e-03
3655=6.115222e-02
3656=5.224271e-02
3657=-8.280213e-02
3658=-2.541058e-01
3659=1.511949e-01
3660=1.679467e-01
3661=3.459072e-02
3664=-1.531310e+00
3667=1.144211e+00
3677=-1.712187e-03
3678=4.109468e-01
3682=5.593580e-02
3683=2.412620e-01
3685=1.309744e-04
3687=-2.970123e-01
3688=-2.362640e-03
3691=8.713591e-02
3692=9.190414e-02
3696=-4.298996e-01
3697=-2.584232e-01
3704=-1.712187e-03
3705=4.109468e-01
3709=1.726626e-03
3710=-1.315744e-05
3712=-6.508780e-02
3713=1.161024e-01
3714=1.190680e-01
3719=8.713108e-01
3721=-7.759465e-02
3722=8.126479e-01
3723=-1.084527e+00
3727=2.254209e-02
3728=2.187522e-01
3730=-9.036147e-03
3736=3.946804e-04
3737=7.698301e-01
3739=-2.491817e-03
3740=-1.606334e-02
3742=-2.443207e-02
3754=2.575529e-03
3755=1.614987e-01
3764=3.098330e-02
3782=3.817812e-02
3784=3.900023e-02
3785=-6.176765e-01
3791=-2.098884e-04
3809=6.101907e-01
3826=2.854052e-02
3827=1.254699e+00
3828=-2.944229e-01
3830=-1.067238e-01
3831=-9.544079e-01
3832=-2.497020e-02
3835=1.726626e-03
3836=-1.315744e-05
3838=-6.508780e-02
3839=1.161024e-01
3840=1.190680e-01
3844=4.213407e-02
3845=-7.336753e-02
3847=6.446320e-02
3853=4.893218e-01
3856=-2.061435e-01
3862=-3.693411e-03
3863=-1.279292e-01
3865=6.527224e-02
3875=-1.712187e-03
3876=4.109468e-01
3881=3.650243e-02
3889=-3.636077e-03
3890=2.041957e-01
3891=-2.684327e-04
3892=-3.208598e-01
3893=-1.187563e-02
3894=1.681184e-01
3895=7.884811e-02
3907=8.564162e-02
3910=1.553029e-01
3917=3.522280e-01
3918=1.347765e-01
3922=-2.951326e-02
3935=-1.717767e-01
3937=1.356664e-02
3938=-4.430072e-02
3944=-4.855952e-02
3947=1.938530e-01
3948=7.962383e-01
3949=4.997272e-04
3957=2.165507e-06
3958=6.211869e-01
3962=6.378861e-01
3980=1.372451e-02
3989=5.149229e-02
3996=-2.174436e-01
3997=-1.097233e-01
3998=1.744524e-01
4000=-2.317351e-01
4001=-1.202976e-02
4002=1.860335e-01
4003=6.243103e-02
4007=1.434823e-01
4009=-6.939522e-02
4016=2.819305e-01
4017=1.424955e-01
4021=-5.034760e-01
4033=2.000779e-03
4043=5.758325e-01
4044=1.522968e+00
4045=-7.266562e-01
4061=-7.748545e-02
4063=1.201789e-01
4070=-2.613931e-01
4088=2.329802e-06
4105=-4.314198e-02
4108=1.101124e-01
4114=3.129989e-02
4117=-5.011568e-04
4123=2.348437e-04
4126=1.039910e-01
4127=-2.845124e-02
4128=7.875671e-01
4132=1.000012e-02
4135=1.068646e-02
4144=1.252707e-01
4150=-9.421026e-02
4153=1.153864e-01
4155=1.187872e-01
4159=-5.191864e-06
4162=1.610008e-02
4164=2.036904e-02
4168=-2.195296e-01
4169=6.023221e-05
4170=4.756989e-02
4171=6.553461e-02
4172=7.308729e-02
4175=-8.379613e-03
4177=-1.007310e-02
4179=1.661988e-02
4180=2.508165e-02
4186=8.256655e-05
4189=1.322751e-02
4198=-4.718540e-01
4204=-6.946798e-01
4205=8.001101e-02
4207=4.533881e-02
4208=2.712911e-01
4209=-1.341521e-02
4213=-7.334190e-01
4214=5.247691e-03
4216=4.907483e-02
4217=7.178365e-01
4218=-3.114502e-02
4222=-9.468778e-04
4225=-3.845513e-02
4231=-1.498148e+00
4234=5.675672e-01
4240=-1.050824e-02
4241=4.550424e-03
4242=-4.706300e-02
4243=3.294040e-02
4249=-1.237511e+00
4250=1.900909e-01
4252=-2.314940e-02
4253=6.712543e-02
4254=9.656709e-02
4255=-2.065517e-02
4261=1.124939e-02
4263=6.461309e-02
4267=-1.310713e-01
4268=2.676397e-03
4270=-3.787447e-01
4271=4.293290e-01
4272=6.917075e-02
4276=-4.066978e+00
4277=-1.516691e-05
4278=3.710555e-03
4279=3.693303e-01
4282=6.706969e-01
4288=-4.054609e-03
4294=-4.956817e-02
4297=5.804094e-02
4306=-4.054609e-03
4315=-3.339248e-04
4324=-3.190781e-02
4330=-3.475871e-02
4333=3.025413e-02
4339=2.369676e-03
4342=-4.573757e-02
4346=1.674860e-01
4349=8.000801e-02
4352=1.550080e-01
4360=8.542788e-02
4367=2.060917e-01
4368=2.557549e-01
4369=-1.938579e-02
4376=2.060917e-01
4377=2.557549e-01
4378=-1.938579e-02
4385=2.060917e-01
4386=2.557549e-01
4387=-1.938579e-02
4393=-4.506824e-02
4396=7.031070e-02
4403=2.060917e-01
4404=2.557549e-01
4405=-1.938579e-02
4410=5.644022e-03
4411=7.420785e-02
4414=-4.589885e-02
4420=-4.506824e-02
4423=7.031070e-02
4429=-4.244907e-04
4432=-1.162333e-02
4439=2.060917e-01
4440=2.557549e-01
4441=-1.938579e-02
4446=5.644022e-03
4447=7.420785e-02
4450=-4.589885e-02
4459=8.246466e-03
4465=1.316593e-02
4468=-1.181706e-01
4475=2.060917e-01
4476=2.557549e-01
4477=-1.938579e-02
4485=1.042335e-01
4486=-3.292172e-06
4493=2.060917e-01
4494=2.557549e-01
4495=-1.938579e-02
4502=2.060917e-01
4503=2.557549e-01
4504=-1.938579e-02
4511=2.060917e-01
4512=2.557549e-01
4513=-1.938579e-02
4521=2.673738e-01
4529=2.060917e-01
4530=2.557549e-01
4531=-1.938579e-02
4538=2.060917e-01
4539=2.557549e-01
4540=-1.938579e-02
4547=2.060917e-01
4548=2.557549e-01
4549=-1.938579e-02
4556=2.060917e-01
4557=2.557549e-01
4558=-1.938579e-02
4565=6.950143e-01
4566=6.060875e-02
4567=-1.485474e-02
4572=5.644022e-03
4573=7.420785e-02
4576=-4.589885e-02
4583=6.950143e-01
4584=6.060875e-02
4585=-1.485474e-02
4591=2.453825e-02
4594=6.696166e-04
4600=-1.186723e-01
4603=5.098132e-02
4609=6.404665e-03
4612=-1.661878e-03
4618=6.404665e-03
4621=-1.661878e-03
4627=6.231580e-02
4630=-5.765016e-02
4636=7.595985e-02
4639=-6.463458e-02
4645=7.474363e-03
4648=-7.039751e-04
4654=2.633380e-03
4657=-1.012714e-03
4663=9.137176e-02
4666=-7.108042e-02
4672=-4.764297e-01
4675=6.184158e-01
4684=3.861995e-03
4690=1.609585e-03
4693=-1.378733e-03
4699=-4.312173e-03
4702=7.013309e-03
4708=5.005528e-02
4711=-2.230430e-02
4720=1.868237e-03
4726=-2.254512e-03
4729=8.570114e-03
4735=1.181140e-02
4738=5.435021e-03
4744=1.181140e-02
4747=5.435021e-03
4753=1.181140e-02
4756=5.435021e-03
4762=2.435052e-01
4765=-8.596364e-01
4769=1.518311e-01
4771=7.012407e-02
4774=-1.618192e-02
4780=-2.478637e-02
4782=2.602087e-02
4783=2.884690e-03
4789=-2.478637e-02
4791=2.602087e-02
4792=2.884690e-03
4798=-2.478637e-02
4800=2.602087e-02
4801=2.884690e-03
4807=6.823435e-03
4810=-6.589056e-03
4816=2.528231e-02
4819=-1.274132e-01
4823=1.079919e-01
4825=1.565841e-02
4828=-1.953610e-01
4832=3.100636e-02
4834=-5.358466e-03
4837=5.132254e-03
4841=2.040640e-01
4843=3.027002e-03
4846=-7.321076e-02
4850=9.962038e-02
4852=8.739239e-03
4855=-6.597368e-03
4861=-4.531113e-02
4864=2.731068e-02
4868=7.225116e-02
4870=-4.102273e-02
4877=1.082767e-01
4879=-5.456008e-02
4886=5.908834e-02
4888=-3.416155e-03
4891=4.057100e-03
4897=-4.005736e-02
4904=1.044551e-01
4906=-7.877258e-01
4913=1.825956e-02
4915=-6.002885e-02
4918=1.276841e-01
4922=4.838537e-02
4924=-7.877258e-01
4931=1.825956e-02
4933=-3.129700e-02
4940=5.908217e-02
4942=-6.002885e-02
4945=1.276841e-01
4949=4.838537e-02
4951=-1.048157e-02
4954=3.426244e-02
4958=3.069948e-02
4960=-3.087486e-01
4963=1.962808e-01
4967=5.916116e-02
4969=-3.087486e-01
4972=1.962808e-01
4976=5.916116e-02
4978=-1.726954e-01
4985=5.315618e-02
4987=-6.002885e-02
4990=1.276841e-01
4994=4.838537e-02
4996=-6.076600e-02
5003=1.081862e-01
5005=-6.022424e-02
5012=1.034708e-01
5014=-1.838419e-01
5017=3.178036e-01
5023=1.504961e-02
5026=-1.226772e-02
5032=-4.275422e-01
5035=5.045533e-02
5040=1.623638e-01
5041=4.541312e-02
5044=-2.322782e-01
5048=3.718625e-02
5050=-1.677700e-01
5057=4.725886e-02
5059=-1.664508e-01
5066=4.474330e-02
5068=-3.089713e-02
5075=1.515829e-01
5077=-1.845575e-01
5078=2.997296e-02
5079=-1.354911e-02
5080=1.825461e-01
5089=1.070085e-01
5095=-1.845575e-01
5096=2.997296e-02
5097=-1.354911e-02
5098=1.825461e-01
5104=-9.717546e-02
5105=1.097153e-01
5106=-7.962615e-03
5107=9.558955e-03
5113=-7.481227e-03
5116=2.087651e-02
5123=2.966460e-01
5131=-1.329420e-04
5132=-9.931532e-05
5133=-4.717677e-01
5134=1.262796e-02
5135=2.762922e-01
5136=1.865302e-01
5140=-1.108678e-03
5143=1.163533e-04
5145=6.498608e-02
5149=2.974947e-04
5158=-2.971338e-01
5159=-8.359117e-02
5161=-5.436291e-02
5162=3.197346e-01
5163=1.990296e-01
5164=7.538689e-02
5167=1.522084e-03
5168=1.184002e-01
5169=-1.002923e-01
5170=-6.644141e-02
5171=1.059988e-01
5172=1.394934e-01
5180=2.340322e-01
5181=-1.270501e-02
5204=2.072381e+00
5225=9.193721e-01
5266=-4.901524e-01
5271=1.725382e-01
5276=3.290108e-04
5277=-4.244166e-02
5278=-5.077324e-01
5279=5.622247e-01
5280=-1.231562e-01
5281=1.494570e-04
5289=5.547342e-02
5298=5.547342e-02
5303=-7.479885e-06
5305=-7.758185e-03
5307=3.179781e-03
5308=3.676070e-02
5311=-2.524155e-01
5315=8.801384e-02
5320=7.213675e-05
5323=-2.230794e-02
5325=2.919100e-01
5330=-7.479885e-06
5332=-7.758185e-03
5334=3.179781e-03
5335=3.676070e-02
5343=5.547342e-02
5347=7.213675e-05
5350=-2.230794e-02
5352=2.919100e-01
5361=5.547342e-02
5366=1.267918e-02
5369=-3.107333e-02
5370=1.935016e-01
5371=6.825868e-02
5378=-9.184670e-04
5379=9.309206e-02
5380=1.202398e-02
5433=2.251004e-01
5434=1.163073e+00
5468=6.743315e-02
5469=1.488287e-01
5513=1.157505e+00
5523=2.139022e-01
5532=6.710417e-01
5557=-3.807496e-02
5558=3.377497e-01
5559=1.251686e-01
5566=-1.615283e-02
5567=1.581538e-01
5568=3.293443e-01
5569=-4.139602e-01
5576=2.558426e-01
5577=6.774670e-06
5578=-1.407027e+00
5581=7.213675e-05
5584=-2.230794e-02
5586=2.919100e-01
5591=4.541567e-02
5657=2.184252e-03
5659=-1.228051e-02
5663=3.850015e-01
5668=1.829730e+00
5693=-3.713178e-03
5694=3.959140e-02
5695=2.803275e-01
5740=5.682975e-06
5757=2.954637e-06
5783=-7.666445e-01
5784=2.809057e-01
5785=7.786113e-01
5788=1.729903e-02
5789=-9.614612e-05
5791=-8.650954e-01
5792=-3.792967e-01
5793=4.243889e-05
5794=1.524558e+00
5803=-9.279334e-06
5806=-1.213464e-02
5807=2.318117e-02
5809=8.812281e-02
5810=-1.802011e-01
5815=-1.213464e-02
5816=2.318117e-02
5818=8.812281e-02
5819=-1.802011e-01
5825=2.776853e-01
5897=-1.106101e-01
5901=2.570597e+00
5906=1.122456e+00
5923=2.355545e-01
5926=-3.441033e-01
5932=-1.213464e-02
5933=2.318117e-02
5935=8.812281e-02
5936=-1.802011e-01
5941=3.911530e-05
5944=-8.548220e-05
5950=5.385315e-03
5953=-2.982884e-02
5959=5.385315e-03
5962=-2.982884e-02
5968=4.397823e-01
5971=-1.817603e-01
5977=3.788238e-02
5980=-2.627340e-02
5986=2.858893e-01
5989=-3.931750e-01
5995=-3.858904e-02
5998=2.159109e-02
6004=2.564425e-03
6007=-1.801708e-04
6013=3.407166e-05
6022=-6.265970e-03
6025=2.070717e-02
6031=7.274712e-02
6040=-3.174944e-05
6043=3.228469e-02
6049=-8.946362e-03
6052=2.111013e-02
6058=3.085598e-01
6061=-2.746584e-01
6067=5.297518e-01
6070=-3.176883e-01
6079=-7.727411e-04
6085=1.290790e-03
6088=-3.890594e-03
6094=-7.969868e-04
6097=3.395160e-03
6103=-6.459884e-04
6106=3.208911e-03
6112=1.890259e-02
6115=-2.731730e-02
6121=-3.499664e-04
6124=1.980217e-02
6130=1.890259e-02
6133=-2.731730e-02
6139=-3.499664e-04
6142=1.980217e-02
6148=-1.626309e-03
6151=2.341299e-02
6157=-3.499664e-04
6160=1.980217e-02
6166=3.705060e-04
6175=3.705060e-04
6184=4.464474e-03
6196=-3.316359e-04
6202=2.752473e-01
6205=-2.467552e-01
6211=3.705060e-04
6220=3.705060e-04
6229=3.705060e-04
6238=3.705060e-04
6247=3.862427e-01
6256=-1.914253e-03
6265=-8.062733e-03
6268=1.370151e-02
6274=-1.914253e-03
6283=-1.914253e-03
6292=-2.554646e-02
6302=1.705072e-02
6313=-3.191233e-01
6319=1.337367e-02
6322=-4.425985e-03
6328=5.937644e-02
6331=-3.030000e-02
6337=4.234612e-02
6340=-1.978084e-02
6346=2.239346e-02
6349=-8.745554e-03
6355=-3.576449e-02
6358=3.496662e-02
6364=2.239346e-02
6367=-8.745554e-03
6373=1.776471e-02
6376=-6.801644e-03
6382=1.650590e-03
6385=2.386295e-04
6394=6.245882e-03
6400=-2.323236e-01
6403=7.726363e-02
6409=9.648329e-03
6412=-1.089766e-02
6418=-5.976427e-03
6421=1.285738e-02
6430=-2.558669e-03
6439=-2.558669e-03
6444=1.175385e-02
6457=-2.271270e-02
6463=8.617079e-01
6473=1.433948e-01
6481=-5.059594e-02
6484=1.377502e-01
6490=2.722235e-03
6493=-2.939711e-03
6502=-1.853565e-03
6503=-1.075393e+00
6508=-3.020433e-02
6511=5.658808e-02
6521=-2.749415e-02
6522=1.158995e-01
6526=-1.856897e-02
6529=1.850526e-01
6535=-7.741688e-03
6538=4.227612e-02
6543=3.120159e-02
6544=-4.445380e-01
6547=8.404825e-03
6553=-5.202438e-06
6556=-4.086964e-05
6561=3.322509e-02
6562=-3.659481e-01
6565=3.311495e-03
6569=2.294066e-02
6571=-5.202438e-06
6574=-4.086964e-05
6583=3.373308e-05
6589=-5.202438e-06
6592=-4.086964e-05
6598=3.493136e-02
6601=-4.690542e-04
6607=-7.283701e-04
6610=6.754100e-03
6616=6.198122e-02
6619=-2.203623e-04
6623=6.824743e-02
6625=-1.661749e-04
6628=6.121586e-03
6634=-9.544399e-03
6636=1.173947e-02
6637=-1.076764e-02
6643=1.515919e+00
6646=-7.148261e-02
6652=-3.609774e-03
6655=-5.569065e-03
6659=1.042305e-01
6664=9.668834e-03
6670=-1.654788e-02
6673=2.010608e-02
6682=7.743301e-04
6688=5.023027e-01
6691=-1.514056e-01
6697=4.528212e-02
6700=-1.949584e-02
6706=5.269017e-01
6709=-1.699050e-02
6715=3.250196e-02
6718=-2.838800e-02
6724=1.107654e+00
6727=-9.803878e-01
6733=4.967017e-02
6736=-3.202719e-02
6742=3.345389e-02
6745=-2.954122e-02
6751=-2.327055e-01
6754=3.790936e-01
6760=-2.288491e-01
6763=3.934976e-01
6769=8.153514e-03
6772=-1.357436e-04
6778=8.153514e-03
6781=-1.357436e-04
6787=-2.235362e-01
6790=2.531115e-01
6796=-6.473716e-02
6799=7.817590e-02
6805=-1.339721e-02
6808=2.205237e-02
6814=1.948470e-01
6817=-1.913952e-01
6823=1.948470e-01
6826=-1.913952e-01
6832=-1.263515e-01
6835=5.041748e-01
6841=-6.668677e-03
6844=2.531135e-02
6850=-6.861347e-03
6853=9.099806e-03
6859=-1.570122e-02
6862=3.736290e-02
6868=2.148807e-01
6871=-1.496466e-01
6877=-6.662083e-03
6880=2.211562e-02
6886=1.027596e-02
6889=2.364877e-04
6895=6.221636e-03
6898=6.764299e-05
6904=-6.960821e-03
6907=2.215366e-02
6913=-1.499663e-03
6916=1.733567e-02
6922=-8.894533e-04
6925=6.731692e-03
6931=-7.428947e-04
6934=1.072862e-02
6940=1.795438e-02
6949=-6.807550e-04
6952=2.550959e-02
6958=1.795438e-02
6967=5.547069e-03
6970=1.605232e-03
6976=-3.065108e-03
6979=2.221509e-02
6985=-8.091440e-05
6988=5.580903e-03
6994=1.844344e-01
6997=-3.077865e-02
7003=-7.428947e-04
7006=1.072862e-02
7012=-1.549860e-03
7015=6.741236e-03
7021=-3.048128e-03
7024=6.701076e-03
7030=-3.451651e-05
7033=1.072417e-02
7039=-3.219966e-04
7042=3.119060e-03
7048=6.137931e-02
7051=-6.150197e-03
7057=-5.870045e-03
7060=9.136829e-04
7066=-5.870045e-03
7069=9.136829e-04
7075=-5.020255e-03
7078=3.752605e-03
7084=5.919757e-02
7087=-7.417714e-03
7093=3.333067e-01
7096=-7.929756e-02
7102=6.224181e-02
7105=-6.229281e-03
7111=5.612069e-02
7114=-8.138626e-03
7120=2.353594e-01
7123=-2.752866e-02
7129=-4.485725e-03
7132=1.412870e-02
7138=-2.168793e-03
7141=6.498530e-02
7147=-1.919000e-02
7150=4.403465e-02
7156=-4.078882e-03
7159=2.815188e-02
7165=-9.735917e-03
7168=9.130447e-02
7183=-1.864529e-03
7186=3.678488e-01
7213=6.142094e-02
7255=1.826658e+00
7258=-5.023120e-01
7264=-1.900873e-02
7273=-1.470060e-02
7282=1.164583e+00
7285=-2.360802e-02
7291=8.054131e-02
7301=3.726007e-01
7319=2.246584e-01
7364=6.409200e-02
7391=3.727705e-01
7400=3.727705e-01
7409=3.888410e-01
7418=4.558531e-01
7427=4.558531e-01
7436=4.734050e-03
7445=4.075342e-01
7453=-2.314457e-02
7456=2.044600e-02
7462=-6.842336e-02
7465=6.697849e-02
7471=-6.842336e-02
7474=6.697849e-02
7480=-1.870832e-05
7489=1.178312e-01
7498=1.178312e-01
7507=1.142268e-01
7516=-2.175780e-01
7519=5.093493e-01
7525=8.206097e-02
7534=1.586386e-06
7537=-9.794376e-07
7542=2.355800e-01
7543=-1.065897e+00
7546=1.872749e-02
7552=5.290144e-04
7555=-4.905767e-05
7561=-5.033375e-02
7564=9.147562e-02
7570=-5.167246e-02
7573=1.031203e-01
7579=-4.614093e-02
7582=4.717712e-02
7588=-4.705419e-02
7591=4.998907e-02
7597=-4.464203e-02
7600=4.715090e-02
7606=8.441681e-03
7609=-6.999912e-03
7615=-1.096549e-02
7618=1.291698e-02
7624=-1.558088e-02
7627=1.285731e-02
7633=-7.640277e-03
7636=9.596283e-03
7642=-6.643023e-03
7645=9.763069e-03
7651=-1.035836e-02
7654=1.283026e-02
7660=-4.338049e-02
7663=1.440485e-01
7669=6.675046e-01
7672=-4.953583e-01
7678=5.212966e-03
7687=1.205232e-01
7690=-9.166553e-02
7696=3.323963e-05
7705=-3.073083e-01
7708=4.775483e-01
7714=-1.756884e+00
7723=-7.695272e-03
7726=6.914161e-02
7732=-1.611312e-02
7735=1.216236e-01
7741=3.317829e-02
7744=-1.449646e-03
7750=1.748623e-02
7753=-1.234317e-02
7759=1.658020e-01
7762=-2.423048e-02
7768=1.658020e-01
7771=-2.423048e-02
7777=2.109497e-01
7780=-1.834378e-01
7789=6.873750e-04
7795=3.289556e-01
7798=-2.104176e-01
7804=-1.231836e-01
7807=1.315898e-01
7814=1.848313e-02
7815=-7.058577e-03
7816=6.902028e-05
7823=1.848313e-02
7824=-7.058577e-03
7825=6.902028e-05
7832=1.441818e-01
7841=1.848313e-02
7842=-7.058577e-03
7843=6.902028e-05
7849=-2.518414e-02
7852=2.686279e-02
7858=-2.518414e-02
7861=2.686279e-02
7867=3.581535e-02
7870=-7.837989e-02
7876=2.627332e-02
7879=-2.127886e-03
7885=2.627332e-02
7888=-2.127886e-03
7894=4.370875e-04
7903=2.627332e-02
7906=-2.127886e-03
7912=-8.453579e-02
7915=8.689322e-02
7921=-2.228865e-02
7924=2.441768e-02
7930=-6.471303e-02
7933=3.158281e-01
7939=-9.963088e-01
7942=1.530544e+00
7951=-2.360064e-03
7957=-1.323834e-02
7960=1.902727e-02
7966=-4.122185e-03
7969=7.107496e-02
7975=-4.394076e-03
7978=1.057498e-03
7984=3.458972e-03
7987=-1.100156e-03
7993=-4.831449e-06
8002=-2.544476e-02
8005=1.782033e-01
8011=-4.518377e-04
8014=2.867715e-03
8020=-3.368904e-03
8023=1.804857e-03
8029=1.073916e-02
8032=-2.631108e-03
8038=1.073916e-02
8041=-2.631108e-03
8047=4.455647e-03
8050=-2.961771e-03
8056=2.416482e-03
8059=-5.452310e-03
8065=1.565347e-02
8068=-8.191980e-03
8077=1.180238e-02
8083=-3.429948e-04
8086=4.340336e-05
8092=3.850783e-02
8095=-1.188688e-02
8101=-2.713422e-04
8104=3.339762e-04
8110=2.276793e-04
8113=-7.603973e-04
8119=7.760603e-02
8122=-7.415911e-02
8128=-4.492702e-03
8131=1.674211e-02
8137=-1.134759e-01
8140=1.489856e-01
8146=-1.856385e-04
8149=2.606577e-04
8153=9.438823e-02
8160=2.929313e-02
8164=-2.070961e-01
8167=1.760604e-01
8171=5.269109e-02
8176=6.213420e-02
8185=6.213420e-02
8194=1.265367e-01
8203=1.265367e-01
8212=6.213420e-02
8221=6.213420e-02
8227=-1.073776e-01
8230=6.895551e-01
8239=1.509303e-01
8248=-4.442842e-02
8252=1.429131e-01
8254=1.260217e-02
8257=-4.389615e-03
8263=2.307838e-02
8266=-9.295001e-03
8272=2.307838e-02
8275=-9.295001e-03
8281=-5.051625e-01
8284=6.481933e-01
8290=-6.853619e-02
8293=6.320920e-02
8299=6.082785e-01
8302=-8.317078e-02
8312=-2.536907e-02
8313=1.249914e-01
8320=4.876353e-03
8327=-4.330638e-05
8336=-4.330638e-05
8348=3.374401e-02
8354=-4.330638e-05
8362=1.743314e-01
8365=-3.047445e-02
8371=4.041625e-03
8374=-4.140189e-03
8380=-2.578745e-01
8383=2.070783e-01
8392=6.865508e-05
8398=3.408844e-01
8401=-3.316008e-01
8407=2.305580e-02
8420=1.954410e-02
8421=-3.468152e-03
8429=1.954410e-02
8430=-3.468152e-03
8438=1.954410e-02
8439=-3.468152e-03
8443=4.941281e-02
8446=-8.518100e-03
8452=5.304437e-02
8455=-2.993986e-02
8461=-2.447876e-03
8464=2.299804e-03
8470=-1.991729e-02
8473=3.188760e-02
8482=1.284273e-02
8488=-8.306036e-06
8491=5.256548e-03
8497=-1.081656e-01
8500=1.094112e-01
8506=-3.978155e-03
8509=6.017578e-02
8518=-9.622801e-05
8524=3.314492e-02
8527=-1.295862e-02
8533=-3.978155e-03
8536=6.017578e-02
8542=3.314492e-02
8545=-1.295862e-02
8551=-3.978155e-03
8554=6.017578e-02
8560=3.314492e-02
8563=-1.295862e-02
8569=2.575441e-03
8572=-5.144911e-04
8578=-3.404987e-01
8581=3.561013e-02
8583=3.499186e-02
8587=4.679879e-02
8590=-3.048385e-02
8596=2.599755e-02
8599=-2.236294e-02
8605=2.599755e-02
8608=-2.236294e-02
8614=1.145330e-02
8617=-1.029759e-02
8623=2.330534e-02
8626=-6.874782e-03
8632=2.330534e-02
8635=-6.874782e-03
8641=4.326195e-03
8650=-2.455998e-01
8653=1.745253e-01
8659=-7.554510e-03
8668=-1.090246e-01
8671=2.126037e-01
8676=1.641345e-02
8677=-1.438899e-01
8686=-1.458953e-04
8689=4.354068e-04
8695=-1.612673e-01
8698=1.969980e-01
8707=1.755079e-03
8717=1.560137e-02
8718=-3.485164e-01
8726=1.560137e-02
8727=-3.485164e-01
8735=1.560137e-02
8736=-3.485164e-01
8740=-1.746126e-04
8749=-3.676690e-02
8752=3.425388e-01
8763=7.606281e-02
8772=7.606281e-02
8776=-6.058457e-02
8779=8.965514e-02
8785=-6.058457e-02
8788=8.965514e-02
8794=-6.058457e-02
8797=8.965514e-02
8803=-6.058457e-02
8806=8.965514e-02
8812=-6.058457e-02
8815=8.965514e-02
8821=-6.058457e-02
8824=8.965514e-02
8830=-6.058457e-02
8833=8.965514e-02
8839=-2.056785e-05
8842=3.746600e-04
8848=-1.644304e-03
8851=1.061384e-02
8857=1.830399e-01
8860=-9.134405e-02
8866=5.356005e-01
8869=-4.821362e-01
8875=-4.009687e-01
8878=6.267318e-01
8893=-3.863701e-01
8896=8.686293e-01
8923=-4.225410e-02
8965=-5.553282e-01
8968=7.272717e-01
8974=-5.553282e-01
8977=7.272717e-01
8983=7.515688e-01
8986=-2.433767e-01
8992=3.384394e-03
8995=-2.475708e-02
9001=4.691261e-01
9004=-7.353984e-02
9010=7.222280e-03
9013=-2.906784e-04
9019=4.720391e-02
9022=-1.179733e-02
9028=1.651076e-03
9037=-1.224887e-01
9040=1.285924e-01
9046=5.579135e-03
9049=-3.584793e-03
9058=5.498184e-04
9064=1.648676e-02
9067=-2.252752e-03
9076=9.366648e-03
9085=-2.366067e-02
9094=5.083604e-03
9103=-4.720402e-02
9109=-1.857724e-02
9112=5.617634e-01
9118=-5.011347e-03
9121=1.123933e-02
9127=-1.215866e-04
9139=-6.693587e-03
9148=-4.337958e-05
9154=2.521260e-02
9157=-2.656427e-02
9166=-7.673580e-02
9172=-4.555828e-03
9175=3.861442e-03
9181=2.393342e-03
9184=-2.549344e-04
9190=1.377061e-01
9193=-4.898829e-03
9199=1.377061e-01
9202=-4.898829e-03
9208=1.377061e-01
9211=-4.898829e-03
9217=3.700487e-01
9220=-1.633215e-02
9226=9.834716e-01
9229=-5.915179e-01
9235=-4.107429e-01
9238=7.462607e-03
9240=7.317382e-02
9244=6.624599e-02
9247=-5.167412e-02
9253=6.046894e-03
9265=-8.210230e-03
9271=-1.098522e+00
9274=3.276462e-01
9280=1.376537e-01
9283=-2.018789e-01
9289=-2.739214e-03
9292=1.936355e-05
9298=-2.009124e-03
9307=-2.403352e-02
9310=2.765313e-01
9316=-5.013350e-04
9319=2.641579e-04
9325=8.146856e-03
9328=-2.352747e-03
9334=-4.264331e-01
9337=4.814454e-01
9343=-3.547294e-03
9346=8.458739e-02
9355=3.501649e-05
9361=-1.934594e-04
9364=7.976338e-03
9373=6.282476e-03
9379=8.400044e-02
9382=-7.320145e-02
9388=-2.044826e-04
9391=3.544487e-03
9397=-1.916698e+00
9400=1.602764e-01
9406=3.692826e-03
9409=-9.591800e-03
9415=2.905095e-01
9418=-7.122730e-02
9424=2.905095e-01
9427=-7.122730e-02
9433=6.165491e-03
9442=1.305941e-03
9445=-3.223709e-04
9500=6.262713e-01
9510=3.077102e-01
9544=-5.617342e-02
9546=9.862506e-03
9619=1.128660e-02
9640=-6.391564e-03
9643=1.623340e+00
9649=-5.849665e-02
9652=9.653760e-02
9658=2.605922e-03
9667=1.968421e-01
9670=-1.364404e-01
9676=1.968421e-01
9679=-1.364404e-01
9688=9.385568e-02
9694=-4.523800e-02
9697=8.065466e-02
9703=-1.051336e+00
9706=1.074413e+00
9715=4.040993e-03
9721=-2.159346e-02
9724=4.674433e-02
9735=2.263696e-02
9739=-7.263375e-01
9742=7.713334e-01
9748=1.940930e-01
9751=-3.288201e-01
9757=-2.324462e-03
9760=6.893298e-03
9769=2.653808e-03
9778=2.015331e-04
9787=1.601042e-04
9796=1.601042e-04
9805=1.601042e-04
9811=3.989807e-02
9820=6.205947e-01
9823=-2.655887e-01
9829=3.727979e-02
9838=-2.459594e-03
9841=3.029844e-03
9847=-3.409399e-02
9850=2.319356e-01
9852=-2.967765e-03
9856=1.122558e+00
9859=-8.252266e-01
9865=8.087433e-04
9874=-7.544768e-01
9877=8.550359e-01
9886=1.113756e-02
9895=-3.481365e-02
9904=9.419125e-02
9914=1.407152e-01
9915=-1.175251e-02
9919=2.418946e-04
9922=-1.531186e-03
9923=-5.239323e-03
9924=9.090466e-03
9928=2.418946e-04
9931=-1.531186e-03
9932=-5.239323e-03
9933=9.090466e-03
9937=2.418946e-04
9940=-1.531186e-03
9941=-5.239323e-03
9942=9.090466e-03
9949=6.032903e-03
9955=-8.242521e-02
9958=6.724613e-03
9969=5.077719e-02
9973=-8.884863e-01
9976=1.757524e-01
9987=5.077719e-02
9991=-4.145509e-01
9994=3.763021e-02
10000=-4.145509e-01
10003=3.763021e-02
10009=-3.891750e-01
10012=4.093620e-02
10018=-4.850829e-02
10021=2.703318e-03
10027=-3.771556e-02
10030=3.553842e-03
10039=1.918541e-02
10048=6.468056e-03
10054=-1.080852e-01
10057=1.258759e-01
10063=4.155257e-02
10066=-3.820615e-02
10072=-1.615147e-03
10075=2.818530e-03
10081=-1.639941e-01
10084=1.523414e-01
10090=-3.411774e-02
10093=1.243167e-01
10099=-3.156165e-03
10111=4.421546e-04
10117=-4.789452e-02
10120=5.277240e-02
10126=-4.778777e-02
10129=5.268569e-02
10135=-1.140256e-02
10138=2.489521e-02
10147=1.835286e-03
10156=1.835286e-03
10162=-2.522476e-03
10165=6.320976e-02
10171=-1.330492e-04
10174=5.470244e-05
10180=4.208029e-03
10189=5.833224e-03
10191=9.409296e-03
10192=-1.105909e-02
10200=5.565856e-02
10216=7.713076e-03
10219=3.955743e-01
10236=1.194070e-01
10246=-1.054914e-03
10248=6.512563e-02
10288=3.578952e-02
10289=-7.622395e-01
10294=-6.664437e-01
10299=6.493956e-02
10306=-1.073734e-01
10309=5.872998e-02
10318=3.755654e-03
10327=3.755654e-03
10333=-5.748350e-02
10336=6.567656e-02
10345=3.755654e-03
10354=6.917454e-01
10360=7.223343e-02
10417=8.157357e-01
10459=-1.582812e-02
10462=8.234006e-01
10468=1.076949e-01
10477=-9.079319e-02
10480=8.429964e-02
10486=-9.193096e-02
10489=8.918574e-02
10495=7.153218e-02
10498=-4.915861e-03
10504=7.153218e-02
10507=-4.915861e-03
10513=7.153218e-02
10516=-4.915861e-03
10522=1.832509e-01
10525=-1.706345e-02
10531=1.452751e-01
10540=-1.730964e-02
10543=5.724856e-02
10549=-6.289339e-02
10552=1.068745e-01
10558=-7.397264e-02
10561=7.490399e-05
10567=-1.209001e-02
10570=7.777020e-04
10579=3.516835e-05
10588=2.085251e-02
10594=-9.905060e-03
10597=1.696329e-02
10608=8.722388e-02
10612=7.665022e-01
10615=-5.439622e-01
10621=-1.021232e-01
10630=-1.021232e-01
10639=-1.021232e-01
10648=1.509046e-01
10651=-3.578159e-02
10657=3.730921e-01
10660=-3.523203e-01
10669=8.500071e-03
10678=8.500071e-03
10687=8.500071e-03
10693=1.950749e-03
10696=-9.898379e-04
10702=3.763648e-02
10705=-2.101627e-02
10711=-3.414117e-01
10714=5.218250e-01
10720=2.663229e-04
10729=7.988200e-03
10738=-3.801666e-03
10741=3.858233e-03
10747=-2.237830e-03
10750=2.325824e-03
10756=-2.392497e-03
10759=3.426271e-03
10765=-2.392497e-03
10768=3.426271e-03
10774=-7.628489e-04
10777=1.426680e-03
10783=-5.156101e-02
10786=2.032766e-02
10792=-5.156101e-02
10795=2.032766e-02
10801=-7.183939e-02
10804=4.204082e-02
10810=-5.156101e-02
10813=2.032766e-02
10824=1.659474e-01
10825=-1.472784e-04
10829=-1.597815e-05
10834=2.430026e-05
10838=-1.597815e-05
10843=2.430026e-05
10847=-1.597815e-05
10852=2.430026e-05
10855=5.995230e-01
10858=-1.471199e-01
10869=8.595779e-02
10873=1.401135e-01
10876=-1.940728e-02
10882=5.777435e-04
10885=-2.501909e-05
10891=-2.825267e-02
10894=4.462506e-02
10900=6.484803e-02
10903=-3.579703e-03
10909=7.437163e-02
10912=-3.252536e-02
10921=2.234471e-02
10927=3.885710e-02
10930=-3.639242e-02
10936=-5.665126e-01
10939=6.767993e-01
10945=-5.665126e-01
10948=6.767993e-01
10954=-4.605493e-02
10957=1.462413e+00
10967=2.081438e-02
10972=1.428362e-03
10975=-4.358701e-06
10981=1.111782e-03
10984=-1.203316e-03
10990=5.415063e-04
10999=9.447646e-04
11011=2.276539e-03
11021=1.233633e-01
11026=7.756315e-01
11029=-1.400071e-01
11030=1.063669e-01
11056=1.426604e+00
11125=-5.594228e-01
11128=1.941551e+00
11134=2.495047e-01
11137=-7.254240e-02
11143=3.757806e-04
11152=3.757806e-04
11161=3.043429e-02
11164=-6.519546e-01
11170=-8.076249e-02
11173=1.888533e-01
11179=-8.076249e-02
11182=1.888533e-01
11188=-8.076249e-02
11191=1.888533e-01
11197=-8.076249e-02
11200=1.888533e-01
11206=-8.076249e-02
11209=1.888533e-01
11215=-8.076249e-02
11218=1.888533e-01
11224=-6.235498e-03
11227=1.016283e-01
11233=1.038921e-02
11236=-5.326263e-03
11242=-4.493947e-03
11245=5.655592e-03
11251=-1.290372e-02
11254=1.934017e-03
11260=-1.290372e-02
11263=1.934017e-03
11269=-5.402827e-03
11272=6.853063e-03
11281=6.000062e-03
11290=1.385733e-06
11299=1.512419e-06
11305=2.917859e-01
11308=-2.405916e-01
11314=-7.041620e-02
11317=1.044774e-01
11323=-7.041620e-02
11326=1.044774e-01
11332=-2.469556e-01
11335=5.718479e-01
11341=-7.041620e-02
11344=1.044774e-01
11350=-3.448987e-02
11353=3.821476e-02
11359=2.873986e-02
11362=-1.950376e-02
11368=2.573367e-01
11371=-2.592789e-01
11377=-5.789223e-03
11380=2.189201e-02
11386=-1.873766e-01
11389=2.968401e-01
11395=-5.789223e-03
11398=2.189201e-02
11404=-9.380342e-02
11407=2.601398e-01
11414=7.772961e-02
11422=-4.788709e-01
11425=6.678785e-01
11434=-1.161973e-01
11443=-3.199637e-01
11450=4.099093e-01
11459=4.099093e-01
11468=4.162882e-01
11477=4.099093e-01
11488=2.925986e-02
11498=-7.823211e-02
11499=8.665937e-01
11503=-1.475283e-02
11506=1.120411e-01
11512=-5.551118e-02
11515=5.651551e-02
11521=3.413276e-01
11524=-2.979023e-01
11530=3.594087e-01
11533=-3.053379e-01
11539=-1.252769e-02
11542=1.597131e-02
11548=-2.227755e-02
11551=2.237072e-02
11557=-2.227427e-02
11560=2.240852e-02
11566=-2.227427e-02
11569=2.240852e-02
11575=-2.227427e-02
11578=2.240852e-02
11584=-7.399578e-02
11587=2.155021e-01
11592=7.619062e-03
11601=7.619062e-03
11610=2.730386e-02
11611=-9.310010e-03
11620=-2.500271e-02
11623=2.027556e-01
11629=1.587376e-03
11632=-6.909643e-04
11638=-7.842620e-02
11641=6.056792e-03
11647=-1.008086e-03
11650=6.844870e-04
11656=-1.008086e-03
11659=6.844870e-04
11665=-1.008086e-03
11668=6.844870e-04
11674=6.459398e-02
11683=-1.008086e-03
11686=6.844870e-04
11692=-1.008086e-03
11695=6.844870e-04
11701=9.248776e-01
11704=-9.444113e-01
11710=-3.083073e-02
11713=2.583585e-01
11719=-3.436420e-02
11722=2.981901e-01
11728=1.357374e-03
11731=-4.341553e-05
11737=2.788162e-03
11740=-2.759637e-03
11746=5.622937e-01
11749=-5.068259e-01
11755=-1.759773e-01
11758=2.055729e-01
11764=-1.964775e-01
11767=2.293496e-01
11773=-2.572126e-02
11776=2.977100e-02
11785=2.175083e-02
11791=3.882754e-01
11794=-3.839985e-01
11803=3.185845e-03
11809=1.521732e-01
11812=-4.404620e-02
11818=1.381173e-01
11821=-4.404043e-02
11827=-4.967434e-02
11830=6.287831e-02
11836=-4.967434e-02
11839=6.287831e-02
11845=-4.976080e-02
11848=6.308138e-02
11854=-4.967434e-02
11857=6.287831e-02
11866=1.080693e-01
11875=1.104510e-01
11881=3.173147e-02
11884=-3.859645e-02
11889=1.846108e+00
11890=-7.510356e-01
11899=-3.807644e-02
11902=5.890418e-02
11911=-1.673972e-03
11920=1.115000e+00
11926=-5.533851e-04
11929=1.661962e-03
11935=1.274068e-03
11938=-6.363152e-04
11944=5.114712e-01
11947=-7.939437e-02
11953=5.114712e-01
11956=-7.939437e-02
11962=5.452657e-03
11965=-1.099110e-02
11971=2.357845e-01
11974=-8.514043e-02
11980=-4.031725e-02
11983=4.135003e-02
11989=-4.031725e-02
11992=4.135003e-02
11998=-5.398158e-03
12001=5.661317e-03
12007=-4.478526e-02
12010=3.705736e-02
12016=-3.309533e-02
12019=3.244044e-02
12025=-4.031725e-02
12028=4.135003e-02
12034=-4.031725e-02
12037=4.135003e-02
12043=-5.224804e-02
12046=5.806334e-02
12052=-5.224804e-02
12055=5.806334e-02
12061=-2.522058e-02
12064=3.257477e-02
12070=-2.522058e-02
12073=3.257477e-02
12079=-2.712574e-02
12082=3.195903e-02
12088=-2.522058e-02
12091=3.257477e-02
12097=-2.522058e-02
12100=3.257477e-02
12106=-2.522058e-02
12109=3.257477e-02
12115=-2.522058e-02
12118=3.257477e-02
12124=-4.688193e-01
12127=8.701941e-01
12136=6.405408e-01
12145=7.052307e-02
12154=7.052307e-02
12160=-3.145764e-03
12163=1.302493e-01
12173=6.694001e-02
12174=-9.516890e-03
12178=-2.673568e-02
12181=1.496858e-02
12187=-1.038034e-02
12190=1.065231e-02
12196=-1.038034e-02
12199=1.065231e-02
12205=-1.038034e-02
12208=1.065231e-02
12214=3.948377e-02
12217=-1.816554e-02
12223=9.708516e-04
12226=-4.611917e-04
12232=9.708516e-04
12235=-4.611917e-04
12241=9.708516e-04
12244=-4.611917e-04
12250=9.708516e-04
12253=-4.611917e-04
12259=9.708516e-04
12262=-4.611917e-04
12268=-6.621472e-03
12271=6.580862e-03
12277=-6.621472e-03
12280=6.580862e-03
12289=4.735062e-03
12298=4.735062e-03
12307=4.735062e-03
12313=-1.211344e-02
12316=1.216307e-02
12322=-2.082587e-03
12325=2.153276e-03
12331=-5.869857e-03
12334=8.555265e-03
12340=-6.467083e-01
12343=6.540264e-01
12349=-4.097452e-01
12352=4.264477e-01
12358=-8.775765e-03
12367=-3.186110e-01
12370=3.478375e-01
12376=8.609935e-02
12379=-8.490515e-02
12385=-1.087735e-01
12388=1.226814e-01
12394=-1.087735e-01
12397=1.226814e-01
12403=-2.329325e-02
12412=-1.087735e-01
12415=1.226814e-01
12421=-9.411823e-02
12424=1.221831e-01
12430=-4.853193e-02
12433=5.384692e-02
12439=-9.411823e-02
12442=1.221831e-01
12448=-8.964933e-02
12451=1.168692e-01
12457=-4.918716e-02
12460=5.387960e-02
12466=-4.918716e-02
12469=5.387960e-02
12475=2.191645e-03
12478=-1.686160e-04
12484=-9.365797e-03
12497=5.432153e-02
12498=-4.067350e-02
12506=5.432153e-02
12507=-4.067350e-02
12515=5.432153e-02
12516=-4.067350e-02
12520=1.023559e-01
12523=-2.855860e-02
12532=-6.204039e-02
12536=1.239274e-01
12545=1.250769e-01
12554=1.288286e-01
12559=-8.182313e-02
12563=1.437711e-01
12572=1.481102e-01
12574=7.081245e-05
12583=-3.023857e-03
12590=1.479504e-01
12599=1.665544e-01
12608=1.665544e-01
12617=1.665916e-01
12626=1.666166e-01
12628=-3.731350e-02
12631=3.715116e-02
12637=-3.731350e-02
12640=3.715116e-02
12646=-2.545078e-02
12649=2.537947e-02
12655=-2.545078e-02
12658=2.537947e-02
12664=-2.545078e-02
12667=2.537947e-02
12673=-2.545078e-02
12676=2.537947e-02
12682=-2.451448e-02
12685=2.449404e-02
12691=-2.451448e-02
12694=2.449404e-02
12700=-2.578016e-03
12703=2.586108e-03
12709=-3.740040e-02
12712=4.520342e-02
12718=-3.740040e-02
12721=4.520342e-02
12727=-3.740040e-02
12730=4.520342e-02
12736=-3.740040e-02
12739=4.520342e-02
12745=-2.954448e-02
12748=3.155686e-02
12754=-2.954448e-02
12757=3.155686e-02
12763=-2.890331e-02
12766=3.100562e-02
12772=-2.890331e-02
12775=3.100562e-02
12781=-3.714674e-04
12784=4.738888e-04
12790=-3.104350e-03
12793=3.378865e-03
12799=-3.104350e-03
12802=3.378865e-03
12808=-3.104350e-03
12811=3.378865e-03
12817=-3.104350e-03
12820=3.378865e-03
12826=-3.104350e-03
12829=3.378865e-03
12835=-2.245970e-03
12838=2.333267e-03
12844=-2.245970e-03
12847=2.333267e-03
12853=-2.245970e-03
12856=2.333267e-03
12862=-2.245970e-03
12865=2.333267e-03
12871=4.812167e-04
12874=-4.279953e-04
12880=9.402237e-02
12883=-2.856826e-02
12889=9.402237e-02
12892=-2.856826e-02
12898=-3.750947e-02
12901=4.199417e-02
12907=-3.750947e-02
12910=4.199417e-02
12916=-3.750947e-02
12919=4.199417e-02
12925=-3.750947e-02
12928=4.199417e-02
12934=-3.750947e-02
12937=4.199417e-02
12943=-3.750947e-02
12946=4.199417e-02
12952=-3.750947e-02
12955=4.199417e-02
12961=-3.750947e-02
12964=4.199417e-02
12970=-5.961184e-03
12973=6.539393e-03
12979=-5.961184e-03
12982=6.539393e-03
12988=-5.961184e-03
12991=6.539393e-03
12997=-5.961184e-03
13000=6.539393e-03
13006=-5.961184e-03
13009=6.539393e-03
13015=-5.961184e-03
13018=6.539393e-03
13024=-6.050964e-03
13027=6.720726e-03
13033=-6.050964e-03
13036=6.720726e-03
13042=-6.050964e-03
13045=6.720726e-03
13051=-5.542143e-03
13054=6.208193e-03
13060=-5.776055e-03
13063=6.461356e-03
13069=-5.268707e-03
13072=5.892319e-03
13078=-5.776055e-03
13081=6.461356e-03
13087=-1.478425e-02
13090=1.609239e-02
13096=-1.478425e-02
13099=1.609239e-02
13105=-6.424984e-03
13108=9.101711e-03
13114=-6.424984e-03
13117=9.101711e-03
13123=-6.424984e-03
13126=9.101711e-03
13132=-2.834208e-03
13135=5.081239e-03
13141=-2.834208e-03
13144=5.081239e-03
13150=-2.834208e-03
13153=5.081239e-03
13159=-2.834208e-03
13162=5.081239e-03
13168=1.524513e-05
13171=-1.467812e-05
13177=1.524513e-05
13180=-1.467812e-05
13186=5.946568e-02
13189=-5.251026e-02
13195=-2.488740e-02
13198=2.613962e-02
13204=-2.488740e-02
13207=2.613962e-02
13213=9.090376e-04
13216=-3.881834e-04
13222=1.238020e-02
13225=-1.036253e-02
13234=2.935695e-03
13240=-4.924991e-03
13243=7.201109e-03
13249=3.291456e-03
13252=-3.252989e-03
13258=3.291456e-03
13261=-3.252989e-03
13267=3.291456e-03
13270=-3.252989e-03
13276=3.707293e-01
13279=-1.320211e-01
13285=3.685757e-01
13288=-5.722722e-01
13295=1.532002e-01
13296=-8.837520e-04
13304=1.532002e-01
13305=-8.837520e-04
13315=8.242670e-04
13324=8.242670e-04
13330=-9.710954e-05
13333=1.822943e-03
13340=9.150506e-03
13348=2.427416e-02
13351=-1.650221e-02
13362=8.854136e-02
13371=8.854136e-02
13380=8.854136e-02
13389=8.854136e-02
13398=8.854136e-02
13407=8.854136e-02
13411=1.503918e-02
13414=-1.453495e-02
13420=-6.991804e-02
13423=6.744872e-02
13429=-6.991804e-02
13432=6.744872e-02
13438=-6.991804e-02
13441=6.744872e-02
13447=-1.138753e-01
13450=1.170250e-01
13456=-1.138753e-01
13459=1.170250e-01
13465=-1.138753e-01
13468=1.170250e-01
13477=6.519810e-02
13486=6.519810e-02
13495=6.519810e-02
13501=-1.661010e-03
13504=1.660031e-03
13513=2.105089e-03
13518=1.247440e+00
13519=-6.300884e-01
13528=1.224322e-03
13531=-1.687110e-05
13537=4.215851e-03
13540=-2.504362e-03
13546=8.209908e-02
13549=-6.951392e-02
13555=8.209908e-02
13558=-6.951392e-02
13564=8.209908e-02
13567=-6.951392e-02
13576=3.880995e-03
13585=3.880995e-03
13594=3.880995e-03
13603=3.880995e-03
13612=3.880995e-03
13618=1.642261e-03
13627=1.603274e-02
13630=-1.579621e-02
13636=1.603274e-02
13639=-1.579621e-02
13645=1.603274e-02
13648=-1.579621e-02
13654=1.603274e-02
13657=-1.579621e-02
13663=1.603274e-02
13666=-1.579621e-02
13672=1.603274e-02
13675=-1.579621e-02
13681=-3.562571e-02
13684=3.784242e-02
13690=-3.562571e-02
13693=3.784242e-02
13699=-3.562571e-02
13702=3.784242e-02
13708=-3.562571e-02
13711=3.784242e-02
13717=-3.562571e-02
13720=3.784242e-02
13726=-3.562571e-02
13729=3.784242e-02
13735=-3.562571e-02
13738=3.784242e-02
13744=-1.539465e-03
13747=2.773700e-03
13753=-1.539465e-03
13756=2.773700e-03
13762=-1.539465e-03
13765=2.773700e-03
13771=-1.539465e-03
13774=2.773700e-03
13780=-1.539465e-03
13783=2.773700e-03
13789=-1.539465e-03
13792=2.773700e-03
13798=-1.539465e-03
13801=2.773700e-03
13807=-1.539465e-03
13810=2.773700e-03
13816=1.903876e-04
13819=-1.705132e-04
13825=1.903876e-04
13828=-1.705132e-04
13834=1.903876e-04
13837=-1.705132e-04
13843=1.903876e-04
13846=-1.705132e-04
13852=1.903876e-04
13855=-1.705132e-04
