#mdl#2#10102
#rdr#61/19/0
1:*,
18:u:Tok-1 X=%x[ 0,0],
18:u:tok-1 X=%x[ 0,1],
18:u:tok-1LL=%X[-2,0],
18:u:tok-1 L=%X[-1,0],
18:u:tok-1 R=%X[ 1,0],
18:u:tok-1RR=%X[ 2,0],
27:u:tok-2 L=%X[-1,0]/%X[ 0,0],
27:u:tok-2 R=%X[ 0,0]/%X[ 1,0],
18:*:Fst-1 X=%x[ 0,2],
18:u:Fst-1 R=%x[ 1,2],
27:u:Fst-2 X=%x[ 0,2]/%x[ 0,4],
27:u:Fst-2 R=%x[ 1,2]/%x[ 1,4],
18:*:Lst-1 L=%x[-1,3],
18:u:Lst-1 X=%x[ 0,3],
27:u:Lst-2 L=%x[-1,3]/%x[-1,6],
27:u:Lst-2 X=%x[ 0,3]/%x[ 0,6],
18:u:Pre-1 X=%x[ 0,4],
18:u:Pre-2 X=%x[ 0,5],
18:u:Pre-2 R=%x[ 1,5],
18:u:Suf-1 X=%x[ 0,6],
18:u:Suf-2 L=%x[-1,7],
18:u:Suf-2 X=%x[ 0,7],
18:u:Cap-1 L=%x[-1,8],
18:u:Cap-1 X=%x[ 0,8],
18:u:Cap-1 R=%x[ 1,8],
27:u:Cap-2 L=%x[-1,8]/%x[ 0,8],
27:u:Cap-2 R=%x[ 0,8]/%x[ 1,8],
28:u:Cap-3 L=%x[-1,18]/%x[ 0,8],
18:*:Num-1 L=%x[-1,9],
18:*:Num-1 X=%x[ 0,9],
18:u:Num-1 R=%x[ 1,9],
28:u:Num-2 R=%x[ 0,9]/%x[ 0,17],
28:u:Num-2 R=%x[ 0,9]/%x[ 0,18],
19:u:Nme-1 X=%x[ 0,10],
19:u:Loc-1 X=%x[ 0,11],
19:u:Pub-1 X=%x[ 0,12],
19:u:Jnl-1 X=%x[ 0,13],
19:u:Key-1 L=%x[-1,14],
19:u:Key-1 X=%x[ 0,14],
19:u:Key-1 R=%x[ 1,14],
28:u:Key-2 X=%x[ 0,14]/%x[ 0,8],
29:u:Key-3 L=%x[-1,18]/%x[ 0,14],
29:u:Key-3 x=%x[ 0,14]/%x[ 0,18],
19:u:Pos-1 X=%x[ 0,15],
29:u:Pos-2 L=%x[-1,15]/%x[ 0,15],
29:u:Pos-2 R=%x[ 0,15]/%x[ 1,15],
19:u:Pct-1 L=%x[-1,16],
19:u:Pct-1 X=%x[ 0,16],
19:u:Pct-1 R=%x[ 1,16],
19:u:Brk-1 L=%x[-1,17],
19:u:Brk-1 X=%x[ 0,17],
19:u:Brk-1 R=%x[ 1,17],
19:*:Tmn-1 L=%x[-1,18],
19:u:Tmn-1 X=%x[ 0,18],
19:u:Tmn-1 R=%x[ 1,18],
29:u:Tmn-2 L=%x[-1,14]/%x[ 0,18],
29:u:Tmn-2 R=%x[ 0,18]/%x[ 1,14],
28:u:Tmn-3 X=%x[ 0,18]/%x[ 0,6],
28:u:Tmn-4 R=%x[ 0,18]/%x[ 1,8],
19:u:Id--1 X=%x[ 0,19],
#qrk#19
6:author,
5:title,
4:date,
9:publisher,
7:journal,
6:volume,
5:pages,
5:genre,
15:container-title,
6:editor,
8:location,
4:note,
3:url,
15:citation-number,
3:doi,
7:edition,
16:collection-title,
10:translator,
4:isbn,
#qrk#3724
1:*,
14:u:tok-1LL=_x-2,
14:u:tok-1 L=_x-1,
13:u:tok-1RR=the,
12:*:Fst-1 X=Lu,
12:u:Fst-1 R=Lu,
14:u:Fst-2 X=Lu/A,
14:u:Fst-2 R=Lu/D,
14:*:Lst-1 L=_x-1,
11:u:Lst-1 X=P,
19:u:Lst-2 L=_x-1/_x-1,
13:u:Lst-2 X=P/,,
11:u:Pre-1 X=A,
12:u:Pre-2 X=Ad,
11:u:Suf-1 X=,,
14:u:Suf-2 L=_x-1,
12:u:Suf-2 X=y,,
14:u:Cap-1 L=_x-1,
17:u:Cap-1 X=initial,
16:u:Cap-1 R=single,
22:u:Cap-2 L=_x-1/initial,
24:u:Cap-2 R=initial/single,
22:u:Cap-3 L=_x-1/initial,
14:*:Num-1 L=_x-1,
14:*:Num-1 X=none,
15:u:Num-1 R=roman,
19:u:Num-2 R=none/none,
19:u:Num-2 R=none/weak,
11:u:Nme-1 X=T,
11:u:Loc-1 X=F,
11:u:Pub-1 X=F,
11:u:Jnl-1 X=F,
14:u:Key-1 L=_x-1,
14:u:Key-1 X=none,
14:u:Key-1 R=none,
22:u:Key-2 X=none/initial,
19:u:Key-3 L=_x-1/none,
19:u:Key-3 x=none/weak,
15:u:Pos-1 X=first,
20:u:Pos-2 L=_x-1/first,
17:u:Pos-2 R=first/0,
14:u:Pct-1 L=_x-1,
15:u:Pct-1 X=other,
16:u:Pct-1 R=period,
14:u:Brk-1 L=_x-1,
14:u:Brk-1 X=none,
14:u:Brk-1 R=none,
14:*:Tmn-1 L=_x-1,
14:u:Tmn-1 X=weak,
16:u:Tmn-1 R=strong,
19:u:Tmn-2 L=_x-1/weak,
19:u:Tmn-2 R=weak/none,
16:u:Tmn-3 X=weak/,,
21:u:Tmn-4 R=weak/single,
11:u:Id--1 X=F,
14:u:tok-1LL=_x-1,
13:u:tok-1 R=the,
17:u:tok-1RR=russian,
14:u:Fst-2 X=Lu/D,
14:u:Fst-2 R=Lu/T,
11:*:Lst-1 L=P,
13:u:Lst-2 L=P/,,
13:u:Lst-2 X=P/.,
11:u:Pre-1 X=D,
12:u:Pre-2 R=Th,
11:u:Suf-1 X=.,
12:u:Suf-2 L=y,,
17:u:Cap-1 L=initial,
16:u:Cap-1 X=single,
17:u:Cap-1 R=initial,
24:u:Cap-2 L=initial/single,
24:u:Cap-2 R=single/initial,
21:u:Cap-3 L=weak/single,
14:*:Num-1 L=none,
15:*:Num-1 X=roman,
14:u:Num-1 R=none,
20:u:Num-2 R=roman/none,
22:u:Num-2 R=roman/strong,
11:u:Nme-1 X=F,
14:u:Key-1 L=none,
21:u:Key-2 X=none/single,
19:u:Key-3 L=weak/none,
21:u:Key-3 x=none/strong,
11:u:Pos-1 X=0,
17:u:Pos-2 L=first/0,
13:u:Pos-2 R=0/1,
15:u:Pct-1 L=other,
16:u:Pct-1 X=period,
14:u:Pct-1 R=none,
14:u:Brk-1 L=none,
14:*:Tmn-1 L=weak,
16:u:Tmn-1 X=strong,
14:u:Tmn-1 R=none,
21:u:Tmn-2 L=none/strong,
21:u:Tmn-2 R=strong/none,
18:u:Tmn-3 X=strong/.,
24:u:Tmn-4 R=strong/initial,
13:u:Tok-1 X=The,
13:u:tok-1 X=the,
14:u:Fst-2 X=Lu/T,
14:u:Fst-2 R=Lu/R,
12:u:Lst-1 X=Ll,
13:u:Lst-2 L=P/.,
14:u:Lst-2 X=Ll/e,
11:u:Pre-1 X=T,
12:u:Pre-2 X=Th,
11:u:Suf-1 X=e,
12:u:Suf-2 X=he,
16:u:Cap-1 L=single,
24:u:Cap-2 L=single/initial,
25:u:Cap-2 R=initial/initial,
24:u:Cap-3 L=strong/initial,
15:*:Num-1 L=roman,
11:u:Pub-1 X=T,
11:u:Jnl-1 X=T,
21:u:Key-3 L=strong/none,
19:u:Key-3 x=none/none,
11:u:Pos-1 X=1,
13:u:Pos-2 L=0/1,
13:u:Pos-2 R=1/1,
16:u:Pct-1 L=period,
14:u:Pct-1 X=none,
16:*:Tmn-1 L=strong,
14:u:Tmn-1 X=none,
19:u:Tmn-2 L=none/none,
19:u:Tmn-2 R=none/none,
16:u:Tmn-3 X=none/e,
22:u:Tmn-4 R=none/initial,
17:u:Tok-1 X=Russian,
17:u:tok-1 X=russian,
13:u:tok-1 L=the,
12:u:tok-1RR=of,
14:u:Fst-2 X=Lu/R,
14:u:Fst-2 R=Lu/W,
12:*:Lst-1 L=Ll,
14:u:Lst-2 L=Ll/e,
14:u:Lst-2 X=Ll/n,
11:u:Pre-1 X=R,
12:u:Pre-2 X=Ru,
12:u:Pre-2 R=Wa,
11:u:Suf-1 X=n,
12:u:Suf-2 L=he,
12:u:Suf-2 X=an,
25:u:Cap-2 L=initial/initial,
22:u:Cap-3 L=none/initial,
19:u:Key-3 L=none/none,
13:u:Pos-2 L=1/1,
13:u:Pos-2 R=1/2,
14:u:Pct-1 L=none,
14:*:Tmn-1 L=none,
16:u:Tmn-3 X=none/n,
13:u:tok-1LL=the,
17:u:tok-1 L=russian,
12:u:tok-1 R=of,
12:u:Fst-1 R=Ll,
14:u:Fst-2 X=Lu/W,
14:u:Fst-2 R=Ll/o,
14:u:Lst-2 L=Ll/n,
14:u:Lst-2 X=Ll/y,
11:u:Pre-1 X=W,
12:u:Pre-2 X=Wa,
12:u:Pre-2 R=of,
11:u:Suf-1 X=y,
12:u:Suf-2 L=an,
12:u:Suf-2 X=ay,
15:u:Cap-1 R=lower,
23:u:Cap-2 R=initial/lower,
11:u:Pos-1 X=2,
13:u:Pos-2 L=1/2,
13:u:Pos-2 R=2/2,
16:u:Tmn-3 X=none/y,
20:u:Tmn-4 R=none/lower,
12:u:Tok-1 X=of,
12:u:tok-1 X=of,
19:u:tok-1RR=strategic,
12:*:Fst-1 X=Ll,
14:u:Fst-2 X=Ll/o,
14:u:Lst-2 L=Ll/y,
14:u:Lst-2 X=Ll/f,
11:u:Pre-1 X=o,
12:u:Pre-2 X=of,
12:u:Pre-2 R=De,
11:u:Suf-1 X=f,
12:u:Suf-2 X=of,
15:u:Cap-1 X=lower,
23:u:Cap-2 L=initial/lower,
23:u:Cap-2 R=lower/initial,
20:u:Cap-3 L=none/lower,
20:u:Key-2 X=none/lower,
13:u:Pos-2 L=2/2,
13:u:Pos-2 R=2/3,
15:u:Pct-1 R=colon,
18:u:Tmn-1 R=moderate,
16:u:Tmn-3 X=none/f,
20:u:tok-1 X=deterrence,
12:u:tok-1 L=of,
19:u:tok-1 R=strategic,
14:u:Fst-2 R=Lu/S,
14:u:Lst-2 L=Ll/f,
13:u:Lst-2 X=P/:,
12:u:Pre-2 X=De,
12:u:Pre-2 R=St,
11:u:Suf-1 X=:,
12:u:Suf-2 L=of,
15:u:Cap-1 L=lower,
23:u:Cap-2 L=lower/initial,
23:u:Num-2 R=none/moderate,
23:u:Key-3 x=none/moderate,
11:u:Pos-1 X=3,
13:u:Pos-2 L=2/3,
13:u:Pos-2 R=3/3,
15:u:Pct-1 X=colon,
18:u:Tmn-1 X=moderate,
23:u:Tmn-2 L=none/moderate,
23:u:Tmn-2 R=moderate/none,
20:u:Tmn-3 X=moderate/:,
26:u:Tmn-4 R=moderate/initial,
11:u:Id--1 X=T,
19:u:Tok-1 X=Strategic,
19:u:tok-1 X=strategic,
12:u:tok-1LL=of,
14:u:Fst-2 X=Lu/S,
14:u:Fst-2 R=Lu/C,
13:u:Lst-2 L=P/:,
14:u:Lst-2 X=Ll/c,
11:u:Pre-1 X=S,
12:u:Pre-2 X=St,
12:u:Pre-2 R=Cu,
11:u:Suf-1 X=c,
12:u:Suf-2 L=e:,
12:u:Suf-2 X=ic,
26:u:Cap-3 L=moderate/initial,
23:u:Key-3 L=moderate/none,
13:u:Pos-2 L=3/3,
13:u:Pos-2 R=3/4,
15:u:Pct-1 L=colon,
15:u:Pct-1 R=other,
18:*:Tmn-1 L=moderate,
14:u:Tmn-1 R=weak,
16:u:Tmn-3 X=none/c,
19:u:tok-1 L=strategic,
13:u:tok-1RR=and,
14:u:Fst-2 X=Lu/C,
14:u:Lst-2 L=Ll/c,
11:u:Pre-1 X=C,
12:u:Pre-2 X=Cu,
12:u:Pre-2 R=Co,
12:u:Suf-2 L=ic,
12:u:Suf-2 X=e,,
11:u:Pos-1 X=4,
13:u:Pos-2 L=3/4,
13:u:Pos-2 R=4/4,
19:u:Tmn-2 L=none/weak,
22:u:Tmn-4 R=weak/initial,
19:u:tok-1LL=strategic,
13:u:tok-1 R=and,
14:u:Fst-2 R=Ll/a,
12:u:Pre-2 X=Co,
12:u:Pre-2 R=an,
12:u:Suf-2 L=e,,
12:u:Suf-2 X=n,,
22:u:Cap-3 L=weak/initial,
13:u:Key-1 R=and,
13:u:Pos-2 L=4/4,
13:u:Pos-2 R=4/5,
18:u:Tmn-2 R=weak/and,
20:u:Tmn-4 R=weak/lower,
13:u:Tok-1 X=and,
13:u:tok-1 X=and,
14:u:Fst-2 X=Ll/a,
14:u:Lst-2 X=Ll/d,
11:u:Pre-1 X=a,
12:u:Pre-2 X=an,
11:u:Suf-1 X=d,
12:u:Suf-2 L=n,,
12:u:Suf-2 X=nd,
20:u:Cap-3 L=weak/lower,
13:u:Key-1 X=and,
19:u:Key-2 X=and/lower,
18:u:Key-3 L=weak/and,
18:u:Key-3 x=and/none,
11:u:Pos-1 X=5,
13:u:Pos-2 L=4/5,
13:u:Pos-2 R=5/5,
16:u:Tmn-3 X=none/d,
13:u:tok-1 X=war,
13:u:tok-1 L=and,
12:u:Fst-1 R=Ps,
14:u:Fst-2 R=Ps/(,
14:u:Lst-2 L=Ll/d,
12:u:Pre-2 R=(2,
12:u:Suf-2 L=nd,
12:u:Suf-2 X=r.,
15:u:Cap-1 R=other,
23:u:Cap-2 R=initial/other,
14:u:Num-1 R=year,
21:u:Num-2 R=none/strong,
13:u:Key-1 L=and,
13:u:Pos-2 L=5/5,
13:u:Pos-2 R=5/6,
16:u:Brk-1 R=parens,
20:u:Tmn-2 L=and/strong,
22:u:Tmn-4 R=strong/other,
14:u:tok-1 X=2023,
13:u:tok-1LL=and,
12:*:Fst-1 X=Ps,
14:u:Fst-2 X=Ps/(,
11:u:Pre-1 X=(,
12:u:Pre-2 X=(2,
12:u:Suf-2 L=r.,
12:u:Suf-2 X=).,
15:u:Cap-1 X=other,
23:u:Cap-2 L=initial/other,
23:u:Cap-2 R=other/initial,
22:u:Cap-3 L=strong/other,
14:*:Num-1 X=year,
21:u:Num-2 R=year/parens,
21:u:Num-2 R=year/strong,
20:u:Key-2 X=none/other,
11:u:Pos-1 X=6,
13:u:Pos-2 L=5/6,
13:u:Pos-2 R=6/6,
16:u:Brk-1 X=parens,
17:u:tok-1 L=(2023).,
12:u:Suf-2 L=).,
15:u:Cap-1 L=other,
23:u:Cap-2 L=other/initial,
14:*:Num-1 L=year,
13:u:Pos-2 L=6/6,
13:u:Pos-2 R=6/7,
16:u:Brk-1 L=parens,
11:u:Pos-1 X=7,
13:u:Pos-2 L=6/7,
13:u:Pos-2 R=7/7,
21:u:tok-1RR=deterrence,,
13:u:Pos-2 L=7/7,
13:u:Pos-2 R=7/8,
21:u:tok-1 R=deterrence,,
11:u:Pos-1 X=8,
13:u:Pos-2 L=7/8,
13:u:Pos-2 R=8/8,
20:u:tok-1RR=university,
13:u:Pos-2 L=8/8,
13:u:Pos-2 R=8/9,
14:u:Fst-2 R=Lu/U,
12:u:Pre-2 R=Un,
12:u:Suf-2 X=rd,
11:u:Loc-1 X=T,
11:u:Pos-1 X=9,
13:u:Pos-2 L=8/9,
13:u:Pos-2 R=9/9,
20:u:Tok-1 X=University,
20:u:tok-1 X=university,
14:u:tok-1RR=_x+1,
14:u:Fst-2 X=Lu/U,
14:u:Fst-2 R=Lu/P,
11:u:Pre-1 X=U,
12:u:Pre-2 X=Un,
12:u:Pre-2 R=Pr,
12:u:Suf-2 L=rd,
12:u:Suf-2 X=ty,
13:u:Pos-2 L=9/9,
16:u:Pos-2 R=9/last,
15:u:tok-1 X=press,
20:u:tok-1 L=university,
14:u:tok-1 R=_x+1,
14:u:tok-1RR=_x+2,
14:u:Fst-1 R=_x+1,
14:u:Fst-2 X=Lu/P,
19:u:Fst-2 R=_x+1/_x+1,
11:u:Pre-1 X=P,
12:u:Pre-2 X=Pr,
14:u:Pre-2 R=_x+1,
12:u:Suf-2 L=ty,
12:u:Suf-2 X=s.,
14:u:Cap-1 R=_x+1,
22:u:Cap-2 R=initial/_x+1,
14:u:Num-1 R=_x+1,
14:u:Key-1 R=_x+1,
14:u:Pos-1 X=last,
16:u:Pos-2 L=9/last,
19:u:Pos-2 R=last/_x+1,
14:u:Pct-1 R=_x+1,
14:u:Brk-1 R=_x+1,
14:u:Tmn-1 R=_x+1,
21:u:Tmn-2 R=strong/_x+1,
21:u:Tmn-4 R=strong/_x+1,
12:u:Suf-2 X=r,,
17:u:Pos-2 R=first/1,
12:u:tok-1RR=as,
14:u:Fst-2 R=Lu/E,
12:u:Suf-2 L=r,,
17:u:Pos-2 L=first/1,
12:u:tok-1 L=r.,
14:u:Fst-2 X=Lu/E,
14:u:Lst-2 X=Ll/m,
11:u:Pre-1 X=E,
12:u:Pre-2 X=Ec,
11:u:Suf-1 X=m,
12:u:Suf-2 L=R.,
16:u:Tmn-3 X=none/m,
12:u:tok-1 X=as,
12:u:tok-1LL=r.,
14:u:Lst-2 L=Ll/m,
14:u:Lst-2 X=Ll/s,
11:u:Suf-1 X=s,
12:u:Suf-2 X=as,
16:u:Tmn-3 X=none/s,
12:u:tok-1 L=as,
12:u:tok-1 R=an,
14:u:Fst-2 R=Lu/A,
14:u:Lst-2 L=Ll/s,
12:u:Pre-2 R=An,
12:u:Tok-1 X=An,
12:u:tok-1 X=an,
12:u:Pre-2 X=An,
12:u:Pre-2 R=Ac,
12:u:Suf-2 X=An,
12:u:tok-1 L=an,
13:u:tok-1RR=for,
12:u:Pre-2 X=Ac,
12:u:Suf-2 X=le,
12:u:tok-1LL=an,
13:u:tok-1 R=for,
14:u:Fst-2 R=Ll/f,
14:u:Lst-2 X=Ll/t,
12:u:Pre-2 R=fo,
11:u:Suf-1 X=t,
12:u:Suf-2 L=le,
12:u:Suf-2 X=ct,
16:u:Tmn-3 X=none/t,
13:u:Tok-1 X=for,
13:u:tok-1 X=for,
17:u:tok-1RR=journal,
14:u:Fst-2 X=Ll/f,
14:u:Lst-2 L=Ll/t,
14:u:Lst-2 X=Ll/r,
11:u:Pre-1 X=f,
12:u:Pre-2 X=fo,
11:u:Suf-1 X=r,
12:u:Suf-2 L=ct,
12:u:Suf-2 X=or,
16:u:Tmn-3 X=none/r,
13:u:tok-1 L=for,
17:u:tok-1 R=journal,
14:u:Fst-2 R=Lu/J,
14:u:Lst-2 L=Ll/r,
12:u:Pre-2 R=Jo,
12:u:Suf-2 L=or,
12:u:Suf-2 X=y.,
17:u:Key-1 R=journal,
17:u:Tok-1 X=Journal,
17:u:tok-1 X=journal,
13:u:tok-1LL=for,
20:u:tok-2 R=journal/of,
14:u:Fst-2 X=Lu/J,
14:u:Lst-2 X=Ll/l,
11:u:Pre-1 X=J,
12:u:Pre-2 X=Jo,
11:u:Suf-1 X=l,
12:u:Suf-2 L=y.,
12:u:Suf-2 X=al,
17:u:Key-1 X=journal,
25:u:Key-2 X=journal/initial,
24:u:Key-3 L=strong/journal,
22:u:Key-3 x=journal/none,
16:u:Tmn-3 X=none/l,
17:u:tok-1 L=journal,
20:u:tok-2 L=journal/of,
14:u:Fst-2 R=Lu/M,
14:u:Lst-2 L=Ll/l,
12:u:Pre-2 R=Ma,
12:u:Suf-2 L=al,
17:u:Key-1 L=journal,
22:u:Tmn-2 L=journal/none,
20:u:Tok-1 X=Management,
20:u:tok-1 X=management,
17:u:tok-1LL=journal,
11:u:Fst-1 R=N,
14:u:Fst-2 X=Lu/M,
13:u:Fst-2 R=N/4,
11:u:Pre-1 X=M,
12:u:Pre-2 X=Ma,
12:u:Suf-2 X=nt,
16:u:Num-1 R=volume,
23:u:Brk-1 R=closing-paren,
20:u:Tmn-4 R=none/other,
11:*:Fst-1 X=N,
13:u:Fst-2 X=N/4,
13:u:Fst-2 R=N/3,
12:u:Lst-1 X=Pe,
14:u:Lst-2 X=Pe/),
11:u:Pre-1 X=4,
11:u:Suf-1 X=),
12:u:Suf-2 L=nt,
21:u:Cap-2 R=other/other,
20:u:Cap-3 L=none/other,
16:*:Num-1 X=volume,
15:u:Num-1 R=range,
23:u:Num-2 R=volume/strong,
16:u:Pct-1 R=hyphen,
23:u:Brk-1 X=closing-paren,
18:u:Tmn-3 X=strong/),
13:u:Fst-2 X=N/3,
12:*:Lst-1 L=Pe,
11:u:Lst-1 X=N,
14:u:Lst-2 L=Pe/),
11:u:Pre-1 X=3,
21:u:Cap-2 L=other/other,
16:*:Num-1 L=volume,
15:*:Num-1 X=range,
20:u:Num-2 R=range/none,
16:u:Pct-1 X=hyphen,
23:u:Brk-1 L=closing-paren,
14:u:tok-1 X=2017,
11:*:Lst-1 L=N,
20:u:Cap-2 R=other/_x+1,
15:*:Num-1 L=range,
16:u:Pct-1 L=hyphen,
14:u:Fst-2 X=Lu/B,
11:u:Pre-1 X=B,
12:u:Pre-2 X=Ba,
12:u:Pre-2 R=A.,
11:u:tok-1 X=a,
12:u:Suf-2 X=A.,
23:u:Cap-2 L=single/single,
23:u:Cap-3 L=strong/single,
12:u:tok-1 L=a.,
13:u:tok-1RR=new,
12:u:Suf-2 L=A.,
12:u:tok-1LL=a.,
13:u:tok-1 R=new,
14:u:Fst-2 R=Lu/N,
12:u:Pre-2 R=Ne,
12:u:Suf-2 X=t:,
13:u:Tok-1 X=New,
13:u:tok-1 X=new,
17:u:tok-1RR=(2020).,
14:u:Fst-2 X=Lu/N,
14:u:Lst-2 X=Ll/w,
11:u:Pre-1 X=N,
12:u:Pre-2 X=Ne,
11:u:Suf-1 X=w,
12:u:Suf-2 L=t:,
12:u:Suf-2 X=ew,
16:u:Tmn-3 X=none/w,
13:u:tok-1 L=new,
14:u:Lst-2 L=Ll/w,
12:u:Suf-2 L=ew,
12:u:Suf-2 X=on,
13:u:tok-1LL=new,
12:u:Suf-2 L=on,
19:u:tok-1 X=princeton,
16:u:Pos-2 L=8/last,
12:u:tok-1 R=w.,
12:u:Pre-2 X=Be,
12:u:Pre-2 R=W.,
12:u:Tok-1 X=W.,
11:u:tok-1 X=w,
12:u:Pre-2 X=W.,
12:u:Suf-2 X=W.,
12:u:tok-1 L=w.,
12:u:Pre-2 X=Sa,
12:u:Suf-2 L=W.,
12:u:Suf-2 X=me,
12:u:tok-1LL=w.,
14:u:Fst-2 R=Ll/b,
12:u:Suf-2 L=me,
14:u:Fst-2 X=Ll/b,
11:u:Pre-1 X=b,
12:u:Pre-2 R=Di,
13:u:Pos-2 R=4/6,
12:u:Pre-2 X=Di,
12:u:Pre-2 R=Re,
12:u:Suf-2 X=in,
18:u:tok-1 X=research,
12:u:Pre-2 X=Re,
12:u:Suf-2 L=in,
12:u:Suf-2 X=h.,
12:u:Suf-2 X=s,,
12:u:Suf-2 L=s,,
12:u:Suf-2 X=.,,
12:u:Suf-2 L=.,,
12:u:tok-1 L=m.,
12:u:Suf-2 L=M.,
18:u:Tmn-2 R=none/and,
12:u:tok-1LL=m.,
12:u:tok-1RR=j.,
14:u:Fst-2 R=Lu/G,
18:u:Key-3 L=none/and,
21:u:Tmn-4 R=none/single,
12:u:tok-1 R=j.,
14:u:Fst-2 X=Lu/G,
11:u:Pre-1 X=G,
12:u:Pre-2 R=J.,
21:u:Cap-3 L=none/single,
12:u:Tok-1 X=J.,
11:u:tok-1 X=j,
12:u:tok-1 L=g.,
14:u:Fst-2 R=Lu/I,
12:u:Pre-2 X=J.,
12:u:Suf-2 L=G.,
19:u:Tok-1 X=Ikenberry,
19:u:tok-1 X=ikenberry,
12:u:tok-1 L=j.,
22:u:tok-1RR=intellectual,
22:u:tok-2 L=j./ikenberry,
22:u:tok-2 R=ikenberry/an,
14:u:Fst-2 X=Lu/I,
11:u:Pre-1 X=I,
12:u:Pre-2 X=Ik,
12:u:Suf-2 L=J.,
12:u:Suf-2 X=ry,
12:u:tok-1LL=j.,
12:u:Pre-2 R=In,
12:u:Suf-2 L=ry,
12:u:Pre-2 X=In,
12:u:Suf-2 X=ce,
14:u:Fst-2 R=Lu/K,
12:u:Suf-2 L=ce,
14:u:Fst-2 X=Lu/K,
11:u:Pre-1 X=K,
12:u:Suf-2 X=us,
12:u:Pre-2 R=(1,
12:u:Suf-2 L=us,
12:u:Pre-2 R=Po,
15:u:tok-1 X=power,
12:u:Pre-2 X=Po,
16:u:tok-1LL=power,,
12:u:Pre-2 R=Se,
18:u:tok-1 X=security,
12:u:Pre-2 X=Se,
12:u:Pre-2 R=Ro,
18:u:Tmn-2 L=and/weak,
12:u:Pre-2 X=Ro,
12:u:Suf-2 X=e.,
12:u:Pre-2 X=Bl,
14:u:Fst-2 R=Lu/F,
12:u:Suf-2 L=d,,
14:u:Fst-2 X=Lu/F,
11:u:Pre-1 X=F,
12:u:tok-1 L=e.,
12:u:Suf-2 X=ld,
16:u:Key-1 R=volume,
21:u:Tmn-2 R=none/volume,
16:u:Key-1 X=volume,
21:u:Key-3 L=none/volume,
23:u:Key-3 x=volume/strong,
12:u:Pre-2 R=Ri,
12:u:Suf-2 L=N.,
16:u:Key-1 L=volume,
17:u:Tok-1 X=Ripsman,
17:u:tok-1 X=ripsman,
12:u:tok-1LL=n.,
19:u:tok-1RR=political,
20:u:tok-2 L=m./ripsman,
21:u:tok-2 R=ripsman/the,
12:u:Pre-2 X=Ri,
19:u:tok-1 R=political,
14:u:Fst-2 R=Ll/p,
19:u:tok-1 X=political,
14:u:Fst-2 X=Ll/p,
14:u:Fst-2 R=Ll/e,
11:u:Pre-1 X=p,
21:u:Cap-2 R=lower/lower,
19:u:tok-1 L=political,
18:u:tok-1RR=national,
14:u:Fst-2 X=Ll/e,
11:u:Pre-1 X=e,
21:u:Cap-2 L=lower/lower,
18:u:tok-1 R=national,
21:u:tok-2 R=of/national,
14:u:Fst-2 R=Ll/n,
12:u:Pre-2 R=na,
18:u:tok-1 X=national,
14:u:Fst-2 X=Ll/n,
14:u:Fst-2 R=Ll/s,
11:u:Pre-1 X=n,
12:u:Pre-2 X=na,
12:u:Pre-2 R=se,
18:u:tok-1 L=national,
14:u:Fst-2 X=Ll/s,
11:u:Pre-1 X=s,
18:u:tok-1LL=national,
12:u:Suf-2 L=y:,
14:u:Fst-2 R=Ll/i,
12:u:Pre-2 R=in,
12:u:Suf-2 X=t,,
23:u:tok-1RR=international,
14:u:Fst-2 X=Ll/i,
11:u:Pre-1 X=i,
12:u:Pre-2 X=in,
23:u:tok-1 R=international,
27:u:tok-2 R=and/international,
23:u:Tok-1 X=international,
23:u:tok-1 X=international,
18:u:tok-1RR=security,
27:u:tok-2 L=and/international,
14:u:Fst-2 R=Ll/c,
18:u:Tmn-2 L=and/none,
18:u:tok-1 X=conflict,
23:u:tok-1 L=international,
18:u:tok-1 R=security,
17:u:tok-1RR=studies,
14:u:Fst-2 X=Ll/c,
11:u:Pre-1 X=c,
12:u:Suf-2 X=t.,
18:u:Tok-1 X=Security,
23:u:tok-1LL=international,
17:u:tok-1 R=studies,
26:u:tok-2 R=security/studies,
12:u:Suf-2 L=t.,
17:u:Tok-1 X=Studies,
17:u:tok-1 X=studies,
18:u:tok-1 L=security,
26:u:tok-2 L=security/studies,
13:u:Fst-2 R=N/9,
12:u:Suf-2 X=es,
18:u:tok-1LL=security,
13:u:Fst-2 X=N/9,
13:u:Fst-2 R=N/1,
11:u:Pre-1 X=9,
12:u:Suf-2 L=es,
13:u:Fst-2 X=N/1,
13:u:Lst-2 X=N/4,
11:u:Pre-1 X=1,
11:u:Suf-1 X=4,
16:u:Tmn-3 X=none/4,
12:u:Pre-2 X=Bo,
12:u:tok-1RR=s.,
22:u:Cap-2 R=single/lower,
22:u:Tmn-4 R=strong/lower,
12:u:tok-1 R=s.,
12:u:tok-1RR=w.,
12:u:Pre-2 R=S.,
22:u:Cap-2 L=single/lower,
22:u:Cap-3 L=strong/lower,
14:u:Key-1 R=page,
19:u:Tmn-2 R=none/page,
12:u:Tok-1 X=S.,
12:u:Pre-2 X=S.,
12:u:Suf-2 X=S.,
14:u:Key-1 X=page,
19:u:Key-3 L=none/page,
21:u:Key-3 x=page/strong,
12:u:tok-1 L=s.,
14:u:Fst-2 R=Lu/L,
12:u:Suf-2 L=S.,
14:u:Key-1 L=page,
21:u:Tmn-2 L=page/strong,
12:u:tok-1LL=s.,
14:u:Fst-2 X=Lu/L,
11:u:Pre-1 X=L,
12:u:Pre-2 X=Lo,
18:u:tok-1 R=coercion,
12:u:tok-1RR=in,
12:u:tok-1 R=in,
21:u:tok-1RR=cyberspace.,
12:u:Key-1 R=in,
17:u:Tmn-2 R=none/in,
12:u:Tok-1 X=in,
12:u:tok-1 X=in,
24:u:tok-2 R=in/cyberspace.,
12:u:Pre-2 R=Cy,
12:u:Key-1 X=in,
18:u:Key-2 X=in/lower,
17:u:Key-3 L=none/in,
17:u:Key-3 x=in/none,
20:u:tok-1 X=cyberspace,
12:u:tok-1 L=in,
12:u:Pre-2 X=Cy,
12:u:Key-1 L=in,
12:u:tok-1LL=in,
21:u:tok-1 L=cyberspace.,
12:u:Suf-2 L=e.,
21:u:tok-1LL=cyberspace.,
13:u:Fst-2 R=N/2,
13:u:Fst-2 X=N/2,
11:u:Pre-1 X=2,
12:u:Pre-2 X=26,
12:u:Pre-2 X=Br,
12:u:Pre-2 R=Ad,
12:u:tok-1 L=l.,
12:u:Suf-2 L=L.,
12:u:Pre-2 R=Cr,
12:u:Pre-2 X=Cr,
12:u:Suf-2 X=rs,
12:u:Suf-2 L=rs,
16:u:tok-2 R=of/the,
14:u:Fst-2 R=Ll/t,
12:u:Pre-2 R=th,
13:u:Tok-1 X=the,
17:u:tok-1RR=chinese,
16:u:tok-2 L=of/the,
14:u:Fst-2 X=Ll/t,
11:u:Pre-1 X=t,
12:u:Pre-2 X=th,
13:u:Lst-2 X=P/?,
12:u:Pre-2 R=Ch,
11:u:Suf-1 X=?,
16:u:Tmn-3 X=weak/?,
13:u:Lst-2 L=P/?,
12:u:Pre-2 X=Ch,
12:u:Suf-2 X=se,
17:u:tok-1 L=chinese,
12:u:Suf-2 L=se,
12:u:tok-1RR=on,
12:u:Pre-2 R=Pe,
22:u:Tok-1 X=Perspectives,
22:u:tok-1 X=perspectives,
12:u:tok-1 R=on,
25:u:tok-2 R=perspectives/on,
12:u:Pre-2 X=Pe,
12:u:Pre-2 R=on,
12:u:Tok-1 X=on,
12:u:tok-1 X=on,
22:u:tok-1 L=perspectives,
17:u:tok-1RR=(2019).,
25:u:tok-2 L=perspectives/on,
12:u:Pre-2 X=on,
12:u:tok-1 L=on,
17:u:tok-1 R=(2019).,
12:u:tok-1LL=on,
14:u:Fst-2 R=Lu/B,
12:u:Pre-2 X=Bu,
19:u:tok-1LL=buchanan,,
12:u:tok-1 L=b.,
12:u:Pre-2 R=Es,
12:u:Suf-2 L=B.,
19:u:tok-1 X=espionage,
12:u:Pre-2 X=Es,
14:u:Fst-2 R=Lu/H,
12:u:Pre-2 R=Ha,
14:u:Fst-2 X=Lu/H,
11:u:Pre-1 X=H,
12:u:Pre-2 X=Ha,
12:u:Suf-2 X=er,
17:u:tok-2 R=and/the,
12:u:Suf-2 L=er,
17:u:tok-2 L=and/the,
15:u:Tok-1 X=State,
15:u:tok-1 X=state,
13:u:Fst-2 R=N/8,
12:u:Suf-2 X=te,
15:u:tok-1 L=state,
13:u:Fst-2 X=N/8,
11:u:Pre-1 X=8,
12:u:Suf-2 L=te,
15:u:tok-1LL=state,
15:u:Tok-1 X=Press,
12:u:Suf-2 X=ss,
19:u:Tmn-2 R=none/_x+1,
19:u:Tmn-4 R=none/_x+1,
12:u:Pre-2 X=Ca,
12:u:Pre-2 R=Fi,
14:u:Lst-2 X=Ll/g,
12:u:Pre-2 X=Fi,
11:u:Suf-1 X=g,
12:u:Suf-2 X=ng,
16:u:Tmn-3 X=none/g,
14:u:Lst-2 L=Ll/g,
12:u:Pre-2 X=Al,
12:u:Suf-2 L=ng,
12:u:Suf-2 X=ne,
12:u:Suf-2 L=ne,
12:u:Suf-2 X=is,
12:u:tok-1 L=is,
12:u:Suf-2 L=is,
12:u:Suf-2 X=ed,
12:u:Suf-2 L=ed,
12:u:Pre-2 R=Le,
12:u:Pre-2 X=Le,
12:u:Suf-2 X=ns,
12:u:Pre-2 R=Fr,
12:u:Suf-2 L=ns,
12:u:Pre-2 X=Fr,
12:u:Pre-2 R=Sy,
15:u:tok-1RR=cyber,
12:u:Pre-2 X=Sy,
20:u:tok-1LL=fragmented,
15:u:tok-1 R=cyber,
19:u:tok-2 R=the/cyber,
12:u:Suf-2 L=s.,
15:u:Tok-1 X=Cyber,
15:u:tok-1 X=cyber,
17:u:tok-1 R=defense,
16:u:tok-1RR=review,
19:u:tok-2 L=the/cyber,
17:u:Tok-1 X=Defense,
17:u:tok-1 X=defense,
15:u:tok-1 L=cyber,
16:u:tok-1 R=review,
22:u:Tmn-2 R=none/journal,
16:u:Tok-1 X=Review,
16:u:tok-1 X=review,
15:u:tok-1LL=cyber,
17:u:tok-1 L=defense,
22:u:Key-3 L=none/journal,
17:u:tok-1LL=defense,
17:u:tok-1RR=(2022).,
13:u:Fst-2 X=N/7,
11:u:Pre-1 X=7,
24:u:Tmn-2 L=journal/strong,
17:u:tok-1 R=(2022).,
13:u:Lst-2 X=N/2,
11:u:Suf-1 X=2,
16:u:Tmn-3 X=none/2,
12:u:Pre-2 R=Pu,
12:u:Pre-2 X=Pu,
12:u:Suf-2 X=ps,
12:u:Suf-2 L=ps,
12:u:Pre-2 R=cy,
17:u:Tmn-2 L=in/none,
23:u:tok-1 X=cybersecurity,
12:u:Pre-2 X=cy,
20:u:tok-1 X=strategies,
23:u:Tok-1 X=International,
17:u:tok-1 R=affairs,
12:u:Pre-2 R=Af,
17:u:Tok-1 X=Affairs,
17:u:tok-1 X=affairs,
12:u:Pre-2 X=Af,
23:u:Brk-1 R=opening-paren,
17:u:tok-1 L=affairs,
19:u:tok-1 R=institute,
28:u:Num-2 R=none/opening-paren,
23:u:Brk-1 X=opening-paren,
19:u:Tok-1 X=Institute,
19:u:tok-1 X=institute,
17:u:tok-1LL=affairs,
23:u:Brk-1 L=opening-paren,
19:u:tok-1 L=institute,
26:u:tok-2 R=of/international,
19:u:tok-1LL=institute,
26:u:tok-2 L=of/international,
14:u:Fst-2 R=Lu/V,
12:u:Suf-2 X=a,,
14:u:Fst-2 X=Lu/V,
11:u:Pre-1 X=V,
12:u:Suf-2 L=a,,
19:u:tok-1RR=deterring,
12:u:Suf-2 X=ve,
12:u:Suf-2 L=ve,
12:u:Pre-2 R=We,
12:u:Suf-2 X='s,
12:u:Pre-2 X=We,
12:u:Suf-2 L='s,
12:u:Suf-2 X=24,
19:u:Tmn-2 L=page/none,
15:u:Tok-1 X=Evers,
15:u:tok-1 X=evers,
14:u:tok-1 R=wars,
17:u:tok-1RR=without,
18:u:tok-2 L=m./evers,
20:u:tok-2 R=evers/wars,
12:u:Pre-2 X=Ev,
14:u:Fst-2 R=Ll/w,
14:u:Fst-2 X=Ll/w,
11:u:Pre-1 X=w,
12:u:Pre-2 R=Gu,
13:u:Tok-1 X=Gun,
13:u:tok-1 X=gun,
16:u:tok-1RR=global,
12:u:Pre-2 X=Gu,
12:u:Suf-2 X=un,
16:u:tok-1 R=global,
16:u:Tok-1 X=Global,
16:u:tok-1 X=global,
12:u:Pre-2 X=Gl,
12:u:Pre-2 R=Su,
16:u:tok-1 L=global,
12:u:Pre-2 X=Su,
16:u:tok-1LL=global,
12:u:Pre-2 R=Tr,
12:u:Pre-2 X=Tr,
12:u:Pre-2 X=16,
12:u:Pre-2 X=Cl,
21:u:tok-1 R=cyberspace:,
12:u:Pre-2 R=Pa,
12:u:Pre-2 X=Pa,
17:u:tok-1RR=(2010).,
12:u:Pre-2 R=fu,
16:u:tok-1 X=future,
12:u:Pre-2 X=fu,
21:u:Cap-2 R=lower/other,
21:u:Cap-2 L=lower/other,
12:u:Suf-2 X=ts,
12:u:Suf-2 L=ts,
17:u:tok-1RR=working,
12:u:Pre-2 R=Te,
20:u:tok-1 X=technology,
12:u:Pre-2 X=Te,
12:u:Pre-2 R=Wo,
15:u:tok-1 R=paper,
12:u:Pre-2 X=Wo,
15:u:Tok-1 X=Paper,
15:u:tok-1 X=paper,
19:u:Tmn-2 R=weak/page,
11:u:tok-1 X=i,
12:u:Pre-2 R=Be,
12:u:Pre-2 R=Ge,
12:u:Pre-2 X=Ge,
11:u:tok-1RR=a,
14:u:Lst-2 X=Ll/h,
11:u:Suf-1 X=h,
12:u:Suf-2 X=ch,
16:u:Tmn-3 X=none/h,
11:u:tok-1 R=a,
14:u:Lst-2 L=Ll/h,
11:u:Pre-2 R=a,
12:u:Suf-2 L=ch,
11:u:Tok-1 X=a,
14:u:Lst-2 X=Ll/a,
11:u:Pre-2 X=a,
11:u:Suf-1 X=a,
11:u:Suf-2 X=a,
16:u:Tmn-3 X=none/a,
11:u:tok-1 L=a,
14:u:Lst-2 L=Ll/a,
11:u:Suf-2 L=a,
11:u:tok-1LL=a,
14:u:Fst-2 R=Lu/O,
14:u:tok-1RR=yale,
14:u:Fst-2 X=Lu/O,
11:u:Pre-1 X=O,
12:u:Pre-2 X=Or,
14:u:Fst-2 R=Lu/Y,
14:u:Fst-2 X=Lu/Y,
11:u:Pre-1 X=Y,
12:u:Suf-2 X=m,,
12:u:Suf-2 L=m,,
12:u:Suf-2 X=et,
12:u:Suf-2 L=et,
12:u:Pre-2 R=So,
12:u:Pre-2 X=So,
18:u:tok-1 X=critical,
18:u:tok-1 L=critical,
12:u:Pre-2 X=As,
18:u:tok-1LL=critical,
17:u:tok-1RR=(2007).,
12:u:Pre-2 R=27,
14:u:Lst-2 X=Ll/i,
11:u:Suf-1 X=i,
16:u:Tmn-3 X=none/i,
14:u:Fst-2 R=Ll/v,
14:u:Lst-2 L=Ll/i,
12:u:Pre-2 X=Li,
12:u:Suf-2 L=ki,
20:u:tok-1LL=rohozinski,
13:u:tok-1 L=vs.,
12:u:Suf-2 X=l:,
13:u:tok-1LL=vs.,
16:u:tok-1 R=future,
20:u:tok-2 R=the/future,
20:u:tok-2 L=the/future,
19:u:tok-2 R=future/of,
12:u:Suf-2 X=re,
16:u:tok-1 L=future,
19:u:tok-2 L=future/of,
12:u:Suf-2 L=re,
16:u:tok-1LL=future,
19:u:tok-1RR=democracy,
29:u:tok-2 L=cyberspace./journal,
19:u:tok-1 R=democracy,
15:u:tok-1RR=21(4),
22:u:tok-2 R=of/democracy,
19:u:Tok-1 X=Democracy,
19:u:tok-1 X=democracy,
15:u:tok-1 R=21(4),
15:u:tok-1RR=43-57,
22:u:tok-2 L=of/democracy,
25:u:tok-2 R=democracy/21(4),
12:u:Pre-2 R=21,
12:u:Suf-2 X=cy,
12:u:Suf-2 L=cy,
17:u:tok-1RR=privacy,
12:u:Pre-2 R=Of,
12:u:Pre-2 X=Of,
19:u:tok-1RR=security.,
12:u:Suf-2 X=om,
19:u:tok-1 R=security.,
12:u:Suf-2 L=om,
19:u:Tok-1 X=Security.,
17:u:tok-1LL=(2019).,
21:u:Tmn-2 L=volume/none,
16:u:tok-1RR=policy,
12:u:Pre-2 R=Fo,
21:u:Tmn-2 L=in/moderate,
16:u:tok-1 R=policy,
24:u:tok-2 R=foreign/policy,
12:u:Pre-2 X=Fo,
12:u:Suf-2 X=gn,
16:u:Tok-1 X=Policy,
12:u:Suf-2 L=gn,
17:u:tok-1LL=foreign,
16:u:tok-1 L=policy,
16:u:tok-1LL=policy,
17:u:tok-1RR=council,
17:u:tok-1 R=council,
17:u:Tok-1 X=Council,
17:u:tok-1 X=council,
19:u:tok-1 L=internet.,
27:u:tok-2 L=internet./council,
20:u:tok-2 R=council/on,
12:u:Suf-2 X=il,
19:u:tok-1LL=internet.,
17:u:tok-1 L=council,
20:u:tok-1RR=relations.,
20:u:tok-2 L=council/on,
12:u:Suf-2 L=il,
17:u:tok-1LL=council,
20:u:tok-1 R=relations.,
28:u:tok-2 R=foreign/relations.,
20:u:Tok-1 X=Relations.,
28:u:tok-2 L=foreign/relations.,
28:u:tok-2 R=relations./(2022).,
14:u:Tok-1 X=Pope,
14:u:tok-1 X=pope,
20:u:tok-1 R=structural,
16:u:tok-1RR=causes,
17:u:tok-2 L=e./pope,
25:u:tok-2 R=pope/structural,
12:u:Suf-2 X=pe,
12:u:Pre-2 R=Ca,
12:u:Pre-2 R=Wh,
12:u:Pre-2 X=Wh,
12:u:Suf-2 L=s:,
19:u:tok-1 R=quarterly,
14:u:Fst-2 R=Lu/Q,
12:u:Pre-2 R=Qu,
12:u:Pre-2 R=11,
17:u:tok-1 X=gartzke,
12:u:Pre-2 X=Ga,
17:u:Tok-1 X=Lindsay,
17:u:tok-1 X=lindsay,
17:u:tok-1 R=weaving,
17:u:tok-1RR=tangled,
20:u:tok-2 L=r./lindsay,
25:u:tok-2 R=lindsay/weaving,
12:u:Pre-2 R=Ta,
12:u:Pre-2 X=Ta,
18:u:tok-1LL=defense,,
17:u:tok-1RR=(2015).,
12:u:Pre-2 X=24,
17:u:tok-1 R=(2015).,
14:u:tok-1 X=2015,
19:u:Tok-1 X=Political,
15:u:Tok-1 X=Smith,
15:u:tok-1 X=smith,
15:u:tok-1 R=great,
18:u:tok-2 L=w./smith,
21:u:tok-2 R=smith/great,
12:u:Pre-2 R=Gr,
12:u:Suf-2 X=th,
12:u:Suf-2 L=th,
12:u:Suf-2 X=at,
12:u:Suf-2 L=at,
12:u:Suf-2 X=n:,
12:u:Pre-2 R=Wi,
12:u:Pre-2 X=Wi,
21:u:tok-1RR=information,
16:u:tok-2 R=in/the,
12:u:Pre-2 R=En,
21:u:tok-1 L=information,
12:u:Pre-2 X=En,
11:u:tok-1RR=&,
11:u:tok-1 R=&,
11:u:Fst-1 R=P,
13:u:Fst-2 R=P/&,
11:u:Pre-2 R=&,
13:u:Pct-1 R=amp,
11:u:Tok-1 X=&,
15:u:tok-1 X=BLANK,
11:*:Fst-1 X=P,
13:u:Fst-2 X=P/&,
13:u:Lst-2 X=P/&,
11:u:Pre-1 X=&,
11:u:Pre-2 X=&,
11:u:Suf-1 X=&,
11:u:Suf-2 X=&,
19:u:Key-2 X=and/other,
13:u:Pct-1 X=amp,
16:u:Tmn-3 X=none/&,
11:u:tok-1 L=&,
13:u:Lst-2 L=P/&,
11:u:Suf-2 L=&,
13:u:Pct-1 L=amp,
14:u:Fst-2 X=Lu/Z,
11:u:Pre-1 X=Z,
12:u:Pre-2 R=No,
12:u:Pre-2 X=No,
12:u:Pre-2 R=Em,
12:u:Pre-2 X=Em,
14:u:tok-1LL=norm,
12:u:Pre-2 R=US,
14:u:Cap-1 R=caps,
22:u:Cap-2 R=initial/caps,
19:u:Tmn-4 R=none/caps,
12:u:tok-1 X=us,
12:u:Pre-2 X=US,
14:u:Cap-1 X=caps,
22:u:Cap-2 L=initial/caps,
22:u:Cap-2 R=caps/initial,
19:u:Cap-3 L=none/caps,
19:u:Key-2 X=none/caps,
14:u:Cap-1 L=caps,
22:u:Cap-2 L=caps/initial,
16:u:Tok-1 X=Russia,
16:u:tok-1 X=russia,
12:u:Suf-2 X=ia,
12:u:Suf-2 L=ia,
12:u:Pre-2 R=Go,
20:u:tok-1 X=governance,
12:u:Pre-2 X=Go,
20:u:tok-1LL=governance,
22:u:tok-2 R=and/security,
22:u:tok-2 L=and/security,
12:u:Pre-2 R=19,
12:u:Pre-2 X=19,
13:u:Lst-2 X=N/0,
11:u:Suf-1 X=0,
16:u:Tmn-3 X=none/0,
12:u:Pre-2 X=Ho,
12:u:Pre-2 R=Br,
12:u:Pre-2 R=Ar,
12:u:Pre-2 X=Ar,
20:u:Cap-2 R=lower/caps,
20:u:Cap-2 L=lower/caps,
12:u:Pre-2 R=10,
12:u:Pre-2 X=10,
13:u:Lst-2 X=N/9,
11:u:Suf-1 X=9,
16:u:Tmn-3 X=none/9,
12:u:Pre-2 X=Hu,
12:u:Suf-2 X=g,,
12:u:Suf-2 L=g,,
19:u:tok-1RR=diplomacy,
20:u:Cap-2 R=other/caps,
21:u:Tmn-4 R=strong/caps,
12:u:Lst-1 X=Lu,
14:u:Lst-2 X=Lu/C,
11:u:Suf-1 X=C,
20:u:Cap-2 L=other/caps,
21:u:Cap-3 L=strong/caps,
16:u:Tmn-3 X=none/C,
12:*:Lst-1 L=Lu,
14:u:Lst-2 L=Lu/C,
12:u:Pre-2 R=Ve,
14:u:tok-1 R=with,
14:u:tok-1 X=with,
14:u:tok-1 L=with,
12:u:Suf-2 X=a.,
14:u:tok-1LL=with,
12:u:Suf-2 L=a.,
15:u:tok-1 X=media,
12:u:Suf-2 L=ls,
14:u:Lst-2 X=Ll/p,
11:u:Suf-1 X=p,
16:u:Tmn-3 X=none/p,
14:u:Lst-2 L=Ll/p,
20:u:tok-1LL=university,
12:u:Suf-2 X=de,
12:u:Suf-2 L=de,
12:u:Pre-2 R=Me,
12:u:Pre-2 X=Me,
12:u:tok-1RR=to,
12:u:tok-1 R=to,
12:u:Pre-2 R=to,
12:u:Tok-1 X=to,
12:u:tok-1 X=to,
16:u:tok-1 R=theory,
14:u:Lst-2 X=Ll/o,
12:u:Pre-2 X=to,
11:u:Suf-1 X=o,
12:u:Suf-2 X=to,
16:u:Tmn-3 X=none/o,
12:u:tok-1 L=to,
14:u:Lst-2 L=Ll/o,
12:u:Suf-2 L=to,
12:u:tok-1LL=to,
12:u:tok-1LL=o.,
13:u:Tok-1 X=Nye,
13:u:tok-1 X=nye,
16:u:tok-2 L=s./nye,
19:u:tok-2 R=nye/power,
12:u:Pre-2 X=Ny,
12:u:Suf-2 X=ye,
12:u:Suf-2 L=ye,
13:u:Lst-2 L=N/5,
12:u:Suf-2 X=i,,
12:u:Suf-2 L=i,,
15:u:tok-1 X=trust,
14:u:tok-1RR=from,
20:u:tok-1RR=cyberspace,
14:u:tok-1 X=from,
20:u:tok-1 R=cyberspace,
12:u:Suf-2 L=T.,
20:u:Tok-1 X=Cyberspace,
14:u:tok-1 L=from,
14:u:tok-1LL=from,
20:u:tok-1 L=cyberspace,
20:u:tok-1LL=cyberspace,
12:u:Suf-2 X=m.,
12:u:Pre-2 R=Na,
18:u:Tok-1 X=National,
28:u:tok-2 R=national/security.,
12:u:Pre-2 X=Na,
16:u:tok-1 L=press.,
16:u:tok-1LL=press.,
12:u:Suf-2 X=ey,
19:u:tok-1RR=available,
19:u:tok-1 X=available,
14:u:Fst-2 R=Ll/r,
12:u:Pre-2 R=re,
19:u:tok-1 L=available,
14:u:Fst-2 X=Ll/r,
11:u:Pre-1 X=r,
12:u:Pre-2 X=re,
12:u:Pre-2 R=ac,
16:u:tok-1 L=threat,
12:u:Pre-2 X=ac,
16:u:tok-1LL=threat,
16:u:Num-1 R=double,
11:u:tok-1LL=&,
17:u:tok-1RR=(2018).,
16:*:Num-1 X=double,
21:u:Num-2 R=double/none,
16:*:Num-1 L=double,
17:u:Tok-1 X=Krastev,
17:u:tok-1 X=krastev,
13:u:tok-1LL=a.,,
14:u:tok-1RR=mark,
20:u:tok-2 L=i./krastev,
21:u:tok-2 R=krastev/and,
14:u:Lst-2 X=Ll/v,
11:u:Suf-1 X=v,
12:u:Suf-2 X=ev,
16:u:Tmn-3 X=none/v,
17:u:tok-1 L=krastev,
14:u:tok-1 R=mark,
16:u:tok-1RR=living,
21:u:tok-2 L=krastev/and,
18:u:tok-2 R=and/mark,
12:u:Suf-2 L=ev,
14:u:Tok-1 X=Mark,
14:u:tok-1 X=mark,
17:u:tok-1LL=krastev,
16:u:tok-1 R=living,
18:u:tok-2 L=and/mark,
21:u:tok-2 R=mark/living,
14:u:Lst-2 X=Ll/k,
11:u:Suf-1 X=k,
12:u:Suf-2 X=rk,
16:u:Tmn-3 X=none/k,
14:u:Lst-2 L=Ll/k,
12:u:Suf-2 L=rk,
14:u:Fst-2 R=Ll/l,
12:u:Pre-2 R=la,
14:u:Fst-2 X=Ll/l,
11:u:Pre-1 X=l,
12:u:Pre-2 X=la,
15:u:tok-1 X=world,
14:u:Tok-1 X=What,
14:u:tok-1 X=what,
18:u:Tok-1 X=European,
18:u:tok-1 X=european,
12:u:Pre-2 X=Eu,
14:u:tok-1LL=what,
18:u:tok-1 L=european,
18:u:tok-1LL=european,
12:u:Pre-2 R=fr,
14:u:Tok-1 X=from,
16:u:tok-1RR=public,
14:u:Fst-2 R=Ll/g,
12:u:Pre-2 X=fr,
12:u:Pre-2 R=gl,
16:u:Tok-1 X=global,
16:u:tok-1 R=public,
18:u:tok-1RR=opinion,,
12:u:Pre-2 X=gl,
16:u:tok-1 X=public,
16:u:tok-1 L=public,
19:u:Tmn-4 R=weak/caps,
16:u:tok-1LL=public,
20:u:Cap-2 R=caps/other,
19:u:Cap-3 L=weak/caps,
20:u:Cap-2 L=caps/other,
12:u:Suf-2 X=st,
16:u:tok-1RR=annual,
12:u:Suf-2 L=st,
16:u:tok-1 R=annual,
16:u:tok-1LL=annual,
12:u:Pre-2 R=Sc,
16:u:Num-1 R=single,
16:*:Num-1 X=single,
21:u:Num-2 R=single/none,
16:*:Num-1 L=single,
17:u:Tok-1 X=Gartzke,
20:u:tok-2 L=e./gartzke,
26:u:tok-2 R=gartzke/coercion,
12:u:Suf-2 X=ke,
12:u:Suf-2 X=d.,
24:u:Key-3 x=journal/strong,
12:u:Suf-2 L=d.,
12:u:Pre-2 R=Hu,
16:u:tok-1RR=oxford,
12:u:tok-1RR=by,
12:u:tok-1 R=by,
12:u:Pre-2 R=by,
12:u:Tok-1 X=by,
12:u:tok-1 X=by,
14:u:Fst-2 R=Ll/d,
12:u:Pre-2 X=by,
12:u:Pre-2 R=de,
12:u:Suf-2 X=by,
12:u:tok-1 L=by,
14:u:Fst-2 X=Ll/d,
11:u:Pre-1 X=d,
12:u:Pre-2 X=de,
12:u:Suf-2 L=by,
24:u:Tmn-4 R=moderate/lower,
12:u:tok-1LL=by,
24:u:Cap-3 L=moderate/lower,
12:u:Pre-2 R=Op,
20:u:tok-1 X=operations,
12:u:Pre-2 X=Op,
12:u:Pre-2 X=Si,
12:u:Pre-2 R=Ho,
12:u:Pre-2 R=Is,
13:u:Fst-2 R=N/5,
13:u:Fst-2 X=N/5,
11:u:Pre-1 X=5,
12:u:Pre-2 R=20,
12:u:Pre-2 X=20,
18:u:Num-2 R=all/none,
13:u:Pos-2 R=1/3,
13:u:Pos-2 L=1/3,
19:u:tok-1RR=cambridge,
17:u:tok-1 L=(2018).,
12:u:Suf-2 X=ge,
17:u:tok-1LL=(2018).,
12:u:Suf-2 L=ge,
12:u:Pre-2 X=Mu,
12:u:Suf-2 X=ll,
12:u:Suf-2 L=ll,
20:u:tok-1 L=commercial,
17:u:tok-1 L=control,
12:u:Suf-2 L=y?,
12:u:Suf-2 X=ow,
12:u:Pre-2 R=Bu,
16:u:tok-1 L=order.,
16:u:tok-1LL=order.,
12:u:tok-1 R=p.,
12:u:Tok-1 X=P.,
11:u:tok-1 X=p,
12:u:Pre-2 X=P.,
12:u:Suf-2 X=P.,
12:u:tok-1 L=p.,
12:u:Suf-2 L=P.,
12:u:tok-1LL=p.,
14:u:tok-1RR=law.,
14:u:tok-1 R=law.,
12:u:Pre-2 R=La,
14:u:Tok-1 X=Law.,
13:u:tok-1 X=law,
12:u:Pre-2 X=La,
12:u:Suf-2 X=w.,
14:u:tok-1RR=law,,
12:u:Pre-2 R=On,
16:u:tok-1 X=online,
14:u:tok-1 R=law,,
12:u:Pre-2 X=On,
14:u:Tok-1 X=Law,,
12:u:Suf-2 X=w,,
14:u:tok-1 L=law,,
12:u:tok-1 R=3.,
12:u:Pre-2 R=3.,
12:u:Suf-2 L=w,,
17:u:Num-1 R=numeric,
14:u:tok-1LL=law,,
12:u:Suf-2 X=3.,
17:*:Num-1 X=numeric,
22:u:Num-2 R=numeric/none,
24:u:Num-2 R=numeric/strong,
17:u:tok-1LL=article,
12:u:Suf-2 L=3.,
17:*:Num-1 L=numeric,
12:u:Pre-2 R=di,
12:u:Pre-2 X=di,
12:u:tok-1RR=us,
12:u:tok-1 R=us,
14:u:Lst-2 X=Lu/S,
11:u:Suf-1 X=S,
20:u:Cap-2 R=caps/lower,
16:u:Tmn-3 X=none/S,
12:u:tok-1 L=us,
14:u:Lst-2 L=Lu/S,
12:u:Suf-2 L=US,
20:u:Cap-2 L=caps/lower,
12:u:tok-1LL=us,
17:u:Num-1 R=ordinal,
20:u:Tmn-4 R=weak/other,
21:u:Cap-2 R=other/lower,
20:u:Cap-3 L=weak/other,
17:*:Num-1 X=ordinal,
22:u:Num-2 R=ordinal/none,
21:u:Cap-2 L=other/lower,
17:*:Num-1 L=ordinal,
14:u:tok-1RR=uses,
12:u:Pre-2 R=Us,
12:u:Pre-2 X=Us,
17:u:tok-1RR=(2021).,
17:u:tok-1 R=(2021).,
14:u:tok-1 X=2021,
17:u:tok-1 L=(2021).,
12:u:Suf-2 X=gs,
12:u:Pre-2 R=14,
24:u:Tmn-4 R=moderate/other,
12:u:Suf-2 X=6.,
24:u:Cap-3 L=moderate/other,
12:u:Suf-2 L=6.,
19:u:Tmn-2 R=weak/_x+1,
19:u:Tmn-4 R=weak/_x+1,
11:u:Pre-2 R=A,
11:u:Tok-1 X=A,
14:u:Lst-2 X=Lu/A,
11:u:Pre-2 X=A,
11:u:Suf-1 X=A,
11:u:Suf-2 X=A,
16:u:Tmn-3 X=none/A,
14:u:Lst-2 L=Lu/A,
11:u:Suf-2 L=A,
14:u:tok-1 X=time,
16:u:tok-2 R=on/the,
16:u:tok-2 L=on/the,
12:u:Pre-2 R=tr,
12:u:Pre-2 X=tr,
13:u:Fst-2 R=N/6,
13:u:Fst-2 X=N/6,
11:u:Pre-1 X=6,
17:u:tok-1RR=company,
17:u:tok-1 R=company,
12:u:Suf-2 X=ny,
12:u:Suf-2 L=ny,
12:u:Pre-2 X=AP,
15:*:Num-1 X=idnum,
17:u:tok-1 X=network,
12:u:Suf-2 X=k.,
12:u:Suf-2 L=k.,
12:u:Pre-2 R=Ce,
12:u:Pre-2 X=Ce,
16:u:tok-1RR=center,
16:u:tok-1 R=center,
20:u:tok-2 R=center/for,
16:u:tok-1 L=center,
20:u:tok-2 L=center/for,
22:u:tok-2 R=for/security,
16:u:tok-1LL=center,
22:u:tok-2 L=for/security,
12:u:Pre-2 X=Tu,
12:u:Suf-2 X=ms,
12:u:Pre-2 R=af,
12:u:Pre-2 X=af,
12:u:Pre-2 R=ap,
12:u:Pre-2 X=ap,
14:u:Lst-2 X=Lu/E,
12:u:Pre-2 X=SA,
11:u:Suf-1 X=E,
16:u:Tmn-3 X=none/E,
14:u:Lst-2 L=Lu/E,
26:u:Tok-1 X=Calculativeness,,
25:u:tok-1 X=calculativeness,
16:u:tok-1 R=trust,,
29:u:tok-2 L=e./calculativeness,,
33:u:tok-2 R=calculativeness,/trust,,
12:u:Suf-2 X=n.,
12:u:Suf-2 L=n.,
13:u:tok-1RR=law,
13:u:tok-1 R=law,
13:u:Tok-1 X=Law,
17:u:tok-2 R=law/and,
12:u:Suf-2 X=aw,
13:u:tok-1 L=law,
17:u:tok-2 L=law/and,
12:u:Suf-2 L=aw,
12:u:Pre-2 R=36,
12:u:Suf-2 X=cs,
12:u:Suf-2 L=cs,
12:u:Suf-2 X=1,,
14:u:Tok-1 X=Part,
14:u:tok-1 X=part,
12:u:Suf-2 L=1,,
12:u:Suf-2 X=rt,
12:u:Suf-2 L=rt,
14:u:tok-1LL=part,
13:u:Lst-2 X=N/6,
11:u:Suf-1 X=6,
16:u:Tmn-3 X=none/6,
12:u:Suf-2 X=ue,
12:u:Suf-2 L=ue,
14:u:Lst-2 L=Ll/u,
14:u:Fst-2 X=Ps/[,
11:u:Pre-1 X=[,
16:u:Tok-1 X=future,
12:u:Suf-2 X=gy,
12:u:Suf-2 L=gy,
12:u:Suf-2 X=o.,
12:u:Pre-2 X=Ye,
12:u:Suf-2 X=ds,
12:u:Pre-2 X=Du,
27:u:tok-2 L=international/law,
16:*:Num-1 X=triple,
21:u:Num-2 R=triple/none,
12:u:Pre-2 X=It,
19:u:Tmn-2 L=_x-1/none,
13:u:Pos-2 R=0/0,
13:u:Pos-2 L=0/0,
12:u:Pre-2 X=Mo,
13:u:tok-1RR=in:,
19:u:Tmn-2 R=strong/in,
13:u:Tok-1 X=In:,
20:u:Key-2 X=in/initial,
19:u:Key-3 L=strong/in,
21:u:Key-3 x=in/moderate,
15:u:tok-1RR=2018.,
15:u:tok-1 R=2018.,
15:u:tok-1RR=2017.,
15:u:tok-1 R=2017.,
19:u:Num-2 R=year/none,
12:u:Suf-2 L=8.,
12:u:Suf-2 X=7.,
15:u:tok-1LL=2018.,
15:u:tok-1 L=press,
12:u:Suf-2 L=ss,
15:u:tok-1LL=press,
14:u:Pos-2 R=9/10,
14:u:Lst-2 X=Lu/N,
12:u:Pre-2 X=PN,
11:u:Suf-1 X=N,
12:u:Pos-1 X=10,
14:u:Pos-2 L=9/10,
17:u:Pos-2 R=10/last,
21:u:Tmn-2 R=none/editor,
16:u:Tmn-3 X=none/N,
13:u:tok-1 X=eds,
14:u:Lst-2 L=Lu/N,
20:u:Cap-2 R=lower/_x+1,
21:u:Num-2 R=none/parens,
16:u:Key-1 X=editor,
22:u:Key-2 X=editor/lower,
21:u:Key-3 L=none/editor,
23:u:Key-3 x=editor/strong,
17:u:Pos-2 L=10/last,
12:u:Pre-2 R=Sh,
12:u:Pre-2 X=Sh,
13:u:Lst-2 L=P/',
21:u:Key-1 R=proceedings,
26:u:Tmn-2 R=none/proceedings,
21:u:Key-1 X=proceedings,
29:u:Key-2 X=proceedings/initial,
26:u:Key-3 L=none/proceedings,
26:u:Key-3 x=proceedings/none,
21:u:Key-1 L=proceedings,
26:u:Tmn-2 L=proceedings/none,
15:u:tok-1 L=paper,
15:u:tok-1LL=paper,
14:u:Fst-2 R=Ll/u,
12:u:Pre-2 R=un,
14:u:Fst-2 X=Ll/u,
11:u:Pre-1 X=u,
12:u:Pre-2 X=un,
14:u:tok-1RR=york,
14:u:tok-1 R=york,
18:u:tok-2 R=new/york,
12:u:Pre-2 R=Yo,
14:u:Tok-1 X=York,
14:u:tok-1 X=york,
15:u:tok-1RR=2013.,
18:u:tok-2 L=new/york,
12:u:Pre-2 X=Yo,
12:u:Pre-2 R=Ti,
14:u:tok-1 L=york,
12:u:Pre-2 X=Ti,
14:u:tok-1LL=york,
19:u:tok-1RR=september,
12:u:tok-1 X=20,
15:u:tok-1 L=2013.,
19:u:tok-1 R=september,
12:u:Suf-2 X=20,
14:u:Key-1 R=date,
19:u:Tmn-2 R=none/date,
19:u:Tok-1 X=September,
19:u:tok-1 X=september,
14:u:Key-1 X=date,
22:u:Key-2 X=date/initial,
19:u:Key-3 L=none/date,
19:u:Key-3 x=date/none,
19:u:tok-1 L=september,
14:u:Key-1 L=date,
21:u:Tmn-2 L=date/strong,
14:u:Fst-2 R=Ll/h,
14:u:Lst-2 X=Lu/Y,
12:u:Pre-2 R=ht,
11:u:Suf-1 X=Y,
16:u:Tmn-3 X=none/Y,
14:u:Fst-2 X=Ll/h,
11:u:Pre-1 X=h,
12:u:Pre-2 X=ht,
12:u:Suf-2 L=E,,
12:u:tok-1 X=de,
14:u:tok-1RR=u.s.,
14:u:tok-1 R=u.s.,
12:u:Pre-2 R=U.,
14:u:Tok-1 X=U.S.,
12:u:Pre-2 X=U.,
19:u:Cap-2 R=caps/caps,
14:u:tok-1 L=u.s.,
19:u:Cap-2 L=caps/caps,
14:u:tok-1LL=u.s.,
17:u:tok-1 X=hackers,
12:u:Suf-2 X=p.,
12:u:Suf-2 L=p.,
12:u:tok-1RR=13,
12:u:tok-1 R=13,
18:u:tok-1RR=december,
12:u:Pre-2 R=13,
18:u:tok-1 R=december,
15:u:tok-1RR=2016.,
18:u:Tok-1 X=December,
18:u:tok-1 X=december,
15:u:tok-1 R=2016.,
18:u:tok-1 L=december,
14:u:tok-1RR=july,
11:u:tok-1 X=7,
15:u:tok-1 L=2016.,
12:u:Pre-2 R=Ju,
31:u:Num-2 R=numeric/opening-paren,
14:u:Tok-1 X=July,
14:u:tok-1 X=july,
15:u:tok-1LL=2016.,
15:u:tok-1 R=2017,,
12:u:Pre-2 X=Ju,
12:u:Suf-2 X=7,,
19:u:Num-2 R=year/weak,
19:u:Tmn-2 L=date/weak,
19:u:Key-3 L=weak/date,
14:u:Tok-1 X=last,
14:u:tok-1 X=last,
20:u:tok-1 R=accessed).,
12:u:tok-1RR=14,
25:u:tok-2 R=last/accessed).,
18:u:Key-1 R=accessed,
20:u:Tok-1 X=accessed).,
18:u:tok-1 X=accessed,
14:u:tok-1LL=date,
14:u:tok-1 L=last,
12:u:tok-1 R=14,
14:u:tok-1RR=june,
25:u:tok-2 L=last/accessed).,
28:u:Num-2 R=none/closing-paren,
18:u:Key-1 X=accessed,
24:u:Key-2 X=accessed/lower,
23:u:Key-3 L=none/accessed,
25:u:Key-3 x=accessed/strong,
18:u:Key-1 L=accessed,
23:u:Tmn-2 L=accessed/none,
14:u:Tok-1 X=June,
14:u:tok-1 X=june,
14:u:tok-1 L=june,
14:u:tok-1LL=june,
20:u:Tok-1 X=Department,
20:u:tok-1 X=department,
23:u:tok-2 R=department/of,
20:u:tok-1 L=department,
23:u:tok-2 L=department/of,
20:u:tok-1LL=department,
28:u:tok-2 R=homeland/security,,
18:u:tok-1 L=homeland,
28:u:tok-2 L=homeland/security,,
19:u:tok-1 R=statement,
19:u:Tok-1 X=Statement,
19:u:tok-1 X=statement,
19:u:tok-1 L=statement,
19:u:tok-1LL=statement,
18:u:tok-1 L=election,
17:u:tok-1 R=october,
12:u:Pre-2 R=Oc,
17:u:Tok-1 X=October,
17:u:tok-1 X=october,
12:u:Pre-2 X=Oc,
12:u:Suf-2 X=nn,
17:u:Tok-1 X=Cavelty,
17:u:tok-1 X=cavelty,
14:u:tok-1 L=dunn,
22:u:tok-2 L=dunn/cavelty,
12:u:tok-1 L=p,,
12:u:Suf-2 L=P,,
12:u:tok-1 R=et,
12:u:Pre-2 R=et,
12:u:Tok-1 X=et,
12:u:tok-1 X=et,
13:u:tok-1 R=al.,
16:u:tok-2 R=et/al.,
12:u:Pre-2 X=et,
12:u:Pre-2 R=al,
13:u:Tok-1 X=al.,
12:u:tok-1 X=al,
12:u:tok-1 L=et,
16:u:tok-2 L=et/al.,
12:u:Pre-2 X=al,
12:u:Suf-2 X=l.,
12:u:tok-1LL=et,
12:u:Suf-2 L=l.,
18:u:tok-1 L=warfare.,
14:u:Lst-2 X=Lu/J,
11:u:Suf-1 X=J,
16:u:Tmn-3 X=none/J,
18:u:tok-1LL=warfare.,
12:u:Suf-2 L=it,
21:u:Num-2 R=volume/none,
12:u:Suf-2 L=0.,
12:u:Suf-2 X=am,
16:u:tok-1 X=london,
13:u:Lst-2 X=P//,
11:u:Suf-1 X=/,
16:u:Tmn-3 X=none//,
19:u:Cap-2 L=_x-1/caps,
19:u:Cap-3 L=_x-1/caps,
14:u:Lst-2 X=Lu/D,
11:u:Suf-1 X=D,
16:u:Tmn-3 X=none/D,
14:u:Lst-2 X=Lu/K,
11:u:Suf-1 X=K,
16:u:Tmn-3 X=none/K,
15:u:tok-1 X=about,
15:u:tok-1 L=about,
18:u:tok-1RR=analysis,
18:u:tok-1 R=analysis,
18:u:Tok-1 X=Analysis,
12:u:Pre-2 X=DA,
21:u:Cap-2 R=caps/single,
21:u:Cap-2 L=single/caps,
14:u:Lst-2 X=Lu/I,
11:u:Suf-1 X=I,
16:u:Tmn-3 X=none/I,
12:u:Fst-1 R=Pd,
14:u:Lst-2 L=Lu/I,
24:u:Key-2 X=volume/initial,
21:u:Key-3 x=volume/none,
16:u:tok-1 X=choice,
12:u:Suf-2 X=ks,
12:u:Suf-2 L=ks,
12:u:Pre-2 R=Ex,
12:u:Pre-2 X=Ex,
16:u:tok-1LL=beyond,
18:u:tok-1RR=research,
18:u:tok-1 R=research,
18:u:Tok-1 X=Research,
18:u:tok-1 L=research,
18:u:tok-1LL=research,
12:u:tok-1 X=26,
15:u:tok-1RR=2019.,
15:u:tok-1 R=2019.,
12:u:Suf-2 X=9.,
12:u:Pre-2 R=At,
12:u:Suf-2 L=U.,
21:u:tok-1 X=attribution,
12:u:Pre-2 X=At,
22:u:tok-1 L=attribution.,
22:u:tok-1LL=attribution.,
27:u:tok-2 R=national/security,
27:u:tok-2 L=national/security,
22:u:tok-2 R=security/law,
15:u:tok-1RR=2011.,
15:u:tok-1 R=2011.,
12:u:Suf-2 X=1.,
12:u:Pre-2 R=Vo,
12:u:Pre-2 X=Vo,
12:u:tok-1RR=17,
12:u:Pre-2 R=17,
12:u:tok-1 X=17,
15:u:tok-1RR=2021.,
15:u:tok-1 R=2021.,
15:u:Tok-1 X=2021.,
14:u:Lst-2 X=Lu/T,
11:u:Suf-1 X=T,
16:u:Tmn-3 X=none/T,
12:u:Pre-2 R=Bl,
21:u:Tok-1 X=Proceedings,
21:u:tok-1 X=proceedings,
24:u:tok-2 R=proceedings/of,
16:u:Tok-1 X=Public,
18:u:tok-2 L=of/cyber,
19:u:tok-1 X=incidents,
14:u:tok-1RR=role,
14:u:tok-1 R=role,
14:u:tok-1 X=role,
14:u:tok-1 L=role,
22:u:tok-1RR=contemporary,
22:u:tok-1 R=contemporary,
22:u:Tok-1 X=Contemporary,
22:u:tok-1 X=contemporary,
22:u:tok-1 L=contemporary,
12:u:Pre-2 R=Au,
12:u:Pre-2 X=Au,
17:u:tok-1RR=opinion,
16:u:tok-1 X=toward,
16:u:tok-1 L=toward,
16:u:tok-1LL=toward,
25:u:Tmn-4 R=moderate/single,
25:u:Cap-3 L=moderate/single,
12:u:Suf-2 L=16,
18:u:tok-1RR=politics,
12:u:Pre-2 R=Mi,
12:u:Pre-2 X=Mi,
16:u:tok-1 X=boston,
19:u:Cap-2 R=caps/_x+1,
12:u:Pre-2 X=JA,
12:u:Pre-2 R=Ir,
12:u:Pre-2 X=Ir,
12:u:Suf-2 L=q.,
12:u:Pre-2 R=Am,
12:u:Pre-2 X=Am,
15:u:tok-1RR=2009.,
15:u:tok-1 R=2009.,
16:u:tok-1LL=miguel,
17:u:tok-1 X=threats,
12:u:Suf-2 L=el,
17:u:tok-1 R=michael,
17:u:tok-1 X=michael,
17:u:tok-1LL=michael,
23:u:tok-1RR=cybersecurity,
23:u:tok-1 R=cybersecurity,
23:u:tok-1LL=cybersecurity,
20:u:Tok-1 X=Deterrence,
20:u:tok-1LL=deterrence,
12:u:Suf-2 X=2.,
12:u:Pre-2 X=NA,
19:u:tok-2 R=of/global,
19:u:tok-2 L=of/global,
11:u:tok-1 R=6,
11:u:Pre-2 R=6,
12:u:Suf-2 X=ar,
12:u:Suf-2 L=ar,
12:u:Pre-2 X=be,
21:u:tok-1 L=attribution,
21:u:tok-1LL=attribution,
12:u:Pre-2 R=Fe,
12:u:Pre-2 X=Fe,
17:u:tok-1LL=against,
15:u:tok-1RR=2015.,
15:u:tok-1 R=2015.,
13:u:tok-1 X=use,
13:u:tok-1 L=use,
19:u:tok-1 R=defending,
12:u:Pre-2 R=97,
12:u:Pre-2 X=97,
14:u:Lst-2 X=Lu/O,
11:u:Suf-1 X=O,
12:u:Suf-2 X=TO,
16:u:Tmn-3 X=none/O,
16:u:tok-1 X=thomas,
14:u:tok-1 L=rid,,
17:u:tok-1 X=attacks,
18:u:tok-1 L=attacks.,
18:u:tok-1LL=attacks.,
12:u:tok-1 X=12,
22:u:tok-1 X=intelligence,
12:u:Suf-2 L=1.,
22:u:tok-1RR=cyberattacks,
22:u:tok-1 X=cyberattacks,
12:u:Suf-2 L=2.,
21:u:Tmn-2 L=_x-1/strong,
14:u:tok-1RR=iran,
14:u:tok-1 L=iran,
12:u:Suf-2 X=ck,
15:u:tok-1 L=since,
21:u:Tmn-2 R=strong/date,
15:u:tok-1RR=2022.,
21:u:Key-3 L=strong/date,
12:u:tok-1 X=10,
15:u:tok-1 R=2022.,
16:u:Tok-1 X=Toward,
12:u:Pre-2 X=To,
23:u:tok-1 R=understanding,
23:u:Tok-1 X=Understanding,
23:u:tok-1 X=understanding,
23:u:tok-1 L=understanding,
24:u:Num-2 R=ordinal/strong,
12:u:Suf-2 X=b.,
20:u:tok-1 X=government,
20:u:tok-1LL=government,
18:u:tok-1RR=managing,
18:u:tok-1 R=managing,
18:u:Tok-1 X=Managing,
18:u:tok-1 X=managing,
18:u:tok-1 L=managing,
18:u:tok-1LL=managing,
15:u:tok-1 X=peace,
15:u:tok-1RR=march,
15:u:tok-1 X=march,
22:u:Num-2 R=numeric/weak,
12:u:Suf-2 L=J,,
16:u:tok-1 R=attack,
16:u:Tok-1 X=Attack,
16:u:tok-1 L=attack,
16:u:tok-1LL=attack,
12:u:tok-1 R=de,
12:u:Suf-2 X=ee,
12:u:Suf-2 L=ee,
24:u:tok-2 L=attribution/in,
18:u:tok-1 R=criminal,
18:u:tok-1 X=criminal,
18:u:tok-1 L=criminal,
18:u:tok-1LL=criminal,
15:u:tok-1 L=2019.,
12:u:Suf-2 L=9.,
16:u:tok-1 R=states,
16:u:Tok-1 X=States,
16:u:tok-1 X=states,
16:u:tok-1 L=states,
16:u:tok-1LL=states,
12:u:Pre-2 R=no,
24:u:tok-1RR=responsibility,
12:u:Pre-2 X=no,
24:u:tok-1 R=responsibility,
24:u:tok-1 X=responsibility,
24:u:tok-1 L=responsibility,
16:u:tok-1 X=august,
15:u:tok-1 L=2021.,
13:u:Lst-2 X=P/",
11:u:Suf-1 X=",
20:u:Tmn-3 X=moderate/",
13:u:Lst-2 L=P/",
12:u:Pre-2 X=CC,
18:u:Tmn-3 X=strong/",
13:u:tok-1RR=may,
18:u:Tok-1 X=Reuters.,
17:u:tok-1 X=reuters,
13:u:tok-1 R=may,
13:u:Tok-1 X=May,
13:u:tok-1 X=may,
15:u:tok-1RR=2024.,
15:u:tok-1 R=2024.,
12:u:Suf-2 L=4.,
17:u:Tok-1 X=Iranian,
17:u:tok-1 X=iranian,
12:u:Lst-1 X=Pd,
14:u:Lst-2 X=Pd/-,
11:u:Suf-1 X=-,
16:u:Tmn-3 X=weak/-,
12:u:Pre-2 R=Ap,
12:u:Pre-2 X=Ap,
12:u:Pre-2 R=EU,
12:u:tok-1 X=eu,
13:u:tok-1 L=eu.,
15:u:tok-1RR=2020.,
12:u:Pre-2 R=23,
12:u:Suf-2 L=o.,
15:u:tok-1 L=2014.,
16:u:tok-1 L=norms.,
16:u:tok-1LL=norms.,
12:u:Tok-1 X=In,
12:u:Suf-2 X=In,
12:u:Suf-2 L=In,
13:u:tok-1 L=war,
13:u:tok-1LL=war,
15:u:tok-1 R=haven,
19:u:tok-2 R=new/haven,
15:u:Tok-1 X=Haven,
15:u:tok-1 X=haven,
19:u:tok-2 L=new/haven,
12:u:Suf-2 X=en,
15:u:tok-1RR=2023.,
18:u:tok-1 X=building,
15:u:tok-1 R=2023.,
12:u:tok-1 X=24,
15:u:tok-1LL=2023.,
16:u:tok-1RR=edited,
16:u:tok-1 R=edited,
12:u:Pre-2 R=ed,
16:u:Tok-1 X=edited,
16:u:tok-1 X=edited,
19:u:tok-2 R=edited/by,
12:u:Pre-2 X=ed,
21:u:Key-3 x=editor/none,
16:u:tok-1 L=edited,
19:u:tok-2 L=edited/by,
16:u:Key-1 L=editor,
21:u:Tmn-2 L=editor/none,
16:u:tok-1LL=edited,
13:u:tok-1 L=max,
19:u:tok-1 X=framework,
20:u:tok-2 L=law/review,
14:u:tok-1RR=nato,
14:u:Tok-1 X=NATO,
14:u:tok-1 X=nato,
15:u:Key-1 R=roman,
15:u:Key-1 X=roman,
20:u:Key-2 X=roman/caps,
15:u:Key-1 L=roman,
20:u:Tmn-2 L=roman/none,
22:u:tok-1 R=intelligence,
22:u:Tok-1 X=Intelligence,
22:u:tok-1 L=intelligence,
22:u:tok-1LL=intelligence,
12:u:tok-1RR=at,
12:u:tok-1 R=at,
12:u:Pre-2 R=at,
12:u:Tok-1 X=at,
12:u:tok-1 X=at,
17:u:tok-1 L=experts,
12:u:Pre-2 X=at,
12:u:tok-1 L=at,
14:u:Tok-1 X=2023,
12:u:tok-1LL=at,
15:u:Tok-1 X=World,
17:u:tok-1RR=january,
12:u:Pre-2 R=Ja,
17:u:Tok-1 X=January,
17:u:tok-1 X=january,
12:u:Pre-2 X=Ja,
17:u:tok-1LL=january,
15:u:tok-1 R=white,
19:u:tok-1 X=microsoft,
12:u:Pre-2 R=Ba,
23:u:tok-2 L=norms./center,
22:u:tok-2 R=new/american,
22:u:tok-2 L=new/american,
28:u:tok-2 R=american/security.,
62:u:tok-1RR=https://citizenlab.ca/cybernorms2011/cultivating.pdf,
28:u:tok-2 L=american/security.,
25:u:tok-2 R=security./2011.,
16:u:tok-1 X=office,
12:u:tok-1 X=uk,
12:u:tok-1 R=7.,
22:u:tok-2 R=september/7.,
12:u:Pre-2 R=7.,
12:u:Tok-1 X=7.,
22:u:tok-2 L=september/7.,
12:u:Pre-2 X=7.,
12:u:Pre-2 R=Sp,
12:u:Pre-2 X=Sp,
16:u:tok-2 R=at/the,
16:u:Tok-1 X=Prague,
16:u:tok-1 X=prague,
20:u:tok-1RR=conference,
24:u:tok-2 R=cyber/security,
20:u:tok-1 R=conference,
20:u:Tok-1 X=Conference,
20:u:tok-1 L=conference,
18:u:tok-1RR=november,
18:u:Tok-1 X=November,
18:u:tok-1 X=november,
17:u:tok-1LL=prague,,
18:u:tok-1 L=czechia.,
27:u:tok-2 L=czechia./november,
21:u:tok-2 R=november/3.,
18:u:tok-1LL=november,
15:u:tok-1 R=wired,
15:u:Tok-1 X=Wired,
15:u:tok-1 X=wired,
16:u:tok-1 R=august,
16:u:tok-1 L=august,
12:u:Pre-2 R=Ra,
12:u:Pre-2 X=Ra,
13:u:Tok-1 X=CSS,
13:u:tok-1 X=css,
12:u:Pre-2 X=CS,
12:u:Suf-2 X=SS,
13:u:tok-1 L=css,
12:u:Suf-2 L=SS,
13:u:tok-1LL=css,
23:u:tok-1 L=cyberattacks.,
23:u:tok-1LL=cyberattacks.,
12:u:tok-1RR=un,
12:u:tok-1LL=un,
17:u:tok-1 R=private,
25:u:tok-2 L=us/intelligence,
18:u:tok-1 L=bulletin,
18:u:tok-1LL=bulletin,
12:u:tok-1 L=it,
12:u:tok-1LL=it,
15:u:tok-1LL=2019.,
21:u:tok-1LL=washington,,
12:u:Suf-2 L=5.,
17:u:tok-1 R=policy.,
17:u:Tok-1 X=Policy.,
12:u:Suf-2 L=h.,
16:u:tok-1LL=united,
12:u:Suf-2 X=ft,
12:u:Suf-2 L=ft,
20:u:Cap-2 L=_x-1/other,
20:u:Cap-3 L=_x-1/other,
20:u:tok-1 L=stability?,
16:u:tok-1 R=brief,,
12:u:tok-1RR=eu,
27:u:tok-2 L=stability?/policy,
23:u:tok-2 R=policy/brief,,
16:u:Tok-1 X=Brief,,
20:u:tok-1LL=stability?,
12:u:tok-1 R=eu,
23:u:tok-2 L=policy/brief,,
19:u:tok-2 R=brief,/eu,
12:u:Suf-2 X=f,,
16:u:tok-1 L=brief,,
17:u:tok-1RR=direct.,
19:u:tok-2 L=brief,/eu,
18:u:tok-2 R=eu/cyber,
12:u:Suf-2 L=f,,
16:u:tok-1LL=brief,,
12:u:tok-1 L=eu,
17:u:tok-1 R=direct.,
18:u:tok-2 L=eu/cyber,
23:u:tok-2 R=cyber/direct.,
14:u:Lst-2 L=Lu/U,
12:u:Suf-2 L=EU,
17:u:Tok-1 X=Direct.,
16:u:tok-1 X=direct,
12:u:tok-1LL=eu,
160:u:tok-1RR=https://www.universiteitleiden.nl/binaries/content/assets/governance-and-global-affairs/isga/accountability-in-cyberspace-patryk-pawlak-march-2024.pdf,
23:u:tok-2 L=cyber/direct.,
23:u:tok-2 R=direct./2024.,
23:u:tok-2 R=united/states,
23:u:tok-2 L=united/states,
15:u:Tok-1 X=Paris,
15:u:tok-1 X=paris,
14:u:tok-1 R=call,
20:u:tok-2 R=paris/call,
21:u:tok-2 L=security/in,
20:u:tok-1RR=department,
20:u:tok-1 R=department,
12:u:Pre-2 R=Vi,
12:u:Pre-2 X=Vi,
20:u:tok-1 L=ministers.,
30:u:tok-2 L=ministers./september,
20:u:tok-1LL=ministers.,
88:u:tok-1RR=https://www.kryeministria.al/en/newsroom/videomesazh-i-kryeministrit-edi-rama/,
18:u:tok-2 R=7./2022.,
17:u:tok-1RR=attacks,
17:u:tok-1 R=attacks,
23:u:tok-2 R=cyber/attacks,
17:u:Tok-1 X=Attacks,
23:u:tok-2 L=cyber/attacks,
17:u:tok-1 L=attacks,
17:u:Tok-1 X=Federal,
17:u:tok-1 X=federal,
17:u:tok-1LL=attacks,
17:u:tok-1 L=federal,
12:u:Suf-2 L=en,
17:u:tok-1RR=warfare,
24:u:tok-2 R=of/information,
17:u:tok-1 R=warfare,
24:u:tok-2 L=of/information,
20:u:tok-2 R=michael/s.,
20:u:tok-2 L=michael/s.,
20:u:Tok-1 X=Transcript,
20:u:tok-1 X=transcript,
17:u:tok-1RR=admiral,
23:u:tok-2 L=s./transcript,
23:u:tok-2 R=transcript/of,
12:u:Suf-2 X=pt,
20:u:tok-1 L=transcript,
17:u:tok-1 R=admiral,
17:u:tok-1RR=michael,
23:u:tok-2 L=transcript/of,
20:u:tok-2 R=of/admiral,
12:u:Suf-2 L=pt,
17:u:Tok-1 X=Admiral,
17:u:tok-1 X=admiral,
20:u:tok-1LL=transcript,
20:u:tok-2 L=of/admiral,
25:u:tok-2 R=admiral/michael,
17:u:Tok-1 X=Michael,
17:u:tok-1 L=admiral,
16:u:tok-1RR=rogers,
25:u:tok-2 L=admiral/michael,
17:u:tok-1LL=admiral,
16:u:tok-1 R=rogers,
17:u:tok-1RR=keynote,
19:u:tok-2 R=s./rogers,
12:u:Suf-2 L=C.,
14:u:tok-1 X=emma,
18:u:tok-1RR=council.,
18:u:tok-1 R=council.,
18:u:Tok-1 X=Council.,
12:u:Pre-2 X=LL,
14:u:Lst-2 X=Lu/P,
11:u:Suf-1 X=P,
16:u:Tmn-3 X=none/P,
14:u:Lst-2 L=Lu/P,
15:u:Tok-1 X=About,
19:u:tok-1 L=proposal.,
18:u:tok-1 R=america.,
23:u:tok-2 L=proposal./new,
22:u:tok-2 R=new/america.,
18:u:Tok-1 X=America.,
17:u:tok-1 X=america,
19:u:tok-1LL=proposal.,
136:u:tok-1RR=http://newamerica.org/cybersecurity-initiative/c2b/c2b-log/five-things-you-need-to-know-about-frances-new-cyber-norm-proposal/,
22:u:tok-2 L=new/america.,
24:u:tok-2 R=america./2018.,
12:u:Suf-2 X=ok,
18:u:tok-1 L=yearbook,
12:u:Suf-2 L=ok,
18:u:tok-1LL=yearbook,
15:u:tok-1RR=1999.,
12:u:Pre-2 R=12,
18:u:tok-1 L=conflict,
18:u:tok-1LL=conflict,
16:u:Fst-2 R=Pi/‘,
16:u:tok-1 X=hacked,
12:*:Fst-1 X=Pi,
16:u:Fst-2 X=Pi/‘,
13:u:Pre-1 X=‘,
16:u:tok-1RR=middle,
16:u:tok-1 R=middle,
14:u:tok-1RR=east,
16:u:Tok-1 X=Middle,
16:u:tok-1 X=middle,
12:u:Pre-2 R=Ea,
12:u:Pre-2 X=Ea,
18:u:tok-1 X=official,
13:u:tok-1 R=web,
18:u:tok-1RR=undated.,
14:u:Lst-2 X=Ll/b,
11:u:Suf-1 X=b,
12:u:Suf-2 X=eb,
16:u:Tmn-3 X=none/b,
18:u:tok-1 R=undated.,
14:u:Lst-2 L=Ll/b,
20:u:Key-2 X=page/lower,
18:u:Tok-1 X=undated.,
17:u:tok-1 X=undated,
12:u:Tok-1 X=As,
18:u:tok-1 L=undated.,
21:u:tok-2 L=undated./as,
15:u:tok-2 R=as/of,
12:u:Suf-2 X=As,
18:u:tok-1LL=undated.,
15:u:tok-2 L=as/of,
12:u:Suf-2 L=As,
12:u:Suf-2 X=6,,
19:u:tok-1 R=committee,
19:u:Tok-1 X=Committee,
19:u:tok-1 X=committee,
13:u:tok-1RR=15,,
18:u:tok-2 R=june/15,,
18:u:tok-2 L=june/15,,
12:u:Suf-2 X=5,,
14:u:tok-1RR=blog,
14:u:tok-1 R=blog,
14:u:tok-1 X=blog,
14:u:tok-1 R=post,
13:u:tok-1RR=31,,
13:u:tok-1RR=20,,
18:u:tok-1 L=products,
13:u:tok-1 R=20,,
22:u:tok-2 L=products/may,
17:u:tok-2 R=may/20,,
13:u:Tok-1 X=20,,
18:u:tok-1LL=products,
95:u:tok-1RR=http://www.av-comparatives.org/wp-content/uploads/2014/04/avc_datasending_2014_en.pdf,
17:u:tok-2 L=may/20,,
19:u:tok-2 R=20,/2014.,
12:u:Suf-2 X=0,,
12:u:Suf-2 L=0,,
12:u:Suf-2 X=ur,
12:u:Suf-2 L=ur,
29:u:tok-2 R=bulletin/conference,
29:u:tok-2 L=bulletin/conference,
24:u:tok-1RR=investigation,,
24:u:tok-1 R=investigation,,
24:u:Tok-1 X=Investigation,,
23:u:tok-1 X=investigation,
17:u:tok-1RR=reuters,
17:u:tok-1 R=reuters,
18:u:tok-1RR=february,
18:u:Tok-1 X=February,
18:u:tok-1 X=february,
13:u:Lst-2 X=P/;,
11:u:Suf-1 X=;,
16:u:Tmn-3 X=weak/;,
14:u:tok-1 R=grey,
12:u:Suf-2 X=4,,
15:u:tok-1 L=2012.,
13:u:tok-1 R=12,,
12:u:Suf-2 L=2,,
18:u:tok-1 L=military,
18:u:tok-1LL=military,
13:u:tok-1 R=ii,,
12:u:Pre-2 R=II,
12:u:Pre-2 X=(C,
19:u:tok-1RR=regarding,
19:u:tok-1 R=regarding,
19:u:Tok-1 X=Regarding,
19:u:tok-1 X=regarding,
19:u:tok-1 L=regarding,
12:u:Pre-2 X=Av,
13:u:tok-1 R=23,,
12:u:Suf-2 X=3,,
13:u:tok-1 R=was,
12:u:Lst-1 X=Pf,
12:*:Lst-1 L=Pf,
16:u:Lst-2 L=Pf/’,
13:u:tok-1RR=10,,
13:u:tok-1 R=10,,
13:u:Tok-1 X=10,,
16:u:tok-1 X=treaty,
20:u:tok-1 X=convention,
20:u:Tok-1 X=Cybercrime,
20:u:tok-1 X=cybercrime,
20:u:tok-1 L=cybercrime,
15:u:tok-1RR=2001.,
13:u:tok-1RR=24,,
20:u:Tok-1 X=Indicators,
20:u:tok-1 X=indicators,
23:u:tok-2 R=indicators/of,
20:u:tok-1 L=indicators,
23:u:tok-2 L=indicators/of,
20:u:tok-1LL=indicators,
20:u:tok-1RR=compromise,
24:u:tok-2 L=vs./indicators,
20:u:tok-1 R=compromise,
23:u:tok-2 R=of/compromise,
20:u:Tok-1 X=Compromise,
20:u:tok-1 X=compromise,
12:u:tok-1RR=9,,
23:u:tok-2 L=of/compromise,
29:u:tok-2 R=compromise/december,
12:u:Suf-2 X=9,,
12:u:Suf-2 L=9,,
17:u:tok-1RR=systems,
25:u:tok-2 R=u.s./department,
25:u:tok-2 L=u.s./department,
16:u:tok-1RR=report,
16:u:tok-1 R=report,
16:u:Key-1 R=report,
21:u:Tmn-2 R=none/report,
16:u:Tok-1 X=Report,
16:u:tok-1 X=report,
16:u:Key-1 X=report,
24:u:Key-2 X=report/initial,
21:u:Key-3 L=none/report,
21:u:Key-3 x=report/none,
16:u:tok-1 L=report,
16:u:Key-1 L=report,
21:u:Tmn-2 L=report/none,
16:u:tok-1LL=report,
28:u:tok-1 L=5-eyes—explainer,
18:u:tok-1 R=guardian,
32:u:tok-2 L=5-eyes—explainer/the,
22:u:tok-2 R=the/guardian,
18:u:Tok-1 X=Guardian,
18:u:tok-1 X=guardian,
28:u:tok-1LL=5-eyes—explainer,
22:u:tok-2 L=the/guardian,
27:u:tok-2 R=guardian/december,
12:u:tok-1 R=2,,
12:u:Pre-2 R=2,,
12:u:tok-1 L=2,,
16:u:tok-1 R=bureau,
22:u:tok-2 L=_x-1/federal,
24:u:tok-2 R=federal/bureau,
16:u:Tok-1 X=Bureau,
16:u:tok-1 X=bureau,
24:u:tok-2 L=federal/bureau,
19:u:tok-2 R=bureau/of,
12:u:Suf-2 X=au,
16:u:tok-1 L=bureau,
16:u:tok-1RR=update,
19:u:tok-2 L=bureau/of,
27:u:tok-2 R=of/investigation,,
12:u:Suf-2 L=au,
16:u:tok-1LL=bureau,
16:u:tok-1 R=update,
27:u:tok-2 L=of/investigation,,
31:u:tok-2 R=investigation,/update,
12:u:Pre-2 R=Up,
14:u:tok-1 L=—,,
14:u:Suf-2 L=—,,
12:u:Pre-2 R=He,
15:u:tok-1 X=heist,
12:u:Pre-2 X=He,
12:u:tok-1RR=3,,
15:u:Tok-1 X=April,
15:u:tok-1 X=april,
15:u:tok-1LL=heist,
12:u:tok-1 R=3,,
12:u:Pre-2 R=3,,
21:u:Tok-1 X=BlackEnergy,
21:u:tok-1 X=blackenergy,
16:u:tok-1 L=great,,
28:u:tok-2 L=great,/blackenergy,
25:u:tok-2 R=blackenergy/apt,
13:u:Tok-1 X=APT,
13:u:tok-1 X=apt,
12:u:Suf-2 X=PT,
20:u:tok-2 R=attacks/in,
20:u:tok-2 L=attacks/in,
19:u:tok-1 R=kaspersky,
13:u:tok-1RR=lab,
12:u:Pre-2 R=Ka,
13:u:tok-1 R=lab,
17:u:tok-1RR=website,
12:u:Pre-2 X=Ka,
13:u:Tok-1 X=Lab,
13:u:tok-1 X=lab,
19:u:tok-1 L=kaspersky,
23:u:tok-2 L=kaspersky/lab,
12:u:Suf-2 L=ky,
12:u:Suf-2 X=ab,
19:u:tok-1LL=kaspersky,
13:u:tok-1 L=lab,
20:u:tok-1 X=securelist,
21:u:Tok-1 X=SecureList,,
14:u:tok-1 L=hood,
26:u:tok-2 L=hood/securelist,,
31:u:tok-2 R=securelist,/kaspersky,
12:u:Suf-2 L=od,
14:u:tok-1LL=hood,
21:u:tok-1 L=securelist,,
31:u:tok-2 L=securelist,/kaspersky,
19:u:tok-1 X=operation,
13:u:tok-1RR=17,,
13:u:tok-1 R=17,,
13:u:Tok-1 X=17,,
17:u:Tok-1 X=Summary,
17:u:tok-1 X=summary,
17:u:tok-1 L=summary,
16:u:tok-1 X=people,
15:u:tok-1 L=2015.,
21:u:tok-1 L=corporation,
13:u:tok-1 R=30,,
12:u:Pre-2 R=30,
12:u:Suf-2 L=ex,
12:u:Suf-2 X=io,
23:u:tok-2 R=in/cyberspace,
23:u:tok-2 L=in/cyberspace,
17:u:tok-1RR=society,
17:u:tok-1 R=society,
14:u:tok-1RR=vol.,
14:u:tok-1 R=vol.,
13:u:tok-1RR=no.,
13:u:tok-1 R=no.,
21:u:Tmn-2 L=volume/weak,
13:u:Tok-1 X=No.,
13:u:tok-1RR=pp.,
13:u:tok-1 L=no.,
13:u:tok-1 R=pp.,
12:u:Pre-2 R=pp,
14:u:tok-1 L=nuts,
14:u:tok-1LL=nuts,
15:u:tok-1LL=u.s.,,
14:u:Tok-1 X=IEEE,
14:u:tok-1 X=ieee,
12:u:Pre-2 X=IE,
12:u:Suf-2 X=EE,
14:u:tok-1 L=ieee,
12:u:Suf-2 L=EE,
14:u:tok-1LL=ieee,
14:u:Tok-1 X=2009,
21:u:tok-1LL=reliability,
22:u:tok-2 L=society/2009,
21:u:tok-2 R=2009/annual,
20:u:Tok-1 X=Technology,
20:u:tok-1 L=technology,
27:u:tok-2 L=technology/report,
22:u:tok-2 R=report/2009.,
14:u:tok-1RR=2020,
14:u:Tok-1 X=2020,
23:u:tok-2 L=_x-1/national,
21:u:Tok-1 X=Technology,,
19:u:tok-1LL=standards,
21:u:tok-1LL=technology,,
12:u:tok-1 X=md,
16:u:tok-1 X=agency,
15:u:tok-1 X=group,
17:u:tok-1RR=fireeye,
17:u:tok-1 R=fireeye,
17:u:Tok-1 X=FireEye,
17:u:tok-1 X=fireeye,
17:u:tok-1 L=fireeye,
18:u:tok-1LL=tv5monde,
17:u:tok-1 L=channel,
26:u:tok-2 L=channel/security,
26:u:tok-2 R=security/affairs,
14:u:tok-1 R=nos.,
13:u:tok-1 X=nos,
12:u:Suf-2 X=ma,
12:u:Suf-2 L=ma,
12:u:tok-1 R=up,
12:u:tok-1 X=up,
12:u:tok-1 L=up,
12:u:tok-1LL=up,
16:u:tok-1RR=before,
16:u:tok-1 R=before,
13:u:tok-1RR=18,,
19:u:tok-1 R=research,,
13:u:tok-1RR=bae,
28:u:tok-2 L=attribution/threat,
26:u:tok-2 R=threat/research,,
19:u:tok-1 R=homepage,,
12:u:Pre-2 R=ho,
19:u:Tok-1 X=homepage,,
18:u:tok-1 X=homepage,
28:u:tok-2 R=homepage,/undated.,
12:u:Pre-2 X=ho,
19:u:tok-1 L=homepage,,
28:u:tok-2 L=homepage,/undated.,
19:u:tok-1LL=homepage,,
12:u:Suf-2 X=va,
16:u:tok-1LL=geneva,
19:u:tok-1RR=microsoft,
19:u:tok-1 R=microsoft,
19:u:Tok-1 X=Microsoft,
19:u:tok-1 L=microsoft,
19:u:tok-1LL=microsoft,
18:u:tok-1 X=cyberwar,
18:u:Tok-1 X=Symantec,
18:u:tok-1 X=symantec,
12:u:Suf-2 X=ec,
19:u:Tok-1 X=Response,,
19:u:tok-1 L=financial,
14:u:Tok-1 X=Time,
15:u:tok-1RR=group,
17:u:tok-1LL=nations,
15:u:tok-1 R=group,
22:u:tok-1LL=governmental,
19:u:tok-1RR=a/70/174,,
25:u:tok-2 L=security/report,
20:u:tok-2 R=report/no.,
18:u:tok-1RR=incident,
24:u:tok-2 R=national/cyber,
17:u:tok-1 R=charges,
22:u:tok-2 R=u.s./charges,
19:u:Tok-1 X=Advantage,
19:u:tok-1 X=advantage,
19:u:tok-1RR=14–528,,
30:u:tok-2 L=commercial/advantage,
23:u:tok-2 R=advantage/no.,
17:u:tok-1 L=islamic,
16:u:tok-1RR=sector,
16:u:tok-1 R=sector,
24:u:tok-2 L=u.s./financial,
26:u:tok-2 R=financial/sector,
16:u:Tok-1 X=Sector,
16:u:tok-1 X=sector,
26:u:tok-2 L=financial/sector,
22:u:tok-2 R=sector/march,
12:u:Suf-2 X=ir,
12:u:Suf-2 L=ir,
17:u:tok-1 R=supreme,
17:u:Tok-1 X=Supreme,
17:u:tok-1 X=supreme,
15:u:tok-1 X=court,
17:u:tok-1 L=supreme,
17:u:tok-1LL=supreme,
12:u:Suf-2 X=op,
12:u:Suf-2 L=op,
14:u:tok-1 R=wall,
16:u:tok-1RR=street,
14:u:Tok-1 X=Wall,
14:u:tok-1 X=wall,
16:u:tok-1 R=street,
21:u:tok-2 R=wall/street,
12:u:Pre-2 R=Ki,
20:u:tok-1 R=appraisal:,
28:u:tok-2 L=warfare./strategic,
30:u:tok-2 R=strategic/appraisal:,
20:u:Tok-1 X=appraisal:,
19:u:tok-1 X=appraisal,
30:u:tok-2 L=strategic/appraisal:,
24:u:tok-2 R=appraisal:/the,
20:u:tok-1 L=appraisal:,
24:u:tok-2 L=appraisal:/the,
22:u:tok-2 R=the/changing,
18:u:Tok-1 X=changing,
20:u:tok-1LL=appraisal:,
22:u:tok-2 L=the/changing,
23:u:tok-2 R=changing/role,
12:u:Pre-2 X=ch,
14:u:Tok-1 X=role,
23:u:tok-2 L=changing/role,
12:u:Pre-2 X=ro,
24:u:tok-2 R=information/in,
14:u:tok-1RR=(pp.,
14:u:tok-1 R=(pp.,
12:u:Pre-2 R=(p,
14:u:tok-1 R=rand,
14:u:tok-1 X=rand,
14:u:tok-1 L=rand,
14:u:tok-1LL=rand,
24:u:tok-2 R=technology/and,
24:u:tok-2 L=technology/and,
14:u:tok-1RR=army,
22:u:tok-2 R=committee/on,
12:u:tok-1 X=ed,
12:u:Suf-2 L=),,
13:u:Tok-1 X=US.,
15:u:tok-1 L=2020,,
15:u:Tok-1 X=cyber,
14:u:Tok-1 X=nos.,
15:u:tok-1 L=2019,,
15:u:tok-1LL=2019,,
25:u:tok-2 L=attribution/the,
12:u:tok-1RR=4,,
15:u:tok-1RR=2010,,
15:u:tok-1 R=2010,,
21:u:Key-3 L=weak/editor,
15:u:Tok-1 X=Henri,
15:u:tok-1 X=henri,
17:u:tok-1LL=jomini,,
17:u:tok-1 L=antoine,
23:u:tok-2 L=antoine/henri,
18:u:tok-2 R=henri/de,
12:u:Tok-1 X=de,
17:u:tok-1LL=antoine,
15:u:tok-1 L=henri,
13:u:tok-1RR=art,
18:u:tok-2 L=henri/de,
16:u:tok-2 R=de/the,
12:u:Pre-2 X=ar,
12:u:Tok-1 X=El,
12:u:tok-1 X=el,
12:u:Suf-2 X=El,
15:u:tok-1LL=norte,
15:u:tok-1 R=paso,,
13:u:tok-1RR=tx,,
18:u:tok-2 L=press/el,
18:u:tok-2 R=el/paso,,
24:u:tok-2 L=and/technology,
25:u:tok-2 R=technology/vol.,
20:u:tok-1RR=strategies,
20:u:tok-1 R=strategies,
20:u:Tok-1 X=Strategies,
20:u:tok-1 L=strategies,
20:u:tok-1LL=strategies,
12:u:Suf-2 X=):,
12:u:Pre-2 X=do,
17:u:Key-1 X=locator,
23:u:Key-2 X=locator/other,
24:u:Key-3 x=locator/strong,
16:u:tok-1RR=manual,
12:u:Suf-2 X=.0,
27:u:tok-2 R=the/international,
27:u:tok-2 L=the/international,
28:u:Num-2 R=year/closing-paren,
18:u:tok-1 R=schmitt,,
12:u:tok-1 X=ja,
12:u:Suf-2 X=be,
17:u:tok-1RR=threats,
17:u:tok-1 R=threats,
21:u:tok-2 R=threats/and,
17:u:tok-1 L=threats,
21:u:tok-2 L=threats/and,
17:u:tok-1LL=threats,
18:u:Tok-1 X=Lawfare.,
17:u:tok-1 X=lawfare,
18:u:tok-2 R=court/of,
16:u:tok-1 R=action,
16:u:tok-1 X=action,
13:u:tok-1 R=int,
21:u:tok-1 R=comparative,
21:u:Tok-1 X=Comparative,
21:u:tok-1 X=comparative,
19:u:tok-2 L=_x-1/nato,
24:u:tok-2 R=nato/statement,
12:u:tok-1 L=c.,
12:u:tok-1LL=c.,
13:u:Tok-1 X=3rd,
13:u:tok-1 X=3rd,
27:u:tok-2 R=3rd/international,
12:u:Pre-2 X=3r,
34:u:tok-2 R=international/conference,
23:u:tok-2 R=conference/on,
23:u:tok-2 L=conference/on,
25:u:tok-2 R=cyber/conflict.,
25:u:tok-2 L=cyber/conflict.,
22:u:tok-1LL=publications,
13:u:Tok-1 X=law,
19:u:tok-1 X=community,
16:u:tok-1LL=london,
16:u:tok-1 L=change,
20:u:Key-1 R=translator,
26:u:tok-1RR=ghyamsarnegouni,,
20:u:Key-1 X=translator,
26:u:Key-2 X=translator/lower,
25:u:Key-3 x=translator/none,
20:u:Key-1 L=translator,
25:u:Tmn-2 L=translator/none,
16:u:Fst-2 R=Pi/“,
16:u:Tok-1 X=Tehran,
16:u:tok-1 X=tehran,
20:u:Tok-1 X=Cyberscoop,
20:u:tok-1 X=cyberscoop,
14:u:tok-1 L=baku,
25:u:tok-2 L=baku/cyberscoop,
25:u:tok-2 R=cyberscoop/iran,
12:u:Suf-2 L=ku,
14:u:tok-1LL=baku,
20:u:tok-1 L=cyberscoop,
12:u:tok-1RR=31,
25:u:tok-2 L=cyberscoop/iran,
28:u:tok-2 R=iran/international,
12:u:tok-1 R=31,
17:u:tok-1RR=supreme,
21:u:tok-2 R=the/supreme,
21:u:tok-2 L=the/supreme,
15:u:tok-1RR=space,
15:u:Tok-1 X=Space,
15:u:tok-1LL=space,
14:u:Tok-1 X=2024,
15:u:tok-1RR=corps,
15:u:tok-1 R=corps,
15:u:tok-1 L=corps,
17:u:tok-2 R=and/new,
26:u:tok-2 L=supreme/national,
43:u:tok-1RR=https://t.me/ghyamsarnegouni/3674,
26:u:tok-2 R=security/council,
43:u:tok-1 R=https://t.me/ghyamsarnegouni/3674,
26:u:tok-2 L=security/council,
51:u:tok-2 R=council/https://t.me/ghyamsarnegouni/3674,
18:u:tok-1RR=cultures,
31:u:tok-2 R=comparative/strategic,
18:u:tok-1LL=cultures,
18:u:tok-1 L=syllabus,
21:u:tok-2 L=syllabus/in,
24:u:tok-2 R=in/comparative,
18:u:tok-1LL=syllabus,
24:u:tok-2 L=in/comparative,
21:u:tok-1RR=curriculum:,
12:u:tok-1RR=va,
18:u:Tok-1 X=Mullahs,,
17:u:tok-1 X=mullahs,
18:u:tok-1LL=frederic,
17:u:tok-1 L=wehrey,,
17:u:tok-1 R=guards,,
26:u:tok-2 L=wehrey,/mullahs,,
26:u:tok-2 R=mullahs,/guards,,
16:u:Tok-1 X=Marine,
16:u:tok-1 X=marine,
20:u:tok-1LL=disruptive,
24:u:tok-1RR=university’s,
23:u:tok-2 L=change/marine,
22:u:tok-2 R=marine/corps,
24:u:Tok-1 X=University’s,
21:u:tok-1 X=universitys,
16:u:tok-1LL=marine,
30:u:tok-2 L=corps/university’s,
31:u:tok-2 R=university’s/middle,
18:u:Tok-1 X=Strategy,
16:u:tok-1 X=israel,
23:u:tok-2 R=institute/for,
23:u:tok-2 L=institute/for,
23:u:Tok-1 X=Congressional,
23:u:tok-1 X=congressional,
22:u:tok-1 L=capabilities,
17:u:tok-1RR=service,
36:u:tok-2 L=capabilities/congressional,
32:u:tok-2 R=congressional/research,
22:u:tok-1LL=capabilities,
23:u:tok-1 L=congressional,
32:u:tok-2 L=congressional/research,
26:u:tok-2 R=research/service,
23:u:tok-1LL=congressional,
26:u:tok-2 L=research/service,
20:u:tok-2 R=service/13,
12:u:tok-1 R=27,
15:u:tok-1 L=armed,
15:u:tok-1LL=armed,
15:u:tok-1LL=ehsan,
21:u:tok-1 L=movahedian,,
26:u:tok-2 L=movahedian,/u.s.,
20:u:tok-2 R=u.s./cyber,
12:u:Pre-2 R=cr,
18:u:Tok-1 X=criminal,
12:u:Pre-2 X=cr,
33:u:tok-2 R=criminal/responsibility,
24:u:Tok-1 X=responsibility,
33:u:tok-2 L=criminal/responsibility,
18:u:tok-1 R=handbook,
29:u:tok-2 L=cyberspace/research,
27:u:tok-2 R=research/handbook,
12:u:Pre-2 R=ha,
18:u:Tok-1 X=handbook,
18:u:tok-1 X=handbook,
27:u:tok-2 L=research/handbook,
21:u:tok-2 R=handbook/on,
12:u:Pre-2 X=ha,
18:u:tok-1 L=handbook,
21:u:tok-2 L=handbook/on,
23:u:tok-2 R=on/cyberspace,
18:u:tok-1LL=handbook,
23:u:tok-2 L=on/cyberspace,
24:u:tok-2 R=cyberspace/and,
24:u:tok-2 L=cyberspace/and,
16:u:tok-1RR=edward,
21:u:tok-2 R=law/(2015).,
20:u:Tok-1 X=Individual,
20:u:tok-1 X=individual,
29:u:tok-2 R=individual/criminal,
20:u:tok-1 L=individual,
29:u:tok-2 L=individual/criminal,
20:u:tok-1LL=individual,
13:u:tok-1 L=25.,
24:u:tok-2 L=25./individual,
13:u:tok-1LL=25.,
14:u:tok-1RR=rome,
28:u:tok-2 R=responsibility/the,
14:u:tok-1 R=rome,
17:u:tok-1RR=statute,
28:u:tok-2 L=responsibility/the,
18:u:tok-2 R=the/rome,
14:u:Tok-1 X=Rome,
14:u:tok-1 X=rome,
17:u:tok-1 R=statute,
18:u:tok-2 L=the/rome,
22:u:tok-2 R=rome/statute,
17:u:Tok-1 X=Statute,
17:u:tok-1 X=statute,
14:u:tok-1 L=rome,
22:u:tok-2 L=rome/statute,
20:u:tok-2 R=statute/of,
14:u:tok-1LL=rome,
17:u:tok-1 L=statute,
20:u:tok-2 L=statute/of,
17:u:tok-1LL=statute,
16:u:tok-1RR=court:,
16:u:tok-1 R=court:,
25:u:tok-2 R=criminal/court:,
16:u:Tok-1 X=Court:,
20:u:tok-1RR=commentary,
25:u:tok-2 L=criminal/court:,
18:u:tok-2 R=court:/a,
16:u:tok-1 L=court:,
20:u:tok-1 R=commentary,
18:u:tok-1RR=(2016b).,
18:u:tok-2 L=court:/a,
22:u:tok-2 R=a/commentary,
20:u:Tok-1 X=commentary,
20:u:tok-1 X=commentary,
16:u:tok-1LL=court:,
18:u:tok-1 R=(2016b).,
14:u:tok-1RR=c.h.,
22:u:tok-2 L=a/commentary,
29:u:tok-2 R=commentary/(2016b).,
12:u:tok-1 X=ch,
19:u:tok-1RR=retrieved,
25:u:Tmn-2 R=strong/accessed,
26:u:Key-2 X=accessed/initial,
25:u:Key-3 L=strong/accessed,
16:u:tok-1RR=office,
16:u:tok-1 R=office,
13:u:tok-1LL=due,
14:u:tok-1 L=rule,
14:u:tok-1LL=rule,
11:u:Tok-1 X=I,
11:u:Pre-2 X=I,
11:u:Suf-2 X=I,
11:u:tok-1 L=i,
11:u:Suf-2 L=I,
12:u:Suf-2 X=II,
13:u:Tok-1 X=III,
13:u:tok-1 X=iii,
16:u:tok-1 L=wired.,
16:u:tok-1LL=wired.,
12:u:Pre-2 X=ww,
20:u:Tok-1 X=California,
20:u:tok-1 X=california,
20:u:tok-1RR=georgetown,
15:u:tok-1 X=human,
16:u:tok-1 X=rights,
15:u:tok-1 L=human,
22:u:tok-1RR=humanitarian,
22:u:tok-1 R=humanitarian,
36:u:tok-2 R=international/humanitarian,
12:u:Pre-2 R=hu,
36:u:tok-2 L=international/humanitarian,
12:u:Pre-2 X=hu,
22:u:tok-1LL=humanitarian,
12:u:Suf-2 L=w:,
23:u:Tmn-2 R=strong/editor,
17:u:tok-1RR=chicago,
17:u:tok-1LL=chicago,
15:u:tok-1LL=final,
18:u:tok-1 L=juncture,
22:u:tok-2 L=juncture/the,
18:u:tok-1LL=juncture,
18:u:tok-1RR=affairs:,
18:u:tok-1 R=affairs:,
25:u:tok-2 R=global/affairs:,
18:u:Tok-1 X=affairs:,
24:u:tok-1RR=discontinuity,,
25:u:tok-2 L=global/affairs:,
27:u:tok-2 R=affairs:/managing,
18:u:tok-1 L=affairs:,
24:u:tok-1 R=discontinuity,,
20:u:tok-1RR=disruption,
27:u:tok-2 L=affairs:/managing,
33:u:tok-2 R=managing/discontinuity,,
24:u:Tok-1 X=discontinuity,,
23:u:tok-1 X=discontinuity,
18:u:tok-1LL=affairs:,
20:u:tok-1 R=disruption,
33:u:tok-2 L=managing/discontinuity,,
35:u:tok-2 R=discontinuity,/disruption,
20:u:Tok-1 X=disruption,
20:u:tok-1 X=disruption,
24:u:tok-1 L=discontinuity,,
22:u:tok-1RR=destruction.,
35:u:tok-2 L=discontinuity,/disruption,
24:u:tok-2 R=disruption/and,
24:u:tok-1LL=discontinuity,,
20:u:tok-1 L=disruption,
22:u:tok-1 R=destruction.,
24:u:tok-2 L=disruption/and,
26:u:tok-2 R=and/destruction.,
22:u:Tok-1 X=destruction.,
21:u:tok-1 X=destruction,
20:u:tok-1LL=disruption,
18:u:tok-1RR=palgrave,
26:u:tok-2 L=and/destruction.,
30:u:tok-2 R=destruction./(2021).,
18:u:Tok-1 X=Sunrise,,
17:u:tok-1 X=sunrise,
17:u:tok-1 R=sunset.,
21:u:tok-2 L=m./sunrise,,
26:u:tok-2 R=sunrise,/sunset.,
21:u:Tok-1 X=Government.,
19:u:tok-1 X=presented,
22:u:tok-2 R=presented/at,
19:u:tok-1 L=presented,
22:u:tok-2 L=presented/at,
19:u:tok-1LL=presented,
18:u:tok-1LL=computer,
14:u:tok-1 X=dark,
16:u:tok-1 R=george,
16:u:Tok-1 X=George,
16:u:tok-1 X=george,
16:u:tok-1 L=george,
16:u:tok-1LL=george,
12:u:Suf-2 L=ax,
15:u:tok-1 L=peter,
16:u:tok-1RR=series,
16:u:Key-1 R=series,
21:u:Tmn-2 R=none/series,
16:u:Tok-1 X=Series,
16:u:tok-1 X=series,
16:u:Key-1 X=series,
24:u:Key-2 X=series/initial,
21:u:Key-3 L=none/series,
21:u:Key-3 x=series/none,
16:u:Tok-1 X=Tallin,
16:u:tok-1 X=tallin,
17:u:tok-1 L=ccdcoe,,
18:u:tok-1 R=estonia.,
24:u:tok-2 L=ccdcoe,/tallin,
25:u:tok-2 R=tallin/estonia.,
18:u:Tok-1 X=Estonia.,
17:u:tok-1LL=ccdcoe,,
16:u:tok-1 L=tallin,
25:u:tok-2 L=tallin/estonia.,
23:u:tok-2 R=estonia./_x+1,
17:u:tok-1LL=defence,
14:u:tok-1 R=10th,
17:u:tok-1 L=issues.,
17:u:tok-1LL=issues.,
11:u:tok-1RR=4,
22:u:tok-1LL=corporation.,
22:u:tok-2 R=conflict/and,
22:u:tok-2 L=conflict/and,
12:u:Pre-2 R=(N,
25:u:tok-2 L=intelligence/in,
26:u:tok-2 R=in/understanding,
19:u:Tok-1 X=Conflict:,
22:u:tok-2 R=conflict:/14,
22:u:tok-2 L=conflict:/14,
22:u:tok-2 R=14/analogies,
19:u:tok-1 X=analogies,
12:u:tok-1 L=dc,
12:u:Suf-2 L=DC,
12:u:tok-1LL=dc,
16:u:tok-1RR=george,
31:u:tok-2 R=international/journal,
25:u:tok-1LL=accountability,,
24:u:tok-2 L=and/management,
33:u:tok-2 R=management/intelligence,
14:u:tok-1RR=al.,,
26:u:tok-2 R=intelligence/the,
22:u:tok-2 L=summary/u.s.,
12:u:Pre-2 R=Lu,
12:u:Pre-2 R=Ai,
12:u:Pre-2 X=Ai,
19:u:Tok-1 X=Community,
32:u:tok-2 L=intelligence/community,
24:u:tok-2 R=community/u.s.,
19:u:tok-1 L=community,
24:u:tok-2 L=community/u.s.,
21:u:tok-2 R=u.s./office,
20:u:tok-2 L=london/and,
23:u:tok-1LL=destruction":,
18:u:tok-1 L=212-230.,
27:u:tok-2 L=212-230./strategy,
21:u:tok-2 R=strategy/in,
18:u:tok-1LL=212-230.,
21:u:tok-2 L=strategy/in,
16:u:tok-1RR=world.,
26:u:tok-2 R=the/contemporary,
16:u:tok-1 R=world.,
26:u:tok-2 L=the/contemporary,
29:u:tok-2 R=contemporary/world.,
16:u:Tok-1 X=World.,
29:u:tok-2 L=contemporary/world.,
22:u:tok-2 R=world./2016.,
12:u:Tok-1 X=//,
16:u:tok-2 L=eu.///,
20:u:tok-2 R=///journal,
13:u:Fst-2 X=P//,
11:u:Pre-1 X=/,
12:u:Pre-2 X=//,
12:u:Suf-2 X=//,
12:u:Suf-2 L=I:,
17:u:Key-1 L=locator,
24:u:Tmn-2 L=locator/strong,
17:u:tok-1 R=virtual,
14:u:Lst-2 X=Ll/z,
11:u:Suf-1 X=z,
16:u:Tmn-3 X=none/z,
18:u:Tok-1 X=Thousand,
18:u:tok-1 X=thousand,
14:u:tok-1 R=oaks,
22:u:tok-2 L=and/thousand,
23:u:tok-2 R=thousand/oaks,
12:u:Pre-2 R=Oa,
15:u:tok-1 L=legal,
15:u:tok-1LL=legal,
13:u:tok-1 R=air,
13:u:Tok-1 X=Air,
13:u:tok-1 X=air,
13:u:tok-1 L=air,
13:u:tok-1LL=air,
14:u:Tok-1 X=Just,
14:u:tok-1 X=just,
14:u:tok-1 L=just,
24:u:tok-1 L=opportunities.,
31:u:tok-2 L=opportunities./united,
24:u:tok-1LL=opportunities.,
16:u:Tok-1 X=Volume,
16:u:tok-1 X=volume,
19:u:tok-1 L=diligence,
29:u:tok-2 L=diligence/principle,
19:u:tok-1 L=principle,
19:u:tok-1LL=principle,
28:u:tok-2 R=international/law,,
28:u:tok-2 L=international/law,,
16:u:Tok-1 X=Opinio,
16:u:tok-1 X=opinio,
15:u:tok-1 R=juris,
13:u:tok-1RR=(24,
18:u:tok-2 L=i/opinio,
22:u:tok-2 R=opinio/juris,
15:u:Tok-1 X=Juris,
15:u:tok-1 X=juris,
16:u:tok-1 L=opinio,
13:u:tok-1 R=(24,
22:u:tok-2 L=opinio/juris,
19:u:tok-2 R=juris/(24,
22:u:tok-2 R=principle/in,
25:u:tok-2 R=cyberspace/10th,
18:u:tok-2 R=law,/and,
18:u:tok-2 L=law,/and,
17:u:tok-2 R=air/and,
17:u:tok-2 L=air/and,
19:u:tok-2 R=and/space,
19:u:tok-2 L=and/space,
26:u:tok-2 R=computer/network,
21:u:tok-1 X=arbitration,
18:u:tok-2 L=j./armed,
23:u:tok-2 R=armed/attacks,
23:u:tok-2 L=armed/attacks,
16:u:tok-1RR=thesis,
16:u:tok-1 R=thesis,
28:u:tok-2 R=cyberspace./thesis,
16:u:Key-1 R=thesis,
23:u:Tmn-2 R=strong/thesis,
16:u:tok-1 X=thesis,
16:u:Key-1 X=thesis,
19:u:Tok-1 X=Cyberwar,,
24:u:tok-2 L=_x-1/cyberwar,,
23:u:tok-2 R=cyberwar,/law,
17:u:Tok-1 X=Review.,
20:u:tok-2 R=attack/and,
20:u:tok-2 L=attack/and,
23:u:tok-2 L=_x-1/computer,
24:u:tok-2 R=network/attack,
24:u:tok-2 L=network/attack,
20:u:tok-2 R=law./2001.,
26:u:tok-2 R=humanitarian/law,
26:u:tok-2 L=humanitarian/law,
18:u:tok-1LL=canadian,
16:u:tok-1 R=(2023),
12:u:Tok-1 X=ch,
20:u:Tok-1 X=Industries,
20:u:tok-1 X=industries,
17:u:tok-1 L=payment,
14:u:tok-1 R=31:1,
15:u:tok-1RR=bflr.,
28:u:tok-2 L=payment/industries,
25:u:tok-2 R=industries/31:1,
14:u:Tok-1 X=Emma,
17:u:tok-1LL=crystal,
18:u:tok-1 R=charlene,
17:u:tok-1RR=lubaale,
16:u:tok-2 L=&/emma,
23:u:tok-2 R=emma/charlene,
18:u:Tok-1 X=Charlene,
18:u:tok-1 X=charlene,
14:u:tok-1 L=emma,
17:u:tok-1 R=lubaale,
24:u:tok-1RR=“extradition,
23:u:tok-2 L=emma/charlene,
26:u:tok-2 R=charlene/lubaale,
21:u:tok-1 R=application,
21:u:Tok-1 X=Application,
21:u:tok-1 X=application,
21:u:tok-1 L=application,
21:u:tok-2 L=security/ch,
14:u:tok-2 R=ch/6,
17:u:tok-1 L=(2022).,
12:u:Suf-2 L=C),
15:u:Tok-1 X=Small,
15:u:tok-1 X=small,
22:u:tok-2 R=small/states,
15:u:tok-1 L=small,
22:u:tok-2 L=small/states,
15:u:tok-1LL=small,
17:u:Pos-2 R=first/2,
16:u:Pos-2 R=7/last,
16:u:Pos-2 L=7/last,
15:u:Tok-1 X=Cover,
15:u:tok-1 X=cover,
15:u:tok-1LL=corn,,
20:u:tok-1 R=deception,,
18:u:tok-2 L=g./cover,
26:u:tok-2 R=cover/deception,,
16:u:Tok-1 X=Hoover,
16:u:tok-1 X=hoover,
24:u:tok-2 R=hoover/working,
18:u:tok-1 L=matters.,
112:u:tok-1RR=https://www.lawfareblog.com/united-states-cyber-commands-new-vision-what-it-entails-and-why-it-matters,
27:u:tok-2 L=matters./lawfare.,
26:u:tok-2 R=lawfare./(2018).,
21:u:tok-2 R=review/_x+1,
20:u:tok-1 R=engagement,
30:u:tok-2 L=states/international,
21:u:tok-2 R=un/security,
21:u:tok-2 L=un/security,
27:u:tok-2 R=security/council.,
12:u:Suf-2 L=n?,
25:u:Tok-1 X=www.ncsc.gov.uk,
22:u:tok-1 X=wwwncscgovuk,
18:u:tok-1LL=ukraine.,
73:u:tok-1 R=https://www.ncsc.gov.uk/news/russia-ddos-involvement-in-ukraine,
33:u:tok-2 L=(2022)./www.ncsc.gov.uk,
89:u:tok-2 R=www.ncsc.gov.uk/https://www.ncsc.gov.uk/news/russia-ddos-involvement-in-ukraine,
12:u:Suf-2 X=uk,
20:u:Tok-1 X=February).,
18:u:tok-1LL=langner,,
15:u:tok-1 R=ralph,
18:u:tok-1RR=langner:,
23:u:tok-2 L=r./february).,
26:u:tok-2 R=february)./ralph,
16:u:tok-1 L=times.,
16:u:tok-1LL=times.,
16:u:Tok-1 X=arXiv.,
15:u:tok-1 X=arxiv,
14:u:tok-1 L=27).,
21:u:tok-2 L=27)./arxiv.,
21:u:tok-2 R=arxiv./_x+1,
15:u:Key-1 X=arxiv,
21:u:Key-2 X=arxiv/other,
22:u:Key-3 L=strong/arxiv,
22:u:Key-3 x=arxiv/strong,
17:u:tok-1 L=beckons,
27:u:tok-2 L=beckons/microsoft,
22:u:tok-2 R=microsoft/on,
17:u:tok-1LL=beckons,
22:u:tok-2 L=microsoft/on,
21:u:tok-2 R=the/issues.,
21:u:tok-2 L=the/issues.,
27:u:tok-2 R=issues./microsoft,
28:u:tok-2 L=microsoft/december,
22:u:tok-2 R=december/16.,
13:u:Tok-1 X=16.,
19:u:tok-2 R=16./2021.,
19:u:tok-1 R=advancing,
12:u:Suf-2 L=5:,
15:u:tok-1LL=hack.,
19:u:tok-1 X=publisher,
12:u:Pre-2 X=IS,
17:u:tok-1LL=fidler,,
16:u:tok-1 L=david.,
16:u:tok-1RR=unjust,
21:u:tok-2 L=david./just,
16:u:tok-2 R=just/&,
16:u:tok-1LL=david.,
16:u:tok-1 R=unjust,
14:u:tok-1RR=war,,
16:u:tok-2 L=just/&,
18:u:tok-2 R=&/unjust,
19:u:Tok-1 X=Publisher,
28:u:tok-2 L=security/publisher,
24:u:tok-2 R=publisher/_x+1,
23:u:tok-2 L=u.s./national,
17:u:tok-1 X=kingdom,
20:u:tok-2 R=by/michael,
20:u:tok-2 L=by/michael,
21:u:Tmn-2 R=none/thesis,
21:u:Key-3 L=none/thesis,
16:u:tok-1LL=bosnia,
73:u:tok-1 R=www.lawfareblog.com/need-official-attribution-russias-dnc-hack.,
24:u:tok-2 L=2016./lawfare.,
82:u:tok-2 R=lawfare./www.lawfareblog.com/need-official-attribution-russias-dnc-hack.,
73:u:Tok-1 X=www.lawfareblog.com/need-official-attribution-russias-dnc-hack.,
64:u:tok-1 X=wwwlawfareblogcomneedofficialattributionrussiasdnchack,
82:u:tok-2 L=lawfare./www.lawfareblog.com/need-official-attribution-russias-dnc-hack.,
78:u:tok-2 R=www.lawfareblog.com/need-official-attribution-russias-dnc-hack./_x+1,
15:u:Tok-1 X=PNAS.,
14:u:tok-1 X=pnas,
15:u:tok-1 R=111/4,
19:u:tok-1RR=1298--303,
24:u:tok-2 L=conflict/pnas.,
21:u:tok-2 R=pnas./111/4,
22:u:tok-2 R=in/committee,
20:u:Tok-1 X=(Princeton,
16:u:tok-1RR=1976).,
24:u:tok-2 L=war/(princeton,
23:u:tok-2 R=(princeton/up,
12:u:Pre-2 X=(P,
12:u:Pre-2 R=UP,
12:u:Tok-1 X=UP,
20:u:tok-1 L=(princeton,
16:u:tok-1 R=1976).,
20:u:tok-1RR=translated,
23:u:tok-2 L=(princeton/up,
19:u:tok-2 R=up/1976).,
12:u:Pre-2 X=UP,
12:u:Suf-2 X=UP,
16:u:Tok-1 X=1976).,
14:u:tok-1 X=1976,
20:u:tok-1LL=(princeton,
20:u:tok-1 R=translated,
19:u:tok-2 L=up/1976).,
27:u:tok-2 R=1976)./translated,
12:u:Suf-2 L=UP,
27:u:Tmn-2 R=strong/translator,
20:u:Tok-1 X=translated,
20:u:tok-1 X=translated,
16:u:tok-1 L=1976).,
27:u:tok-2 L=1976)./translated,
23:u:tok-2 R=translated/by,
27:u:Key-3 L=strong/translator,
16:u:tok-1LL=1976).,
20:u:tok-1 L=translated,
16:u:tok-1RR=howard,
23:u:tok-2 L=translated/by,
20:u:tok-1LL=translated,
16:u:tok-1 R=howard,
24:u:tok-2 R=michael/howard,
15:u:Tok-1 X=Paret,
15:u:tok-1 X=paret,
21:u:tok-2 L=peter/paret,
20:u:tok-2 R=paret/_x+1,
22:u:Tok-1 X=(CrowdStrike,
16:u:tok-1 L=2014).,
29:u:tok-2 L=2014)./(crowdstrike,
27:u:tok-2 R=(crowdstrike/_x+1,
18:u:tok-1RR=symantec,
14:u:tok-1LL=feb.,
17:u:tok-1 R=version,
13:u:tok-1RR=1.0,
24:u:tok-2 L=2013./symantec,
26:u:tok-2 R=symantec/version,
12:u:Suf-2 X=/2,
18:u:tok-1LL=district,
14:u:Suf-2 L=y’,
21:u:tok-1 L=conference,,
29:u:Tok-1 X=Coronaperspectives.,
28:u:tok-1 X=coronaperspectives,
21:u:tok-1 L=activities.,
16:u:tok-1RR=konrad,
41:u:tok-2 L=activities./coronaperspectives.,
35:u:tok-2 R=coronaperspectives./2020.,
22:u:Tok-1 X=Counterspace,
22:u:tok-1 X=counterspace,
18:u:tok-1 L=project.,
19:u:tok-1 R=timeline,,
31:u:tok-2 L=project./counterspace,
32:u:tok-2 R=counterspace/timeline,,
19:u:Tok-1 X=Timeline,,
18:u:tok-1 X=timeline,
18:u:tok-1LL=project.,
22:u:tok-1 L=counterspace,
32:u:tok-2 L=counterspace/timeline,,
26:u:tok-2 R=timeline,/center,
14:u:Tok-1 X=DARK,
13:u:tok-1LL=up.,
17:u:tok-1 R=reading,
87:u:tok-1RR=https://www.darkreading.com/ics-ot/space-race-defenses-satellite-cyberattacks,
22:u:tok-2 L=(2023)./dark,
22:u:tok-2 R=dark/reading,
12:u:Suf-2 X=RK,
32:u:tok-2 L=cyberattacks./national,
22:u:tok-2 R=national/air,
22:u:tok-2 L=national/air,
17:u:tok-1RR=center.,
28:u:tok-2 R=space/intelligence,
17:u:tok-1 R=center.,
28:u:tok-2 L=space/intelligence,
30:u:tok-2 R=intelligence/center.,
17:u:Tok-1 X=Center.,
30:u:tok-2 L=intelligence/center.,
25:u:tok-2 R=center./(2019).,
132:u:tok-1RR=https://www.chathamhouse.org/2019/12/application-international-law-state-cyberattacks/2-application-sovereignty-cyberspace,
25:u:tok-2 L=(2018)./chatham,
132:u:tok-1 R=https://www.chathamhouse.org/2019/12/application-international-law-state-cyberattacks/2-application-sovereignty-cyberspace,
90:u:tok-1RR=https://media.defense.gov/2019/jan/16/2002080386/-1/-1/1/190115-f-nv711-0002.pdf,
139:u:tok-2 R=house./https://www.chathamhouse.org/2019/12/application-international-law-state-cyberattacks/2-application-sovereignty-cyberspace,
14:u:tok-1 X=isbn,
12:u:Pre-2 R=IT,
12:u:Pre-2 X=IT,
17:u:Tok-1 X=Boston.,
24:u:tok-1LL=connectivity?.,
25:u:tok-2 L=(2021)./boston.,
22:u:tok-2 R=boston./_x+1,
21:u:tok-2 R=for/defense,
21:u:tok-2 L=for/defense,
26:u:tok-2 R=defense/analysis,
26:u:tok-2 L=defense/analysis,
16:u:tok-1LL=myriam,
29:u:tok-2 R=cavelty/attribution,
16:u:Tok-1 X=Tucker,
16:u:tok-1 X=tucker,
18:u:tok-1LL=jonathan,
17:u:tok-1 R=tracing,
19:u:tok-2 L=b./tucker,
24:u:tok-2 R=tucker/tracing,
20:u:tok-1 R=forensics.,
16:u:tok-1 L=power.,
16:u:tok-1LL=power.,
18:u:tok-1 R=kingdom,,
23:u:tok-2 L=states/united,
25:u:tok-2 R=united/kingdom,,
18:u:Tok-1 X=Kingdom,,
17:u:tok-1RR=israel.,
25:u:tok-2 L=united/kingdom,,
22:u:tok-2 R=kingdom,/and,
15:u:Tok-1 X=Weeks,
15:u:tok-1 X=weeks,
18:u:tok-2 L=l./weeks,
22:u:tok-2 R=weeks/public,
16:u:tok-1RR=(2013),
16:u:tok-1 R=(2013),
16:u:tok-1 R=shares,
24:u:tok-2 L=research/paper,
22:u:tok-2 R=paper/shares,
22:u:tok-1 L=herzegovina,,
19:u:tok-1RR=36357/04,,
34:u:tok-2 L=herzegovina,/application,
26:u:tok-2 R=application/nos.,
22:u:tok-1LL=herzegovina,,
19:u:tok-1 R=36357/04,,
19:u:tok-1RR=36360/04,,
26:u:tok-2 L=application/nos.,
24:u:tok-2 R=nos./36357/04,,
81:u:tok-1RR=http://www.wsj.com/articles/cyberwar-ignites-a-new-arms-race-1444611128,
17:u:tok-1LL=disable,
18:u:tok-1 L=estonia,,
22:u:tok-2 L=estonia,/the,
18:u:tok-1LL=estonia,,
21:u:tok-2 R=guardian/17,
19:u:tok-1 L=agency’,
29:u:tok-2 L=agency’/september,
23:u:tok-2 R=september/24,,
23:u:Key-3 L=moderate/date,
19:u:tok-1LL=agency’,
89:u:tok-1RR=https://www.theguardian.com/technology/2010/sep/24/stuxnet-worm-national-agency,
23:u:tok-2 L=september/24,,
19:u:tok-2 R=24,/2010,,
16:u:tok-1RR=zurich,
16:u:Tok-1 X=Zurich,
16:u:tok-1 X=zurich,
12:u:Pre-2 X=Zu,
16:u:tok-1 L=zurich,
13:u:tok-1 R=1-9,
28:u:tok-2 L=conference,/prague,
20:u:tok-2 R=prague/1-9,
20:u:tok-1LL=boudreaux,,
26:u:tok-2 L=u.s./government.,
21:u:tok-2 R=in/security,
21:u:tok-2 L=in/security,
13:u:tok-1LL=1-4,
22:u:tok-2 L=2019,/zurich,
23:u:tok-2 R=zurich/center,
23:u:tok-2 L=zurich/center,
16:u:tok-1LL=zurich,
15:u:tok-1RR=merz,,
21:u:tok-2 R=studies/in:,
12:u:Tok-1 X=IT,
17:u:Tok-1 X=YouTube,
17:u:tok-1 X=youtube,
53:u:tok-1RR=https://www.youtube.com/watch?v=hdjb8wojyda,
25:u:tok-2 L=hackers/youtube,
23:u:tok-2 R=youtube/2016.,
17:u:tok-2 R=and/in:,
21:u:tok-2 L=and/digital,
28:u:tok-2 R=digital/forensics.,
20:u:Tok-1 X=Forensics.,
17:u:tok-1RR=politic,
28:u:tok-2 L=digital/forensics.,
24:u:tok-2 R=forensics./int,
25:u:tok-1LL=communications,,
26:u:tok-2 R=security,/before,
12:u:tok-1 L=j,,
16:u:Tok-1 X=Corpus,
16:u:tok-1 X=corpus,
15:u:tok-1LL=libri,
22:u:tok-1 L=politicorum.,
22:u:tok-1 R=thomisticum.,
17:u:tok-1RR=(1971).,
29:u:tok-2 L=politicorum./corpus,
29:u:tok-2 R=corpus/thomisticum.,
22:u:Tok-1 X=Thomisticum.,
21:u:tok-1 X=thomisticum,
22:u:tok-1LL=politicorum.,
16:u:tok-1 L=corpus,
17:u:tok-1 R=(1971).,
51:u:tok-1RR=http://www.corpusthomisticum.org/cpo.html,
29:u:tok-2 L=corpus/thomisticum.,
30:u:tok-2 R=thomisticum./(1971).,
30:u:tok-2 L=bulletin/conference.,
29:u:tok-2 R=conference./(2016).,
16:u:Tok-1 X=Truman,
16:u:tok-1 X=truman,
21:u:tok-2 L=york/truman,
19:u:tok-2 R=truman/to,
16:u:tok-1 L=truman,
19:u:tok-2 L=truman/to,
19:u:tok-2 R=to/george,
16:u:tok-1LL=truman,
15:u:tok-1RR=bush.,
19:u:tok-2 L=to/george,
19:u:tok-2 R=george/w.,
15:u:tok-1 R=bush.,
19:u:tok-2 L=george/w.,
18:u:tok-2 R=w./bush.,
15:u:Tok-1 X=Bush.,
14:u:tok-1 X=bush,
18:u:tok-2 L=w./bush.,
20:u:tok-2 R=bush./_x+1,
22:u:Tok-1 X=Containment,,
21:u:tok-1 X=containment,
16:u:tok-1LL=dolan,,
25:u:tok-2 L=c./containment,,
33:u:tok-2 R=containment,/engagement,
27:u:tok-2 L=attacks/institute,
18:u:tok-1RR=strateg.,
21:u:tok-2 R=analysis/j.,
21:u:tok-2 L=nuts/hoover,
27:u:tok-2 L=research/national,
18:u:tok-1 L=guitton,,
15:u:tok-1 L=twin.,
23:u:tok-2 L=twin./foreign,
15:u:tok-1LL=twin.,
103:u:tok-1RR=http://www.foreignpolicy.com/articles/2013/11/19/stuxnets_secret_twin_iran_nukes_cyber_attack,
24:u:tok-2 R=policy./(2013),
15:u:tok-2 L=dc/et,
20:u:tok-2 R=al./edited,
17:u:Tok-1 X=Online.,
13:u:Tok-1 X=LLC,
13:u:tok-1 X=llc,
17:u:tok-1 L=prices,,
21:u:tok-2 L=prices,/llc,
16:u:tok-2 R=llc/in,
12:u:Suf-2 X=LC,
15:u:tok-1LL=2024.,
17:u:tok-1 L=nasdaq.,
19:u:tok-1 R=accessed:,
25:u:tok-2 L=nasdaq./online.,
27:u:tok-2 R=online./accessed:,
15:u:Tok-1 X=1979.,
14:u:tok-1 X=1979,
22:u:tok-1LL=pan-islamism,
21:u:tok-2 L=since/1979.,
21:u:tok-2 R=1979./2011.,
18:u:Tok-1 X=Rational,
18:u:tok-1 X=rational,
17:u:tok-1 R=choice,,
21:u:tok-2 L=l./rational,
26:u:tok-2 R=rational/choice,,
17:u:Tok-1 X=Choice,,
18:u:tok-1 L=rational,
26:u:tok-2 L=rational/choice,,
29:u:tok-2 R=choice,/deterrence,,
18:u:Tok-1 X=Threats,,
19:u:tok-1 L=interest.,
24:u:tok-2 L=interest./june,
19:u:tok-1LL=interest.,
19:u:tok-2 R=15,/2015.,
25:u:tok-2 L=times./december,
22:u:tok-2 R=december/13,,
22:u:tok-2 L=december/13,,
19:u:tok-2 L=law/april,
21:u:tok-2 R=april/2020.,
13:u:tok-1 R=eth,
20:u:tok-2 R=policy/eth,
12:u:Pre-2 R=ET,
13:u:tok-1LL=eth,
14:u:tok-1 R=(no.,
15:u:tok-1RR=244).,
20:u:tok-2 L=zurich/may,
18:u:tok-2 R=may/(no.,
21:u:tok-1 R=reimagined.,
27:u:tok-2 L=attacks./security,
30:u:tok-2 R=security/reimagined.,
21:u:Tok-1 X=Reimagined.,
20:u:tok-1 X=reimagined,
30:u:tok-2 L=security/reimagined.,
29:u:tok-2 R=reimagined./fireeye,
21:u:tok-1 L=reimagined.,
29:u:tok-2 L=reimagined./fireeye,
24:u:tok-2 R=fireeye/report,
21:u:tok-1LL=reimagined.,
24:u:tok-2 L=fireeye/report,
14:u:Tok-1 X=ISBN,
28:u:tok-1 R=978-1-9774-0272-1.,
20:u:tok-2 L=2019./isbn,
33:u:tok-2 R=isbn/978-1-9774-0272-1.,
12:u:Suf-2 X=BN,
28:u:Tok-1 X=978-1-9774-0272-1.,
23:u:tok-1 X=9781977402721,
14:u:tok-1 L=isbn,
33:u:tok-2 L=isbn/978-1-9774-0272-1.,
33:u:tok-2 R=978-1-9774-0272-1./_x+1,
12:u:Suf-2 L=BN,
21:u:tok-2 L=b./february,
26:u:tok-2 R=february/private,
14:u:tok-1LL=knut,
15:u:tok-1 L=ipsen,
20:u:tok-2 L=ipsen/part,
18:u:tok-2 R=part/ii,,
18:u:tok-1LL=recorded,
25:u:tok-2 L=future/february,
21:u:tok-2 R=february/4,,
11:u:Fst-1 R=L,
11:*:Fst-1 X=L,
11:u:Lst-1 X=L,
11:*:Lst-1 L=L,
24:u:tok-2 L=power./defense,
30:u:tok-2 R=defense/intelligence,
30:u:tok-2 L=defense/intelligence,
30:u:tok-2 R=intelligence/agency.,
53:u:tok-1RR=https://web.archive.org/web/20211024223507/,
30:u:tok-2 L=intelligence/agency.,
23:u:tok-2 R=agency./2017.,
15:u:Tok-1 X=Latin,
15:u:tok-1 X=latin,
18:u:tok-1 R=america,,
18:u:tok-2 L=uk/latin,
24:u:tok-2 R=latin/america,,
20:u:tok-1LL=companies.,
20:u:tok-2 R=august/30,,
21:u:tok-2 L=york/report,
16:u:tok-2 L=j,/iii,
23:u:tok-2 R=iii/defending,
20:u:tok-2 L=experts/in,
29:u:Tok-1 X=A/AC.290/2021/INF/2,
24:u:tok-1 X=aac2902021inf2,
37:u:tok-2 L=report./a/ac.290/2021/inf/2,
36:u:tok-2 R=a/ac.290/2021/inf/2/2021c.,
18:u:Tok-1 X=Realtime,
18:u:tok-1 X=realtime,
21:u:tok-1RR=compliance.,
28:u:tok-2 L=security./realtime,
21:u:tok-2 R=realtime/it,
18:u:tok-1 L=realtime,
21:u:tok-1 R=compliance.,
40:u:tok-1RR=www.realtime-itcompliance.com.,
21:u:tok-2 L=realtime/it,
24:u:tok-2 R=it/compliance.,
21:u:Tok-1 X=Compliance.,
18:u:tok-1LL=realtime,
40:u:tok-1 R=www.realtime-itcompliance.com.,
24:u:tok-2 L=it/compliance.,
52:u:tok-2 R=compliance./www.realtime-itcompliance.com.,
20:u:Tok-1 X=EUROPOLITY,
20:u:tok-1 X=europolity,
25:u:tok-2 L=_x-1/europolity,
25:u:tok-2 R=europolity/vol.,
12:u:Suf-2 X=TY,
17:u:tok-2 L=2,/2024,
19:u:tok-2 R=2024/_x+1,
14:u:tok-1 L=u.n.,
17:u:tok-1 R=treaty.,
25:u:tok-2 L=u.n./cybercrime,
28:u:tok-2 R=cybercrime/treaty.,
17:u:Tok-1 X=Treaty.,
14:u:tok-1LL=u.n.,
28:u:tok-2 L=cybercrime/treaty.,
25:u:tok-2 R=treaty./foreign,
20:u:tok-2 L=order./new,
19:u:tok-2 R=haven/and,
15:u:tok-1 L=haven,
19:u:tok-2 L=haven/and,
19:u:tok-2 R=and/2017.,
17:u:tok-1 L=stimson,
113:u:tok-1 R=https://www.stimson.org/2023/discord-and-diplomacy-reviewing-outcomes-from-the-uns-cyber-working-group/,
24:u:tok-2 L=stimson/center,
120:u:tok-2 R=center/https://www.stimson.org/2023/discord-and-diplomacy-reviewing-outcomes-from-the-uns-cyber-working-group/,
16:u:tok-1LL=julian,
15:u:tok-1 R=hunts,
17:u:tok-2 L=e./u.s.,
20:u:tok-2 R=u.s./hunts,
0=7.750305e-02
1=4.976461e-02
2=7.892163e-02
3=2.899845e-02
4=2.786856e-02
5=5.817994e-02
6=4.076216e-02
7=1.213784e-01
8=5.806046e-03
9=4.983196e-02
10=6.647754e-02
11=1.850594e-02
12=-8.009217e-03
14=2.421483e-01
15=5.393278e-03
16=-3.331251e-01
17=-9.509315e-02
18=-9.845495e-02
19=9.673108e-01
20=1.638324e-01
21=-2.101726e-01
27=-7.947352e-01
30=-1.612983e-01
38=-2.945511e+00
39=5.332817e-01
40=4.782247e-02
41=-5.516685e-01
42=4.719892e-02
44=-2.509801e-01
45=-1.028566e+00
46=-8.837442e-02
47=-9.103604e-01
48=-3.793429e-01
49=-1.409255e+00
50=6.320752e-04
54=-6.869003e-02
55=-6.098496e-01
57=-4.339670e-01
58=-2.955362e+00
59=8.049933e-01
60=3.982171e-01
61=-8.803581e-01
62=-1.406427e+00
63=-8.227484e-01
64=3.641112e-02
65=-1.565693e+00
66=-2.062130e-01
67=2.847217e-03
68=-1.159284e-01
69=1.487760e-01
74=-6.632242e-02
76=-3.365053e-01
77=-8.323750e-01
78=-1.115068e+00
79=1.143064e+00
80=-5.879060e-01
84=-3.509510e-01
85=-2.358962e-01
86=4.664887e-01
87=-3.454549e-01
88=1.737088e-02
95=-1.041530e+00
96=-2.220227e+00
97=2.501148e-02
98=-4.380879e-01
99=5.821245e-01
100=3.535445e-01
101=-1.630463e-01
102=-7.813639e-01
103=-1.313841e+00
104=-4.908032e-01
105=-5.564539e-01
106=-1.048144e+00
107=-3.688684e-01
112=-4.361219e-02
115=-1.388050e+00
116=1.566596e-02
119=9.732943e-01
120=1.174852e+00
122=-4.695762e-01
125=-9.614508e-01
134=-2.685184e-02
135=4.461047e-01
138=-3.196828e-01
139=1.175429e+00
152=-3.471468e-01
153=-9.584778e-01
154=-8.620738e-01
159=8.900885e-01
164=1.061748e-01
171=-9.792081e-01
172=-2.274287e+00
173=1.347020e-02
174=-2.003837e-01
175=-2.147531e-01
176=-1.038794e-01
177=2.754773e-01
178=-6.838831e-01
179=9.311095e-01
180=-1.824522e-01
181=-5.724875e-01
182=-1.073657e+00
183=-1.669701e-01
190=-1.611490e+00
191=-7.041108e-01
192=-2.116350e-01
199=1.354742e+00
200=-2.570939e-01
201=-3.808180e-01
209=-7.531502e-01
210=-1.162261e+00
211=-5.292792e-01
212=-1.209229e+00
213=-6.764323e-01
217=-5.049866e-01
218=1.433415e-02
219=5.208441e-01
221=6.086878e-02
224=5.740741e-02
228=-9.188864e-02
229=-1.621440e+00
230=-2.420767e+00
232=-1.503837e-01
233=-2.710581e-01
235=-2.497690e-01
236=-2.420605e-02
238=-4.103327e-01
239=2.197833e+00
240=-2.258463e-01
248=-3.712030e-01
258=6.148376e-01
259=1.099040e-01
266=8.536646e-02
299=2.103956e-01
319=1.434825e+00
339=1.112041e+00
342=-2.258867e-02
343=-3.311802e-01
344=-1.197033e-02
359=1.186393e+00
379=5.009268e-01
380=1.249115e-01
381=1.575769e-02
388=2.618446e-02
390=-1.486755e-02
393=8.305200e-02
399=1.249115e-01
400=1.575769e-02
407=2.618446e-02
409=-1.486755e-02
412=8.305200e-02
418=-1.758251e-03
419=4.886465e-01
422=-1.249479e-01
426=3.655352e-03
437=2.178110e-01
438=1.141959e-01
439=-6.588107e-02
440=8.709887e-02
441=1.217076e-01
442=-7.278415e-02
443=-1.499667e+00
444=-1.721718e-02
445=6.395365e-02
446=7.664248e-02
447=4.438544e-02
448=-1.620390e-03
449=-2.153715e-01
453=1.400084e-01
454=1.860009e-01
456=6.795475e-01
457=6.676503e-01
464=-1.464002e-01
466=-8.726272e-02
467=-6.997733e-02
476=2.970992e-01
477=-1.095156e-01
479=5.380611e-01
483=1.319529e-02
485=-1.631862e+00
486=-7.030849e-01
491=-2.897248e-02
492=-4.089921e-02
494=-4.224489e-02
496=3.545162e-01
497=8.318103e-01
498=-3.630149e-01
501=2.662979e-02
503=-4.411920e-03
504=3.387550e-02
505=-5.298121e-02
512=7.729306e-02
513=-5.616727e-02
514=-7.590132e-02
516=6.239424e-01
520=4.797594e-01
522=-5.133272e-02
523=3.639076e-01
524=-4.473898e-01
534=6.184937e-01
535=-7.688634e-03
536=4.321213e-01
537=9.538381e-03
556=5.680398e-01
572=-1.742193e-02
596=9.334065e-02
608=-4.955484e-02
610=-3.249381e-01
612=-1.223685e-02
613=1.089183e-05
616=6.141221e-01
618=-1.469733e-01
625=-5.026765e-03
636=9.630937e-01
646=-2.228698e-01
647=-1.192121e-01
650=-1.469568e-01
654=-2.785240e-01
655=3.413863e-02
656=8.186381e-01
676=5.961142e-01
685=-9.211033e-02
695=1.386587e+00
703=4.648355e-02
776=1.922905e+00
779=-2.269478e-02
780=-7.353019e-03
796=6.027535e-01
817=3.732248e-01
818=1.043766e-01
819=3.692821e-02
820=9.140680e-02
821=3.496070e-02
822=-1.376993e+00
823=-2.166322e+00
824=-1.796007e-01
825=2.967364e-02
826=6.683165e-02
827=8.423859e-02
828=-2.533726e-02
829=-1.791636e-02
830=1.271675e-01
833=5.444726e-02
834=1.891421e-02
835=-1.928130e-02
836=-1.589710e-02
837=2.778693e-02
838=8.442848e-03
839=-2.310355e-02
840=9.440699e-03
841=-2.589459e-02
844=1.512511e-03
846=-8.484149e-02
847=1.281980e-01
855=2.329979e-02
856=4.385091e-03
863=-1.254507e-04
874=1.249115e-01
875=1.575769e-02
882=2.618446e-02
884=-1.486755e-02
887=8.305200e-02
1254=1.211807e-01
1255=3.158866e-02
1256=9.423747e-02
1257=-1.315155e-03
1258=-8.975938e-02
1259=1.808596e-02
1260=-1.892100e-02
1261=-4.989912e-02
1262=-3.507894e-02
1263=8.131974e-02
1264=-1.178002e-01
1265=1.818092e-02
1266=-3.947279e-02
1268=2.536963e-01
1271=-1.378678e-01
1273=1.249115e-01
1274=1.575769e-02
1281=2.618446e-02
1283=-1.486755e-02
1286=8.305200e-02
1292=8.410724e-03
1293=-9.155198e-02
1294=2.711936e-02
1295=-1.720112e-01
1296=6.999159e-02
1297=6.941788e-02
1300=2.420823e-02
1301=6.587486e-02
1302=-2.475092e-04
1303=1.876225e-02
1311=-1.589710e-02
1312=2.778693e-02
1313=8.442848e-03
1314=-2.310355e-02
1315=9.440699e-03
1316=-2.589459e-02
1319=1.512511e-03
1321=-8.484149e-02
1322=1.281980e-01
1330=-2.103347e-03
1331=6.323304e-02
1349=8.410724e-03
1350=-9.155198e-02
1351=2.711936e-02
1352=-1.720112e-01
1353=6.999159e-02
1354=6.941788e-02
1357=2.420823e-02
1358=6.587486e-02
1359=-2.475092e-04
1360=1.876225e-02
1368=1.249115e-01
1369=1.575769e-02
1376=2.618446e-02
1378=-1.486755e-02
1381=8.305200e-02
1387=2.704601e-01
1388=-1.854660e-01
1395=8.830595e-03
1406=1.249115e-01
1407=1.575769e-02
1414=2.618446e-02
1416=-1.486755e-02
1419=8.305200e-02
1425=1.445972e-03
1426=8.921136e-02
1427=8.315111e-03
1428=5.947941e-02
1429=1.162315e-01
1430=-2.956293e-02
1432=6.492992e-02
1433=6.847997e-02
1434=4.337865e-02
1435=8.398418e-02
1436=9.964891e-06
1441=4.369031e-02
1442=-4.296033e-03
1443=-5.413186e-02
1444=2.704996e-01
1445=-4.667287e-01
1452=1.443053e-02
1453=1.111206e+00
1454=-7.164161e-01
1463=4.719733e-02
1464=5.351557e-02
1471=3.154547e-02
1482=1.239565e-01
1483=-6.211767e-02
1486=-6.851581e-02
1490=1.116267e-02
1491=1.698524e-01
1501=4.719733e-02
1502=5.351557e-02
1509=3.154547e-02
1520=1.249115e-01
1521=1.575769e-02
1528=2.618446e-02
1530=-1.486755e-02
1533=8.305200e-02
1900=1.472301e-01
1901=1.753213e-01
1902=-2.146480e-01
1903=3.811520e-02
1904=1.146828e-01
1905=-7.897745e-02
1907=2.047779e-01
1908=3.457966e-02
1909=1.109219e-01
1910=1.128710e-01
1911=-2.377840e-03
1912=-9.494508e-03
1913=-7.293997e-02
1916=-4.142719e-03
1917=3.264635e-02
1918=-2.857918e-02
1919=8.937089e-01
1920=2.269394e-01
1927=-5.534082e-01
1929=-1.082429e-01
1930=-1.822288e-01
1938=-1.620060e+00
1939=5.436319e-01
1940=-2.282220e-01
1941=-3.108520e-01
1942=2.769193e-01
1944=-1.897634e-01
1945=-6.512591e-01
1946=-1.822184e-02
1947=-1.117463e+00
1948=-1.373146e-01
1949=-9.353168e-02
1950=-9.976280e-03
1954=-6.262182e-02
1955=-1.394825e-01
1957=-1.625493e-01
1958=-6.230785e-01
1959=8.114747e-01
1960=4.438992e-01
1961=-7.119089e-01
1964=4.238954e-02
1965=-5.076808e-01
1966=-8.069547e-02
1967=9.421764e-03
1968=-1.428406e-01
1969=4.310540e-02
1974=-1.463518e-02
1975=1.187066e-01
1976=-1.808186e-01
1977=-6.804973e-01
1979=1.146457e+00
1980=-4.685517e-01
1983=2.429650e-02
1984=-2.913538e-01
1985=-6.578874e-02
1986=4.746816e-01
1987=-1.420021e-01
1995=-8.628308e-01
1996=-1.007179e+00
1997=2.323638e-01
1998=-3.681073e-01
1999=9.749427e-01
2000=-1.535492e-02
2002=-1.609925e-01
2003=-7.598437e-01
2004=-2.749223e-01
2005=-3.625364e-01
2016=4.309749e-02
2019=1.280535e+00
2039=2.300308e-01
2052=-5.366675e-02
2053=-3.828762e-01
2059=7.338653e-01
2071=-7.853384e-01
2072=-1.494481e+00
2073=-6.887185e-01
2074=-2.623748e-01
2075=-1.654069e-01
2076=2.920142e-03
2077=3.915098e-02
2078=-1.692883e-01
2079=8.992430e-01
2080=-6.426671e-02
2081=-4.276436e-01
2082=-2.053192e-01
2090=-6.781185e-02
2091=-2.454680e-01
2099=7.398899e-01
2100=-3.820578e-02
2101=-1.574291e-01
2109=-3.259453e-01
2110=-8.573387e-01
2112=-1.177509e-01
2113=-5.625195e-01
2116=9.344224e-06
2117=-4.054172e-01
2118=2.342141e-02
2119=4.501659e-01
2121=-2.375840e-03
2129=-3.691800e-01
2131=-1.556090e-01
2132=-1.286694e-01
2138=-2.929128e-01
2139=7.827570e-01
2148=-3.240120e-01
2158=6.223667e-01
2159=2.496530e-02
2166=6.250435e-02
2219=1.922898e+00
2239=9.146776e-01
2242=-1.780209e-02
2243=-1.607955e-01
2259=9.100021e-01
2284=2.274131e-01
2288=-6.551861e-01
2299=9.734126e-02
2300=3.038452e-01
2301=-1.410173e-01
2302=7.892831e-02
2303=2.800658e-01
2304=-2.198486e-01
2306=2.047182e-01
2307=1.763417e-01
2308=1.222292e-01
2309=1.978351e-01
2310=6.969165e-02
2311=2.278977e-03
2312=-1.366145e+00
2313=-1.268678e-01
2314=-2.119523e-01
2315=5.254106e-02
2316=2.586349e-01
2317=-3.522657e-02
2318=1.806891e-02
2319=-1.334642e-02
2320=-2.113822e-01
2321=-3.407560e-02
2322=-1.977496e-03
2327=6.119888e-02
2328=-3.223810e-05
2329=-7.571797e-03
2337=7.290181e-01
2338=-1.603372e-01
2339=5.945391e-01
2340=-2.890113e-05
2341=-4.043822e-02
2342=6.552973e-01
2344=-1.093297e-01
2345=-1.498924e-01
2346=5.633544e-02
2347=-1.679572e-01
2348=7.014931e-03
2353=-8.639013e-03
2354=3.955271e-01
2356=5.978197e-02
2357=9.770187e-02
2358=7.008000e-02
2359=8.049483e-03
2360=7.172842e-02
2361=5.737944e-02
2362=1.182202e-02
2363=1.597720e-01
2364=2.632129e-02
2365=4.584327e-02
2366=-3.947396e-01
2367=2.451611e-02
2370=3.622552e-01
2372=-1.363492e-01
2373=-1.007763e-01
2374=-2.019815e-02
2375=5.780574e-02
2376=1.207128e-01
2377=9.735202e-02
2378=-4.338507e-01
2379=-5.248878e-03
2380=1.367008e-01
2381=1.070810e-02
2382=2.169831e-01
2383=-1.460004e-02
2384=6.942730e-02
2385=-4.190773e-03
2386=8.966263e-02
2389=3.053314e-01
2391=4.633444e-03
2392=-9.195534e-02
2393=-1.591238e-02
2394=3.407209e-01
2395=7.336530e-02
2396=1.243673e-01
2397=-1.008504e-01
2398=-2.739015e-01
2399=1.541705e-01
2400=1.248672e-01
2401=-4.582199e-01
2402=-7.220331e-02
2403=1.105608e-01
2404=-5.241467e-03
2405=8.534609e-02
2408=8.771146e-02
2410=-8.052361e-03
2411=3.550022e-03
2412=-1.417286e-03
2413=1.249115e-01
2414=1.575769e-02
2421=2.618446e-02
2423=-1.486755e-02
2426=8.305200e-02
2432=4.298510e-02
2433=1.438915e-01
2434=6.045751e-02
2435=3.777695e-02
2436=1.774613e-02
2437=-2.964069e-02
2439=5.540769e-02
2440=3.165885e-02
2441=-7.188086e-02
2442=6.849583e-02
2443=5.043441e-02
2447=-2.901859e-01
2448=-3.597804e-01
2449=-9.439358e-02
2450=-1.503369e-02
2451=1.125061e-01
2452=1.337756e-01
2453=5.223087e-02
2454=7.750149e-02
2455=-1.095761e-02
2456=3.757697e-02
2457=1.148981e-01
2458=-9.639926e-02
2459=-3.409023e-04
2460=-1.113439e-03
2461=-6.471476e-03
2462=1.331208e-02
2466=-1.765058e+00
2467=-3.807408e-01
2468=-8.699492e-02
2469=-1.369763e-01
2470=1.522277e-02
2471=2.389330e-01
2472=-1.728728e-01
2473=1.085069e-01
2474=7.922106e-02
2475=-1.340809e+00
2477=5.906873e-02
2478=5.687021e-02
2479=9.255783e-04
2480=1.536886e-01
2481=-1.409928e-03
2487=6.954986e-02
2488=-9.165749e-02
2489=1.249115e-01
2490=1.575769e-02
2497=2.618446e-02
2499=-1.486755e-02
2502=8.305200e-02
2508=8.428690e-03
2509=-2.230015e-02
2510=4.084875e-02
2511=-8.057869e-02
2512=-2.567212e-04
2513=2.298172e-02
2516=-6.814194e-03
2517=4.929754e-02
2519=3.110106e-02
2527=1.249115e-01
2528=1.575769e-02
2535=2.618446e-02
2537=-1.486755e-02
2540=8.305200e-02
2546=1.249115e-01
2547=1.575769e-02
2554=2.618446e-02
2556=-1.486755e-02
2559=8.305200e-02
2565=6.586825e-02
2566=-6.511159e-04
2578=7.778039e-01
2584=1.249115e-01
2585=1.575769e-02
2592=2.618446e-02
2594=-1.486755e-02
2597=8.305200e-02
2603=-1.442410e-01
2604=-1.868618e-03
2605=1.308148e-01
2606=-3.249143e-01
2607=-3.774486e-02
2608=1.363408e-01
2609=-1.048471e+00
2610=-3.352388e-02
2611=-4.879741e-02
2612=2.920899e-02
2614=8.339639e-02
2620=-7.895698e-02
2622=-1.362450e-02
2623=8.964094e-02
2624=-1.954350e-01
2626=-7.205533e-03
2627=3.003238e-02
2628=-1.477045e-03
2629=-2.377368e-02
2630=6.493541e-02
2631=-1.929089e-04
2632=-1.777010e-01
2633=-4.340798e-02
2639=-1.241707e-05
2641=1.249115e-01
2642=1.575769e-02
2649=2.618446e-02
2651=-1.486755e-02
2654=8.305200e-02
2660=9.692475e-02
2661=8.607099e-02
2662=-2.974467e-02
2663=3.617291e-02
2664=7.076650e-02
2665=-8.306912e-03
2666=3.658603e-02
2667=1.102566e-02
2668=-6.399906e-03
2669=7.670400e-02
2670=9.237846e-03
2671=2.048927e-02
2675=-1.161815e-01
2676=-1.439956e-01
2677=-8.709210e-02
2678=-1.998554e-02
2679=1.448119e-01
2680=1.288498e-01
2681=4.508730e-02
2682=3.054639e-02
2683=4.013110e-02
2684=5.341596e-02
2686=4.174172e-02
2687=2.453724e-02
2688=5.440471e-02
2689=3.095569e-02
2690=-8.253233e-03
2691=-3.208914e-04
2695=-2.845099e-01
2696=2.778442e-01
2697=-8.698119e-02
2698=1.249115e-01
2699=1.575769e-02
2706=2.618446e-02
2708=-1.486755e-02
2711=8.305200e-02
3078=6.160205e-03
3079=-2.293037e-02
3080=4.370558e-02
3081=-9.880449e-02
3082=-1.415985e-05
3083=2.923689e-02
3086=-2.173318e-02
3087=5.437466e-02
3088=-3.344807e-04
3097=-1.061024e+00
3098=1.132041e-01
3099=-1.113378e-01
3100=-7.807694e-03
3101=-8.626326e-04
3102=7.187008e-02
3103=6.669667e-02
3104=-1.635933e-01
3105=4.844819e-02
3106=-1.839927e-03
3107=-1.128470e-01
3108=-5.516512e-04
3113=-5.721364e-02
3114=-1.418653e-02
3116=1.891043e+00
3117=-6.495477e-03
3135=1.078902e-02
3136=-2.135624e-02
3137=9.265667e-02
3138=-5.395583e-02
3139=4.241624e-02
3140=-5.583393e-03
3143=-2.079164e-02
3146=9.305645e-02
3154=8.253956e-03
3155=-8.367496e-02
3156=4.566275e-02
3157=-1.353798e-01
3158=4.976074e-02
3159=3.256155e-02
3162=1.192771e-02
3163=5.464528e-02
3164=-2.318853e-04
3165=-1.378985e-02
3173=1.921518e-01
3192=9.723571e-02
3193=8.384391e-02
3194=8.896507e-02
3195=3.557104e-02
3196=5.420287e-02
3197=6.006277e-02
3198=1.221994e-02
3199=1.146741e-01
3200=-3.892402e-03
3201=3.026885e-02
3202=1.189033e-01
3203=2.511832e-02
3204=-1.834194e+00
3206=-3.267200e+00
3208=-1.543716e-01
3209=-8.911805e-02
3210=-2.030469e-01
3211=1.772954e+00
3212=-1.034777e-01
3219=2.722162e-03
3230=1.466123e+00
3231=2.013822e-02
3234=-3.193948e-01
3238=1.251091e-02
3241=3.101455e-03
3250=1.868383e-01
3268=4.257549e-02
3269=1.543138e-02
3270=-8.311129e-04
3272=-4.485964e-03
3275=1.782653e-03
3276=-1.409019e-03
3279=-4.237565e-02
3287=2.498507e-01
3288=6.361665e-03
3290=2.699470e-01
3295=-2.450406e-03
3298=-7.661075e-04
3306=-1.008355e-01
3307=-1.682895e-02
3308=-7.363558e-02
3309=-2.304903e-02
3310=1.093570e-01
3313=6.588511e-02
3314=-1.120384e-02
3315=-2.368330e-04
3316=4.770872e-02
3317=-1.305810e-02
3323=-4.087243e-02
3325=3.884981e-01
3326=1.048801e+00
3329=2.509610e-01
3333=-9.879012e-03
3345=-1.511654e-02
3346=2.096619e-01
3348=5.958254e-01
3350=-5.961975e-02
3352=4.499270e-01
3356=-1.900656e-02
3365=4.213882e-02
3366=3.469123e-01
3367=-3.218099e-01
3370=1.005839e-01
3371=-1.094013e-01
3372=-1.127954e-01
3373=2.260703e-02
3374=-9.109072e-02
3375=1.044507e+00
3380=-1.094198e-02
3385=-1.840541e-02
3391=-5.927116e-03
3392=3.277335e-01
3403=-4.594914e-02
3405=2.809490e-01
3422=2.118611e-03
3425=5.309836e-01
3426=1.891041e-02
3431=-3.588520e-01
3441=-9.356434e-05
3445=3.911700e-01
3465=3.193436e-01
3479=6.510404e-02
3481=-4.070476e-04
3485=1.706625e-01
3486=-5.940505e-02
3505=7.561923e-01
