#mdl#2#8995
#rdr#61/19/0
1:*,
18:u:Tok-1 X=%x[ 0,0],
18:u:tok-1 X=%x[ 0,1],
18:u:tok-1LL=%X[-2,0],
18:u:tok-1 L=%X[-1,0],
18:u:tok-1 R=%X[ 1,0],
18:u:tok-1RR=%X[ 2,0],
27:u:tok-2 L=%X[-1,0]/%X[ 0,0],
27:u:tok-2 R=%X[ 0,0]/%X[ 1,0],
18:*:Fst-1 X=%x[ 0,2],
18:u:Fst-1 R=%x[ 1,2],
27:u:Fst-2 X=%x[ 0,2]/%x[ 0,4],
27:u:Fst-2 R=%x[ 1,2]/%x[ 1,4],
18:*:Lst-1 L=%x[-1,3],
18:u:Lst-1 X=%x[ 0,3],
27:u:Lst-2 L=%x[-1,3]/%x[-1,6],
27:u:Lst-2 X=%x[ 0,3]/%x[ 0,6],
18:u:Pre-1 X=%x[ 0,4],
18:u:Pre-2 X=%x[ 0,5],
18:u:Pre-2 R=%x[ 1,5],
18:u:Suf-1 X=%x[ 0,6],
18:u:Suf-2 L=%x[-1,7],
18:u:Suf-2 X=%x[ 0,7],
18:u:Cap-1 L=%x[-1,8],
18:u:Cap-1 X=%x[ 0,8],
18:u:Cap-1 R=%x[ 1,8],
27:u:Cap-2 L=%x[-1,8]/%x[ 0,8],
27:u:Cap-2 R=%x[ 0,8]/%x[ 1,8],
28:u:Cap-3 L=%x[-1,18]/%x[ 0,8],
18:*:Num-1 L=%x[-1,9],
18:*:Num-1 X=%x[ 0,9],
18:u:Num-1 R=%x[ 1,9],
28:u:Num-2 R=%x[ 0,9]/%x[ 0,17],
28:u:Num-2 R=%x[ 0,9]/%x[ 0,18],
19:u:Nme-1 X=%x[ 0,10],
19:u:Loc-1 X=%x[ 0,11],
19:u:Pub-1 X=%x[ 0,12],
19:u:Jnl-1 X=%x[ 0,13],
19:u:Key-1 L=%x[-1,14],
19:u:Key-1 X=%x[ 0,14],
19:u:Key-1 R=%x[ 1,14],
28:u:Key-2 X=%x[ 0,14]/%x[ 0,8],
29:u:Key-3 L=%x[-1,18]/%x[ 0,14],
29:u:Key-3 x=%x[ 0,14]/%x[ 0,18],
19:u:Pos-1 X=%x[ 0,15],
29:u:Pos-2 L=%x[-1,15]/%x[ 0,15],
29:u:Pos-2 R=%x[ 0,15]/%x[ 1,15],
19:u:Pct-1 L=%x[-1,16],
19:u:Pct-1 X=%x[ 0,16],
19:u:Pct-1 R=%x[ 1,16],
19:u:Brk-1 L=%x[-1,17],
19:u:Brk-1 X=%x[ 0,17],
19:u:Brk-1 R=%x[ 1,17],
19:*:Tmn-1 L=%x[-1,18],
19:u:Tmn-1 X=%x[ 0,18],
19:u:Tmn-1 R=%x[ 1,18],
29:u:Tmn-2 L=%x[-1,14]/%x[ 0,18],
29:u:Tmn-2 R=%x[ 0,18]/%x[ 1,14],
28:u:Tmn-3 X=%x[ 0,18]/%x[ 0,6],
28:u:Tmn-4 R=%x[ 0,18]/%x[ 1,8],
19:u:Id--1 X=%x[ 0,19],
#qrk#19
6:author,
5:title,
4:date,
9:publisher,
7:journal,
6:volume,
5:pages,
15:container-title,
8:location,
6:editor,
4:note,
3:url,
5:genre,
15:citation-number,
7:edition,
16:collection-title,
10:translator,
4:isbn,
3:doi,
#qrk#3222
1:*,
14:u:tok-1LL=_x-2,
14:u:tok-1 L=_x-1,
12:*:Fst-1 X=Lu,
12:u:Fst-1 R=Lu,
14:u:Fst-2 X=Lu/B,
14:u:Fst-2 R=Lu/D,
14:*:Lst-1 L=_x-1,
11:u:Lst-1 X=P,
19:u:Lst-2 L=_x-1/_x-1,
13:u:Lst-2 X=P/,,
11:u:Pre-1 X=B,
11:u:Suf-1 X=,,
14:u:Suf-2 L=_x-1,
14:u:Cap-1 L=_x-1,
17:u:Cap-1 X=initial,
16:u:Cap-1 R=single,
22:u:Cap-2 L=_x-1/initial,
24:u:Cap-2 R=initial/single,
22:u:Cap-3 L=_x-1/initial,
14:*:Num-1 L=_x-1,
14:*:Num-1 X=none,
15:u:Num-1 R=roman,
19:u:Num-2 R=none/none,
19:u:Num-2 R=none/weak,
11:u:Nme-1 X=T,
11:u:Loc-1 X=T,
11:u:Pub-1 X=F,
11:u:Jnl-1 X=F,
14:u:Key-1 L=_x-1,
14:u:Key-1 X=none,
14:u:Key-1 R=none,
22:u:Key-2 X=none/initial,
19:u:Key-3 L=_x-1/none,
19:u:Key-3 x=none/weak,
15:u:Pos-1 X=first,
20:u:Pos-2 L=_x-1/first,
17:u:Pos-2 R=first/1,
14:u:Pct-1 L=_x-1,
15:u:Pct-1 X=other,
16:u:Pct-1 R=period,
14:u:Brk-1 L=_x-1,
14:u:Brk-1 X=none,
14:u:Brk-1 R=none,
14:*:Tmn-1 L=_x-1,
14:u:Tmn-1 X=weak,
16:u:Tmn-1 R=strong,
19:u:Tmn-2 L=_x-1/weak,
19:u:Tmn-2 R=weak/none,
16:u:Tmn-3 X=weak/,,
21:u:Tmn-4 R=weak/single,
11:u:Id--1 X=F,
14:u:tok-1LL=_x-1,
14:u:Fst-2 X=Lu/D,
14:u:Fst-2 R=Lu/A,
11:*:Lst-1 L=P,
13:u:Lst-2 L=P/,,
13:u:Lst-2 X=P/.,
11:u:Pre-1 X=D,
11:u:Suf-1 X=.,
12:u:Suf-2 L=n,,
17:u:Cap-1 L=initial,
16:u:Cap-1 X=single,
24:u:Cap-2 L=initial/single,
21:u:Cap-3 L=weak/single,
14:*:Num-1 L=none,
15:*:Num-1 X=roman,
14:u:Num-1 R=none,
20:u:Num-2 R=roman/none,
11:u:Nme-1 X=F,
11:u:Loc-1 X=F,
14:u:Key-1 L=none,
21:u:Key-2 X=none/single,
19:u:Key-3 L=weak/none,
21:u:Key-3 x=none/strong,
11:u:Pos-1 X=1,
17:u:Pos-2 L=first/1,
13:u:Pos-2 R=1/2,
15:u:Pct-1 L=other,
16:u:Pct-1 X=period,
14:u:Brk-1 L=none,
14:*:Tmn-1 L=weak,
16:u:Tmn-1 X=strong,
21:u:Tmn-2 L=none/strong,
21:u:Tmn-2 R=strong/none,
18:u:Tmn-3 X=strong/.,
23:u:Tmn-4 R=strong/single,
11:u:tok-1 X=a,
14:u:Fst-2 X=Lu/A,
14:u:Fst-2 R=Lu/E,
13:u:Lst-2 L=P/.,
11:u:Pre-1 X=A,
16:u:Cap-1 L=single,
17:u:Cap-1 R=initial,
23:u:Cap-2 L=single/single,
24:u:Cap-2 R=single/initial,
23:u:Cap-3 L=strong/single,
15:*:Num-1 L=roman,
21:u:Num-2 R=none/strong,
21:u:Key-3 L=strong/none,
11:u:Pos-1 X=2,
13:u:Pos-2 L=1/2,
13:u:Pos-2 R=2/3,
16:u:Pct-1 L=period,
14:u:Pct-1 R=none,
16:*:Tmn-1 L=strong,
14:u:Tmn-1 R=none,
24:u:Tmn-4 R=strong/initial,
18:u:Tok-1 X=Economic,
18:u:tok-1 X=economic,
12:u:tok-1 L=a.,
13:u:tok-1RR=new,
14:u:Fst-2 X=Lu/E,
14:u:Fst-2 R=Lu/S,
12:u:Lst-1 X=Ll,
14:u:Lst-2 X=Ll/c,
11:u:Pre-1 X=E,
12:u:Pre-2 X=Ec,
12:u:Pre-2 R=St,
11:u:Suf-1 X=c,
12:u:Suf-2 X=ic,
24:u:Cap-2 L=single/initial,
25:u:Cap-2 R=initial/initial,
24:u:Cap-3 L=strong/initial,
11:u:Jnl-1 X=T,
19:u:Key-3 x=none/none,
11:u:Pos-1 X=3,
13:u:Pos-2 L=2/3,
13:u:Pos-2 R=3/4,
14:u:Pct-1 X=none,
15:u:Pct-1 R=colon,
14:u:Tmn-1 X=none,
18:u:Tmn-1 R=moderate,
19:u:Tmn-2 L=none/none,
19:u:Tmn-2 R=none/none,
16:u:Tmn-3 X=none/c,
22:u:Tmn-4 R=none/initial,
12:u:tok-1LL=a.,
18:u:tok-1 L=economic,
13:u:tok-1 R=new,
14:u:Fst-2 X=Lu/S,
14:u:Fst-2 R=Lu/N,
12:*:Lst-1 L=Ll,
14:u:Lst-2 L=Ll/c,
13:u:Lst-2 X=P/:,
11:u:Pre-1 X=S,
12:u:Pre-2 X=St,
12:u:Pre-2 R=Ne,
11:u:Suf-1 X=:,
12:u:Suf-2 L=ic,
25:u:Cap-2 L=initial/initial,
22:u:Cap-3 L=none/initial,
23:u:Num-2 R=none/moderate,
19:u:Key-3 L=none/none,
23:u:Key-3 x=none/moderate,
11:u:Pos-1 X=4,
13:u:Pos-2 L=3/4,
13:u:Pos-2 R=4/5,
14:u:Pct-1 L=none,
15:u:Pct-1 X=colon,
14:*:Tmn-1 L=none,
18:u:Tmn-1 X=moderate,
23:u:Tmn-2 L=none/moderate,
23:u:Tmn-2 R=moderate/none,
20:u:Tmn-3 X=moderate/:,
26:u:Tmn-4 R=moderate/initial,
11:u:Id--1 X=T,
13:u:Tok-1 X=New,
13:u:tok-1 X=new,
17:u:tok-1RR=(2020).,
14:u:Fst-2 X=Lu/N,
13:u:Lst-2 L=P/:,
14:u:Lst-2 X=Ll/w,
11:u:Pre-1 X=N,
12:u:Pre-2 X=Ne,
11:u:Suf-1 X=w,
12:u:Suf-2 L=t:,
12:u:Suf-2 X=ew,
26:u:Cap-3 L=moderate/initial,
11:u:Pub-1 X=T,
17:u:Key-1 R=edition,
23:u:Key-3 L=moderate/none,
11:u:Pos-1 X=5,
13:u:Pos-2 L=4/5,
13:u:Pos-2 R=5/5,
15:u:Pct-1 L=colon,
18:*:Tmn-1 L=moderate,
22:u:Tmn-2 R=none/edition,
16:u:Tmn-3 X=none/w,
13:u:tok-1 L=new,
12:u:Fst-1 R=Ps,
14:u:Fst-2 R=Ps/(,
14:u:Lst-2 L=Ll/w,
14:u:Lst-2 X=Ll/n,
12:u:Pre-2 X=Ed,
12:u:Pre-2 R=(2,
11:u:Suf-1 X=n,
12:u:Suf-2 L=ew,
12:u:Suf-2 X=on,
15:u:Cap-1 R=other,
23:u:Cap-2 R=initial/other,
14:u:Num-1 R=year,
13:u:Pos-2 L=5/5,
13:u:Pos-2 R=5/6,
16:u:Brk-1 R=parens,
16:u:Tmn-3 X=none/n,
20:u:Tmn-4 R=none/other,
20:u:tok-1RR=university,
12:*:Fst-1 X=Ps,
14:u:Fst-2 X=Ps/(,
14:u:Fst-2 R=Lu/P,
14:u:Lst-2 L=Ll/n,
11:u:Pre-1 X=(,
12:u:Pre-2 X=(2,
12:u:Pre-2 R=Pr,
12:u:Suf-2 L=on,
12:u:Suf-2 X=).,
15:u:Cap-1 X=other,
23:u:Cap-2 L=initial/other,
23:u:Cap-2 R=other/initial,
20:u:Cap-3 L=none/other,
14:*:Num-1 X=year,
21:u:Num-2 R=year/parens,
21:u:Num-2 R=year/strong,
20:u:Key-2 X=none/other,
11:u:Pos-1 X=6,
13:u:Pos-2 L=5/6,
13:u:Pos-2 R=6/7,
16:u:Brk-1 X=parens,
19:u:tok-1 X=princeton,
20:u:tok-1 R=university,
14:u:Fst-2 X=Lu/P,
14:u:Fst-2 R=Lu/U,
11:u:Pre-1 X=P,
12:u:Pre-2 X=Pr,
12:u:Pre-2 R=Un,
12:u:Suf-2 L=).,
15:u:Cap-1 L=other,
23:u:Cap-2 L=other/initial,
14:*:Num-1 L=year,
11:u:Pos-1 X=7,
13:u:Pos-2 L=6/7,
13:u:Pos-2 R=7/8,
16:u:Brk-1 L=parens,
20:u:tok-1 X=university,
14:u:tok-1RR=_x+1,
14:u:Fst-2 X=Lu/U,
14:u:Lst-2 X=Ll/y,
11:u:Pre-1 X=U,
12:u:Pre-2 X=Un,
11:u:Suf-1 X=y,
12:u:Suf-2 X=ty,
11:u:Pos-1 X=8,
13:u:Pos-2 L=7/8,
16:u:Pos-2 R=8/last,
16:u:Tmn-3 X=none/y,
15:u:tok-1 X=press,
20:u:tok-1 L=university,
14:u:tok-1 R=_x+1,
14:u:tok-1RR=_x+2,
14:u:Fst-1 R=_x+1,
19:u:Fst-2 R=_x+1/_x+1,
14:u:Lst-2 L=Ll/y,
14:u:Pre-2 R=_x+1,
12:u:Suf-2 L=ty,
12:u:Suf-2 X=s.,
14:u:Cap-1 R=_x+1,
22:u:Cap-2 R=initial/_x+1,
14:u:Num-1 R=_x+1,
14:u:Key-1 R=_x+1,
14:u:Pos-1 X=last,
16:u:Pos-2 L=8/last,
19:u:Pos-2 R=last/_x+1,
14:u:Pct-1 R=_x+1,
14:u:Brk-1 R=_x+1,
14:u:Tmn-1 R=_x+1,
21:u:Tmn-2 R=strong/_x+1,
21:u:Tmn-4 R=strong/_x+1,
19:u:tok-1RR=deterring,
12:u:Pre-2 X=Bl,
19:u:tok-1 R=deterring,
15:u:tok-1RR=cyber,
12:u:Pre-2 R=De,
13:u:Pos-2 R=1/1,
19:u:Tok-1 X=Deterring,
19:u:tok-1 X=deterring,
15:u:tok-1 R=cyber,
14:u:Fst-2 R=Lu/C,
14:u:Lst-2 X=Ll/g,
12:u:Pre-2 X=De,
12:u:Pre-2 R=Cy,
11:u:Suf-1 X=g,
12:u:Suf-2 X=ng,
13:u:Pos-2 L=1/1,
16:u:Tmn-3 X=none/g,
15:u:Tok-1 X=Cyber,
15:u:tok-1 X=cyber,
19:u:tok-1 L=deterring,
13:u:tok-1RR=the,
14:u:Fst-2 X=Lu/C,
14:u:Lst-2 L=Ll/g,
14:u:Lst-2 X=Ll/r,
11:u:Pre-1 X=C,
12:u:Pre-2 X=Cy,
12:u:Pre-2 R=Co,
11:u:Suf-1 X=r,
12:u:Suf-2 L=ng,
12:u:Suf-2 X=er,
16:u:Tmn-3 X=none/r,
19:u:tok-1LL=deterring,
15:u:tok-1 L=cyber,
13:u:tok-1 R=the,
14:u:Fst-2 R=Lu/T,
14:u:Lst-2 L=Ll/r,
12:u:Pre-2 X=Co,
12:u:Pre-2 R=Th,
12:u:Suf-2 L=er,
12:u:Suf-2 X=n:,
13:u:Tok-1 X=The,
13:u:tok-1 X=the,
15:u:tok-1LL=cyber,
14:u:Fst-2 X=Lu/T,
14:u:Lst-2 X=Ll/e,
11:u:Pre-1 X=T,
12:u:Pre-2 X=Th,
12:u:Pre-2 R=Ex,
11:u:Suf-1 X=e,
12:u:Suf-2 X=he,
13:u:Pos-2 R=4/4,
16:u:Tmn-3 X=none/e,
13:u:tok-1 L=the,
12:u:tok-1RR=of,
14:u:Lst-2 L=Ll/e,
14:u:Lst-2 X=Ll/d,
12:u:Pre-2 X=Ex,
11:u:Suf-1 X=d,
12:u:Suf-2 L=he,
12:u:Suf-2 X=ed,
13:u:Pos-2 L=4/4,
16:u:Tmn-3 X=none/d,
13:u:tok-1LL=the,
12:u:tok-1 R=of,
12:u:Fst-1 R=Ll,
14:u:Fst-2 R=Ll/o,
14:u:Lst-2 L=Ll/d,
14:u:Lst-2 X=Ll/m,
12:u:Pre-2 R=of,
11:u:Suf-1 X=m,
12:u:Suf-2 L=ed,
15:u:Cap-1 R=lower,
23:u:Cap-2 R=initial/lower,
16:u:Tmn-3 X=none/m,
20:u:Tmn-4 R=none/lower,
12:u:Tok-1 X=of,
12:u:tok-1 X=of,
12:*:Fst-1 X=Ll,
14:u:Fst-2 X=Ll/o,
14:u:Lst-2 L=Ll/m,
14:u:Lst-2 X=Ll/f,
11:u:Pre-1 X=o,
12:u:Pre-2 X=of,
12:u:Pre-2 R=At,
11:u:Suf-1 X=f,
12:u:Suf-2 X=of,
15:u:Cap-1 X=lower,
23:u:Cap-2 L=initial/lower,
23:u:Cap-2 R=lower/initial,
20:u:Cap-3 L=none/lower,
20:u:Key-2 X=none/lower,
13:u:Pos-2 R=6/6,
16:u:Tmn-3 X=none/f,
21:u:tok-1 X=attribution,
12:u:tok-1 L=of,
14:u:Lst-2 L=Ll/f,
12:u:Pre-2 X=At,
12:u:Pre-2 R=Su,
12:u:Suf-2 L=of,
12:u:Suf-2 X=n.,
15:u:Cap-1 L=lower,
23:u:Cap-2 L=lower/initial,
13:u:Pos-2 L=6/6,
12:u:tok-1LL=of,
22:u:tok-1 L=attribution.,
11:u:Fst-1 R=N,
13:u:Fst-2 R=N/6,
14:u:Lst-2 X=Ll/l,
12:u:Pre-2 X=Su,
11:u:Suf-1 X=l,
12:u:Suf-2 L=n.,
12:u:Suf-2 X=al,
16:u:Num-1 R=volume,
15:u:Pct-1 R=other,
23:u:Brk-1 R=closing-paren,
16:u:Tmn-3 X=none/l,
22:u:tok-1LL=attribution.,
11:*:Fst-1 X=N,
13:u:Fst-2 X=N/6,
13:u:Fst-2 R=N/1,
12:u:Lst-1 X=Pe,
14:u:Lst-2 L=Ll/l,
14:u:Lst-2 X=Pe/),
11:u:Pre-1 X=6,
11:u:Suf-1 X=),
12:u:Suf-2 L=al,
21:u:Cap-2 R=other/other,
16:*:Num-1 X=volume,
15:u:Num-1 R=range,
23:u:Num-2 R=volume/strong,
13:u:Pos-2 R=8/9,
16:u:Pct-1 R=hyphen,
23:u:Brk-1 X=closing-paren,
18:u:Tmn-3 X=strong/),
22:u:Tmn-4 R=strong/other,
13:u:Fst-2 X=N/1,
12:*:Lst-1 L=Pe,
11:u:Lst-1 X=N,
14:u:Lst-2 L=Pe/),
11:u:Pre-1 X=1,
21:u:Cap-2 L=other/other,
22:u:Cap-3 L=strong/other,
16:*:Num-1 L=volume,
15:*:Num-1 X=range,
20:u:Num-2 R=range/none,
11:u:Pos-1 X=9,
13:u:Pos-2 L=8/9,
16:u:Pos-2 R=9/last,
16:u:Pct-1 X=hyphen,
23:u:Brk-1 L=closing-paren,
11:*:Lst-1 L=N,
20:u:Cap-2 R=other/_x+1,
15:*:Num-1 L=range,
16:u:Pos-2 L=9/last,
16:u:Pct-1 L=hyphen,
17:u:tok-1RR=foreign,
14:u:Fst-2 R=Lu/M,
12:u:Pre-2 X=Br,
17:u:tok-1 R=foreign,
22:u:tok-1RR=intelligence,
14:u:Fst-2 X=Lu/M,
14:u:Fst-2 R=Lu/F,
11:u:Pre-1 X=M,
12:u:Pre-2 R=Fo,
17:u:tok-1 X=foreign,
12:u:tok-1 L=m.,
22:u:tok-1 R=intelligence,
30:u:tok-2 R=foreign/intelligence,
14:u:Fst-2 X=Lu/F,
14:u:Fst-2 R=Lu/I,
11:u:Pre-1 X=F,
12:u:Pre-2 X=Fo,
12:u:Pre-2 R=In,
12:u:Suf-2 L=M.,
22:u:Tok-1 X=Intelligence,
22:u:tok-1 X=intelligence,
12:u:tok-1LL=m.,
13:u:tok-1RR=and,
14:u:Fst-2 X=Lu/I,
14:u:Fst-2 R=Lu/H,
11:u:Pre-1 X=I,
12:u:Pre-2 X=In,
12:u:Pre-2 R=Ha,
12:u:Suf-2 X=ce,
17:u:tok-1LL=foreign,
22:u:tok-1 L=intelligence,
13:u:tok-1 R=and,
14:u:Fst-2 X=Lu/H,
14:u:Fst-2 R=Ll/a,
14:u:Lst-2 X=Ll/s,
11:u:Pre-1 X=H,
12:u:Pre-2 X=Ha,
12:u:Pre-2 R=an,
11:u:Suf-1 X=s,
12:u:Suf-2 L=ce,
12:u:Suf-2 X=rs,
13:u:Key-1 R=and,
18:u:Tmn-2 R=none/and,
16:u:Tmn-3 X=none/s,
13:u:Tok-1 X=and,
13:u:tok-1 X=and,
22:u:tok-1LL=intelligence,
14:u:Fst-2 X=Ll/a,
14:u:Lst-2 L=Ll/s,
11:u:Pre-1 X=a,
12:u:Pre-2 X=an,
12:u:Suf-2 L=rs,
12:u:Suf-2 X=nd,
13:u:Key-1 X=and,
19:u:Key-2 X=and/lower,
18:u:Key-3 L=none/and,
18:u:Key-3 x=and/none,
13:u:tok-1 L=and,
12:u:tok-1RR=in,
12:u:Suf-2 L=nd,
12:u:Suf-2 X=ir,
13:u:Key-1 L=and,
18:u:Tmn-2 L=and/none,
13:u:tok-1LL=and,
12:u:tok-1 R=in,
14:u:Fst-2 R=Ll/i,
12:u:Pre-2 R=in,
12:u:Suf-2 L=ir,
12:u:Key-1 R=in,
17:u:Tmn-2 R=none/in,
12:u:Tok-1 X=in,
12:u:tok-1 X=in,
16:u:tok-2 R=in/the,
14:u:Fst-2 X=Ll/i,
14:u:Fst-2 R=Ll/t,
11:u:Pre-1 X=i,
12:u:Pre-2 X=in,
12:u:Pre-2 R=th,
12:u:Suf-2 X=in,
21:u:Cap-2 R=lower/lower,
12:u:Key-1 X=in,
18:u:Key-2 X=in/lower,
17:u:Key-3 L=none/in,
17:u:Key-3 x=in/none,
13:u:Tok-1 X=the,
12:u:tok-1 L=in,
16:u:tok-2 L=in/the,
14:u:Fst-2 X=Ll/t,
11:u:Pre-1 X=t,
12:u:Pre-2 X=th,
12:u:Suf-2 L=in,
14:u:Cap-1 R=caps,
21:u:Cap-2 L=lower/lower,
20:u:Cap-2 R=lower/caps,
12:u:Key-1 L=in,
17:u:Tmn-2 L=in/none,
19:u:Tmn-4 R=none/caps,
12:u:tok-1LL=in,
12:u:Lst-1 X=Lu,
14:u:Cap-1 X=caps,
20:u:Cap-2 L=lower/caps,
22:u:Cap-2 R=caps/initial,
19:u:Cap-3 L=none/caps,
19:u:Key-2 X=none/caps,
12:*:Lst-1 L=Lu,
14:u:Lst-2 L=Lu/C,
14:u:Cap-1 L=caps,
22:u:Cap-2 L=caps/initial,
12:u:Suf-2 X=y.,
12:u:Suf-2 L=y.,
12:u:Suf-2 X=s,,
14:u:Tmn-1 R=weak,
14:u:Fst-2 R=Lu/L,
12:u:Suf-2 L=s,,
19:u:Tmn-2 L=none/weak,
14:u:Fst-2 X=Lu/L,
11:u:Pre-1 X=L,
12:u:Suf-2 L=.,,
12:u:tok-1 L=l.,
12:u:Pre-2 X=Ad,
12:u:Suf-2 L=L.,
13:u:Pos-2 R=2/2,
14:u:Fst-2 R=Lu/R,
13:u:Pos-2 L=2/2,
21:u:Tmn-4 R=none/single,
14:u:Fst-2 X=Lu/R,
11:u:Pre-1 X=R,
12:u:Pre-2 R=Cr,
13:u:Pos-2 R=3/3,
20:u:Tmn-2 L=and/strong,
12:u:tok-1 L=r.,
12:u:Pre-2 X=Cr,
12:u:Suf-2 L=R.,
13:u:Pos-2 L=3/3,
12:u:tok-1LL=r.,
16:u:tok-2 R=of/the,
16:u:tok-2 L=of/the,
13:u:Lst-2 X=P/?,
12:u:Pre-2 R=Ch,
11:u:Suf-1 X=?,
16:u:Tmn-3 X=weak/?,
22:u:Tmn-4 R=weak/initial,
17:u:Tok-1 X=Chinese,
17:u:tok-1 X=chinese,
13:u:Lst-2 L=P/?,
12:u:Pre-2 X=Ch,
12:u:Suf-2 X=se,
22:u:Cap-3 L=weak/initial,
17:u:tok-1 L=chinese,
12:u:Pre-2 R=Ru,
12:u:Suf-2 L=se,
13:u:Pos-2 R=7/7,
17:u:tok-1LL=chinese,
12:u:tok-1RR=on,
12:u:Pre-2 X=Ru,
12:u:Pre-2 R=Pe,
12:u:Suf-2 X=an,
13:u:Pos-2 L=7/7,
17:u:tok-1 L=russian,
12:u:tok-1 R=on,
25:u:tok-2 R=perspectives/on,
12:u:Pre-2 X=Pe,
12:u:Pre-2 R=on,
12:u:Suf-2 L=an,
12:u:Suf-2 X=es,
13:u:Pos-2 R=8/8,
12:u:Tok-1 X=on,
12:u:tok-1 X=on,
22:u:tok-1 L=perspectives,
17:u:tok-1RR=(2019).,
25:u:tok-2 L=perspectives/on,
12:u:Pre-2 X=on,
12:u:Suf-2 L=es,
13:u:Pos-2 L=8/8,
20:u:tok-1 X=cyberspace,
12:u:tok-1 L=on,
17:u:tok-1 R=(2019).,
12:u:Suf-2 X=e.,
14:u:tok-1 X=2019,
12:u:tok-1LL=on,
21:u:tok-1 L=cyberspace.,
12:u:Suf-2 L=e.,
12:u:Pre-2 X=Bu,
17:u:Pos-2 R=first/0,
11:u:Pos-1 X=0,
17:u:Pos-2 L=first/0,
13:u:Pos-2 R=0/1,
22:u:Tmn-4 R=strong/lower,
22:u:Cap-3 L=strong/lower,
13:u:Pos-2 L=0/1,
12:u:Pre-2 R=Na,
12:u:Pre-2 X=Na,
12:u:Suf-2 X=te,
14:u:Fst-2 R=Ll/e,
12:u:Suf-2 L=te,
23:u:tok-1RR=international,
14:u:Fst-2 X=Ll/e,
11:u:Pre-1 X=e,
12:u:Suf-2 X=ge,
23:u:tok-1 R=international,
23:u:tok-1 X=international,
18:u:tok-1RR=research,
13:u:tok-1 X=law,
23:u:tok-1 L=international,
18:u:tok-1 R=research,
28:u:tok-2 L=international/law.,
12:u:Pre-2 R=Re,
12:u:Suf-2 X=w.,
18:u:tok-1 X=research,
23:u:tok-1LL=international,
18:u:tok-1 R=handbook,
14:u:Lst-2 X=Ll/h,
12:u:Pre-2 X=Re,
11:u:Suf-1 X=h,
12:u:Suf-2 L=w.,
12:u:Suf-2 X=ch,
16:u:Tmn-3 X=none/h,
18:u:tok-1 X=handbook,
14:u:Lst-2 L=Ll/h,
14:u:Lst-2 X=Ll/k,
11:u:Suf-1 X=k,
12:u:Suf-2 L=ch,
12:u:Suf-2 X=ok,
16:u:Tmn-3 X=none/k,
18:u:tok-1 L=handbook,
13:u:tok-1RR=law,
14:u:Lst-2 L=Ll/k,
12:u:Suf-2 L=ok,
23:u:Tok-1 X=International,
18:u:tok-1LL=handbook,
13:u:tok-1 R=law,
27:u:tok-2 R=international/law,
12:u:Pre-2 R=La,
13:u:Tok-1 X=Law,
27:u:tok-2 L=international/law,
12:u:Pre-2 X=La,
12:u:Suf-2 X=aw,
13:u:tok-1 L=law,
12:u:Suf-2 L=aw,
13:u:tok-1LL=law,
18:u:Tmn-2 L=and/weak,
12:u:Pre-2 R=El,
12:u:Suf-2 L=e,,
12:u:Suf-2 X=rd,
12:u:Suf-2 L=rd,
12:u:Suf-2 X=ar,
13:u:Fst-2 R=N/2,
12:u:Pre-2 X=Pu,
12:u:Pre-2 R=23,
12:u:Suf-2 L=ar,
13:u:Pos-2 R=9/9,
13:u:Fst-2 X=N/2,
11:u:Pre-1 X=2,
13:u:Pos-2 L=9/9,
19:u:tok-1RR=strategic,
14:u:Fst-2 R=Lu/B,
19:u:tok-1 R=strategic,
12:u:Suf-2 X=B.,
19:u:Tok-1 X=Strategic,
19:u:tok-1 X=strategic,
12:u:Pre-2 X=Es,
19:u:tok-1LL=strategic,
17:u:tok-2 R=and/the,
15:u:tok-1 R=state,
17:u:tok-2 L=and/the,
15:u:Tok-1 X=State,
15:u:tok-1 X=state,
15:u:tok-1 L=state,
15:u:tok-1LL=state,
17:u:tok-1 R=harvard,
15:u:tok-1RR=press,
15:u:Tok-1 X=Press,
12:u:Suf-2 X=ss,
19:u:Tmn-2 R=none/_x+1,
19:u:Tmn-4 R=none/_x+1,
12:u:Pre-2 X=Ca,
12:u:Pre-2 R=Fi,
12:u:tok-1 L=e.,
12:u:tok-1RR=is,
12:u:Pre-2 X=Fi,
12:u:Pre-2 R=Al,
12:u:Suf-2 L=E.,
12:u:tok-1LL=e.,
12:u:Pre-2 X=Al,
12:u:Suf-2 X=ne,
14:u:Fst-2 R=Ll/c,
12:u:Suf-2 L=ne,
12:u:Suf-2 X=is,
12:u:tok-1 L=is,
14:u:Fst-2 X=Ll/c,
11:u:Pre-1 X=c,
12:u:Pre-2 R=Lo,
12:u:Suf-2 L=is,
12:u:Pre-2 X=Lo,
12:u:Pre-2 X=Le,
12:u:Suf-2 X=ns,
12:u:Suf-2 L=ns,
12:u:Pre-2 X=Fr,
12:u:Pre-2 X=Sy,
19:u:tok-2 R=the/cyber,
12:u:Suf-2 L=s.,
17:u:tok-1 R=defense,
16:u:tok-1RR=review,
19:u:tok-2 L=the/cyber,
17:u:Tok-1 X=Defense,
16:u:tok-1 R=review,
17:u:Key-1 R=journal,
22:u:Tmn-2 R=none/journal,
16:u:tok-1 X=review,
17:u:tok-1 L=defense,
13:u:Fst-2 R=N/7,
17:u:Key-1 X=journal,
25:u:Key-2 X=journal/initial,
22:u:Key-3 L=none/journal,
22:u:Key-3 x=journal/none,
17:u:tok-1LL=defense,
13:u:Fst-2 X=N/7,
11:u:Pre-1 X=7,
17:u:Key-1 L=journal,
24:u:Tmn-2 L=journal/strong,
14:u:Key-1 R=page,
12:u:Suf-2 X=S.,
14:u:Key-1 X=page,
21:u:Key-3 x=page/strong,
12:u:tok-1 L=s.,
12:u:Suf-2 L=S.,
14:u:Key-1 L=page,
14:u:Fst-2 R=Lu/W,
12:u:Pre-2 X=Ev,
12:u:Pre-2 R=Wa,
14:u:Fst-2 X=Lu/W,
14:u:Fst-2 R=Ll/w,
11:u:Pre-1 X=W,
12:u:Pre-2 X=Wa,
14:u:Fst-2 X=Ll/w,
14:u:Fst-2 R=Lu/G,
14:u:Lst-2 X=Ll/t,
11:u:Pre-1 X=w,
12:u:Pre-2 R=Gu,
11:u:Suf-1 X=t,
16:u:Tmn-3 X=none/t,
14:u:Fst-2 X=Lu/G,
14:u:Lst-2 L=Ll/t,
11:u:Pre-1 X=G,
12:u:Pre-2 X=Gu,
12:u:Suf-2 X=un,
12:u:Pre-2 X=Sm,
12:u:Suf-2 L=un,
12:u:Suf-2 X=e:,
16:u:Tok-1 X=Global,
16:u:tok-1 X=global,
12:u:Pre-2 X=Gl,
12:u:Suf-2 L=e:,
16:u:tok-1 L=global,
12:u:Suf-2 X=ly,
12:u:Pre-2 R=Po,
12:u:Suf-2 L=ly,
15:u:Tok-1 X=Power,
15:u:tok-1 X=power,
12:u:Pre-2 X=Po,
12:u:Pre-2 R=Tr,
15:u:tok-1 L=power,
12:u:Pre-2 X=Tr,
18:u:Tmn-2 R=weak/and,
20:u:Tmn-4 R=weak/lower,
15:u:tok-1LL=power,
20:u:Cap-3 L=weak/lower,
18:u:Key-3 L=weak/and,
18:u:tok-1RR=security,
12:u:Suf-2 X=t.,
18:u:tok-1 R=security,
32:u:tok-2 R=international/security,
12:u:Pre-2 R=Se,
12:u:Suf-2 L=t.,
18:u:Tok-1 X=Security,
18:u:tok-1 X=security,
32:u:tok-2 L=international/security,
12:u:Pre-2 X=Se,
18:u:tok-1 L=security,
13:u:Fst-2 X=N/4,
11:u:Pre-1 X=4,
18:u:tok-1LL=security,
14:u:tok-1 X=2023,
14:u:Fst-2 R=Lu/J,
20:u:tok-1RR=cyberspace,
14:u:Fst-2 X=Lu/J,
11:u:Pre-1 X=J,
12:u:tok-1 L=j.,
20:u:tok-1 R=cyberspace,
12:u:Suf-2 L=J.,
20:u:Tok-1 X=Cyberspace,
12:u:tok-1LL=j.,
20:u:tok-1 L=cyberspace,
12:u:Pre-2 R=Sp,
20:u:tok-1LL=cyberspace,
12:u:Pre-2 X=Sp,
14:u:Lst-2 X=Ll/a,
11:u:Suf-1 X=a,
16:u:Tmn-3 X=none/a,
14:u:Lst-2 L=Ll/a,
12:u:Suf-2 L=ia,
16:u:Num-1 R=triple,
12:u:Pre-2 R=21,
16:*:Num-1 X=triple,
21:u:Num-2 R=triple/none,
22:u:Tmn-2 L=journal/none,
17:u:tok-1 R=(2007).,
13:u:Lst-2 X=N/0,
11:u:Suf-1 X=0,
16:u:Tmn-3 X=none/0,
13:u:Lst-2 L=N/0,
12:u:Pre-2 X=Cu,
12:u:Tok-1 X=F.,
12:u:Suf-2 X=F.,
13:u:tok-1RR=for,
13:u:tok-1 R=for,
14:u:Fst-2 R=Ll/f,
12:u:Pre-2 R=fo,
13:u:Tok-1 X=for,
13:u:tok-1 X=for,
14:u:Fst-2 X=Ll/f,
11:u:Pre-1 X=f,
12:u:Pre-2 X=fo,
12:u:Suf-2 X=or,
13:u:tok-1 L=for,
12:u:Suf-2 L=or,
12:u:Suf-2 X=ve,
13:u:tok-1LL=for,
12:u:Suf-2 L=ve,
21:u:tok-1RR=information,
21:u:tok-1 R=information,
21:u:Tok-1 X=Information,
21:u:tok-1 X=information,
13:u:tok-1 X=age,
21:u:tok-1 L=information,
21:u:tok-1LL=information,
12:u:Pre-2 X=Da,
18:u:Tok-1 X=Internet,
12:u:Suf-2 X=et,
12:u:Pre-2 R=So,
12:u:Pre-2 X=So,
18:u:Tok-1 X=Critical,
18:u:tok-1 X=critical,
17:u:tok-1RR=studies,
12:u:Pre-2 R=As,
17:u:tok-1 R=studies,
12:u:Pre-2 X=As,
17:u:Tok-1 X=Studies,
17:u:tok-1 X=studies,
18:u:tok-1LL=critical,
13:u:Fst-2 R=N/3,
17:u:tok-1 L=studies,
13:u:Fst-2 X=N/3,
11:u:Pre-1 X=3,
12:u:Pre-2 R=27,
12:u:Suf-2 X=t,,
14:u:Lst-2 X=Ll/i,
12:u:Pre-2 X=Ro,
12:u:Pre-2 R=Li,
11:u:Suf-1 X=i,
16:u:Tmn-3 X=none/i,
14:u:Fst-2 R=Ll/v,
14:u:Lst-2 L=Ll/i,
12:u:Pre-2 X=Li,
17:u:tok-1 X=control,
12:u:Suf-2 X=re,
17:u:tok-1RR=journal,
12:u:Suf-2 L=re,
17:u:tok-1 R=journal,
12:u:Pre-2 R=Jo,
24:u:Tmn-2 R=strong/journal,
17:u:Tok-1 X=Journal,
17:u:tok-1 X=journal,
19:u:tok-1RR=democracy,
29:u:tok-2 L=cyberspace./journal,
20:u:tok-2 R=journal/of,
12:u:Pre-2 X=Jo,
24:u:Key-3 L=strong/journal,
21:u:tok-1LL=cyberspace.,
17:u:tok-1 L=journal,
19:u:tok-1 R=democracy,
15:u:tok-1RR=21(4),
20:u:tok-2 L=journal/of,
22:u:tok-2 R=of/democracy,
19:u:Tok-1 X=Democracy,
19:u:tok-1 X=democracy,
17:u:tok-1LL=journal,
15:u:tok-1 R=21(4),
15:u:tok-1RR=43-57,
22:u:tok-2 L=of/democracy,
25:u:tok-2 R=democracy/21(4),
12:u:Suf-2 X=cy,
12:u:Suf-2 L=cy,
12:u:Suf-2 L=r,,
12:u:tok-1 L=w.,
12:u:Pre-2 R=Sa,
12:u:Suf-2 L=W.,
12:u:Pre-2 X=Sa,
12:u:Pre-2 R=Pa,
19:u:tok-1RR=cambridge,
12:u:Pre-2 X=Pa,
12:u:Pre-2 R=(1,
12:u:Pre-2 R=Ca,
19:u:tok-1 X=cambridge,
12:u:Pre-2 X=Fa,
12:u:Pre-2 R=We,
12:u:Pre-2 X=We,
13:u:tok-1 R=how,
12:u:Pre-2 R=Ho,
13:u:Tok-1 X=How,
13:u:tok-1 X=how,
12:u:Pre-2 X=Ho,
12:u:Suf-2 X=ow,
12:u:Pre-2 R=Sh,
12:u:Suf-2 X=ks,
12:u:Pre-2 X=Sh,
12:u:Suf-2 L=ks,
12:u:Suf-2 X=pe,
13:u:Lst-2 X=N/9,
11:u:Suf-1 X=9,
16:u:Tmn-3 X=none/9,
16:u:Key-1 R=volume,
16:u:Key-1 X=volume,
16:u:Key-1 L=volume,
21:u:Tmn-2 L=volume/none,
21:u:tok-1 R=cyberspace:,
16:u:tok-1RR=policy,
16:u:tok-1 R=policy,
16:u:Tok-1 X=Policy,
16:u:tok-1 X=policy,
11:u:tok-1RR=a,
16:u:tok-1 L=policy,
11:u:tok-1 R=a,
15:u:tok-2 R=for/a,
11:u:Pre-2 R=a,
11:u:Tok-1 X=a,
16:u:tok-1LL=policy,
15:u:tok-2 L=for/a,
11:u:Pre-2 X=a,
11:u:Suf-2 X=a,
11:u:tok-1 L=a,
17:u:tok-1RR=council,
11:u:Suf-2 L=a,
11:u:tok-1LL=a,
17:u:tok-1 R=council,
17:u:Tok-1 X=Council,
17:u:tok-1 X=council,
19:u:tok-1 L=internet.,
20:u:tok-2 R=council/on,
12:u:Suf-2 X=il,
19:u:tok-1LL=internet.,
17:u:tok-1 L=council,
12:u:Suf-2 L=il,
17:u:tok-1LL=council,
14:u:Tok-1 X=Pope,
14:u:tok-1 X=pope,
20:u:tok-1 R=structural,
16:u:tok-1RR=causes,
17:u:tok-2 L=e./pope,
25:u:tok-2 R=pope/structural,
12:u:Pre-2 R=Wh,
12:u:Suf-2 X=s:,
12:u:Pre-2 X=Wh,
12:u:Suf-2 L=s:,
14:u:Fst-2 R=Lu/O,
14:u:Fst-2 X=Lu/O,
11:u:Pre-1 X=O,
20:u:Tok-1 X=Inevitable,
20:u:tok-1 X=inevitable,
12:u:Suf-2 X=le,
20:u:tok-1 L=inevitable,
12:u:Suf-2 L=le,
20:u:tok-1LL=inevitable,
19:u:Tmn-2 L=in/strong,
19:u:tok-1RR=quarterly,
12:u:Pre-2 R=11,
12:u:Pre-2 R=Hu,
14:u:Fst-2 R=Ll/b,
12:u:Pre-2 X=Hu,
12:u:Suf-2 X=ei,
14:u:Fst-2 X=Ll/b,
11:u:Pre-1 X=b,
12:u:Pre-2 X=fr,
14:u:Tok-1 X=from,
14:u:tok-1 X=from,
12:u:Pre-2 R=Go,
12:u:Suf-2 X=om,
14:u:tok-1 L=from,
12:u:Pre-2 X=Go,
12:u:Suf-2 L=om,
14:u:tok-1LL=from,
14:u:Fst-2 R=Ll/h,
12:u:Suf-2 X=th,
14:u:tok-1 L=with,
14:u:Fst-2 X=Ll/h,
11:u:Pre-1 X=h,
12:u:Suf-2 L=th,
14:u:Lst-2 X=Lu/S,
11:u:Suf-1 X=S,
20:u:Cap-2 R=caps/other,
16:u:Tmn-3 X=none/S,
14:u:Lst-2 L=Lu/S,
20:u:Cap-2 L=caps/other,
16:u:Tok-1 X=Nikkei,
16:u:tok-1 X=nikkei,
12:u:tok-1LL=os,
17:u:tok-1 L=(2024).,
15:u:tok-1 R=asia.,
24:u:tok-2 L=(2024)./nikkei,
22:u:tok-2 R=nikkei/asia.,
12:u:Suf-2 X=a.,
17:u:Tok-1 X=Lindsay,
17:u:tok-1 X=lindsay,
17:u:tok-1 R=weaving,
17:u:tok-1RR=tangled,
20:u:tok-2 L=r./lindsay,
25:u:tok-2 R=lindsay/weaving,
12:u:Suf-2 X=ay,
12:u:Pre-2 R=Ta,
12:u:Suf-2 L=ay,
12:u:Pre-2 X=Ta,
12:u:Pre-2 R=Of,
12:u:Pre-2 X=Of,
19:u:tok-1 X=deception,
18:u:tok-1LL=defense,,
26:u:tok-2 L=security/studies,
12:u:Pre-2 R=24,
14:u:tok-1 X=2015,
12:u:Pre-2 X=Gi,
19:u:tok-1 R=political,
12:u:Suf-2 X=my,
26:u:tok-2 R=of/international,
12:u:Suf-2 L=my,
26:u:tok-2 L=of/international,
15:u:tok-1 X=group,
12:u:Pre-2 X=Gr,
12:u:tok-1RR=as,
12:u:Pre-2 R=Cl,
14:u:Lst-2 X=Ll/b,
11:u:Suf-1 X=b,
16:u:Tmn-3 X=none/b,
14:u:Lst-2 L=Ll/b,
12:u:Suf-2 X=as,
12:u:Suf-2 X=r.,
12:u:Suf-2 L=r.,
12:u:Suf-2 X=i,,
12:u:Pre-2 R=Ma,
12:u:tok-1 L=c.,
12:u:Pre-2 X=Ma,
11:u:Pre-2 R=A,
12:u:Suf-2 L=C.,
11:u:Tok-1 X=A,
12:u:tok-1LL=c.,
14:u:Lst-2 X=Lu/A,
11:u:Pre-2 X=A,
11:u:Suf-1 X=A,
11:u:Suf-2 X=A,
16:u:Tmn-3 X=none/A,
14:u:Lst-2 L=Lu/A,
11:u:Suf-2 L=A,
15:u:tok-1 X=china,
12:u:Pre-2 R=Gr,
12:u:Suf-2 L=a.,
16:u:tok-1LL=china.,
12:u:Suf-2 X=at,
12:u:Suf-2 L=at,
14:u:Fst-2 R=Lu/K,
14:u:Fst-2 X=Lu/K,
14:u:Fst-2 R=Lu/Z,
11:u:Pre-1 X=K,
24:u:Tok-1 X=Zettl-Schabath,
23:u:tok-1 X=zettlschabath,
17:u:tok-1 R=secrecy,
27:u:tok-2 L=k./zettl-schabath,
32:u:tok-2 R=zettl-schabath/secrecy,
14:u:Fst-2 X=Lu/Z,
11:u:Pre-1 X=Z,
12:u:Pre-2 X=Ze,
12:u:Pre-2 R=No,
12:u:Pre-2 X=No,
12:u:Pre-2 X=Em,
12:u:Pre-2 R=US,
22:u:Cap-2 R=initial/caps,
12:u:tok-1 X=us,
12:u:Pre-2 X=US,
22:u:Cap-2 L=initial/caps,
15:u:Tok-1 X=China,
15:u:tok-1 L=china,
20:u:tok-1RR=governance,
12:u:Pre-2 R=19,
11:u:tok-1 X=p,
12:u:tok-1 L=p.,
12:u:Suf-2 L=P.,
12:u:Pre-2 R=cy,
14:u:Fst-2 R=Ll/p,
12:u:Pre-2 X=cy,
24:u:Tmn-4 R=moderate/lower,
14:u:Fst-2 X=Ll/p,
11:u:Pre-1 X=p,
24:u:Cap-3 L=moderate/lower,
12:u:Suf-2 X=ry,
18:u:tok-1 X=politics,
12:u:Suf-2 L=ry,
12:u:Suf-2 L=cs,
12:u:Suf-2 L=ss,
12:u:Pre-2 R=30,
12:u:Suf-2 X=d,,
12:u:Pre-2 R=Br,
12:u:Pre-2 R=Ar,
14:u:tok-1 X=arms,
12:u:Pre-2 X=Ar,
12:u:Pre-2 R=An,
12:u:Pre-2 X=An,
17:u:tok-1 R=affairs,
12:u:Pre-2 R=Af,
14:u:Fst-2 R=Lu/Y,
14:u:Fst-2 X=Lu/Y,
11:u:Pre-1 X=Y,
12:u:Pre-2 R=Di,
12:u:Pre-2 X=Di,
20:u:Cap-2 R=other/caps,
20:u:Cap-2 L=other/caps,
21:u:Cap-3 L=strong/caps,
14:u:Fst-2 R=Lu/V,
12:u:Pre-2 R=Ve,
14:u:Fst-2 X=Lu/V,
11:u:Pre-1 X=V,
12:u:Pre-2 X=Ve,
12:u:Suf-2 X=us,
12:u:Suf-2 L=us,
18:u:tok-1RR=warfare.,
18:u:Tok-1 X=Warfare.,
17:u:tok-1 X=warfare,
18:u:tok-1LL=warfare.,
15:u:tok-1 R=world,
12:u:Pre-2 R=Wo,
15:u:Tok-1 X=World,
12:u:Pre-2 X=Wo,
12:u:Suf-2 X=ld,
15:u:tok-1 L=world,
12:u:Suf-2 L=ld,
15:u:tok-1LL=world,
12:u:Pre-2 X=15,
12:u:tok-1RR=to,
12:u:tok-1 R=to,
12:u:Pre-2 R=to,
12:u:Suf-2 X=ls,
12:u:Tok-1 X=to,
12:u:tok-1 X=to,
14:u:Lst-2 X=Ll/o,
12:u:Pre-2 X=to,
11:u:Suf-1 X=o,
12:u:Suf-2 X=to,
16:u:Tmn-3 X=none/o,
12:u:tok-1 L=to,
14:u:Lst-2 L=Ll/o,
12:u:Suf-2 L=to,
12:u:tok-1LL=to,
12:u:tok-1 L=o.,
12:u:Suf-2 L=O.,
12:u:tok-1LL=o.,
12:u:Suf-2 X=ye,
12:u:Suf-2 L=ye,
13:u:Lst-2 X=N/5,
11:u:Suf-1 X=5,
16:u:Tmn-3 X=none/5,
13:u:Lst-2 L=N/5,
12:u:Pre-2 R=UK,
12:u:tok-1 X=uk,
12:u:Pre-2 X=UK,
16:u:Tok-1 X=London,
16:u:tok-1 X=london,
14:u:Tok-1 X=From,
12:u:Suf-2 L=r:,
18:u:tok-1RR=national,
18:u:tok-1 R=national,
19:u:tok-1RR=security.,
22:u:tok-2 R=and/national,
18:u:Tok-1 X=National,
18:u:tok-1 X=national,
19:u:tok-1 R=security.,
22:u:tok-2 L=and/national,
19:u:Tok-1 X=Security.,
18:u:tok-1 L=national,
18:u:tok-1LL=national,
19:u:tok-1 L=security.,
20:u:tok-1LL=university,
12:u:Suf-2 X=st,
12:u:Pre-2 R=Mi,
12:u:Suf-2 L=st,
12:u:Pre-2 X=Mi,
17:u:tok-1 L=(2018).,
17:u:tok-1LL=(2018).,
12:u:Pre-2 R=Te,
12:u:Pre-2 X=Te,
13:u:Lst-2 L=N/6,
12:u:Suf-2 X=y,,
12:u:Suf-2 L=y,,
19:u:tok-1 X=available,
14:u:Fst-2 R=Ll/r,
12:u:Pre-2 R=re,
14:u:Fst-2 X=Ll/r,
11:u:Pre-1 X=r,
12:u:Suf-2 X=ts,
12:u:Suf-2 L=ts,
16:u:tok-1 R=threat,
12:u:Suf-2 X=nt,
12:u:Suf-2 L=nt,
11:u:tok-1RR=&,
16:u:tok-1LL=threat,
11:u:Fst-1 R=P,
15:u:tok-1 X=BLANK,
11:*:Fst-1 X=P,
11:u:tok-1 L=&,
13:u:Lst-2 L=P/&,
11:u:Suf-2 L=&,
16:u:Num-1 R=double,
13:u:Pct-1 L=amp,
11:u:tok-1LL=&,
16:*:Num-1 X=double,
21:u:Num-2 R=double/none,
16:*:Num-1 L=double,
12:u:Pre-2 R=14,
19:u:Num-2 R=year/none,
12:u:Suf-2 L=11,
12:u:tok-1RR=by,
12:u:tok-1 R=by,
12:u:Pre-2 R=by,
12:u:Tok-1 X=by,
12:u:tok-1 X=by,
14:u:Fst-2 R=Ll/d,
12:u:Pre-2 X=by,
12:u:Pre-2 R=de,
12:u:Suf-2 X=by,
12:u:tok-1 L=by,
14:u:Fst-2 X=Ll/d,
11:u:Pre-1 X=d,
12:u:Pre-2 X=de,
12:u:Suf-2 L=by,
12:u:tok-1LL=by,
17:u:tok-1RR=digital,
20:u:tok-1RR=technology,
20:u:tok-1 R=technology,
20:u:tok-1 X=technology,
12:u:Suf-2 X=gy,
20:u:tok-1 L=technology,
12:u:Suf-2 L=gy,
22:u:tok-1RR=contemporary,
22:u:tok-1 R=contemporary,
22:u:tok-1 X=contemporary,
22:u:tok-1 L=contemporary,
13:u:Lst-2 X=N/3,
11:u:Suf-1 X=3,
16:u:Tmn-3 X=none/3,
12:u:Pre-2 X=Ko,
12:u:Pre-2 R=Is,
16:u:tok-1 X=issues,
12:u:Pre-2 X=Is,
13:u:Fst-2 R=N/5,
13:u:Fst-2 X=N/5,
11:u:Pre-1 X=5,
12:u:Pre-2 R=20,
12:u:Pre-2 X=20,
18:u:Num-2 R=all/none,
12:u:tok-1LL=g.,
20:u:tok-1 R=operations,
26:u:tok-2 R=cyber/operations,
12:u:Pre-2 R=Op,
20:u:Tok-1 X=Operations,
20:u:tok-1 X=operations,
26:u:tok-2 L=cyber/operations,
12:u:Pre-2 X=Op,
20:u:tok-1LL=operations,
14:u:tok-1RR=war.,
16:u:tok-1LL=during,
14:u:tok-1 R=war.,
14:u:Tok-1 X=War.,
13:u:tok-1 X=war,
12:u:Pre-2 R=Wi,
12:u:Pre-2 X=Wi,
12:u:Suf-2 X=ll,
12:u:Suf-2 L=ll,
12:u:Pre-2 R=Ac,
12:u:Pre-2 X=Ac,
14:u:tok-1 X=2016,
12:u:Suf-2 X=rt,
15:u:tok-1 X=force,
12:u:Pre-2 R=II,
12:u:Suf-2 L=rt,
19:u:Tmn-4 R=weak/caps,
12:u:Pre-2 X=II,
19:u:Cap-3 L=weak/caps,
14:u:Lst-2 X=Ll/x,
11:u:Suf-1 X=x,
16:u:Tmn-3 X=none/x,
12:u:Pre-2 X=Eu,
12:u:Pre-2 R=25,
13:u:Fst-2 R=N/9,
12:u:Pre-2 X=25,
13:u:Fst-2 X=N/9,
11:u:Pre-1 X=9,
12:u:Pre-2 X=Ot,
17:u:tok-1 X=lorents,
20:u:tok-1RR=definition,
12:u:Pre-2 X=Ja,
12:u:Pre-2 R=Ri,
19:u:Tmn-2 R=none/page,
19:u:Key-3 L=none/page,
14:u:tok-2 R=of/a,
14:u:tok-2 L=of/a,
24:u:tok-1 R=infrastructure,
20:u:tok-1RR=protection,
33:u:tok-2 R=critical/infrastructure,
24:u:Tok-1 X=Infrastructure,
24:u:tok-1 X=infrastructure,
20:u:tok-1 R=protection,
33:u:tok-2 L=critical/infrastructure,
35:u:tok-2 R=infrastructure/protection,
20:u:Tok-1 X=Protection,
20:u:tok-1 X=protection,
24:u:tok-1 L=infrastructure,
35:u:tok-2 L=infrastructure/protection,
12:u:Pre-2 X=Sc,
14:u:Fst-2 R=Ll/s,
12:u:Pre-2 R=se,
14:u:Fst-2 X=Ll/s,
11:u:Pre-1 X=s,
12:u:Pre-2 X=se,
17:u:tok-1RR=tallinn,
21:u:Cap-2 R=lower/other,
17:u:tok-1 R=tallinn,
16:u:tok-1RR=manual,
21:u:Cap-2 L=lower/other,
17:u:Tok-1 X=Tallinn,
17:u:tok-1 X=tallinn,
16:u:tok-1 R=manual,
24:u:tok-2 R=tallinn/manual,
12:u:Suf-2 X=nn,
16:u:Tok-1 X=Manual,
16:u:tok-1 X=manual,
17:u:tok-1 L=tallinn,
24:u:tok-2 L=tallinn/manual,
12:u:Suf-2 L=nn,
17:u:Num-1 R=numeric,
12:u:tok-1 X=20,
17:u:tok-1LL=tallinn,
16:u:tok-1 L=manual,
12:u:Suf-2 X=.0,
21:u:Cap-2 R=other/lower,
17:*:Num-1 X=numeric,
22:u:Num-2 R=numeric/none,
16:u:tok-2 R=on/the,
21:u:Cap-2 L=other/lower,
17:*:Num-1 L=numeric,
16:u:tok-2 L=on/the,
27:u:tok-2 R=the/international,
20:u:tok-1RR=applicable,
27:u:tok-2 L=the/international,
20:u:tok-1 R=applicable,
24:u:tok-2 R=law/applicable,
12:u:Pre-2 R=Ap,
20:u:Tok-1 X=Applicable,
20:u:tok-1 X=applicable,
24:u:tok-2 L=law/applicable,
23:u:tok-2 R=applicable/to,
12:u:Pre-2 X=Ap,
20:u:tok-1 L=applicable,
23:u:tok-2 L=applicable/to,
16:u:Tok-1 X=Press:,
24:u:Tmn-4 R=moderate/other,
12:u:Suf-2 X=6.,
24:u:Cap-3 L=moderate/other,
24:u:Num-2 R=numeric/strong,
21:u:tok-2 L=the/digital,
12:u:Tok-1 X=US,
14:u:Fst-2 R=Ll/m,
12:u:Suf-2 X=US,
20:u:Cap-2 R=caps/lower,
12:u:tok-1 L=us,
12:u:Suf-2 L=US,
20:u:Cap-2 L=caps/lower,
17:u:Num-1 R=ordinal,
20:u:Tmn-4 R=weak/other,
20:u:Cap-3 L=weak/other,
17:*:Num-1 X=ordinal,
22:u:Num-2 R=ordinal/none,
17:*:Num-1 L=ordinal,
12:u:Pre-2 R=Us,
12:u:Suf-2 X=gs,
12:u:Suf-2 L=gs,
22:u:Cap-2 R=other/single,
12:u:Suf-2 L=6.,
12:u:Pre-2 R=Fa,
19:u:Tmn-2 R=weak/_x+1,
19:u:Tmn-4 R=weak/_x+1,
12:u:Pre-2 R=On,
12:u:Tok-1 X=On,
12:u:Pre-2 X=On,
12:u:Suf-2 X=On,
12:u:Pre-2 R=tr,
12:u:Suf-2 L=On,
12:u:Pre-2 X=tr,
12:u:Pre-2 R=ht,
12:u:Pre-2 X=ht,
18:u:tok-1 X=activity,
12:u:Suf-2 X=.",
18:u:Tmn-3 X=strong/",
12:u:Pre-2 R=Si,
12:u:Pre-2 R=Ce,
14:u:Lst-2 X=Ll/p,
12:u:Pre-2 X=Ce,
11:u:Suf-1 X=p,
16:u:Tmn-3 X=none/p,
14:u:Lst-2 L=Ll/p,
16:u:Tok-1 X=Center,
16:u:tok-1 X=center,
16:u:tok-1 L=center,
22:u:tok-2 R=for/security,
16:u:tok-1LL=center,
22:u:tok-2 L=for/security,
13:u:Pos-2 R=1/3,
12:u:Suf-2 X=ms,
12:u:Suf-2 L=ms,
12:u:Suf-2 X=ke,
12:u:Pre-2 X=Va,
12:u:Suf-2 X=y:,
16:u:tok-1RR=oxford,
12:u:Pre-2 X=Ox,
16:u:tok-1 L=oxford,
16:u:tok-1LL=oxford,
12:u:Suf-2 X=0.,
12:u:Suf-2 L=0.,
12:u:Suf-2 X=en,
12:u:Suf-2 L=en,
12:u:Suf-2 X=1,,
14:u:Tok-1 X=Part,
14:u:tok-1 X=part,
31:u:Num-2 R=numeric/closing-paren,
12:u:Pre-2 X=Ye,
17:u:tok-1RR=context,
17:u:tok-1 R=context,
17:u:tok-1 X=context,
12:u:Suf-2 X=xt,
17:u:tok-1 L=context,
12:u:Suf-2 L=xt,
17:u:tok-1LL=context,
12:u:Suf-2 X=ds,
19:u:Tmn-2 L=_x-1/none,
17:u:tok-1RR=warfare,
17:u:tok-1 R=warfare,
17:u:tok-1LL=warfare,
18:u:tok-2 R=of/cyber,
18:u:tok-2 L=of/cyber,
15:u:tok-1 R=2018.,
14:u:tok-1RR=york,
15:u:tok-1 L=press,
14:u:tok-1 R=york,
18:u:tok-2 R=new/york,
12:u:Pre-2 R=Yo,
14:u:tok-1 X=york,
15:u:tok-1LL=press,
12:u:Pre-2 X=Yo,
12:u:Suf-2 X=rk,
11:u:tok-1RR=p,
20:u:Key-2 X=in/initial,
11:u:tok-1 R=p,
14:u:Lst-2 X=Lu/P,
12:u:Pre-2 R=(e,
11:u:Suf-1 X=P,
16:u:Key-1 R=editor,
21:u:Tmn-2 R=none/editor,
16:u:Tmn-3 X=none/P,
12:u:tok-1 X=ed,
14:u:Lst-2 L=Lu/P,
12:u:Suf-2 X=),,
20:u:Cap-2 R=lower/_x+1,
21:u:Num-2 R=none/parens,
16:u:Key-1 X=editor,
22:u:Key-2 X=editor/lower,
21:u:Key-3 L=none/editor,
23:u:Key-3 x=editor/strong,
18:u:Tmn-3 X=strong/,,
12:u:Suf-2 X=a:,
13:u:Pos-2 R=0/0,
16:u:tok-1 R=social,
16:u:tok-1LL=social,
12:u:Suf-2 X=co,
12:u:Pre-2 R=pr,
12:u:Pre-2 X=pr,
19:u:Tmn-2 R=strong/in,
19:u:Key-3 L=strong/in,
12:u:Suf-2 X=7.,
15:u:tok-1LL=2017.,
16:u:tok-1 X=howard,
14:u:Pos-2 R=9/10,
14:u:Lst-2 X=Lu/N,
11:u:Suf-1 X=N,
12:u:Pos-1 X=10,
14:u:Pos-2 L=9/10,
17:u:Pos-2 R=10/last,
16:u:Tmn-3 X=none/N,
13:u:tok-1 X=eds,
14:u:Lst-2 L=Lu/N,
17:u:Pos-2 L=10/last,
12:u:Pre-2 R=Be,
14:u:tok-1RR=u.s.,
12:u:Pre-2 X=Be,
14:u:tok-1 R=u.s.,
12:u:Pre-2 R=U.,
14:u:Tok-1 X=U.S.,
12:u:Pre-2 X=U.,
21:u:Cap-2 L=single/caps,
14:u:tok-1 L=u.s.,
14:u:tok-1LL=u.s.,
12:u:Pre-2 R=12,
12:u:tok-1 X=12,
18:u:tok-1 X=election,
19:u:tok-1RR=september,
18:u:tok-1 L=election,
19:u:tok-1 R=september,
14:u:Key-1 R=date,
21:u:Tmn-2 R=strong/date,
19:u:Tok-1 X=September,
19:u:tok-1 X=september,
18:u:tok-1LL=election,
12:u:Suf-2 L=g.,
14:u:Key-1 X=date,
22:u:Key-2 X=date/initial,
21:u:Key-3 L=strong/date,
19:u:Key-3 x=date/none,
19:u:tok-1 L=september,
14:u:Key-1 L=date,
21:u:Tmn-2 L=date/strong,
12:u:Suf-2 X=id,
12:u:Suf-2 L=id,
25:u:Tmn-4 R=moderate/single,
12:u:Suf-2 X=ct,
12:u:Suf-2 L=ct,
12:u:Pre-2 X=He,
12:u:Pre-2 X=Ti,
16:u:Num-1 R=single,
16:*:Num-1 X=single,
21:u:Num-2 R=single/none,
16:u:tok-1LL=times.,
15:u:tok-1RR=march,
16:*:Num-1 L=single,
15:u:tok-1 R=march,
15:u:Tok-1 X=March,
15:u:tok-1 X=march,
17:u:tok-1RR=october,
15:u:tok-1LL=march,
31:u:Num-2 R=numeric/opening-paren,
23:u:Brk-1 X=opening-paren,
19:u:Tmn-2 R=none/date,
17:u:Tok-1 X=October,
17:u:tok-1 X=october,
12:u:Pre-2 X=Oc,
19:u:Key-3 L=none/date,
23:u:Brk-1 L=opening-paren,
17:u:tok-1 L=october,
14:u:tok-1RR=last,
19:u:Num-2 R=year/weak,
19:u:Tmn-2 L=date/weak,
19:u:Tmn-2 L=date/none,
28:u:Num-2 R=none/closing-paren,
18:u:Key-1 L=accessed,
23:u:Tmn-2 L=accessed/none,
12:u:Suf-2 X=df,
12:u:tok-1 R=et,
12:u:tok-1 X=et,
12:u:tok-1 X=al,
12:u:tok-1LL=et,
12:u:Pre-2 R=at,
12:u:Tok-1 X=at,
12:u:tok-1 X=at,
12:u:Pre-2 X=at,
12:u:tok-1 L=at,
12:u:tok-1LL=at,
18:u:tok-1RR=november,
12:u:Suf-2 X=ps,
12:u:Suf-2 L=ps,
20:u:Tok-1 X=Washington,
20:u:tok-1 X=washington,
18:u:tok-1LL=november,
14:u:tok-1 R=post,
132:u:tok-1RR=https://www.washingtonpost.com/graphics/2017/business/russian-ads-facebook-targeting/?noredirect=on&utm_term=.eec213460940,
26:u:tok-2 L=2017./washington,
25:u:tok-2 R=washington/post,
132:u:tok-1 R=https://www.washingtonpost.com/graphics/2017/business/russian-ads-facebook-targeting/?noredirect=on&utm_term=.eec213460940,
137:u:tok-2 R=post/https://www.washingtonpost.com/graphics/2017/business/russian-ads-facebook-targeting/?noredirect=on&utm_term=.eec213460940,
11:u:tok-1RR=7,
27:u:tok-2 L=election/security,
11:u:tok-1 X=7,
15:u:tok-1RR=2016.,
15:u:tok-1 R=2016.,
15:u:tok-1 L=2016.,
19:u:Cap-2 L=_x-1/caps,
19:u:Cap-2 R=caps/caps,
19:u:Cap-3 L=_x-1/caps,
19:u:Cap-2 L=caps/caps,
12:u:Suf-2 X=NS,
12:u:Suf-2 L=NS,
21:u:Cap-2 R=caps/single,
17:u:tok-1 X=hopkins,
16:u:tok-1LL=daniel,
14:u:Lst-2 X=Lu/D,
12:u:Pre-2 X=AN,
11:u:Suf-1 X=D,
16:u:Tmn-3 X=none/D,
14:u:Lst-2 L=Lu/D,
12:u:Fst-1 R=Pd,
12:*:Fst-1 X=Pd,
21:u:Tmn-2 R=none/volume,
24:u:Key-2 X=volume/initial,
21:u:Key-3 L=none/volume,
21:u:Key-3 x=volume/none,
12:u:Pre-2 R=Sc,
13:u:tok-1RR=(1),
11:u:tok-1RR=9,
24:u:Num-2 R=numeric/parens,
15:u:tok-1RR=2019.,
15:u:tok-1 R=2019.,
12:u:Suf-2 X=9.,
14:u:Lst-2 X=Lu/Y,
11:u:Suf-1 X=Y,
16:u:Tmn-3 X=none/Y,
12:u:tok-1 X=10,
11:u:tok-1 X=4,
15:u:tok-1RR=2015.,
15:u:tok-1 R=2015.,
12:u:Suf-2 X=5.,
16:u:tok-1RR=annual,
16:u:tok-1 R=annual,
12:u:Pre-2 R=Cu,
17:u:tok-1RR=opinion,
12:u:Pre-2 R=Am,
17:u:tok-1 L=policy.,
12:u:Pre-2 X=Am,
12:u:Suf-2 X=ID,
15:u:tok-1LL=david,
15:u:tok-1RR=2011.,
15:u:tok-1 R=2011.,
12:u:Suf-2 X=1.,
12:u:Suf-2 L=Y,,
12:u:Pre-2 X=SI,
12:u:Pre-2 X=Vo,
12:u:tok-1RR=17,
12:u:tok-1 R=17,
12:u:Pre-2 R=17,
15:u:tok-1RR=2021.,
15:u:tok-1 R=2021.,
12:u:Suf-2 L=Is,
12:u:tok-1 X=an,
12:u:tok-1 L=an,
12:u:Pre-2 R=Au,
12:u:Pre-2 X=Au,
12:u:Suf-2 L=ig,
12:u:Pre-2 R=Bo,
12:u:Pre-2 X=Bo,
19:u:Cap-2 R=caps/_x+1,
12:u:Pre-2 R=VE,
12:u:Suf-2 X=me,
12:u:Suf-2 L=me,
12:u:Pre-2 R=Ir,
12:u:Pre-2 X=Ir,
14:u:Lst-2 X=Lu/T,
11:u:Suf-1 X=T,
16:u:Tmn-3 X=none/T,
16:u:tok-1 R=public,
16:u:Tok-1 X=Public,
16:u:tok-1 X=public,
16:u:tok-1 L=public,
16:u:tok-1LL=public,
12:u:Pre-2 R=Do,
12:u:Pre-2 X=Do,
15:u:tok-1 R=2009.,
17:u:tok-1 R=michael,
17:u:tok-1 X=michael,
17:u:tok-1 L=michael,
17:u:tok-1LL=michael,
14:u:tok-1LL=dana,
13:u:tok-1RR=its,
23:u:tok-1 R=cybersecurity,
23:u:Tok-1 X=Cybersecurity,
23:u:tok-1 L=cybersecurity,
23:u:tok-1LL=cybersecurity,
12:u:Pre-2 R=SA,
12:u:Pre-2 X=SA,
17:u:tok-1RR=issues.,
17:u:tok-1 R=issues.,
17:u:Tok-1 X=Issues.,
17:u:tok-1 L=issues.,
17:u:tok-1LL=issues.,
14:u:Lst-2 X=Lu/K,
11:u:Suf-1 X=K,
16:u:Tmn-3 X=none/K,
14:u:Lst-2 L=Lu/K,
12:u:Pre-2 R=Vi,
12:u:Pre-2 X=Vi,
17:u:Tok-1 X=against,
21:u:tok-1RR=proceedings,
21:u:tok-1 R=proceedings,
21:u:Key-1 R=proceedings,
21:u:Tok-1 X=Proceedings,
21:u:tok-1 X=proceedings,
24:u:tok-2 R=proceedings/of,
21:u:Key-1 X=proceedings,
29:u:Key-2 X=proceedings/initial,
28:u:Key-3 L=strong/proceedings,
26:u:Key-3 x=proceedings/none,
21:u:tok-1 L=proceedings,
24:u:tok-2 L=proceedings/of,
21:u:Key-1 L=proceedings,
26:u:Tmn-2 L=proceedings/none,
21:u:tok-1LL=proceedings,
17:u:tok-1 R=academy,
22:u:tok-2 L=the/national,
17:u:Tok-1 X=Academy,
17:u:tok-1 X=academy,
20:u:tok-2 R=academy/of,
17:u:tok-1 L=academy,
20:u:tok-2 L=academy/of,
21:u:tok-2 R=of/sciences,
18:u:Tok-1 X=Sciences,
18:u:tok-1 X=sciences,
17:u:tok-1LL=academy,
21:u:tok-2 L=of/sciences,
15:u:tok-2 R=a/new,
15:u:tok-2 L=a/new,
12:u:Pre-2 R=97,
12:u:Pre-2 X=97,
12:u:Suf-2 X=ur,
12:u:Suf-2 L=ur,
17:u:tok-1RR=chicago,
17:u:tok-1 R=chicago,
17:u:Tok-1 X=Chicago,
17:u:tok-1 X=chicago,
12:u:Suf-2 X=go,
15:u:Key-1 R=roman,
15:u:Key-1 X=roman,
20:u:Key-2 X=roman/caps,
13:u:Tok-1 X=Are,
13:u:tok-1 X=are,
13:u:tok-1 L=are,
13:u:tok-1LL=are,
12:u:Pre-2 X=be,
16:u:tok-1 X=thomas,
14:u:tok-1 L=rid,,
17:u:tok-1 X=attacks,
18:u:tok-1 L=attacks.,
15:u:tok-1RR=peter,
15:u:tok-1 R=peter,
19:u:tok-2 R=and/peter,
15:u:tok-1 X=peter,
19:u:tok-2 L=and/peter,
15:u:tok-1 L=peter,
15:u:tok-1 L=2011.,
12:u:Suf-2 L=1.,
15:u:tok-1 L=force,
15:u:tok-1LL=force,
15:u:tok-1RR=2020.,
15:u:tok-1 R=2020.,
15:u:Tok-1 X=2020.,
12:u:Suf-2 X=2.,
21:u:Tmn-2 L=_x-1/strong,
12:u:Pre-2 R=Bl,
21:u:tok-1 X=cyberattack,
12:u:Suf-2 X=ck,
12:u:Pre-2 R=Ju,
12:u:Suf-2 L=ck,
15:u:tok-1 L=since,
12:u:Pre-2 X=Ju,
21:u:Key-3 x=date/strong,
15:u:tok-1 R=2022.,
12:u:tok-1RR=or,
18:u:tok-1 X=conflict,
12:u:Tok-1 X=In,
19:u:tok-1 L=conflict.,
12:u:Suf-2 X=In,
19:u:tok-1LL=conflict.,
12:u:Suf-2 L=In,
20:u:tok-1RR=conference,
20:u:tok-1 X=conference,
26:u:Key-3 L=none/proceedings,
24:u:tok-2 R=cyber/conflict,
18:u:Tok-1 X=Conflict,
24:u:tok-2 L=cyber/conflict,
18:u:tok-1 L=conflict,
18:u:tok-1LL=conflict,
15:u:tok-1 L=2019.,
12:u:Pre-2 R=IE,
12:u:Suf-2 L=9.,
15:u:tok-1LL=2019.,
14:u:Lst-2 X=Lu/O,
11:u:Suf-1 X=O,
16:u:Tmn-3 X=none/O,
14:u:Lst-2 X=Lu/E,
11:u:Suf-1 X=E,
16:u:Tmn-3 X=none/E,
20:u:tok-1 R=deterrence,
20:u:Tok-1 X=Deterrence,
20:u:tok-1 X=deterrence,
20:u:tok-1 L=deterrence,
20:u:tok-1LL=deterrence,
12:u:Suf-2 X=4,,
22:u:Num-2 R=numeric/weak,
12:u:Suf-2 X=dy,
14:u:tok-1LL=case,
12:u:Suf-2 L=dy,
12:u:Pre-2 R=Ra,
12:u:Pre-2 X=Ra,
14:u:tok-1 R=ieee,
14:u:tok-1 L=ieee,
12:u:Suf-2 L=EE,
14:u:tok-1LL=ieee,
18:u:tok-1 R=december,
18:u:Tok-1 X=December,
18:u:tok-1 X=december,
18:u:tok-1 L=december,
12:u:Suf-2 L=3.,
15:u:tok-1RR=peace,
15:u:tok-1 X=peace,
16:u:tok-1 R=edited,
12:u:Pre-2 R=ed,
16:u:Tok-1 X=edited,
16:u:tok-1 X=edited,
19:u:tok-2 R=edited/by,
12:u:Pre-2 X=ed,
21:u:Key-3 x=editor/none,
12:u:Suf-2 X=tt,
24:u:Num-2 R=ordinal/strong,
17:u:tok-1 X=cavelty,
16:u:tok-1LL=myriam,
14:u:tok-1 L=dunn,
21:u:tok-1 L=attribution,
21:u:Num-2 R=volume/none,
13:u:Fst-2 X=P/',
11:u:Pre-1 X=',
14:u:Tok-1 X=Arms,
22:u:tok-1 L='responsible,
16:u:tok-1 R=export,
17:u:tok-1RR=norms.",
27:u:tok-2 L='responsible/arms,
21:u:tok-2 R=arms/export,
14:u:tok-1LL=arms,
13:u:Lst-2 L=P/",
12:u:Suf-2 L=.",
12:u:Pre-2 X=18,
12:u:Pre-2 R=En,
14:u:tok-1RR=nato,
12:u:Suf-2 X=09,
14:u:Tok-1 X=NATO,
14:u:tok-1 X=nato,
12:u:Pre-2 X=NA,
12:u:Suf-2 X=TO,
20:u:Tmn-2 R=none/roman,
20:u:Key-3 L=none/roman,
15:u:Key-1 L=roman,
15:u:Tok-1 X=Blame,
15:u:tok-1 X=blame,
16:u:tok-1 X=attack,
13:u:tok-1RR=may,
12:u:Suf-2 L=k.,
13:u:tok-1 R=may,
13:u:Tok-1 X=May,
13:u:tok-1 X=may,
15:u:tok-1RR=2023.,
13:u:tok-1 L=may,
15:u:tok-1 R=2023.,
14:u:tok-1RR=june,
14:u:tok-1 R=june,
14:u:Tok-1 X=June,
14:u:tok-1 X=june,
14:u:tok-1 L=june,
14:u:tok-1LL=june,
17:u:Tok-1 X=Experts,
17:u:tok-1 X=experts,
17:u:tok-1 L=experts,
12:u:Pre-2 R=Da,
17:u:tok-1LL=experts,
17:u:tok-1RR=january,
17:u:Tok-1 X=January,
17:u:tok-1 X=january,
23:u:tok-2 L=norms./center,
22:u:tok-2 R=new/american,
22:u:tok-2 L=new/american,
28:u:tok-2 R=american/security.,
16:u:tok-1 X=office,
12:u:tok-1 R=uk,
12:u:Tok-1 X=UK,
12:u:Suf-2 X=UK,
12:u:tok-1 L=uk,
12:u:Suf-2 L=UK,
16:u:tok-1LL=attack,
12:u:tok-1 R=7.,
22:u:tok-2 R=september/7.,
12:u:Pre-2 R=7.,
12:u:Tok-1 X=7.,
22:u:tok-2 L=september/7.,
12:u:Pre-2 X=7.,
12:u:tok-1RR=un,
12:u:tok-1 R=un,
16:u:tok-2 R=the/un,
12:u:Pre-2 R=UN,
12:u:Tok-1 X=UN,
12:u:tok-1 X=un,
16:u:tok-2 L=the/un,
12:u:Pre-2 X=UN,
12:u:Suf-2 X=UN,
12:u:tok-1 L=un,
12:u:Suf-2 L=UN,
12:u:tok-1LL=un,
16:u:tok-1 R=report,
16:u:Key-1 R=report,
21:u:Tmn-2 R=none/report,
16:u:Tok-1 X=Report,
16:u:tok-1 X=report,
14:u:Fst-2 R=Pd/-,
16:u:Key-1 X=report,
24:u:Key-2 X=report/initial,
21:u:Key-3 L=none/report,
21:u:Key-3 x=report/none,
16:u:tok-1 L=report,
14:u:Fst-2 X=Pd/-,
12:u:Lst-1 X=Pd,
11:u:Pre-1 X=-,
16:u:Key-1 L=report,
12:*:Lst-1 L=Pd,
14:u:Lst-2 L=Pd/-,
17:u:Tok-1 X=Review.,
12:u:Suf-2 X=a,,
12:u:Suf-2 L=a,,
15:u:tok-1 R=wired,
15:u:Tok-1 X=Wired,
15:u:tok-1 X=wired,
16:u:tok-1RR=august,
16:u:tok-1 R=august,
16:u:Tok-1 X=August,
16:u:tok-1 X=august,
16:u:tok-1 L=august,
16:u:tok-1LL=august,
15:u:tok-1 X=cases,
12:u:tok-1 X=15,
15:u:Tok-1 X=Group,
12:u:Suf-2 X=up,
22:u:tok-1LL=governmental,
23:u:tok-2 R=in/cyberspace,
23:u:tok-2 L=in/cyberspace,
23:u:tok-2 L=cyberspace/in,
21:u:tok-2 R=the/context,
17:u:Tok-1 X=Context,
21:u:tok-2 L=the/context,
20:u:tok-2 R=context/of,
20:u:tok-2 L=context/of,
18:u:tok-1 R=/76/135.,
21:u:tok-2 L=security./a,
20:u:tok-2 R=a//76/135.,
13:u:Fst-2 R=P//,
12:u:Pre-2 R=/7,
18:u:Tok-1 X=/76/135.,
15:u:tok-1 X=76135,
109:u:tok-1RR=https://documents.un.org/doc/undoc/gen/n21/075/86/pdf/n2107586.pdf/token=hqyalncdeoahsomiot&fe=true,
20:u:tok-2 L=a//76/135.,
24:u:tok-2 R=/76/135./2021.,
13:u:Fst-2 X=P//,
11:u:Pre-1 X=/,
12:u:Pre-2 X=/7,
12:u:Suf-2 X=ue,
12:u:Pre-2 R=Ge,
12:u:Pre-2 X=Ge,
22:u:tok-1 X=cyberattacks,
17:u:tok-1 X=reuters,
23:u:tok-1 L=cyberattacks.,
18:u:tok-1RR=february,
18:u:tok-1 R=february,
12:u:Pre-2 R=Fe,
18:u:Tok-1 X=February,
18:u:tok-1 X=february,
12:u:Pre-2 X=Fe,
12:u:Suf-2 X=SA,
14:u:tok-1LL=what,
18:u:tok-1LL=bulletin,
17:u:Tok-1 X=Office,,
12:u:Suf-2 X=ws,
12:u:Suf-2 L=ws,
20:u:Cap-2 L=_x-1/other,
20:u:Cap-3 L=_x-1/other,
18:u:tok-2 R=state/of,
18:u:tok-2 L=state/of,
12:u:Suf-2 X=b.,
12:u:tok-1 X=25,
12:u:Suf-2 L=O,,
19:u:Tok-1 X=Technical,
19:u:tok-1 X=technical,
19:u:tok-1 L=technical,
21:u:tok-1LL=washington,,
17:u:tok-1 L=iranian,
12:u:Suf-2 L=y?,
18:u:Tok-1 X=Atlantic,
18:u:tok-1 X=atlantic,
14:u:tok-1 L=hack,
14:u:tok-1LL=hack,
17:u:tok-1 R=reuters,
17:u:Tok-1 X=Reuters,
20:u:tok-1 L=stability?,
16:u:tok-1 R=brief,,
27:u:tok-2 L=stability?/policy,
23:u:tok-2 R=policy/brief,,
16:u:Tok-1 X=Brief,,
15:u:tok-1 X=brief,
20:u:tok-1LL=stability?,
12:u:tok-1 R=eu,
23:u:tok-2 L=policy/brief,,
19:u:tok-2 R=brief,/eu,
12:u:Suf-2 X=f,,
12:u:Suf-2 L=f,,
20:u:tok-1 R=government,
20:u:Tok-1 X=Government,
20:u:tok-1LL=government,
20:u:tok-1 L=ministers.,
30:u:tok-2 L=ministers./september,
20:u:tok-1LL=ministers.,
88:u:tok-1RR=https://www.kryeministria.al/en/newsroom/videomesazh-i-kryeministrit-edi-rama/,
18:u:tok-2 R=7./2022.,
29:u:tok-2 R=internet/governance,
16:u:tok-1 L=change,
16:u:tok-1LL=change,
16:u:tok-1RR=world.,
16:u:tok-1 R=world.,
16:u:Tok-1 X=World.,
12:u:Suf-2 X=d.,
16:u:tok-1 X=centre,
12:u:Suf-2 L=d.,
16:u:tok-1 L=centre,
17:u:tok-1 R=attacks,
23:u:tok-2 R=cyber/attacks,
17:u:Tok-1 X=Attacks,
23:u:tok-2 L=cyber/attacks,
17:u:tok-1 L=attacks,
17:u:tok-1LL=attacks,
15:u:Tok-1 X=Major,
15:u:tok-1 X=major,
21:u:Tmn-2 L=report/none,
16:u:tok-1RR=states,
16:u:tok-1 R=states,
16:u:Tok-1 X=States,
16:u:tok-1 X=states,
16:u:tok-1 L=states,
16:u:tok-1LL=states,
17:u:tok-1RR=georgia,
17:u:tok-1 X=georgia,
17:u:tok-1 X=options,
12:u:Suf-2 L=ue,
14:u:tok-1 X=emma,
12:u:Suf-2 X=l.,
18:u:tok-1 L=council.,
12:u:Suf-2 L=l.,
18:u:tok-1LL=council.,
17:u:tok-1RR=michael,
18:u:tok-1 X=cyberwar,
17:u:Tok-1 X=Working,
17:u:tok-1 X=working,
15:u:tok-1 R=group,
20:u:Key-2 X=page/lower,
13:u:tok-1 R=15,,
18:u:tok-2 R=june/15,,
13:u:Tok-1 X=15,,
18:u:tok-2 L=june/15,,
14:u:tok-1RR=blog,
21:u:tok-1 X=crowdstrike,
14:u:tok-1 X=blog,
12:u:Suf-2 X=og,
14:u:tok-1 L=blog,
12:u:Suf-2 L=og,
14:u:tok-1LL=blog,
18:u:tok-1 L=products,
22:u:tok-2 L=products/may,
17:u:tok-2 R=may/20,,
13:u:Tok-1 X=20,,
18:u:tok-1LL=products,
95:u:tok-1RR=http://www.av-comparatives.org/wp-content/uploads/2014/04/avc_datasending_2014_en.pdf,
17:u:tok-2 L=may/20,,
19:u:tok-2 R=20,/2014.,
12:u:Suf-2 X=0,,
12:u:Suf-2 L=0,,
20:u:Num-2 R=idnum/none,
13:u:Tok-1 X=APT,
13:u:tok-1 X=apt,
12:u:Pre-2 X=AP,
12:u:Suf-2 X=PT,
18:u:Tok-1 X=Activity,
12:u:Suf-2 X=3,,
13:u:Tok-1 X=Lab,
13:u:tok-1 X=lab,
19:u:tok-1 L=kaspersky,
23:u:tok-2 L=kaspersky/lab,
12:u:Suf-2 L=ky,
12:u:Suf-2 X=ab,
13:u:tok-1LL=lab,
17:u:tok-1RR=hacking,
17:u:tok-1 R=hacking,
15:u:tok-1RR=2013.,
15:u:tok-1 R=2013.,
15:u:tok-1 L=2013.,
17:u:tok-1RR=malware,
17:u:tok-1RR=project,
17:u:tok-1 R=project,
17:u:Tok-1 X=Project,
17:u:tok-1 X=project,
17:u:tok-1LL=project,
12:u:tok-1 X=14,
15:u:tok-1 L=2012.,
13:u:tok-1 R=12,,
13:u:Tok-1 X=12,,
14:u:Suf-2 L=—,,
12:u:Suf-2 X=9,,
12:u:Suf-2 L=9,,
12:u:Pre-2 X=Er,
19:u:tok-1RR=microsoft,
19:u:tok-1 R=microsoft,
19:u:Tok-1 X=Microsoft,
19:u:tok-1 X=microsoft,
12:u:Suf-2 X=ft,
19:u:tok-1 L=microsoft,
12:u:Suf-2 L=ft,
19:u:tok-1LL=microsoft,
21:u:tok-1 L=corporation,
23:u:tok-1RR=cyberattacks:,
23:u:tok-1 R=cyberattacks:,
23:u:Tok-1 X=Cyberattacks:,
23:u:tok-1 L=cyberattacks:,
23:u:tok-1LL=cyberattacks:,
20:u:tok-1 R=department,
25:u:tok-2 R=u.s./department,
12:u:Suf-2 L=sk,
14:u:tok-1LL=task,
12:u:tok-1RR=4,,
14:u:Tok-1 X=Just,
14:u:tok-1 X=just,
14:u:tok-1 L=just,
16:u:tok-1RR=united,
16:u:tok-1 R=united,
20:u:tok-2 R=the/united,
16:u:Tok-1 X=United,
16:u:tok-1 X=united,
20:u:tok-2 L=the/united,
16:u:tok-1 L=united,
23:u:tok-2 L=united/states,
16:u:tok-1LL=united,
14:u:tok-1RR=vol.,
14:u:tok-1 R=vol.,
13:u:tok-1 R=no.,
13:u:tok-1 R=11,,
13:u:tok-1RR=pp.,
13:u:Tok-1 X=11,,
12:u:tok-1 X=11,
13:u:tok-1 R=pp.,
12:u:Pre-2 R=pp,
12:u:tok-1 X=pp,
13:u:tok-1LL=no.,
12:u:Pre-2 X=pp,
12:u:Suf-2 X=p.,
12:u:Suf-2 L=p.,
28:u:tok-1 L=5-eyes—explainer,
32:u:tok-2 L=5-eyes—explainer/the,
18:u:tok-1 X=guardian,
28:u:tok-1LL=5-eyes—explainer,
12:u:tok-1RR=2,,
27:u:tok-2 R=guardian/december,
13:u:Lst-2 L=P/',
16:u:tok-1 L=summit,
12:u:Suf-2 L=it,
13:u:tok-1 R=16,,
13:u:Tok-1 X=NSA,
13:u:tok-1 X=nsa,
12:u:Pre-2 X=NS,
15:u:tok-1 X=korea,
12:u:Pre-2 R=Ba,
15:u:tok-1LL=heist,
12:u:Pre-2 R=Ye,
15:u:tok-1RR=issue,
12:u:Suf-2 X=el,
12:u:Suf-2 L=el,
12:u:tok-1 L=v.,
12:u:tok-1LL=v.,
12:u:Pre-2 X=Uk,
19:u:tok-1 L=ukrainian,
19:u:tok-1LL=ukrainian,
17:u:Tok-1 X=Network,
17:u:tok-1 X=network,
14:u:Tok-1 X=I/S:,
25:u:tok-2 L=cyberspace/i/s:,
16:u:tok-2 R=i/s:/a,
12:u:Pre-2 X=I/,
12:u:Suf-2 X=S:,
24:u:Num-2 R=roman/moderate,
17:u:tok-1RR=society,
17:u:tok-1 R=society,
12:u:Suf-2 X=8,,
12:u:Suf-2 L=8,,
17:u:Tok-1 X=Michael,
21:u:tok-1RR=reliability,
18:u:tok-2 L=world/in,
17:u:tok-2 R=in/ieee,
19:u:tok-1 R=institute,
19:u:Tok-1 X=Institute,
19:u:tok-1 X=institute,
12:u:tok-1 X=md,
14:u:tok-1 R=law,,
14:u:Tok-1 X=Law,,
18:u:tok-2 R=law,/and,
12:u:Suf-2 X=w,,
14:u:tok-1 L=law,,
18:u:tok-2 L=law,/and,
12:u:Suf-2 L=w,,
14:u:tok-1LL=law,,
17:u:tok-1RR=fireeye,
17:u:Tok-1 X=FireEye,
17:u:tok-1 X=fireeye,
17:u:tok-1 L=fireeye,
12:u:Suf-2 X=de,
12:u:Suf-2 L=de,
14:u:tok-1 R=grid,
14:u:Tok-1 X=Grid,
14:u:tok-1 X=grid,
14:u:tok-1 L=grid,
15:u:tok-1LL=daily,
15:u:tok-1 L=beast,
15:u:tok-1LL=beast,
12:u:Suf-2 X=ma,
12:u:Suf-2 L=ma,
12:u:tok-1 R=up,
12:u:tok-1 X=up,
12:u:tok-1 L=up,
12:u:tok-1LL=up,
22:u:tok-2 L=_x-1/tallinn,
23:u:tok-2 R=cyber/warfare,
17:u:Tok-1 X=Warfare,
23:u:tok-2 L=cyber/warfare,
23:u:tok-2 R=warfare/2013.,
13:u:tok-1LL=net,
12:u:Suf-2 L=op,
14:u:tok-1RR=july,
14:u:tok-1 R=july,
12:u:tok-1 X=13,
16:u:tok-1LL=geneva,
12:u:Pre-2 R=vi,
12:u:Pre-2 X=vi,
16:u:tok-1 R=action,
16:u:tok-1 L=action,
17:u:tok-1 X=lawfare,
12:u:Lst-1 X=Pf,
12:*:Lst-1 L=Pf,
16:u:Lst-2 L=Pf/’,
17:u:tok-1 R=nations,
17:u:tok-1RR=general,
24:u:tok-2 R=united/nations,
17:u:Tok-1 X=Nations,
17:u:tok-1 X=nations,
17:u:tok-1 R=general,
24:u:tok-2 L=united/nations,
25:u:tok-2 R=nations/general,
17:u:Tok-1 X=General,
17:u:tok-1 X=general,
17:u:tok-1 L=nations,
25:u:tok-2 L=nations/general,
18:u:tok-1 X=assembly,
17:u:tok-1LL=nations,
17:u:tok-1 L=general,
12:u:Pre-2 X=A/,
16:u:tok-1 R=office,
21:u:tok-2 L=of/national,
12:*:Fst-1 X=Pi,
12:u:tok-1 R=7,,
26:u:tok-2 L=security/october,
20:u:tok-2 R=october/7,,
12:u:Pre-2 R=7,,
15:u:tok-1 R=house,
21:u:tok-1LL=“analytic,
19:u:tok-1RR=directive,
32:u:tok-2 L=standards/intelligence,
19:u:tok-1 L=community,
19:u:tok-1LL=community,
17:u:tok-1 R=threats,
17:u:tok-1 X=threats,
17:u:tok-1 L=threats,
17:u:tok-1LL=threats,
15:u:tok-1LL=armed,
14:u:Tok-1 X=Wall,
14:u:tok-1 X=wall,
16:u:tok-1 R=street,
21:u:tok-2 R=wall/street,
18:u:tok-1RR=changing,
18:u:tok-1 R=changing,
22:u:tok-2 R=the/changing,
18:u:tok-1 X=changing,
22:u:tok-2 L=the/changing,
18:u:tok-1 L=changing,
18:u:tok-1LL=changing,
14:u:tok-1 R=(pp.,
12:u:Pre-2 R=(p,
28:u:Num-2 R=none/opening-paren,
15:u:tok-1 X=white,
12:u:Pre-2 X=(E,
24:u:Key-2 X=editor/initial,
13:u:tok-1 L=war,
13:u:tok-1LL=war,
16:u:Fst-2 R=Pi/‘,
16:u:Fst-2 X=Pi/‘,
13:u:Pre-1 X=‘,
12:u:Pre-2 R=vo,
14:u:tok-1 R=nos.,
14:u:Tok-1 X=nos.,
13:u:tok-1 X=nos,
14:u:Tok-1 X=War,,
15:u:tok-1RR=2018,,
13:u:tok-1RR=ny,,
14:u:tok-1RR=yale,
15:u:tok-1RR=2010,,
15:u:tok-1 R=2010,,
12:u:Pre-2 X=ar,
19:u:tok-1 L=structure,
22:u:Tmn-2 L=roman/strong,
20:u:tok-1RR=developing,
20:u:tok-1 R=developing,
20:u:Tok-1 X=Developing,
20:u:tok-1 X=developing,
20:u:tok-1 L=developing,
20:u:tok-1LL=developing,
15:u:tok-1 L=2019,,
13:u:tok-1RR=air,
22:u:tok-1 R=humanitarian,
36:u:tok-2 R=international/humanitarian,
22:u:Tok-1 X=Humanitarian,
22:u:tok-1 X=humanitarian,
36:u:tok-2 L=international/humanitarian,
22:u:tok-1 L=humanitarian,
22:u:tok-1LL=humanitarian,
18:u:tok-1 R=policies,
32:u:tok-2 R=cybersecurity/policies,
18:u:Tok-1 X=Policies,
18:u:tok-1 X=policies,
32:u:tok-2 L=cybersecurity/policies,
22:u:tok-2 R=policies/and,
18:u:tok-1 L=policies,
22:u:tok-2 L=policies/and,
24:u:tok-2 R=and/strategies,
18:u:tok-1LL=policies,
22:u:tok-1RR=cyberwarfare,
24:u:tok-2 L=and/strategies,
24:u:tok-2 R=strategies/for,
22:u:tok-1 R=cyberwarfare,
24:u:tok-2 L=strategies/for,
26:u:tok-2 R=for/cyberwarfare,
22:u:Tok-1 X=Cyberwarfare,
22:u:tok-1 X=cyberwarfare,
26:u:tok-2 L=for/cyberwarfare,
20:u:tok-1 X=prevention,
22:u:tok-1 L=cyberwarfare,
12:u:Suf-2 X=PA,
12:u:Suf-2 L=PA,
24:u:tok-2 R=cyberspace/and,
24:u:tok-2 L=cyberspace/and,
15:u:tok-1LL=legal,
18:u:tok-1 X=harknett,
12:u:Pre-2 R=ha,
12:u:Pre-2 X=ha,
16:u:tok-1 L=(2017),
12:u:Suf-2 L=7),
15:u:tok-1 X=green,
21:u:tok-2 R=threats/and,
21:u:tok-2 L=threats/and,
15:u:tok-1RR=court,
15:u:tok-1 R=court,
15:u:tok-1 X=court,
18:u:tok-2 R=court/of,
15:u:tok-1 L=court,
18:u:tok-2 L=court/of,
21:u:tok-1 R=comparative,
21:u:Tok-1 X=Comparative,
21:u:tok-1 X=comparative,
19:u:tok-2 L=_x-1/nato,
24:u:tok-2 R=nato/statement,
15:u:tok-1RR=house,
25:u:tok-2 L=assessment./the,
19:u:tok-2 R=the/white,
15:u:Tok-1 X=White,
19:u:tok-2 L=the/white,
21:u:tok-2 R=white/house,
21:u:tok-2 L=white/house,
17:u:tok-2 R=house/p,
11:u:Pre-2 R=p,
15:u:tok-1 X=small,
15:u:tok-1 L=small,
15:u:tok-1LL=small,
18:u:Tok-1 X=Estonia.,
12:u:tok-1RR=14,
17:u:tok-2 R=the/new,
21:u:tok-1RR=deterrence:,
12:u:Suf-2 L=k?,
21:u:tok-1 R=deterrence:,
14:u:Fst-2 R=Ll/g,
14:u:Fst-2 X=Ll/g,
11:u:Pre-1 X=g,
12:u:Pre-2 X=go,
14:u:Fst-2 R=Ps/[,
14:u:Fst-2 X=Ps/[,
14:u:Lst-2 X=Pe/],
11:u:Pre-1 X=[,
11:u:Suf-1 X=],
18:u:Tmn-3 X=strong/],
16:u:tok-1 L=london,
16:u:tok-1LL=london,
12:u:tok-1LL=aj,
12:u:tok-1RR=23,
12:u:tok-1 R=23,
16:u:tok-1 L=vicens,
16:u:tok-1 R=say”,
80:u:tok-1RR=https://cyberscoop.com/iran-government-hack-leak-documents-hacktivist/,
24:u:tok-2 L=vicens/experts,
24:u:tok-2 R=experts/say”,
15:u:Tok-1 X=Farsi,
15:u:tok-1 X=farsi,
22:u:tok-1LL=abbreviation,
15:u:tok-1 R=vevak,
20:u:tok-1RR=(vezarat-e,
18:u:tok-2 L=in/farsi,
21:u:tok-2 R=farsi/vevak,
12:u:Suf-2 X=si,
20:u:tok-1RR=translated,
20:u:tok-1 R=translated,
20:u:Key-1 R=translator,
20:u:Tok-1 X=translated,
20:u:tok-1 X=translated,
20:u:Key-1 X=translator,
26:u:Key-2 X=translator/lower,
25:u:Key-3 x=translator/none,
20:u:tok-1 L=translated,
20:u:Key-1 L=translator,
25:u:Tmn-2 L=translator/none,
20:u:tok-1LL=translated,
15:u:tok-1 R=space,
15:u:tok-1LL=space,
26:u:tok-1RR=ghyamsarnegouni,,
15:u:tok-1RR=april,
15:u:tok-1 R=april,
15:u:Tok-1 X=April,
15:u:tok-1 X=april,
15:u:tok-1 L=april,
15:u:tok-1RR=corps,
15:u:tok-1 R=corps,
15:u:Tok-1 X=Corps,
15:u:tok-1 X=corps,
17:u:tok-2 R=and/new,
18:u:tok-1LL=cultures,
18:u:tok-1 L=studies.,
18:u:tok-1LL=studies.,
14:u:Tok-1 X=SIPA,
14:u:tok-1 X=sipa,
17:u:tok-1 L=command,
18:u:tok-1 R=capstone,
22:u:tok-2 L=command/sipa,
23:u:tok-2 R=sipa/capstone,
18:u:Tok-1 X=Capstone,
18:u:tok-1 X=capstone,
17:u:tok-1LL=command,
14:u:tok-1 L=sipa,
23:u:tok-2 L=sipa/capstone,
27:u:tok-2 R=capstone/workshop,
18:u:tok-1 X=workshop,
14:u:tok-1LL=sipa,
18:u:tok-1 L=capstone,
27:u:tok-2 L=capstone/workshop,
22:u:tok-2 R=workshop/may,
18:u:tok-1 L=workshop,
18:u:tok-1LL=workshop,
16:u:Tok-1 X=Marine,
16:u:tok-1 X=marine,
20:u:tok-1LL=disruptive,
24:u:tok-1RR=university’s,
23:u:tok-2 L=change/marine,
22:u:tok-2 R=marine/corps,
16:u:tok-1 L=marine,
24:u:tok-1 R=university’s,
16:u:tok-1RR=middle,
22:u:tok-2 L=marine/corps,
30:u:tok-2 R=corps/university’s,
16:u:tok-1 R=middle,
19:u:Tok-1 X=Theohary,,
18:u:tok-1 X=theohary,
12:u:tok-1LL=73,
19:u:tok-1 L=catherine,
29:u:tok-2 L=catherine/theohary,,
27:u:tok-2 R=theohary,/iranian,
16:u:tok-1 R=insikt,
16:u:Tok-1 X=Insikt,
16:u:tok-1 X=insikt,
22:u:tok-2 R=insikt/group,
12:u:Suf-2 X=kt,
16:u:tok-1 L=insikt,
22:u:tok-2 L=insikt/group,
12:u:Suf-2 L=kt,
12:u:tok-1 R=27,
16:u:Tok-1 X=Tehran,
16:u:tok-1 X=tehran,
12:u:tok-1 R=24,
16:u:Tok-1 X=Cyware,
16:u:tok-1 X=cyware,
13:u:tok-1LL=aka,
16:u:tok-1 L=oilrig,
12:u:tok-1RR=19,
23:u:tok-2 L=oilrig/cyware,
23:u:tok-2 R=cyware/social,
12:u:tok-1 R=19,
26:u:tok-2 L=structure/insikt,
17:u:tok-1RR=(2009).,
14:u:tok-1 R=rule,
14:u:tok-1 X=rule,
14:u:tok-1 L=rule,
19:u:tok-2 L=rule/book,
17:u:tok-2 R=book/on,
14:u:tok-1LL=rule,
14:u:tok-1 L=book,
16:u:tok-1RR=shelf?,
17:u:tok-2 L=book/on,
14:u:tok-1LL=book,
16:u:tok-1 R=shelf?,
20:u:tok-2 R=the/shelf?,
15:u:tok-1 X=shelf,
20:u:tok-2 L=the/shelf?,
24:u:tok-2 R=shelf?/tallinn,
12:u:Suf-2 X=f?,
28:u:Num-2 R=year/opening-paren,
19:u:tok-1RR=retrieved,
26:u:Key-2 X=accessed/initial,
23:u:Key-3 x=accessed/none,
15:u:Tok-1 X=Court,
15:u:tok-1RR=paper,
15:u:tok-1 R=paper,
15:u:Tok-1 X=Paper,
15:u:tok-1 X=paper,
16:u:tok-1LL=commit,
19:u:tok-1 L=genocide.,
25:u:tok-2 L=genocide./paper,
18:u:tok-2 R=paper/24,
15:u:tok-1 L=paper,
15:u:tok-1LL=paper,
19:u:tok-2 R=from/_x+1,
23:u:Tmn-2 R=strong/editor,
12:u:Pre-2 X=Av,
29:u:tok-2 R=bulletin/conference,
29:u:tok-2 L=bulletin/conference,
18:u:tok-2 R=and/u.s.,
23:u:tok-1RR=communication,
23:u:tok-1 R=communication,
20:u:tok-2 R=war./2011.,
15:u:Tok-1 X=Peter,
14:u:tok-1RR=eric,
16:u:tok-1 L=david.,
16:u:Key-1 R=series,
21:u:Tmn-2 R=none/series,
12:u:Pre-2 R=57,
17:u:tok-1LL=disable,
17:u:tok-1LL=ccdcoe,,
16:u:tok-1 L=tallin,
25:u:tok-2 L=tallin/estonia.,
23:u:tok-2 R=estonia./_x+1,
17:u:tok-1RR=(1998).,
17:u:tok-1 R=(1998).,
28:u:Key-3 x=proceedings/strong,
17:u:Tok-1 X=Maxwell,
17:u:tok-1 X=maxwell,
19:u:tok-1 L=problems.,
14:u:tok-1 R=afb.,
27:u:tok-2 L=problems./maxwell,
22:u:tok-2 R=maxwell/afb.,
12:u:Pre-2 R=AF,
14:u:Tok-1 X=AFB.,
13:u:tok-1 X=afb,
19:u:tok-1LL=problems.,
17:u:tok-1 L=maxwell,
22:u:tok-2 L=maxwell/afb.,
22:u:tok-2 R=afb./(1998).,
12:u:Pre-2 X=AF,
45:u:Tok-1 X=(EP/EXPO/B/SEDE/FWC/2009-01/Lot6/09,
36:u:tok-1 X=epexpobsedefwc200901lot609,
22:u:tok-1 L=parliament).,
58:u:tok-2 L=parliament)./(ep/expo/b/sede/fwc/2009-01/lot6/09,
50:u:tok-2 R=(ep/expo/b/sede/fwc/2009-01/lot6/09/_x+1,
22:u:tok-1LL=corporation.,
17:u:tok-1RR=series,,
23:u:tok-2 R=working/paper,
23:u:tok-1LL=investigation,
26:u:tok-2 L=conflict/foreign,
14:u:tok-1 R=age:,
20:u:tok-1RR=navigating,
22:u:tok-2 R=digital/age:,
14:u:Tok-1 X=Age:,
20:u:tok-1 R=navigating,
22:u:tok-2 L=digital/age:,
25:u:tok-2 R=age:/navigating,
20:u:Tok-1 X=Navigating,
20:u:tok-1 X=navigating,
14:u:tok-1 L=age:,
25:u:tok-2 L=age:/navigating,
22:u:tok-2 R=navigating/a,
14:u:tok-1LL=age:,
20:u:tok-1 L=navigating,
22:u:tok-2 L=navigating/a,
17:u:tok-2 R=a/state,
20:u:tok-1LL=navigating,
18:u:tok-1RR='unpeace,
17:u:tok-2 L=a/state,
18:u:tok-1 R='unpeace,
21:u:tok-2 R=of/'unpeace,
12:u:Pre-2 R='U,
18:u:Tok-1 X='Unpeace,
17:u:tok-1 X=unpeace,
21:u:tok-2 L=of/'unpeace,
26:u:tok-2 R='unpeace/journal,
12:u:Pre-2 X='U,
25:u:tok-2 L=us/intelligence,
26:u:tok-2 R=intelligence/the,
26:u:tok-2 L=intelligence/the,
21:u:tok-2 R=the/chicago,
20:u:tok-2 R=affairs/20,
17:u:Tok-1 X=Summary,
17:u:tok-1 X=summary,
17:u:tok-1 L=summary,
22:u:tok-2 L=summary/u.s.,
12:u:Pre-2 R=Lu,
116:u:Tok-1 X=theguardian.com/us-news/2016/dec/14/dnc-hillary-clinton-emails-hacked-russia-aide-typo-investigation-finds,
100:u:tok-1 X=theguardiancomusnews2016dec14dnchillaryclintonemailshackedrussiaaidetypoinvestigationfinds,
12:u:tok-1 R=57,
121:u:tok-2 L=_x-1/theguardian.com/us-news/2016/dec/14/dnc-hillary-clinton-emails-hacked-russia-aide-typo-investigation-finds,
119:u:tok-2 R=theguardian.com/us-news/2016/dec/14/dnc-hillary-clinton-emails-hacked-russia-aide-typo-investigation-finds/57,
12:u:tok-1 R=so,
17:u:tok-1 R=virtual,
17:u:Tok-1 X=Virtual,
17:u:tok-1 X=virtual,
17:u:tok-1 L=virtual,
12:u:tok-1RR=11,
17:u:tok-1RR=dispute,
17:u:tok-1 R=dispute,
17:u:Tok-1 X=Dispute,
17:u:tok-1 X=dispute,
17:u:tok-1 L=dispute,
13:u:Tok-1 X=Due,
13:u:tok-1 X=due,
19:u:tok-1 R=diligence,
23:u:tok-2 R=due/diligence,
18:u:tok-1 R=yearbook,
18:u:Tok-1 X=Yearbook,
18:u:tok-1 X=yearbook,
21:u:tok-2 R=yearbook/of,
18:u:tok-1 L=yearbook,
21:u:tok-2 L=yearbook/of,
18:u:tok-1LL=yearbook,
20:u:tok-2 R=studies/in,
20:u:tok-2 L=studies/in,
28:u:tok-2 R=international/law,,
28:u:tok-2 L=international/law,,
12:u:tok-1LL=y,,
16:u:Tok-1 X=Shelf?,
13:u:tok-1 L=max,
12:u:Suf-2 L=ax,
17:u:tok-1LL=(2019).,
21:u:tok-1RR=arbitration,
21:u:tok-1 R=arbitration,
21:u:tok-1 X=arbitration,
21:u:tok-1 L=arbitration,
21:u:tok-1LL=arbitration,
26:u:tok-2 R=humanitarian/law,
26:u:tok-2 L=humanitarian/law,
32:u:Brk-1 R=opening-square-bracket,
12:u:Suf-2 X=].,
22:u:tok-2 R=nations/law.,
22:u:tok-2 L=nations/law.,
22:u:tok-2 R=law./harvard,
21:u:tok-2 R=attacks/and,
21:u:tok-2 L=attacks/and,
19:u:tok-1 R=permanent,
23:u:tok-2 R=the/permanent,
19:u:Tok-1 X=Permanent,
19:u:tok-1 X=permanent,
23:u:tok-2 L=the/permanent,
25:u:tok-2 R=permanent/court,
19:u:tok-1 L=permanent,
22:u:tok-1RR=arbitration:,
25:u:tok-2 L=permanent/court,
19:u:tok-1LL=permanent,
22:u:tok-1 R=arbitration:,
25:u:tok-2 R=of/arbitration:,
22:u:Tok-1 X=Arbitration:,
25:u:tok-2 L=of/arbitration:,
36:u:tok-2 R=arbitration:/international,
22:u:tok-1 L=arbitration:,
36:u:tok-2 L=arbitration:/international,
35:u:tok-2 R=international/arbitration,
22:u:tok-1LL=arbitration:,
35:u:tok-2 L=international/arbitration,
25:u:tok-2 R=arbitration/and,
20:u:tok-1RR=settlement,
25:u:tok-2 L=arbitration/and,
21:u:tok-2 R=and/dispute,
20:u:tok-1 R=settlement,
21:u:tok-2 L=and/dispute,
28:u:tok-2 R=dispute/settlement,
20:u:Tok-1 X=Settlement,
20:u:tok-1 X=settlement,
19:u:tok-1RR=hamilton,,
28:u:tok-2 L=dispute/settlement,
26:u:tok-2 R=settlement/1999.,
17:u:tok-1 R=report.,
17:u:Tok-1 X=Report.,
23:u:Key-3 x=report/strong,
19:u:Tok-1 X=Cyberwar,,
24:u:tok-2 L=_x-1/cyberwar,,
23:u:tok-2 R=cyberwar,/law,
28:u:tok-2 R=changing/character,
28:u:tok-2 L=changing/character,
20:u:Tmn-3 X=moderate/",
16:u:Tok-1 X=Korea.,
18:u:Tok-1 X=Georgia:,
17:u:tok-1LL=swaine,,
20:u:tok-1RR=conducting,
21:u:tok-2 L=j./georgia:,
25:u:tok-2 R=georgia:/russia,
18:u:Tok-1 X=Cylance.,
17:u:tok-1 X=cylance,
19:u:tok-1 X=operation,
19:u:tok-1 L=operation,
14:u:tok-1 X=isbn,
13:u:tok-1RR=ics,
19:u:tok-1 X=documents,
17:u:tok-1LL=shamoon,
29:u:Tok-1 X=reports/2017/Report,
27:u:tok-1 X=reports2017report,
21:u:tok-1 L=stonedrill.,
20:u:tok-1RR=stonedrill,
41:u:tok-2 L=stonedrill./reports/2017/report,
37:u:tok-2 R=reports/2017/report/shamoon,
21:u:tok-1LL=stonedrill.,
29:u:tok-1 L=reports/2017/report,
20:u:tok-1 R=stonedrill,
41:u:tok-1RR=final%20-%20kaspersky%20lab.pdf,
37:u:tok-2 L=reports/2017/report/shamoon,
28:u:tok-2 R=shamoon/stonedrill,
20:u:Tok-1 X=StoneDrill,
29:u:tok-1LL=reports/2017/report,
41:u:tok-1 R=final%20-%20kaspersky%20lab.pdf,
28:u:tok-2 L=shamoon/stonedrill,
52:u:tok-2 R=stonedrill/final%20-%20kaspersky%20lab.pdf,
12:u:Suf-2 L=..,
12:u:Pre-2 R=mo,
16:u:tok-1 R=(2016),
14:u:Tok-1 X=Emma,
17:u:tok-1LL=crystal,
18:u:tok-1 R=charlene,
17:u:tok-1RR=lubaale,
16:u:tok-2 L=&/emma,
23:u:tok-2 R=emma/charlene,
16:u:tok-1LL=(2017),
21:u:Tok-1 X=Application,
21:u:tok-1 X=application,
21:u:tok-1 L=application,
12:u:Suf-2 L=C),
15:u:Tok-1 X=Small,
22:u:tok-2 R=small/states,
22:u:tok-2 L=small/states,
19:u:tok-1 R=documents,
19:u:tok-1 L=documents,
19:u:tok-1LL=documents,
14:u:tok-1RR=1-15,
14:u:tok-1 R=1-15,
30:u:tok-2 L=states/international,
21:u:tok-2 R=un/security,
21:u:tok-2 L=un/security,
27:u:tok-2 R=security/council.,
27:u:tok-2 L=security/council.,
32:u:tok-2 R=council./international,
20:u:Tok-1 X=February).,
18:u:tok-1LL=langner,,
15:u:tok-1 R=ralph,
18:u:tok-1RR=langner:,
23:u:tok-2 L=r./february).,
26:u:tok-2 R=february)./ralph,
16:u:Tok-1 X=arXiv.,
15:u:tok-1 X=arxiv,
14:u:tok-1 L=27).,
21:u:tok-2 L=27)./arxiv.,
21:u:tok-2 R=arxiv./_x+1,
12:u:Suf-2 X=v.,
15:u:Key-1 X=arxiv,
21:u:Key-2 X=arxiv/other,
22:u:Key-3 L=strong/arxiv,
22:u:Key-3 x=arxiv/strong,
22:u:tok-2 R=microsoft/on,
22:u:tok-2 L=microsoft/on,
21:u:tok-2 R=the/issues.,
21:u:tok-2 L=the/issues.,
27:u:tok-2 R=issues./microsoft,
27:u:tok-2 L=issues./microsoft,
17:u:tok-1 L=beckons,
27:u:tok-2 L=beckons/microsoft,
17:u:tok-1LL=beckons,
13:u:tok-1RR=16.,
28:u:tok-2 R=microsoft/december,
13:u:tok-1 R=16.,
28:u:tok-2 L=microsoft/december,
22:u:tok-2 R=december/16.,
13:u:Tok-1 X=16.,
19:u:tok-2 R=16./2021.,
12:u:Suf-2 L=5:,
21:u:tok-1RR=conference.,
21:u:tok-1 R=conference.,
21:u:Tok-1 X=Conference.,
12:u:Pre-2 X=1.,
17:u:Pos-2 R=first/2,
18:u:tok-1LL=solarium,
19:u:tok-1 X=publisher,
21:u:tok-2 L=summit/2020,
24:u:tok-2 R=2020/september,
23:u:tok-2 R=press/journal,
17:u:tok-1LL=charles,
23:u:tok-2 L=l./deterrence,
23:u:tok-2 R=deterrence/of,
23:u:tok-2 L=deterrence/of,
23:u:tok-2 L=u.s./national,
19:u:Tok-1 X=Publisher,
24:u:tok-2 R=publisher/_x+1,
28:u:tok-2 L=security/publisher,
25:u:Tok-1 X=Google-Books-ID,
23:u:tok-1 X=googlebooksid,
19:u:tok-1RR=terrorism,
16:u:Key-1 R=thesis,
21:u:Tmn-2 R=none/thesis,
16:u:tok-1 X=thesis,
16:u:Key-1 X=thesis,
24:u:Key-2 X=thesis/initial,
21:u:Key-3 L=none/thesis,
16:u:tok-1 X=serbia,
16:u:tok-1LL=bosnia,
12:u:Suf-2 L=v.,
34:u:tok-2 R=international/commission,
34:u:tok-2 L=international/commission,
23:u:tok-2 R=commission/of,
23:u:tok-2 L=commission/of,
20:u:tok-2 R=of/inquiry,
12:u:tok-1 L=dc,
12:u:Suf-2 L=DC,
12:u:Suf-2 L=n?,
24:u:tok-2 L=are/inevitable,
14:u:tok-1RR=31/1,
26:u:tok-2 L=inevitable/world,
25:u:tok-2 R=world/politics.,
12:u:Suf-2 X=rl,
20:u:Tok-1 X=(Princeton,
16:u:tok-1RR=1976).,
24:u:tok-2 L=war/(princeton,
23:u:tok-2 R=(princeton/up,
12:u:Pre-2 X=(P,
12:u:Pre-2 R=UP,
12:u:Tok-1 X=UP,
20:u:tok-1 L=(princeton,
16:u:tok-1 R=1976).,
23:u:tok-2 L=(princeton/up,
19:u:tok-2 R=up/1976).,
12:u:Pre-2 X=UP,
12:u:Suf-2 X=UP,
16:u:Tok-1 X=1976).,
14:u:tok-1 X=1976,
20:u:tok-1LL=(princeton,
19:u:tok-2 L=up/1976).,
27:u:tok-2 R=1976)./translated,
12:u:Suf-2 L=UP,
27:u:Tmn-2 R=strong/translator,
16:u:tok-1 L=1976).,
27:u:tok-2 L=1976)./translated,
23:u:tok-2 R=translated/by,
27:u:Key-3 L=strong/translator,
16:u:tok-1LL=1976).,
16:u:tok-1RR=howard,
23:u:tok-2 L=translated/by,
20:u:tok-2 R=by/michael,
16:u:tok-1 R=howard,
20:u:tok-2 L=by/michael,
24:u:tok-2 R=michael/howard,
16:u:Tok-1 X=Howard,
24:u:tok-2 L=michael/howard,
20:u:tok-2 R=howard/and,
16:u:tok-1 L=howard,
15:u:tok-1RR=paret,
20:u:tok-2 L=howard/and,
16:u:tok-1LL=howard,
15:u:tok-1 R=paret,
21:u:tok-2 R=peter/paret,
15:u:Tok-1 X=Paret,
15:u:tok-1 X=paret,
21:u:tok-2 L=peter/paret,
20:u:tok-2 R=paret/_x+1,
26:u:tok-2 R=technical/report,
26:u:tok-2 L=technical/report,
21:u:tok-2 R=report/_x+1,
22:u:Tok-1 X=(CrowdStrike,
16:u:tok-1 L=2014).,
29:u:tok-2 L=2014)./(crowdstrike,
27:u:tok-2 R=(crowdstrike/_x+1,
25:u:tok-2 R=in/intelligence,
25:u:tok-2 L=in/intelligence,
14:u:tok-1RR=nov.,
14:u:tok-1RR=feb.,
17:u:tok-1 R=version,
13:u:tok-1RR=1.0,
17:u:tok-1 L=version,
19:u:tok-1LL=analysis:,
18:u:tok-1 L=sun-shop,
14:u:tok-1 R=labs,
26:u:tok-2 L=sun-shop/fireeye,
22:u:tok-2 R=fireeye/labs,
14:u:Suf-2 L=y’,
15:u:tok-1LL=water,
19:u:tok-1 L=breach’,
28:u:tok-2 L=breach’/critical,
14:u:Suf-2 L=h’,
19:u:tok-1LL=breach’,
14:u:tok-1RR=253,,
25:u:tok-2 R=protection/vol.,
13:u:Tok-1 X=1.4,
19:u:tok-1LL=w32.duqu,,
16:u:tok-1 R=2003).,
21:u:tok-2 L=version/1.4,
20:u:tok-2 R=1.4/2003).,
12:u:Suf-2 X=.4,
20:u:Tok-1 X=EUROPOLITY,
20:u:tok-1 X=europolity,
25:u:tok-2 L=_x-1/europolity,
25:u:tok-2 R=europolity/vol.,
12:u:Suf-2 X=TY,
16:u:Pos-2 L=7/last,
16:u:tok-1 L=2021a.,
20:u:tok-2 L=2021a./the,
132:u:tok-1 R=https://www.chathamhouse.org/2019/12/application-international-law-state-cyberattacks/2-application-sovereignty-cyberspace,
90:u:tok-1RR=https://media.defense.gov/2019/jan/16/2002080386/-1/-1/1/190115-f-nv711-0002.pdf,
139:u:tok-2 R=house./https://www.chathamhouse.org/2019/12/application-international-law-state-cyberattacks/2-application-sovereignty-cyberspace,
12:u:Pre-2 X=IS,
17:u:tok-1RR=options,
17:u:tok-1 R=options,
21:u:tok-2 R=options/for,
17:u:tok-1 L=options,
21:u:tok-2 L=options/for,
17:u:tok-1LL=options,
17:u:tok-1LL=keskin,,
26:u:tok-1RR=infrastructures:,
15:u:tok-2 L=o./f.,
18:u:tok-2 R=f./space,
14:u:Tok-1 X=ISBN,
12:u:Suf-2 X=BN,
14:u:tok-1 L=isbn,
12:u:Suf-2 L=BN,
22:u:tok-2 R=on/deterring,
22:u:tok-2 L=on/deterring,
12:u:tok-1 X=ii,
14:u:Tok-1 X=Earl,
14:u:tok-1 X=earl,
18:u:tok-1LL=boebert,,
17:u:tok-2 L=w./earl,
16:u:tok-2 R=earl/a,
20:u:tok-2 R=a/workshop,
20:u:tok-2 L=a/workshop,
21:u:tok-2 R=workshop/on,
21:u:tok-2 L=workshop/on,
16:u:Tok-1 X=Vashdi,
16:u:tok-1 X=vashdi,
19:u:tok-2 L=r./vashdi,
17:u:Tok-1 X=Hopkins,
16:u:tok-1RR=hidden,
20:u:tok-2 L=j./hopkins,
21:u:tok-2 R=hopkins/the,
22:u:tok-1 L=herzegovina,,
19:u:tok-1RR=36357/04,,
34:u:tok-2 L=herzegovina,/application,
26:u:tok-2 R=application/nos.,
22:u:tok-1LL=herzegovina,,
19:u:tok-1 R=36357/04,,
19:u:tok-1RR=36360/04,,
26:u:tok-2 L=application/nos.,
24:u:tok-2 R=nos./36357/04,,
21:u:tok-2 R=october/11,,
21:u:tok-2 L=october/11,,
81:u:tok-1RR=http://www.wsj.com/articles/cyberwar-ignites-a-new-arms-race-1444611128,
18:u:tok-1 L=estonia,,
22:u:tok-2 L=estonia,/the,
18:u:tok-1LL=estonia,,
21:u:tok-2 R=guardian/17,
19:u:tok-1 L=agency’,
29:u:tok-2 L=agency’/september,
23:u:tok-2 R=september/24,,
23:u:Key-3 L=moderate/date,
19:u:tok-1LL=agency’,
89:u:tok-1RR=https://www.theguardian.com/technology/2010/sep/24/stuxnet-worm-national-agency,
23:u:tok-2 L=september/24,,
19:u:tok-2 R=24,/2010,,
26:u:tok-1LL=institutionalize,
28:u:tok-1 L=cyber-attribution?,
37:u:tok-2 L=cyber-attribution?/internet,
16:u:tok-1RR=paper.,
28:u:tok-2 L=governance/project,
23:u:tok-2 R=project/white,
16:u:tok-1 R=paper.,
23:u:tok-2 L=project/white,
22:u:tok-2 R=white/paper.,
16:u:Tok-1 X=Paper.,
22:u:tok-2 L=white/paper.,
22:u:tok-2 R=paper./2018.,
18:u:tok-1 L=stuxnet.,
18:u:tok-1LL=stuxnet.,
78:u:tok-1RR=https://berlinpolicyjournal.com/big-tech-hits-the-diplomatic-circuit,
78:u:tok-1 R=https://berlinpolicyjournal.com/big-tech-hits-the-diplomatic-circuit,
89:u:tok-2 R=accessed)./https://berlinpolicyjournal.com/big-tech-hits-the-diplomatic-circuit,
20:u:tok-1LL=estimative,
22:u:tok-1 L=probability.,
30:u:tok-2 L=probability./studies,
22:u:tok-1LL=probability.,
15:u:tok-1RR=1964.,
15:u:tok-1 R=1964.,
28:u:tok-2 R=intelligence/1964.,
16:u:tok-1LL=power,,
17:u:tok-2 R=and/in:,
20:u:tok-2 L=2019,/last,
19:u:tok-1RR=symposium,
19:u:tok-1 R=symposium,
19:u:Tok-1 X=Symposium,
19:u:tok-1 X=symposium,
20:u:tok-2 R=power/grid,
20:u:tok-2 L=power/grid,
14:u:tok-1RR=sans,
25:u:tok-2 L=ukrainian/power,
14:u:tok-1 R=sans,
19:u:tok-2 R=grid/sans,
14:u:Tok-1 X=SANS,
14:u:tok-1 X=sans,
19:u:tok-2 L=grid/sans,
18:u:tok-2 R=sans/ics,
14:u:tok-1 L=sans,
14:u:tok-1LL=sans,
21:u:tok-2 L=ics/report.,
24:u:tok-2 R=report./(2016),
24:u:tok-2 R=strategies/and,
24:u:tok-2 L=strategies/and,
19:u:tok-2 R=the/group,
25:u:tok-2 L=security/united,
18:u:tok-1RR=assembly,
18:u:tok-1 R=assembly,
26:u:tok-2 R=general/assembly,
18:u:Tok-1 X=Assembly,
26:u:tok-2 L=general/assembly,
24:u:tok-2 R=assembly/2016.,
23:u:tok-2 R=inevitable/so,
20:u:Tok-1 X=Discussion,
20:u:tok-1 X=discussion,
19:u:tok-1 L=interest.,
24:u:tok-2 L=interest./june,
19:u:tok-1LL=interest.,
19:u:tok-2 R=15,/2015.,
18:u:tok-1LL=bateman,,
20:u:tok-2 L=j./october,
22:u:tok-2 R=october/war,,
16:u:tok-1RR=iftrip,
19:u:tok-1 R=workshop.,
20:u:tok-1RR=powerpoint,
22:u:tok-2 L=force/london,
26:u:tok-2 R=london/workshop.,
19:u:Tok-1 X=Workshop.,
20:u:tok-1 R=powerpoint,
23:u:tok-1RR=presentation.,
26:u:tok-2 L=london/workshop.,
30:u:tok-2 R=workshop./powerpoint,
20:u:Tok-1 X=PowerPoint,
20:u:tok-1 X=powerpoint,
19:u:tok-1 L=workshop.,
23:u:tok-1 R=presentation.,
30:u:tok-2 L=workshop./powerpoint,
34:u:tok-2 R=powerpoint/presentation.,
23:u:Tok-1 X=Presentation.,
22:u:tok-1 X=presentation,
19:u:tok-1LL=workshop.,
20:u:tok-1 L=powerpoint,
18:u:tok-1RR=modified,
34:u:tok-2 L=powerpoint/presentation.,
28:u:tok-2 R=presentation./last,
14:u:Tok-1 X=Last,
20:u:tok-1LL=powerpoint,
23:u:tok-1 L=presentation.,
18:u:tok-1 R=modified,
28:u:tok-2 L=presentation./last,
23:u:tok-2 R=last/modified,
21:u:tok-1 R=reimagined.,
27:u:tok-2 L=attacks./security,
30:u:tok-2 R=security/reimagined.,
21:u:Tok-1 X=Reimagined.,
20:u:tok-1 X=reimagined,
30:u:tok-2 L=security/reimagined.,
29:u:tok-2 L=reimagined./fireeye,
24:u:tok-2 R=fireeye/report,
21:u:tok-1LL=reimagined.,
24:u:tok-2 L=fireeye/report,
36:u:tok-2 L=attribution./cybersecurity,
21:u:tok-1RR=prevention.,
22:u:tok-1 L=definitions.,
30:u:tok-2 L=definitions./october,
23:u:tok-2 R=october/2018.,
28:u:tok-1 R=978-1-9774-0272-1.,
20:u:tok-2 L=2019./isbn,
33:u:tok-2 R=isbn/978-1-9774-0272-1.,
28:u:Tok-1 X=978-1-9774-0272-1.,
23:u:tok-1 X=9781977402721,
33:u:tok-2 L=isbn/978-1-9774-0272-1.,
33:u:tok-2 R=978-1-9774-0272-1./_x+1,
14:u:tok-1 L=law",
28:u:tok-2 L=law"/international,
12:u:Suf-2 L=w",
14:u:tok-1LL=law",
16:u:tok-1RR=facing,
16:u:tok-1 R=facing,
20:u:tok-2 R=law/facing,
14:u:tok-1LL=knut,
15:u:tok-1 L=ipsen,
13:u:tok-1 R=ii,,
20:u:tok-2 L=ipsen/part,
18:u:tok-2 R=part/ii,,
17:u:Key-1 X=locator,
24:u:Key-3 L=strong/locator,
11:*:Fst-1 X=L,
21:u:tok-2 L=beast/april,
19:u:tok-2 R=april/16,,
100:u:tok-1RR=https://www.thedailybeast.com/moscow-server-hosted-wikileaks-and-irans-hackers-weeks-apart,
19:u:tok-2 L=april/16,,
19:u:tok-2 R=16,/2019.,
13:u:tok-1 L=...,
13:u:tok-1LL=...,
19:u:tok-1LL=beginning,
21:u:tok-2 L=.../october,
21:u:tok-2 R=october/26,,
53:u:tok-1RR=https://web.archive.org/web/20200325083125/,
21:u:tok-2 L=october/26,,
18:u:tok-2 R=26,/2015,
25:u:tok-2 L=stuxnet./center,
13:u:tok-1RR=eth,
13:u:tok-1 R=eth,
17:u:tok-1RR=zürich,
21:u:tok-2 R=studies/eth,
30:u:tok-2 L=council./proceedings,
19:u:tok-1RR=informing,
33:u:tok-2 R=deterring/cyberattacks:,
19:u:tok-1 R=informing,
33:u:tok-2 L=deterring/cyberattacks:,
33:u:tok-2 R=cyberattacks:/informing,
19:u:Tok-1 X=Informing,
19:u:tok-1 X=informing,
33:u:tok-2 L=cyberattacks:/informing,
30:u:tok-2 R=informing/strategies,
19:u:tok-1 L=informing,
30:u:tok-2 L=informing/strategies,
19:u:tok-1LL=informing,
24:u:tok-2 R=and/developing,
24:u:tok-2 L=and/developing,
28:u:tok-2 R=developing/options,
17:u:Tok-1 X=Options,
28:u:tok-2 L=developing/options,
18:u:tok-2 R=for/u.s.,
18:u:tok-2 L=for/u.s.,
20:u:tok-2 R=u.s./2011.,
73:u:tok-1RR=http://aei.pitt.edu/97071/1/pub_9081responding_cyberattacks.pdf,
27:u:tok-2 L=centre/discussion,
26:u:tok-2 R=discussion/paper,
20:u:tok-2 L=experts/in,
18:u:tok-1 R=document,
21:u:tok-2 R=un/document,
18:u:Tok-1 X=Document,
18:u:tok-1 X=document,
21:u:tok-2 L=un/document,
18:u:tok-1 L=document,
40:u:Tok-1 X=www.realtime-itcompliance.com.,
36:u:tok-1 X=wwwrealtimeitcompliancecom,
21:u:tok-1 L=compliance.,
109:u:tok-1RR=http://www.realtime-itcompliance.com/information_security/2007/09/dhs_exploding_generator_shows.htm,
52:u:tok-2 L=compliance./www.realtime-itcompliance.com.,
48:u:tok-2 R=www.realtime-itcompliance.com./(2007).,
0=7.212512e-02
1=-2.716652e-02
2=6.802643e-03
3=-7.809398e-03
4=8.284696e-03
5=2.061473e-02
6=-1.523915e-03
7=-2.179394e-02
8=-1.395500e-03
9=7.376323e-02
10=3.651658e-02
11=-9.058999e-06
12=1.169061e-01
13=-1.682508e-07
15=-8.462104e-04
16=-2.570282e-02
17=-6.488856e-04
18=1.281424e-01
19=6.090928e-01
20=6.047833e-02
21=-4.679595e-01
26=-5.510103e-01
27=-7.743099e-02
28=-4.481956e-01
29=-3.663774e-01
31=-3.437403e-01
38=-2.868461e+00
39=5.596218e-01
40=3.640547e-02
41=-1.175659e+00
42=7.365818e-02
43=-8.722045e-02
44=-1.078223e-01
45=-1.467882e-02
46=-5.925470e-01
47=-1.172358e+00
48=-9.736800e-01
49=1.000239e-01
50=-1.160051e+00
52=-2.699849e-03
53=-4.704843e-01
54=-2.639240e-01
57=-6.063857e-01
58=-2.381571e+00
59=6.458053e-01
60=3.149710e-01
61=-8.484417e-01
62=-1.558111e+00
63=-1.011030e+00
64=-1.044674e+00
65=6.296560e-03
66=-4.846218e-01
67=-4.250705e-02
68=1.934456e-01
69=3.917781e-03
73=-1.407015e-04
75=5.367879e-02
76=-4.104538e-01
77=-1.163701e+00
78=-8.429196e-01
79=7.824746e-01
80=-6.858939e-01
83=-4.697352e-01
84=4.447873e-01
85=-1.845093e-01
86=-3.274734e-01
95=-9.086396e-01
96=-1.681539e+00
97=1.075801e-01
98=-5.523763e-01
99=8.776287e-01
100=4.995178e-01
101=-2.829324e-01
102=-1.012152e+00
103=-4.200373e-01
104=-2.926411e-01
105=-7.639485e-01
106=-5.556642e-02
107=-7.396567e-01
110=-1.248952e-02
111=-1.012483e-01
115=-1.152789e+00
116=-4.048513e-04
119=9.956035e-01
120=7.033255e-01
124=-1.700741e-01
134=-4.413798e-03
135=4.136354e-01
139=1.888918e+00
152=-1.115896e+00
153=-4.016365e+00
154=1.420368e-02
155=-6.485668e-01
156=-1.545793e-01
158=1.745077e-01
159=1.033428e+00
160=-2.927309e-01
161=-1.809058e-01
162=-1.032872e+00
163=-1.083356e-01
164=-6.862636e-01
171=-3.295055e-01
172=-1.158058e+00
173=-7.736631e-01
174=-5.336717e-01
175=-4.939212e-01
178=-3.502618e-01
179=8.366848e-01
181=-4.318272e-06
182=8.796817e-02
183=4.523783e-03
185=3.540626e-01
190=-6.585808e-01
191=-3.269385e-01
192=-2.626607e-01
198=-1.099084e-01
199=8.300374e-01
200=-2.674235e-03
209=-1.205246e-01
210=-1.542734e+00
211=-2.283888e+00
212=-4.606048e-01
213=-3.307670e-01
214=-2.877171e-01
216=-8.210007e-02
217=-3.004802e-01
219=1.784363e+00
220=-1.286366e-01
221=-6.085694e-01
229=-1.707413e-01
230=-1.232719e-01
238=6.784996e-01
247=-6.162064e-02
248=-1.026821e+00
249=-8.596200e-01
250=-1.186464e-01
254=-1.085658e-01
255=-2.225185e-01
258=1.997816e-01
259=9.708272e-01
267=5.335324e-02
299=1.038797e+00
305=-7.193994e-02
319=1.057493e+00
324=-2.641106e-01
325=-2.659031e-03
339=9.336015e-01
359=7.407826e-01
370=2.024881e-02
379=5.765325e-02
380=5.918071e-02
381=7.945821e-03
387=5.194625e-03
390=-3.128036e-02
392=-5.486351e-02
393=5.618178e-02
399=5.918071e-02
400=7.945821e-03
406=5.194625e-03
409=-3.128036e-02
411=-5.486351e-02
412=5.618178e-02
418=1.394481e-01
419=1.199299e-01
420=-4.972270e-01
421=9.517918e-02
422=1.200389e-01
423=-6.971818e-02
424=-1.518184e+00
425=3.475909e-02
426=6.957458e-02
427=7.707849e-02
428=-5.075679e-03
429=-2.615027e-01
430=5.006325e-02
432=-7.061313e-02
433=3.476480e-02
434=-7.531978e-03
437=5.472948e-01
438=6.326446e-01
440=-1.897796e-02
444=-3.776455e-01
445=-2.208838e-02
446=-2.059780e-02
457=2.831660e-01
458=-9.277477e-02
459=-1.080070e-01
460=6.442783e-01
461=-6.597402e-02
463=5.832601e-02
464=-5.956859e-03
466=-8.802757e-01
471=-1.911718e-02
477=3.135906e-01
478=9.719296e-01
479=-4.347491e-01
482=-1.185245e-01
483=1.561938e-01
484=-1.641961e-01
485=-3.537947e-03
487=2.346341e-02
492=3.866568e-02
494=-9.150403e-07
497=6.971955e-01
502=3.943948e-01
503=-1.617616e-02
504=-3.542662e-02
513=-2.210770e-02
515=4.336527e-01
517=3.904300e-01
518=-2.082011e-02
521=-3.180774e-02
537=1.519492e+00
553=-8.540314e-02
572=-1.239929e-01
574=-6.856472e-02
575=6.469993e-02
577=6.651500e-01
578=-5.843403e-02
589=-8.992540e-02
592=-9.154373e-02
593=-1.461806e-01
597=6.609648e-01
601=3.460126e-01
608=-3.087843e-01
609=-8.002149e-02
616=-1.127884e-02
617=8.426630e-01
627=-6.867415e-05
637=4.020412e-01
656=8.304492e-01
677=2.118961e-01
684=2.914056e-02
685=8.866023e-02
737=1.220524e+00
757=4.524618e-01
798=2.862583e-01
799=9.091975e-02
800=6.316969e-03
801=8.261774e-02
802=1.571577e-02
803=-6.382549e-01
804=-3.168475e+00
805=9.338585e-04
806=6.244730e-02
807=7.330259e-02
808=-3.755414e-02
810=-7.713155e-01
811=8.389363e-02
812=-1.100808e-01
813=5.128659e-02
814=1.596169e-02
817=4.532949e-02
818=-1.794654e-03
821=9.293989e-02
824=-1.840588e-03
825=5.533224e-01
827=-3.180053e-01
836=-1.409117e-01
837=1.281212e-04
840=4.807704e-02
843=8.255165e-05
846=9.273154e-04
855=5.918071e-02
856=7.945821e-03
862=5.194625e-03
865=-3.128036e-02
867=-5.486351e-02
868=5.618178e-02
1235=1.305573e-01
1236=3.677172e-02
1237=1.034667e-01
1238=-7.931767e-03
1239=-6.452247e-02
1240=3.251170e-02
1241=-4.643712e-02
1242=-2.601072e-02
1243=-4.930778e-02
1244=1.032672e-01
1245=2.291165e-02
1247=-4.433350e-02
1251=-8.829969e-01
1253=1.979705e-01
1254=5.918071e-02
1255=7.945821e-03
1261=5.194625e-03
1264=-3.128036e-02
1266=-5.486351e-02
1267=5.618178e-02
1273=5.238986e-02
1274=-1.003029e-01
1275=1.182577e-02
1276=-1.131612e-01
1277=1.942221e-02
1278=1.131847e-01
1280=-3.761425e-03
1281=-8.241024e-03
1282=6.922744e-02
1283=2.883983e-02
1292=4.532949e-02
1293=-1.794654e-03
1296=9.293989e-02
1299=-1.840588e-03
1300=5.533224e-01
1302=-3.180053e-01
1311=5.238986e-02
1312=-1.003029e-01
1313=1.182577e-02
1314=-1.131612e-01
1315=1.942221e-02
1316=1.131847e-01
1318=-3.761425e-03
1319=-8.241024e-03
1320=6.922744e-02
1321=2.883983e-02
1330=5.918071e-02
1331=7.945821e-03
1337=5.194625e-03
1340=-3.128036e-02
1342=-5.486351e-02
1343=5.618178e-02
1349=5.918071e-02
1350=7.945821e-03
1356=5.194625e-03
1359=-3.128036e-02
1361=-5.486351e-02
1362=5.618178e-02
1368=4.235508e-03
1369=1.163730e-01
1370=-2.721635e-02
1371=8.117370e-02
1372=1.158267e-01
1373=-5.109534e-02
1375=3.366148e-02
1376=2.754599e-02
1377=5.976119e-02
1378=1.152028e-02
1380=4.838092e-02
1382=-6.986505e-02
1383=5.309149e-02
1384=1.330513e-03
1385=-1.575491e-01
1387=1.422156e-01
1388=-8.587731e-02
1391=7.280742e-01
1394=-1.620842e-02
1395=-3.956105e-01
1396=8.496448e-01
1406=-2.411710e-04
1407=1.343416e-01
1413=1.586707e-01
1425=2.443267e-01
1426=-5.454042e-02
1432=-3.119504e-04
1433=-6.496749e-06
1434=8.911622e-02
1444=-2.411710e-04
1445=1.343416e-01
1451=1.586707e-01
1463=5.918071e-02
1464=7.945821e-03
1470=5.194625e-03
1473=-3.128036e-02
1475=-5.486351e-02
1476=5.618178e-02
1843=1.073579e-01
1844=1.606850e-01
1845=-2.914722e-01
1846=3.697349e-02
1847=1.153989e-01
1848=-1.261772e-01
1849=-4.813154e-03
1850=-2.161518e-03
1851=1.458332e-02
1852=1.083199e-01
1853=2.691035e-03
1854=-3.953941e-02
1855=1.357834e-01
1858=-4.316261e-03
1859=3.669959e-02
1860=-1.085648e-05
1862=9.042137e-01
1863=3.594260e-01
1869=-4.485034e-01
1870=-6.930378e-03
1871=-3.079132e-01
1872=-2.623245e-01
1874=-2.128185e-01
1881=-1.268027e+00
1882=5.728349e-01
1883=-3.619726e-01
1884=-3.377070e-01
1885=2.632941e-01
1886=-8.276952e-02
1888=7.726607e-03
1889=-3.381841e-01
1890=-1.448822e+00
1891=-3.199571e-01
1893=-4.750414e-01
1896=-7.996310e-02
1897=-5.181551e-01
1900=-4.178239e-02
1901=-4.868392e-01
1902=9.448601e-01
1903=3.373762e-01
1904=-6.822569e-01
1907=-2.478060e-01
1908=1.071030e-02
1909=-2.782316e-01
1910=-6.169398e-06
1912=4.856491e-02
1917=1.233164e-02
1919=-2.566772e-01
1920=-4.978494e-01
1922=1.004493e+00
1923=-6.191087e-01
1926=-2.822546e-01
1927=8.069238e-01
1928=-1.389213e-01
1929=-1.349557e-02
1938=-4.621210e-01
1939=-9.628540e-01
1940=2.326092e-01
1941=-3.225481e-01
1942=9.083122e-01
1943=-3.503523e-01
1945=-5.655867e-01
1946=-2.840236e-01
1948=-9.553291e-02
1962=1.219969e+00
1982=1.697931e-01
1995=-4.717687e-01
1997=-1.641663e-01
1998=-3.737135e-01
1999=-1.362986e-01
2000=3.340518e-01
2001=-4.835267e-03
2002=9.983576e-01
2003=-1.480148e-01
2004=-1.121016e-01
2005=-2.571723e-01
2007=-1.051563e-01
2014=-3.138225e-01
2015=-6.946585e-01
2017=-5.797835e-01
2018=-3.329990e-01
2021=-2.004999e-01
2022=5.021988e-01
2023=1.630490e-05
2026=1.770553e-05
2033=-3.630877e-01
2034=-2.558667e-01
2041=-8.777481e-02
2042=7.049605e-01
2052=-6.211899e-04
2053=-1.895059e-01
2055=-2.138417e-01
2056=-2.224086e-01
2059=-4.975017e-02
2060=-1.248048e-01
2062=7.545887e-01
2068=7.177352e-02
2072=-7.970014e-02
2080=7.303110e-04
2081=6.703847e-01
2091=-3.069464e-01
2093=-2.624303e-02
2101=2.317697e-02
2102=6.777388e-01
2109=1.250941e-02
2142=1.195823e+00
2148=-5.154200e-02
2162=8.027266e-01
2167=-2.338937e-01
2182=8.434585e-01
2213=3.541902e-02
2227=2.027155e-01
2230=-3.014678e-01
2242=7.032468e-02
2243=1.874358e-01
2244=-2.167424e-01
2245=8.151920e-02
2246=2.650101e-01
2247=-2.939552e-01
2248=-2.424050e-01
2249=9.043958e-03
2250=1.488290e-01
2251=1.656373e-01
2252=1.100241e-01
2253=-1.974178e-02
2254=1.387808e-01
2255=-9.654339e-01
2256=-7.217729e-02
2257=-2.020574e-04
2258=1.660693e-01
2259=-8.054075e-07
2260=-4.331291e-01
2261=9.422355e-02
2262=-8.437273e-03
2263=-7.509913e-01
2264=-4.208530e-02
2265=-6.139030e-03
2269=-1.104785e-03
2270=7.233205e-02
2271=-1.118702e-02
2273=7.449917e-03
2280=1.403412e+00
2281=-6.818782e-02
2282=1.277447e+00
2283=1.403962e-01
2284=-3.325211e-02
2285=5.366886e-04
2287=-5.783402e-02
2288=1.338654e-01
2289=1.171403e-01
2290=1.904309e-02
2292=-2.332217e-01
2295=-1.104738e-01
2296=2.270423e-01
2299=4.227169e-01
2300=-3.326399e-02
2302=-3.149536e-01
2303=-7.888456e-02
2306=-1.258563e-01
2307=2.999884e+00
2308=3.674838e-01
2309=4.940930e-04
2311=-1.648005e-02
2318=6.933139e-02
2319=1.340861e-01
2320=1.095438e-01
2321=-4.420119e-01
2322=-1.085704e-01
2323=6.605292e-02
2324=1.946215e-02
2325=-9.854737e-03
2326=-2.590198e-02
2327=5.537575e-02
2328=5.254586e-02
2330=1.510358e-01
2333=8.040510e-02
2334=-7.157618e-01
2335=-7.439520e-05
2336=1.372162e-01
2337=2.917474e-01
2338=6.385234e-02
2339=1.293529e-01
2340=-1.200662e-01
2341=-4.335335e-01
2342=1.564711e-01
2343=5.638257e-02
2344=-5.239024e-02
2345=-1.065147e-01
2346=1.126595e-01
2347=6.396942e-02
2349=-4.277133e-02
2351=-9.580644e-03
2352=-2.508706e-01
2353=5.583089e-04
2355=3.249263e-01
2356=5.918071e-02
2357=7.945821e-03
2363=5.194625e-03
2366=-3.128036e-02
2368=-5.486351e-02
2369=5.618178e-02
2375=5.551763e-02
2376=1.447461e-01
2377=-5.715345e-03
2378=4.272537e-02
2379=-2.871906e-02
2380=-7.227418e-02
2381=-6.146374e-02
2382=1.903628e-02
2383=-7.943822e-03
2384=-9.051830e-02
2385=5.246171e-02
2387=1.047811e-01
2389=-7.942409e-01
2390=-1.923015e+00
2391=-4.390937e-02
2392=-6.138774e-05
2393=-1.765037e-01
2394=8.595159e-02
2395=1.019390e-01
2396=3.100423e-02
2397=7.431890e-02
2398=-3.208718e-02
2399=-3.598753e-04
2400=5.820170e-02
2401=3.922768e-02
2402=-2.499493e-01
2403=2.460673e-02
2404=6.906486e-03
2405=-7.783168e-02
2406=-6.369351e-02
2408=-4.249864e-01
2409=-5.157239e-01
2410=-2.251685e-02
2411=-2.333684e-02
2413=3.201109e-02
2414=2.074664e-01
2415=-1.612133e-01
2416=1.006061e-01
2417=3.286511e-02
2418=-1.740017e+00
2420=3.881728e-03
2421=1.047757e-01
2422=2.255906e-02
2423=5.427738e-03
2425=4.540953e-02
2427=-8.780847e-02
2428=2.270313e-03
2429=1.467667e-02
2430=-1.101199e-01
2432=5.904484e-02
2433=7.896577e-03
2439=5.919225e-03
2442=-3.122341e-02
2444=-5.473595e-02
2445=5.597922e-02
2451=-3.810336e-02
2452=-2.476190e-02
2453=1.601713e-02
2454=-1.074712e-01
2455=-1.393818e-01
2456=3.631489e-02
2458=-1.026507e-02
2459=3.893804e-03
2460=5.298033e-02
2461=1.539538e-02
2470=5.918071e-02
2471=7.945821e-03
2477=5.194625e-03
2480=-3.128036e-02
2482=-5.486351e-02
2483=5.618178e-02
2489=5.918071e-02
2490=7.945821e-03
2496=5.194625e-03
2499=-3.128036e-02
2501=-5.486351e-02
2502=5.618178e-02
2509=2.051403e-02
2527=5.918071e-02
2528=7.945821e-03
2534=5.194625e-03
2537=-3.128036e-02
2539=-5.486351e-02
2540=5.618178e-02
2546=-7.889874e-02
2547=-1.434954e-02
2548=3.819255e-01
2549=-2.733133e-01
2550=1.048033e-01
2551=1.724551e-01
2552=-5.126125e-01
2553=-1.804576e-02
2554=1.250368e-02
2555=2.617994e-02
2556=5.404577e-02
2558=-6.358833e-02
2565=-2.557114e-01
2566=7.304434e-02
2567=-9.646558e-02
2569=-4.308942e-02
2570=8.719775e-03
2572=1.893445e-02
2573=-3.031925e-02
2574=-2.023785e-04
2575=8.889355e-04
2577=-2.166980e-02
2579=1.515127e-01
2580=-2.152868e-01
2581=-1.065469e-02
2584=5.918071e-02
2585=7.945821e-03
2591=5.194625e-03
2594=-3.128036e-02
2596=-5.486351e-02
2597=5.618178e-02
2603=9.113908e-02
2604=3.515291e-02
2605=-7.622000e-03
2606=3.977787e-02
2607=4.155760e-02
2608=2.975058e-03
2609=2.871814e-03
2610=-3.025916e-02
2611=2.755139e-03
2612=7.039016e-02
2613=3.902161e-02
2615=1.079473e-01
2617=-3.602755e-01
2618=6.107571e-03
2619=-2.414539e-02
2620=-4.475193e-05
2622=1.073758e-01
2623=7.224613e-02
2624=4.577339e-02
2625=3.479877e-02
2626=1.776264e-02
2627=1.041523e-02
2628=-1.703872e-02
2629=2.168344e-02
2630=1.418372e-03
2631=6.355284e-02
2632=2.596912e-03
2633=-1.799505e-02
2634=9.841360e-02
2636=-1.191232e-01
2637=-1.777776e-02
2638=-2.465964e-02
2639=-5.393292e-05
2641=5.918071e-02
2642=7.945821e-03
2648=5.194625e-03
2651=-3.128036e-02
2653=-5.486351e-02
2654=5.618178e-02
3021=-3.459908e-02
3022=-2.525983e-02
3023=1.058485e-02
3024=-1.093696e-01
3025=-9.076680e-03
3026=5.919650e-02
3028=-1.465233e-02
3029=-4.970580e-03
3030=5.328096e-02
3031=2.483063e-02
3040=-6.735998e-01
3041=9.630966e-02
3042=-8.695632e-02
3043=-5.646253e-02
3044=-2.580778e-04
3045=6.639805e-02
3046=1.314098e-01
3047=1.018193e-02
3048=-2.714949e-03
3049=-7.357371e-04
3050=-3.773329e-02
3052=-4.750624e-01
3055=-2.432464e-01
3056=-6.963396e-02
3059=2.729277e+00
3078=8.475467e-02
3079=-2.172566e-02
3080=2.335248e-02
3081=-2.659067e-02
3083=-1.147812e-02
3085=-1.090429e-02
3086=-1.121745e-04
3087=8.459477e-03
3088=1.617563e-01
3097=2.314546e-03
3098=-9.443512e-02
3099=1.528511e-02
3100=-1.041184e-01
3101=5.324052e-02
3102=6.978118e-02
3104=-4.365436e-03
3105=-1.020151e-02
3106=5.850901e-02
3107=3.077682e-02
3116=9.410923e-02
3125=1.757034e-02
3135=9.042045e-02
3136=4.935816e-02
3137=1.006423e-01
3138=3.110328e-02
3139=4.648927e-02
3140=2.101151e-02
3142=-3.146765e-02
3143=2.342090e-02
3144=9.995883e-02
3145=4.204070e-02
3146=-3.378799e+00
3147=1.093164e-01
3150=-2.383832e-02
3151=-2.466933e-02
3152=-6.149564e-01
3153=-2.955274e+00
3154=1.196926e+00
3155=-2.430372e-02
3161=3.026439e-02
3173=-1.367269e-03
3174=1.071586e-02
3175=-5.737173e-02
3177=-1.358192e-01
3178=3.510175e-02
3180=-2.152134e-08
3192=6.611565e-02
3193=-3.763807e-03
3195=-6.319617e-02
3196=7.122873e-04
3199=5.185518e-03
3211=2.629271e-02
3212=-2.626805e-02
3213=-1.122224e-01
3214=9.230154e-05
3215=4.351978e-02
3218=3.325031e-03
3219=-9.740804e-03
3220=6.960446e-02
3221=-1.881055e-02
3224=-7.788630e-02
3229=1.245643e-01
3230=3.737306e-01
3231=7.544983e-01
3234=9.522819e-01
3237=-1.839708e-01
3250=-2.693567e-02
3251=3.566019e-01
3253=7.214568e-01
3254=-4.283064e-02
3256=3.271572e-01
3270=-5.596910e-03
3271=4.044856e-01
3272=-3.904235e-01
3275=-1.708145e-01
3276=4.232815e-01
3277=-2.193525e-01
3278=-2.313831e-01
3279=3.703376e-01
3280=9.094274e-02
3286=8.398009e-02
3290=4.658565e-02
3308=-8.240916e-02
3310=2.337323e-01
3311=1.533238e-02
3327=6.291787e-02
3330=4.397876e-01
3331=4.284754e-02
3346=-3.408935e-04
3350=1.527267e-01
3365=8.027216e-02
3369=3.142893e-03
3370=2.178759e-01
3372=-1.356278e-01
3390=9.105603e-01
3391=-1.146389e-01
3393=2.038933e-01
3410=9.634577e-01
3422=-4.935263e-06
3430=4.957711e-01
3436=8.427101e-01
3449=9.785882e-02
3467=1.105832e-03
3469=1.066834e-03
3470=5.236635e-02
3581=3.381311e-02
3590=3.665906e-02
3591=8.100818e-02
3592=1.496336e-01
3593=-1.028150e-02
3594=1.035912e-05
3595=-8.356591e-01
3598=-1.984433e-02
3599=4.950588e-02
3600=1.913175e-02
3601=-1.257869e-03
3603=-4.316877e-05
3610=5.902425e-02
3611=3.839166e-02
3612=7.177363e-02
3613=4.922912e-02
3614=-1.090237e-01
3615=4.462652e-05
3616=-2.294468e-02
3617=-3.510742e-02
3618=-9.103401e-04
3619=-3.055795e-02
3620=-1.398953e-04
3622=-1.799151e-02
3629=-1.367269e-03
3630=1.071586e-02
3631=-5.737173e-02
3633=-1.358192e-01
3634=3.510175e-02
3636=-2.152134e-08
3648=5.902425e-02
3649=3.839166e-02
3650=7.177363e-02
3651=4.922912e-02
3652=-1.090237e-01
3653=4.462652e-05
3654=-2.294468e-02
3655=-3.510742e-02
3656=-9.103401e-04
3657=-3.055795e-02
3658=-1.398953e-04
3660=-1.799151e-02
3668=6.390693e-01
3686=-2.601440e-02
3687=7.563540e-02
3688=2.753880e-02
3689=1.287738e-02
3690=1.297211e-01
3691=1.468828e-02
3692=-1.640808e-01
3693=4.530982e-02
3694=1.350238e-01
3695=5.126857e-02
3696=-2.774067e-02
3698=4.423397e-02
3699=-1.246608e-01
3701=3.052870e-03
3702=-2.136844e-02
3703=-5.194813e-01
3705=2.124802e-01
3706=-1.771040e-01
3709=2.362798e-01
3712=-3.193787e-04
3714=2.778479e-01
3724=2.480561e-01
3725=5.194468e-05
3728=-2.523165e-01
3731=-2.272653e-04
3733=1.237769e-01
3743=2.371962e-01
3744=-3.731733e-01
3762=8.566619e-03
3763=1.732004e-01
3764=-1.133688e-01
3765=-5.751341e-03
3766=1.224432e-01
3767=-1.425589e-02
3768=-2.358010e-02
3769=2.261189e-03
3770=1.975788e-02
3771=9.997627e-02
3772=4.410698e-04
3773=-1.268330e-02
3774=-4.142999e-02
3775=-3.421506e-01
3776=-2.611608e-04
3777=5.446462e-02
3778=-8.565275e-03
3779=-3.199743e-05
3781=1.147129e+00
3782=4.159866e-01
3788=-4.465940e-01
3791=-2.720885e-01
3800=-1.216741e+00
3801=5.699323e-01
3802=5.325957e-02
3804=1.042141e-03
3805=-4.569680e-01
3806=-7.961595e-02
3807=-1.901396e-02
3810=-6.687225e-01
3812=-1.065629e+00
3814=-3.497292e-03
3815=-2.688134e-01
3816=-1.211316e-01
3821=3.076185e-01
3822=1.006760e-01
3830=-4.801302e-02
3838=-2.291134e-01
3839=-8.736441e-01
3840=-4.776360e-01
3841=1.004645e+00
3842=-6.168132e-01
3845=-4.440557e-01
3846=3.973893e-01
3847=-1.196394e-01
3848=-8.289393e-02
3849=3.881661e-02
3857=-5.235035e-01
3858=-1.218093e+00
3859=1.323641e-01
3860=-4.767016e-01
3861=8.918217e-01
3862=6.627367e-01
3863=-2.106400e-01
3864=-8.938117e-01
3865=-2.771679e-01
3866=-2.639874e-01
3867=-6.751143e-01
3868=-1.746017e-02
3869=-6.022274e-01
3873=-8.198316e-02
3878=-1.649182e+00
3881=6.864333e-01
3882=-1.460426e+00
3897=-3.612833e-01
3901=2.288774e+00
3914=-2.593392e-01
3915=-9.713710e-01
3916=1.192025e-02
3918=-1.179599e-01
3919=-1.008021e-02
3920=3.550794e-01
3921=1.003807e+00
3924=-5.220757e-01
3925=-5.996225e-02
3926=-1.176485e-01
3933=-3.242485e-01
3934=-6.674363e-01
3935=-1.158672e-01
3936=-5.933684e-01
3937=-8.462516e-02
3940=-2.047565e-01
3941=8.286341e-01
3944=6.974560e-02
3947=1.260685e+00
3952=-3.138965e-01
3953=-2.442263e-01
3961=1.690989e+00
3971=-2.103537e-05
3972=-1.627548e-01
3980=-7.756717e-01
3981=9.088597e-01
4009=-1.795081e-02
4010=-1.864844e-01
4018=-1.713026e-02
4020=2.020459e-01
4021=1.008740e+00
4067=-4.889882e-02
4081=8.469202e-01
4086=-2.107417e-01
4101=8.773920e-01
4121=6.576333e-01
4141=5.082154e-02
4143=-6.270119e-02
4149=-7.631050e-02
4161=9.728456e-01
4242=3.095952e-02
4301=-2.313566e-02
4321=2.654976e-01
4341=2.910009e-01
4522=1.573330e-01
4523=1.741014e-01
4525=5.202897e-02
4526=1.984882e-03
4527=-8.561531e-01
4528=-2.744128e-01
4529=7.052752e-02
4530=-2.203244e-03
4531=9.427505e-02
4532=4.732100e-03
4533=-6.273695e-04
4534=9.319968e-02
4537=-1.552662e-02
4538=3.264330e-02
4539=-8.331380e-01
4541=3.345263e-01
4542=-2.261580e-01
4548=-1.214853e-01
4549=2.272591e-01
4560=-1.270089e-01
4561=1.921429e-01
4562=-5.675299e-02
4563=-1.398282e-02
4564=7.048335e-02
4565=5.701102e-02
4566=5.148330e-02
4567=1.500972e-01
4568=-1.782917e-02
4569=-7.691953e-01
4570=1.700678e-02
4572=7.759883e-02
4574=2.658988e-05
4575=7.391112e-02
4576=-6.747706e-01
4577=-3.783394e-05
4579=5.252853e-02
4580=7.678143e-02
4581=3.519362e-03
4582=7.025983e-03
4583=5.920067e-02
4584=2.001742e-02
4585=3.831594e-02
4586=3.421928e-02
4587=-7.111318e-01
4588=5.523049e-02
4589=4.143739e-02
4591=1.132299e-01
4594=-4.296272e-04
4595=-2.604140e-02
4596=-1.717685e-04
4597=1.632605e-01
4598=-5.503818e-02
4599=9.723215e-02
4600=6.466616e-02
4601=3.256082e-02
4602=1.388086e-03
4603=-6.505592e-02
4604=3.135578e-02
4605=1.073274e-02
4606=4.137348e-02
4607=9.063700e-03
4608=8.604101e-02
4610=1.516754e-01
4611=-1.303389e+00
4613=1.432525e-02
4614=-4.156039e-02
4617=1.856498e-01
4618=-6.045512e-02
4621=2.933972e-02
4624=-9.757518e-04
4626=2.220954e-01
4636=6.565163e-02
4637=2.858098e-02
4638=-1.792227e-02
4639=1.555366e-04
4640=-3.082991e-02
4643=-1.052112e-02
4644=-5.617736e-04
4645=-2.697389e-03
4646=-3.146497e-03
4648=-2.295028e-05
4655=3.886519e-02
4656=5.607341e-02
4657=5.882891e-02
4658=3.606766e-01
4659=-2.447666e-01
4660=-2.528928e-01
4661=-1.281273e+00
4662=-1.442243e-02
4663=3.048504e-06
4664=-9.044463e-02
4665=3.130760e-03
4667=-2.182097e-02
4669=-1.524337e-02
4674=2.381652e-01
4675=1.722894e-01
4681=3.749125e-04
4684=-1.061765e-01
4693=1.647349e+00
4694=-2.489652e-02
4712=3.025742e-02
4713=1.573002e-01
4719=8.858560e-05
4731=4.929853e-02
4732=-1.908344e-02
4733=-2.460419e-02
4734=-7.627421e-03
4735=6.255283e-01
4738=-1.511769e-02
4739=7.777826e-02
4740=-3.477505e-03
4741=5.875936e-02
4743=-1.074593e-02
4750=8.168174e-02
4751=2.281551e-02
4752=7.449098e-02
4753=4.719861e-02
4754=-2.773614e-02
4755=-1.131696e-03
4756=-1.644302e-02
4757=-2.099424e-02
4758=-8.901102e-04
4759=-3.940682e-04
4760=2.352085e-03
4762=-7.337344e-03
4764=2.693811e-02
4769=-4.852565e-03
4770=3.431614e-02
4771=6.113460e-02
4772=-1.796670e-03
4773=7.765139e-02
4774=2.862442e-02
4775=-1.283485e-02
4776=-2.705285e-03
4777=4.732502e-03
4778=1.100727e-01
4779=8.889615e-03
4781=1.042542e-01
4782=-1.569269e+00
4783=-2.912402e-03
4784=-1.108945e-03
4785=-2.610539e-02
4787=-2.678840e-05
4788=8.074986e-02
4789=1.407720e-02
4790=-1.107302e-02
4792=-7.551046e-01
4795=-1.703868e-02
4796=4.971895e-02
4798=-9.008401e-03
4800=-4.412791e-05
4807=3.365439e-01
4808=2.035086e-02
4811=1.007255e+00
4827=3.506438e-01
4828=-1.066525e+00
4830=-8.251850e-01
4833=-3.751674e-01
4847=1.435813e+00
4855=-2.626600e-01
4857=6.816650e-01
4867=7.309444e-01
4872=-1.153675e+00
4885=-3.777704e-01
4887=4.322019e-02
4904=2.500795e-03
4907=4.342484e-01
4908=2.706347e-01
4942=-9.729313e-01
4947=1.045826e-01
4967=8.362940e-01
4968=-7.584307e-01
4969=-2.042606e-02
4971=-2.205459e-01
4987=2.737095e-01
5007=7.452724e-01
5047=2.411435e-01
5168=2.243804e-02
5169=4.068455e-02
5170=1.440116e-02
5171=3.202900e-02
5172=-3.373512e-02
5173=1.647348e-02
5175=-4.158933e-02
5176=-7.098017e-02
5177=-9.817160e-04
5178=-2.158919e-03
5180=-2.466381e-02
5183=-5.077869e-03
5186=4.658724e-02
5187=3.637207e-03
5188=7.585641e-03
5189=1.277399e-01
5190=3.906743e-02
5191=-2.862814e-02
5194=-1.828750e-02
5195=-1.124908e-01
5196=-4.772762e-03
5197=-3.334739e-03
5199=-2.406404e-02
5206=4.703059e-02
5207=3.168585e-02
5208=5.045119e-02
5209=-2.064231e-02
5210=-5.604931e-02
5211=2.788374e-02
5213=-9.031029e-05
5214=4.162437e-01
5215=-6.874984e-02
5216=-9.221922e-02
5225=5.902425e-02
5226=3.839166e-02
5227=7.177363e-02
5228=4.922912e-02
5229=-1.090237e-01
5230=4.462652e-05
5231=-2.294468e-02
5232=-3.510742e-02
5233=-9.103401e-04
5234=-3.055795e-02
5235=-1.398953e-04
5237=-1.799151e-02
5244=-6.421530e-03
5263=-1.905674e-01
5264=4.343714e-02
5270=1.385075e-02
5282=-3.444737e-01
5283=2.508814e-02
5285=-8.624545e-03
5286=-3.611490e-03
5289=6.761943e-03
5292=2.698198e-01
5294=-2.631745e-01
5302=1.224979e-02
5304=3.230610e-02
5305=1.627777e-02
5308=-7.081220e-04
5309=-1.606909e-01
5320=-8.679152e-02
5321=-1.719500e-01
5322=-2.748109e-02
5323=4.659930e-03
5324=3.407233e-01
5327=6.460065e-02
5328=6.018422e-03
5329=3.834187e-05
5330=-1.667516e-01
5332=2.928574e-02
5339=-3.444737e-01
5340=2.508814e-02
5342=-8.624545e-03
5343=-3.611490e-03
5346=6.761943e-03
5349=2.698198e-01
5351=-2.631745e-01
5358=1.278034e+00
5359=-1.381913e-01
5363=-3.343120e-02
5365=-3.491886e-02
5367=3.040230e-01
5370=-1.912949e-01
5377=7.937666e-02
5378=7.451966e-02
5379=1.200316e-03
5380=1.096041e-01
5381=5.695211e-02
5382=-4.378528e-01
5383=-3.448124e-01
5384=8.212887e-03
5385=-1.737741e-04
5386=2.343837e-02
5387=-1.655324e-02
5389=-4.054467e-02
5390=3.615922e-02
5391=-4.748104e-02
5392=6.039375e-02
5393=1.334289e-02
5396=1.887959e-02
5397=-3.031720e-01
5400=2.725883e-01
5415=3.891579e-01
5416=-5.249580e-01
5438=3.491248e-06
5453=7.543184e-02
5454=-1.121853e-01
5465=1.207859e-01
5472=2.841238e-01
5473=1.679301e-03
5492=-1.504127e-01
5495=1.739488e-02
5552=3.685599e-02
5636=2.976035e-01
5652=8.631835e-01
5833=7.849639e-02
5834=5.157767e-02
5835=-4.774023e-01
5836=7.601777e-02
5837=-9.110164e-03
5838=-6.554256e-02
5840=-8.860266e-03
5841=-9.567357e-03
5842=-1.110250e-03
5843=1.290738e-04
5847=1.119465e-01
5852=-6.910985e-01
5853=-3.731821e-02
5854=-4.241349e-02
5855=4.821079e-02
5856=2.913296e-01
5858=3.165727e-01
5859=3.634105e-02
5860=3.950830e-02
5861=-3.739929e-03
5864=3.380731e-02
5871=9.588534e-03
5872=1.526436e-01
5875=-3.394595e-05
5878=-4.436068e-03
5880=-9.996103e-03
5881=-1.151621e-01
5890=-8.411049e-02
5891=4.718814e-01
5897=-8.647938e-03
5909=-2.032841e-02
5910=3.133693e-01
5913=-1.053298e-01
5916=3.033039e-03
5928=-1.749422e-01
5929=-7.722046e-02
5930=-1.317859e-02
5931=8.155647e-03
5932=1.024833e-01
5935=1.953149e-02
5936=1.093164e-02
5937=-8.863966e-05
5938=-1.747576e-01
5940=4.123695e-02
5947=3.263683e-02
5948=1.375832e-01
5949=-9.197085e-02
5950=3.702037e-02
5951=1.192346e-01
5952=-1.091822e-01
5954=5.543858e-02
5955=-3.000211e-03
5956=-1.809749e-03
5957=9.833131e-03
5958=-6.995452e-06
5959=-3.197973e-02
5960=8.235335e-02
5961=-4.795225e-02
5963=5.709993e-01
5966=-9.729617e-02
5967=-1.465201e-01
5969=3.501064e-03
5970=9.134267e-02
5972=1.797966e-01
5973=6.712086e-02
5976=6.855147e-03
5978=3.095985e-02
5985=2.070828e-02
5986=1.276213e+00
5989=-7.756590e-01
6005=-9.592304e-01
6006=4.355791e-01
6008=1.093310e+00
6009=-3.668326e-02
6010=4.382546e-03
6011=1.343801e+00
6025=-1.866345e-01
6026=4.380376e-01
6027=-4.876363e-01
6030=-9.835544e-02
6031=2.326171e-02
6033=2.314148e-01
6034=2.860549e-01
6035=4.363130e-02
6045=-3.902533e-03
6050=1.187844e+00
6054=3.077584e-01
6063=-2.899943e-02
6065=1.369250e-02
6066=1.602078e-01
6082=1.790226e-03
6105=2.253966e-02
6120=2.001194e-01
6122=3.033910e-02
6124=2.870371e-03
6125=2.326080e-03
6145=-1.314582e+00
6147=2.256020e-02
6149=2.798478e-01
6165=5.547420e-02
6185=-6.223559e-05
6191=3.780102e-01
6222=1.605155e-01
6224=8.976392e-03
6336=6.509902e-02
6346=3.252181e-02
6347=1.153443e-01
6348=-4.074365e-02
6349=4.079050e-02
6350=8.886791e-02
6351=-3.942546e-02
6352=-4.848428e-02
6353=6.051778e-02
6354=-1.444942e-02
6355=-3.693198e-02
6356=-4.707521e-03
6357=-1.306890e-06
6358=1.077054e-01
6359=9.365151e-02
6360=-9.024207e-02
6361=-1.207757e-02
6362=2.781000e-02
6363=-2.340291e-01
6365=1.337781e-01
6366=3.250975e-02
