#mdl#2#11498
#rdr#61/19/0
1:*,
18:u:Tok-1 X=%x[ 0,0],
18:u:tok-1 X=%x[ 0,1],
18:u:tok-1LL=%X[-2,0],
18:u:tok-1 L=%X[-1,0],
18:u:tok-1 R=%X[ 1,0],
18:u:tok-1RR=%X[ 2,0],
27:u:tok-2 L=%X[-1,0]/%X[ 0,0],
27:u:tok-2 R=%X[ 0,0]/%X[ 1,0],
18:*:Fst-1 X=%x[ 0,2],
18:u:Fst-1 R=%x[ 1,2],
27:u:Fst-2 X=%x[ 0,2]/%x[ 0,4],
27:u:Fst-2 R=%x[ 1,2]/%x[ 1,4],
18:*:Lst-1 L=%x[-1,3],
18:u:Lst-1 X=%x[ 0,3],
27:u:Lst-2 L=%x[-1,3]/%x[-1,6],
27:u:Lst-2 X=%x[ 0,3]/%x[ 0,6],
18:u:Pre-1 X=%x[ 0,4],
18:u:Pre-2 X=%x[ 0,5],
18:u:Pre-2 R=%x[ 1,5],
18:u:Suf-1 X=%x[ 0,6],
18:u:Suf-2 L=%x[-1,7],
18:u:Suf-2 X=%x[ 0,7],
18:u:Cap-1 L=%x[-1,8],
18:u:Cap-1 X=%x[ 0,8],
18:u:Cap-1 R=%x[ 1,8],
27:u:Cap-2 L=%x[-1,8]/%x[ 0,8],
27:u:Cap-2 R=%x[ 0,8]/%x[ 1,8],
28:u:Cap-3 L=%x[-1,18]/%x[ 0,8],
18:*:Num-1 L=%x[-1,9],
18:*:Num-1 X=%x[ 0,9],
18:u:Num-1 R=%x[ 1,9],
28:u:Num-2 R=%x[ 0,9]/%x[ 0,17],
28:u:Num-2 R=%x[ 0,9]/%x[ 0,18],
19:u:Nme-1 X=%x[ 0,10],
19:u:Loc-1 X=%x[ 0,11],
19:u:Pub-1 X=%x[ 0,12],
19:u:Jnl-1 X=%x[ 0,13],
19:u:Key-1 L=%x[-1,14],
19:u:Key-1 X=%x[ 0,14],
19:u:Key-1 R=%x[ 1,14],
28:u:Key-2 X=%x[ 0,14]/%x[ 0,8],
29:u:Key-3 L=%x[-1,18]/%x[ 0,14],
29:u:Key-3 x=%x[ 0,14]/%x[ 0,18],
19:u:Pos-1 X=%x[ 0,15],
29:u:Pos-2 L=%x[-1,15]/%x[ 0,15],
29:u:Pos-2 R=%x[ 0,15]/%x[ 1,15],
19:u:Pct-1 L=%x[-1,16],
19:u:Pct-1 X=%x[ 0,16],
19:u:Pct-1 R=%x[ 1,16],
19:u:Brk-1 L=%x[-1,17],
19:u:Brk-1 X=%x[ 0,17],
19:u:Brk-1 R=%x[ 1,17],
19:*:Tmn-1 L=%x[-1,18],
19:u:Tmn-1 X=%x[ 0,18],
19:u:Tmn-1 R=%x[ 1,18],
29:u:Tmn-2 L=%x[-1,14]/%x[ 0,18],
29:u:Tmn-2 R=%x[ 0,18]/%x[ 1,14],
28:u:Tmn-3 X=%x[ 0,18]/%x[ 0,6],
28:u:Tmn-4 R=%x[ 0,18]/%x[ 1,8],
19:u:Id--1 X=%x[ 0,19],
#qrk#18
6:author,
5:title,
4:date,
9:publisher,
7:journal,
6:volume,
5:pages,
15:container-title,
5:genre,
8:location,
4:note,
3:url,
6:editor,
7:edition,
3:doi,
15:citation-number,
10:translator,
16:collection-title,
#qrk#4251
1:*,
14:u:tok-1LL=_x-2,
14:u:tok-1 L=_x-1,
13:u:tok-1RR=the,
12:*:Fst-1 X=Lu,
12:u:Fst-1 R=Lu,
14:u:Fst-2 X=Lu/A,
14:u:Fst-2 R=Lu/D,
14:*:Lst-1 L=_x-1,
11:u:Lst-1 X=P,
19:u:Lst-2 L=_x-1/_x-1,
13:u:Lst-2 X=P/,,
11:u:Pre-1 X=A,
12:u:Pre-2 X=Ad,
11:u:Suf-1 X=,,
14:u:Suf-2 L=_x-1,
12:u:Suf-2 X=y,,
14:u:Cap-1 L=_x-1,
17:u:Cap-1 X=initial,
16:u:Cap-1 R=single,
22:u:Cap-2 L=_x-1/initial,
24:u:Cap-2 R=initial/single,
22:u:Cap-3 L=_x-1/initial,
14:*:Num-1 L=_x-1,
14:*:Num-1 X=none,
15:u:Num-1 R=roman,
19:u:Num-2 R=none/none,
19:u:Num-2 R=none/weak,
11:u:Nme-1 X=T,
11:u:Loc-1 X=F,
11:u:Pub-1 X=F,
11:u:Jnl-1 X=F,
14:u:Key-1 L=_x-1,
14:u:Key-1 X=none,
14:u:Key-1 R=none,
22:u:Key-2 X=none/initial,
19:u:Key-3 L=_x-1/none,
19:u:Key-3 x=none/weak,
15:u:Pos-1 X=first,
20:u:Pos-2 L=_x-1/first,
17:u:Pos-2 R=first/0,
14:u:Pct-1 L=_x-1,
15:u:Pct-1 X=other,
16:u:Pct-1 R=period,
14:u:Brk-1 L=_x-1,
14:u:Brk-1 X=none,
14:u:Brk-1 R=none,
14:*:Tmn-1 L=_x-1,
14:u:Tmn-1 X=weak,
16:u:Tmn-1 R=strong,
19:u:Tmn-2 L=_x-1/weak,
19:u:Tmn-2 R=weak/none,
16:u:Tmn-3 X=weak/,,
21:u:Tmn-4 R=weak/single,
11:u:Id--1 X=F,
14:u:tok-1LL=_x-1,
13:u:tok-1 R=the,
17:u:tok-1RR=russian,
14:u:Fst-2 X=Lu/D,
14:u:Fst-2 R=Lu/T,
11:*:Lst-1 L=P,
13:u:Lst-2 L=P/,,
13:u:Lst-2 X=P/.,
11:u:Pre-1 X=D,
12:u:Pre-2 R=Th,
11:u:Suf-1 X=.,
12:u:Suf-2 L=y,,
17:u:Cap-1 L=initial,
16:u:Cap-1 X=single,
17:u:Cap-1 R=initial,
24:u:Cap-2 L=initial/single,
24:u:Cap-2 R=single/initial,
21:u:Cap-3 L=weak/single,
14:*:Num-1 L=none,
15:*:Num-1 X=roman,
14:u:Num-1 R=none,
20:u:Num-2 R=roman/none,
11:u:Nme-1 X=F,
14:u:Key-1 L=none,
21:u:Key-2 X=none/single,
19:u:Key-3 L=weak/none,
21:u:Key-3 x=none/strong,
11:u:Pos-1 X=0,
17:u:Pos-2 L=first/0,
13:u:Pos-2 R=0/1,
15:u:Pct-1 L=other,
16:u:Pct-1 X=period,
14:u:Pct-1 R=none,
14:u:Brk-1 L=none,
14:*:Tmn-1 L=weak,
16:u:Tmn-1 X=strong,
14:u:Tmn-1 R=none,
21:u:Tmn-2 L=none/strong,
21:u:Tmn-2 R=strong/none,
18:u:Tmn-3 X=strong/.,
24:u:Tmn-4 R=strong/initial,
13:u:Tok-1 X=The,
13:u:tok-1 X=the,
12:u:tok-1 L=d.,
14:u:Fst-2 X=Lu/T,
14:u:Fst-2 R=Lu/R,
12:u:Lst-1 X=Ll,
13:u:Lst-2 L=P/.,
14:u:Lst-2 X=Ll/e,
11:u:Pre-1 X=T,
12:u:Pre-2 X=Th,
12:u:Pre-2 R=Ru,
11:u:Suf-1 X=e,
12:u:Suf-2 L=D.,
12:u:Suf-2 X=he,
16:u:Cap-1 L=single,
24:u:Cap-2 L=single/initial,
25:u:Cap-2 R=initial/initial,
24:u:Cap-3 L=strong/initial,
15:*:Num-1 L=roman,
11:u:Pub-1 X=T,
11:u:Jnl-1 X=T,
21:u:Key-3 L=strong/none,
19:u:Key-3 x=none/none,
11:u:Pos-1 X=1,
13:u:Pos-2 L=0/1,
13:u:Pos-2 R=1/1,
16:u:Pct-1 L=period,
14:u:Pct-1 X=none,
16:*:Tmn-1 L=strong,
14:u:Tmn-1 X=none,
19:u:Tmn-2 L=none/none,
19:u:Tmn-2 R=none/none,
16:u:Tmn-3 X=none/e,
22:u:Tmn-4 R=none/initial,
17:u:Tok-1 X=Russian,
17:u:tok-1 X=russian,
13:u:tok-1 L=the,
12:u:tok-1RR=of,
14:u:Fst-2 X=Lu/R,
14:u:Fst-2 R=Lu/W,
12:*:Lst-1 L=Ll,
14:u:Lst-2 L=Ll/e,
14:u:Lst-2 X=Ll/n,
11:u:Pre-1 X=R,
12:u:Pre-2 X=Ru,
12:u:Pre-2 R=Wa,
11:u:Suf-1 X=n,
12:u:Suf-2 L=he,
12:u:Suf-2 X=an,
25:u:Cap-2 L=initial/initial,
22:u:Cap-3 L=none/initial,
19:u:Key-3 L=none/none,
13:u:Pos-2 L=1/1,
13:u:Pos-2 R=1/2,
14:u:Pct-1 L=none,
14:*:Tmn-1 L=none,
16:u:Tmn-3 X=none/n,
13:u:tok-1LL=the,
17:u:tok-1 L=russian,
12:u:tok-1 R=of,
12:u:Fst-1 R=Ll,
14:u:Fst-2 X=Lu/W,
14:u:Fst-2 R=Ll/o,
14:u:Lst-2 L=Ll/n,
14:u:Lst-2 X=Ll/y,
11:u:Pre-1 X=W,
12:u:Pre-2 X=Wa,
12:u:Pre-2 R=of,
11:u:Suf-1 X=y,
12:u:Suf-2 L=an,
12:u:Suf-2 X=ay,
15:u:Cap-1 R=lower,
23:u:Cap-2 R=initial/lower,
11:u:Pos-1 X=2,
13:u:Pos-2 L=1/2,
13:u:Pos-2 R=2/2,
16:u:Tmn-3 X=none/y,
20:u:Tmn-4 R=none/lower,
12:u:Tok-1 X=of,
12:u:tok-1 X=of,
12:*:Fst-1 X=Ll,
14:u:Fst-2 X=Ll/o,
14:u:Lst-2 L=Ll/y,
14:u:Lst-2 X=Ll/f,
11:u:Pre-1 X=o,
12:u:Pre-2 X=of,
12:u:Pre-2 R=De,
11:u:Suf-1 X=f,
12:u:Suf-2 L=ay,
12:u:Suf-2 X=of,
15:u:Cap-1 X=lower,
23:u:Cap-2 L=initial/lower,
23:u:Cap-2 R=lower/initial,
20:u:Cap-3 L=none/lower,
20:u:Key-2 X=none/lower,
13:u:Pos-2 L=2/2,
13:u:Pos-2 R=2/3,
15:u:Pct-1 R=colon,
18:u:Tmn-1 R=moderate,
16:u:Tmn-3 X=none/f,
12:u:tok-1 L=of,
19:u:tok-1 R=strategic,
14:u:Fst-2 R=Lu/S,
14:u:Lst-2 L=Ll/f,
13:u:Lst-2 X=P/:,
12:u:Pre-2 X=De,
12:u:Pre-2 R=St,
11:u:Suf-1 X=:,
12:u:Suf-2 L=of,
12:u:Suf-2 X=e:,
15:u:Cap-1 L=lower,
23:u:Cap-2 L=lower/initial,
23:u:Num-2 R=none/moderate,
23:u:Key-3 x=none/moderate,
11:u:Pos-1 X=3,
13:u:Pos-2 L=2/3,
13:u:Pos-2 R=3/3,
15:u:Pct-1 X=colon,
18:u:Tmn-1 X=moderate,
23:u:Tmn-2 L=none/moderate,
23:u:Tmn-2 R=moderate/none,
20:u:Tmn-3 X=moderate/:,
26:u:Tmn-4 R=moderate/initial,
11:u:Id--1 X=T,
19:u:Tok-1 X=Strategic,
19:u:tok-1 X=strategic,
12:u:tok-1LL=of,
14:u:Fst-2 X=Lu/S,
14:u:Fst-2 R=Lu/C,
13:u:Lst-2 L=P/:,
14:u:Lst-2 X=Ll/c,
11:u:Pre-1 X=S,
12:u:Pre-2 X=St,
12:u:Pre-2 R=Cu,
11:u:Suf-1 X=c,
12:u:Suf-2 L=e:,
12:u:Suf-2 X=ic,
26:u:Cap-3 L=moderate/initial,
23:u:Key-3 L=moderate/none,
13:u:Pos-2 L=3/3,
13:u:Pos-2 R=3/4,
15:u:Pct-1 L=colon,
15:u:Pct-1 R=other,
18:*:Tmn-1 L=moderate,
14:u:Tmn-1 R=weak,
16:u:Tmn-3 X=none/c,
13:u:tok-1RR=and,
14:u:Fst-2 X=Lu/C,
14:u:Lst-2 L=Ll/c,
11:u:Pre-1 X=C,
12:u:Pre-2 X=Cu,
12:u:Pre-2 R=Co,
12:u:Suf-2 L=ic,
12:u:Suf-2 X=e,,
11:u:Pos-1 X=4,
13:u:Pos-2 L=3/4,
13:u:Pos-2 R=4/4,
19:u:Tmn-2 L=none/weak,
22:u:Tmn-4 R=weak/initial,
13:u:tok-1 R=and,
14:u:tok-1RR=war.,
14:u:Fst-2 R=Ll/a,
12:u:Pre-2 X=Co,
12:u:Pre-2 R=an,
12:u:Suf-2 L=e,,
12:u:Suf-2 X=n,,
22:u:Cap-3 L=weak/initial,
13:u:Key-1 R=and,
13:u:Pos-2 L=4/4,
13:u:Pos-2 R=4/5,
18:u:Tmn-2 R=weak/and,
20:u:Tmn-4 R=weak/lower,
13:u:Tok-1 X=and,
13:u:tok-1 X=and,
14:u:tok-1 R=war.,
14:u:Fst-2 X=Ll/a,
14:u:Lst-2 X=Ll/d,
11:u:Pre-1 X=a,
12:u:Pre-2 X=an,
11:u:Suf-1 X=d,
12:u:Suf-2 L=n,,
12:u:Suf-2 X=nd,
20:u:Cap-3 L=weak/lower,
13:u:Key-1 X=and,
19:u:Key-2 X=and/lower,
18:u:Key-3 L=weak/and,
18:u:Key-3 x=and/none,
11:u:Pos-1 X=5,
13:u:Pos-2 L=4/5,
13:u:Pos-2 R=5/5,
16:u:Tmn-3 X=none/d,
14:u:Tok-1 X=War.,
13:u:tok-1 X=war,
13:u:tok-1 L=and,
12:u:Fst-1 R=Ps,
14:u:Fst-2 R=Ps/(,
14:u:Lst-2 L=Ll/d,
12:u:Pre-2 R=(2,
12:u:Suf-2 L=nd,
12:u:Suf-2 X=r.,
15:u:Cap-1 R=other,
23:u:Cap-2 R=initial/other,
14:u:Num-1 R=year,
21:u:Num-2 R=none/strong,
13:u:Key-1 L=and,
13:u:Pos-2 L=5/5,
13:u:Pos-2 R=5/6,
16:u:Brk-1 R=parens,
20:u:Tmn-2 L=and/strong,
22:u:Tmn-4 R=strong/other,
13:u:tok-1LL=and,
12:*:Fst-1 X=Ps,
14:u:Fst-2 X=Ps/(,
11:u:Pre-1 X=(,
12:u:Pre-2 X=(2,
12:u:Suf-2 L=r.,
12:u:Suf-2 X=).,
15:u:Cap-1 X=other,
23:u:Cap-2 L=initial/other,
23:u:Cap-2 R=other/initial,
22:u:Cap-3 L=strong/other,
14:*:Num-1 X=year,
21:u:Num-2 R=year/parens,
21:u:Num-2 R=year/strong,
20:u:Key-2 X=none/other,
11:u:Pos-1 X=6,
13:u:Pos-2 L=5/6,
13:u:Pos-2 R=6/6,
16:u:Brk-1 X=parens,
17:u:tok-1 L=(2023).,
12:u:Suf-2 L=).,
15:u:Cap-1 L=other,
23:u:Cap-2 L=other/initial,
14:*:Num-1 L=year,
13:u:Pos-2 L=6/6,
13:u:Pos-2 R=6/7,
16:u:Brk-1 L=parens,
11:u:Pos-1 X=7,
13:u:Pos-2 L=6/7,
13:u:Pos-2 R=7/7,
13:u:Pos-2 L=7/7,
13:u:Pos-2 R=7/8,
11:u:Pos-1 X=8,
13:u:Pos-2 L=7/8,
13:u:Pos-2 R=8/8,
20:u:tok-1RR=university,
13:u:Pos-2 L=8/8,
13:u:Pos-2 R=8/9,
20:u:tok-1 R=university,
14:u:Fst-2 R=Lu/U,
12:u:Pre-2 R=Un,
11:u:Loc-1 X=T,
11:u:Pos-1 X=9,
13:u:Pos-2 L=8/9,
13:u:Pos-2 R=9/9,
20:u:Tok-1 X=University,
20:u:tok-1 X=university,
14:u:tok-1RR=_x+1,
14:u:Fst-2 X=Lu/U,
14:u:Fst-2 R=Lu/P,
11:u:Pre-1 X=U,
12:u:Pre-2 X=Un,
12:u:Pre-2 R=Pr,
12:u:Suf-2 L=rd,
12:u:Suf-2 X=ty,
13:u:Pos-2 L=9/9,
16:u:Pos-2 R=9/last,
15:u:tok-1 X=press,
14:u:tok-1 R=_x+1,
14:u:tok-1RR=_x+2,
14:u:Fst-1 R=_x+1,
14:u:Fst-2 X=Lu/P,
19:u:Fst-2 R=_x+1/_x+1,
11:u:Pre-1 X=P,
12:u:Pre-2 X=Pr,
14:u:Pre-2 R=_x+1,
12:u:Suf-2 L=ty,
12:u:Suf-2 X=s.,
14:u:Cap-1 R=_x+1,
22:u:Cap-2 R=initial/_x+1,
14:u:Num-1 R=_x+1,
14:u:Key-1 R=_x+1,
14:u:Pos-1 X=last,
16:u:Pos-2 L=9/last,
19:u:Pos-2 R=last/_x+1,
14:u:Pct-1 R=_x+1,
14:u:Brk-1 R=_x+1,
14:u:Tmn-1 R=_x+1,
21:u:Tmn-2 R=strong/_x+1,
21:u:Tmn-4 R=strong/_x+1,
12:u:Suf-2 X=r,,
17:u:Pos-2 R=first/1,
11:u:tok-1 X=r,
12:u:tok-1RR=as,
14:u:Fst-2 R=Lu/E,
12:u:Pre-2 R=Ec,
12:u:Suf-2 L=r,,
12:u:Suf-2 X=R.,
17:u:Pos-2 L=first/1,
12:u:tok-1 L=r.,
12:u:tok-1 R=as,
14:u:Fst-2 X=Lu/E,
14:u:Lst-2 X=Ll/m,
11:u:Pre-1 X=E,
11:u:Suf-1 X=m,
12:u:Suf-2 L=R.,
16:u:Tmn-3 X=none/m,
12:u:tok-1LL=r.,
12:u:tok-1RR=an,
14:u:Lst-2 L=Ll/m,
14:u:Lst-2 X=Ll/s,
11:u:Suf-1 X=s,
12:u:Suf-2 L=em,
12:u:Suf-2 X=as,
16:u:Tmn-3 X=none/s,
19:u:tok-1 X=structure,
12:u:tok-1 L=as,
12:u:tok-1 R=an,
14:u:Fst-2 R=Lu/A,
14:u:Lst-2 L=Ll/s,
12:u:Pre-2 R=An,
12:u:tok-1 X=an,
12:u:Pre-2 X=An,
12:u:Pre-2 R=Ac,
12:u:tok-1 L=an,
13:u:tok-1RR=for,
12:u:Pre-2 X=Ac,
12:u:Suf-2 X=le,
12:u:tok-1LL=an,
13:u:tok-1 R=for,
14:u:Fst-2 R=Ll/f,
14:u:Lst-2 X=Ll/t,
12:u:Pre-2 R=fo,
11:u:Suf-1 X=t,
12:u:Suf-2 L=le,
12:u:Suf-2 X=ct,
16:u:Tmn-3 X=none/t,
13:u:Tok-1 X=for,
13:u:tok-1 X=for,
17:u:tok-1RR=journal,
14:u:Fst-2 X=Ll/f,
14:u:Lst-2 L=Ll/t,
14:u:Lst-2 X=Ll/r,
11:u:Pre-1 X=f,
12:u:Pre-2 X=fo,
11:u:Suf-1 X=r,
12:u:Suf-2 L=ct,
12:u:Suf-2 X=or,
16:u:Tmn-3 X=none/r,
13:u:tok-1 L=for,
17:u:tok-1 R=journal,
14:u:Fst-2 R=Lu/J,
14:u:Lst-2 L=Ll/r,
12:u:Pre-2 R=Jo,
12:u:Suf-2 L=or,
12:u:Suf-2 X=y.,
17:u:Key-1 R=journal,
24:u:Tmn-2 R=strong/journal,
17:u:Tok-1 X=Journal,
17:u:tok-1 X=journal,
13:u:tok-1LL=for,
20:u:tok-2 R=journal/of,
14:u:Fst-2 X=Lu/J,
14:u:Lst-2 X=Ll/l,
11:u:Pre-1 X=J,
12:u:Pre-2 X=Jo,
11:u:Suf-1 X=l,
12:u:Suf-2 L=y.,
12:u:Suf-2 X=al,
17:u:Key-1 X=journal,
25:u:Key-2 X=journal/initial,
22:u:Key-3 x=journal/none,
16:u:Tmn-3 X=none/l,
17:u:tok-1 L=journal,
20:u:tok-1 R=management,
20:u:tok-2 L=journal/of,
14:u:Fst-2 R=Lu/M,
14:u:Lst-2 L=Ll/l,
12:u:Pre-2 R=Ma,
12:u:Suf-2 L=al,
17:u:Key-1 L=journal,
22:u:Tmn-2 L=journal/none,
20:u:Tok-1 X=Management,
20:u:tok-1 X=management,
17:u:tok-1LL=journal,
11:u:Fst-1 R=N,
14:u:Fst-2 X=Lu/M,
13:u:Fst-2 R=N/4,
11:u:Pre-1 X=M,
12:u:Pre-2 X=Ma,
12:u:Suf-2 X=nt,
16:u:Num-1 R=volume,
23:u:Brk-1 R=closing-paren,
20:u:Tmn-4 R=none/other,
17:u:tok-1RR=(2017).,
11:*:Fst-1 X=N,
13:u:Fst-2 X=N/4,
13:u:Fst-2 R=N/3,
12:u:Lst-1 X=Pe,
14:u:Lst-2 X=Pe/),
11:u:Pre-1 X=4,
12:u:Pre-2 X=43,
12:u:Pre-2 R=39,
11:u:Suf-1 X=),
12:u:Suf-2 L=nt,
21:u:Cap-2 R=other/other,
20:u:Cap-3 L=none/other,
16:*:Num-1 X=volume,
15:u:Num-1 R=range,
23:u:Num-2 R=volume/strong,
16:u:Pct-1 R=hyphen,
23:u:Brk-1 X=closing-paren,
18:u:Tmn-3 X=strong/),
17:u:tok-1 R=(2017).,
13:u:Fst-2 X=N/3,
12:*:Lst-1 L=Pe,
11:u:Lst-1 X=N,
14:u:Lst-2 L=Pe/),
11:u:Pre-1 X=3,
21:u:Cap-2 L=other/other,
16:*:Num-1 L=volume,
15:*:Num-1 X=range,
20:u:Num-2 R=range/none,
16:u:Pct-1 X=hyphen,
23:u:Brk-1 L=closing-paren,
14:u:tok-1 X=2017,
11:*:Lst-1 L=N,
20:u:Cap-2 R=other/_x+1,
15:*:Num-1 L=range,
16:u:Pct-1 L=hyphen,
12:u:tok-1 R=w.,
14:u:Fst-2 X=Lu/B,
11:u:Pre-1 X=B,
12:u:Pre-2 X=Be,
12:u:Pre-2 R=W.,
12:u:Tok-1 X=W.,
11:u:tok-1 X=w,
12:u:Pre-2 X=W.,
12:u:Pre-2 R=Sa,
12:u:Suf-2 X=W.,
12:u:tok-1 L=w.,
12:u:Pre-2 X=Sa,
12:u:Suf-2 L=W.,
12:u:Suf-2 X=me,
14:u:Fst-2 R=Ll/b,
12:u:Suf-2 L=me,
14:u:Fst-2 X=Ll/b,
11:u:Pre-1 X=b,
12:u:Pre-2 R=Di,
12:u:Suf-2 X=ut,
13:u:Pos-2 R=4/6,
17:u:tok-1 R=(2024).,
12:u:Pre-2 X=Di,
12:u:Suf-2 L=ut,
13:u:Pos-2 L=4/6,
17:u:tok-1 L=(2024).,
12:u:Pre-2 R=Re,
12:u:Suf-2 X=in,
16:u:Pos-2 R=8/last,
18:u:tok-1 X=research,
12:u:Pre-2 X=Re,
12:u:Suf-2 L=in,
12:u:Suf-2 X=h.,
16:u:Pos-2 L=8/last,
12:u:Suf-2 X=s,,
12:u:Suf-2 L=s,,
12:u:Suf-2 X=.,,
12:u:Pre-2 R=Do,
12:u:Suf-2 L=.,,
23:u:Cap-2 L=single/single,
12:u:tok-1 L=m.,
12:u:Pre-2 X=Do,
12:u:Suf-2 L=M.,
18:u:Tmn-2 R=none/and,
12:u:tok-1LL=m.,
12:u:tok-1RR=j.,
14:u:Fst-2 R=Lu/G,
18:u:Key-3 L=none/and,
21:u:Tmn-4 R=none/single,
12:u:tok-1 R=j.,
14:u:Fst-2 X=Lu/G,
11:u:Pre-1 X=G,
12:u:Pre-2 R=J.,
21:u:Cap-3 L=none/single,
12:u:Tok-1 X=J.,
11:u:tok-1 X=j,
14:u:Fst-2 R=Lu/I,
12:u:Pre-2 X=J.,
12:u:Suf-2 X=J.,
19:u:Tok-1 X=Ikenberry,
19:u:tok-1 X=ikenberry,
12:u:tok-1LL=g.,
12:u:tok-1 L=j.,
22:u:tok-1RR=intellectual,
22:u:tok-2 L=j./ikenberry,
22:u:tok-2 R=ikenberry/an,
14:u:Fst-2 X=Lu/I,
11:u:Pre-1 X=I,
12:u:Pre-2 X=Ik,
12:u:Suf-2 L=J.,
12:u:Suf-2 X=ry,
12:u:tok-1LL=j.,
12:u:Pre-2 R=In,
12:u:Suf-2 L=ry,
12:u:Pre-2 X=In,
12:u:Suf-2 X=ce,
14:u:Fst-2 R=Lu/K,
12:u:Suf-2 L=ce,
14:u:Fst-2 X=Lu/K,
11:u:Pre-1 X=K,
12:u:Suf-2 X=us,
12:u:Pre-2 R=(1,
12:u:Suf-2 L=us,
12:u:Pre-2 R=Po,
15:u:tok-1 X=power,
12:u:Pre-2 X=Po,
19:u:tok-1RR=security,,
19:u:tok-1 R=security,,
12:u:Pre-2 R=Se,
19:u:Tok-1 X=Security,,
18:u:tok-1 X=security,
12:u:Pre-2 X=Se,
12:u:Pre-2 R=Ro,
19:u:tok-1 X=routledge,
12:u:Pre-2 X=Ro,
12:u:Suf-2 X=e.,
19:u:tok-1RR=deterring,
12:u:Pre-2 X=Bl,
19:u:tok-1 R=deterring,
15:u:tok-1RR=cyber,
19:u:Tok-1 X=Deterring,
19:u:tok-1 X=deterring,
15:u:tok-1 R=cyber,
14:u:Lst-2 X=Ll/g,
12:u:Pre-2 R=Cy,
11:u:Suf-1 X=g,
12:u:Suf-2 X=ng,
16:u:Tmn-3 X=none/g,
15:u:Tok-1 X=Cyber,
15:u:tok-1 X=cyber,
19:u:tok-1 L=deterring,
14:u:Lst-2 L=Ll/g,
12:u:Pre-2 X=Cy,
12:u:Suf-2 L=ng,
12:u:Suf-2 X=er,
15:u:tok-1 L=cyber,
12:u:Suf-2 L=er,
15:u:tok-1LL=cyber,
12:u:Pre-2 R=Ex,
12:u:Suf-2 L=n:,
12:u:Pre-2 X=Ex,
12:u:Suf-2 X=ed,
12:u:Suf-2 L=ed,
12:u:Pre-2 R=At,
21:u:tok-1 X=attribution,
12:u:Pre-2 X=At,
12:u:Pre-2 R=Su,
12:u:Suf-2 X=n.,
22:u:tok-1 L=attribution.,
13:u:Fst-2 R=N/6,
12:u:Suf-2 L=n.,
22:u:tok-1LL=attribution.,
13:u:Fst-2 X=N/6,
13:u:Fst-2 R=N/1,
11:u:Pre-1 X=6,
13:u:Fst-2 X=N/1,
11:u:Pre-1 X=1,
12:u:Suf-2 X=d,,
14:u:Fst-2 R=Lu/F,
12:u:Suf-2 L=d,,
14:u:Fst-2 X=Lu/F,
11:u:Pre-1 X=F,
12:u:Pre-2 X=F.,
11:u:tok-1 X=e,
12:u:Suf-2 L=E.,
12:u:tok-1LL=e.,
12:u:Suf-2 X=ld,
14:u:Fst-2 R=Lu/N,
12:u:Suf-2 L=ld,
16:u:Key-1 R=volume,
21:u:Tmn-2 R=none/volume,
14:u:Fst-2 X=Lu/N,
11:u:Pre-1 X=N,
16:u:Key-1 X=volume,
21:u:Key-3 L=none/volume,
23:u:Key-3 x=volume/strong,
12:u:Pre-2 R=Ri,
12:u:Suf-2 L=N.,
16:u:Key-1 L=volume,
17:u:Tok-1 X=Ripsman,
17:u:tok-1 X=ripsman,
19:u:tok-1RR=political,
20:u:tok-2 L=m./ripsman,
21:u:tok-2 R=ripsman/the,
12:u:Pre-2 X=Ri,
17:u:tok-1RR=economy,
23:u:tok-2 R=the/political,
14:u:Fst-2 R=Ll/p,
19:u:tok-1 X=political,
17:u:tok-1 R=economy,
23:u:tok-2 L=the/political,
27:u:tok-2 R=political/economy,
14:u:Fst-2 X=Ll/p,
14:u:Fst-2 R=Ll/e,
11:u:Pre-1 X=p,
21:u:Cap-2 R=lower/lower,
19:u:tok-1 L=political,
18:u:tok-1RR=national,
27:u:tok-2 L=political/economy,
14:u:Fst-2 X=Ll/e,
11:u:Pre-1 X=e,
21:u:Cap-2 L=lower/lower,
19:u:tok-1LL=political,
18:u:tok-1 R=national,
21:u:tok-2 R=of/national,
14:u:Fst-2 R=Ll/n,
18:u:tok-1 X=national,
21:u:tok-2 L=of/national,
14:u:Fst-2 X=Ll/n,
14:u:Fst-2 R=Ll/s,
11:u:Pre-1 X=n,
18:u:tok-1 L=national,
18:u:tok-1 R=economic,
14:u:Fst-2 X=Ll/s,
11:u:Pre-1 X=s,
12:u:Suf-2 X=y:,
18:u:tok-1LL=national,
12:u:Suf-2 L=y:,
14:u:Fst-2 R=Ll/i,
12:u:Pre-2 R=in,
12:u:Suf-2 X=t,,
23:u:tok-1RR=international,
14:u:Fst-2 X=Ll/i,
11:u:Pre-1 X=i,
12:u:Pre-2 X=in,
12:u:Suf-2 L=t,,
23:u:tok-1 R=international,
27:u:tok-2 R=and/international,
23:u:Tok-1 X=international,
23:u:tok-1 X=international,
18:u:tok-1RR=security,
27:u:tok-2 L=and/international,
14:u:Fst-2 R=Ll/c,
12:u:Pre-2 R=co,
18:u:Tmn-2 L=and/none,
18:u:tok-1 X=conflict,
23:u:tok-1 L=international,
18:u:tok-1 R=security,
17:u:tok-1RR=studies,
14:u:Fst-2 X=Ll/c,
11:u:Pre-1 X=c,
12:u:Pre-2 X=co,
12:u:Suf-2 X=t.,
18:u:Tok-1 X=Security,
23:u:tok-1LL=international,
17:u:tok-1 R=studies,
26:u:tok-2 R=security/studies,
12:u:Suf-2 L=t.,
17:u:Tok-1 X=Studies,
17:u:tok-1 X=studies,
18:u:tok-1 L=security,
26:u:tok-2 L=security/studies,
12:u:Suf-2 X=es,
18:u:tok-1LL=security,
17:u:tok-1 L=studies,
13:u:Fst-2 X=N/9,
11:u:Pre-1 X=9,
12:u:Pre-2 R=1-,
12:u:Suf-2 L=es,
17:u:tok-1LL=studies,
12:u:Pre-2 X=1-,
12:u:Suf-2 X=14,
13:u:Lst-2 L=N/4,
12:u:Suf-2 L=14,
22:u:Cap-2 R=single/lower,
22:u:Tmn-4 R=strong/lower,
12:u:tok-1RR=w.,
22:u:Cap-2 L=single/lower,
22:u:Cap-3 L=strong/lower,
14:u:Key-1 R=page,
12:u:Suf-2 X=S.,
14:u:Key-1 X=page,
19:u:Key-3 L=none/page,
21:u:Key-3 x=page/strong,
12:u:tok-1 L=s.,
14:u:Fst-2 R=Lu/L,
12:u:Pre-2 R=Lo,
12:u:Suf-2 L=S.,
14:u:Key-1 L=page,
12:u:tok-1LL=s.,
14:u:Fst-2 X=Lu/L,
11:u:Pre-1 X=L,
12:u:Pre-2 X=Lo,
18:u:tok-1 R=coercion,
12:u:tok-1RR=in,
12:u:tok-1 R=in,
21:u:tok-1RR=cyberspace.,
12:u:Suf-2 X=on,
12:u:Key-1 R=in,
17:u:Tmn-2 R=none/in,
12:u:Tok-1 X=in,
12:u:tok-1 X=in,
21:u:tok-1 R=cyberspace.,
24:u:tok-2 R=in/cyberspace.,
12:u:Suf-2 L=on,
12:u:Key-1 X=in,
18:u:Key-2 X=in/lower,
17:u:Key-3 L=none/in,
17:u:Key-3 x=in/none,
21:u:Tok-1 X=Cyberspace.,
20:u:tok-1 X=cyberspace,
12:u:tok-1 L=in,
24:u:tok-2 L=in/cyberspace.,
12:u:Key-1 L=in,
12:u:tok-1LL=in,
12:u:Suf-2 L=e.,
21:u:tok-1LL=cyberspace.,
13:u:Fst-2 R=N/2,
13:u:Fst-2 X=N/2,
11:u:Pre-1 X=2,
13:u:Lst-2 X=N/1,
11:u:Suf-1 X=1,
16:u:Tmn-3 X=none/1,
13:u:Lst-2 L=N/1,
17:u:tok-1RR=foreign,
12:u:Pre-2 X=Br,
17:u:tok-1 R=foreign,
22:u:tok-1RR=intelligence,
12:u:Pre-2 R=Fo,
17:u:Tok-1 X=Foreign,
17:u:tok-1 X=foreign,
22:u:tok-1 R=intelligence,
30:u:tok-2 R=foreign/intelligence,
12:u:Pre-2 X=Fo,
12:u:Suf-2 X=gn,
22:u:Tok-1 X=Intelligence,
22:u:tok-1 X=intelligence,
17:u:tok-1 L=foreign,
14:u:Fst-2 R=Lu/H,
12:u:Pre-2 R=Ha,
12:u:Suf-2 L=gn,
17:u:Tok-1 X=Hackers,
17:u:tok-1 X=hackers,
22:u:tok-1 L=intelligence,
14:u:Fst-2 X=Lu/H,
11:u:Pre-1 X=H,
12:u:Pre-2 X=Ha,
12:u:Suf-2 X=rs,
22:u:tok-1LL=intelligence,
17:u:tok-1 L=hackers,
12:u:Suf-2 L=rs,
12:u:Pre-2 R=Pl,
12:u:Suf-2 X=ir,
12:u:Pre-2 X=Pl,
12:u:Suf-2 L=ir,
16:u:tok-2 R=in/the,
14:u:Fst-2 R=Ll/t,
12:u:Pre-2 R=th,
13:u:Tok-1 X=the,
16:u:tok-2 L=in/the,
14:u:Fst-2 X=Ll/t,
11:u:Pre-1 X=t,
12:u:Pre-2 X=th,
14:u:Cap-1 R=caps,
20:u:Cap-2 R=lower/caps,
17:u:Tmn-2 L=in/none,
19:u:Tmn-4 R=none/caps,
12:u:Lst-1 X=Lu,
14:u:Lst-2 X=Lu/C,
11:u:Suf-1 X=C,
14:u:Cap-1 X=caps,
20:u:Cap-2 L=lower/caps,
22:u:Cap-2 R=caps/initial,
19:u:Cap-3 L=none/caps,
19:u:Key-2 X=none/caps,
16:u:Tmn-3 X=none/C,
12:*:Lst-1 L=Lu,
14:u:Lst-2 L=Lu/C,
14:u:Cap-1 L=caps,
22:u:Cap-2 L=caps/initial,
12:u:Pre-2 X=Bu,
11:u:tok-1 X=i,
12:u:Pre-2 R=Na,
12:u:tok-1 L=i.,
12:u:Pre-2 X=Na,
12:u:Suf-2 L=I.,
12:u:Suf-2 X=te,
12:u:Suf-2 L=te,
12:u:Suf-2 X=ge,
14:u:tok-1RR=law.,
12:u:Suf-2 L=ge,
18:u:tok-1RR=research,
14:u:Fst-2 R=Ll/l,
12:u:Pre-2 R=la,
13:u:tok-1 X=law,
18:u:tok-1 R=research,
14:u:Fst-2 X=Ll/l,
11:u:Pre-1 X=l,
12:u:Pre-2 X=la,
12:u:Suf-2 X=w.,
18:u:Tok-1 X=Research,
18:u:tok-1 R=handbook,
12:u:tok-1RR=on,
14:u:Lst-2 X=Ll/h,
11:u:Suf-1 X=h,
12:u:Suf-2 L=w.,
12:u:Suf-2 X=ch,
16:u:Tmn-3 X=none/h,
18:u:Tok-1 X=Handbook,
18:u:tok-1 X=handbook,
18:u:tok-1 L=research,
12:u:tok-1 R=on,
14:u:Lst-2 L=Ll/h,
14:u:Lst-2 X=Ll/k,
12:u:Pre-2 R=on,
11:u:Suf-1 X=k,
12:u:Suf-2 L=ch,
12:u:Suf-2 X=ok,
16:u:Tmn-3 X=none/k,
12:u:Tok-1 X=on,
12:u:tok-1 X=on,
18:u:tok-1LL=research,
18:u:tok-1 L=handbook,
13:u:tok-1RR=law,
14:u:Lst-2 L=Ll/k,
12:u:Pre-2 X=on,
12:u:Suf-2 L=ok,
23:u:Tok-1 X=International,
18:u:tok-1LL=handbook,
12:u:tok-1 L=on,
13:u:tok-1 R=law,
27:u:tok-2 R=international/law,
12:u:Pre-2 R=La,
13:u:Tok-1 X=Law,
12:u:tok-1LL=on,
27:u:tok-2 L=international/law,
17:u:tok-2 R=law/and,
14:u:Lst-2 X=Ll/w,
12:u:Pre-2 X=La,
11:u:Suf-1 X=w,
12:u:Suf-2 X=aw,
16:u:Tmn-3 X=none/w,
13:u:tok-1 L=law,
17:u:tok-2 L=law/and,
14:u:Lst-2 L=Ll/w,
12:u:Suf-2 L=aw,
13:u:tok-1LL=law,
12:u:Pre-2 R=El,
12:u:Pre-2 X=El,
12:u:Suf-2 X=ar,
17:u:tok-1RR=(2021).,
12:u:Pre-2 R=23,
12:u:Suf-2 L=ar,
17:u:tok-1 R=(2021).,
13:u:Lst-2 X=N/2,
11:u:Suf-1 X=2,
16:u:Tmn-3 X=none/2,
14:u:tok-1 X=2021,
13:u:Lst-2 L=N/2,
12:u:Pre-2 X=Ca,
12:u:Pre-2 X=pa,
12:u:Suf-2 L=ps,
12:u:Pre-2 R=cy,
23:u:tok-1 X=cybersecurity,
12:u:Pre-2 X=cy,
20:u:tok-1 X=strategies,
12:u:Suf-2 L=s.,
17:u:tok-1 X=affairs,
23:u:Brk-1 R=opening-paren,
19:u:tok-1 R=institute,
28:u:Num-2 R=none/opening-paren,
23:u:Brk-1 X=opening-paren,
19:u:Tok-1 X=Institute,
19:u:tok-1 X=institute,
23:u:Brk-1 L=opening-paren,
19:u:tok-1 L=institute,
26:u:tok-2 R=of/international,
19:u:tok-1LL=institute,
26:u:tok-2 L=of/international,
14:u:tok-1 X=2016,
14:u:Fst-2 R=Lu/V,
12:u:Pre-2 X=Ch,
12:u:Suf-2 X=a,,
14:u:Fst-2 X=Lu/V,
11:u:Pre-1 X=V,
12:u:tok-1 L=v.,
12:u:tok-1LL=v.,
12:u:Suf-2 X=ve,
12:u:Suf-2 L=ve,
12:u:Pre-2 R=Ch,
12:u:Pre-2 R=We,
12:u:Suf-2 X='s,
12:u:Pre-2 X=We,
12:u:Suf-2 L='s,
12:u:Pre-2 R=Pa,
12:u:Pre-2 X=Pa,
12:u:Pre-2 R=pr,
12:u:Pre-2 X=pr,
12:u:Pre-2 R=fu,
16:u:tok-1 X=future,
12:u:Pre-2 X=fu,
21:u:Cap-2 R=lower/other,
21:u:Cap-2 L=lower/other,
17:u:tok-1 L=(2010).,
12:u:Suf-2 X=ts,
12:u:Suf-2 L=ts,
17:u:tok-1RR=working,
12:u:Pre-2 R=Te,
20:u:tok-1 X=technology,
17:u:tok-1 R=working,
15:u:tok-1RR=paper,
12:u:Pre-2 X=Te,
12:u:Pre-2 R=Wo,
17:u:Tok-1 X=Working,
17:u:tok-1 X=working,
15:u:tok-1 R=paper,
23:u:tok-2 R=working/paper,
12:u:Pre-2 X=Wo,
15:u:Tok-1 X=Paper,
15:u:tok-1 X=paper,
21:u:tok-1LL=technology.,
17:u:tok-1 L=working,
23:u:tok-2 L=working/paper,
20:u:tok-2 R=paper/_x+1,
19:u:Tmn-2 R=none/_x+1,
19:u:Tmn-4 R=none/_x+1,
20:u:tok-1RR=cyberspace,
20:u:tok-1 R=cyberspace,
20:u:Tok-1 X=Cyberspace,
20:u:tok-1 L=cyberspace,
12:u:Pre-2 R=Sp,
20:u:tok-1LL=cyberspace,
12:u:Pre-2 X=Sp,
16:u:tok-1RR=review,
14:u:Lst-2 X=Ll/a,
11:u:Suf-1 X=a,
12:u:Suf-2 X=ia,
16:u:Tmn-3 X=none/a,
14:u:Lst-2 L=Ll/a,
12:u:Suf-2 L=ia,
22:u:Tmn-2 R=none/journal,
12:u:Pre-2 R=10,
12:u:Suf-2 X=ew,
16:u:Num-1 R=triple,
22:u:Key-3 L=none/journal,
13:u:Lst-2 X=N/7,
12:u:Pre-2 X=10,
11:u:Suf-1 X=7,
12:u:Suf-2 L=ew,
12:u:Suf-2 X=07,
16:*:Num-1 X=triple,
21:u:Num-2 R=triple/none,
16:u:Tmn-3 X=none/7,
13:u:Lst-2 X=N/0,
11:u:Suf-1 X=0,
16:u:Tmn-3 X=none/0,
13:u:Lst-2 L=N/0,
12:u:Suf-2 X=m,,
12:u:Suf-2 L=m,,
21:u:Tmn-2 R=strong/page,
12:u:tok-1LL=f.,
19:u:Tmn-2 L=page/none,
12:u:Pre-2 R=Le,
12:u:Pre-2 X=Le,
21:u:Tok-1 X=Information,
21:u:tok-1 X=information,
12:u:Pre-2 R=Ag,
13:u:tok-1 X=age,
21:u:tok-1 L=information,
12:u:Pre-2 X=Ag,
14:u:Fst-2 R=Lu/B,
12:u:Pre-2 R=Be,
12:u:Pre-2 R=Ge,
12:u:Pre-2 X=Ge,
11:u:tok-1RR=a,
11:u:tok-1 R=a,
13:u:tok-1RR=new,
11:u:Pre-2 R=a,
11:u:Tok-1 X=a,
11:u:tok-1 X=a,
13:u:tok-1 R=new,
11:u:Pre-2 X=a,
12:u:Pre-2 R=Ne,
11:u:Suf-2 X=a,
13:u:Tok-1 X=New,
13:u:tok-1 X=new,
11:u:tok-1 L=a,
12:u:Pre-2 X=Ne,
11:u:Suf-2 L=a,
11:u:tok-1LL=a,
13:u:tok-1 L=new,
14:u:Fst-2 R=Lu/O,
12:u:Pre-2 R=Or,
13:u:tok-1LL=new,
14:u:Fst-2 X=Lu/O,
11:u:Pre-1 X=O,
12:u:Pre-2 X=Or,
14:u:Fst-2 R=Lu/Y,
14:u:Fst-2 X=Lu/Y,
11:u:Pre-1 X=Y,
12:u:Suf-2 X=ns,
19:u:tok-1RR=cambridge,
12:u:Suf-2 L=ns,
12:u:Pre-2 R=Ca,
19:u:tok-1 X=cambridge,
12:u:Pre-2 X=Fa,
12:u:Suf-2 X=A.,
12:u:tok-1 L=a.,
12:u:Suf-2 L=A.,
16:u:Tok-1 X=Newman,
16:u:tok-1 X=newman,
12:u:tok-1LL=a.,
12:u:tok-1 L=l.,
19:u:tok-2 L=l./newman,
12:u:Pre-2 R=Of,
12:u:Suf-2 L=L.,
12:u:Pre-2 X=Of,
12:u:Suf-2 X=cy,
12:u:Suf-2 L=cy,
12:u:Pre-2 R=Tr,
12:u:Pre-2 X=Tr,
12:u:Pre-2 R=Fr,
19:u:tok-1RR=security.,
12:u:Pre-2 X=Fr,
12:u:Suf-2 X=om,
19:u:tok-1 R=security.,
19:u:Tok-1 X=Security.,
17:u:tok-1 R=(2019).,
14:u:tok-1 X=2019,
19:u:tok-1 L=security.,
13:u:tok-1 R=how,
16:u:tok-1RR=global,
12:u:Pre-2 R=Ho,
13:u:Tok-1 X=How,
13:u:tok-1 X=how,
12:u:Pre-2 X=Ho,
12:u:Pre-2 R=Gl,
12:u:Suf-2 X=ow,
16:u:Tok-1 X=Global,
16:u:tok-1 X=global,
12:u:Pre-2 X=Gl,
16:u:tok-1 L=global,
16:u:tok-1LL=global,
12:u:Suf-2 X=ks,
12:u:Pre-2 X=Sh,
12:u:Suf-2 L=ks,
15:u:Tok-1 X=State,
15:u:tok-1 X=state,
15:u:tok-1 L=state,
13:u:Lst-2 L=N/9,
12:u:Pre-2 R=Hu,
14:u:Lst-2 X=Ll/i,
12:u:Pre-2 X=Hu,
11:u:Suf-1 X=i,
12:u:Suf-2 X=ei,
16:u:Tmn-3 X=none/i,
14:u:Lst-2 L=Ll/i,
12:u:Pre-2 X=fr,
12:u:Suf-2 X=ee,
14:u:Tok-1 X=from,
14:u:tok-1 X=from,
12:u:Pre-2 R=Go,
12:u:Suf-2 L=ee,
14:u:tok-1 L=from,
14:u:tok-1RR=with,
14:u:tok-1LL=from,
14:u:Fst-2 R=Ll/w,
14:u:tok-1 X=with,
14:u:Fst-2 X=Ll/w,
14:u:Fst-2 R=Ll/h,
11:u:Pre-1 X=w,
12:u:Pre-2 R=ho,
12:u:Suf-2 X=th,
14:u:tok-1 L=with,
14:u:Fst-2 X=Ll/h,
11:u:Pre-1 X=h,
12:u:Pre-2 X=ho,
12:u:Suf-2 L=th,
14:u:tok-1LL=with,
14:u:Lst-2 X=Lu/S,
11:u:Suf-1 X=S,
20:u:Cap-2 R=caps/other,
16:u:Tmn-3 X=none/S,
14:u:Lst-2 L=Lu/S,
20:u:Cap-2 L=caps/other,
16:u:Tok-1 X=Nikkei,
16:u:tok-1 X=nikkei,
12:u:tok-1LL=os,
15:u:tok-1 R=asia.,
24:u:tok-2 L=(2024)./nikkei,
22:u:tok-2 R=nikkei/asia.,
12:u:Pre-2 X=Ni,
12:u:Pre-2 R=As,
12:u:Pre-2 X=As,
12:u:Suf-2 X=a.,
15:u:Tok-1 X=Smith,
15:u:tok-1 X=smith,
15:u:tok-1 R=great,
15:u:tok-1RR=power,
18:u:tok-2 L=w./smith,
21:u:tok-2 R=smith/great,
12:u:Pre-2 X=Sm,
12:u:Pre-2 R=Gr,
15:u:tok-1 R=power,
12:u:Pre-2 X=Gr,
12:u:Suf-2 X=at,
12:u:Suf-2 L=at,
15:u:tok-1 L=power,
15:u:tok-1LL=power,
12:u:Pre-2 R=Wi,
12:u:Pre-2 X=Wi,
12:u:Pre-2 R=En,
12:u:Pre-2 X=En,
11:u:tok-1RR=&,
12:u:Pre-2 R=Ta,
11:u:Fst-1 R=P,
12:u:Pre-2 X=Ta,
11:u:Tok-1 X=&,
15:u:tok-1 X=BLANK,
11:*:Fst-1 X=P,
13:u:Fst-2 X=P/&,
13:u:Lst-2 X=P/&,
11:u:Pre-1 X=&,
11:u:Pre-2 X=&,
11:u:Suf-1 X=&,
11:u:Suf-2 X=&,
19:u:Key-2 X=and/other,
13:u:Pct-1 X=amp,
16:u:Tmn-3 X=none/&,
11:u:tok-1 L=&,
13:u:Lst-2 L=P/&,
11:u:Suf-2 L=&,
13:u:Pct-1 L=amp,
15:u:tok-1 X=group,
12:u:Pre-2 R=Cl,
14:u:Lst-2 X=Ll/b,
11:u:Suf-1 X=b,
16:u:Tmn-3 X=none/b,
14:u:Lst-2 L=Ll/b,
12:u:Suf-2 L=i,,
11:u:tok-1 X=c,
11:u:Pre-2 R=A,
11:u:Tok-1 X=A,
14:u:Lst-2 X=Lu/A,
11:u:Pre-2 X=A,
11:u:Suf-1 X=A,
12:u:Suf-2 L=sh,
11:u:Suf-2 X=A,
16:u:Tmn-3 X=none/A,
14:u:Lst-2 L=Lu/A,
11:u:Suf-2 L=A,
16:u:tok-1 R=russia,
12:u:Suf-2 L=w:,
12:u:Suf-2 L=a.,
16:u:tok-1LL=china.,
12:u:tok-1 R=p.,
11:u:tok-1 X=p,
12:u:tok-1 L=p.,
12:u:Suf-2 L=P.,
12:u:tok-1LL=p.,
16:u:tok-1 R=policy,
24:u:Tmn-4 R=moderate/lower,
16:u:tok-1 X=policy,
24:u:Cap-3 L=moderate/lower,
16:u:tok-1 L=policy,
18:u:tok-1 R=politics,
18:u:tok-1 X=politics,
16:u:tok-1LL=policy,
12:u:Pre-2 R=ac,
12:u:Suf-2 X=cs,
12:u:Pre-2 X=ac,
12:u:Suf-2 L=cs,
12:u:Suf-2 X=ss,
12:u:Suf-2 L=ss,
19:u:Tok-1 X=Political,
17:u:Tok-1 X=Economy,
12:u:Pre-2 R=30,
12:u:Pre-2 X=30,
12:u:tok-1 L=b.,
19:u:tok-1RR=character,
12:u:Suf-2 L=B.,
19:u:tok-1 R=character,
19:u:Tok-1 X=Character,
19:u:tok-1 X=character,
22:u:tok-2 R=character/of,
19:u:tok-1 L=character,
18:u:tok-1RR=warfare.,
22:u:tok-2 L=character/of,
19:u:tok-1LL=character,
18:u:tok-1 R=warfare.,
18:u:Tok-1 X=Warfare.,
17:u:tok-1 X=warfare,
12:u:Pre-2 R=Br,
15:u:Tok-1 X=World,
15:u:tok-1 X=world,
15:u:tok-1 L=world,
12:u:Pre-2 R=24,
12:u:Pre-2 R=15,
12:u:Suf-2 X=g,,
12:u:Suf-2 L=g,,
14:u:Fst-2 R=Ll/m,
14:u:Fst-2 X=Ll/m,
11:u:Pre-1 X=m,
18:u:tok-1 X=internet,
12:u:Suf-2 X=et,
14:u:Lst-2 X=Ll/p,
11:u:Suf-1 X=p,
16:u:Tmn-3 X=none/p,
14:u:Lst-2 L=Ll/p,
15:u:Tok-1 X=China,
14:u:tok-1 X=2012,
20:u:tok-1LL=university,
12:u:Suf-2 X=de,
12:u:Pre-2 R=UK,
22:u:Cap-2 R=initial/caps,
22:u:Cap-2 L=initial/caps,
16:u:tok-1 X=london,
15:u:tok-1 X=trust,
12:u:Suf-2 X=st,
12:u:Pre-2 R=Mi,
12:u:Suf-2 L=st,
12:u:Pre-2 X=Mi,
13:u:Lst-2 X=N/6,
11:u:Suf-1 X=6,
16:u:Tmn-3 X=none/6,
11:u:tok-1 X=t,
12:u:Suf-2 L=T.,
17:u:Tok-1 X=Krastev,
17:u:tok-1 X=krastev,
13:u:tok-1LL=a.,,
14:u:tok-1RR=mark,
20:u:tok-2 L=i./krastev,
21:u:tok-2 R=krastev/and,
14:u:Lst-2 X=Ll/v,
11:u:Suf-1 X=v,
12:u:Suf-2 X=ev,
16:u:Tmn-3 X=none/v,
17:u:tok-1 L=krastev,
14:u:tok-1 R=mark,
16:u:tok-1RR=living,
21:u:tok-2 L=krastev/and,
18:u:tok-2 R=and/mark,
12:u:Suf-2 L=ev,
14:u:Tok-1 X=Mark,
14:u:tok-1 X=mark,
17:u:tok-1LL=krastev,
16:u:tok-1 R=living,
18:u:tok-2 L=and/mark,
21:u:tok-2 R=mark/living,
12:u:Pre-2 R=Li,
12:u:Suf-2 X=rk,
12:u:Pre-2 X=Li,
12:u:Suf-2 L=rk,
12:u:Pre-2 X=Wh,
12:u:Pre-2 R=Eu,
12:u:Pre-2 X=Eu,
16:u:tok-1RR=public,
12:u:Pre-2 R=gl,
16:u:Tok-1 X=global,
12:u:Pre-2 X=gl,
16:u:tok-1 X=public,
19:u:Tmn-4 R=weak/caps,
16:u:tok-1LL=public,
19:u:Cap-3 L=weak/caps,
14:u:Fst-2 R=Lu/Z,
14:u:Fst-2 X=Lu/Z,
11:u:Pre-1 X=Z,
12:u:Pre-2 X=14,
19:u:Num-2 R=year/none,
12:u:Pre-2 R=Sc,
12:u:Pre-2 X=Sc,
16:u:Num-1 R=single,
11:u:tok-1 X=3,
13:u:Lst-2 X=N/3,
11:u:Suf-1 X=3,
16:*:Num-1 X=single,
21:u:Num-2 R=single/none,
16:u:Tmn-3 X=none/3,
16:*:Num-1 L=single,
17:u:tok-1 X=lindsay,
12:u:Suf-2 X=ke,
14:u:Lst-2 X=Ll/x,
11:u:Suf-1 X=x,
16:u:Tmn-3 X=none/x,
12:u:Suf-2 X=d.,
24:u:Key-3 x=journal/strong,
12:u:tok-1RR=to,
12:u:Suf-2 L=d.,
12:u:tok-1 R=to,
12:u:Pre-2 R=to,
12:u:Tok-1 X=to,
12:u:tok-1 X=to,
14:u:Lst-2 X=Ll/o,
12:u:Pre-2 X=to,
11:u:Suf-1 X=o,
12:u:Suf-2 X=to,
16:u:Tmn-3 X=none/o,
12:u:tok-1 L=to,
14:u:Lst-2 L=Ll/o,
12:u:Suf-2 L=to,
12:u:Suf-2 X=t:,
12:u:tok-1LL=to,
12:u:Suf-2 L=t:,
16:u:tok-1 R=theory,
16:u:Tok-1 X=Theory,
16:u:tok-1 X=theory,
18:u:tok-1 X=practice,
16:u:tok-1RR=oxford,
12:u:Pre-2 X=Ox,
16:u:tok-1 L=oxford,
16:u:tok-1LL=oxford,
20:u:tok-1RR=technology,
12:u:Pre-2 R=Em,
12:u:Pre-2 X=Em,
12:u:Suf-2 X=gy,
20:u:tok-1 L=technology,
12:u:Suf-2 L=gy,
16:u:tok-2 R=of/the,
22:u:tok-1RR=contemporary,
16:u:tok-2 L=of/the,
22:u:tok-1 R=contemporary,
22:u:Tok-1 X=Contemporary,
22:u:tok-1 X=contemporary,
16:u:Tok-1 X=Policy,
21:u:tok-1RR=operations,,
21:u:tok-1 R=operations,,
27:u:tok-2 R=cyber/operations,,
12:u:Pre-2 R=Op,
21:u:Tok-1 X=Operations,,
20:u:tok-1 X=operations,
27:u:tok-2 L=cyber/operations,,
12:u:Pre-2 X=Op,
21:u:tok-1 L=operations,,
12:u:Pre-2 X=Si,
12:u:Pre-2 X=Cr,
13:u:Pos-2 R=1/3,
13:u:Pos-2 L=1/3,
12:u:Pre-2 X=No,
12:u:Suf-2 X=rt,
12:u:Suf-2 L=rt,
13:u:Lst-2 X=P/?,
11:u:Suf-1 X=?,
16:u:Tmn-3 X=weak/?,
13:u:Lst-2 L=P/?,
12:u:Suf-2 L=y?,
12:u:Pre-2 R=Bu,
17:u:tok-1RR=digital,
17:u:tok-1 R=digital,
17:u:Tok-1 X=Digital,
17:u:tok-1 X=digital,
17:u:tok-1 L=digital,
17:u:tok-1LL=digital,
12:u:Pre-2 R=To,
12:u:Suf-2 X=ex,
12:u:Pre-2 R=25,
12:u:Pre-2 X=25,
14:u:Tok-1 X=Law.,
16:u:tok-1 X=online,
12:u:Pre-2 X=On,
12:u:Suf-2 X=ne,
12:u:Pre-2 R=Ar,
12:u:Suf-2 L=ne,
14:u:tok-1 L=law,,
12:u:tok-1 R=3.,
12:u:Pre-2 X=Ar,
12:u:Pre-2 R=3.,
12:u:Suf-2 L=w,,
17:u:Num-1 R=numeric,
14:u:tok-1LL=law,,
12:u:Suf-2 X=3.,
17:*:Num-1 X=numeric,
22:u:Num-2 R=numeric/none,
24:u:Num-2 R=numeric/strong,
12:u:Suf-2 L=3.,
17:*:Num-1 L=numeric,
12:u:Pre-2 R=Ja,
12:u:Pre-2 X=Ja,
14:u:tok-1 X=2015,
12:u:Suf-2 X=is,
12:u:Suf-2 L=is,
14:u:tok-2 R=of/a,
14:u:tok-2 L=of/a,
15:u:Tok-1 X=cyber,
18:u:tok-1RR=critical,
18:u:tok-1 R=critical,
24:u:tok-1 R=infrastructure,
20:u:tok-1RR=protection,
18:u:tok-1 L=critical,
20:u:tok-1 R=protection,
12:u:Suf-2 X=re,
20:u:Tok-1 X=Protection,
20:u:tok-1 X=protection,
18:u:tok-1LL=critical,
24:u:tok-1 L=infrastructure,
13:u:Fst-2 R=N/7,
12:u:Suf-2 L=re,
13:u:Fst-2 X=N/7,
11:u:Pre-1 X=7,
20:u:tok-1RR=operations,
20:u:tok-1 R=operations,
26:u:tok-2 R=cyber/operations,
21:u:Tmn-2 L=volume/none,
26:u:tok-2 L=cyber/operations,
12:u:Pre-2 R=no,
20:u:tok-1 L=operations,
12:u:Pre-2 X=no,
20:u:tok-1LL=operations,
12:u:tok-1RR=by,
14:u:Fst-2 R=Ll/r,
12:u:Pre-2 R=re,
12:u:Suf-2 X=se,
12:u:tok-1 R=by,
14:u:Fst-2 X=Ll/r,
11:u:Pre-1 X=r,
12:u:Pre-2 X=re,
12:u:Pre-2 R=by,
12:u:Suf-2 L=se,
12:u:Tok-1 X=by,
12:u:tok-1 X=by,
12:u:Pre-2 X=by,
12:u:Suf-2 X=by,
12:u:tok-1 L=by,
12:u:Suf-2 L=by,
12:u:tok-1LL=by,
17:u:Tok-1 X=Tallinn,
17:u:tok-1 X=tallinn,
16:u:tok-1 R=manual,
13:u:tok-1RR=2.0,
24:u:tok-2 R=tallinn/manual,
12:u:Suf-2 X=nn,
16:u:Tok-1 X=Manual,
16:u:tok-1 X=manual,
17:u:tok-1 L=tallinn,
13:u:tok-1 R=2.0,
24:u:tok-2 L=tallinn/manual,
20:u:tok-2 R=manual/2.0,
12:u:Pre-2 R=2.,
13:u:Tok-1 X=2.0,
12:u:tok-1 X=20,
17:u:tok-1LL=tallinn,
16:u:tok-1 L=manual,
20:u:tok-2 L=manual/2.0,
16:u:tok-2 R=2.0/on,
12:u:Pre-2 X=2.,
12:u:Suf-2 X=.0,
21:u:Cap-2 R=other/lower,
16:u:tok-1LL=manual,
13:u:tok-1 L=2.0,
16:u:tok-2 L=2.0/on,
16:u:tok-2 R=on/the,
12:u:Suf-2 L=.0,
21:u:Cap-2 L=other/lower,
13:u:tok-1LL=2.0,
16:u:tok-2 L=on/the,
27:u:tok-2 R=the/international,
20:u:tok-1RR=applicable,
27:u:tok-2 L=the/international,
20:u:tok-1 R=applicable,
24:u:tok-2 R=law/applicable,
12:u:Pre-2 R=Ap,
20:u:Tok-1 X=Applicable,
20:u:tok-1 X=applicable,
24:u:tok-2 L=law/applicable,
23:u:tok-2 R=applicable/to,
12:u:Pre-2 X=Ap,
20:u:tok-1 L=applicable,
23:u:tok-2 L=applicable/to,
18:u:tok-2 R=to/cyber,
20:u:tok-1LL=applicable,
18:u:tok-2 L=to/cyber,
12:u:Suf-2 X=s:,
24:u:Tmn-4 R=moderate/other,
12:u:Pre-2 X=16,
12:u:Suf-2 L=s:,
12:u:Suf-2 X=6.,
24:u:Cap-3 L=moderate/other,
18:u:Tok-1 X=National,
17:u:tok-1 X=council,
21:u:Key-3 L=weak/volume,
17:u:tok-1RR=company,
22:u:Cap-2 L=single/other,
17:u:Tok-1 X=Company,
17:u:tok-1 X=company,
12:u:Suf-2 X=ny,
12:u:Suf-2 L=ny,
12:u:Pre-2 R=AP,
15:u:Num-1 R=idnum,
12:u:Pre-2 X=AP,
15:*:Num-1 X=idnum,
20:u:Num-2 R=idnum/none,
17:u:tok-1 X=network,
12:u:Suf-2 L=k.,
17:u:tok-1RR=chinese,
12:u:Pre-2 R=ht,
13:u:Lst-2 X=P//,
12:u:Pre-2 X=ht,
11:u:Suf-1 X=/,
16:u:Tmn-3 X=none//,
13:u:Lst-2 X=P/",
11:u:Suf-1 X=",
12:u:Suf-2 X=.",
18:u:Tmn-3 X=strong/",
12:u:Pre-2 X=Va,
12:u:Pre-2 X=Ev,
12:u:Suf-2 X=0.,
12:u:Suf-2 L=0.,
12:u:Suf-2 X=en,
12:u:Suf-2 L=en,
12:u:Pre-2 R=af,
12:u:Pre-2 X=af,
13:u:Fst-2 R=N/5,
13:u:Fst-2 X=N/5,
11:u:Pre-1 X=5,
12:u:Pre-2 R=ma,
12:u:Pre-2 X=US,
12:u:Pre-2 R=SA,
20:u:Cap-2 R=other/caps,
14:u:Tok-1 X=SAGE,
14:u:tok-1 X=sage,
16:u:tok-1LL=usenix,
15:u:tok-1 R=39(6),
14:u:tok-1RR=6-11,
16:u:tok-2 L=&/sage,
20:u:tok-2 R=sage/39(6),
14:u:Lst-2 X=Lu/E,
12:u:Pre-2 X=SA,
11:u:Suf-1 X=E,
20:u:Cap-2 L=other/caps,
16:u:Tmn-3 X=none/E,
11:u:tok-1LL=&,
14:u:Lst-2 L=Lu/E,
12:u:Pre-2 X=we,
14:u:Lst-2 X=Ll/u,
11:u:Suf-1 X=u,
12:u:Suf-2 L=ue,
16:u:Tmn-3 X=none/u,
14:u:Lst-2 L=Ll/u,
14:u:Fst-2 R=Ps/[,
14:u:Fst-2 X=Ps/[,
11:u:Pre-1 X=[,
14:u:Fst-2 R=Ll/d,
32:u:Brk-1 L=opening-square-bracket,
16:u:tok-1 R=future,
14:u:Fst-2 X=Ll/d,
11:u:Pre-1 X=d,
16:u:Tok-1 X=future,
16:u:tok-1 L=future,
18:u:tok-1 L=strategy,
14:u:tok-1 X=rise,
14:u:tok-1 X=2013,
12:u:Pre-2 R=Da,
12:u:Pre-2 X=Da,
12:u:Pre-2 X=Hi,
12:u:Pre-2 R=Bi,
12:u:Pre-2 X=Bi,
12:u:Suf-2 L=ig,
13:u:tok-1RR=its,
12:u:Pre-2 R=It,
19:u:Tmn-2 L=_x-1/none,
17:u:tok-1RR=warfare,
17:u:tok-1 R=warfare,
17:u:tok-1LL=warfare,
21:u:tok-2 R=handbook/of,
21:u:tok-2 L=handbook/of,
15:u:tok-1RR=2018.,
15:u:tok-1 R=2018.,
12:u:Pre-2 R=20,
12:u:Pre-2 X=20,
12:u:Suf-2 X=8.,
12:u:Suf-2 L=8.,
15:u:tok-1LL=2018.,
15:u:Tok-1 X=Press,
14:u:tok-1RR=york,
15:u:tok-1 L=press,
14:u:tok-1 R=york,
18:u:tok-2 R=new/york,
12:u:Pre-2 R=Yo,
14:u:Tok-1 X=York,
14:u:tok-1 X=york,
15:u:tok-1LL=press,
13:u:tok-1RR=in:,
18:u:tok-2 L=new/york,
12:u:Pre-2 X=Yo,
14:u:tok-1 L=york,
13:u:tok-1 R=in:,
14:u:tok-1LL=york,
11:u:tok-1RR=p,
20:u:Key-2 X=in/initial,
11:u:tok-1 R=p,
16:u:tok-1RR=(ed.),,
13:u:tok-1LL=in:,
16:u:tok-1 R=(ed.),,
14:u:Lst-2 X=Lu/P,
12:u:Pre-2 R=(e,
11:u:Suf-1 X=P,
16:u:Key-1 R=editor,
21:u:Tmn-2 R=none/editor,
16:u:Tmn-3 X=none/P,
12:u:tok-1 X=ed,
12:u:Suf-2 X=),,
20:u:Cap-2 R=lower/_x+1,
21:u:Num-2 R=none/parens,
16:u:Key-1 X=editor,
22:u:Key-2 X=editor/lower,
21:u:Key-3 L=none/editor,
23:u:Key-3 x=editor/strong,
18:u:Tmn-3 X=strong/,,
13:u:Pos-2 L=0/0,
21:u:Tmn-2 L=in/moderate,
13:u:Fst-2 R=P/',
13:u:Fst-2 X=P/',
11:u:Pre-1 X=',
12:u:Pre-2 R=Ce,
12:u:Pre-2 X=Ce,
13:u:Lst-2 L=P/',
12:u:Suf-2 X=SA,
12:u:Suf-2 L=SA,
21:u:Key-1 R=proceedings,
26:u:Tmn-2 R=none/proceedings,
21:u:Key-1 X=proceedings,
29:u:Key-2 X=proceedings/initial,
26:u:Key-3 L=none/proceedings,
26:u:Key-3 x=proceedings/none,
21:u:Key-1 L=proceedings,
26:u:Tmn-2 L=proceedings/none,
15:u:tok-1 L=paper,
15:u:tok-1LL=paper,
18:u:tok-1 X=election,
14:u:Fst-2 R=Ll/u,
12:u:Pre-2 R=un,
14:u:Fst-2 X=Ll/u,
11:u:Pre-1 X=u,
12:u:Pre-2 X=un,
12:u:tok-1 R=so,
15:u:tok-1RR=2013.,
12:u:Pre-2 R=Ti,
15:u:tok-1 R=2013.,
12:u:Pre-2 X=Ti,
15:u:Tok-1 X=2013.,
19:u:tok-1RR=september,
16:u:Num-1 R=double,
15:u:tok-1RR=2017.,
12:u:Suf-2 X=20,
16:*:Num-1 X=double,
21:u:Num-2 R=double/none,
14:u:Key-1 R=date,
19:u:Tmn-2 R=none/date,
19:u:Tok-1 X=September,
19:u:tok-1 X=september,
15:u:tok-1LL=2013.,
15:u:tok-1 R=2017.,
16:*:Num-1 L=double,
14:u:Key-1 X=date,
22:u:Key-2 X=date/initial,
19:u:Key-3 L=none/date,
19:u:Key-3 x=date/none,
15:u:Tok-1 X=2017.,
15:u:tok-1RR=york,,
12:u:Suf-2 X=7.,
14:u:Key-1 L=date,
21:u:Tmn-2 L=date/strong,
15:u:tok-1 L=2017.,
12:u:Suf-2 L=7.,
15:u:tok-1LL=2017.,
14:u:Pos-2 R=9/10,
12:u:Pos-1 X=10,
14:u:Pos-2 L=9/10,
17:u:Pos-2 R=10/last,
17:u:Pos-2 L=10/last,
14:u:tok-1RR=u.s.,
14:u:tok-1 R=u.s.,
12:u:Pre-2 R=U.,
21:u:Tmn-4 R=strong/caps,
14:u:Tok-1 X=U.S.,
12:u:tok-1 X=us,
12:u:Pre-2 X=U.,
21:u:Cap-3 L=strong/caps,
14:u:tok-1 L=u.s.,
14:u:tok-1LL=u.s.,
12:u:Pre-2 R=12,
18:u:tok-1RR=election,
14:u:Tok-1 X=2016,
18:u:tok-1 R=election,
18:u:Tok-1 X=Election,
14:u:tok-1 L=2016,
18:u:tok-1 L=election,
21:u:Tmn-2 R=strong/date,
18:u:tok-1LL=election,
21:u:Key-3 L=strong/date,
12:u:Suf-2 X=id,
12:u:Suf-2 L=id,
25:u:Tmn-4 R=moderate/single,
25:u:Cap-3 L=moderate/single,
19:u:tok-1RR=committee,
19:u:tok-1 R=committee,
19:u:Tok-1 X=Committee,
19:u:tok-1 X=committee,
22:u:tok-2 R=committee/on,
19:u:tok-1 L=committee,
22:u:tok-2 L=committee/on,
19:u:tok-1LL=committee,
12:u:Pre-2 X=He,
16:u:tok-1RR=times.,
15:u:tok-1RR=march,
12:u:tok-1 X=30,
15:u:tok-1 R=march,
15:u:Tok-1 X=March,
15:u:tok-1 X=march,
17:u:tok-1RR=october,
15:u:tok-1LL=march,
31:u:Num-2 R=numeric/opening-paren,
17:u:Tok-1 X=October,
17:u:tok-1 X=october,
15:u:tok-1 R=2017,,
12:u:Pre-2 X=Oc,
17:u:tok-1 L=october,
14:u:tok-1RR=last,
12:u:Suf-2 X=7,,
19:u:Num-2 R=year/weak,
19:u:Tmn-2 L=date/weak,
17:u:tok-1LL=october,
19:u:Key-3 L=weak/date,
14:u:Tok-1 X=last,
14:u:tok-1 X=last,
15:u:tok-1LL=2017,,
14:u:tok-1 L=date,
20:u:tok-1 R=accessed).,
19:u:tok-2 L=date/last,
25:u:tok-2 R=last/accessed).,
18:u:Key-1 R=accessed,
23:u:Tmn-2 R=none/accessed,
20:u:Tok-1 X=accessed).,
18:u:tok-1 X=accessed,
14:u:tok-1LL=date,
14:u:tok-1 L=last,
25:u:tok-2 L=last/accessed).,
28:u:Num-2 R=none/closing-paren,
18:u:Key-1 X=accessed,
24:u:Key-2 X=accessed/lower,
23:u:Key-3 L=none/accessed,
25:u:Key-3 x=accessed/strong,
18:u:Key-1 L=accessed,
23:u:Tmn-2 L=accessed/none,
12:u:Suf-2 X=df,
12:u:tok-1 X=de,
12:u:Pre-2 X=Pe,
19:u:Cap-2 R=caps/caps,
19:u:Cap-2 L=caps/caps,
12:u:Pre-2 R=Fi,
12:u:Pre-2 X=Fi,
17:u:tok-1 X=dossier,
12:u:Suf-2 X=p.,
12:u:Suf-2 L=p.,
18:u:tok-1RR=december,
18:u:tok-1 R=december,
15:u:tok-1RR=2016.,
18:u:tok-1 X=december,
15:u:tok-1 R=2016.,
15:u:Tok-1 X=2016.,
18:u:tok-1 L=december,
14:u:tok-1RR=july,
11:u:tok-1 X=7,
14:u:tok-1 R=july,
12:u:Pre-2 R=Ju,
12:u:Pre-2 X=Ju,
12:u:Suf-2 X=ly,
12:u:tok-1RR=14,
12:u:tok-1 R=14,
14:u:tok-1RR=june,
12:u:Tok-1 X=14,
12:u:tok-1 X=14,
14:u:tok-1 R=june,
14:u:Tok-1 X=June,
14:u:tok-1 X=june,
12:u:tok-1 L=14,
14:u:tok-1 L=june,
14:u:tok-1LL=june,
19:u:Tmn-2 R=weak/_x+1,
19:u:Tmn-4 R=weak/_x+1,
12:u:tok-1 R=et,
14:u:tok-1RR=al.,,
12:u:Pre-2 R=et,
12:u:Tok-1 X=et,
12:u:tok-1 X=et,
14:u:tok-1 R=al.,,
17:u:tok-2 R=et/al.,,
12:u:Pre-2 X=et,
12:u:Pre-2 R=al,
12:u:Pre-2 X=al,
12:u:tok-1LL=et,
14:u:tok-1 L=al.,,
12:u:Pre-2 R=Fa,
12:u:Suf-2 X=ds,
12:u:tok-1RR=at,
18:u:Tok-1 X=Targeted,
18:u:tok-1 X=targeted,
12:u:tok-1 R=at,
12:u:Pre-2 R=at,
12:u:Tok-1 X=at,
12:u:tok-1 X=at,
12:u:Pre-2 X=at,
12:u:tok-1 L=at,
12:u:tok-1LL=at,
12:u:Pre-2 R=No,
18:u:Tok-1 X=November,
18:u:tok-1 X=november,
18:u:tok-1 L=november,
14:u:tok-1RR=post,
20:u:Tok-1 X=Washington,
20:u:tok-1 X=washington,
14:u:tok-1 R=post,
132:u:tok-1RR=https://www.washingtonpost.com/graphics/2017/business/russian-ads-facebook-targeting/?noredirect=on&utm_term=.eec213460940,
26:u:tok-2 L=2017./washington,
25:u:tok-2 R=washington/post,
20:u:tok-1 L=washington,
132:u:tok-1 R=https://www.washingtonpost.com/graphics/2017/business/russian-ads-facebook-targeting/?noredirect=on&utm_term=.eec213460940,
137:u:tok-2 R=post/https://www.washingtonpost.com/graphics/2017/business/russian-ads-facebook-targeting/?noredirect=on&utm_term=.eec213460940,
12:u:Pre-2 X=Du,
12:u:Suf-2 X=l.,
12:u:tok-1RR=or,
12:u:Suf-2 L=l.,
12:u:tok-1RR=us,
12:u:tok-1 R=us,
20:u:Cap-2 R=caps/lower,
12:u:Pre-2 R=de,
20:u:Cap-2 L=caps/lower,
12:u:tok-1LL=us,
12:u:Pre-2 X=de,
24:u:tok-2 R=cyber/warfare.,
24:u:tok-2 L=cyber/warfare.,
11:u:Tok-1 X=J,
14:u:Lst-2 X=Lu/J,
11:u:Pre-2 X=J,
11:u:Suf-1 X=J,
11:u:Suf-2 X=J,
16:u:Tmn-3 X=none/J,
12:u:Suf-2 X=ol,
15:u:tok-1RR=2010.,
12:u:Suf-2 L=it,
21:u:Num-2 R=volume/none,
15:u:tok-1RR=house,
15:u:tok-1 R=house,
12:u:Suf-2 X=am,
15:u:tok-1LL=house,
16:u:tok-1 L=london,
14:u:Lst-2 X=Lu/D,
11:u:Suf-1 X=D,
16:u:Tmn-3 X=none/D,
14:u:Lst-2 L=Lu/D,
14:u:Lst-2 X=Lu/K,
11:u:Suf-1 X=K,
16:u:Tmn-3 X=none/K,
15:u:tok-1RR=about,
15:u:tok-1 R=about,
15:u:tok-1 X=about,
15:u:tok-1 L=about,
15:u:tok-1LL=about,
18:u:tok-1RR=analysis,
18:u:tok-1 R=analysis,
18:u:Tok-1 X=Analysis,
18:u:tok-1 X=analysis,
13:u:tok-1RR=(1),
18:u:tok-1 L=analysis,
24:u:Num-2 R=numeric/parens,
12:u:tok-1LL=21,
20:u:tok-2 R=2013./_x+1,
14:u:Lst-2 X=Lu/N,
11:u:Suf-1 X=N,
16:u:Tmn-3 X=none/N,
14:u:Lst-2 L=Lu/N,
14:u:Lst-2 L=Lu/H,
12:u:Suf-2 L=TH,
19:u:tok-1RR=politics.,
19:u:tok-1RR=quarterly,
12:u:tok-1 X=10,
15:u:tok-1RR=2015.,
15:u:tok-1 R=2015.,
12:u:Suf-2 X=5.,
15:u:tok-1RR=2019.,
15:u:tok-1 R=2019.,
12:u:Suf-2 X=9.,
17:u:tok-1 R=policy.,
25:u:tok-2 R=foreign/policy.,
17:u:Tok-1 X=Policy.,
25:u:tok-2 L=foreign/policy.,
12:u:Pre-2 R=Am,
12:u:Pre-2 X=Am,
12:u:Pre-2 X=FO,
21:u:tok-1 X=cyberattack,
21:u:tok-1RR=proceedings,
12:u:Pre-2 R=Bl,
15:u:tok-1 X=blame,
21:u:Tok-1 X=Proceedings,
21:u:tok-1 X=proceedings,
24:u:tok-2 R=proceedings/of,
12:u:Suf-2 X=gs,
28:u:Key-3 L=strong/proceedings,
21:u:tok-1 L=proceedings,
24:u:tok-2 L=proceedings/of,
12:u:Suf-2 L=gs,
21:u:tok-1LL=proceedings,
17:u:tok-1 R=academy,
26:u:tok-2 R=national/academy,
17:u:Tok-1 X=Academy,
17:u:tok-1 X=academy,
18:u:tok-1RR=sciences,
26:u:tok-2 L=national/academy,
20:u:tok-2 R=academy/of,
17:u:tok-1 L=academy,
18:u:tok-1 R=sciences,
20:u:tok-2 L=academy/of,
21:u:tok-2 R=of/sciences,
17:u:tok-1LL=academy,
12:u:Pre-2 R=11,
12:u:Pre-2 X=11,
16:u:Tok-1 X=Public,
12:u:Suf-2 X=LA,
14:u:Lst-2 X=Lu/I,
11:u:Suf-1 X=I,
16:u:Tmn-3 X=none/I,
14:u:Lst-2 L=Lu/I,
12:u:Pre-2 X=Au,
24:u:tok-2 R=foreign/policy,
24:u:tok-2 L=foreign/policy,
12:u:Pre-2 R=17,
12:u:tok-1 X=17,
12:u:Pre-2 X=17,
15:u:tok-1RR=2021.,
15:u:tok-1 R=2021.,
12:u:Pre-2 R=SI,
12:u:Pre-2 X=SI,
12:u:Pre-2 X=Mu,
12:u:Pre-2 X=MI,
15:u:tok-1 X=white,
12:u:Suf-2 X=el,
17:u:tok-1 X=threats,
12:u:Pre-2 R=Is,
12:u:Pre-2 X=Is,
17:u:tok-1 L=issues.,
12:u:Suf-2 L=O.,
12:u:Pre-2 X=Vi,
12:u:Suf-2 X=ey,
17:u:tok-1LL=against,
18:u:tok-1 X=harknett,
19:u:tok-1LL=harknett,,
12:u:tok-1RR=is,
12:u:tok-1 R=is,
12:u:tok-1 X=is,
20:u:tok-1 R=deterrence,
12:u:tok-1 L=is,
20:u:tok-1LL=deterrence,
12:u:Pre-2 R=19,
12:u:Pre-2 X=19,
12:u:Suf-2 X=m.,
12:u:Suf-2 L=m.,
15:u:Tok-1 X=2012.,
12:u:Suf-2 X=2.,
12:u:Pre-2 X=NA,
12:u:Suf-2 X=c.,
12:u:Suf-2 L=c.,
19:u:tok-2 R=of/global,
19:u:tok-2 L=of/global,
11:u:tok-1RR=6,
11:u:tok-1 R=6,
11:u:Pre-2 R=6,
11:u:tok-1 X=6,
12:u:Pre-2 R=Es,
12:u:Pre-2 X=Es,
16:u:tok-1LL=beyond,
23:u:tok-1 R=cybersecurity,
23:u:tok-1LL=cybersecurity,
13:u:tok-1LL=jon,
21:u:Tok-1 X=Attribution,
21:u:tok-1 L=attribution,
12:u:Pre-2 R=Fe,
12:u:Pre-2 X=Fe,
12:u:Pre-2 R=So,
12:u:Pre-2 X=So,
12:u:Suf-2 X=il,
12:u:Suf-2 X=ur,
12:u:Pre-2 X=Id,
12:u:Suf-2 L=ur,
19:u:Cap-2 R=caps/_x+1,
15:u:Key-1 X=roman,
20:u:Key-2 X=roman/caps,
15:u:tok-1RR=meets,
14:u:Lst-2 X=Lu/O,
11:u:Suf-1 X=O,
12:u:Suf-2 X=TO,
16:u:Tmn-3 X=none/O,
14:u:Lst-2 L=Lu/O,
12:u:Suf-2 L=TO,
13:u:Tok-1 X=Are,
13:u:tok-1 X=are,
13:u:tok-1 L=are,
13:u:tok-1LL=are,
15:u:tok-1 R=2009.,
12:u:Suf-2 X=ou,
12:u:Suf-2 X=be,
12:u:Suf-2 X=NS,
12:u:Suf-2 L=NS,
12:u:Pre-2 R=Vo,
12:u:Pre-2 X=Vo,
12:u:Pre-2 R=Al,
12:u:Pre-2 X=Al,
12:u:Pre-2 R=Ab,
12:u:Pre-2 X=Ab,
22:u:tok-1RR=cyberattacks,
22:u:tok-1 R=cyberattacks,
22:u:Tok-1 X=Cyberattacks,
12:u:tok-1 R=16,
12:u:Suf-2 L=o.,
18:u:tok-1LL=military,
15:u:tok-1LL=force,
15:u:tok-1RR=2020.,
15:u:tok-1 R=2020.,
15:u:Tok-1 X=2020.,
12:u:Fst-1 R=Pd,
12:*:Fst-1 X=Pd,
23:u:tok-1RR=understanding,
23:u:tok-1 R=understanding,
23:u:Tok-1 X=Understanding,
23:u:tok-1 X=understanding,
22:u:tok-2 L=cyber/policy,
11:u:tok-1RR=7,
11:u:tok-1RR=8,
12:u:Pre-2 R=27,
17:u:Num-1 R=ordinal,
17:*:Num-1 X=ordinal,
22:u:Num-2 R=ordinal/none,
24:u:Num-2 R=ordinal/strong,
17:*:Num-1 L=ordinal,
21:u:Key-3 x=date/strong,
20:u:tok-1RR=strategies,
20:u:tok-1 R=strategies,
20:u:Tok-1 X=Strategies,
20:u:tok-1 L=strategies,
20:u:tok-1LL=strategies,
16:u:tok-1 L=during,
22:u:tok-2 L=during/cyber,
16:u:tok-1LL=during,
19:u:Tmn-2 R=strong/in,
12:u:Tok-1 X=In,
12:u:Suf-2 X=In,
19:u:Key-3 L=strong/in,
12:u:Suf-2 L=In,
20:u:tok-1RR=conference,
20:u:Tok-1 X=Conference,
20:u:tok-1 X=conference,
20:u:tok-1 L=conference,
20:u:tok-1LL=conference,
18:u:tok-1 R=conflict,
24:u:tok-2 R=cyber/conflict,
18:u:Tok-1 X=Conflict,
24:u:tok-2 L=cyber/conflict,
18:u:tok-1 L=conflict,
15:u:tok-1 L=2019.,
15:u:tok-1LL=2019.,
12:u:Pre-2 X=ET,
12:u:tok-1 R=de,
22:u:Num-2 R=numeric/weak,
20:u:Tmn-4 R=weak/other,
20:u:Cap-3 L=weak/other,
18:u:tok-1LL=bateman,,
20:u:tok-1LL=government,
18:u:tok-1RR=managing,
18:u:tok-1 R=managing,
15:u:tok-1RR=2022.,
12:u:Suf-2 L=2.,
12:u:Suf-2 L=8,,
12:u:Pre-2 X=EN,
16:u:tok-1RR=attack,
16:u:tok-1 R=attack,
16:u:Tok-1 X=Attack,
12:u:Suf-2 X=ck,
16:u:tok-1 L=attack,
12:u:Suf-2 L=ck,
16:u:tok-1LL=attack,
16:u:tok-1 X=social,
19:u:tok-1 X=insurance,
11:u:tok-1RR=9,
24:u:tok-2 L=attribution/in,
18:u:tok-1 R=criminal,
18:u:tok-1 X=criminal,
18:u:tok-1 L=criminal,
18:u:tok-1LL=criminal,
16:u:tok-1 R=states,
16:u:Tok-1 X=States,
16:u:tok-1 X=states,
16:u:tok-1 L=states,
16:u:tok-1LL=states,
12:u:Suf-2 X=rm,
24:u:tok-1RR=responsibility,
24:u:tok-1 R=responsibility,
24:u:tok-1 X=responsibility,
24:u:tok-1 L=responsibility,
16:u:tok-1 X=august,
15:u:tok-1 L=2021.,
12:u:Suf-2 L=1.,
16:u:tok-1 R=centre,
20:u:Tmn-3 X=moderate/",
16:u:tok-1 X=centre,
13:u:Lst-2 L=P/",
13:u:Fst-2 R=P/",
13:u:Fst-2 X=P/",
11:u:Pre-1 X=",
12:u:Suf-2 L=.",
13:u:tok-1RR=may,
18:u:Tok-1 X=Reuters.,
17:u:tok-1 X=reuters,
13:u:tok-1 R=may,
27:u:tok-2 L=networks/reuters.,
22:u:tok-2 R=reuters./may,
13:u:Tok-1 X=May,
13:u:tok-1 X=may,
13:u:tok-1 L=may,
13:u:tok-1LL=may,
12:u:Suf-2 L=4.,
15:u:Tok-1 X=Study,
15:u:tok-1 X=study,
12:u:Suf-2 X=dy,
14:u:tok-1LL=case,
15:u:tok-1 L=study,
12:u:Suf-2 L=dy,
15:u:tok-1LL=study,
12:u:Pre-2 R=Ir,
12:u:Pre-2 X=Ir,
17:u:tok-1 L=iranian,
20:u:Tok-1 X=Operations,
11:u:Tok-1 X=-,
14:u:Fst-2 X=Pd/-,
12:u:Lst-1 X=Pd,
14:u:Lst-2 X=Pd/-,
11:u:Pre-1 X=-,
11:u:Pre-2 X=-,
11:u:Suf-1 X=-,
11:u:Suf-2 X=-,
16:u:Tmn-3 X=weak/-,
12:*:Lst-1 L=Pd,
13:u:tok-1 L=eu.,
12:u:Suf-2 L=U.,
15:u:tok-1 X=norms,
13:u:tok-1 L=war,
15:u:tok-1RR=2014.,
15:u:tok-1 R=2014.,
15:u:tok-1 L=2014.,
15:u:tok-1LL=2014.,
21:u:Tmn-2 L=_x-1/strong,
18:u:tok-1 R=informal,
14:u:tok-1RR=oewg,
15:u:tok-1RR=2023.,
15:u:tok-1 R=2023.,
15:u:tok-1 L=2023.,
12:u:Suf-2 L=NN,
17:u:tok-1 X=attacks,
27:u:tok-2 R=strategic/studies,
14:u:Tok-1 X=Arms,
14:u:tok-1 X=arms,
22:u:tok-1 L='responsible,
16:u:tok-1 R=export,
17:u:tok-1RR=norms.",
27:u:tok-2 L='responsible/arms,
21:u:tok-2 R=arms/export,
12:u:Suf-2 X=ms,
16:u:Tok-1 X=Export,
16:u:tok-1 X=export,
22:u:tok-1LL='responsible,
14:u:tok-1 L=arms,
17:u:tok-1 R=norms.",
21:u:tok-2 L=arms/export,
24:u:tok-2 R=export/norms.",
12:u:Suf-2 L=ms,
17:u:Tok-1 X=Norms.",
14:u:tok-1LL=arms,
16:u:tok-1 L=export,
24:u:tok-2 L=export/norms.",
31:u:tok-2 R=norms."/international,
17:u:tok-1 R=council,
12:u:Suf-2 L=5.,
15:u:tok-1RR=white,
15:u:tok-1 R=white,
19:u:tok-2 R=the/white,
15:u:Tok-1 X=White,
19:u:tok-2 L=the/white,
21:u:tok-2 R=white/house,
15:u:tok-1 L=white,
21:u:tok-2 L=white/house,
19:u:tok-1 X=microsoft,
12:u:Pre-2 R=Ba,
12:u:Pre-2 X=Ba,
14:u:Tok-1 X=NPR.,
13:u:tok-1 X=npr,
17:u:tok-1LL=fingers,
15:u:tok-1 L=back.,
20:u:tok-2 L=back./npr.,
20:u:tok-2 R=npr./2021.,
12:u:Pre-2 X=NP,
14:u:tok-1RR=norm,
14:u:tok-1LL=norm,
12:u:Pre-2 X=UN,
16:u:tok-1 R=report,
16:u:Key-1 R=report,
21:u:Tmn-2 R=none/report,
16:u:Tok-1 X=Report,
16:u:tok-1 X=report,
16:u:Key-1 X=report,
24:u:Key-2 X=report/initial,
21:u:Key-3 L=none/report,
21:u:Key-3 x=report/none,
14:u:tok-1RR=nato,
14:u:Tok-1 X=NATO,
14:u:tok-1 X=nato,
14:u:tok-1 L=nato,
19:u:tok-1 R=secretary,
17:u:tok-1RR=general,
19:u:Tok-1 X=Secretary,
19:u:tok-1 X=secretary,
14:u:tok-1LL=nato,
17:u:tok-1 R=general,
17:u:Tok-1 X=General,
17:u:tok-1 X=general,
19:u:tok-1 L=secretary,
19:u:tok-1LL=secretary,
17:u:tok-1 L=general,
16:u:tok-2 R=at/the,
16:u:tok-2 L=at/the,
24:u:tok-2 L=cyber/security,
17:u:tok-1LL=prague,,
18:u:tok-1 L=czechia.,
27:u:tok-2 L=czechia./november,
21:u:tok-2 R=november/3.,
14:u:Tok-1 X=From,
12:u:tok-1 L=o.,
15:u:tok-1RR=texas,
27:u:tok-2 R=national/security,
27:u:tok-2 L=national/security,
15:u:Tok-1 X=Group,
18:u:tok-2 R=group/of,
12:u:Suf-2 X=up,
17:u:tok-1RR=experts,
18:u:tok-2 L=group/of,
12:u:Suf-2 L=up,
17:u:tok-1 R=experts,
17:u:Tok-1 X=Experts,
17:u:tok-1 X=experts,
17:u:tok-1 L=experts,
17:u:tok-1LL=experts,
23:u:tok-2 R=in/cyberspace,
23:u:tok-2 L=in/cyberspace,
13:u:Fst-2 X=P//,
11:u:Pre-1 X=/,
17:u:tok-2 R=for/the,
17:u:tok-2 L=for/the,
20:u:tok-2 R=the/future,
20:u:tok-2 L=the/future,
14:u:tok-1 X=iran,
15:u:tok-1 L=iran.,
18:u:tok-1RR=february,
18:u:Tok-1 X=February,
18:u:tok-1 X=february,
18:u:tok-1 L=february,
18:u:tok-1LL=february,
12:u:Pre-2 R=Sy,
16:u:tok-1 X=system,
12:u:Pre-2 X=Sy,
15:u:tok-1 L=spies,
16:u:tok-1 L=august,
14:u:Tok-1 X=With,
14:u:tok-1RR=will,
12:u:Suf-2 X=ll,
12:u:Suf-2 L=ll,
14:u:tok-1 L=news,
12:u:Suf-2 L=ws,
17:u:tok-1RR=january,
17:u:Tok-1 X=January,
17:u:tok-1 X=january,
17:u:tok-1LL=january,
20:u:Cap-2 L=_x-1/other,
20:u:Cap-3 L=_x-1/other,
23:u:Num-2 R=year/moderate,
12:u:tok-1 X=25,
13:u:tok-1 L=25.,
19:u:tok-1RR=diplomacy,
16:u:tok-1 R=design,
23:u:tok-2 R=policy/design,
18:u:tok-1RR=practice,
16:u:tok-1LL=design,
14:u:tok-1RR=iran,
14:u:Tok-1 X=Iran,
14:u:tok-1 L=iran,
14:u:tok-1LL=iran,
21:u:tok-1LL=cyberattack,
15:u:tok-1 L=since,
23:u:tok-1 R=transnational,
17:u:tok-1RR=defense,
17:u:tok-1 R=defense,
17:u:Tok-1 X=Defense,
17:u:tok-1 X=defense,
11:u:tok-1RR=4,
17:u:tok-1 L=defense,
17:u:tok-1LL=defense,
18:u:Tok-1 X=Atlantic,
18:u:tok-1 X=atlantic,
26:u:tok-2 R=atlantic/council,
26:u:tok-2 L=atlantic/council,
16:u:tok-1RR=march.,
13:u:tok-1 R=was,
14:u:tok-1 R=hack,
14:u:Tok-1 X=Hack,
14:u:tok-1 X=hack,
14:u:tok-1 L=hack,
14:u:tok-1LL=hack,
17:u:tok-1 R=reuters,
12:u:tok-1 X=15,
16:u:tok-1RR=united,
16:u:tok-1 R=united,
20:u:tok-2 R=the/united,
16:u:Tok-1 X=United,
16:u:tok-1 X=united,
20:u:tok-2 L=the/united,
17:u:tok-1 X=nations,
16:u:tok-1 L=united,
16:u:tok-1LL=united,
12:u:Suf-2 X=ft,
24:u:tok-1 X=accountability,
23:u:tok-2 R=united/states,
23:u:tok-2 L=united/states,
15:u:tok-1RR=paris,
15:u:tok-1 R=paris,
15:u:Tok-1 X=Paris,
15:u:tok-1 X=paris,
14:u:tok-1 X=call,
15:u:tok-1 L=paris,
15:u:tok-1LL=paris,
20:u:tok-1RR=department,
20:u:tok-1 R=department,
20:u:Tok-1 X=Department,
20:u:tok-1 X=department,
23:u:tok-2 R=department/of,
20:u:tok-1 L=department,
23:u:tok-2 L=department/of,
20:u:tok-1LL=department,
16:u:tok-1RR=world.,
16:u:tok-1 R=world.,
16:u:Tok-1 X=World.,
12:u:tok-1 X=43,
21:u:tok-2 R=about/cyber,
21:u:tok-2 L=about/cyber,
17:u:Tok-1 X=Warfare,
12:u:Suf-2 L=pt,
17:u:tok-1 X=georgia,
17:u:tok-1 X=options,
12:u:Pre-2 X=Ve,
14:u:tok-1RR=that,
12:u:Pre-2 X=Ph,
12:u:Pre-2 X=LL,
12:u:Suf-2 X=ta,
12:u:Suf-2 L=ta,
14:u:tok-1RR=need,
14:u:tok-1LL=need,
15:u:Tok-1 X=About,
19:u:tok-1 L=proposal.,
18:u:tok-1 R=america.,
23:u:tok-2 L=proposal./new,
22:u:tok-2 R=new/america.,
18:u:Tok-1 X=America.,
17:u:tok-1 X=america,
19:u:tok-1LL=proposal.,
136:u:tok-1RR=http://newamerica.org/cybersecurity-initiative/c2b/c2b-log/five-things-you-need-to-know-about-frances-new-cyber-norm-proposal/,
22:u:tok-2 L=new/america.,
24:u:tok-2 R=america./2018.,
18:u:tok-1 R=cyberwar,
12:u:Pre-2 X=Ye,
15:u:tok-1 R=group,
17:u:tok-1LL=working,
16:u:Fst-2 R=Pi/,
12:*:Fst-1 X=Pi,
16:u:Fst-2 X=Pi/,
13:u:Pre-1 X=,
12:u:Pre-2 R=Gu,
12:u:Pre-2 X=Gu,
12:u:Pre-2 R=Fl,
17:u:tok-1RR=attacks,
17:u:tok-1 R=attacks,
17:u:Tok-1 X=Attacks,
17:u:tok-1 L=attacks,
17:u:tok-1LL=attacks,
12:u:tok-1RR=3,,
12:u:tok-1 R=3,,
12:u:Pre-2 R=3,,
12:u:Tok-1 X=3,,
12:u:Pre-2 X=3,,
12:u:Suf-2 X=3,,
19:u:tok-1 R=kaspersky,
13:u:tok-1RR=lab,
12:u:Pre-2 R=Ka,
19:u:Tok-1 X=Kaspersky,
13:u:tok-1 R=lab,
17:u:tok-1RR=website,
23:u:tok-2 R=kaspersky/lab,
12:u:Pre-2 X=Ka,
12:u:Suf-2 X=ky,
13:u:Tok-1 X=Lab,
13:u:tok-1 X=lab,
19:u:tok-1 L=kaspersky,
23:u:tok-2 L=kaspersky/lab,
12:u:Suf-2 L=ky,
12:u:Suf-2 X=ab,
17:u:Tok-1 X=website,
17:u:tok-1 X=website,
19:u:tok-1LL=kaspersky,
13:u:tok-1 L=lab,
20:u:tok-1 R=securelist,
21:u:tok-2 L=lab/website,
28:u:tok-2 R=website/securelist,
12:u:Suf-2 L=ab,
20:u:Tok-1 X=SecureList,
20:u:tok-1 X=securelist,
13:u:tok-1LL=lab,
17:u:tok-1 L=website,
28:u:tok-2 L=website/securelist,
12:u:Tok-1 X=As,
15:u:tok-2 R=as/of,
12:u:Suf-2 X=As,
13:u:tok-1RR=31,,
15:u:tok-2 L=as/of,
12:u:Suf-2 L=As,
15:u:tok-1RR=2017:,
12:u:Suf-2 X=1,,
12:u:Suf-2 L=1,,
24:u:Tok-1 X=Investigation,,
23:u:tok-1 X=investigation,
13:u:tok-1 R=15,,
13:u:Tok-1 X=15,,
12:u:Suf-2 X=5,,
14:u:tok-1 R=blog,
12:u:Pre-2 R=bl,
14:u:tok-1 X=blog,
12:u:Suf-2 X=og,
14:u:tok-1 L=blog,
12:u:Suf-2 L=og,
16:u:tok-1RR=center,
16:u:Tok-1 X=Center,
16:u:tok-1 X=center,
20:u:tok-2 R=center/for,
16:u:tok-1 L=center,
20:u:tok-2 L=center/for,
16:u:tok-1LL=center,
12:u:Suf-2 L=df,
14:u:Suf-2 L=,,
12:u:Suf-2 X=9,,
12:u:Suf-2 L=9,,
12:u:Pre-2 R=Er,
19:u:tok-1RR=microsoft,
19:u:tok-1 R=microsoft,
19:u:Tok-1 X=Microsoft,
17:u:Tok-1 X=Federal,
17:u:tok-1 X=federal,
17:u:tok-1 L=federal,
12:u:Suf-2 X=2,,
20:u:Tmn-2 R=none/roman,
20:u:Key-3 L=none/roman,
15:u:tok-1RR=rules,
15:u:tok-1 R=rules,
19:u:tok-1RR=regarding,
15:u:tok-1 X=rules,
14:u:tok-1LL=part,
19:u:tok-1 R=regarding,
19:u:Tok-1 X=Regarding,
19:u:tok-1 X=regarding,
15:u:tok-1 L=rules,
15:u:tok-1LL=rules,
19:u:tok-1 L=regarding,
12:u:Pre-2 X=Av,
12:u:tok-1 L=1,,
12:u:Lst-1 X=Pf,
16:u:Lst-2 X=Pf/,
13:u:Suf-1 X=,
12:*:Lst-1 L=Pf,
16:u:Lst-2 L=Pf/,
13:u:tok-1RR=10,,
13:u:tok-1 R=10,,
12:u:Suf-2 L=0,,
12:u:tok-1RR=4,,
14:u:tok-1RR=vol.,
14:u:tok-1 R=vol.,
13:u:tok-1 X=vol,
24:u:Key-2 X=volume/initial,
21:u:Tmn-2 L=volume/weak,
13:u:Tok-1 X=No.,
13:u:tok-1RR=pp.,
13:u:tok-1 L=no.,
13:u:tok-1 R=pp.,
12:u:Pre-2 R=pp,
12:u:tok-1 X=pp,
12:u:Pre-2 X=pp,
20:u:Key-2 X=page/lower,
13:u:tok-1 R=14,,
13:u:Tok-1 X=14,,
16:u:tok-1LL=bureau,
16:u:tok-1 R=update,
27:u:tok-2 L=of/investigation,,
31:u:tok-2 R=investigation,/update,
12:u:Pre-2 R=Up,
13:u:tok-1RR=24,,
15:u:tok-1RR=april,
15:u:tok-1 L=heist,
15:u:Tok-1 X=April,
15:u:tok-1 X=april,
20:u:tok-2 R=attacks/in,
20:u:tok-2 L=attacks/in,
12:u:Pre-2 R=Uk,
12:u:Pre-2 X=Uk,
19:u:tok-1RR=documents,
19:u:tok-1 R=documents,
19:u:Tok-1 X=Documents,
19:u:tok-1 X=documents,
19:u:tok-1 L=documents,
19:u:tok-1LL=documents,
14:u:tok-1 L=,,
21:u:Tok-1 X=SecureList,,
14:u:tok-1 L=hood,
26:u:tok-2 L=hood/securelist,,
31:u:tok-2 R=securelist,/kaspersky,
12:u:Suf-2 L=od,
19:u:Tok-1 X=Operation,
19:u:tok-1 X=operation,
17:u:tok-1LL=stuxnet,
27:u:tok-2 L=operation/foreign,
13:u:tok-1RR=17,,
13:u:tok-1 R=17,,
13:u:Tok-1 X=17,,
13:u:tok-1 L=17,,
13:u:tok-1LL=17,,
12:u:Suf-2 X=tt,
14:u:tok-1RR=rand,
14:u:tok-1 R=rand,
17:u:tok-1RR=monica,,
23:u:tok-2 R=cyber/attacks,
23:u:tok-2 L=cyber/attacks,
15:u:tok-1RR=issue,
26:u:tok-2 L=attacks/atlantic,
15:u:tok-1RR=brief,
15:u:tok-1RR=2011.,
21:u:Key-3 x=volume/none,
15:u:tok-1 R=2011.,
21:u:tok-1 R=washington,,
21:u:tok-1LL=washington,,
12:u:Suf-2 X=va,
13:u:tok-1RR=dyn,
15:u:tok-1 R=news,,
24:u:tok-2 L=attack/company,
23:u:tok-2 R=company/news,,
13:u:tok-1RR=26,,
12:u:Suf-2 X=6,,
18:u:tok-1 X=response,
19:u:tok-1 L=ukrainian,
19:u:tok-1LL=ukrainian,
13:u:tok-1 R=web,
14:u:tok-1RR=page,
14:u:Tok-1 X=page,
14:u:tok-1 X=page,
13:u:tok-1 L=web,
18:u:tok-2 L=web/page,
12:u:Suf-2 L=eb,
19:u:Key-3 x=page/none,
18:u:tok-1RR=undated.,
18:u:tok-1 R=undated.,
18:u:Tok-1 X=undated.,
17:u:tok-1 X=undated,
21:u:tok-2 R=undated./as,
18:u:tok-1 L=undated.,
21:u:tok-2 L=undated./as,
18:u:tok-1LL=undated.,
13:u:tok-1 R=30,,
13:u:Tok-1 X=30,,
17:u:tok-1 R=network,
17:u:Tok-1 X=Network,
16:u:tok-1LL=french,
12:u:tok-1 L=tv,
18:u:tok-1RR=register,
20:u:tok-2 L=tv/network,
21:u:tok-2 R=network/the,
12:u:Suf-2 L=TV,
17:u:tok-1 L=network,
17:u:tok-1LL=network,
15:u:tok-1LL=david,
18:u:Tok-1 X=Computer,
18:u:tok-1 X=computer,
18:u:tok-1 L=computer,
18:u:tok-1LL=computer,
14:u:Tok-1 X=Ties,
14:u:tok-1 X=ties,
14:u:tok-1 L=ties,
14:u:tok-1LL=ties,
19:u:Tok-1 X=Bloomberg,
19:u:tok-1 X=bloomberg,
22:u:tok-1 R=businessweek,
25:u:tok-2 L=spies/bloomberg,
32:u:tok-2 R=bloomberg/businessweek,
12:u:Suf-2 X=rg,
13:u:Lst-2 X=P/;,
11:u:Suf-1 X=;,
16:u:Tmn-3 X=weak/;,
13:u:Lst-2 L=P/;,
14:u:tok-1RR=2020,
14:u:Tok-1 X=2020,
13:u:tok-1RR=20,,
13:u:Tok-1 X=20,,
17:u:Tok-1 X=Agency,,
16:u:tok-1 X=agency,
26:u:tok-2 L=security/agency,,
17:u:tok-1 L=signals,
30:u:tok-2 L=signals/intelligence,
26:u:tok-2 R=intelligence/web,
18:u:tok-1 R=richard,,
18:u:tok-1 X=guardian,
15:u:tok-1 R=2007.,
13:u:tok-1LL=24,,
12:u:Pre-2 R=ed,
13:u:tok-1 X=eds,
12:u:Pre-2 X=ed,
16:u:Key-1 L=editor,
21:u:tok-1LL=technology,,
17:u:tok-1 L=policy,,
16:u:tok-1RR=ethics,
22:u:tok-2 L=policy,/law,,
18:u:tok-2 R=law,/and,
17:u:tok-1LL=policy,,
16:u:tok-1 R=ethics,
18:u:tok-2 L=law,/and,
20:u:tok-2 R=and/ethics,
12:u:Pre-2 R=Et,
16:u:Tok-1 X=Ethics,
16:u:tok-1 X=ethics,
20:u:tok-2 L=and/ethics,
26:u:tok-2 R=ethics/regarding,
12:u:Pre-2 X=Et,
16:u:tok-1 L=ethics,
21:u:tok-1RR=acquisition,
26:u:tok-2 L=ethics/regarding,
24:u:tok-2 R=regarding/u.s.,
16:u:tok-1LL=ethics,
21:u:tok-1 R=acquisition,
24:u:tok-2 L=regarding/u.s.,
26:u:tok-2 R=u.s./acquisition,
16:u:tok-1LL=times,,
101:u:tok-1RR=https://www.nytimes.com/2017/05/12/world/europe/uk-national-health-service-cyberattack.html,
17:u:tok-2 L=may/12,,
19:u:tok-2 R=12,/2017.,
14:u:Tok-1 X=Grid,
14:u:tok-1 X=grid,
14:u:tok-1 L=grid,
16:u:tok-1 X=thomas,
14:u:tok-1 L=rid,,
15:u:tok-1LL=marc,,
15:u:Tok-1 X=Daily,
15:u:tok-1 X=daily,
15:u:tok-1 R=beast,
90:u:tok-1RR=http://www.thedailybeast.com/articles/2014/12/24/no-north-korea-didn-t-hack-sony,
21:u:tok-2 L=2014./daily,
21:u:tok-2 R=daily/beast,
22:u:tok-2 L=_x-1/tallinn,
23:u:tok-2 R=cyber/warfare,
23:u:tok-2 L=cyber/warfare,
23:u:tok-2 R=warfare/2013.,
12:u:Suf-2 X=op,
12:u:Suf-2 L=op,
15:u:tok-1RR=wired,
15:u:Tok-1 X=Wired,
15:u:tok-1 X=wired,
15:u:tok-1 L=wired,
17:u:Tok-1 X=Shodan,,
16:u:tok-1 X=shodan,
19:u:tok-1 R=homepage,,
22:u:tok-2 L=_x-1/shodan,,
27:u:tok-2 R=shodan,/homepage,,
19:u:Tok-1 X=homepage,,
18:u:tok-1 X=homepage,
28:u:tok-2 R=homepage,/undated.,
19:u:tok-1 L=homepage,,
28:u:tok-2 L=homepage,/undated.,
19:u:tok-1LL=homepage,,
12:u:Suf-2 X=io,
14:u:tok-1 R=grey,
17:u:tok-1 X=lawfare,
28:u:tok-2 R=homeland/security,,
18:u:tok-1 L=homeland,
28:u:tok-2 L=homeland/security,,
18:u:tok-1RR=incident,
18:u:tok-1 R=incident,
24:u:tok-2 L=national/cyber,
18:u:Tok-1 X=Incident,
18:u:tok-1 X=incident,
18:u:tok-1 L=incident,
18:u:tok-1LL=incident,
18:u:Tok-1 X=Director,
18:u:tok-1 X=director,
21:u:tok-2 R=director/of,
18:u:tok-1 L=director,
21:u:tok-2 L=director/of,
18:u:tok-1LL=director,
16:u:Fst-2 R=Pi/,
21:u:tok-2 L=on/election,
12:u:tok-1 R=7,,
26:u:tok-2 L=security/october,
20:u:tok-2 R=october/7,,
12:u:Pre-2 R=7,,
12:u:Tok-1 X=7,,
119:u:tok-1RR=https://www.dhs.gov/news/2016/10/07/joint-statement-department-homeland-security-and-office-director-national,
20:u:tok-2 L=october/7,,
18:u:tok-2 R=7,/2016.,
12:u:Pre-2 X=7,,
17:u:tok-1 R=charges,
22:u:tok-2 R=u.s./charges,
20:u:tok-1RR=commercial,
19:u:Tok-1 X=Advantage,
19:u:tok-1 X=advantage,
20:u:tok-1 L=commercial,
19:u:tok-1RR=14528,,
30:u:tok-2 L=commercial/advantage,
23:u:tok-2 R=advantage/no.,
20:u:tok-1RR=conducting,
16:u:tok-1RR=sector,
19:u:Tok-1 X=Financial,
19:u:tok-1 X=financial,
16:u:tok-1 R=sector,
24:u:tok-2 L=u.s./financial,
26:u:tok-2 R=financial/sector,
16:u:Tok-1 X=Sector,
16:u:tok-1 X=sector,
19:u:tok-1 L=financial,
26:u:tok-2 L=financial/sector,
22:u:tok-2 R=sector/march,
12:u:Pre-2 R=FI,
21:u:tok-1LL=analytic,
19:u:tok-1 L=standards,
19:u:tok-1 R=community,
19:u:tok-1RR=directive,
32:u:tok-2 L=standards/intelligence,
32:u:tok-2 R=intelligence/community,
19:u:Tok-1 X=Community,
19:u:tok-1LL=standards,
19:u:tok-1 R=directive,
13:u:tok-1RR=203,
32:u:tok-2 L=intelligence/community,
29:u:tok-2 R=community/directive,
13:u:Tok-1 X=203,
19:u:tok-1LL=community,
19:u:tok-1 L=directive,
12:u:tok-1RR=2,,
23:u:tok-2 L=directive/203,
21:u:tok-2 R=203/january,
12:u:Suf-2 X=03,
16:u:tok-1LL=before,
15:u:Tok-1 X=Armed,
15:u:tok-1 X=armed,
15:u:tok-1 L=armed,
15:u:tok-1LL=armed,
17:u:Tok-1 X=FireEye,
17:u:tok-1 X=fireeye,
12:u:Suf-2 X=ye,
12:u:Pre-2 R=Ki,
12:u:Pre-2 X=Ki,
12:u:Pre-2 R=Ze,
15:u:Tok-1 X=Proc.,
14:u:tok-1 X=proc,
19:u:tok-1 L=defenses.,
15:u:tok-1 R=conf.,
25:u:tok-2 L=defenses./proc.,
21:u:tok-2 R=proc./conf.,
12:u:Pre-2 X=ch,
22:u:Tmn-3 X=moderate/,
22:u:tok-2 R=on/deterring,
22:u:tok-2 L=on/deterring,
32:u:tok-2 R=deterring/cyberattacks,
32:u:tok-2 L=deterring/cyberattacks,
29:u:tok-2 R=cyberattacks/(ed.),,
12:u:Suf-2 L=),,
21:u:Tmn-2 L=editor/none,
18:u:tok-1RR=workshop,
18:u:tok-1 R=workshop,
18:u:Tok-1 X=Workshop,
18:u:tok-1 X=workshop,
18:u:tok-1 L=workshop,
22:u:Tmn-2 L=roman/strong,
12:u:Suf-2 X=a:,
17:u:tok-1 R=nations,
17:u:Tok-1 X=Nations,
17:u:tok-1 L=nations,
17:u:tok-1LL=nations,
15:u:tok-1 L=2020,,
15:u:tok-1LL=2020,,
15:u:tok-1LL=2019,,
13:u:tok-1RR=ny,,
14:u:Fst-2 R=Ll/v,
12:u:Pre-2 R=vo,
14:u:Fst-2 X=Ll/v,
11:u:Pre-1 X=v,
22:u:Key-2 X=volume/lower,
13:u:Tok-1 X=no.,
14:u:Tok-1 X=War,,
13:u:tok-1RR=age,
13:u:tok-1 R=age,
13:u:Tok-1 X=Age,
15:u:tok-1 L=2018,,
12:u:Pre-2 R=di,
12:u:Pre-2 X=di,
15:u:Tok-1 X=Henri,
15:u:tok-1 X=henri,
17:u:tok-1LL=jomini,,
17:u:tok-1 L=antoine,
23:u:tok-2 L=antoine/henri,
18:u:tok-2 R=henri/de,
12:u:Tok-1 X=de,
17:u:tok-1LL=antoine,
15:u:tok-1 L=henri,
13:u:tok-1RR=art,
18:u:tok-2 L=henri/de,
16:u:tok-2 R=de/the,
12:u:Tok-1 X=El,
12:u:tok-1 X=el,
12:u:Suf-2 X=El,
15:u:tok-1LL=norte,
15:u:tok-1 R=paso,,
13:u:tok-1RR=tx,,
18:u:tok-2 L=press/el,
18:u:tok-2 R=el/paso,,
19:u:tok-1 L=structure,
19:u:tok-1LL=structure,
11:u:Tok-1 X=I,
11:u:Pre-2 X=I,
11:u:Suf-2 X=I,
11:u:tok-1 L=i,
11:u:Suf-2 L=I,
11:u:tok-1LL=i,
12:u:Suf-2 X=):,
23:u:tok-1RR=cyberattacks:,
23:u:tok-1 R=cyberattacks:,
19:u:tok-1RR=informing,
33:u:tok-2 R=deterring/cyberattacks:,
23:u:Tok-1 X=Cyberattacks:,
19:u:tok-1 R=informing,
33:u:tok-2 L=deterring/cyberattacks:,
33:u:tok-2 R=cyberattacks:/informing,
19:u:Tok-1 X=Informing,
19:u:tok-1 X=informing,
23:u:tok-1 L=cyberattacks:,
33:u:tok-2 L=cyberattacks:/informing,
30:u:tok-2 R=informing/strategies,
23:u:tok-1LL=cyberattacks:,
19:u:tok-1 L=informing,
20:u:tok-1RR=developing,
30:u:tok-2 L=informing/strategies,
24:u:tok-2 R=strategies/and,
19:u:tok-1LL=informing,
20:u:tok-1 R=developing,
17:u:tok-1RR=options,
24:u:tok-2 L=strategies/and,
24:u:tok-2 R=and/developing,
20:u:Tok-1 X=Developing,
20:u:tok-1 X=developing,
17:u:tok-1 R=options,
24:u:tok-2 L=and/developing,
28:u:tok-2 R=developing/options,
17:u:Tok-1 X=Options,
20:u:tok-1 L=developing,
28:u:tok-2 L=developing/options,
21:u:tok-2 R=options/for,
20:u:tok-1LL=developing,
21:u:tok-2 L=options/for,
12:u:Suf-2 X=ka,
12:u:Suf-2 L=ka,
28:u:Num-2 R=year/closing-paren,
20:u:tok-1 X=cybercrime,
12:u:Suf-2 X=PA,
12:u:Suf-2 L=PA,
12:u:tok-1RR=8,,
18:u:Tok-1 X=Strategy,
16:u:Tok-1 X=Thomas,
21:u:tok-2 L=rid,/thomas,
12:u:Pre-2 X=do,
17:u:Key-1 X=locator,
23:u:Key-2 X=locator/other,
24:u:Key-3 x=locator/strong,
15:u:tok-1RR=naval,
17:u:Tok-1 X=College,
17:u:tok-1 X=college,
15:u:tok-1LL=naval,
21:u:tok-2 L=war/college,
15:u:tok-1LL=legal,
17:u:tok-1 L=school.,
21:u:tok-2 L=school./law,
27:u:tok-2 R=international/and,
27:u:tok-2 L=international/and,
18:u:Tok-1 X=Harknett,
12:u:Pre-2 R=cr,
12:u:Pre-2 X=cr,
12:u:tok-1 R=uk,
16:u:tok-1 L=(2017),
12:u:Suf-2 L=7),
20:u:Tok-1 X=Persistent,
20:u:tok-1 X=persistent,
20:u:tok-1 L=persistent,
18:u:Tok-1 X=criminal,
23:u:tok-2 R=institute/for,
23:u:tok-2 L=institute/for,
22:u:tok-2 R=and/national,
22:u:tok-2 L=and/national,
13:u:tok-1LL=net,
21:u:tok-1 L=assessment.,
25:u:tok-2 L=assessment./the,
21:u:tok-1LL=assessment.,
17:u:tok-2 R=house/p,
11:u:Pre-2 R=p,
18:u:tok-1LL=republic,
19:u:Tok-1 X=Briefings,
19:u:tok-1 X=briefings,
208:u:tok-1 R=https://www.whitehouse.gov/briefing-room/press-briefings/2021/07/19/background-press-call-by-senior-administration-officials-on-malicious-cyber-activity-attributable-to-the-peoples-republic-of-china,
25:u:tok-2 L=press/briefings,
218:u:tok-2 R=briefings/https://www.whitehouse.gov/briefing-room/press-briefings/2021/07/19/background-press-call-by-senior-administration-officials-on-malicious-cyber-activity-attributable-to-the-peoples-republic-of-china,
17:u:tok-1LL=defence,
12:u:Pre-2 R=ru,
12:u:Pre-2 X=ru,
17:u:tok-2 R=the/new,
12:u:Pre-2 R=tr,
17:u:tok-1 X=command,
12:u:Suf-2 L=k?,
17:u:tok-1 R=theory.,
14:u:tok-1 R=some,
26:u:tok-1RR=ghyamsarnegouni,,
24:u:tok-1 L=redefine,
14:u:tok-1RR=baku,
29:u:tok-2 L=redefine/ties,
19:u:tok-2 R=ties/with,
24:u:tok-1LL=redefine,
14:u:tok-1 R=baku,
20:u:tok-1RR=cyberscoop,
19:u:tok-2 L=ties/with,
19:u:tok-2 R=with/baku,
14:u:Tok-1 X=Baku,
14:u:tok-1 X=baku,
20:u:tok-1 R=cyberscoop,
19:u:tok-2 L=with/baku,
25:u:tok-2 R=baku/cyberscoop,
12:u:Suf-2 X=ku,
20:u:Tok-1 X=Cyberscoop,
20:u:tok-1 X=cyberscoop,
12:u:tok-1RR=23,
12:u:tok-1 R=23,
15:u:Tok-1 X=Farsi,
15:u:tok-1 X=farsi,
22:u:tok-1LL=abbreviation,
15:u:tok-1 R=vevak,
20:u:tok-1RR=(vezarat-e,
18:u:tok-2 L=in/farsi,
21:u:tok-2 R=farsi/vevak,
12:u:Pre-2 R=VE,
12:u:Suf-2 X=si,
18:u:tok-1RR=ministry,
18:u:tok-1 X=ministry,
25:u:Tok-1 X=GhyamSarnegouni,
31:u:tok-2 L=iran./ghyamsarnegouni,
28:u:tok-2 R=ghyamsarnegouni/23,
43:u:tok-1RR=https://t.me/ghyamsarnegouni/3710,
43:u:tok-1 R=https://t.me/ghyamsarnegouni/3710,
15:u:tok-1RR=space,
15:u:tok-1 R=space,
23:u:tok-1RR=communication,
23:u:tok-1 R=communication,
26:u:tok-2 R=of/communication,
23:u:Tok-1 X=Communication,
23:u:tok-1 X=communication,
26:u:tok-2 L=of/communication,
20:u:Tok-1 X=Technology,
23:u:tok-2 R=technology/16,
18:u:tok-1 L=studies.,
18:u:tok-1 R=prepared,
18:u:tok-1 X=prepared,
18:u:tok-1 L=prepared,
18:u:tok-1LL=prepared,
22:u:tok-2 R=states/cyber,
17:u:tok-1 R=command,
14:u:tok-1RR=sipa,
22:u:tok-2 L=states/cyber,
23:u:tok-2 R=cyber/command,
17:u:Tok-1 X=Command,
14:u:tok-1 R=sipa,
18:u:tok-1RR=capstone,
23:u:tok-2 L=cyber/command,
22:u:tok-2 R=command/sipa,
14:u:Tok-1 X=SIPA,
14:u:tok-1 X=sipa,
17:u:tok-1 L=command,
18:u:tok-1 R=capstone,
22:u:tok-2 L=command/sipa,
23:u:tok-2 R=sipa/capstone,
18:u:Tok-1 X=Capstone,
18:u:tok-1 X=capstone,
17:u:tok-1LL=command,
14:u:tok-1 L=sipa,
23:u:tok-2 L=sipa/capstone,
27:u:tok-2 R=capstone/workshop,
14:u:tok-1LL=sipa,
18:u:tok-1 L=capstone,
27:u:tok-2 L=capstone/workshop,
22:u:tok-2 R=workshop/may,
15:u:tok-1 X=green,
18:u:Tok-1 X=Mullahs,,
17:u:tok-1 X=mullahs,
18:u:tok-1LL=frederic,
17:u:tok-1 L=wehrey,,
17:u:tok-1 R=guards,,
26:u:tok-2 L=wehrey,/mullahs,,
26:u:tok-2 R=mullahs,/guards,,
12:u:Pre-2 X=Pi,
16:u:tok-1RR=insikt,
16:u:tok-1 R=insikt,
16:u:Tok-1 X=Insikt,
16:u:tok-1 X=insikt,
27:u:tok-2 L=operations/insikt,
22:u:tok-2 R=insikt/group,
12:u:Suf-2 X=kt,
16:u:tok-1 L=insikt,
22:u:tok-2 L=insikt/group,
12:u:Suf-2 L=kt,
16:u:Tok-1 X=Cyware,
16:u:tok-1 X=cyware,
13:u:tok-1LL=aka,
16:u:tok-1 L=oilrig,
16:u:tok-1 R=social,
12:u:tok-1RR=19,
23:u:tok-2 L=oilrig/cyware,
23:u:tok-2 R=cyware/social,
16:u:Tok-1 X=Social,
16:u:tok-1LL=oilrig,
16:u:tok-1 L=cyware,
12:u:tok-1 R=19,
23:u:tok-2 L=cyware/social,
19:u:tok-2 R=social/19,
26:u:tok-2 L=structure/insikt,
17:u:tok-1RR=143,,
19:u:tok-2 R=group/pp.,
15:u:tok-1LL=ehsan,
21:u:tok-1 L=movahedian,,
26:u:tok-2 L=movahedian,/u.s.,
12:u:Suf-2 L=io,
12:u:tok-1RR=6,,
12:u:Suf-2 X=di,
12:u:Suf-2 L=di,
32:u:tok-2 R=international/criminal,
32:u:tok-2 L=international/criminal,
13:u:tok-1RR=red,
13:u:tok-1 R=red,
17:u:tok-2 R=the/red,
20:u:Tok-1 X=Individual,
20:u:tok-1 X=individual,
29:u:tok-2 R=individual/criminal,
20:u:tok-1 L=individual,
29:u:tok-2 L=individual/criminal,
33:u:tok-2 R=criminal/responsibility,
24:u:Tok-1 X=responsibility,
20:u:tok-1LL=individual,
33:u:tok-2 L=criminal/responsibility,
24:u:tok-2 L=25./individual,
13:u:tok-1LL=25.,
14:u:tok-1RR=rome,
28:u:tok-2 R=responsibility/the,
14:u:tok-1 R=rome,
17:u:tok-1RR=statute,
28:u:tok-2 L=responsibility/the,
18:u:tok-2 R=the/rome,
14:u:Tok-1 X=Rome,
14:u:tok-1 X=rome,
17:u:tok-1 R=statute,
18:u:tok-2 L=the/rome,
22:u:tok-2 R=rome/statute,
17:u:Tok-1 X=Statute,
17:u:tok-1 X=statute,
14:u:tok-1 L=rome,
22:u:tok-2 L=rome/statute,
20:u:tok-2 R=statute/of,
14:u:tok-1LL=rome,
17:u:tok-1 L=statute,
20:u:tok-2 L=statute/of,
17:u:tok-1LL=statute,
16:u:tok-1RR=court:,
16:u:tok-1 R=court:,
25:u:tok-2 R=criminal/court:,
16:u:Tok-1 X=Court:,
20:u:tok-1RR=commentary,
25:u:tok-2 L=criminal/court:,
18:u:tok-2 R=court:/a,
16:u:tok-1 L=court:,
20:u:tok-1 R=commentary,
18:u:tok-1RR=(2016b).,
18:u:tok-2 L=court:/a,
22:u:tok-2 R=a/commentary,
20:u:Tok-1 X=commentary,
20:u:tok-1 X=commentary,
16:u:tok-1LL=court:,
18:u:tok-1 R=(2016b).,
14:u:tok-1RR=c.h.,
22:u:tok-2 L=a/commentary,
29:u:tok-2 R=commentary/(2016b).,
12:u:tok-1 X=ch,
24:u:Key-2 X=editor/initial,
19:u:tok-1RR=retrieved,
31:u:Num-2 R=numeric/closing-paren,
25:u:Tmn-2 R=strong/accessed,
26:u:Key-2 X=accessed/initial,
25:u:Key-3 L=strong/accessed,
23:u:Key-3 x=accessed/none,
19:u:tok-1LL=analysis:,
12:u:Pre-2 X=CS,
13:u:tok-1 R=due,
13:u:tok-1 X=due,
17:u:tok-2 R=of/war.,
17:u:tok-2 L=of/war.,
14:u:Tok-1 X=UCLA,
14:u:tok-1 X=ucla,
18:u:tok-2 R=ucla/law,
12:u:Pre-2 X=UC,
20:u:Tok-1 X=Cybercrime,
20:u:tok-1 L=cybercrime,
13:u:tok-1 L=cnn,
15:u:Tok-1 X=Human,
15:u:tok-1 X=human,
23:u:tok-1LL=extermination,
20:u:tok-1 L=blueprint.,
26:u:tok-2 L=blueprint./human,
22:u:tok-2 R=human/rights,
20:u:tok-1LL=blueprint.,
15:u:tok-1 L=human,
14:u:tok-1RR=all.,
20:u:tok-2 R=rights/for,
14:u:tok-1 R=all.,
20:u:tok-2 L=rights/for,
18:u:tok-2 R=for/all.,
14:u:Tok-1 X=All.,
13:u:tok-1 X=all,
18:u:tok-2 L=for/all.,
21:u:tok-2 R=all./(2017,,
18:u:Tok-1 X=Attempt,,
17:u:tok-1 X=attempt,
21:u:tok-1 R=conspiracy,,
21:u:tok-2 L=d./attempt,,
30:u:tok-2 R=attempt,/conspiracy,,
16:u:tok-1LL=commit,
19:u:tok-1 L=genocide.,
12:u:tok-1 R=24,
17:u:tok-1RR=(2009).,
25:u:tok-2 L=genocide./paper,
18:u:tok-2 R=paper/24,
16:u:Tok-1 X=Opsahl,
16:u:tok-1 X=opsahl,
16:u:tok-1 L=torkel,
18:u:tok-1 R=academic,
21:u:tok-1RR=epublisher.,
23:u:tok-2 L=torkel/opsahl,
25:u:tok-2 R=opsahl/academic,
12:u:Suf-2 X=hl,
18:u:Tok-1 X=Academic,
18:u:tok-1 X=academic,
16:u:tok-1LL=torkel,
16:u:tok-1 L=opsahl,
21:u:tok-1 R=epublisher.,
25:u:tok-2 L=opsahl/academic,
30:u:tok-2 R=academic/epublisher.,
12:u:Pre-2 R=EP,
12:u:Suf-2 L=hl,
21:u:Tok-1 X=EPublisher.,
20:u:tok-1 X=epublisher,
16:u:tok-1LL=opsahl,
18:u:tok-1 L=academic,
18:u:tok-1RR=schense,,
30:u:tok-2 L=academic/epublisher.,
29:u:tok-2 R=epublisher./(2017).,
12:u:Pre-2 X=EP,
18:u:tok-1 L=juncture,
22:u:tok-2 L=juncture/the,
18:u:tok-1LL=juncture,
19:u:tok-2 R=future/of,
18:u:tok-1RR=affairs:,
19:u:tok-2 L=future/of,
18:u:tok-1 R=affairs:,
25:u:tok-2 R=global/affairs:,
18:u:Tok-1 X=affairs:,
24:u:tok-1RR=discontinuity,,
25:u:tok-2 L=global/affairs:,
27:u:tok-2 R=affairs:/managing,
12:u:Pre-2 X=Tu,
12:u:Suf-2 L=q.,
17:u:tok-1 L=penguin,
21:u:tok-1RR=comparative,
21:u:tok-1 R=comparative,
21:u:Tok-1 X=Comparative,
21:u:tok-1 X=comparative,
19:u:tok-1 L=available,
17:u:tok-2 R=at/_x+1,
15:u:tok-1 R=2004.,
21:u:tok-2 R=the/digital,
21:u:tok-2 L=the/digital,
14:u:tok-1 X=dark,
13:u:tok-1RR=lee,
18:u:tok-1 R=dialogue,
27:u:tok-2 R=security/dialogue,
22:u:tok-2 R=for/security,
22:u:tok-2 L=for/security,
20:u:tok-2 R=studies/in,
20:u:tok-2 L=studies/in,
14:u:tok-1RR=10th,
14:u:tok-1 R=10th,
27:u:tok-2 R=cybersecurity/and,
26:u:tok-2 R=conflict/foreign,
26:u:tok-2 L=conflict/foreign,
25:u:tok-2 L=intelligence/in,
18:u:Tok-1 X='Unpeace,
17:u:tok-1 X=unpeace,
21:u:tok-2 L=of/'unpeace,
26:u:tok-2 R='unpeace/journal,
12:u:Pre-2 X='U,
12:u:Pre-2 R=(p,
26:u:tok-2 R=in/understanding,
26:u:tok-2 L=in/understanding,
19:u:tok-1 X=analogies,
20:u:tok-1RR=georgetown,
12:u:tok-1 L=dc,
16:u:tok-1 R=edited,
12:u:Suf-2 L=DC,
16:u:Tok-1 X=edited,
16:u:tok-1 X=edited,
16:u:tok-1RR=george,
19:u:tok-2 R=edited/by,
21:u:Key-3 x=editor/none,
16:u:tok-1 L=edited,
16:u:tok-1 R=george,
19:u:tok-2 L=edited/by,
16:u:Tok-1 X=George,
16:u:tok-1 X=george,
16:u:tok-1LL=edited,
16:u:tok-1 L=george,
16:u:tok-1LL=george,
25:u:Tok-1 X=Accountability,,
21:u:tok-1LL=algorithmic,
23:u:tok-1 L=transparency,,
39:u:tok-2 L=transparency,/accountability,,
29:u:tok-2 R=accountability,/and,
23:u:tok-1LL=transparency,,
25:u:tok-1 L=accountability,,
29:u:tok-2 L=accountability,/and,
24:u:tok-2 R=and/management,
25:u:tok-1LL=accountability,,
24:u:tok-2 L=and/management,
33:u:tok-2 R=management/intelligence,
27:u:tok-2 L=cyberspace/policy,
14:u:tok-1LL=1986,
19:u:tok-1RR=(national,
12:u:Pre-2 R=(N,
16:u:tok-1RR=the,
18:u:tok-1 L=bossert,,
20:u:tok-2 L=bossert,/i,
15:u:tok-2 R=i/was,
12:u:Pre-2 R=(O,
15:u:tok-1 R=joint,
14:u:tok-1LL=andy,
139:u:tok-1RR=https://www.washingtonpost.com/news/worldviews/wp/2018/01/10/everything-we-know-so-far-about-russian-election-meddling-in-europe/,
26:u:tok-2 L=2018,/washington,
12:u:Suf-2 X=":,
16:u:tok-1 X=treaty,
12:u:Tok-1 X=//,
16:u:tok-2 L=eu.///,
20:u:tok-2 R=///journal,
12:u:Pre-2 X=//,
12:u:Suf-2 X=//,
40:u:Tok-1 X=10.1080/23738871.2020.1728356.,
35:u:tok-1 X=1010802373887120201728356,
16:u:tok-1LL=(2020),
14:u:tok-1 L=doi:,
45:u:tok-2 L=doi:/10.1080/23738871.2020.1728356.,
45:u:tok-2 R=10.1080/23738871.2020.1728356./_x+1,
12:u:Suf-2 L=I:,
17:u:Key-1 L=locator,
24:u:Tmn-2 L=locator/strong,
17:u:tok-1 L=weapons,
17:u:tok-1LL=weapons,
17:u:tok-2 R=the/age,
17:u:tok-2 L=the/age,
16:u:tok-2 R=age/of,
18:u:tok-1LL=jonathan,
12:u:Pre-2 R=Du,
14:u:tok-1 L=rise,
14:u:tok-1LL=rise,
24:u:tok-2 R=united/nations,
24:u:tok-2 L=united/nations,
12:u:tok-1RR=11,
19:u:tok-1RR=diligence,
13:u:Tok-1 X=Due,
19:u:tok-1 R=diligence,
23:u:tok-2 R=due/diligence,
19:u:tok-1LL=diligence,
34:u:tok-2 L=cyberspace/international,
25:u:tok-2 R=and/comparative,
25:u:tok-2 L=and/comparative,
20:u:tok-1 L=(cambridge,
16:u:Tok-1 X=Opinio,
16:u:tok-1 X=opinio,
15:u:tok-1 R=juris,
13:u:tok-1RR=(24,
18:u:tok-2 L=i/opinio,
22:u:tok-2 R=opinio/juris,
15:u:Tok-1 X=Juris,
15:u:tok-1 X=juris,
16:u:tok-1 L=opinio,
13:u:tok-1 R=(24,
22:u:tok-2 L=opinio/juris,
19:u:tok-2 R=juris/(24,
26:u:tok-2 R=operations,/nato,
21:u:tok-1 R=cooperative,
26:u:tok-2 L=operations,/nato,
26:u:tok-2 R=nato/cooperative,
21:u:tok-1 X=cooperative,
24:u:tok-2 R=defence/centre,
20:u:tok-1RR=excellence,
24:u:tok-2 L=defence/centre,
19:u:tok-2 R=centre/of,
20:u:tok-1 R=excellence,
19:u:tok-2 L=centre/of,
23:u:tok-2 R=of/excellence,
20:u:Tok-1 X=Excellence,
20:u:tok-1 X=excellence,
23:u:tok-2 L=of/excellence,
28:u:tok-2 R=excellence/(2017).,
19:u:Tok-1 X=Principle,
19:u:tok-1 X=principle,
19:u:tok-1 L=principle,
19:u:tok-1LL=principle,
22:u:tok-2 L=principle/in,
25:u:tok-2 R=cyberspace/10th,
13:u:Tok-1 X=Lex,
13:u:tok-1 X=lex,
23:u:tok-1 L=cyber-attacks,
18:u:tok-1RR=scientia,
27:u:tok-2 L=cyber-attacks/lex,
16:u:tok-2 R=lex/et,
15:u:tok-1RR=2001.,
15:u:tok-1 R=2001.,
15:u:Tok-1 X=Welch,
15:u:tok-1 X=welch,
15:u:tok-1RR=ideas,
18:u:tok-2 L=a./welch,
19:u:tok-2 R=welch/how,
15:u:Tok-1 X=1945.,
14:u:tok-1 X=1945,
21:u:tok-2 L=since/1945.,
21:u:tok-2 R=1945./2007.,
23:u:Tok-1 X=Pierre-Hugues,
22:u:tok-1 X=pierrehugues,
18:u:tok-1 L=verdier,,
20:u:tok-1RR=regulatory,
32:u:tok-2 L=verdier,/pierre-hugues,
37:u:tok-2 R=pierre-hugues/transnational,
18:u:tok-1 R=observer,
22:u:tok-2 R=the/observer,
18:u:Tok-1 X=Observer,
18:u:tok-1 X=observer,
15:u:tok-1 R=1975.,
22:u:tok-2 L=the/observer,
24:u:tok-2 R=observer/1975.,
32:u:Brk-1 R=closing-square-bracket,
12:u:Suf-2 X=].,
26:u:tok-2 R=computer/network,
26:u:tok-2 L=computer/network,
18:u:tok-2 L=j./armed,
23:u:tok-2 R=armed/attacks,
23:u:tok-2 L=armed/attacks,
16:u:tok-1RR=thesis,
16:u:tok-1 R=thesis,
28:u:tok-2 R=cyberspace./thesis,
16:u:Key-1 R=thesis,
23:u:Tmn-2 R=strong/thesis,
16:u:tok-1 X=thesis,
16:u:Key-1 X=thesis,
12:u:Pre-2 X=ww,
23:u:Key-3 x=report/strong,
20:u:tok-2 R=war./2011.,
28:u:tok-2 L=_x-1/international,
18:u:tok-1RR=changing,
18:u:tok-1 R=changing,
22:u:tok-2 R=the/changing,
18:u:Tok-1 X=Changing,
18:u:tok-1 X=changing,
22:u:tok-2 L=the/changing,
28:u:tok-2 R=changing/character,
18:u:tok-1 L=changing,
28:u:tok-2 L=changing/character,
18:u:tok-1LL=changing,
17:u:tok-1 R=newport,
25:u:tok-2 R=college/newport,
20:u:tok-2 R=attack/and,
20:u:tok-2 L=attack/and,
24:u:tok-2 R=network/attack,
24:u:tok-2 L=network/attack,
23:u:tok-2 L=_x-1/computer,
20:u:tok-2 R=law./2001.,
12:u:Pre-2 X=IC,
20:u:tok-1 X=commission,
18:u:tok-1LL=attacks",
18:u:Tok-1 X=Georgia:,
17:u:tok-1LL=swaine,,
21:u:tok-2 L=j./georgia:,
25:u:tok-2 R=georgia:/russia,
12:u:Pre-2 X=AC,
20:u:Tok-1 X=Kaspersky.,
17:u:tok-1 R=shamoon,
29:u:Tok-1 X=reports/2017/Report,
27:u:tok-1 X=reports2017report,
21:u:tok-1 L=stonedrill.,
20:u:tok-1RR=stonedrill,
41:u:tok-2 L=stonedrill./reports/2017/report,
37:u:tok-2 R=reports/2017/report/shamoon,
17:u:tok-1 R=virtual,
17:u:tok-1 L=virtual,
12:u:Suf-2 X=..,
12:u:Suf-2 L=..,
20:u:Tok-1 X=Industries,
20:u:tok-1 X=industries,
17:u:tok-1 L=payment,
14:u:tok-1 R=31:1,
15:u:tok-1RR=bflr.,
28:u:tok-2 L=payment/industries,
25:u:tok-2 R=industries/31:1,
15:u:Tok-1 X=BFLR.,
14:u:tok-1 X=bflr,
20:u:tok-1LL=industries,
14:u:tok-1 L=31:1,
16:u:tok-1 R=(2015),
20:u:tok-2 L=31:1/bflr.,
22:u:tok-2 R=bflr./(2015),
12:u:Pre-2 X=BF,
12:u:Suf-2 L=:1,
16:u:tok-1RR=(2013),
16:u:tok-1 R=(2013),
23:u:Tok-1 X=Intelligence.,
23:u:tok-1 L=intelligence.,
17:u:Tok-1 X=Parajon,
17:u:tok-1 X=parajon,
18:u:tok-1LL=skinner,,
19:u:tok-1 L=christina,
27:u:tok-2 L=christina/parajon,
20:u:tok-2 R=parajon/an,
12:u:Tok-1 X=ch,
21:u:tok-2 L=security/ch,
14:u:tok-2 R=ch/6,
12:u:Pre-2 X=1.,
14:u:Tok-1 X=rise,
18:u:tok-1RR=decline?,
19:u:tok-2 L=law:/rise,
17:u:tok-2 R=rise/or,
18:u:tok-1 R=decline?,
14:u:tok-1RR=(pp.,
17:u:tok-2 L=rise/or,
21:u:tok-2 R=or/decline?,
18:u:Tok-1 X=decline?,
17:u:tok-1 X=decline,
14:u:tok-1 R=(pp.,
21:u:tok-2 L=or/decline?,
23:u:tok-2 R=decline?/(pp.,
18:u:tok-1 L=stuxnet.,
18:u:tok-1LL=stuxnet.,
15:u:tok-1RR=joint,
20:u:tok-1 X=engagement,
21:u:tok-2 R=for/defense,
21:u:tok-2 L=for/defense,
18:u:Tok-1 X=Lawfare.,
14:u:tok-1LL=war?,
25:u:Tok-1 X=www.ncsc.gov.uk,
22:u:tok-1 X=wwwncscgovuk,
18:u:tok-1LL=ukraine.,
17:u:tok-1 L=(2022).,
73:u:tok-1 R=https://www.ncsc.gov.uk/news/russia-ddos-involvement-in-ukraine,
33:u:tok-2 L=(2022)./www.ncsc.gov.uk,
89:u:tok-2 R=www.ncsc.gov.uk/https://www.ncsc.gov.uk/news/russia-ddos-involvement-in-ukraine,
12:u:Suf-2 X=uk,
16:u:tok-1 R=2021a.,
16:u:tok-1 L=2021a.,
15:u:tok-1RR=call.,
15:u:tok-1 R=call.,
21:u:tok-2 R=paris/call.,
15:u:Tok-1 X=Call.,
21:u:tok-2 L=paris/call.,
15:u:tok-1 L=call.,
21:u:tok-2 L=call./paris,
15:u:tok-1LL=call.,
32:u:Brk-1 L=closing-square-bracket,
17:u:Tok-1 X=YouTube,
17:u:tok-1 X=youtube,
23:u:Tmn-2 L=_x-1/moderate,
18:u:tok-1LL=solarium,
12:u:Pre-2 X=IS,
19:u:tok-1 X=publisher,
12:u:Pre-2 X=(t,
19:u:Tok-1 X=Publisher,
24:u:tok-2 R=publisher/_x+1,
17:u:tok-1 R=weaving,
17:u:tok-1RR=tangled,
17:u:tok-1 R=zealand,
21:u:tok-2 R=new/zealand,
16:u:tok-1 L=summit,
21:u:tok-2 L=summit/2020,
24:u:tok-2 R=2020/september,
12:u:Suf-2 L=D:,
21:u:tok-1 R=deterrence.,
14:u:tok-1LL=anne,
20:u:tok-1 L=neuberger,,
29:u:tok-2 L=neuberger,/february,
22:u:tok-2 R=february/17,,
20:u:tok-1LL=neuberger,,
22:u:tok-2 L=february/17,,
19:u:tok-2 R=17,/2021.,
19:u:tok-2 L=17,/2021.,
19:u:tok-2 R=2021./the,
19:u:tok-2 L=2021./the,
13:u:Tok-1 X=43.,
19:u:tok-1 L=wargaming,
23:u:tok-2 L=wargaming/43.,
19:u:tok-2 R=43./march,
13:u:tok-1RR=16,,
17:u:tok-1 R=kingdom,
24:u:tok-2 R=united/kingdom,
17:u:tok-1 X=kingdom,
19:u:tok-1RR=terrorism,
19:u:tok-1 R=terrorism,
16:u:Tok-1 X=Serbia,
16:u:tok-1 X=serbia,
16:u:tok-1LL=bosnia,
19:u:tok-2 L=v./serbia,
20:u:tok-2 R=serbia/and,
16:u:tok-1 L=serbia,
20:u:tok-2 L=serbia/and,
16:u:tok-1LL=serbia,
34:u:tok-2 R=international/commission,
17:u:tok-1RR=inquiry,
34:u:tok-2 L=international/commission,
23:u:tok-2 R=commission/of,
17:u:tok-1 R=inquiry,
23:u:tok-2 L=commission/of,
20:u:tok-2 R=of/inquiry,
17:u:tok-1 R=private,
18:u:tok-2 R=for/u.s.,
18:u:tok-2 L=for/u.s.,
15:u:Tok-1 X=PNAS.,
14:u:tok-1 X=pnas,
15:u:tok-1 R=111/4,
19:u:tok-1RR=1298--303,
24:u:tok-2 L=conflict/pnas.,
21:u:tok-2 R=pnas./111/4,
12:u:Pre-2 X=PN,
20:u:tok-1 R=inevitable,
24:u:tok-2 R=are/inevitable,
20:u:Tok-1 X=Inevitable,
20:u:tok-1 X=inevitable,
24:u:tok-2 L=are/inevitable,
20:u:tok-1 L=inevitable,
20:u:tok-1LL=inevitable,
14:u:tok-1 R=31/1,
16:u:tok-1RR=61--89,
25:u:tok-2 L=world/politics.,
24:u:tok-2 R=politics./31/1,
16:u:tok-1 R=series,
16:u:Key-1 R=series,
21:u:Tmn-2 R=none/series,
16:u:tok-1 X=series,
16:u:Key-1 X=series,
24:u:Key-2 X=series/initial,
21:u:Key-3 L=none/series,
16:u:tok-1 L=series,
16:u:Key-1 L=series,
16:u:tok-1LL=series,
22:u:tok-2 R=in/committee,
22:u:tok-2 L=in/committee,
15:u:Tok-1 X=Saudi,
15:u:tok-1 L=saudi,
23:u:tok-1LL=untangling,
20:u:tok-1LL=laboratory,
30:u:tok-2 L=(cambridge/technical,
21:u:tok-2 R=report/_x+1,
14:u:tok-1RR=43/1,
29:u:tok-2 L=cyberspace/security,
18:u:tok-1 L=sun-shop,
14:u:tok-1 R=labs,
26:u:tok-2 L=sun-shop/fireeye,
22:u:tok-2 R=fireeye/labs,
12:u:Suf-2 X=bs,
15:u:tok-1LL=water,
19:u:tok-1 L=breach,
28:u:tok-2 L=breach/critical,
14:u:Suf-2 L=h,
16:u:tok-1 X=boston,
26:u:tok-2 R=defense/analysis,
26:u:tok-2 L=defense/analysis,
20:u:tok-2 L=2021a./the,
29:u:Tok-1 X=Coronaperspectives.,
28:u:tok-1 X=coronaperspectives,
21:u:tok-1 L=activities.,
16:u:tok-1RR=konrad,
41:u:tok-2 L=activities./coronaperspectives.,
35:u:tok-2 R=coronaperspectives./2020.,
22:u:Tok-1 X=Counterspace,
22:u:tok-1 X=counterspace,
18:u:tok-1 L=project.,
19:u:tok-1 R=timeline,,
31:u:tok-2 L=project./counterspace,
32:u:tok-2 R=counterspace/timeline,,
19:u:Tok-1 X=Timeline,,
18:u:tok-1 X=timeline,
18:u:tok-1LL=project.,
22:u:tok-1 L=counterspace,
32:u:tok-2 L=counterspace/timeline,,
26:u:tok-2 R=timeline,/center,
18:u:tok-1 L=threats,,
14:u:Tok-1 X=DARK,
13:u:tok-1LL=up.,
17:u:tok-1 R=reading,
87:u:tok-1RR=https://www.darkreading.com/ics-ot/space-race-defenses-satellite-cyberattacks,
22:u:tok-2 L=(2023)./dark,
22:u:tok-2 R=dark/reading,
12:u:Pre-2 X=DA,
12:u:Suf-2 X=RK,
17:u:tok-1LL=keskin,,
26:u:tok-1RR=infrastructures:,
15:u:tok-2 L=o./f.,
18:u:tok-2 R=f./space,
17:u:Tok-1 X=Boston.,
24:u:tok-1LL=connectivity?.,
25:u:tok-2 L=(2021)./boston.,
22:u:tok-2 R=boston./_x+1,
16:u:tok-1RR=(2016),
16:u:tok-1 R=(2016),
21:u:tok-2 L=j./harknett,
29:u:tok-2 R=harknett/deterrence,
17:u:Tok-1 X=Lindsay,
20:u:tok-2 L=r./lindsay,
25:u:tok-2 R=lindsay/weaving,
15:u:Tok-1 X=Chris,
15:u:tok-1 X=chris,
16:u:Tok-1 X=Vashdi,
16:u:tok-1 X=vashdi,
14:u:tok-1LL=dana,
25:u:tok-1 R=cyberterrorism:,
19:u:tok-2 L=r./vashdi,
32:u:tok-2 R=vashdi/cyberterrorism:,
16:u:tok-1RR=hidden,
12:u:Suf-2 X=ha,
12:u:Suf-2 L=ha,
16:u:Tok-1 X=Tucker,
16:u:tok-1 X=tucker,
17:u:tok-1 R=tracing,
19:u:tok-2 L=b./tucker,
24:u:tok-2 R=tucker/tracing,
20:u:tok-1RR=forensics.,
20:u:tok-1 R=forensics.,
19:u:tok-1 X=forensics,
18:u:tok-1 R=kingdom,,
23:u:tok-2 L=states/united,
25:u:tok-2 R=united/kingdom,,
18:u:Tok-1 X=Kingdom,,
17:u:tok-1RR=israel.,
25:u:tok-2 L=united/kingdom,,
22:u:tok-2 R=kingdom,/and,
18:u:tok-1 L=kingdom,,
17:u:tok-1 R=israel.,
22:u:tok-2 L=kingdom,/and,
21:u:tok-2 R=and/israel.,
18:u:tok-1LL=kingdom,,
21:u:tok-2 L=and/israel.,
30:u:tok-2 R=israel./contemporary,
16:u:Tok-1 X=Shares,
16:u:tok-1 X=shares,
22:u:tok-2 L=paper/shares,
23:u:tok-2 R=shares/series,
16:u:Tok-1 X=Zurich,
16:u:tok-1 X=zurich,
12:u:Pre-2 X=Zu,
16:u:tok-1 L=zurich,
13:u:tok-1RR=int,
13:u:tok-1 R=int,
20:u:tok-1LL=boudreaux,,
26:u:tok-2 L=u.s./government.,
20:u:Tok-1 X=Assemblage,
20:u:tok-1 X=assemblage,
17:u:tok-1LL=wenger,,
23:u:tok-2 L=a./assemblage,
28:u:tok-2 R=assemblage/theory.,
17:u:Tok-1 X=Theory.,
20:u:tok-1 L=assemblage,
28:u:tok-2 L=assemblage/theory.,
31:u:tok-2 R=theory./cybersecurity,
78:u:tok-1RR=https://berlinpolicyjournal.com/big-tech-hits-the-diplomatic-circuit,
20:u:tok-2 L=2020,/last,
78:u:tok-1 R=https://berlinpolicyjournal.com/big-tech-hits-the-diplomatic-circuit,
89:u:tok-2 R=accessed)./https://berlinpolicyjournal.com/big-tech-hits-the-diplomatic-circuit,
23:u:tok-2 L=zurich/center,
16:u:tok-1LL=zurich,
20:u:tok-1LL=estimative,
22:u:tok-1 L=probability.,
30:u:tok-2 L=probability./studies,
22:u:tok-1LL=probability.,
15:u:tok-1RR=1964.,
15:u:tok-1 R=1964.,
28:u:tok-2 R=intelligence/1964.,
53:u:tok-1RR=https://www.youtube.com/watch?v=hdjb8wojyda,
25:u:tok-2 L=hackers/youtube,
23:u:tok-2 R=youtube/2016.,
17:u:Tok-1 X=FOR508.,
16:u:tok-1 X=for508,
22:u:tok-1LL=translation:,
23:u:tok-1 L=introduction.,
31:u:tok-2 L=introduction./for508.,
26:u:tok-2 R=for508./advanced,
22:u:Num-2 R=idnum/strong,
18:u:tok-1 L=hunting,,
22:u:tok-2 L=hunting,/and,
21:u:tok-2 R=and/digital,
18:u:tok-1LL=hunting,,
21:u:tok-2 L=and/digital,
28:u:tok-2 R=digital/forensics.,
20:u:Tok-1 X=Forensics.,
17:u:tok-1RR=politic,
28:u:tok-2 L=digital/forensics.,
24:u:tok-2 R=forensics./int,
17:u:Tok-1 X=ISO/IEC,
16:u:tok-1 X=isoiec,
19:u:tok-1 L=symposium,
21:u:tok-1 R=27000:2018.,
16:u:tok-1RR=433-50,
27:u:tok-2 L=symposium/iso/iec,
29:u:tok-2 R=iso/iec/27000:2018.,
12:u:Suf-2 X=EC,
19:u:Tok-1 X=Assistant,
19:u:tok-1 X=assistant,
17:u:tok-1 L=ozment,,
27:u:tok-2 L=ozment,/assistant,
29:u:tok-2 R=assistant/secretary,
17:u:tok-1LL=ozment,,
19:u:tok-1 L=assistant,
29:u:tok-2 L=assistant/secretary,
23:u:tok-2 R=secretary/for,
19:u:tok-1LL=assistant,
23:u:tok-2 L=secretary/for,
27:u:tok-2 R=for/cybersecurity,
25:u:tok-1RR=communications,,
27:u:tok-2 L=for/cybersecurity,
53:u:tok-1RR=https://web.archive.org/web/20200520133650/,
53:u:tok-1 R=https://web.archive.org/web/20200520133650/,
64:u:tok-2 R=accessed)./https://web.archive.org/web/20200520133650/,
16:u:Tok-1 X=Corpus,
16:u:tok-1 X=corpus,
15:u:tok-1LL=libri,
22:u:tok-1 L=politicorum.,
22:u:tok-1 R=thomisticum.,
17:u:tok-1RR=(1971).,
29:u:tok-2 L=politicorum./corpus,
29:u:tok-2 R=corpus/thomisticum.,
22:u:Tok-1 X=Thomisticum.,
21:u:tok-1 X=thomisticum,
22:u:tok-1LL=politicorum.,
16:u:tok-1 L=corpus,
17:u:tok-1 R=(1971).,
51:u:tok-1RR=http://www.corpusthomisticum.org/cpo.html,
29:u:tok-2 L=corpus/thomisticum.,
30:u:tok-2 R=thomisticum./(1971).,
17:u:tok-1 X=clapper,
17:u:Tok-1 X=Clapper,
21:u:tok-1RR=allegations,
20:u:tok-2 L=r./clapper,
20:u:tok-2 R=clapper/on,
17:u:tok-1 L=clapper,
21:u:tok-1 R=allegations,
20:u:tok-2 L=clapper/on,
24:u:tok-2 R=on/allegations,
21:u:Tok-1 X=Allegations,
21:u:tok-1 X=allegations,
17:u:tok-1LL=clapper,
24:u:tok-2 L=on/allegations,
24:u:tok-2 R=allegations/of,
21:u:tok-1 L=allegations,
20:u:tok-1RR=espionage.,
24:u:tok-2 L=allegations/of,
21:u:tok-1LL=allegations,
20:u:tok-1 R=espionage.,
29:u:tok-2 R=economic/espionage.,
20:u:Tok-1 X=Espionage.,
29:u:tok-2 L=economic/espionage.,
27:u:tok-2 R=espionage./office,
12:u:Suf-2 L=r",
20:u:tok-2 L=power/grid,
13:u:tok-1RR=ics,
13:u:Tok-1 X=CSO,
13:u:tok-1 X=cso,
20:u:tok-2 L=(2017)/cso,
23:u:tok-2 R=cso/(online).,
12:u:Suf-2 X=SO,
16:u:tok-1LL=(2017),
13:u:tok-1 L=cso,
23:u:tok-2 L=cso/(online).,
12:u:Suf-2 L=SO,
14:u:tok-1 R=sans,
19:u:tok-2 R=grid/sans,
14:u:Tok-1 X=SANS,
14:u:tok-1 X=sans,
19:u:tok-2 L=grid/sans,
18:u:tok-2 R=sans/ics,
14:u:tok-1 L=sans,
18:u:tok-2 L=sans/ics,
21:u:tok-2 R=ics/report.,
14:u:tok-1LL=sans,
21:u:tok-2 L=ics/report.,
24:u:tok-2 R=report./(2016),
16:u:tok-1 L=power",
16:u:tok-1 R=michel,
19:u:tok-1RR=foucault.,
19:u:tok-2 L=power"/in,
19:u:tok-2 R=in/michel,
25:u:tok-2 L=world/(online).,
16:u:Tok-1 X=Truman,
16:u:tok-1 X=truman,
21:u:tok-2 L=york/truman,
19:u:tok-2 R=truman/to,
16:u:tok-1 L=truman,
19:u:tok-2 L=truman/to,
19:u:tok-2 R=to/george,
16:u:tok-1LL=truman,
15:u:tok-1RR=bush.,
19:u:tok-2 L=to/george,
19:u:tok-2 R=george/w.,
15:u:tok-1 R=bush.,
19:u:tok-2 L=george/w.,
18:u:tok-2 R=w./bush.,
15:u:Tok-1 X=Bush.,
14:u:tok-1 X=bush,
18:u:tok-2 L=w./bush.,
20:u:tok-2 R=bush./_x+1,
27:u:tok-2 L=attacks/institute,
18:u:tok-1RR=strateg.,
21:u:tok-2 R=analysis/j.,
18:u:Tok-1 X=District,
18:u:tok-1 X=district,
18:u:tok-1RR=southern,
23:u:tok-2 L=al.,/district,
25:u:tok-2 R=district/court,,
18:u:tok-1 L=district,
18:u:tok-1 R=southern,
25:u:tok-2 L=district/court,,
25:u:tok-2 R=court,/southern,
16:u:Tok-1 X=Hoover,
16:u:tok-1 X=hoover,
14:u:tok-1 L=nuts,
21:u:tok-2 L=nuts/hoover,
24:u:tok-2 R=hoover/working,
12:u:tok-1RR=wa,
12:u:tok-1 R=wa,
12:u:tok-1 X=wa,
12:u:tok-1 L=wa,
12:u:tok-1LL=wa,
25:u:tok-2 L=security/united,
18:u:tok-1RR=assembly,
25:u:tok-2 R=nations/general,
18:u:tok-1 R=assembly,
25:u:tok-2 L=nations/general,
26:u:tok-2 R=general/assembly,
18:u:Tok-1 X=Assembly,
18:u:tok-1 X=assembly,
26:u:tok-2 L=general/assembly,
24:u:tok-2 R=assembly/2016.,
27:u:tok-2 L=research/national,
21:u:tok-2 L=york/edited,
17:u:tok-1 X=jackson,
13:u:Tok-1 X=PhD,
13:u:tok-1 X=phd,
19:u:tok-1 L=jerusalem,
13:u:tok-1RR=[in,
23:u:tok-2 L=jerusalem/phd,
20:u:tok-2 R=phd/thesis,
12:u:Suf-2 X=hD,
21:u:Tmn-2 R=none/thesis,
13:u:tok-1 L=phd,
12:u:Suf-2 L=hD,
21:u:Key-3 L=none/thesis,
23:u:tok-2 R=inevitable/so,
17:u:Tok-1 X=Online.,
13:u:Tok-1 X=LLC,
13:u:tok-1 X=llc,
17:u:tok-1 L=prices,,
21:u:tok-2 L=prices,/llc,
16:u:tok-2 R=llc/in,
12:u:Suf-2 X=LC,
19:u:tok-1RR=insurance,
19:u:tok-1 R=insurance,
19:u:Tok-1 X=Insurance,
19:u:tok-1 L=insurance,
19:u:tok-1LL=insurance,
15:u:tok-1LL=2024.,
17:u:tok-1 L=nasdaq.,
19:u:tok-1 R=accessed:,
25:u:tok-2 L=nasdaq./online.,
27:u:tok-2 R=online./accessed:,
12:u:Suf-2 X=iq,
12:u:Suf-2 L=iq,
16:u:tok-1RR=[saudi,
16:u:tok-1 R=[saudi,
12:u:Pre-2 R=[S,
16:u:tok-1 R=reveal,
16:u:Tok-1 X=Reveal,
16:u:tok-1 X=reveal,
16:u:tok-1 L=reveal,
16:u:tok-1LL=reveal,
19:u:Tok-1 X=Ta'akidat,
18:u:tok-1 X=taakidat,
20:u:tok-1LL=li-wizarat,
24:u:tok-1 L=al-kharijiya..,
12:u:tok-1 R=bi,
18:u:tok-1RR="fabraka,
34:u:tok-2 L=al-kharijiya../ta'akidat,
22:u:tok-2 R=ta'akidat/bi,
12:u:Tok-1 X=Bi,
12:u:tok-1 X=bi,
24:u:tok-1LL=al-kharijiya..,
19:u:tok-1 L=ta'akidat,
18:u:tok-1 R="fabraka,
15:u:tok-1RR=ba'ad,
22:u:tok-2 L=ta'akidat/bi,
21:u:tok-2 R=bi/"fabraka,
12:u:Pre-2 R="f,
12:u:Suf-2 X=Bi,
18:u:Tok-1 X="fabraka,
17:u:tok-1 X=fabraka,
19:u:tok-1LL=ta'akidat,
12:u:tok-1 L=bi,
15:u:tok-1 R=ba'ad,
21:u:tok-1RR=al-witha'iq,
21:u:tok-2 L=bi/"fabraka,
24:u:tok-2 R="fabraka/ba'ad,
12:u:Pre-2 X="f,
12:u:Suf-2 L=Bi,
15:u:Tok-1 X=Ba'ad,
14:u:tok-1 X=baad,
12:u:tok-1LL=bi,
18:u:tok-1 L="fabraka,
21:u:tok-1 R=al-witha'iq,
24:u:tok-2 L="fabraka/ba'ad,
27:u:tok-2 R=ba'ad/al-witha'iq,
21:u:Tok-1 X=Al-Witha'iq,
19:u:tok-1 X=alwithaiq,
18:u:tok-1LL="fabraka,
15:u:tok-1 L=ba'ad,
17:u:tok-1RR=tahdhir,
27:u:tok-2 L=ba'ad/al-witha'iq,
24:u:tok-2 R=al-witha'iq/wa,
12:u:Tok-1 X=Wa,
15:u:tok-1LL=ba'ad,
21:u:tok-1 L=al-witha'iq,
17:u:tok-1 R=tahdhir,
13:u:tok-1RR=min,
24:u:tok-2 L=al-witha'iq/wa,
20:u:tok-2 R=wa/tahdhir,
12:u:Suf-2 X=Wa,
17:u:Tok-1 X=Tahdhir,
17:u:tok-1 X=tahdhir,
21:u:tok-1LL=al-witha'iq,
13:u:tok-1 R=min,
20:u:tok-1RR=tadawuliha,
20:u:tok-2 L=wa/tahdhir,
21:u:tok-2 R=tahdhir/min,
12:u:Suf-2 L=Wa,
13:u:Tok-1 X=Min,
13:u:tok-1 X=min,
17:u:tok-1 L=tahdhir,
20:u:tok-1 R=tadawuliha,
21:u:tok-2 L=tahdhir/min,
24:u:tok-2 R=min/tadawuliha,
20:u:Tok-1 X=Tadawuliha,
20:u:tok-1 X=tadawuliha,
17:u:tok-1LL=tahdhir,
13:u:tok-1 L=min,
18:u:tok-1RR=connects,
24:u:tok-2 L=min/tadawuliha,
27:u:tok-2 R=tadawuliha/[saudi,
13:u:tok-1LL=min,
20:u:tok-1 L=tadawuliha,
18:u:tok-1 R=connects,
27:u:tok-2 L=tadawuliha/[saudi,
25:u:tok-2 R=[saudi/connects,
18:u:Tok-1 X=Connects,
18:u:tok-1 X=connects,
20:u:tok-1LL=tadawuliha,
16:u:tok-1RR=leaked,
25:u:tok-2 L=[saudi/connects,
28:u:tok-2 R=connects/wikileaks,
18:u:tok-1 L=connects,
16:u:tok-1 R=leaked,
28:u:tok-2 L=connects/wikileaks,
26:u:tok-2 R=wikileaks/leaked,
26:u:tok-1LL=dissemination].",
17:u:tok-2 L=cnn/the,
18:u:Tok-1 X=Jackson,,
19:u:tok-1LL=palgrave.,
21:u:tok-1 L=basingstoke,
30:u:tok-2 L=basingstoke/jackson,,
27:u:tok-2 R=jackson,/richard,,
19:u:tok-1 L=intercept,
24:u:tok-2 L=intercept/june,
17:u:tok-2 R=june/3.,
24:u:Tok-1 X=Opportunities,,
33:u:tok-2 L=threats,/opportunities,,
28:u:tok-2 R=opportunities,/and,
18:u:tok-2 L=to/2012.,
21:u:tok-2 R=2012./2013.,
20:u:tok-2 L=j./october,
22:u:tok-2 R=october/war,,
22:u:tok-2 L=october/war,,
24:u:tok-2 R=war,/terrorism,
19:u:tok-2 L=law/april,
21:u:tok-2 R=april/2020.,
16:u:tok-1RR=iftrip,
19:u:Tok-1 X=Workshop.,
20:u:tok-1 R=powerpoint,
23:u:tok-1RR=presentation.,
26:u:tok-2 L=london/workshop.,
30:u:tok-2 R=workshop./powerpoint,
20:u:Tok-1 X=PowerPoint,
20:u:tok-1 X=powerpoint,
19:u:tok-1 L=workshop.,
23:u:tok-1 R=presentation.,
30:u:tok-2 L=workshop./powerpoint,
34:u:tok-2 R=powerpoint/presentation.,
22:u:tok-1 X=presentation,
20:u:tok-2 L=zurich/may,
20:u:tok-2 R=may/reveal,
20:u:tok-2 L=may/reveal,
22:u:tok-2 R=reveal/about,
22:u:tok-2 L=reveal/about,
25:u:tok-2 R=cyber/insurance,
25:u:tok-2 L=cyber/insurance,
22:u:tok-2 R=insurance/in,
22:u:tok-2 L=insurance/in,
13:u:tok-1RR=eth,
13:u:tok-1 R=eth,
13:u:tok-1 L=eth,
20:u:tok-2 L=eth/zurich,
13:u:tok-1LL=eth,
14:u:tok-1 R=(no.,
15:u:tok-1RR=244).,
18:u:tok-2 R=may/(no.,
16:u:Tok-1 X=Wired.,
97:u:tok-1 R=https://www.wired.com/story/notpetya-cyberattack-ukraine-russia-code-crashed-the-world/,
22:u:tok-2 L=2018./wired.,
104:u:tok-2 R=wired./https://www.wired.com/story/notpetya-cyberattack-ukraine-russia-code-crashed-the-world/,
89:u:tok-1 R=https://www.reuters.com/article/us-sony-cybersecurity-usa-iduskbn0jx1mh20141222,
24:u:tok-2 L=2014./reuters.,
98:u:tok-2 R=reuters./https://www.reuters.com/article/us-sony-cybersecurity-usa-iduskbn0jx1mh20141222,
22:u:tok-1 L=definitions.,
30:u:tok-2 L=definitions./october,
23:u:tok-2 R=october/2018.,
21:u:tok-2 L=b./february,
26:u:tok-2 R=february/private,
15:u:tok-1LL=2000.,
24:u:tok-2 L=penguin/united,
23:u:tok-2 R=centre./joint,
15:u:Lst-2 X=Ll/,
12:u:Suf-1 X=,
17:u:Tmn-3 X=none/,
15:u:Lst-2 L=Ll/,
11:u:Fst-1 R=L,
11:*:Fst-1 X=L,
28:u:tok-2 L=conflict:/fourteen,
28:u:tok-2 R=fourteen/analogies,
19:u:Tok-1 X=analogies,
28:u:tok-2 L=fourteen/analogies,
25:u:tok-2 R=analogies/2017,,
19:u:tok-1RR=programme,
22:u:tok-2 L=oxford/cyber,
23:u:tok-2 R=cyber/studies,
19:u:tok-1 R=programme,
23:u:tok-2 L=cyber/studies,
27:u:tok-2 R=studies/programme,
19:u:Tok-1 X=Programme,
19:u:tok-1 X=programme,
27:u:tok-2 L=studies/programme,
27:u:tok-2 R=programme/working,
19:u:tok-1 L=programme,
17:u:tok-1RR=series,,
27:u:tok-2 L=programme/working,
19:u:tok-1LL=programme,
17:u:tok-1 R=series,,
23:u:tok-2 R=paper/series,,
17:u:Tok-1 X=Series,,
23:u:tok-2 L=paper/series,,
22:u:tok-2 R=series,/_x+1,
21:u:Key-3 x=series/weak,
21:u:tok-2 L=york/report,
25:u:tok-2 R=thomas/cyberwar,
25:u:tok-2 L=stuxnet./center,
17:u:tok-1RR=zrich,
21:u:tok-2 R=studies/eth,
17:u:Tok-1 X=Zrich,
18:u:tok-1RR=october.,
21:u:tok-2 L=eth/zrich,
23:u:tok-2 R=zrich/2017.,
13:u:Pre-2 X=Z,
18:u:tok-1 L=council.,
30:u:tok-2 L=council./proceedings,
18:u:tok-1LL=council.,
20:u:tok-2 R=u.s./2011.,
14:u:tok-1LL=may.,
128:u:tok-1RR=https://css.ethz.ch/content/dam/ethz/special-interest/gesc/cis/center-for-securities-studies/pdfs/cssanalyse244-en.pdf,
24:u:tok-2 R=zurich/studies,
13:u:Tok-1 X=G7.,
12:u:tok-1 X=g7,
18:u:tok-2 L=_x-1/g7.,
19:u:tok-2 R=g7./cyber,
12:u:Pre-2 X=G7,
22:u:tok-1LL=explanation.,
16:u:tok-1 L=2021c.,
72:u:tok-1 R=https://www.kaspersky.com/resource-center/definitions/spoofing,
27:u:tok-2 L=2021c./kaspersky.,
83:u:tok-2 R=kaspersky./https://www.kaspersky.com/resource-center/definitions/spoofing,
15:u:Tok-1 X=18-22,
14:u:tok-1 X=1822,
24:u:tok-1LL=interventions.,
19:u:tok-1 R=february.,
21:u:tok-2 L=2021./18-22,
25:u:tok-2 R=18-22/february.,
14:u:tok-1 L=w32.,
18:u:tok-1 R=dossier.,
22:u:tok-2 L=w32./stuxnet,
26:u:tok-2 R=stuxnet/dossier.,
18:u:Tok-1 X=Dossier.,
14:u:tok-1LL=w32.,
26:u:tok-2 L=stuxnet/dossier.,
27:u:tok-2 R=dossier./symantec,
16:u:Tok-1 X=ENISA.,
15:u:tok-1 X=enisa,
26:u:tok-1 L=standardisation.,
90:u:tok-1RR=https://www.enisa.europa.eu/publications/cybersecurity-of-ai-and-standardisation,
33:u:tok-2 L=standardisation./enisa.,
22:u:tok-2 R=enisa./2023.,
14:u:tok-1 L=u.n.,
17:u:tok-1 R=treaty.,
25:u:tok-2 L=u.n./cybercrime,
28:u:tok-2 R=cybercrime/treaty.,
17:u:Tok-1 X=Treaty.,
14:u:tok-1LL=u.n.,
28:u:tok-2 L=cybercrime/treaty.,
25:u:tok-2 R=treaty./foreign,
0=5.895741e-02
1=7.140218e-02
2=1.046245e-01
3=-1.505394e-02
4=4.275282e-03
5=1.231050e-02
6=5.666352e-02
7=-1.046307e-02
8=1.675794e-01
9=1.838595e-03
10=8.887584e-02
12=8.877313e-02
13=-3.898676e-02
14=7.049096e-02
16=-7.134501e-05
17=-2.457619e-02
18=1.130556e+00
19=1.843288e-01
20=-4.023483e-01
22=-1.825259e-01
25=-7.338975e-01
26=-1.150514e-01
28=-3.820591e-01
30=-6.520863e-02
36=-2.303470e+00
37=6.420087e-01
38=4.421849e-02
39=-1.185856e+00
40=8.449209e-02
41=-1.475833e-01
42=-3.071131e-01
43=-1.315990e-01
44=-1.304853e+00
45=-2.306983e-01
46=-1.759101e+00
48=-9.498740e-01
52=-5.273833e-02
53=-2.489780e-01
54=-5.482649e-01
55=-2.459951e+00
56=9.685086e-01
57=2.617305e-01
58=-6.648803e-01
59=-1.068242e+00
60=-1.314475e+00
61=-1.663632e+00
62=4.396120e-02
63=2.050659e-02
64=-1.558725e-01
65=1.615513e-01
66=-6.107278e-01
68=2.563441e-01
72=-3.785853e-01
73=-7.447808e-01
74=-1.334538e+00
75=8.346075e-01
76=-2.764745e-01
78=-2.868505e-02
79=-7.810301e-01
80=-1.351708e-04
81=4.965051e-01
82=-1.208219e+00
83=3.176542e-02
84=-4.676082e-01
90=-1.102870e+00
91=-1.546630e+00
92=1.666311e-01
93=-2.675213e-01
94=8.795566e-01
95=7.160699e-01
96=-2.017372e-02
97=-1.100556e+00
98=-4.035194e-01
99=-4.486255e-01
100=-6.877142e-01
101=-7.213900e-02
102=-5.668902e-02
109=-1.511488e+00
110=2.593201e-03
113=1.506846e+00
114=1.397819e+00
115=-2.259160e-01
118=-1.258884e+00
127=-5.246369e-01
128=3.189928e-02
131=-2.346336e-01
132=1.140160e+00
144=-1.191731e+00
145=-1.412040e+00
146=-1.651441e-02
147=-1.051925e+00
148=-6.457840e-02
149=-3.160889e-02
150=6.746002e-02
151=6.767788e-01
152=-7.755031e-01
153=-6.455868e-01
154=-1.334661e+00
155=-1.860088e-01
156=-8.719642e-01
161=-3.351854e-02
162=-3.100425e-01
163=-7.750219e-01
164=-1.423870e+00
165=-3.101595e-01
168=-2.996661e-01
169=-3.123687e-01
170=8.262681e-01
171=-6.716427e-01
172=5.623177e-06
173=1.300294e-01
180=-4.700029e-01
181=-7.348740e-01
182=-5.277624e-01
183=-4.887368e-01
184=-2.529344e-02
187=-6.257265e-01
188=6.059865e-03
189=6.260919e-01
191=1.648263e-01
193=7.948352e-01
196=6.406805e-03
198=-1.766951e-01
199=-1.269960e+00
200=-2.324532e+00
201=-2.158608e-01
203=-1.899220e-05
205=-3.692687e-01
206=-5.829148e-01
207=-2.894643e-01
208=1.573865e+00
209=-3.043069e-01
218=-1.874722e-01
226=5.304486e-01
227=1.533995e-01
234=-1.052475e+00
235=-4.115506e-01
236=-1.822379e-01
243=-4.992302e-01
244=-3.109396e-01
246=1.159129e+00
265=6.918596e-01
284=1.798364e-01
288=7.493735e-02
308=-1.582033e-03
322=2.172855e+00
341=1.341462e+00
342=8.252009e-02
343=1.811333e-02
349=1.015659e-02
350=-2.621972e-02
352=-3.944695e-02
357=7.131983e-02
360=8.252009e-02
361=1.811333e-02
367=1.015659e-02
368=-2.621972e-02
370=-3.944695e-02
375=7.131983e-02
378=-4.329478e-04
379=3.515789e-02
380=-3.876389e-01
382=-4.200550e-02
385=1.511076e-02
388=6.333252e-03
396=2.351867e-01
397=1.445499e-01
398=-6.409781e-02
399=1.551980e-01
400=1.272592e-01
401=-4.507211e-02
402=-1.444091e+00
403=7.772117e-02
404=1.077032e-01
405=1.378265e-01
406=2.738986e-02
407=-3.382460e-01
408=1.246810e-01
409=-2.052988e-01
412=3.563825e-02
413=3.145813e-02
414=7.379976e-01
415=4.586744e-01
418=-6.054267e-02
421=-5.065500e-01
422=-1.591155e-02
