#mdl#2#3401
#rdr#61/19/0
1:*,
18:u:Tok-1 X=%x[ 0,0],
18:u:tok-1 X=%x[ 0,1],
18:u:tok-1LL=%X[-2,0],
18:u:tok-1 L=%X[-1,0],
18:u:tok-1 R=%X[ 1,0],
18:u:tok-1RR=%X[ 2,0],
27:u:tok-2 L=%X[-1,0]/%X[ 0,0],
27:u:tok-2 R=%X[ 0,0]/%X[ 1,0],
18:*:Fst-1 X=%x[ 0,2],
18:u:Fst-1 R=%x[ 1,2],
27:u:Fst-2 X=%x[ 0,2]/%x[ 0,4],
27:u:Fst-2 R=%x[ 1,2]/%x[ 1,4],
18:*:Lst-1 L=%x[-1,3],
18:u:Lst-1 X=%x[ 0,3],
27:u:Lst-2 L=%x[-1,3]/%x[-1,6],
27:u:Lst-2 X=%x[ 0,3]/%x[ 0,6],
18:u:Pre-1 X=%x[ 0,4],
18:u:Pre-2 X=%x[ 0,5],
18:u:Pre-2 R=%x[ 1,5],
18:u:Suf-1 X=%x[ 0,6],
18:u:Suf-2 L=%x[-1,7],
18:u:Suf-2 X=%x[ 0,7],
18:u:Cap-1 L=%x[-1,8],
18:u:Cap-1 X=%x[ 0,8],
18:u:Cap-1 R=%x[ 1,8],
27:u:Cap-2 L=%x[-1,8]/%x[ 0,8],
27:u:Cap-2 R=%x[ 0,8]/%x[ 1,8],
28:u:Cap-3 L=%x[-1,18]/%x[ 0,8],
18:*:Num-1 L=%x[-1,9],
18:*:Num-1 X=%x[ 0,9],
18:u:Num-1 R=%x[ 1,9],
28:u:Num-2 R=%x[ 0,9]/%x[ 0,17],
28:u:Num-2 R=%x[ 0,9]/%x[ 0,18],
19:u:Nme-1 X=%x[ 0,10],
19:u:Loc-1 X=%x[ 0,11],
19:u:Pub-1 X=%x[ 0,12],
19:u:Jnl-1 X=%x[ 0,13],
19:u:Key-1 L=%x[-1,14],
19:u:Key-1 X=%x[ 0,14],
19:u:Key-1 R=%x[ 1,14],
28:u:Key-2 X=%x[ 0,14]/%x[ 0,8],
29:u:Key-3 L=%x[-1,18]/%x[ 0,14],
29:u:Key-3 x=%x[ 0,14]/%x[ 0,18],
19:u:Pos-1 X=%x[ 0,15],
29:u:Pos-2 L=%x[-1,15]/%x[ 0,15],
29:u:Pos-2 R=%x[ 0,15]/%x[ 1,15],
19:u:Pct-1 L=%x[-1,16],
19:u:Pct-1 X=%x[ 0,16],
19:u:Pct-1 R=%x[ 1,16],
19:u:Brk-1 L=%x[-1,17],
19:u:Brk-1 X=%x[ 0,17],
19:u:Brk-1 R=%x[ 1,17],
19:*:Tmn-1 L=%x[-1,18],
19:u:Tmn-1 X=%x[ 0,18],
19:u:Tmn-1 R=%x[ 1,18],
29:u:Tmn-2 L=%x[-1,14]/%x[ 0,18],
29:u:Tmn-2 R=%x[ 0,18]/%x[ 1,14],
28:u:Tmn-3 X=%x[ 0,18]/%x[ 0,6],
28:u:Tmn-4 R=%x[ 0,18]/%x[ 1,8],
19:u:Id--1 X=%x[ 0,19],
#qrk#9
6:author,
5:title,
4:date,
9:publisher,
15:container-title,
6:volume,
5:issue,
5:pages,
7:journal,
#qrk#1444
1:*,
14:u:tok-1LL=_x-2,
14:u:tok-1 L=_x-1,
12:u:tok-1RR=of,
12:*:Fst-1 X=Lu,
12:u:Fst-1 R=Lu,
14:u:Fst-2 X=Lu/A,
14:u:Fst-2 R=Lu/O,
14:*:Lst-1 L=_x-1,
12:u:Lst-1 X=Ll,
19:u:Lst-2 L=_x-1/_x-1,
14:u:Lst-2 X=Ll/s,
11:u:Pre-1 X=A,
12:u:Pre-2 X=An,
12:u:Pre-2 R=Of,
11:u:Suf-1 X=s,
14:u:Suf-2 L=_x-1,
14:u:Cap-1 L=_x-1,
17:u:Cap-1 X=initial,
17:u:Cap-1 R=initial,
22:u:Cap-2 L=_x-1/initial,
25:u:Cap-2 R=initial/initial,
22:u:Cap-3 L=_x-1/initial,
14:*:Num-1 L=_x-1,
14:*:Num-1 X=none,
14:u:Num-1 R=none,
19:u:Num-2 R=none/none,
11:u:Nme-1 X=F,
11:u:Loc-1 X=F,
11:u:Pub-1 X=F,
11:u:Jnl-1 X=F,
14:u:Key-1 L=_x-1,
14:u:Key-1 X=none,
14:u:Key-1 R=none,
22:u:Key-2 X=none/initial,
19:u:Key-3 L=_x-1/none,
19:u:Key-3 x=none/none,
15:u:Pos-1 X=first,
20:u:Pos-2 L=_x-1/first,
14:u:Pct-1 L=_x-1,
14:u:Pct-1 X=none,
14:u:Pct-1 R=none,
14:u:Brk-1 L=_x-1,
14:u:Brk-1 X=none,
14:u:Brk-1 R=none,
14:*:Tmn-1 L=_x-1,
14:u:Tmn-1 X=none,
14:u:Tmn-1 R=none,
19:u:Tmn-2 L=_x-1/none,
19:u:Tmn-2 R=none/none,
16:u:Tmn-3 X=none/s,
22:u:Tmn-4 R=none/initial,
11:u:Id--1 X=F,
14:u:tok-1LL=_x-1,
19:u:tok-1 L=anonymous,
12:u:tok-1 R=of,
13:u:tok-1RR=the,
12:u:Fst-1 R=Ll,
14:u:Fst-2 X=Lu/O,
14:u:Fst-2 R=Ll/o,
12:*:Lst-1 L=Ll,
14:u:Lst-2 L=Ll/s,
14:u:Lst-2 X=Ll/e,
11:u:Pre-1 X=O,
12:u:Pre-2 R=of,
11:u:Suf-1 X=e,
12:u:Suf-2 L=us,
12:u:Suf-2 X=ce,
17:u:Cap-1 L=initial,
15:u:Cap-1 R=lower,
25:u:Cap-2 L=initial/initial,
23:u:Cap-2 R=initial/lower,
22:u:Cap-3 L=none/initial,
14:*:Num-1 L=none,
11:u:Pub-1 X=T,
11:u:Jnl-1 X=T,
14:u:Key-1 L=none,
19:u:Key-3 L=none/none,
14:u:Pct-1 L=none,
14:u:Brk-1 L=none,
14:*:Tmn-1 L=none,
19:u:Tmn-2 L=none/none,
16:u:Tmn-3 X=none/e,
20:u:Tmn-4 R=none/lower,
12:u:Tok-1 X=of,
12:u:tok-1 X=of,
13:u:tok-1 R=the,
12:*:Fst-1 X=Ll,
14:u:Fst-2 X=Ll/o,
14:u:Fst-2 R=Ll/t,
14:u:Lst-2 L=Ll/e,
14:u:Lst-2 X=Ll/f,
11:u:Pre-1 X=o,
12:u:Pre-2 X=of,
12:u:Pre-2 R=th,
11:u:Suf-1 X=f,
12:u:Suf-2 L=ce,
12:u:Suf-2 X=of,
15:u:Cap-1 X=lower,
23:u:Cap-2 L=initial/lower,
21:u:Cap-2 R=lower/lower,
20:u:Cap-3 L=none/lower,
20:u:Key-2 X=none/lower,
11:u:Pos-1 X=1,
13:u:Pos-2 R=1/1,
16:u:Tmn-3 X=none/f,
13:u:Tok-1 X=the,
13:u:tok-1 X=the,
12:u:tok-1 L=of,
14:u:Fst-2 X=Ll/t,
14:u:Fst-2 R=Lu/D,
14:u:Lst-2 L=Ll/f,
11:u:Pre-1 X=t,
12:u:Pre-2 X=th,
12:u:Pre-2 R=Di,
12:u:Suf-2 L=of,
12:u:Suf-2 X=he,
15:u:Cap-1 L=lower,
21:u:Cap-2 L=lower/lower,
23:u:Cap-2 R=lower/initial,
13:u:Pos-2 L=1/1,
13:u:Pos-2 R=1/2,
12:u:tok-1LL=of,
13:u:tok-1 L=the,
18:u:tok-1RR=national,
14:u:Fst-2 X=Lu/D,
14:u:Lst-2 X=Ll/r,
11:u:Pre-1 X=D,
12:u:Pre-2 X=Di,
11:u:Suf-1 X=r,
12:u:Suf-2 L=he,
12:u:Suf-2 X=or,
23:u:Cap-2 L=lower/initial,
11:u:Pos-1 X=2,
13:u:Pos-2 L=1/2,
13:u:Pos-2 R=2/2,
16:u:Tmn-3 X=none/r,
13:u:tok-1LL=the,
18:u:tok-1 R=national,
14:u:Fst-2 R=Lu/N,
14:u:Lst-2 L=Ll/r,
12:u:Pre-2 R=Na,
12:u:Suf-2 L=or,
13:u:Pos-2 L=2/2,
13:u:Pos-2 R=2/3,
18:u:Tok-1 X=National,
18:u:tok-1 X=national,
14:u:Fst-2 X=Lu/N,
14:u:Fst-2 R=Lu/I,
14:u:Lst-2 X=Ll/l,
11:u:Pre-1 X=N,
12:u:Pre-2 X=Na,
12:u:Pre-2 R=In,
11:u:Suf-1 X=l,
12:u:Suf-2 X=al,
11:u:Pos-1 X=3,
13:u:Pos-2 L=2/3,
13:u:Pos-2 R=3/3,
15:u:Pct-1 R=other,
14:u:Tmn-1 R=weak,
16:u:Tmn-3 X=none/l,
22:u:tok-1 X=intelligence,
18:u:tok-1 L=national,
23:u:tok-1RR=international,
11:u:Fst-1 R=P,
14:u:Fst-2 X=Lu/I,
11:u:Lst-1 X=P,
14:u:Lst-2 L=Ll/l,
13:u:Lst-2 X=P/,,
11:u:Pre-1 X=I,
12:u:Pre-2 X=In,
11:u:Suf-1 X=,,
12:u:Suf-2 L=al,
15:u:Cap-1 R=other,
23:u:Cap-2 R=initial/other,
19:u:Num-2 R=none/weak,
19:u:Key-3 x=none/weak,
13:u:Pos-2 L=3/3,
13:u:Pos-2 R=3/4,
15:u:Pct-1 X=other,
16:u:Pct-1 R=hyphen,
14:u:Tmn-1 X=weak,
19:u:Tmn-2 L=none/weak,
19:u:Tmn-2 R=weak/none,
16:u:Tmn-3 X=weak/,,
23:u:tok-1 R=international,
11:*:Fst-1 X=P,
13:u:Fst-2 X=P/',
11:*:Lst-1 L=P,
13:u:Lst-2 L=P/,,
14:u:Lst-2 X=Ll/d,
11:u:Pre-1 X=',
11:u:Suf-1 X=d,
12:u:Suf-2 X=ed,
15:u:Cap-1 X=other,
23:u:Cap-2 L=initial/other,
23:u:Cap-2 R=other/initial,
20:u:Cap-3 L=weak/other,
20:u:Key-2 X=none/other,
19:u:Key-3 L=weak/none,
11:u:Pos-1 X=4,
13:u:Pos-2 L=3/4,
13:u:Pos-2 R=4/4,
15:u:Pct-1 L=other,
16:u:Pct-1 X=hyphen,
14:*:Tmn-1 L=weak,
16:u:Tmn-3 X=none/d,
23:u:Tok-1 X=International,
23:u:tok-1 X=international,
14:u:Lst-2 L=Ll/d,
12:u:Pre-2 R=No,
12:u:Suf-2 L=ed,
15:u:Cap-1 L=other,
23:u:Cap-2 L=other/initial,
13:u:Pos-2 L=4/4,
13:u:Pos-2 R=4/5,
23:u:tok-1 L=international,
12:u:Pre-2 X=No,
11:u:Pos-1 X=5,
13:u:Pos-2 L=4/5,
13:u:Pos-2 R=5/5,
23:u:tok-1LL=international,
17:u:tok-1RR=(2022).,
14:u:Fst-2 R=Lu/C,
14:u:Lst-2 X=Ll/y,
12:u:Pre-2 R=Co,
11:u:Suf-1 X=y,
12:u:Suf-2 X=ly,
13:u:Pos-2 L=5/5,
13:u:Pos-2 R=5/6,
16:u:Tmn-3 X=none/y,
12:u:Fst-1 R=Ps,
14:u:Fst-2 X=Lu/C,
14:u:Fst-2 R=Ps/(,
14:u:Lst-2 L=Ll/y,
11:u:Pre-1 X=C,
12:u:Pre-2 X=Co,
12:u:Pre-2 R=(2,
14:u:Num-1 R=year,
11:u:Pos-1 X=6,
13:u:Pos-2 L=5/6,
13:u:Pos-2 R=6/6,
16:u:Pct-1 R=period,
16:u:Brk-1 R=parens,
16:u:Tmn-1 R=strong,
20:u:Tmn-4 R=none/other,
12:*:Fst-1 X=Ps,
14:u:Fst-2 X=Ps/(,
14:u:Fst-2 R=Lu/U,
13:u:Lst-2 X=P/.,
11:u:Pre-1 X=(,
12:u:Pre-2 X=(2,
11:u:Suf-1 X=.,
12:u:Suf-2 X=).,
21:u:Cap-2 R=other/other,
20:u:Cap-3 L=none/other,
14:*:Num-1 X=year,
21:u:Num-2 R=year/parens,
21:u:Num-2 R=year/strong,
21:u:Key-3 x=none/strong,
13:u:Pos-2 L=6/6,
13:u:Pos-2 R=6/7,
16:u:Pct-1 X=period,
16:u:Brk-1 X=parens,
16:u:Tmn-1 X=strong,
21:u:Tmn-2 L=none/strong,
21:u:Tmn-2 R=strong/none,
18:u:Tmn-3 X=strong/.,
13:u:Lst-2 L=P/.,
12:u:Pre-2 X=US,
12:u:Suf-2 L=).,
21:u:Cap-2 L=other/other,
14:*:Num-1 L=year,
21:u:Key-3 L=strong/none,
11:u:Pos-1 X=7,
13:u:Pos-2 L=6/7,
13:u:Pos-2 R=7/7,
16:u:Pct-1 L=period,
16:u:Brk-1 L=parens,
16:*:Tmn-1 L=strong,
13:u:Pos-2 L=7/7,
13:u:Pos-2 R=7/8,
11:u:Pos-1 X=8,
13:u:Pos-2 L=7/8,
13:u:Pos-2 R=8/8,
13:u:Pos-2 L=8/8,
13:u:Pos-2 R=8/9,
14:u:Fst-2 R=Lu/R,
12:u:Pre-2 R=Re,
21:u:Num-2 R=none/strong,
11:u:Pos-1 X=9,
13:u:Pos-2 L=8/9,
13:u:Pos-2 R=9/9,
24:u:Tmn-4 R=strong/initial,
14:u:tok-1RR=_x+1,
14:u:Fst-2 X=Lu/R,
14:u:Lst-2 X=Ll/t,
11:u:Pre-1 X=R,
12:u:Pre-2 X=Re,
11:u:Suf-1 X=t,
24:u:Cap-3 L=strong/initial,
14:u:Key-1 R=date,
13:u:Pos-2 L=9/9,
19:u:Tmn-2 R=none/date,
16:u:Tmn-3 X=none/t,
14:u:tok-1 R=_x+1,
14:u:tok-1RR=_x+2,
14:u:Fst-1 R=_x+1,
19:u:Fst-2 R=_x+1/_x+1,
14:u:Lst-2 L=Ll/t,
14:u:Pre-2 R=_x+1,
12:u:Suf-2 L=rt,
14:u:Cap-1 R=_x+1,
22:u:Cap-2 R=initial/_x+1,
14:u:Num-1 R=_x+1,
14:u:Key-1 X=date,
14:u:Key-1 R=_x+1,
22:u:Key-2 X=date/initial,
19:u:Key-3 L=none/date,
14:u:Pos-1 X=last,
16:u:Pos-2 L=9/last,
19:u:Pos-2 R=last/_x+1,
14:u:Pct-1 R=_x+1,
14:u:Brk-1 R=_x+1,
14:u:Tmn-1 R=_x+1,
17:u:Pos-2 R=first/1,
14:u:Fst-2 R=Lu/F,
14:u:Lst-2 X=Ll/a,
12:u:Pre-2 R=Fr,
11:u:Suf-1 X=a,
17:u:Pos-2 L=first/1,
16:u:Tmn-3 X=none/a,
14:u:tok-1 X=from,
18:u:tok-1RR=security,
14:u:Fst-2 X=Lu/F,
14:u:Lst-2 L=Ll/a,
14:u:Lst-2 X=Ll/m,
11:u:Pre-1 X=F,
12:u:Pre-2 X=Fr,
12:u:Pre-2 R=Ch,
11:u:Suf-1 X=m,
12:u:Suf-2 X=om,
11:u:Nme-1 X=T,
16:u:Tmn-3 X=none/m,
14:u:tok-1 L=from,
18:u:tok-1 R=security,
14:u:Fst-2 R=Lu/S,
14:u:Lst-2 L=Ll/m,
12:u:Pre-2 X=Ch,
12:u:Pre-2 R=Se,
12:u:Suf-2 X=se,
18:u:Tok-1 X=Security,
18:u:tok-1 X=security,
14:u:Fst-2 X=Lu/S,
11:u:Pre-1 X=S,
12:u:Pre-2 X=Se,
12:u:Suf-2 L=se,
12:u:Suf-2 X=ty,
18:u:tok-1 L=security,
12:u:Suf-2 L=ty,
12:u:Suf-2 X=es,
18:u:tok-1LL=security,
14:u:Fst-2 R=Ll/i,
12:u:Suf-2 L=es,
12:u:tok-1RR=to,
14:u:Fst-2 X=Ll/i,
14:u:Fst-2 R=Lu/L,
14:u:Lst-2 X=Ll/n,
11:u:Pre-1 X=i,
11:u:Suf-1 X=n,
12:u:Suf-2 X=on,
20:u:Num-2 R=roman/none,
16:u:Tmn-3 X=none/n,
14:u:Fst-2 X=Lu/L,
14:u:Lst-2 L=Ll/n,
11:u:Pre-1 X=L,
12:u:Pre-2 X=Li,
12:u:Suf-2 L=on,
15:*:Num-1 L=roman,
14:u:Fst-2 R=Lu/P,
14:u:Lst-2 X=Ll/o,
12:u:Pre-2 R=Pr,
11:u:Suf-1 X=o,
16:u:Tmn-3 X=none/o,
12:u:tok-1 L=to,
14:u:Fst-2 X=Lu/P,
14:u:Lst-2 L=Ll/o,
11:u:Pre-1 X=P,
12:u:Pre-2 X=Pr,
12:u:Suf-2 L=to,
12:u:tok-1LL=to,
14:u:Fst-2 R=Lu/A,
14:u:Cap-1 R=caps,
22:u:Cap-2 R=initial/caps,
19:u:Tmn-4 R=none/caps,
12:u:Lst-1 X=Lu,
12:u:Pre-2 R=Ca,
14:u:Cap-1 X=caps,
22:u:Cap-2 L=initial/caps,
22:u:Cap-2 R=caps/initial,
19:u:Cap-3 L=none/caps,
11:u:Loc-1 X=T,
19:u:Key-2 X=none/caps,
13:u:tok-1 L=apt,
12:*:Lst-1 L=Lu,
12:u:Pre-2 X=Ca,
12:u:Pre-2 R=Un,
12:u:Suf-2 L=PT,
12:u:Suf-2 X=ns,
14:u:Cap-1 L=caps,
22:u:Cap-2 L=caps/initial,
11:u:Fst-1 R=N,
12:u:Suf-2 L=ns,
12:u:Suf-2 X=it,
16:u:Num-1 R=double,
11:*:Fst-1 X=N,
11:u:Lst-1 X=N,
13:u:Lst-2 X=N/2,
11:u:Suf-1 X=2,
16:*:Num-1 X=double,
21:u:Num-2 R=double/none,
16:u:Tmn-3 X=none/2,
11:*:Lst-1 L=N,
13:u:Lst-2 L=N/2,
20:u:Cap-2 R=other/_x+1,
16:*:Num-1 L=double,
12:u:Pre-2 X=Ad,
16:u:Cap-1 R=single,
24:u:Cap-2 R=initial/single,
14:u:Fst-2 R=Lu/E,
16:u:Cap-1 X=single,
24:u:Cap-2 L=initial/single,
24:u:Cap-2 R=single/initial,
21:u:Key-2 X=none/single,
14:u:Fst-2 X=Lu/E,
14:u:Fst-2 R=Ll/a,
11:u:Pre-1 X=E,
12:u:Pre-2 X=Ec,
12:u:Suf-2 X=em,
16:u:Cap-1 L=single,
24:u:Cap-2 L=single/initial,
14:u:Fst-2 X=Ll/a,
11:u:Pre-1 X=a,
12:u:Pre-2 R=St,
15:u:Pct-1 R=colon,
18:u:Tmn-1 R=moderate,
13:u:Lst-2 X=P/:,
12:u:Pre-2 X=St,
12:u:Pre-2 R=An,
11:u:Suf-1 X=:,
12:u:Suf-2 L=as,
12:u:Suf-2 X=e:,
23:u:Num-2 R=none/moderate,
23:u:Key-3 x=none/moderate,
15:u:Pct-1 X=colon,
18:u:Tmn-1 X=moderate,
23:u:Tmn-2 L=none/moderate,
23:u:Tmn-2 R=moderate/none,
20:u:Tmn-3 X=moderate/:,
26:u:Tmn-4 R=moderate/initial,
11:u:Id--1 X=T,
13:u:Lst-2 L=P/:,
26:u:Cap-3 L=moderate/initial,
23:u:Key-3 L=moderate/none,
15:u:Pct-1 L=colon,
18:*:Tmn-1 L=moderate,
12:u:tok-1 L=an,
13:u:tok-1RR=for,
12:u:Suf-2 X=le,
12:u:tok-1LL=an,
13:u:tok-1 R=for,
14:u:Fst-2 R=Ll/f,
12:u:Pre-2 R=fo,
17:u:tok-1RR=journal,
14:u:Fst-2 X=Ll/f,
11:u:Pre-1 X=f,
12:u:Suf-2 L=ct,
13:u:tok-1 L=for,
17:u:tok-1 R=journal,
14:u:Fst-2 R=Lu/J,
13:u:Lst-2 X=P/',
12:u:Pre-2 R=Jo,
11:u:Suf-1 X=',
17:u:Key-1 R=journal,
20:u:Tmn-3 X=moderate/',
17:u:Tok-1 X=Journal,
17:u:tok-1 X=journal,
13:u:tok-1LL=for,
20:u:tok-2 R=journal/of,
14:u:Fst-2 X=Lu/J,
13:u:Lst-2 L=P/',
11:u:Pre-1 X=J,
12:u:Pre-2 X=Jo,
17:u:Key-1 X=journal,
25:u:Key-2 X=journal/initial,
22:u:Key-3 x=journal/none,
17:u:tok-1 L=journal,
20:u:tok-2 L=journal/of,
14:u:Fst-2 R=Lu/M,
12:u:Pre-2 R=Ma,
17:u:Key-1 L=journal,
22:u:Tmn-2 L=journal/none,
17:u:tok-1LL=journal,
14:u:Fst-2 X=Lu/M,
11:u:Pre-1 X=M,
12:u:Pre-2 X=Ma,
12:u:Suf-2 X=nt,
13:u:Fst-2 R=N/1,
13:u:Lst-2 X=N/3,
11:u:Suf-1 X=3,
12:u:Suf-2 L=nt,
16:u:Num-1 R=single,
16:u:Tmn-3 X=none/3,
13:u:Fst-2 X=N/1,
13:u:Fst-2 R=N/3,
13:u:Lst-2 L=N/3,
11:u:Pre-1 X=1,
16:*:Num-1 X=single,
15:u:Num-1 R=range,
21:u:Num-2 R=single/none,
13:u:Fst-2 R=N/2,
13:u:Lst-2 X=N/8,
12:u:Pre-2 R=20,
11:u:Suf-1 X=8,
16:*:Num-1 L=single,
15:*:Num-1 X=range,
20:u:Num-2 R=range/none,
16:u:Tmn-3 X=none/8,
13:u:Fst-2 X=N/2,
13:u:Lst-2 L=N/8,
11:u:Pre-1 X=2,
12:u:Pre-2 X=20,
15:*:Num-1 L=range,
19:u:Num-2 R=year/none,
19:u:Tmn-2 R=none/_x+1,
19:u:Tmn-4 R=none/_x+1,
14:u:Fst-2 X=Lu/B,
14:u:Fst-2 R=Lu/W,
11:u:Pre-1 X=B,
12:u:Suf-2 X=n,,
14:u:Fst-2 X=Lu/W,
11:u:Pre-1 X=W,
12:u:Suf-2 L=n,,
14:u:Fst-2 R=Ll/b,
20:u:Tmn-4 R=weak/lower,
14:u:Fst-2 X=Ll/b,
11:u:Pre-1 X=b,
20:u:Cap-3 L=weak/lower,
14:u:tok-1 R=2024,
12:u:Suf-2 L=ut,
18:u:tok-1RR=research,
13:u:Lst-2 X=N/4,
11:u:Suf-1 X=4,
16:u:Tmn-3 X=none/4,
18:u:tok-1 R=research,
12:u:Suf-2 X=in,
16:u:Pos-2 R=8/last,
18:u:Tok-1 X=Research,
18:u:tok-1 X=research,
14:u:Lst-2 X=Ll/h,
11:u:Suf-1 X=h,
12:u:Suf-2 L=in,
12:u:Suf-2 X=ch,
16:u:Pos-2 L=8/last,
16:u:Tmn-3 X=none/h,
12:u:Pre-2 R=J.,
22:u:Tmn-4 R=weak/initial,
22:u:Cap-3 L=weak/initial,
14:u:Fst-2 R=Lu/T,
12:u:Pre-2 R=Th,
13:u:Tok-1 X=The,
14:u:Fst-2 X=Lu/T,
11:u:Pre-1 X=T,
12:u:Pre-2 X=Th,
19:u:tok-1 X=political,
14:u:Fst-2 R=Ll/e,
19:u:tok-1 L=political,
14:u:Fst-2 X=Ll/e,
11:u:Pre-1 X=e,
18:u:tok-1RR=economic,
14:u:Fst-2 R=Ll/s,
14:u:Fst-2 X=Ll/s,
11:u:Pre-1 X=s,
14:u:Lst-2 X=Ll/c,
12:u:Pre-2 R=st,
11:u:Suf-1 X=c,
12:u:Suf-2 X=ic,
16:u:Tmn-3 X=none/c,
18:u:tok-1 L=economic,
13:u:tok-1RR=and,
12:u:Pre-2 X=st,
12:u:Pre-2 R=in,
12:u:Suf-2 L=ic,
12:u:Suf-2 X=t,,
13:u:tok-1 R=and,
12:u:Pre-2 X=in,
12:u:Pre-2 R=an,
13:u:Key-1 R=and,
18:u:Tmn-2 R=weak/and,
13:u:Tok-1 X=and,
13:u:tok-1 X=and,
12:u:Pre-2 X=an,
12:u:Suf-2 X=nd,
13:u:Key-1 X=and,
19:u:Key-2 X=and/lower,
18:u:Key-3 L=weak/and,
18:u:Key-3 x=and/none,
13:u:tok-1 L=and,
12:u:Suf-2 L=nd,
13:u:Key-1 L=and,
18:u:Tmn-2 L=and/none,
13:u:tok-1LL=and,
17:u:tok-1 R=studies,
17:u:tok-1 L=studies,
13:u:Lst-2 X=N/9,
11:u:Suf-1 X=9,
16:u:Tmn-3 X=none/9,
13:u:Lst-2 L=N/9,
12:u:Pre-2 X=19,
15:u:tok-1 R=logic,
19:u:tok-2 R=the/logic,
19:u:tok-2 L=the/logic,
18:u:tok-2 R=logic/of,
12:u:tok-1RR=in,
18:u:tok-2 L=logic/of,
12:u:tok-1 R=in,
12:u:Key-1 R=in,
17:u:Tmn-2 R=none/in,
12:u:Tok-1 X=in,
12:u:tok-1 X=in,
12:u:Pre-2 R=Cy,
12:u:Key-1 X=in,
18:u:Key-2 X=in/lower,
17:u:Key-3 L=none/in,
17:u:Key-3 x=in/none,
20:u:tok-1 X=cyberspace,
12:u:tok-1 L=in,
12:u:Pre-2 X=Cy,
12:u:Key-1 L=in,
12:u:tok-1LL=in,
12:u:Suf-2 L=e',
11:u:tok-1 R=3,
13:u:Lst-2 X=N/6,
11:u:Pre-2 R=3,
11:u:Suf-1 X=6,
16:u:Tmn-3 X=none/6,
11:u:Tok-1 X=3,
11:u:tok-1 X=3,
11:u:Pre-2 X=3,
11:u:Suf-2 X=3,
17:u:tok-1RR=foreign,
17:u:tok-1 R=foreign,
22:u:tok-1RR=intelligence,
12:u:Pre-2 R=Fo,
17:u:Tok-1 X=Foreign,
17:u:tok-1 X=foreign,
12:u:Pre-2 X=Fo,
22:u:Tok-1 X=Intelligence,
14:u:Fst-2 R=Lu/H,
12:u:Suf-2 L=gn,
22:u:tok-1 L=intelligence,
14:u:Fst-2 X=Lu/H,
11:u:Pre-1 X=H,
12:u:Suf-2 X=rs,
18:u:Tmn-2 R=none/and,
18:u:Key-3 L=none/and,
12:u:Pre-2 X=Pl,
17:u:Tmn-2 L=in/none,
20:u:Cap-2 L=lower/caps,
17:u:tok-1RR=unknown,
12:u:Pre-2 X=So,
12:u:Suf-2 L=wn,
12:u:Pre-2 X=Bu,
15:u:Tok-1 X=Cyber,
15:u:tok-1 X=cyber,
12:u:Suf-2 X=er,
15:u:tok-1 L=cyber,
12:u:Suf-2 L=er,
15:u:tok-1LL=cyber,
12:u:tok-1RR=on,
18:u:tok-1 L=research,
12:u:tok-1 R=on,
14:u:Lst-2 X=Ll/k,
12:u:Pre-2 R=on,
11:u:Suf-1 X=k,
16:u:Tmn-3 X=none/k,
12:u:Tok-1 X=on,
12:u:tok-1 X=on,
18:u:tok-1LL=research,
13:u:tok-1RR=law,
14:u:Lst-2 L=Ll/k,
12:u:Pre-2 X=on,
13:u:tok-1 R=law,
12:u:Pre-2 R=La,
13:u:Tok-1 X=Law,
12:u:tok-1LL=on,
14:u:Lst-2 X=Ll/w,
12:u:Pre-2 X=La,
11:u:Suf-1 X=w,
12:u:Suf-2 X=aw,
16:u:Tmn-3 X=none/w,
14:u:Lst-2 L=Ll/w,
12:u:Suf-2 X=rd,
12:u:Pre-2 R=Pu,
12:u:Suf-2 L=rd,
12:u:Suf-2 X=ar,
14:u:Lst-2 X=Ll/g,
11:u:Suf-1 X=g,
12:u:Suf-2 L=ar,
12:u:Suf-2 X=ng,
16:u:Tmn-3 X=none/g,
14:u:Lst-2 L=Ll/g,
12:u:Suf-2 L=ng,
19:u:tok-1RR=strategic,
14:u:Fst-2 R=Lu/B,
11:u:tok-1 X=b,
19:u:tok-1 R=strategic,
19:u:tok-1 X=strategic,
19:u:tok-1 L=strategic,
19:u:tok-1LL=strategic,
15:u:Tok-1 X=State,
15:u:tok-1 X=state,
13:u:Fst-2 X=N/8,
11:u:Pre-1 X=8,
20:u:tok-1RR=university,
17:u:tok-1 X=harvard,
13:u:Lst-2 L=N/0,
15:u:tok-1 R=press,
12:u:Suf-2 X=ss,
12:u:Pre-2 R=Al,
12:u:Suf-2 X=ne,
12:u:Suf-2 X=is,
12:u:Pre-2 R=Sy,
12:u:Pre-2 X=Sy,
16:u:tok-1RR=review,
12:u:Pre-2 R=De,
12:u:Pre-2 X=De,
22:u:Tmn-2 R=none/journal,
12:u:Suf-2 X=ew,
22:u:Key-3 L=none/journal,
14:u:tok-1RR=2022,
23:u:tok-1 X=cybersecurity,
20:u:tok-1 X=strategies,
12:u:Pre-2 R=Af,
23:u:Brk-1 L=opening-paren,
26:u:tok-2 L=of/international,
12:u:tok-1 L=92,
12:u:Suf-2 L=92,
14:u:Tok-1 X=2016,
14:u:Fst-2 R=Lu/V,
14:u:Fst-2 X=Lu/V,
11:u:Pre-1 X=V,
19:u:tok-1RR=deterring,
12:u:Suf-2 X=ve,
19:u:tok-1 R=deterring,
12:u:Suf-2 L=ve,
12:u:Suf-2 L='s,
32:u:tok-2 L=international/security,
14:u:tok-1RR=2023,
12:u:Pre-2 R=Wa,
12:u:Suf-2 L=s,,
14:u:Fst-2 R=Ll/w,
14:u:Fst-2 X=Ll/w,
11:u:Pre-1 X=w,
14:u:Fst-2 X=Lu/G,
11:u:Pre-1 X=G,
12:u:Suf-2 X=':,
12:u:Suf-2 L=':,
12:u:Pre-2 X=Su,
15:u:tok-1 R=power,
12:u:Pre-2 R=Po,
15:u:Tok-1 X=Power,
15:u:tok-1 X=power,
12:u:Pre-2 X=Po,
12:u:Pre-2 X=Tr,
12:u:Pre-2 R=Pa,
12:u:Pre-2 X=Pa,
16:u:tok-1RR=future,
16:u:tok-1 R=future,
16:u:tok-1 X=future,
12:u:Suf-2 X=re,
16:u:tok-1 L=future,
12:u:Suf-2 L=re,
21:u:Cap-2 L=lower/other,
12:u:Suf-2 X=ts,
12:u:Pre-2 R=Te,
20:u:Tok-1 X=Technology,
20:u:tok-1 X=technology,
20:u:Tok-1 X=Cyberspace,
20:u:tok-1 L=cyberspace,
20:u:tok-1LL=cyberspace,
13:u:Fst-2 R=P/*,
13:u:Fst-2 X=P/*,
11:u:Pre-1 X=*,
12:u:Suf-2 X=ia,
12:u:Suf-2 L=ia,
13:u:Lst-2 L=P/*,
16:*:Num-1 X=triple,
21:u:Num-2 R=triple/none,
16:*:Num-1 L=triple,
21:u:Tok-1 X=Information,
21:u:tok-1 X=information,
21:u:tok-1 L=information,
21:u:tok-1LL=information,
11:u:tok-1 X=j,
12:u:Suf-2 X=et,
12:u:Suf-2 L=an,
14:u:Fst-2 X=Ll/v,
11:u:Pre-1 X=v,
18:u:Tok-1 X=Control:,
17:u:tok-1 X=control,
20:u:tok-1LL=liberation,
12:u:tok-1 L=vs,
21:u:tok-2 L=vs/control:,
22:u:tok-2 R=control:/the,
12:u:Suf-2 L=vs,
12:u:Suf-2 X=l:,
12:u:tok-1LL=vs,
18:u:tok-1 L=control:,
22:u:tok-2 L=control:/the,
20:u:tok-2 R=the/future,
12:u:Pre-2 R=Fu,
12:u:Suf-2 L=l:,
16:u:Tok-1 X=Future,
18:u:tok-1LL=control:,
22:u:tok-1RR=cyberspace".,
20:u:tok-2 L=the/future,
19:u:tok-2 R=future/of,
12:u:Pre-2 X=Fu,
22:u:tok-1 R=cyberspace".,
19:u:tok-2 L=future/of,
25:u:tok-2 R=of/cyberspace".,
22:u:Tok-1 X=Cyberspace".,
25:u:tok-2 L=of/cyberspace".,
31:u:tok-2 R=cyberspace"./*journal,
12:u:Suf-2 X=".,
24:u:Tmn-2 R=strong/journal,
12:u:tok-1RR=21,
19:u:tok-1 X=democracy,
11:u:tok-1 X=4,
12:u:Pre-2 X=Fa,
12:u:Pre-2 R=Ne,
12:u:Suf-2 X=L.,
12:u:Suf-2 L=L.,
12:u:Suf-2 L=cy,
12:u:Pre-2 X=Ho,
18:u:Tok-1 X=Networks,
18:u:tok-1 X=networks,
12:u:Suf-2 X=ks,
12:u:Suf-2 L=ks,
16:u:tok-1RR=policy,
16:u:tok-1 R=policy,
24:u:tok-2 R=foreign/policy,
16:u:Tok-1 X=Policy,
16:u:tok-1 X=policy,
11:u:tok-1RR=a,
11:u:tok-1 R=a,
11:u:Pre-2 R=a,
11:u:Tok-1 X=a,
16:u:tok-1LL=policy,
11:u:Pre-2 X=a,
11:u:Suf-2 X=a,
11:u:tok-1 L=a,
11:u:tok-1LL=a,
12:u:Suf-2 X=il,
12:u:Suf-2 L=il,
12:u:Suf-2 L=s:,
12:u:Pre-2 X=Qu,
14:u:tok-1RR=2014,
12:u:Pre-2 R=11,
12:u:Suf-2 X=ee,
14:u:Lst-2 X=Lu/S,
11:u:Suf-1 X=S,
16:u:Tmn-3 X=none/S,
14:u:tok-1 R=2015,
13:u:Lst-2 X=N/5,
11:u:Suf-1 X=5,
16:u:Tmn-3 X=none/5,
19:u:Tok-1 X=Political,
12:u:Suf-2 L=at,
15:u:tok-1 R=&amp;,
13:u:Fst-2 R=P/&,
12:u:Pre-2 R=&a,
13:u:Pct-1 R=amp,
12:u:Pre-2 X=Gr,
14:u:Lst-2 X=Ll/b,
11:u:Suf-1 X=b,
16:u:Tmn-3 X=none/b,
14:u:Fst-2 R=Lu/K,
14:u:Fst-2 X=Lu/K,
11:u:Pre-1 X=K,
16:u:Tok-1 X=Russia,
16:u:tok-1 X=russia,
12:u:Pre-2 X=Ru,
16:u:tok-1LL=russia,
18:u:tok-1RR=politics,
12:u:Suf-2 X=ry,
12:u:Suf-2 L=ry,
18:u:tok-1 L=politics,
12:u:Suf-2 L=cs,
14:u:Fst-2 R=Lu/Y,
19:u:tok-1 R=diplomacy,
14:u:tok-1 L=2023,
12:u:Suf-2 L=23,
20:u:Cap-2 L=other/caps,
17:u:tok-1 X=warfare,
12:u:Pre-2 X=Wo,
12:u:Pre-2 R=Pe,
12:u:Suf-2 X=ls,
12:u:Suf-2 L=ls,
12:u:Suf-2 X=65,
27:u:tok-2 R=national/security,
27:u:tok-2 L=national/security,
12:u:Pre-2 X=Mi,
14:u:tok-1 R=2018,
12:u:tok-1RR=22,
12:u:Suf-2 L=22,
14:u:Fst-2 X=Ll/r,
11:u:Pre-1 X=r,
12:u:Pre-2 X=re,
16:u:tok-1 L=threat,
16:u:tok-1LL=threat,
12:u:Suf-2 L=rk,
18:u:tok-1RR=european,
18:u:tok-1 R=european,
12:u:Pre-2 R=Eu,
16:u:tok-1RR=public,
16:u:tok-1 R=public,
16:u:tok-1 X=public,
17:u:tok-1 X=science,
12:u:Pre-2 X=Sc,
16:u:tok-1RR=oxford,
14:u:tok-1LL=2016,
12:u:tok-1RR=by,
14:u:Fst-2 R=Ll/d,
12:u:Pre-2 R=de,
14:u:Fst-2 X=Ll/d,
11:u:Pre-1 X=d,
12:u:tok-1LL=by,
20:u:tok-1 L=technology,
12:u:Suf-2 L=gy,
22:u:tok-1 X=contemporary,
12:u:tok-1LL=45,
12:u:Pre-2 X=Op,
12:u:Pre-2 R=Si,
12:u:Suf-2 X=31,
18:u:Num-2 R=all/none,
13:*:Num-1 L=all,
13:u:Pos-2 L=1/3,
13:u:Pos-2 R=6/8,
12:u:Suf-2 X=ll,
12:u:Suf-2 L=ll,
13:u:tok-1 R=new,
13:u:tok-1 X=new,
13:u:Lst-2 X=P/?,
11:u:Suf-1 X=?,
16:u:Tmn-3 X=weak/?,
13:u:Lst-2 L=P/?,
13:u:Tok-1 X=New,
16:u:tok-1LL=online,
17:u:Num-1 R=numeric,
17:*:Num-1 X=numeric,
22:u:Num-2 R=numeric/none,
12:u:Tok-1 X=US,
12:u:Suf-2 X=US,
12:u:tok-1LL=us,
17:u:Num-1 R=ordinal,
21:u:Cap-2 R=other/lower,
17:*:Num-1 X=ordinal,
22:u:Num-2 R=ordinal/none,
21:u:Cap-2 L=other/lower,
17:*:Num-1 L=ordinal,
12:u:Suf-2 X=gs,
12:u:Suf-2 L=gs,
11:u:Tok-1 X=A,
14:u:Lst-2 X=Lu/A,
11:u:Pre-2 X=A,
11:u:Suf-1 X=A,
11:u:Suf-2 X=A,
16:u:Tmn-3 X=none/A,
14:u:Lst-2 L=Lu/A,
11:u:Suf-2 L=A,
22:u:Cap-2 R=single/other,
20:u:Num-2 R=idnum/none,
21:u:Tmn-4 R=none/single,
21:u:Cap-3 L=none/single,
11:u:tok-1 L=t,
11:u:Suf-2 L=T,
18:u:tok-2 R=of/power,
18:u:tok-2 L=of/power,
12:u:Suf-2 L=sm,
13:u:tok-1 X=war,
13:u:tok-1 L=war,
18:u:tok-1 X=approach,
17:*:Num-1 L=numeric,
12:u:Pre-2 R=we,
12:u:Pre-2 X=Hi,
16:u:Tok-1 X=Advent,
16:u:tok-1 X=advent,
18:u:tok-1LL=arquilla,
15:u:tok-1 L=j.the,
14:u:tok-1 R=rand,
21:u:tok-1RR=corporation,
22:u:tok-2 L=j.the/advent,
21:u:tok-2 R=advent/rand,
12:u:Pre-2 R=Bl,
12:u:Suf-2 X=ck,
11:u:tok-1RR=j,
11:u:tok-1 R=j,
13:u:tok-1RR=int,
11:u:Pre-2 R=J,
11:u:Tok-1 X=J,
14:u:Lst-2 X=Lu/J,
11:u:Pre-2 X=J,
11:u:Suf-1 X=J,
11:u:Suf-2 X=J,
16:u:Tmn-3 X=none/J,
13:u:Tok-1 X=Int,
13:u:tok-1 X=int,
11:u:tok-1 L=j,
14:u:tok-1 R=stud,
14:u:Lst-2 L=Lu/J,
11:u:Suf-2 L=J,
14:u:Tok-1 X=Stud,
14:u:tok-1 X=stud,
12:u:Suf-2 X=ud,
13:u:tok-1RR=rid,
12:u:Pre-2 X=Vi,
12:u:Pre-2 R=wa,
13:u:Tok-1 X=war,
12:u:Pre-2 X=wa,
22:u:Cap-2 L=lower/single,
15:u:tok-1 R=secur,
15:u:Tok-1 X=Secur,
15:u:tok-1 X=secur,
20:u:tok-2 R=secur/stud,
12:u:Suf-2 X=ur,
15:u:tok-1 L=secur,
21:u:Num-2 R=volume/none,
16:*:Num-1 L=volume,
19:u:Tok-1 X=Democracy,
12:u:Pre-2 X=Ce,
12:u:Pre-2 R=At,
12:u:Suf-2 L=s?,
20:u:tok-1RR=conference,
21:u:Key-1 R=proceedings,
26:u:Tmn-2 R=none/proceedings,
21:u:Key-1 X=proceedings,
29:u:Key-2 X=proceedings/initial,
26:u:Key-3 L=none/proceedings,
26:u:Key-3 x=proceedings/none,
21:u:Key-1 L=proceedings,
26:u:Tmn-2 L=proceedings/none,
18:u:tok-1 L=conflict,
14:u:tok-1 X=ieee,
12:u:Suf-2 X=EE,
12:u:Pre-2 R=Ba,
12:u:Pre-2 X=Ba,
12:u:Pre-2 R=Ka,
14:u:Tok-1 X=Iraq,
14:u:tok-1 X=iraq,
14:u:Lst-2 X=Ll/q,
12:u:Pre-2 X=Ir,
11:u:Suf-1 X=q,
12:u:Suf-2 X=aq,
16:u:Tmn-3 X=none/q,
21:u:Cap-2 R=caps/single,
12:u:Pre-2 R=be,
12:u:Pre-2 X=be,
12:u:Pre-2 R=Am,
12:u:Pre-2 X=Am,
14:u:Lst-2 X=Ll/p,
11:u:Suf-1 X=p,
16:u:Tmn-3 X=none/p,
12:u:Suf-2 L=mp,
20:u:tok-1 R=parameters,
12:u:Tok-1 X=65,
12:u:tok-1 X=65,
16:u:tok-1 R=175-95,
15:u:tok-1RR=2–4,
15:u:tok-2 L=92/65,
19:u:tok-2 R=65/175-95,
12:u:Pre-2 X=65,
12:u:Pre-2 R=17,
12:u:Pre-2 R=vo,
12:u:Pre-2 X=vo,
13:u:tok-1RR=inf,
13:u:tok-1 R=inf,
18:u:tok-1 R=american,
18:u:Tok-1 X=American,
18:u:tok-1 X=american,
23:u:tok-1RR=cybersecurity,
23:u:tok-1 R=cybersecurity,
26:u:tok-2 R=of/cybersecurity,
23:u:Tok-1 X=Cybersecurity,
26:u:tok-2 L=of/cybersecurity,
23:u:tok-1 L=cybersecurity,
23:u:tok-1LL=cybersecurity,
16:u:tok-1 L=header,
24:u:tok-2 L=header/journal,
16:u:tok-1LL=header,
31:u:tok-2 R=cybersecurity/journal,
17:u:Tok-1 X=History,
17:u:tok-1 X=history,
17:u:tok-1 L=history,
15:u:tok-1 R=naval,
16:u:tok-1RR=instit,
20:u:tok-2 L=history/us,
18:u:tok-2 R=us/naval,
14:u:Lst-2 L=Lu/E,
23:u:Tok-1 X=Computational,
23:u:tok-1 X=computational,
21:u:tok-1 R=propaganda:,
35:u:tok-2 R=computational/propaganda:,
19:u:tok-1LL=automated,
19:u:tok-1 L=autocracy,
33:u:tok-2 L=autocracy/computational,
14:u:tok-1RR=news,
14:u:tok-1 R=news,
17:u:Tok-1 X=Working,
17:u:tok-1 X=working,
14:u:tok-1LL=fake,
16:u:tok-1RR=2017.2,
22:u:tok-2 L=news/working,
23:u:tok-2 R=working/paper,
17:u:Tok-1 X=Science,
17:u:tok-1RR=reuters,
17:u:tok-1 R=reuters,
17:u:Tok-1 X=Reuters,
17:u:tok-1 X=reuters,
16:u:tok-1RR=voting,
16:u:tok-1 R=voting,
16:u:tok-1 X=voting,
16:u:tok-1 L=voting,
18:u:tok-1 X=violence,
16:u:tok-1LL=voting,
15:u:tok-1 L=peace,
16:u:tok-1 X=market,
14:u:tok-1RR=2009,
23:u:Tok-1 X=Retrospective,
23:u:tok-1 X=retrospective,
17:u:tok-1LL=kousser,
25:u:tok-2 L=t/retrospective,
30:u:tok-2 R=retrospective/voting,
16:u:Tok-1 X=voting,
11:u:tok-1LL=t,
23:u:tok-1 L=retrospective,
30:u:tok-2 L=retrospective/voting,
20:u:tok-2 R=voting/and,
23:u:tok-1LL=retrospective,
18:u:tok-1RR=behavior,
20:u:tok-2 L=voting/and,
23:u:tok-2 R=and/strategic,
19:u:Tok-1 X=strategic,
18:u:tok-1 R=behavior,
23:u:tok-2 L=and/strategic,
28:u:tok-2 R=strategic/behavior,
18:u:Tok-1 X=behavior,
18:u:tok-1 X=behavior,
28:u:tok-2 L=strategic/behavior,
21:u:tok-2 R=behavior/in,
18:u:tok-1 L=behavior,
20:u:tok-1RR=parliament,
21:u:tok-2 L=behavior/in,
21:u:tok-2 R=in/european,
15:u:Tok-1 X=Polit,
15:u:tok-1 X=polit,
20:u:tok-1 L=government,
12:u:Pre-2 X=13,
12:u:Suf-2 X=51,
17:u:Tmn-2 L=in/weak,
14:u:tok-1RR=york,
14:u:tok-1 R=york,
18:u:tok-2 R=new/york,
12:u:Pre-2 R=Yo,
14:u:Tok-1 X=York,
14:u:tok-1 X=york,
18:u:tok-2 L=new/york,
12:u:Pre-2 X=U.,
14:u:tok-1LL=u.s,,
19:u:Tok-1 X=September,
19:u:tok-1 X=september,
15:u:tok-1 R=2018.,
27:u:tok-2 L=hacking/september,
25:u:tok-2 R=september/2018.,
19:u:Key-3 x=date/none,
21:u:Tmn-2 L=date/strong,
20:u:tok-1 R=strategies,
20:u:tok-1 L=strategies,
21:u:tok-1 R=proceedings,
21:u:Tok-1 X=Proceedings,
21:u:tok-1 X=proceedings,
24:u:tok-2 R=proceedings/of,
21:u:tok-1 L=proceedings,
24:u:tok-2 L=proceedings/of,
21:u:tok-1LL=proceedings,
18:u:tok-1 X=campaign,
18:u:tok-1 L=targeted,
18:u:tok-1 R=politico,
13:u:Tok-1 X=See,
13:u:tok-1 X=see,
19:u:tok-1LL=americans,
20:u:tok-1RR=2017-11-01,
16:u:tok-2 L=to/see,
22:u:tok-2 R=see/politico,
15:u:tok-1LL=about,
18:u:tok-1RR=atlantic,
18:u:Tok-1 X=Atlantic,
18:u:tok-1 X=atlantic,
15:u:tok-1 R=jones,
12:u:Suf-2 X=gr,
17:u:tok-1RR=(2016).,
12:u:Pre-2 R=CN,
14:u:Lst-2 L=Lu/N,
18:u:Tok-1 X=Campaign,
13:u:tok-1 L=was,
13:u:tok-1LL=was,
16:u:Tok-1 X=Mother,
16:u:tok-1 X=mother,
20:u:tok-1LL=previously,
15:u:tok-1 L=known,
20:u:tok-1RR=2018-01-30,
22:u:tok-2 L=known/mother,
22:u:tok-2 R=mother/jones,
20:u:tok-1 L=discussion,
16:u:tok-1 R=11–7,
25:u:tok-2 L=discussion/2016,
21:u:tok-2 R=2016/11–7,
13:u:tok-1RR=may,
18:u:tok-1 R=analysis,
15:u:tok-1 L=trump,
18:u:Tok-1 X=Evidence,
18:u:tok-1 X=evidence,
18:u:tok-1 L=opinions,
17:u:tok-1RR=#brexit,
27:u:tok-2 L=opinions/evidence,
23:u:tok-2 R=evidence/from,
18:u:tok-1LL=opinions,
17:u:tok-1 R=#brexit,
23:u:tok-2 L=evidence/from,
22:u:tok-2 R=from/#brexit,
13:u:Fst-2 R=P/#,
12:u:Pre-2 R=#B,
16:u:Tok-1 X=w24631,
16:u:tok-1 X=w24631,
21:u:tok-1 L=#uselection,
28:u:tok-2 L=#uselection/w24631,
21:u:tok-2 R=w24631/2018,
12:u:Pre-2 X=w2,
21:u:tok-1 X=attribution,
21:u:tok-1 L=attribution,
14:u:tok-2 R=of/a,
14:u:tok-2 L=of/a,
18:u:tok-1RR=workshop,
18:u:tok-1 R=workshop,
20:u:tok-2 R=a/workshop,
18:u:Tok-1 X=Workshop,
18:u:tok-1 X=workshop,
20:u:tok-2 L=a/workshop,
21:u:tok-2 R=workshop/on,
12:u:Suf-2 X=op,
18:u:tok-1 L=workshop,
23:u:tok-1RR=cyberattacks:,
21:u:tok-2 L=workshop/on,
22:u:tok-2 R=on/deterring,
19:u:Tok-1 X=Informing,
19:u:tok-1 X=informing,
33:u:tok-2 L=cyberattacks:/informing,
30:u:tok-2 R=informing/strategies,
20:u:Tok-1 X=Strategies,
19:u:tok-1LL=informing,
20:u:tok-1 R=developing,
24:u:tok-2 L=strategies/and,
24:u:tok-2 R=and/developing,
21:u:tok-1LL=cyberattack,
12:u:Pre-2 R=ve,
12:u:Pre-2 X=ve,
16:u:Tok-1 X=System,
16:u:tok-1 X=system,
16:u:tok-1LL=system,
13:u:tok-1 R=all,
19:u:tok-1 L=terrorism,
12:u:Pre-2 X=Ju,
16:u:Tok-1 X=Andres,
16:u:tok-1 X=andres,
13:u:tok-1 R=u.s,
13:u:Tok-1 X=U.S,
12:u:Suf-2 X=.S,
17:u:tok-1LL=kalyvas,
12:u:tok-1 L=sn,
16:u:tok-2 L=sn/the,
12:u:Suf-2 L=SN,
12:u:tok-1LL=sn,
18:u:tok-1RR=violence,
18:u:tok-1 R=violence,
21:u:tok-2 R=of/violence,
18:u:Tok-1 X=Violence,
15:u:tok-1RR=civil,
21:u:tok-2 L=of/violence,
21:u:tok-2 R=violence/in,
18:u:tok-1 L=violence,
15:u:tok-1 R=civil,
21:u:tok-2 L=violence/in,
18:u:tok-2 R=in/civil,
12:u:Pre-2 R=Ci,
17:u:Tok-1 X=Lawfare,
17:u:tok-1 X=lawfare,
15:u:tok-1LL=obama,
12:u:tok-1 L=bh,
17:u:tok-1 R=remarks,
20:u:tok-2 L=bh/lawfare,
25:u:tok-2 R=lawfare/remarks,
14:u:Lst-2 L=Lu/H,
12:u:Suf-2 L=BH,
17:u:Tok-1 X=Remarks,
17:u:tok-1 X=remarks,
12:u:tok-1LL=bh,
17:u:tok-1 L=lawfare,
25:u:tok-2 L=lawfare/remarks,
20:u:tok-2 R=remarks/by,
17:u:tok-1LL=lawfare,
17:u:tok-1 L=remarks,
19:u:tok-1RR=president,
20:u:tok-2 L=remarks/by,
17:u:tok-1LL=remarks,
19:u:tok-1 R=president,
23:u:tok-2 R=the/president,
18:u:Tok-1 X=Business,
18:u:tok-1 X=business,
28:u:tok-2 R=political/analysis,
20:u:tok-1LL=untangling,
29:u:tok-2 L=attribution/harvard,
26:u:tok-2 R=harvard/national,
12:u:Pre-2 R=Ex,
12:u:Pre-2 X=Ex,
12:u:Pre-2 R=FO,
22:u:tok-1 R=contemporary,
22:u:Tok-1 X=Contemporary,
31:u:tok-2 R=contemporary/security,
18:u:Tok-1 X=Approach,
12:u:Pre-2 X=Ap,
14:u:Tok-1 X=July,
14:u:tok-1 X=july,
15:u:tok-1 L=since,
20:u:tok-2 L=since/july,
14:u:tok-1 R=11th,
23:u:tok-2 L=conflict/2019,
19:u:tok-2 R=2019/11th,
15:u:Tok-1 X=March,
15:u:tok-1 X=march,
20:u:tok-2 L=2023/march,
17:u:tok-1RR=prague,,
25:u:tok-2 L=conference/2022,
17:u:tok-2 R=2022/in,
17:u:Tok-1 X=Czechia,
17:u:tok-1 X=czechia,
17:u:tok-1 L=prague,,
16:u:tok-1 R=vember,
25:u:tok-2 L=prague,/czechia,
24:u:tok-2 R=czechia/vember,
12:u:Pre-2 X=Cz,
16:u:Tok-1 X=vember,
16:u:tok-1 X=vember,
17:u:tok-1LL=prague,,
17:u:tok-1 L=czechia,
24:u:tok-2 L=czechia/vember,
18:u:tok-2 R=vember/3,
24:u:tok-1 X=statesponsored,
26:u:tok-2 R=atlantic/council,
20:u:tok-2 R=march/_x+1,
20:u:tok-1 L=multipolar,
16:u:tok-1 R=centre,
26:u:tok-2 L=multipolar/world,
22:u:tok-2 R=world/centre,
12:u:Pre-2 X='S,
18:u:tok-1 R=a/70/174,
27:u:tok-2 R=security/a/70/174,
12:u:Pre-2 R=A/,
25:u:tok-1LL=guerrero-saade,,
14:u:tok-1 L=juan,
14:u:tok-1 R=wave,
14:u:tok-1RR=your,
21:u:tok-2 L=juan/andres,
21:u:tok-2 R=andres/wave,
19:u:tok-1RR=kaspersky,
19:u:tok-1 R=kaspersky,
13:u:tok-1RR=lab,
14:u:tok-1RR=open,
14:u:tok-1 L=open,
23:u:Tmn-4 R=moderate/caps,
23:u:Cap-3 L=moderate/caps,
17:u:tok-1 L=federal,
17:u:tok-1LL=federal,
17:u:tok-1RR=federal,
17:u:tok-1 R=federal,
20:u:Tok-1 X=Subchapter,
20:u:tok-1 X=subchapter,
20:u:tok-1 L=(continued,
12:u:tok-1 R=b,,
31:u:tok-2 L=(continued/subchapter,
23:u:tok-2 R=subchapter/b,,
12:u:Pre-2 R=B,,
12:u:Tok-1 X=B,,
20:u:tok-1LL=(continued,
20:u:tok-1 L=subchapter,
23:u:tok-2 L=subchapter/b,,
20:u:tok-2 R=b,/federal,
12:u:Pre-2 X=B,,
12:u:Suf-2 X=B,,
16:u:Tok-1 X=Market,
21:u:tok-2 L=open/market,
14:u:tok-1 R=fomc,
21:u:tok-2 R=market/fomc,
15:u:tok-1LL=heist,
21:u:Tok-1 X=SecureList,,
20:u:tok-1 X=securelist,
14:u:tok-1 L=hood,
26:u:tok-2 L=hood/securelist,,
31:u:tok-2 R=securelist,/kaspersky,
12:u:Suf-2 L=od,
28:u:Tok-1 X='State-Sponsored':,
20:u:tok-1RR=official,",
32:u:tok-2 L=was/'state-sponsored':,
32:u:tok-2 R='state-sponsored':/u.s,
28:u:tok-1 L='state-sponsored':,
20:u:tok-1 R=official,",
32:u:tok-2 L='state-sponsored':/u.s,
24:u:tok-2 R=u.s/official,",
17:u:tok-1LL=agency,,
17:u:tok-1 R=signals,
26:u:tok-2 R=security/signals,
17:u:tok-1 L=signals,
13:u:tok-1 R=web,
14:u:tok-1RR=page,
30:u:tok-2 L=signals/intelligence,
26:u:tok-2 R=intelligence/web,
13:u:Tok-1 X=web,
13:u:tok-1 X=web,
17:u:tok-1LL=signals,
14:u:tok-1 R=page,
20:u:tok-1RR=2016-05-03,
26:u:tok-2 L=intelligence/web,
18:u:tok-2 R=web/page,
12:u:Suf-2 X=eb,
0=7.946340e-02
1=3.132190e-02
2=-1.129804e-03
3=3.217994e-02
4=6.496942e-02
5=-5.785549e-03
6=-1.304530e-03
8=-1.090912e-01
9=6.194848e-01
12=-3.615855e-01
13=-7.092836e-01
18=-1.718866e+00
19=3.086877e-01
20=2.903598e-02
21=-1.185203e+00
22=-6.448007e-02
23=-7.539193e-01
24=-1.391914e-01
26=-3.063975e-02
28=-1.009183e+00
29=2.545341e-01
30=2.980391e-01
31=-2.103001e+00
34=-1.744763e-01
37=-7.576033e-01
38=-5.521747e-01
39=8.720103e-01
40=-7.951199e-01
45=-1.177107e+00
46=-3.170902e+00
47=-2.158634e-02
48=-2.240846e+00
49=3.051917e-01
50=3.036386e-01
51=-1.921662e-01
52=-9.788460e-02
53=-3.717236e-02
55=-1.100324e+00
56=-7.548076e-02
57=-1.576133e-01
58=-1.175822e+00
59=1.934291e+00
60=3.345261e-01
61=6.551276e-05
67=-1.001405e-01
68=-2.589727e-01
69=3.752351e-01
70=3.703003e-01
74=2.829806e-01
82=-2.363889e-01
89=4.494834e-01
90=3.699592e-01
91=-4.368758e-02
99=3.699592e-01
100=-4.368758e-02
109=2.273974e-02
112=-2.739365e-02
116=9.682973e-02
117=1.333088e-01
118=1.014489e-02
119=-2.599414e-01
120=1.256395e-01
121=9.008098e-02
122=-1.154293e-04
123=-4.359347e-01
125=-4.437595e-02
126=6.426357e-01
127=4.277344e-06
129=-9.372127e-02
135=-2.319421e-01
136=2.722445e-01
139=-2.228525e-02
145=-1.951274e-01
146=2.057831e-02
147=2.838361e-01
154=-2.086694e-01
156=6.136562e-01
157=-3.680298e-01
164=-8.253858e-02
166=2.485951e-01
167=-5.272001e-01
175=-1.396606e-01
176=2.093901e-01
186=7.103691e-02
199=-5.905283e-03
206=3.008086e-02
207=1.519309e-01
208=4.847768e-03
209=-4.842402e-02
210=-3.255547e-02
211=-4.980595e-03
212=-2.290641e-03
215=-2.514445e-02
216=4.115140e-01
217=1.970548e-02
220=-3.600023e-03
226=2.213969e-03
229=-1.066293e-03
234=3.699592e-01
235=-4.368758e-02
324=3.980991e-02
325=1.485962e-01
326=-1.444804e-03
327=5.054823e-02
328=1.555549e-01
329=-6.899578e-02
333=3.699592e-01
334=-4.368758e-02
342=1.619849e-05
343=9.960714e-02
346=-5.101396e-02
351=4.115140e-01
352=1.970548e-02
355=-3.600023e-03
360=8.186697e-01
370=1.031864e-01
373=-7.592522e-03
378=1.619849e-05
379=9.960714e-02
382=-5.101396e-02
387=3.699592e-01
388=-4.368758e-02
396=3.699592e-01
397=-4.368758e-02
405=8.054695e-03
406=5.091651e-03
408=1.128388e-01
409=1.170378e-01
410=-4.025024e-03
413=-2.504920e-05
414=6.493321e-02
415=3.726123e-02
417=-7.279970e-04
418=2.097792e-02
419=-4.065544e-01
422=-1.241379e-03
423=1.037366e-01
424=-2.991920e-02
432=1.582720e-02
433=7.786370e-02
436=1.332851e-02
441=1.037366e-01
442=-2.991920e-02
450=3.699592e-01
451=-4.368758e-02
540=8.669387e-02
541=1.275526e-01
542=-2.005028e-01
543=9.529814e-02
544=1.954202e-01
545=-9.963636e-02
546=-8.970397e-02
548=-2.912785e-02
549=3.093525e-01
550=3.097545e-06
552=-1.007537e-01
553=-6.052343e-01
558=-7.247942e-01
559=3.233952e-01
560=-6.694614e-02
561=-7.647308e-01
562=-4.655724e-02
566=-2.817183e-03
568=-6.220126e-01
569=1.574672e-02
570=5.846082e-01
571=-3.832794e-01
577=-6.752315e-01
579=5.432385e-01
580=-5.905466e-01
585=-4.989267e-01
586=-1.257649e+00
587=-1.273428e-03
588=-3.751676e-01
589=3.161880e-01
590=-1.234280e+00
591=-2.937354e-03
593=-2.630802e-02
595=-1.366482e-01
598=-1.972515e-01
599=9.129537e-01
607=-3.576486e-06
609=1.286976e-01
622=-1.239562e-01
629=1.484060e+00
630=9.299919e-02
631=2.167940e-01
632=-1.008971e-02
633=-8.581242e-03
634=7.303393e-02
635=-1.107070e-01
636=-7.988758e-01
637=-1.781036e-01
638=-1.580148e-02
639=2.020317e-02
640=2.800781e-01
641=-4.153527e-01
642=1.723346e-01
643=3.973506e-01
644=-2.274211e-02
645=-5.004119e-01
646=-1.568687e+00
647=-4.724278e-02
648=-1.604377e-01
649=1.292881e-01
650=-1.390679e-01
651=-2.851695e-02
652=9.177072e-02
653=-2.715610e-03
654=-2.704800e-02
656=-3.692173e-02
657=2.701101e-02
658=8.917446e-03
659=-5.642270e-03
660=-3.055500e-02
661=8.836722e-02
662=-1.381846e-02
665=-1.023618e-01
666=5.685953e-02
667=9.095100e-02
668=5.380125e-02
669=-6.769427e-02
671=-8.029077e-03
672=4.463508e-04
674=-4.015397e-02
675=8.960043e-02
676=1.941254e-02
677=8.138475e-02
678=-4.565175e-02
679=-1.741624e-01
680=1.085549e-02
681=-6.542438e-03
683=-5.639592e-03
684=3.699592e-01
685=-4.368758e-02
693=8.080565e-02
694=3.648173e-02
695=-4.229806e-02
696=8.230432e-02
697=-5.463722e-02
698=-1.508564e-02
701=-1.692198e-01
702=9.281445e-02
703=2.263061e-03
704=-8.353241e-03
705=-4.304129e-02
706=1.273694e-02
707=3.865043e-03
710=-1.573131e-01
711=9.267692e-03
712=7.156375e-02
713=-1.157767e-01
714=1.109258e-01
715=5.445012e-02
716=-9.072215e-05
719=-2.165489e-02
720=3.699592e-01
721=-4.368758e-02
729=6.403017e-02
730=1.084631e-01
731=4.960628e-03
732=5.796466e-02
733=-7.894747e-04
734=1.646056e-02
735=4.268451e-04
737=-5.550030e-02
738=3.699592e-01
739=-4.368758e-02
747=3.699592e-01
748=-4.368758e-02
756=3.699592e-01
757=-4.368758e-02
765=-9.746020e-02
766=1.839600e-01
767=9.499315e-02
768=-1.059981e-02
769=2.365588e-02
770=3.014297e-02
771=2.411119e-02
772=-5.470469e-01
773=-5.216898e-05
774=-1.642360e-02
775=1.140202e-01
776=-1.835698e-02
777=-5.688291e-03
778=1.634689e-01
780=-1.230469e-01
781=4.084158e-02
782=-3.392975e-04
783=3.699592e-01
784=-4.368758e-02
792=8.150975e-02
793=-3.075953e-02
794=-1.838207e-02
795=4.369025e-02
796=6.877502e-02
797=-2.143792e-02
798=-1.796387e-04
800=-1.075876e-01
801=8.823327e-02
802=4.733839e-03
803=-7.527717e-03
804=-4.746608e-02
805=1.394824e-01
806=1.337356e-02
807=-1.390192e-02
809=-1.007611e-01
810=3.699592e-01
811=-4.368758e-02
900=6.980643e-02
901=9.604741e-02
902=4.039957e-02
903=5.495940e-03
904=1.437553e-01
905=2.392597e-02
907=1.344524e-03
909=-8.180145e-03
910=1.503360e-01
911=-1.807920e-03
912=-4.068562e-02
913=1.401450e-01
914=6.607809e-02
915=-1.781155e-03
917=-3.506535e-02
918=1.638128e-02
919=-6.981393e-03
927=5.516481e-02
928=1.631631e-01
929=-2.635209e-02
930=-2.374060e-02
931=6.633801e-02
932=2.601257e-02
933=1.921604e-02
934=1.206788e-02
935=-5.117358e-02
936=1.619849e-05
937=9.960714e-02
940=-5.101396e-02
945=4.677919e-02
946=1.055702e-01
948=3.680904e-02
949=-1.142326e-02
950=-2.626317e-01
953=-1.654437e-05
954=8.589613e-02
955=-3.296390e-02
956=1.040844e-02
957=3.004919e-02
958=3.681986e-02
959=-2.428261e-02
960=-6.353357e-05
962=-1.058452e-01
964=3.463159e-01
973=3.049436e-01
982=-5.092866e-02
985=6.996286e-02
989=8.210995e-02
991=1.626577e-02
994=-5.517941e-04
999=-5.778638e-01
1000=1.365600e-01
1003=1.085994e-01
1009=1.451972e-02
1012=-1.010621e-02
1018=-9.199852e-02
1021=1.040051e-01
1025=7.821244e-02
1026=6.477706e-02
1027=2.205197e-01
1028=-1.153936e-01
1029=-1.996806e-04
1030=1.652812e-01
1031=-7.939533e-06
1033=-3.581883e-01
1034=-5.743875e-05
1035=1.714441e-01
1036=1.311080e-03
1045=2.802561e-01
1046=4.205504e-02
1048=-1.013404e-01
1055=2.429556e-02
1065=3.141377e-01
1066=-1.851933e-02
1072=-1.083145e-01
1073=-7.629443e-03
1075=2.613264e-01
1076=2.594865e-01
1095=6.273226e-01
1115=4.173806e-01
1116=-5.660677e-01
1117=-9.173280e-02
1120=4.594423e-01
1126=4.089206e-02
1128=1.349815e-02
1129=-2.593533e-03
1135=1.451972e-02
1138=-1.010621e-02
1144=-5.124145e-02
1147=6.985807e-02
1151=8.760483e-02
1153=4.089206e-02
1155=1.349815e-02
1156=-2.593533e-03
1161=-6.539578e-03
1162=9.203076e-01
1171=2.582051e-01
1174=-3.063548e-01
1179=1.865545e-02
1180=1.740775e-02
1182=6.048918e-04
1183=1.369276e-01
1184=4.350203e-02
1185=-7.429203e-01
1186=-1.462545e+00
1187=-8.421937e-02
1188=-5.860800e-01
1189=1.350554e-01
1192=1.109574e-01
1197=3.879746e-02
1198=1.687499e-02
1200=-1.061405e-04
1201=7.270655e-02
1202=-1.742527e-01
1205=-1.398003e-01
1206=-3.717590e-01
1207=-8.637465e-04
1210=1.579651e-01
1215=3.123954e-02
1216=1.263669e-02
1218=1.231792e-01
1219=6.956925e-02
1220=-1.311032e-01
1223=-1.588338e-05
1224=-1.763621e-03
1225=2.162119e-01
1226=-1.770710e-01
1227=-1.639527e-04
1228=2.015226e-01
1229=-7.797795e-03
1230=-2.505906e-01
1231=-9.445218e-01
1232=-5.750930e-02
1233=5.888015e-01
1237=-4.910648e-01
1242=-1.082827e+00
1243=3.220017e-01
1244=4.523306e-02
1245=-4.659120e-02
1246=-1.039342e-01
1247=-6.102590e-01
1248=-7.787241e-02
1250=-2.133823e-02
1254=-4.555209e-01
1261=-6.542249e-01
1262=-4.274683e-01
1263=1.011307e+00
1264=-5.883052e-01
1269=-8.768375e-01
1270=-1.284756e+00
1271=-1.331311e-02
1272=-2.154141e-01
1273=3.073129e-01
1274=3.314628e-01
1277=-2.942384e-02
1293=2.303753e+00
1306=-1.086276e-01
1313=1.658403e+00
1314=2.225603e-02
1315=-2.905163e-01
1317=1.735161e-01
1318=7.871202e-02
1322=-2.973575e-03
1323=-7.633087e-02
1324=6.708866e-02
1325=-7.214094e-01
1326=1.087896e-01
1327=1.514425e-01
1328=-2.888339e-01
1331=-9.803573e-03
1332=-4.378315e-02
1333=1.445368e-02
1334=-1.386731e-03
1335=8.867627e-02
1336=3.374654e-02
1337=-2.011355e-03
1338=1.967495e-02
1340=-1.607863e-01
1341=-2.365993e-01
1342=1.065234e-01
1343=1.252699e-02
1344=6.329037e-02
1345=4.040582e-02
1346=-2.786541e-03
1349=-7.148534e-02
1350=-2.119965e-01
1351=1.722411e-01
1352=2.490705e-02
1353=-6.702764e-03
1354=4.888004e-02
1355=-5.786606e-03
1356=-2.690693e-02
1358=-9.328796e-03
1359=-4.112119e-02
1360=1.239261e-01
1361=1.493805e-02
1362=2.891504e-02
1363=1.036668e-01
1364=-1.579791e-02
1365=-2.141856e-03
1366=-5.837291e-03
1367=-1.013763e-01
1368=-2.535442e-01
1369=1.063189e-01
1370=5.580758e-02
1371=5.096835e-02
1372=7.682392e-02
1373=-4.706586e-03
1374=-1.792381e-03
1376=-3.122488e-02
1377=1.460486e-01
1387=2.827258e-01
1388=3.379338e-02
1389=-7.713842e-01
1390=-3.842385e-03
1394=-3.125421e-03
1397=2.842836e-01
1398=4.298923e-02
1399=-2.316210e-01
1402=-1.428815e-01
1407=5.605349e-01
1408=-6.493422e-02
1413=-7.427129e-02
1414=-6.595849e-01
1415=-1.348022e-02
1417=2.724085e-01
1418=3.120989e-01
1420=-6.693229e-02
1421=-2.893895e-02
1424=-4.665332e-02
1427=3.318000e-01
1428=7.650318e-01
1429=5.557024e-04
1436=-2.002806e-01
1437=1.308557e-01
1438=4.638712e-01
1442=2.910915e-01
1450=-4.191007e-02
1457=1.120344e+00
1458=6.437555e-02
1459=1.059926e-01
1460=-1.675355e-03
1461=5.303528e-02
1462=4.312000e-02
1463=-1.192213e-05
1464=5.323610e-03
1465=1.613911e-03
1466=-5.526333e-02
1468=4.089206e-02
1470=1.349815e-02
1471=-2.593533e-03
1476=-2.658441e-01
1477=-8.411759e-03
1480=1.053854e-01
1486=-7.374037e-03
1489=1.332644e-02
1495=-7.867784e-03
1498=1.268104e-02
1504=3.512371e-05
1507=-6.235745e-05
1513=1.016532e-01
1516=8.050086e-03
1518=1.282414e-02
1520=-1.548219e-05
1531=2.631597e-01
1534=-3.088131e+00
1551=2.501013e-01
1561=2.369593e-01
1563=3.744154e-03
1601=1.793533e-01
1603=-5.825916e-03
1606=1.709296e-02
1612=-1.031295e-02
1615=5.889961e-02
1620=1.639721e-01
1621=2.592170e-02
1624=2.030826e-02
1630=-5.325676e-03
1633=3.458182e-02
1639=-5.825916e-03
1642=1.709296e-02
1648=-3.180089e-03
1651=1.326524e-02
1657=2.951780e-04
1660=1.089479e-02
1666=-5.325676e-03
1669=3.458182e-02
1675=-1.748814e-01
1678=4.429813e-01
1684=-2.735087e-03
1687=1.154478e-02
1693=9.293882e-02
1696=4.857814e-03
1700=-1.548345e-05
1702=3.904727e-02
1705=2.309361e-02
1711=2.065969e-02
1714=2.569879e-02
1720=8.360282e-02
1723=1.055129e-02
1727=-1.327952e-05
1729=8.232486e-02
1732=3.886119e-03
1737=2.097284e-01
1738=1.627791e-01
1746=3.683935e-01
1756=-5.325676e-03
1759=3.458182e-02
1765=3.340240e-04
1768=5.254539e-04
1773=-1.928780e-01
1774=-1.410404e-01
1777=2.296483e-01
1783=1.349391e-01
1786=-1.297639e-01
1792=1.688517e-02
1800=-7.363295e-04
1801=-1.349820e-01
1804=1.377103e-01
1810=2.451475e-02
1813=-1.749577e-01
1819=1.688517e-02
1828=8.097828e-03
1831=5.815346e-04
1837=-2.296212e-01
1840=6.572227e-01
1846=1.334254e-01
1849=-1.288730e-01
1854=-7.678909e-03
1855=-1.241824e-01
1858=2.241690e-01
1864=1.069757e-01
1865=-4.349587e-01
1867=2.206951e-02
1868=-4.282407e-01
1869=-2.606019e-02
1871=1.542145e-02
1873=1.654032e-01
1876=-1.619730e-02
1882=4.077219e-02
1885=1.788181e-02
1890=2.984134e-02
1900=3.101444e-01
1909=5.602946e-03
1912=9.334316e-03
1918=9.320100e-02
1921=-1.036734e-02
1930=-3.384470e-04
1932=3.168124e-02
1936=6.853987e-03
1939=-1.679967e-03
1945=-2.463549e-04
1948=1.639695e-02
1954=6.853987e-03
1957=-1.679967e-03
1966=6.464520e-03
1972=-2.463549e-04
1975=1.639695e-02
1981=3.321319e-02
1984=-1.107336e-02
1993=2.747463e-03
1999=5.177586e-02
2002=2.190829e-02
2006=4.293125e-01
2007=5.603507e-02
2008=4.600992e-01
2011=-4.066840e-01
2015=-6.368837e-06
2017=1.092221e-01
2025=2.413971e-01
2026=6.821469e-02
2029=-4.446084e-02
2035=-2.463549e-04
2038=1.639695e-02
2044=8.930154e-01
2047=-6.920707e-02
2053=-1.424012e-02
2056=6.675803e-03
2062=-1.260572e-02
2065=1.435094e-02
2071=2.485925e-02
2074=-4.593061e-03
2075=-4.856680e-03
2078=7.305592e-02
2080=-6.986159e-02
2083=1.696462e-01
2089=4.561246e-03
2097=1.427046e-01
2098=3.244009e-04
2101=-1.490521e-01
2107=4.487431e-01
2110=-9.381099e-02
2116=-1.687979e-02
2119=1.559551e-03
2125=-1.501236e-02
2128=1.422853e-03
2134=1.010772e-03
2137=-5.935004e-03
2143=1.271870e-02
2152=-3.328178e-02
2155=1.154534e-01
2159=7.868771e-02
2161=1.010772e-03
2164=-5.935004e-03
2170=-7.549544e-02
2173=9.130117e-01
2182=9.742665e-03
2188=-3.328178e-02
2191=1.154534e-01
2195=7.868771e-02
2197=-2.639503e-02
2200=5.776326e-02
2204=1.269035e-01
2205=2.792576e-03
2206=2.778398e-01
2209=-5.790656e-02
2213=1.009429e-01
2215=1.427720e-01
2218=-7.341003e-02
2222=1.574592e-01
2224=1.764483e-06
2233=1.164217e-01
2236=-3.477274e-02
2242=-6.063423e-02
2245=1.012826e-01
2251=-3.328178e-02
2254=1.154534e-01
2258=7.868771e-02
2260=7.301559e-02
2263=-4.303392e-02
2269=-3.754736e-02
2278=6.242378e-03
2287=-2.280484e-03
2290=-2.707071e-01
2296=8.027497e-03
2299=9.169313e-03
2304=-2.521869e-01
2305=3.229490e-04
2308=5.554541e-02
2309=-1.133454e-01
2312=-3.375559e-02
2313=4.579694e-01
2314=-7.784869e-03
2317=-3.705335e-03
2323=3.918842e-02
2326=1.838346e-03
2332=8.027497e-03
2335=9.169313e-03
2341=6.714417e-04
2344=1.839346e-02
2350=3.918842e-02
2353=1.838346e-03
2358=6.276540e-01
2359=6.581191e-03
2362=-5.612048e-01
2367=-1.961050e-01
2368=1.819529e-04
2369=-4.955949e-02
2371=-2.175918e-04
2372=2.014458e-01
2373=3.098508e-01
2374=1.012808e-01
2376=-3.293318e-04
2377=1.896686e-02
2378=6.685807e-02
2380=6.655862e-02
2381=-4.228141e-01
2386=5.168501e-02
2389=-1.656592e-02
2395=6.456224e-02
2398=-2.911966e-02
2404=1.250338e-01
2413=1.447337e-01
2416=-5.010218e-02
2420=1.601564e-01
2421=-1.639001e-02
2422=2.867450e-01
2425=1.264971e-02
2427=-2.842243e-01
2431=9.531622e-03
2432=-1.082612e-01
2435=1.008562e-01
2436=7.294846e-02
2437=-7.240518e-06
2440=5.059213e-02
2443=-2.928439e-02
2449=4.946665e-02
2452=-1.158678e-03
2458=1.890393e-02
2461=-2.037824e-02
2467=3.918842e-02
2470=1.838346e-03
2476=5.968413e-01
2479=-4.039525e-01
2485=-2.838277e-01
2487=3.920179e-04
2488=3.900864e-01
2494=5.008365e-01
2503=-3.201413e-01
2506=1.350550e+00
2533=-1.817542e-01
2575=3.471186e-01
2578=-9.853391e-02
2583=-1.615265e-01
2584=5.327624e-03
2586=1.201158e-02
2587=7.890007e-02
2588=9.081188e-02
2591=-2.084003e-02
2592=2.592244e-01
2602=7.029311e-02
2603=1.624618e-01
2605=-4.994296e-01
2613=4.028583e-02
2622=4.486379e-01
2632=2.014744e-01
2642=3.964770e-01
2652=7.417187e-02
2673=2.205094e-01
2674=4.222514e-02
2677=-1.218838e-01
2682=-4.234982e-02
2683=2.289133e-02
2686=3.761445e-03
2692=3.471186e-01
2695=-9.853391e-02
2700=-4.234982e-02
2701=2.289133e-02
2704=3.761445e-03
2710=2.804045e-01
2713=-8.134345e-02
2718=2.278914e-05
2719=-1.266779e-01
2722=-3.898327e-02
2723=1.591898e-01
2724=1.342124e-02
2725=8.556504e-02
2726=-3.049138e-02
2727=8.618078e-04
2728=-6.325800e-02
2729=2.029300e-01
2732=2.759413e-01
2733=-3.540060e-01
2734=-1.272898e-01
2736=1.625224e-03
2737=-1.062429e-04
2738=4.159168e-02
2740=3.921676e-03
2747=-1.396129e-05
2754=2.278914e-05
2755=-1.266779e-01
2758=-3.898327e-02
2759=1.591898e-01
2760=1.342124e-02
2761=8.556504e-02
2762=-3.049138e-02
2763=4.316295e-01
2764=-3.888489e-02
2765=-8.447913e-05
2767=-3.918592e-02
2773=2.579080e-01
2776=-1.880823e-02
2780=6.988282e-01
2782=2.113216e-01
2785=-7.071355e-01
2789=1.025921e-01
2791=1.163897e-01
2794=-6.261634e-05
2798=8.307669e-02
2800=-1.092334e-01
2801=-7.053779e-03
2803=1.191852e-01
2804=4.845303e-03
2809=7.309629e-02
2810=-4.783729e-01
2812=-8.470207e-01
2815=2.709220e-01
2817=3.160831e-01
2818=4.801819e-03
2819=-8.645231e-05
2821=-3.800845e-02
2826=2.475236e+00
2827=-1.475250e+00
2836=1.802342e-01
2839=-4.308185e-02
2866=1.880772e-02
2886=5.641415e-02
2907=-4.234982e-02
2908=2.289133e-02
2911=3.761445e-03
2917=-2.386456e-03
2920=7.076560e-03
2926=-4.906778e-03
2929=8.971828e-03
2934=-1.084858e-02
2935=3.070533e-02
2938=-9.158079e-04
2944=9.863806e-03
2947=-2.795647e-02
2953=2.228376e-01
2956=-4.128167e-02
2961=-1.701423e-01
2962=-1.356278e-01
2964=5.280960e-02
2965=-1.930456e-01
2967=1.730363e-01
2968=6.260500e-02
2971=-2.154063e-02
2972=2.466960e-02
2974=-4.820595e-02
2980=1.179601e-01
2983=4.594083e-02
2987=8.277407e-02
2989=1.168387e-01
2992=-1.876707e-02
2996=1.238291e-01
2998=2.664432e-01
3001=-3.836405e-01
3007=2.299964e-01
3010=-4.012597e-01
3016=6.517059e-02
3019=8.408508e-02
3025=2.292155e-01
3028=-5.915549e-02
3034=-8.987679e-03
3037=1.449996e-01
3043=8.936381e-04
3057=2.046686e-03
3061=1.904326e-02
3064=-8.895935e-03
3070=2.033909e-02
3073=-4.345275e-02
3078=-3.081621e-04
3082=1.114420e-02
3088=2.033909e-02
3091=-4.345275e-02
3097=1.635704e-01
3100=-2.276195e-01
3106=-2.827822e-02
3109=1.039499e-01
3115=1.868043e-01
3118=-6.321686e-02
3124=2.033909e-02
3127=-4.345275e-02
3133=1.585899e-01
3136=-1.822537e-02
3141=-1.060949e-02
3142=4.738157e-02
3145=-1.318031e-02
3151=1.575286e-01
3154=-1.545686e-02
3159=-3.044360e-02
3160=-1.110480e-02
3163=1.238760e-02
3168=-1.060949e-02
3169=4.738157e-02
3172=-1.318031e-02
3178=-3.648842e-02
3181=3.729642e-02
3187=3.212447e-01
3190=-1.770311e-01
3196=5.210542e-02
3199=-9.492003e-03
3201=-4.856851e-02
3202=2.871251e-01
3205=2.070377e-02
3206=-1.927152e-01
3208=4.820249e-02
3209=1.840422e-01
3212=-1.043722e-03
3214=8.244152e-02
3217=-1.437158e-01
3223=6.791398e-03
3224=-8.977016e-02
3226=1.354412e-01
3232=-6.816516e-03
3235=5.489814e-01
3241=1.217689e-01
3244=-1.638709e-02
3250=-3.113410e-02
3253=8.080206e-02
3254=-1.593358e-01
3258=-1.096672e-01
3259=-4.379174e-02
3260=-4.906155e-02
3261=-5.754553e-01
3262=2.610243e-03
3263=2.093264e-01
3264=3.132859e-01
3265=1.058614e-01
3266=-3.859127e-02
3269=9.238340e-02
3287=4.819218e-01
3314=-8.926072e-04
3332=4.856940e-02
3359=9.242453e-02
3367=1.362793e-05
3370=-1.077573e-01
3376=-1.825050e-01
3378=3.203317e-03
3379=3.030615e-02
3386=9.242453e-02
3395=6.305602e-01
3403=-1.825050e-01
3405=3.203317e-03
3406=3.030615e-02
3413=6.723755e-01
3421=-1.307398e+00
3422=-7.722889e-02
3425=2.326919e-01
3426=9.549485e-02
3427=4.773619e-01
3429=8.525864e-05
3430=-1.285402e-01
3431=1.414557e-01
3432=-3.729817e-01
3433=-1.035406e-01
3434=-1.293590e-01
3435=8.204385e-02
3436=9.304544e-02
3440=6.476324e-01
3458=1.958725e-01
3485=4.530286e-02
3487=1.116831e-03
3488=-7.768609e-01
3512=7.622219e-01
3530=6.723755e-01
3541=8.708482e-03
3547=-1.569609e-01
3549=3.781713e-02
3550=1.604973e-02
3556=-9.911241e-03
3559=7.992773e-02
3565=6.198514e-02
3568=-1.551162e-03
3573=3.311805e-01
3574=-2.836557e-01
3577=1.497995e-02
3584=6.723755e-01
3592=-1.748605e-01
3594=3.749971e-02
3595=2.724091e-02
3601=-1.463784e-01
3604=1.300090e-02
3610=6.830248e-02
3613=-1.933865e-04
3619=-1.825050e-01
3621=3.203317e-03
3622=3.030615e-02
3627=-4.497874e-01
3628=2.045574e-01
3631=-5.858519e-05
3637=-1.998748e-01
3640=1.080703e-01
3648=8.959129e-02
3659=-2.379218e-04
3660=1.755015e-01
3661=6.774557e-02
3666=1.542922e-01
3670=-1.125361e-01
3682=1.720863e-02
3692=2.199444e+00
3693=1.537144e+00
3694=-1.713918e-02
3712=2.304028e-01
3723=4.584798e-02
3742=1.520766e-01
3753=-4.438030e-01
3754=2.061846e-01
3757=-1.302297e-03
3763=-7.063733e-03
3764=-6.243029e-03
3766=1.612303e-01
3767=-1.386610e-01
3768=5.683174e-01
3770=-6.713728e-04
3772=2.885815e-02
3775=-4.148920e-03
3776=-4.347785e-01
3781=-1.899590e-02
3783=-1.013104e-01
3784=8.978300e-02
3790=1.323338e-01
3792=1.790667e-02
3793=7.976510e-03
3801=8.959129e-02
3807=-4.552752e-01
3808=1.942187e-01
3810=3.645972e-02
3811=-3.543606e-03
3816=-3.016254e-01
3817=1.418116e+00
3826=1.011535e-02
3829=-1.206411e+00
3837=1.741024e-01
3846=4.528022e-02
3856=1.372565e-01
3898=-1.033144e-01
3901=1.493203e-01
3903=4.398575e-01
3904=1.158737e-02
3907=-8.024888e-05
3910=3.087143e-02
3912=3.283739e-01
3913=1.729219e-01
3915=-3.606393e-02
3916=-3.688535e-01
3917=2.561383e-02
3918=1.979676e-02
3919=1.196314e-01
3923=-1.840516e-02
3925=-6.705369e-02
3927=7.733443e-04
3928=6.323978e-02
3934=-5.093501e-02
3937=7.011758e-02
3938=-9.114482e-02
3939=1.863037e-01
3943=-2.096470e-01
3944=1.322411e-02
3946=5.191638e-02
3948=-1.530058e-01
3952=-3.987833e-01
3955=2.054733e-01
3956=8.257136e-02
3957=-1.562518e-01
3960=6.012047e-02
3961=-6.815765e-04
3964=8.804020e-03
3969=4.562126e-02
3970=7.826196e-03
3973=-1.613012e-02
3982=1.226492e-02
3988=-1.015401e+00
3989=1.453895e-01
3990=1.017429e-01
3992=2.853267e-02
3993=-3.227288e-04
3994=-3.752914e-05
4000=-9.244240e-04
4007=4.682801e-02
4010=2.083988e-01
4011=-8.462767e-03
4012=-9.635659e-02
4015=-1.805826e-01
4018=2.800312e-02
4024=-4.119725e+00
4025=-2.273768e-04
4026=1.215495e-01
4027=7.667310e-01
4028=-3.042588e-02
4029=-3.187865e-01
4030=8.042497e-01
4032=1.891531e-01
4033=-1.586274e-02
4036=1.188428e-02
4041=5.574450e-02
4042=-1.183801e-03
4045=7.541642e-03
4050=1.891531e-01
4051=-1.586274e-02
4054=1.188428e-02
4059=2.087011e+00
4060=-1.698859e-01
4063=1.988378e-02
4068=5.574450e-02
4069=-1.183801e-03
4072=7.541642e-03
4077=-3.366877e-01
4078=1.261495e-01
4081=-2.445988e-03
4090=-1.445751e-01
4097=6.443016e-02
4098=6.233889e-02
4100=7.813169e-03
4101=-7.098861e-02
4102=-6.924210e-04
4108=-1.263198e+00
4113=5.574450e-02
4114=-1.183801e-03
4117=7.541642e-03
4124=1.975050e-01
4125=2.221513e-01
4126=-3.506379e-02
4127=-2.896586e-02
4133=1.975050e-01
4134=2.221513e-01
4135=-3.506379e-02
4136=-2.896586e-02
4142=1.975050e-01
4143=2.221513e-01
4144=-3.506379e-02
4145=-2.896586e-02
4151=1.975050e-01
4152=2.221513e-01
4153=-3.506379e-02
4154=-2.896586e-02
4158=-1.116283e-02
4159=2.435393e-02
4162=1.318417e-02
4169=1.975050e-01
4170=2.221513e-01
4171=-3.506379e-02
4172=-2.896586e-02
4177=1.468650e-02
4187=1.975050e-01
4188=2.221513e-01
4189=-3.506379e-02
4190=-2.896586e-02
4197=2.417730e-01
4205=1.975050e-01
4206=2.221513e-01
4207=-3.506379e-02
4208=-2.896586e-02
4214=2.242371e-02
4216=-2.069982e-04
4223=1.975050e-01
4224=2.221513e-01
4225=-3.506379e-02
4226=-2.896586e-02
4232=2.255431e-02
4234=-2.069942e-04
4241=2.341616e-02
4243=-1.535644e-04
4250=1.975050e-01
4251=2.221513e-01
4252=-3.506379e-02
4253=-2.896586e-02
4259=1.101188e-01
4260=7.876239e-01
4268=1.975050e-01
4269=2.221513e-01
4270=-3.506379e-02
4271=-2.896586e-02
4277=1.975050e-01
4278=2.221513e-01
4279=-3.506379e-02
4280=-2.896586e-02
4286=1.975050e-01
4287=2.221513e-01
4288=-3.506379e-02
4289=-2.896586e-02
4295=1.975050e-01
4296=2.221513e-01
4297=-3.506379e-02
4298=-2.896586e-02
4302=7.728515e-02
4311=1.289662e-04
4312=7.927744e-02
4315=-1.224227e-01
4321=7.427492e-03
4324=-2.754518e-03
4330=4.053065e-01
4333=-2.986625e-02
4339=7.427492e-03
4342=-2.754518e-03
4348=1.206081e-02
4357=7.427492e-03
4360=-2.754518e-03
4369=1.429966e-02
4375=5.338890e-01
4378=-4.010512e-01
4384=-1.319101e-03
4387=1.786034e-02
4393=-2.160276e-02
4396=7.909132e-03
4398=1.186788e-03
4402=1.724778e-02
4405=-1.906383e-04
4411=-1.319101e-03
4414=1.786034e-02
4423=5.791547e-05
4429=5.273005e-02
4432=-2.378334e-02
4438=1.724778e-02
4441=-1.906383e-04
4450=3.715283e-03
4455=7.383986e-01
4456=-1.324784e-02
4457=1.422485e-02
4458=9.096581e-03
4459=-1.241145e-02
4463=-8.291887e-03
4465=1.724778e-02
4468=-1.906383e-04
4474=1.831739e-05
4486=6.431431e-03
4492=-4.742853e-03
4495=2.708032e-02
4501=1.324794e-02
4504=-3.305694e-04
4510=5.355690e-01
4513=-3.523436e-02
4519=3.774297e-04
4522=1.375126e-02
4528=2.553308e-02
4531=-4.625587e-03
4537=-1.660684e-03
4540=-1.055550e-03
4546=-1.533041e-03
4554=4.803354e-02
4555=6.005794e-03
4557=-8.639076e-05
4558=2.509528e-02
4563=4.803354e-02
4564=6.005794e-03
4566=-8.639076e-05
4567=2.509528e-02
4573=-2.010764e-02
4576=3.026694e-02
4585=-8.025211e-03
4591=2.068671e-04
4594=-4.507529e-01
4598=1.373724e-01
4603=6.126546e-06
4609=9.466521e-03
4612=1.348740e-04
4618=2.319922e-03
4621=-1.110062e-01
4627=1.314093e+00
4630=-8.281778e-02
4636=1.637770e-02
4645=-1.184579e-02
4648=4.764171e-03
4654=-5.279954e-02
4657=1.191199e-01
4663=1.934691e-02
4666=-1.162496e-03
4672=-2.706837e-02
4675=3.582696e-02
4680=1.912347e-01
4681=1.776631e-02
4690=1.934691e-02
4693=-1.162496e-03
4698=1.912347e-01
4699=1.776631e-02
4708=1.438909e-01
4711=-5.095716e-02
4716=5.442861e-01
4717=-3.063979e-01
4725=1.912347e-01
4726=1.776631e-02
4735=-4.470690e-02
4738=3.423112e-02
4743=2.429255e-02
4744=1.222197e-02
4747=-1.065576e-03
4753=-4.470690e-02
4756=3.423112e-02
4762=-1.214533e-02
4765=2.271531e-02
4771=-1.204587e-04
4774=7.413482e-03
4789=1.713925e-01
4869=-1.211650e-03
4870=-1.619969e-02
4873=7.761783e-03
4882=-8.569363e-05
4888=8.212708e-04
4891=-5.745046e-02
4900=-8.569363e-05
4909=-8.569363e-05
4915=2.233900e-02
4918=-7.886622e-03
4924=5.703916e-04
4927=3.778316e-03
4933=1.254772e-01
4936=-7.275645e-02
4942=5.703916e-04
4945=3.778316e-03
4951=3.585947e-03
4954=-1.809034e-02
4960=2.290596e-02
4963=-8.242232e-03
4969=1.414785e-03
4978=6.540636e-01
4981=-9.788850e-02
4986=3.812807e-03
4987=5.993119e-01
4990=-5.442756e-02
4995=6.149561e-05
4996=1.693381e-01
4999=-2.798443e-02
5004=2.159343e-05
5005=1.291712e-01
5008=-1.534100e-02
5014=1.798113e-04
5015=-6.083125e-02
5017=1.234178e-02
5023=1.527429e-02
5026=-2.065368e-02
5032=2.608947e-04
5035=2.270345e-03
5041=5.391078e-04
5044=1.939858e-02
5050=1.277180e-04
5059=5.358142e-05
5062=2.816791e-02
5068=-1.139187e-02
5071=2.221759e-01
5077=1.653697e-04
5080=-1.961940e-04
5086=8.207171e-02
5089=-5.889544e-02
5095=-7.014035e-03
5098=1.465667e-01
5113=-1.148188e-03
5116=3.744075e-01
5143=5.302759e-02
5185=1.394724e-02
5188=-1.389195e-02
5194=8.908066e-04
5197=-1.406740e-01
5203=8.207171e-02
5206=-5.889544e-02
5212=1.065740e+00
5215=-5.879905e-01
5220=-4.746706e-02
5221=3.343898e-02
5224=1.023872e-02
5229=-1.012799e-01
5230=6.167895e-03
5233=7.420242e-02
5238=-3.677342e-01
5239=-4.023433e-02
5240=-5.862734e-03
5241=-3.706884e-01
5242=1.891494e-02
5243=2.276711e-01
5244=9.577956e-02
5245=1.052364e-01
5246=-3.172334e-02
5248=-1.311370e-01
5251=1.419759e-01
5257=-3.515567e-01
5260=6.500356e-01
5267=1.603739e+00
5278=-6.488992e-02
5279=1.646380e-01
5280=9.629058e-05
5281=3.584773e-01
5293=5.620123e-02
5294=3.971908e-02
5303=4.611850e-01
5308=-1.155434e-01
5321=-1.950996e-04
5323=2.226234e-03
5324=1.617976e+00
5325=-4.294294e-01
5326=-1.318301e-02
5334=1.124791e+00
5335=1.918706e-02
5339=-1.326951e-01
5342=-1.300790e-01
5343=3.484577e-01
5344=4.911463e-01
5348=3.012897e-01
5365=1.440865e-01
5366=8.092253e-02
5367=-1.259640e+00
5368=-3.957191e-01
5369=1.482500e-01
5370=3.739480e-02
5371=1.006669e-01
5374=5.758789e-03
5383=5.758789e-03
5393=4.959333e-04
5396=1.541620e-01
5420=3.442640e+00
5441=1.594470e+00
5483=1.643756e-02
5484=-1.091898e-01
5485=-5.807370e-01
5486=6.145686e-01
5491=5.758789e-03
5501=7.472234e-02
5503=6.676027e-03
5504=-6.259239e-02
5505=1.268112e-01
5506=1.112935e-01
5518=1.419104e-01
5528=1.544920e-01
5529=1.897893e-01
5533=-1.175118e-01
5546=-5.320177e-02
5555=-1.886191e-01
5558=1.662140e-01
5559=1.414566e+00
5560=2.018934e-02
5564=3.714871e-03
5567=-1.237786e-01
5569=9.481663e-01
5573=7.195472e-01
5596=5.124934e-01
5600=2.158462e-01
5603=-2.189100e-02
5612=-4.443874e-05
5614=1.248215e-02
5668=1.920064e-02
5697=3.751713e-03
5698=-4.681279e-03
5710=1.713425e-03
5716=-4.849740e-04
5719=7.574308e-04
5725=-1.722543e-04
5728=4.123741e-03
5734=-8.187236e-02
5737=2.021224e-02
5746=-2.753572e-03
5752=-1.018802e-01
5755=5.166753e-02
5761=-8.213906e-02
5764=2.842856e-02
5770=1.074946e-02
5773=-6.436386e-03
5779=3.612466e-02
5782=1.857624e-02
5788=1.074946e-02
5791=-6.436386e-03
5797=1.076691e-01
5800=-2.154166e-02
5806=1.521166e-02
5809=-9.218412e-03
5815=2.006042e-03
5818=2.413582e-02
5824=-1.287847e-03
5827=2.481480e-02
5833=2.662573e-02
5836=9.493881e-04
5842=2.662573e-02
5845=9.493881e-04
5851=-2.256031e-02
5854=1.184428e-01
5860=-3.130460e-02
5863=5.162767e-01
5868=-3.448189e-01
5869=-1.920977e-02
5872=7.707941e-01
5877=-2.160491e-02
5878=-6.597242e-02
5881=8.581902e-02
5887=1.516915e-02
5890=-1.279913e-02
5897=-2.769076e-02
5899=1.043276e-01
5904=-2.160491e-02
5905=-6.597242e-02
5908=8.581902e-02
5914=1.498156e-03
5923=-4.578143e-03
5926=1.787833e-02
5932=6.817887e-02
5935=3.312435e-02
5940=-2.671208e-02
5941=9.177747e-02
5944=3.297686e-02
5949=-3.039989e-02
5950=5.102721e-02
5953=2.055842e-02
5958=-2.732386e-02
5959=9.429357e-02
5962=3.432771e-02
5967=-2.341401e-04
5968=8.492002e-02
5971=4.058403e-03
5976=-2.644668e-02
5977=7.084735e-02
5980=3.958053e-02
5985=-2.160491e-02
5986=-6.597242e-02
5989=8.581902e-02
5994=-1.529457e-04
5995=3.818677e-02
5998=1.707674e-02
6003=-2.071927e-02
6004=-5.209179e-02
6007=1.098718e-01
6013=6.889686e-02
6016=-1.565363e-02
6022=-1.287158e-02
6025=1.269367e-01
6031=-2.842413e-02
6034=1.282999e-01
6040=5.068846e-02
6043=-1.354644e-02
6049=-2.448057e-02
6052=1.359340e-01
6067=7.758939e-03
6070=1.822116e-02
6097=7.375788e-02
6139=1.086107e-01
6142=-6.446633e-02
6148=-5.091803e-03
6151=4.276463e-02
6157=1.565261e-02
6166=6.361479e-01
6169=-4.439242e-01
6175=-3.663504e-03
6178=2.219433e-02
6184=-4.316978e-03
6187=1.274636e-02
6193=-2.724147e-03
6196=9.540172e-03
6202=5.881271e-06
6205=-1.026975e+00
6209=1.140744e-01
6211=2.525610e-04
6220=2.525610e-04
6232=6.677595e-02
6238=1.111126e-02
6241=-5.975655e-04
6247=1.171671e-02
6250=-1.515140e-01
6254=9.524617e-02
6256=1.588614e-01
6259=-7.987642e-01
6263=1.328600e-01
6265=5.762963e-01
6268=-2.243289e-01
6274=-2.936764e-03
6281=9.063513e-02
6283=5.762963e-01
6286=-2.243289e-01
6292=-2.488346e-01
6295=1.564090e-02
6299=8.228011e-02
6301=5.762963e-01
6304=-2.243289e-01
6310=-1.202691e-01
6317=8.073929e-02
6319=-1.660956e-01
6326=7.700111e-02
6328=2.763952e-03
6331=-7.104991e-05
6337=-1.161600e-01
6344=9.281082e-02
6346=-5.998829e-01
6355=-8.045463e-01
6358=1.578983e+00
6364=-5.998829e-01
6373=-1.431208e-01
6380=7.609629e-02
6382=-2.858414e-01
6385=1.734955e-01
6389=9.306520e-02
6391=-2.858414e-01
6394=1.734955e-01
6398=9.306520e-02
6400=-2.366902e-01
6403=2.189689e-01
6407=6.512370e-02
6409=-1.445353e-01
6416=8.091274e-02
6418=-1.418809e-01
6425=9.157702e-02
6427=-4.621619e-03
6430=3.666956e-03
6436=-4.423384e-01
6445=-1.736138e-01
6452=8.575829e-02
6454=-1.727643e-01
6461=8.081552e-02
6463=-9.593650e-02
6470=1.150137e-01
6472=-1.003525e-02
6473=8.804561e-03
6475=2.238707e-03
6481=-1.003525e-02
6482=8.804561e-03
6484=2.238707e-03
6490=-1.966788e-01
6491=1.622347e-01
6499=-2.314194e-02
6502=5.122297e-03
6508=-5.920977e-02
6509=-2.258122e-05
6511=1.749440e-02
6512=2.165192e-01
6513=-1.477975e-01
6514=1.459092e-02
6521=-1.240962e-04
6530=-1.240962e-04
6534=-1.120246e-02
6535=6.363225e-06
6538=1.392536e-02
6549=1.181021e-01
6557=-1.240962e-04
6567=1.539841e-01
6575=8.180874e-02
6581=2.011463e-02
6594=1.539841e-01
6602=1.476900e-01
6603=1.547052e-01
6647=5.656174e-01
6656=1.099396e-02
6666=1.728089e+00
6689=-1.933991e-01
6693=1.182715e-01
6700=-3.725529e-01
6701=4.123825e-01
6702=3.898605e-01
6703=-5.673058e-01
6706=9.543140e-04
6708=-2.464401e-01
6709=-1.332894e-02
6711=1.416977e-04
6712=2.457210e-01
6719=1.971275e-02
6720=-6.863823e-03
6724=4.946214e-03
6728=-6.912021e-02
6730=7.136760e-01
6737=1.971275e-02
6738=-6.863823e-03
6800=1.408358e-01
6802=-3.517397e-01
6806=1.055698e+00
6810=-3.179661e-02
6811=1.665333e+00
6838=2.625812e-01
6891=2.487633e-01
6901=6.374072e-02
6926=-9.016159e-01
6927=4.227766e-01
6928=5.349414e-01
6935=1.971275e-02
6936=-6.863823e-03
6940=4.859842e-02
6941=2.057104e-01
6943=9.906903e-03
6944=-6.226988e-05
6945=-3.182209e-01
6954=3.517756e-01
6955=-2.770553e-02
6958=4.859842e-02
6959=2.057104e-01
6961=9.906903e-03
6962=-6.226988e-05
6963=-3.182209e-01
6967=2.244431e-02
6968=2.954826e-01
6970=1.156198e-04
6972=-4.625007e-01
7040=-1.549062e-01
7044=3.681573e+00
7049=2.972191e+00
7066=2.211450e-03
7067=9.544218e-01
7069=6.838025e-04
7070=-4.950748e-01
7071=-1.112211e+00
7072=1.939696e-03
7076=6.930440e-01
7077=1.436636e-01
7078=-2.621503e-02
7085=6.930440e-01
7086=1.436636e-01
7087=-2.621503e-02
7092=2.319708e-02
7093=7.284022e-04
7096=-7.768216e-03
7102=-1.303367e-02
7105=8.982895e-03
7110=2.319708e-02
7111=7.284022e-04
7114=-7.768216e-03
7120=7.842520e-02
7123=-4.476447e-02
7129=1.112155e-02
7132=-1.482514e-06
7138=1.112155e-02
7141=-1.482514e-06
7147=1.284143e-01
7150=-5.173203e-02
7156=-4.603148e-02
7159=7.870585e-02
7165=1.057087e-01
7174=-1.918287e-02
7177=3.152910e-02
7183=-1.918287e-02
7186=3.152910e-02
7192=3.621561e-01
7195=-1.246159e-02
7201=7.275720e-03
7204=-2.096375e-03
7210=2.000473e-01
7213=-1.290078e-01
7222=-1.059578e-02
7232=3.468362e-02
7233=-2.961503e-02
7241=3.468362e-02
7242=-2.961503e-02
7250=3.468362e-02
7251=-2.961503e-02
7254=1.715827e-01
7264=-1.889941e-04
7267=5.227016e-04
7275=1.404630e-02
7276=1.061631e-01
7281=2.789987e-01
7282=-5.522841e-01
7290=2.724305e-01
7291=-2.148218e-01
7301=6.150817e-05
7302=-1.593665e-02
7310=6.150817e-05
7311=-1.593665e-02
7318=1.977011e-02
7321=-2.755789e-03
7326=2.135626e-01
7328=1.819378e-01
7329=-2.363584e-02
7330=-2.053418e-03
7337=7.351787e-02
7346=6.150817e-05
7347=-1.593665e-02
7354=-1.674653e-02
7363=4.969745e-03
7366=6.436227e-04
7371=1.903711e-01
7375=-6.570219e-03
7381=6.627272e-01
7383=-3.493496e-03
7384=-3.396762e-02
7389=8.062987e-02
7390=2.772310e-02
7393=-8.618890e-01
7398=-2.048493e-02
7399=-1.818518e-02
7402=1.251388e+00
7407=-8.067347e-03
7408=8.284899e-02
7411=-3.599127e-03
7416=-8.067347e-03
7417=8.284899e-02
7420=-3.599127e-03
7426=-3.024657e-03
7429=8.767027e-02
7435=-3.811443e-05
7438=4.089197e-03
7444=1.627160e-04
7447=-3.197399e-05
7453=5.762657e-03
7462=1.432505e-01
7465=-1.404189e-02
7471=1.432505e-01
7474=-1.404189e-02
7480=1.734534e-02
7483=-9.500412e-03
7489=3.184829e-05
7492=-1.279223e-05
7498=4.475811e-05
7501=-3.833189e-05
7507=4.475811e-05
7510=-3.833189e-05
7516=-4.961786e-03
7519=7.365685e-03
7525=-1.186199e-03
7528=4.197515e-03
7534=-4.961786e-03
7537=7.365685e-03
7543=-2.029090e-03
7546=6.531202e-03
7552=-4.961786e-03
7555=7.365685e-03
7561=1.421264e-01
7564=-1.202752e-01
7570=-4.138541e-04
7573=4.181876e-02
7582=1.322306e-03
7588=4.757457e-03
7591=6.555033e-03
7597=9.339535e-04
7606=-6.537578e-03
7609=4.429261e-02
7615=1.862060e-02
7618=2.176509e-02
7624=1.587595e-02
7633=2.103583e-02
7636=2.116828e-02
7642=1.862060e-02
7645=2.176509e-02
7651=6.397802e-02
7660=7.879446e-03
7663=2.079486e-03
7669=7.879446e-03
7672=2.079486e-03
7678=9.346822e-03
7681=1.746146e-03
7686=-1.932766e-02
7687=1.536862e-02
7690=2.624752e-04
7696=7.879446e-03
7699=2.079486e-03
7705=7.879446e-03
7708=2.079486e-03
7714=5.069393e-02
7723=7.879446e-03
7726=2.079486e-03
7732=6.609993e-02
7735=-4.005002e-02
7741=9.904841e-02
7744=-4.469259e-02
7750=6.609993e-02
7753=-4.005002e-02
7759=1.071381e+00
7762=-8.796240e-02
7768=2.394404e-01
7771=-6.098325e-01
7773=1.087925e-02
7777=-5.075893e-01
7780=4.880867e-01
7786=3.957323e-05
7789=-9.435081e-04
7798=1.009940e-03
7807=1.009940e-03
7816=1.009940e-03
7825=6.238627e-03
7827=-4.912894e-01
7832=5.501999e-01
7840=-1.175148e-02
7843=2.433812e-02
7849=-5.012277e-02
7852=4.867428e-02
7858=-2.290848e-03
7861=2.026521e-03
7867=-2.290848e-03
7870=2.026521e-03
7876=-1.604875e-01
7879=4.648753e-01
7885=-2.153282e-03
7888=1.967945e-03
7897=4.387065e-02
7903=1.634878e-04
7906=4.380168e-02
7912=-1.163237e-04
7915=3.995040e-02
7921=4.034241e-03
7930=1.158266e-04
7939=-2.890850e-01
7942=5.345690e-03
7946=2.949190e-02
7948=1.158266e-04
7957=4.216823e-03
7966=3.754755e-03
7975=2.100518e-04
7984=4.224134e-02
7987=-1.973444e-03
7993=1.026014e-01
7996=-1.824925e-02
8002=1.341768e-01
8005=-4.506521e-02
8009=1.787613e-01
8011=1.039596e-01
8014=-1.823641e-02
8020=3.584236e-03
8023=-2.036504e-03
8029=-2.026554e-01
8043=2.414059e-03
8053=2.663146e-01
8061=2.414059e-03
8071=2.663146e-01
8080=2.663146e-01
8088=1.184563e-01
8097=1.088142e-01
8106=1.184563e-01
8115=1.184563e-01
8119=3.029016e-01
8122=-1.795530e-01
8128=7.448814e-01
8131=-7.278615e-01
8136=3.492371e-02
8146=1.090022e-01
8149=-1.002591e-01
8155=-2.638672e-01
8158=3.974579e-01
8164=-2.819373e-01
8167=4.126177e-01
8173=-1.163318e-01
8176=2.091098e-01
8182=6.801305e-02
8185=-4.266489e-02
8191=1.507158e-02
8194=-1.411942e-02
8200=-4.251163e-02
8203=9.848198e-02
8209=-3.700794e-06
8212=1.491479e-05
8218=3.862792e-01
8221=-2.264104e-01
8227=3.862792e-01
8230=-2.264104e-01
8236=-4.111364e-02
8239=5.987382e-01
8248=1.969338e-02
8254=-9.733893e-04
8257=3.418621e-03
8263=1.589760e-01
8266=-5.221600e-02
8272=2.221990e-02
8275=-4.163670e-03
8284=1.068868e-02
8290=2.010505e+00
8293=-8.063061e-01
8299=8.982236e-03
8308=-5.294456e-02
8317=-1.086223e+00
8320=1.392198e-03
8326=7.274281e-02
8329=-7.858367e-03
8335=5.777074e-02
8338=-3.848174e-03
8344=-2.312447e-04
8347=-3.041918e-04
8349=1.435956e-03
8353=1.529137e+00
8356=-8.136053e-01
8362=6.039175e-02
8365=-2.316775e-02
8366=-2.902058e-03
8369=4.189176e-02
8371=-1.363433e-04
8374=4.062133e-01
8379=4.938202e-03
8380=-1.193466e-01
8383=4.276570e-02
8389=-4.543476e-03
8398=-7.068868e-02
8401=4.046960e-01
8407=2.362295e-01
8410=-1.928184e-02
8416=-7.803283e-02
8419=4.054379e-01
8425=2.362295e-01
8428=-1.928184e-02
8434=2.362295e-01
8437=-1.928184e-02
8443=-2.112489e-01
8446=1.048589e-01
8452=-3.872586e-02
8455=9.751616e-02
8461=-5.085637e-01
8464=1.876807e-01
8470=-2.139937e-02
8473=2.948538e-01
8479=-5.143475e-04
8482=8.963934e-03
8488=-1.888985e-02
8491=1.007817e-01
8497=-3.931133e-02
8500=1.591746e-01
8506=-7.866609e-02
8509=3.822123e-02
8518=4.194604e-03
8527=3.425659e-03
8533=-3.833509e-04
8536=1.103943e-02
8542=-4.834051e-03
8545=1.084948e-02
8551=-3.833509e-04
8554=1.103943e-02
8563=4.038345e-03
8569=-3.833509e-04
8572=1.103943e-02
8578=-2.233633e-03
8581=4.309478e-03
8587=-7.197285e-01
8590=3.723596e-01
8596=-9.907252e-02
8608=1.126021e-01
8614=5.627769e-02
8617=-2.057032e-02
8623=9.330822e-03
8626=-8.451098e-05
8632=9.330822e-03
8635=-8.451098e-05
8641=7.189658e-04
8650=4.332066e-02
8659=9.330822e-03
8662=-8.451098e-05
8668=1.584376e-02
8671=-2.143735e-04
8677=2.613859e-02
8680=-3.888446e-04
8686=-1.984307e-02
8689=4.826651e-02
8695=1.406501e-02
8698=-7.336154e-03
8704=-9.717520e-04
8707=1.272667e-03
8713=-1.244259e-02
8716=4.691437e-03
8722=-4.561377e-05
8725=1.277957e-03
8731=-1.913638e-04
8734=5.729626e-04
8740=-5.886499e-03
8743=6.478179e-03
8749=2.289496e-02
8752=-9.252131e-03
8758=1.463840e-02
8761=-3.930370e-03
8771=1.555758e-03
8780=1.555758e-03
8788=-5.618276e-01
8794=-7.132763e-03
8797=1.196134e-03
8803=-4.467302e-03
8812=-5.637455e-02
8821=-2.106280e-02
8830=3.648397e-01
8833=-3.264680e-01
8839=-1.944393e-01
8842=1.246682e+00
8848=1.370494e-01
8851=-1.349376e-01
8857=1.356177e-02
8866=8.443732e-02
8869=-7.463738e-02
8875=-1.062245e-01
8878=2.007478e-01
8884=-2.700972e-02
8887=5.948106e-02
8893=1.555438e-03
8896=-6.415128e-04
8902=-2.562602e-02
8905=1.380001e-03
8909=5.971316e-02
8911=-2.415451e-03
8914=1.192728e-02
8920=-3.266137e-01
8923=1.862685e-01
8927=7.112873e-02
8929=-2.795335e-01
8932=2.300642e-01
8938=-1.807409e-04
8945=1.008929e-01
8947=-2.666651e-03
8950=5.969159e-03
8956=-1.051957e+00
8959=1.337676e+00
8965=-1.493459e-01
8968=7.642681e-02
8974=3.170998e-02
8977=-6.228175e-02
8987=-5.767874e-02
8988=2.786657e-01
8996=-5.753370e-02
8997=2.664173e-01
9007=1.399449e-02
9013=3.820038e-03
9019=-5.662457e-03
9022=7.676788e-02
9028=-5.662457e-03
9031=7.676788e-02
9037=-2.165623e-02
9040=2.625092e-02
9049=2.432475e-04
9055=-2.235828e-02
9058=2.572391e-02
9064=-2.611446e-03
9067=3.756207e-03
9073=1.534869e-02
9076=-2.139228e-03
9082=1.546312e-02
9091=-3.559164e-02
9094=4.853373e-03
9100=-6.942538e-03
9103=1.939183e-03
9109=5.705229e-01
9118=1.074933e-01
9121=-3.286069e-02
9127=4.299791e-03
9130=-7.006516e-04
9132=3.194568e-02
9136=4.299791e-03
9139=-7.006516e-04
9141=3.194568e-02
9145=5.422015e-03
9148=-4.500793e-03
9154=5.422015e-03
9157=-4.500793e-03
9163=8.555399e-04
9166=-5.739444e-04
9172=5.412938e-03
9175=-4.500566e-03
9184=6.544998e-04
9190=2.756350e-02
9199=-1.158840e-02
9202=1.212458e-01
9208=3.838280e-02
9211=-2.711541e-03
9217=1.958980e-02
9220=-8.520170e-04
9226=-1.605108e-03
9229=7.949657e-02
9235=2.645227e-02
9238=-1.668549e-01
9244=-9.952809e-04
9247=7.337294e-03
9253=-3.159642e-04
9262=-9.150481e-02
9265=9.294227e-02
9271=-8.061261e-06
9274=8.552962e-06
9280=-5.902216e-06
9283=6.337595e-06
9289=-5.548100e-04
9292=1.375086e-03
9298=-7.511601e-05
9301=6.532777e-06
9307=-5.246989e-03
9310=4.007412e-03
9316=2.234745e-03
9317=-2.989978e-02
9319=-4.850242e-04
9325=1.177913e+00
9328=-1.257792e+00
9334=4.091414e-03
9343=-2.406787e-03
9346=4.923328e-03
9355=3.910080e-03
9361=6.041647e-01
9364=-4.319614e-01
9370=-1.029362e+00
9373=1.225333e+00
9379=-3.220801e-01
9382=3.404904e-01
9388=8.071700e-01
9391=-7.392988e-01
9397=-5.799006e-01
9400=5.043548e-01
9406=-5.799006e-01
9409=5.043548e-01
9415=7.584448e-01
9418=-3.191425e-01
9424=-8.781210e-01
9427=1.793714e-02
9429=1.748455e-03
9434=1.486625e-02
9491=6.162582e-01
9502=3.115408e-02
9536=9.484661e-02
9538=6.327066e-01
9600=7.667290e-02
9631=1.996527e-03
9634=-3.374762e-03
9640=3.608705e-03
9643=-3.246623e-03
9649=5.381118e-05
9658=-7.090493e-05
9661=2.460103e-03
9667=-1.108207e+00
9670=7.385348e-04
9675=8.473020e-02
9679=-3.132168e-03
9684=8.000492e-02
9685=4.839190e-03
9688=-2.891023e-01
9694=-3.610924e-03
9699=1.930160e-03
9703=-3.610924e-03
9708=1.930160e-03
9712=-1.309653e-01
9715=1.561248e-01
9721=-1.138886e-01
9724=1.215997e-01
9730=-1.309653e-01
9733=1.561248e-01
9739=-1.309653e-01
9742=1.561248e-01
9748=-1.309653e-01
9751=1.561248e-01
9757=-1.309653e-01
9760=1.561248e-01
9766=-1.309653e-01
9769=1.561248e-01
9775=-1.262630e-01
9778=1.250368e-01
9784=-3.601776e-03
9787=4.053639e-03
9793=-3.601776e-03
9796=4.053639e-03
9802=-3.601776e-03
9805=4.053639e-03
9811=-9.996305e-06
9814=1.023004e-05
9820=-1.003889e-05
9823=1.035648e-05
9829=-3.217238e-03
9832=3.253490e-03
9838=-7.754417e-06
9841=8.031014e-06
9847=-5.080402e-03
9850=5.638936e-03
9856=-5.080402e-03
9859=5.638936e-03
9865=-7.738858e-06
9868=7.991659e-06
9874=-1.082155e-05
9877=1.092715e-05
9883=-7.754594e-06
9886=8.030531e-06
9892=-4.148730e-03
9895=3.288808e-03
9901=-1.073692e-05
9904=1.093381e-05
9910=-4.148730e-03
9913=3.288808e-03
9922=1.178338e-04
9931=1.178338e-04
9940=1.178338e-04
9949=3.975735e-06
9958=1.178338e-04
9964=-1.645544e-01
9967=8.224156e-01
9973=1.240259e-01
9976=-2.347028e-01
9986=1.542095e-02
9991=5.054771e-02
9994=-4.445309e-02
10003=4.216093e-04
10009=1.139385e-02
10012=-2.069515e-02
10018=5.474496e-01
10021=-1.833630e-02
10027=-1.723657e-01
10030=1.584433e-01
10036=7.092436e-03
10045=1.813897e-02
10048=-1.503384e-02
10054=1.813897e-02
10057=-1.503384e-02
10063=5.725104e-02
10066=-2.039593e-02
10072=-2.549940e-01
10075=3.986977e-01
10080=9.488669e-02
10081=-1.282521e-03
10090=-1.535311e-02
10093=6.357499e-02
10099=-6.620114e-02
10102=1.804758e-01
10108=-1.244295e-03
10111=3.186210e-02
10120=4.120687e-02
10126=-1.732566e-02
10129=1.720946e-02
10135=-2.175523e-03
10138=2.166006e-02
10144=-4.369674e-02
10147=6.269994e-02
10153=-4.421619e-02
10156=5.269480e-02
10162=-3.094357e-02
10163=2.710040e-03
10164=-3.592085e-03
10165=1.474229e-02
10171=-4.421619e-02
10174=5.269480e-02
10180=-4.421619e-02
10183=5.269480e-02
10189=8.423205e-03
10192=-1.534149e-04
10198=1.740790e-03
10201=-4.867025e-06
10207=-4.633151e-02
10216=-4.810501e-02
10219=5.807456e-02
10225=1.504111e-02
10228=-2.955000e-03
10234=-6.347466e-03
10237=1.086802e-02
10248=-7.924323e-02
10249=1.401850e-01
10253=-1.971775e-02
10261=3.304130e-03
10264=-1.905313e-03
10273=9.263684e-05
10282=9.263684e-05
10291=9.263684e-05
10300=6.252438e-01
10310=-7.433688e-02
10311=1.604784e-02
10319=-7.433688e-02
10320=1.604784e-02
10328=-7.433688e-02
10329=1.604784e-02
10333=-1.977097e-04
10336=4.344364e-03
10342=1.764136e-02
10345=-8.237462e-02
10351=-7.512074e-02
10354=6.587266e-02
10360=-8.116995e-02
10363=2.478734e-03
10369=-8.116995e-02
10372=2.478734e-03
10378=-8.116995e-02
10381=2.478734e-03
10387=3.704528e-03
10390=-5.326082e-04
10396=-1.817553e-02
10399=6.075719e-03
10405=-1.817553e-02
10408=6.075719e-03
10414=-1.817553e-02
10417=6.075719e-03
10423=-1.219243e-02
10432=-7.091766e-02
10441=-7.091766e-02
10450=3.701399e-03
10453=-7.277235e-03
10462=-7.384790e-03
10468=4.282356e-02
10471=-1.433489e-03
10477=5.976707e-03
10480=-1.284317e-02
10486=-9.781977e-02
10489=1.916781e-01
10495=3.194068e-03
10498=-8.999206e-03
10504=-4.264761e-03
10507=8.292161e-03
10513=-2.528291e-02
10516=1.553551e-02
10522=-4.875503e-01
10525=7.535886e-04
10534=1.293982e-01
10543=7.139527e-03
10550=4.523735e-01
10551=-1.970259e-02
10559=7.021123e-01
10560=-1.995538e-02
10569=1.040889e-02
10576=3.116955e-02
10579=-1.126410e-02
10585=-5.006105e-02
10588=5.956773e-02
10597=-1.087309e-03
10603=5.728264e-02
10606=-1.278342e-03
10612=2.632181e-02
10615=-1.519848e-02
10625=-6.933476e-02
10626=3.853283e-02
10630=-1.530498e-02
10633=1.759164e-02
10638=1.863143e-02
10639=-1.726329e+00
10642=4.165069e-04
10651=6.791374e-05
10660=-5.575215e-03
10666=-2.471277e-06
10680=-7.600586e-02
10684=1.424906e-05
10687=-3.500040e-06
10693=1.424906e-05
10696=-3.500040e-06
10702=1.671376e-06
10705=-1.033952e-06
10714=-7.585793e-04
10720=-4.561035e-01
10723=8.104290e-01
10732=1.917775e-02
10738=-5.488081e-04
10741=7.678295e-04
10747=-9.249040e-02
10750=1.481107e-01
10756=-1.404094e-01
10759=2.256412e-01
10765=-8.966593e-03
10768=1.722424e-02
10774=-1.178382e-03
10783=4.884677e-03
10792=-7.241217e-01
10801=-1.771379e+00
10810=2.562343e-03
10813=-9.336728e-04
10819=6.602905e-02
10822=-1.322653e-01
10828=-2.666119e-02
10831=1.609800e-02
10837=5.132974e-02
10840=-1.752799e-03
10846=3.907332e-03
10855=1.045991e-01
10858=-3.992450e-02
10864=1.045991e-01
10867=-3.992450e-02
10873=7.356725e-05
10885=8.217305e-03
10894=1.552893e-02
10900=-1.471202e-01
10903=1.899875e-01
10913=-2.332382e-02
10914=4.628242e-02
10918=7.796819e-03
10921=-9.096501e-03
10926=3.608528e-02
10941=3.135528e-02
10949=-8.799465e-01
10950=3.175445e-02
11023=9.767658e-02
11043=1.831430e-02
11053=-3.634754e-06
11056=1.501409e-05
11062=-2.054934e-02
11065=3.796931e-02
11071=-2.537128e-03
11074=1.376943e-03
11080=1.595617e+00
11083=-9.736056e-01
11089=-1.091163e-02
11092=1.190915e-02
11098=1.943942e-01
11107=1.943942e-01
11116=1.682941e-01
11125=-2.566759e-01
11128=1.572712e+00
11134=-7.441332e-03
11137=1.892565e-02
11149=3.903277e-01
11152=1.964348e-01
11155=-1.800087e-01
11199=1.180803e-01
11210=-4.695278e-04
11211=6.284753e-02
11251=2.938821e-01
11252=-1.583384e-01
11255=-2.563187e-02
11256=2.431231e-01
11257=-7.200669e-01
11260=-7.805913e-03
11263=1.656907e-02
11269=-7.821704e-03
11272=4.481332e-02
11278=3.107397e-01
11281=-3.722118e-01
11290=4.851680e-01
11296=1.213741e-01
11308=5.201319e-02
11353=6.493080e-01
11398=1.012784e+00
11404=1.278488e-02
11461=5.560458e-02
11503=-1.346164e-01
11506=1.388951e-01
11512=-1.726989e-01
11515=1.306480e-01
11521=1.896820e-01
11530=2.580830e-01
11539=1.896820e-01
11548=2.580830e-01
11557=1.896820e-01
11566=2.580830e-01
11575=2.293984e-01
11578=-4.144986e-02
11584=1.061693e-01
11587=-2.796475e-03
11596=-3.579191e-05
11601=-2.692589e-02
11602=8.627746e-01
11611=-2.334599e-04
11614=2.519687e-02
11620=-5.532757e-02
11623=1.080804e-01
11629=-3.419745e-02
11632=3.058346e-02
11638=-3.419745e-02
11641=3.058346e-02
11647=4.132404e-05
11656=8.585810e-03
11659=-8.274509e-03
11668=2.053396e-03
11674=1.798586e-01
11677=-2.861656e-02
11683=-2.951468e-01
11686=2.938844e-01
11692=2.808188e-02
11695=-2.586578e-02
11701=9.549276e-02
11704=-2.805416e-01
11719=1.169148e+00
11765=2.127942e-02
11769=5.396658e-02
11791=3.392081e-01
11794=-1.267562e-01
11800=7.780825e-02
11803=-6.292505e-02
11808=5.765425e-03
11809=-2.996750e-03
11817=5.765425e-03
11818=-2.996750e-03
11826=5.765425e-03
11827=-2.996750e-03
11835=5.765425e-03
11836=-2.996750e-03
11844=4.122212e-03
11845=-6.503980e-02
11853=8.377726e-03
11854=-1.420529e-02
11862=5.765425e-03
11863=-2.996750e-03
11871=5.765425e-03
11872=-2.996750e-03
11881=1.288367e-03
11890=3.384100e-01
11893=-2.117927e-01
11899=1.937365e-03
11908=8.365936e-02
11911=-3.746389e-01
11917=-7.406240e-02
11920=1.172590e-01
11926=8.365936e-02
11929=-3.746389e-01
11935=-3.514104e-01
11938=2.485496e-03
11944=-3.514104e-01
11947=2.485496e-03
11953=-3.514104e-01
11956=2.485496e-03
11962=-3.514104e-01
11965=2.485496e-03
11971=-3.514104e-01
11974=2.485496e-03
11980=-3.514104e-01
11983=2.485496e-03
11989=-5.094435e-01
11992=6.151586e-01
11998=-5.094435e-01
12001=6.151586e-01
12010=6.214304e-06
12016=-6.114877e-02
12019=1.809019e-01
12028=6.214304e-06
12037=6.214304e-06
12046=9.621772e-06
12055=9.621772e-06
12064=9.621772e-06
12073=4.569841e-05
12079=-2.711294e-02
12082=3.545799e-02
12088=1.192609e-02
12091=-1.944968e-03
12097=3.976735e-02
12100=-2.869501e-03
12106=1.103004e-01
12109=-5.896388e-02
12118=2.741465e-02
12127=3.175190e-01
12133=-2.724426e-01
12136=4.242834e-01
12142=-2.724426e-01
12145=4.242834e-01
12154=2.092174e-02
12160=-5.190943e-02
12163=2.165500e-01
12172=2.490608e-05
12178=1.174965e+00
12181=-8.157461e-02
12182=2.845453e-01
12187=-1.453025e-02
12208=1.573908e+00
12245=2.655647e-01
12277=1.094291e-03
12280=-2.585285e-04
12286=-9.956031e-02
12295=7.169843e-01
12298=-4.432982e-01
12307=1.492782e-01
12316=4.409624e-02
12322=1.096379e-03
12325=-2.214657e-04
12331=8.548923e-04
12340=-8.222422e-02
12343=1.158794e-01
12349=-8.222422e-02
12352=1.158794e-01
12358=-8.273448e-02
12361=1.166985e-01
12367=-8.222422e-02
12370=1.158794e-01
12376=-4.212053e-02
12379=1.190677e-01
12385=-4.142859e-02
12388=1.207560e-01
12397=1.550822e-02
12403=-5.480571e-02
12406=5.708700e-02
12412=-5.480571e-02
12415=5.708700e-02
12421=5.382782e-02
12430=7.939303e-02
12433=-3.387266e-02
12439=-1.302472e-01
12442=1.333652e-01
12448=6.706592e-02
12451=-5.057234e-02
12457=6.706592e-02
12460=-5.057234e-02
12466=6.706592e-02
12469=-5.057234e-02
12475=3.728095e-01
12478=-1.940451e-01
12484=6.706592e-02
12487=-5.057234e-02
12493=6.706592e-02
12496=-5.057234e-02
12502=6.706592e-02
12505=-5.057234e-02
12511=-3.313436e-03
12514=8.183291e-03
12520=-3.177410e-04
12523=1.483585e-04
12529=-4.158528e-05
12532=3.903352e-05
12538=1.277264e-01
12541=-4.690773e-02
12547=-1.335325e-01
12550=1.784032e-01
12556=-6.210315e-03
12559=5.657125e-03
12565=-6.210315e-03
12568=5.657125e-03
12574=-6.210315e-03
12577=5.657125e-03
12583=1.129309e-01
12586=-2.032982e-03
12592=1.510351e-01
12595=-4.158907e-02
12605=-1.111232e-01
12606=5.329441e-02
12614=-1.111232e-01
12615=5.329441e-02
12623=-2.169489e-02
12624=6.096440e-02
12632=-2.169489e-02
12633=6.096440e-02
12641=-2.169489e-02
12642=6.096440e-02
12650=-2.169489e-02
12651=6.096440e-02
12659=-1.111232e-01
12660=5.329441e-02
12668=-7.193756e-03
12669=5.352465e-02
12673=-6.713035e-03
12676=4.512133e-03
12682=-1.295208e-03
12685=7.398687e-04
12691=-2.374009e-05
12694=2.142659e-05
12700=-5.478102e-02
12709=4.085174e-02
12712=-8.794108e-02
12718=-3.483668e-01
12721=3.128541e-01
12727=-3.483668e-01
12730=3.128541e-01
12743=9.886050e-02
12752=9.938393e-02
12754=-3.465545e-03
12761=9.962972e-02
12766=-6.284564e-02
12770=9.952924e-02
12772=-4.965017e-04
12779=9.930026e-02
12781=4.870553e-03
12784=-3.916622e-02
12797=1.203459e-01
12799=-1.980513e-03
12806=1.675277e-01
12808=-1.980513e-03
12815=1.675277e-01
12817=-1.916650e-03
12824=1.539139e-01
12833=1.539257e-01
12835=2.479460e-03
12844=4.981151e-02
12847=-3.579479e-02
12853=-8.182852e-04
12856=8.562107e-04
12862=-8.599496e-04
12865=8.633378e-04
12871=-8.597644e-04
12874=8.686758e-04
12880=-8.597644e-04
12883=8.686758e-04
12889=-8.597644e-04
12892=8.686758e-04
12898=-3.795880e-02
12901=7.142553e-02
12910=1.693860e-03
12919=1.693860e-03
12928=9.691797e-03
12937=9.691797e-03
12943=-1.172333e-02
12946=1.649857e-02
12952=-1.172333e-02
12955=1.649857e-02
12961=-1.172333e-02
12964=1.649857e-02
12970=3.976864e-01
12973=-2.810644e-01
12979=-3.571891e-01
12982=7.647788e-01
12988=-2.109776e-02
12991=3.311952e-02
12997=-2.109776e-02
13000=3.311952e-02
13006=-2.292500e-02
13009=3.301772e-02
13015=-3.278235e-02
13018=3.995688e-02
13024=-3.278235e-02
13027=3.995688e-02
13033=-3.278235e-02
13036=3.995688e-02
13042=-6.931029e-01
13051=4.567054e-01
13054=-3.080603e-01
13060=1.036397e+00
13063=-7.719118e-01
13072=1.311905e-01
13081=3.349662e-01
13087=1.074359e-05
13090=-6.230151e-06
13096=-1.931125e-01
13099=2.254025e-01
13105=-1.543717e-01
13108=1.751890e-01
13114=-1.388884e-01
13117=1.658908e-01
13123=-1.249116e-01
13126=1.523010e-01
13132=-2.650926e-01
13135=3.192405e-01
13141=-6.855194e-03
13149=1.257701e-01
13150=-1.985000e-01
13162=2.228772e-03
13168=-1.293598e-02
13171=1.345410e-02
13177=-1.457381e-02
13180=1.333996e-02
13186=-3.011185e-02
13189=3.368127e-02
13195=-3.011185e-02
13198=3.368127e-02
13204=-1.422109e-02
13207=1.340014e-02
13213=-1.353975e-02
13216=1.258911e-02
13222=-3.166745e-02
13225=3.498608e-02
13231=-1.479884e-02
13234=1.244848e-02
13240=-1.353975e-02
13243=1.258911e-02
13249=-3.166745e-02
13252=3.498608e-02
13258=-6.422640e-03
13261=5.641317e-03
13267=-2.000788e-02
13270=2.076666e-02
13276=-3.170774e-02
13279=3.497103e-02
13285=-3.372969e-04
13288=5.607971e-04
13294=-3.034787e-02
13297=2.838576e-02
13303=-1.559135e-02
13306=1.714575e-02
13312=-6.538096e-04
13315=5.671502e-04
13321=-3.139964e-02
13324=3.458077e-02
13330=-3.000600e-02
13333=3.323998e-02
13339=-1.541651e-03
13342=1.602232e-03
13348=-3.000600e-02
13351=3.323998e-02
13357=-1.762588e-03
13360=4.199011e-03
13366=-9.169328e-04
13369=8.874117e-04
13375=-2.543829e-02
13378=2.887451e-02
13384=-9.169328e-04
13387=8.874117e-04
13393=-2.543829e-02
13396=2.887451e-02
13402=-3.307668e-03
13405=7.859108e-03
13411=-3.307668e-03
13414=7.859108e-03
13420=5.727299e-01
13423=-4.064347e-01
13434=-5.391218e-02
13443=-9.814657e-02
13447=1.137959e-02
13456=1.728026e-01
13459=-1.458132e-01
13465=-3.396697e-01
13468=4.643486e-01
13474=-1.004932e-01
13477=2.180552e-01
13486=1.869391e-01
13495=8.671151e-03
13504=8.671151e-03
13513=2.322072e-03
13519=1.893262e-02
13522=-3.840186e-03
13527=6.914597e-01
13528=-5.141376e-01
13537=-2.243104e-02
13546=-2.243104e-02
13558=2.318360e-04
13567=2.318360e-04
13576=2.318360e-04
13583=2.291135e-02
13585=-2.061905e-04
13594=3.395219e-03
13603=9.376902e-04
13609=-1.188979e-03
13612=5.088482e-03
13618=1.197479e-01
13621=-1.174601e-01
13627=-1.223595e-01
13630=1.486781e-01
13636=-1.730389e-01
13639=1.920552e-01
13645=-1.223595e-01
13648=1.486781e-01
13654=-1.012351e-01
13657=1.479677e-01
13663=-1.012351e-01
13666=1.479677e-01
13672=-1.297779e-01
13675=1.412778e-01
13681=9.603113e-02
13684=-1.289214e-02
13690=3.716947e-01
13693=-3.222121e-01
13699=1.203880e-03
13702=-1.172674e-03
13708=1.134609e-03
13711=-1.172276e-03
13717=1.134609e-03
13720=-1.172276e-03
13726=1.212199e-03
13729=-1.057644e-03
13735=1.134609e-03
13738=-1.172276e-03
13744=1.134609e-03
13747=-1.172276e-03
13753=1.134609e-03
13756=-1.172276e-03
13762=1.725678e-02
13765=-1.692391e-02
13771=1.197791e-01
13774=-8.416076e-02
13780=-3.594403e-01
13783=3.159942e-01
13789=-3.594403e-01
13792=3.159942e-01
13798=-4.117863e-03
13801=4.184215e-03
13807=-2.676635e-01
13810=4.483253e-01
13822=3.511247e-01
13825=9.660946e-05
13828=-9.019714e-05
13834=-5.106141e-02
13837=7.523275e-02
13843=8.542367e-02
13846=-1.239482e-02
13852=1.154187e-03
13855=-6.397578e-04
13861=1.706226e-01
13864=-9.140083e-02
13870=-3.485701e-03
13873=4.315949e-03
13879=-3.485701e-03
13882=4.315949e-03
13888=-3.485701e-03
13891=4.315949e-03
13897=-3.485701e-03
13900=4.315949e-03
13906=-3.485701e-03
13909=4.315949e-03
13915=-3.485701e-03
13918=4.315949e-03
13924=-3.485701e-03
13927=4.315949e-03
13939=4.022899e-01
13948=3.714951e-01
13957=4.022899e-01
13966=4.022899e-01
13969=9.950093e-03
13972=-7.347791e-03
13981=4.245570e-04
13987=2.454628e-03
13990=-4.171642e-05
13996=-1.024072e-02
13999=1.016069e-02
14005=-1.024072e-02
14008=1.016069e-02
14014=-1.916111e-02
14017=2.146087e-02
14023=-1.916111e-02
14026=2.146087e-02
14032=-1.916111e-02
14035=2.146087e-02
14041=-1.316447e-02
14044=1.492063e-02
14050=-1.804306e-02
14053=2.058347e-02
14059=-1.804306e-02
14062=2.058347e-02
14068=-1.517009e-02
14071=1.756349e-02
14077=-1.804306e-02
14080=2.058347e-02
14086=-3.158722e-01
14089=7.042273e-01
14095=-1.804306e-02
14098=2.058347e-02
14109=6.101986e-02
14118=6.101986e-02
14127=6.101986e-02
14136=6.101986e-02
14145=6.101986e-02
14154=6.101986e-02
14158=1.617515e-01
14161=-6.659216e-02
14167=-6.610484e-01
14170=6.841652e-01
14176=-2.846997e-02
14179=3.271114e-02
14185=-2.848606e-02
14188=3.262697e-02
14194=-3.003576e-02
14197=3.447904e-02
14203=-2.999000e-02
14206=3.446274e-02
14212=-2.999000e-02
14215=3.446274e-02
14221=-2.429699e-02
14224=2.773874e-02
14230=-2.429699e-02
14233=2.773874e-02
14239=-2.429699e-02
14242=2.773874e-02
14248=-2.429699e-02
14251=2.773874e-02
14257=-1.664766e-02
14260=2.071077e-02
14266=-2.397581e-02
14269=2.754639e-02
14275=-2.173476e-02
14278=2.606559e-02
14284=-2.397581e-02
14287=2.754639e-02
14293=-2.397581e-02
14296=2.754639e-02
14302=-2.655800e-03
14305=5.360343e-03
14311=-2.655800e-03
14314=5.360343e-03
14320=-2.655800e-03
14323=5.360343e-03
14329=-2.655800e-03
14332=5.360343e-03
14338=-4.307628e-03
14341=6.794223e-03
14350=1.229277e-03
14359=1.229277e-03
14368=1.229277e-03
14377=1.229277e-03
14383=2.119255e-01
14386=-1.180938e-01
14392=9.477379e-04
14406=2.079983e-03
14410=9.643958e-03
14413=-7.293366e-03
14419=6.973825e-02
14422=-9.101698e-03
14428=-5.462380e-02
14431=2.702511e-02
14437=3.510381e-05
14446=-3.140059e-01
14449=3.615385e-01
14455=7.443087e-02
14458=-8.736489e-02
14463=1.420887e-03
14464=-1.061628e-01
14472=1.420887e-03
14473=-1.061628e-01
14482=8.226017e-04
14485=-7.965134e-04
14491=1.704098e-01
14494=-1.495059e-02
14500=1.704098e-01
14503=-1.495059e-02
14509=-5.694537e-02
14512=6.394070e-02
14518=-5.694537e-02
14521=6.394070e-02
14527=-5.694537e-02
14530=6.394070e-02
14536=-5.694537e-02
14539=6.394070e-02
14545=-2.884804e-03
14548=3.416455e-03
14554=-2.884804e-03
14557=3.416455e-03
14563=-2.816472e-03
14566=3.354283e-03
14572=-2.816472e-03
14575=3.354283e-03
14581=-2.449599e-03
14584=3.002923e-03
14590=-2.449599e-03
14593=3.002923e-03
14599=-2.449599e-03
14602=3.002923e-03
14608=-2.449599e-03
14611=3.002923e-03
14617=-1.654260e-03
14620=2.585913e-03
14626=-1.654260e-03
14629=2.585913e-03
14635=-1.654260e-03
14638=2.585913e-03
14644=-1.654260e-03
14647=2.585913e-03
14653=-1.207050e-03
14656=1.484150e-03
14662=-3.411249e-02
14665=3.866846e-02
14671=-3.411249e-02
14674=3.866846e-02
14680=-3.411249e-02
14683=3.866846e-02
14689=-3.411249e-02
14692=3.866846e-02
14698=-3.411249e-02
14701=3.866846e-02
14707=-3.411249e-02
14710=3.866846e-02
14716=-3.411249e-02
14719=3.866846e-02
14725=-3.411249e-02
14728=3.866846e-02
14734=-3.411249e-02
14737=3.866846e-02
14743=-2.980303e-03
14746=3.526053e-03
14752=-2.980303e-03
14755=3.526053e-03
14761=-2.980303e-03
14764=3.526053e-03
14770=-2.980303e-03
14773=3.526053e-03
14779=-2.980303e-03
14782=3.526053e-03
14788=-2.980303e-03
14791=3.526053e-03
14797=-3.070263e-03
14800=3.579946e-03
14806=-3.070263e-03
14809=3.579946e-03
14815=-3.070263e-03
14818=3.579946e-03
14824=-3.070263e-03
14827=3.579946e-03
14833=-2.892706e-03
14836=3.407259e-03
14842=-2.892706e-03
14845=3.407259e-03
14851=-2.892706e-03
14854=3.407259e-03
14860=-2.364365e-03
14863=2.234788e-02
14869=-2.364365e-03
14872=2.234788e-02
14878=-1.159024e-02
14881=1.184656e-02
14890=1.084999e-03
14899=1.084999e-03
14908=1.084999e-03
14914=5.281396e-03
14923=3.485962e-02
14926=-9.213923e-03
14931=1.685977e-01
14932=-9.619078e-02
14941=1.305603e-01
14944=-1.126722e-01
14950=-5.295349e-02
14953=6.616580e-02
14959=-5.295349e-02
14962=6.616580e-02
14968=2.719658e-02
14971=-2.581273e-02
14977=4.310626e-02
14980=-3.408707e-02
14986=6.153524e-02
14989=-1.040785e-01
14995=6.153524e-02
14998=-1.040785e-01
15004=7.579692e-02
15007=-7.460215e-02
15013=7.579692e-02
15016=-7.460215e-02
15025=9.555562e-03
15034=9.555562e-03
15043=9.555562e-03
15050=2.000485e-01
15051=-1.538276e-02
15059=2.000485e-01
15060=-1.538276e-02
15068=1.852028e-02
15069=-5.165140e-03
15076=1.636154e-04
15085=1.636154e-04
15094=1.636154e-04
15103=6.016866e-04
15112=3.765333e-04
15115=-1.282874e-03
15121=6.016866e-04
15130=6.016866e-04
15139=6.016866e-04
15148=6.016866e-04
15157=3.765333e-04
15160=-1.282874e-03
15171=2.142957e-03
15180=2.142957e-03
15189=2.142957e-03
15198=2.142957e-03
15207=2.142957e-03
15216=2.142957e-03
15220=5.398776e-04
15223=-5.199526e-04
15229=-9.528539e-03
15232=1.037806e-02
15239=3.146460e-03
15240=-6.869504e-04
15247=1.316372e-02
15250=-1.297173e-02
15256=1.316372e-02
15259=-1.297173e-02
15265=1.316372e-02
15268=-1.297173e-02
15274=1.316372e-02
15277=-1.297173e-02
15283=9.674531e-04
15286=-7.710376e-04
15292=6.251740e-03
15301=6.251740e-03
15310=6.251740e-03
15318=7.465156e-06
15319=-7.199699e-06
15327=7.465156e-06
15328=-7.199699e-06
15336=7.465156e-06
15337=-7.199699e-06
15345=2.963190e-06
15346=-1.525967e-03
15354=7.465156e-06
15355=-7.199699e-06
15363=7.465156e-06
15364=-7.199699e-06
15373=4.862545e-02
15376=-2.169853e-03
15382=-1.983459e-01
15385=1.208281e-01
15391=-1.983459e-01
15394=1.208281e-01
15400=-9.743233e-04
15403=1.084189e-03
15408=1.248267e-01
15409=-1.731429e-01
15418=7.265851e-04
15421=-5.630907e-04
15427=4.486334e-03
15430=-4.685491e-03
15435=3.791520e-01
15436=-2.615184e-01
15444=2.692168e-01
15445=-9.647242e-02
15454=-3.666138e-03
15457=6.419269e-03
15463=-1.899482e-05
15466=3.805029e-04
15472=-3.189512e-02
15475=4.134099e-02
15481=-3.189512e-02
15484=4.134099e-02
15490=-3.189512e-02
15493=4.134099e-02
15499=-3.189512e-02
15502=4.134099e-02
15508=-3.189512e-02
15511=4.134099e-02
15517=-3.189512e-02
15520=4.134099e-02
15526=-3.189512e-02
15529=4.134099e-02
15535=-5.017709e-04
15538=1.809489e-03
15544=-5.017709e-04
15547=1.809489e-03
15553=-5.017709e-04
15556=1.809489e-03
15562=-5.017709e-04
15565=1.809489e-03
15571=-5.017709e-04
15574=1.809489e-03
15580=-5.017709e-04
15583=1.809489e-03
15589=-5.017709e-04
15592=1.809489e-03
15597=1.283346e-01
15598=-2.455287e-01
15606=1.283346e-01
15607=-2.455287e-01
15615=1.325056e-01
15616=-9.255352e-02
15624=1.325056e-01
15625=-9.255352e-02
15634=4.113605e-05
15637=-3.996538e-05
15643=-1.215792e-01
15646=1.526827e-01
15652=-1.215792e-01
15655=1.526827e-01
15661=-1.215792e-01
15664=1.526827e-01
15670=-1.215792e-01
15673=1.526827e-01
15679=-1.215792e-01
15682=1.526827e-01
15688=-1.215792e-01
15691=1.526827e-01
15697=5.292081e-04
15700=-5.152238e-04
15706=5.292081e-04
15709=-5.152238e-04
15715=5.292081e-04
15718=-5.152238e-04
15724=5.292081e-04
15727=-5.152238e-04
15733=4.582276e-03
15736=-1.584304e-03
15742=4.582276e-03
15745=-1.584304e-03
15751=4.582276e-03
15754=-1.584304e-03
15760=4.582276e-03
15763=-1.584304e-03
15768=2.409361e-02
15777=2.409361e-02
15786=2.409361e-02
15796=1.222634e-02
15799=-1.209628e-02
15805=1.222634e-02
15808=-1.209628e-02
15814=1.222634e-02
15817=-1.209628e-02
15823=1.222634e-02
15826=-1.209628e-02
15832=1.222634e-02
15835=-1.209628e-02
15841=-3.577602e-06
15844=1.523526e-05
15850=-3.577602e-06
15853=1.523526e-05
15859=-3.577602e-06
15862=1.523526e-05
15868=-3.577602e-06
15871=1.523526e-05
15877=-3.577602e-06
15880=1.523526e-05
15886=-3.577602e-06
15889=1.523526e-05
15895=-3.577602e-06
15898=1.523526e-05
15904=-3.577602e-06
15907=1.523526e-05
