#mdl#2#891
#rdr#61/19/0
1:*,
18:u:Tok-1 X=%x[ 0,0],
18:u:tok-1 X=%x[ 0,1],
18:u:tok-1LL=%X[-2,0],
18:u:tok-1 L=%X[-1,0],
18:u:tok-1 R=%X[ 1,0],
18:u:tok-1RR=%X[ 2,0],
27:u:tok-2 L=%X[-1,0]/%X[ 0,0],
27:u:tok-2 R=%X[ 0,0]/%X[ 1,0],
18:*:Fst-1 X=%x[ 0,2],
18:u:Fst-1 R=%x[ 1,2],
27:u:Fst-2 X=%x[ 0,2]/%x[ 0,4],
27:u:Fst-2 R=%x[ 1,2]/%x[ 1,4],
18:*:Lst-1 L=%x[-1,3],
18:u:Lst-1 X=%x[ 0,3],
27:u:Lst-2 L=%x[-1,3]/%x[-1,6],
27:u:Lst-2 X=%x[ 0,3]/%x[ 0,6],
18:u:Pre-1 X=%x[ 0,4],
18:u:Pre-2 X=%x[ 0,5],
18:u:Pre-2 R=%x[ 1,5],
18:u:Suf-1 X=%x[ 0,6],
18:u:Suf-2 L=%x[-1,7],
18:u:Suf-2 X=%x[ 0,7],
18:u:Cap-1 L=%x[-1,8],
18:u:Cap-1 X=%x[ 0,8],
18:u:Cap-1 R=%x[ 1,8],
27:u:Cap-2 L=%x[-1,8]/%x[ 0,8],
27:u:Cap-2 R=%x[ 0,8]/%x[ 1,8],
28:u:Cap-3 L=%x[-1,18]/%x[ 0,8],
18:*:Num-1 L=%x[-1,9],
18:*:Num-1 X=%x[ 0,9],
18:u:Num-1 R=%x[ 1,9],
28:u:Num-2 R=%x[ 0,9]/%x[ 0,17],
28:u:Num-2 R=%x[ 0,9]/%x[ 0,18],
19:u:Nme-1 X=%x[ 0,10],
19:u:Loc-1 X=%x[ 0,11],
19:u:Pub-1 X=%x[ 0,12],
19:u:Jnl-1 X=%x[ 0,13],
19:u:Key-1 L=%x[-1,14],
19:u:Key-1 X=%x[ 0,14],
19:u:Key-1 R=%x[ 1,14],
28:u:Key-2 X=%x[ 0,14]/%x[ 0,8],
29:u:Key-3 L=%x[-1,18]/%x[ 0,14],
29:u:Key-3 x=%x[ 0,14]/%x[ 0,18],
19:u:Pos-1 X=%x[ 0,15],
29:u:Pos-2 L=%x[-1,15]/%x[ 0,15],
29:u:Pos-2 R=%x[ 0,15]/%x[ 1,15],
19:u:Pct-1 L=%x[-1,16],
19:u:Pct-1 X=%x[ 0,16],
19:u:Pct-1 R=%x[ 1,16],
19:u:Brk-1 L=%x[-1,17],
19:u:Brk-1 X=%x[ 0,17],
19:u:Brk-1 R=%x[ 1,17],
19:*:Tmn-1 L=%x[-1,18],
19:u:Tmn-1 X=%x[ 0,18],
19:u:Tmn-1 R=%x[ 1,18],
29:u:Tmn-2 L=%x[-1,14]/%x[ 0,18],
29:u:Tmn-2 R=%x[ 0,18]/%x[ 1,14],
28:u:Tmn-3 X=%x[ 0,18]/%x[ 0,6],
28:u:Tmn-4 R=%x[ 0,18]/%x[ 1,8],
19:u:Id--1 X=%x[ 0,19],
#qrk#9
6:author,
5:title,
4:date,
9:publisher,
8:location,
7:journal,
6:volume,
5:pages,
15:container-title,
#qrk#352
1:*,
14:u:tok-1LL=_x-2,
14:u:tok-1 L=_x-1,
12:*:Fst-1 X=Lu,
12:u:Fst-1 R=Lu,
14:*:Lst-1 L=_x-1,
11:u:Lst-1 X=P,
19:u:Lst-2 L=_x-1/_x-1,
13:u:Lst-2 X=P/,,
11:u:Suf-1 X=,,
14:u:Suf-2 L=_x-1,
14:u:Cap-1 L=_x-1,
17:u:Cap-1 X=initial,
17:u:Cap-1 R=initial,
25:u:Cap-2 R=initial/initial,
14:*:Num-1 L=_x-1,
14:*:Num-1 X=none,
14:u:Num-1 R=none,
19:u:Num-2 R=none/none,
19:u:Num-2 R=none/weak,
11:u:Nme-1 X=T,
11:u:Loc-1 X=F,
11:u:Pub-1 X=F,
11:u:Jnl-1 X=F,
14:u:Key-1 L=_x-1,
14:u:Key-1 X=none,
14:u:Key-1 R=none,
22:u:Key-2 X=none/initial,
19:u:Key-3 L=_x-1/none,
19:u:Key-3 x=none/weak,
15:u:Pos-1 X=first,
20:u:Pos-2 L=_x-1/first,
14:u:Pct-1 L=_x-1,
15:u:Pct-1 X=other,
14:u:Pct-1 R=none,
14:u:Brk-1 L=_x-1,
14:u:Brk-1 X=none,
14:u:Brk-1 R=none,
14:*:Tmn-1 L=_x-1,
14:u:Tmn-1 X=weak,
14:u:Tmn-1 R=none,
19:u:Tmn-2 L=_x-1/weak,
19:u:Tmn-2 R=weak/none,
16:u:Tmn-3 X=weak/,,
11:u:Id--1 X=F,
14:u:tok-1LL=_x-1,
11:*:Lst-1 L=P,
12:u:Lst-1 X=Ll,
12:u:Suf-2 X=an,
17:u:Cap-1 L=initial,
25:u:Cap-2 L=initial/initial,
22:u:Cap-3 L=weak/initial,
14:*:Num-1 L=none,
14:u:Key-1 L=none,
19:u:Key-3 L=weak/none,
19:u:Key-3 x=none/none,
11:u:Pos-1 X=1,
17:u:Pos-2 L=first/1,
13:u:Pos-2 R=1/2,
15:u:Pct-1 L=other,
14:u:Pct-1 X=none,
14:u:Brk-1 L=none,
14:*:Tmn-1 L=weak,
14:u:Tmn-1 X=none,
19:u:Tmn-2 L=none/none,
19:u:Tmn-2 R=none/none,
22:u:Tmn-4 R=none/initial,
12:*:Lst-1 L=Ll,
12:u:Pre-2 R=Th,
22:u:Cap-3 L=none/initial,
11:u:Nme-1 X=F,
19:u:Key-3 L=none/none,
11:u:Pos-1 X=2,
13:u:Pos-2 L=1/2,
13:u:Pos-2 R=2/3,
14:u:Pct-1 L=none,
14:*:Tmn-1 L=none,
14:u:Lst-2 X=Ll/r,
11:u:Suf-1 X=r,
11:u:Jnl-1 X=T,
11:u:Pos-1 X=3,
13:u:Pos-2 R=3/4,
16:u:Pct-1 R=period,
16:u:Tmn-1 R=strong,
16:u:Tmn-3 X=none/r,
12:u:Fst-1 R=Ps,
14:u:Fst-2 X=Lu/W,
14:u:Fst-2 R=Ps/(,
13:u:Lst-2 X=P/.,
11:u:Pre-1 X=W,
11:u:Suf-1 X=.,
15:u:Cap-1 R=other,
14:u:Num-1 R=year,
21:u:Num-2 R=none/strong,
11:u:Pub-1 X=T,
21:u:Key-3 x=none/strong,
11:u:Pos-1 X=4,
13:u:Pos-2 L=3/4,
13:u:Pos-2 R=4/5,
16:u:Pct-1 X=period,
15:u:Pct-1 R=other,
16:u:Brk-1 R=parens,
16:u:Tmn-1 X=strong,
21:u:Tmn-2 L=none/strong,
21:u:Tmn-2 R=strong/none,
18:u:Tmn-3 X=strong/.,
12:*:Fst-1 X=Ps,
14:u:Fst-2 X=Ps/(,
14:u:Fst-2 R=Lu/P,
13:u:Lst-2 L=P/.,
11:u:Pre-1 X=(,
15:u:Cap-1 X=other,
23:u:Cap-2 L=initial/other,
14:*:Num-1 X=year,
21:u:Num-2 R=year/parens,
21:u:Num-2 R=year/strong,
20:u:Key-2 X=none/other,
21:u:Key-3 L=strong/none,
11:u:Pos-1 X=5,
13:u:Pos-2 L=4/5,
16:u:Pct-1 L=period,
16:u:Brk-1 X=parens,
16:*:Tmn-1 L=strong,
24:u:Tmn-4 R=strong/initial,
14:u:Fst-2 X=Lu/P,
11:u:Pre-1 X=P,
12:u:Pre-2 X=Pr,
15:u:Cap-1 L=other,
24:u:Cap-3 L=strong/initial,
14:*:Num-1 L=year,
11:u:Loc-1 X=T,
13:u:Pos-2 L=5/5,
13:u:Pos-2 R=5/6,
16:u:Brk-1 L=parens,
20:u:Tok-1 X=University,
20:u:tok-1 X=university,
14:u:Fst-2 X=Lu/U,
14:u:Lst-2 X=Ll/y,
11:u:Pre-1 X=U,
12:u:Pre-2 X=Un,
11:u:Suf-1 X=y,
12:u:Suf-2 X=ty,
11:u:Pos-1 X=6,
13:u:Pos-2 R=6/7,
16:u:Tmn-3 X=none/y,
15:u:tok-1 X=press,
11:u:Pos-1 X=7,
13:u:Pos-2 L=6/7,
13:u:Pos-2 R=7/8,
14:u:tok-1RR=_x+1,
22:u:Cap-2 R=initial/caps,
11:u:Pos-1 X=8,
13:u:Pos-2 L=7/8,
19:u:Tmn-2 L=none/weak,
19:u:Tmn-4 R=weak/caps,
14:u:tok-1 R=_x+1,
14:u:tok-1RR=_x+2,
14:u:Fst-1 R=_x+1,
14:u:Fst-2 X=Lu/N,
19:u:Fst-2 R=_x+1/_x+1,
11:u:Pre-1 X=N,
14:u:Pre-2 R=_x+1,
14:u:Cap-1 R=_x+1,
14:u:Num-1 R=_x+1,
14:u:Key-1 R=_x+1,
14:u:Pos-1 X=last,
19:u:Pos-2 R=last/_x+1,
14:u:Pct-1 R=_x+1,
14:u:Brk-1 R=_x+1,
14:u:Tmn-1 R=_x+1,
19:u:Tmn-2 R=none/_x+1,
19:u:Tmn-4 R=none/_x+1,
14:u:Fst-2 X=Lu/J,
14:u:Fst-2 R=Lu/C,
11:u:Pre-1 X=J,
12:u:Pre-2 R=Co,
14:u:Fst-2 X=Lu/C,
14:u:Lst-2 X=Ll/g,
11:u:Pre-1 X=C,
12:u:Pre-2 X=Co,
11:u:Suf-1 X=g,
12:u:Suf-2 X=ng,
13:u:Pos-2 L=1/1,
16:u:Tmn-3 X=none/g,
13:u:tok-1RR=the,
14:u:Lst-2 X=Ll/l,
11:u:Suf-1 X=l,
12:u:Suf-2 X=al,
13:u:Pos-2 R=2/2,
16:u:Tmn-3 X=none/l,
13:u:tok-1 R=the,
14:u:Fst-2 X=Lu/I,
14:u:Lst-2 L=Ll/l,
11:u:Pre-1 X=I,
12:u:Suf-2 L=al,
13:u:Pos-2 L=2/2,
14:u:Lst-2 X=Ll/e,
11:u:Suf-1 X=e,
13:u:Pos-2 R=3/3,
16:u:Tmn-3 X=none/e,
14:u:Fst-2 R=Lu/S,
12:u:Fst-1 R=Ll,
14:u:Fst-2 R=Ll/a,
14:u:Lst-2 L=Ll/d,
14:u:Lst-2 X=Ll/s,
11:u:Suf-1 X=s,
15:u:Cap-1 R=lower,
23:u:Cap-2 R=initial/lower,
13:u:Pos-2 R=4/4,
16:u:Tmn-3 X=none/s,
20:u:Tmn-4 R=none/lower,
13:u:Tok-1 X=and,
13:u:tok-1 X=and,
12:*:Fst-1 X=Ll,
15:u:Cap-1 X=lower,
23:u:Cap-2 L=initial/lower,
20:u:Cap-3 L=none/lower,
13:u:Pos-2 L=4/4,
15:u:Cap-1 L=lower,
21:u:Cap-2 L=lower/lower,
13:u:tok-1LL=and,
23:u:Cap-2 L=lower/initial,
13:u:Pos-2 R=6/6,
13:u:Pos-2 L=6/6,
12:u:tok-1RR=of,
13:u:Pos-2 R=7/7,
14:u:Fst-2 R=Ll/o,
13:u:Pos-2 L=7/7,
14:u:Fst-2 X=Ll/o,
11:u:Pre-1 X=o,
13:u:Pos-2 R=8/8,
12:u:tok-1LL=of,
11:u:Pos-1 X=9,
13:u:Pos-2 L=8/9,
22:u:Cap-2 R=initial/_x+1,
16:u:Pos-2 L=9/last,
12:u:Suf-2 X=er,
23:u:Key-3 x=none/moderate,
18:u:Tmn-1 X=moderate,
23:u:Tmn-2 R=moderate/none,
18:*:Tmn-1 L=moderate,
11:u:Fst-1 R=N,
16:u:Num-1 R=volume,
20:u:Tmn-4 R=none/other,
11:*:Fst-1 X=N,
16:*:Num-1 X=volume,
16:u:Pct-1 R=hyphen,
12:u:Pre-2 R=(2,
15:*:Num-1 X=range,
20:u:Num-2 R=range/none,
11:*:Lst-1 L=N,
12:u:Pre-2 X=(2,
15:*:Num-1 L=range,
21:u:Tmn-2 R=strong/_x+1,
21:u:Tmn-4 R=strong/_x+1,
16:u:Cap-1 R=single,
16:u:Cap-1 X=single,
24:u:Cap-2 R=single/initial,
21:u:Key-2 X=none/single,
16:u:Cap-1 L=single,
24:u:Cap-2 L=single/initial,
14:u:Fst-2 X=Lu/A,
14:u:Lst-2 L=Ll/p,
11:u:Pre-1 X=A,
14:u:Fst-2 R=Lu/L,
14:u:Fst-2 X=Lu/L,
11:u:Pre-1 X=L,
23:u:tok-1LL=international,
14:u:Lst-2 X=Ll/k,
11:u:Suf-1 X=k,
16:u:Tmn-3 X=none/k,
21:u:Cap-3 L=none/single,
15:*:Num-1 X=roman,
20:u:Num-2 R=roman/none,
13:u:Pos-2 L=0/1,
12:u:tok-1 L=m.,
12:u:Pre-2 X=Cy,
12:u:Suf-2 L=M.,
15:*:Num-1 L=roman,
14:u:Fst-2 X=Ll/i,
11:u:Pre-1 X=i,
14:u:Fst-2 X=Lu/R,
11:u:Pre-1 X=R,
16:u:Num-1 R=double,
17:u:Key-1 X=journal,
25:u:Key-2 X=journal/initial,
22:u:Key-3 L=none/journal,
22:u:Key-3 x=journal/none,
16:*:Num-1 X=double,
17:u:Key-1 L=journal,
22:u:Tmn-2 L=journal/none,
13:u:Pos-2 L=9/9,
13:u:Tok-1 X=New,
13:u:tok-1 X=new,
12:u:Pre-2 X=Ne,
13:u:tok-1 L=new,
12:u:Pre-2 X=Pa,
13:u:Fst-2 R=N/2,
14:u:Fst-2 X=Lu/Z,
11:u:Pre-1 X=Z,
12:u:Pre-2 X=Ze,
12:u:tok-1 L=k.,
14:u:Lst-2 X=Ll/h,
11:u:Suf-1 X=h,
16:u:Tmn-3 X=none/h,
12:u:Pre-2 R=We,
14:u:Fst-2 R=Lu/G,
20:u:tok-1LL=publishing,
15:u:tok-1 L=group,
15:u:tok-1 R=york.,
19:u:tok-2 L=group/new,
19:u:tok-2 R=new/york.,
14:u:Fst-2 R=Lu/Y,
12:u:Pre-2 R=Yo,
12:u:Suf-2 L=up,
12:u:Pre-2 R=Se,
12:u:Pre-2 X=Jo,
12:u:Suf-2 L=N.,
18:u:tok-1 L=security,
15:u:tok-1 X=paper,
12:u:Suf-2 L=e.,
17:u:Tok-1 X=Journal,
17:u:tok-1 X=journal,
20:u:tok-2 R=journal/of,
17:u:tok-1 L=journal,
20:u:tok-2 L=journal/of,
17:u:tok-1LL=journal,
12:u:Pre-2 R=24,
12:u:Suf-2 X=th,
19:u:Tok-1 X=Publisher,
19:u:tok-1 X=publisher,
28:u:tok-2 L=security/publisher,
24:u:tok-2 R=publisher/_x+1,
17:u:tok-1RR=(2009).,
24:u:Tok-1 X=Zettl-Schabath,
23:u:tok-1 X=zettlschabath,
17:u:tok-1 R=secrecy,
27:u:tok-2 L=k./zettl-schabath,
32:u:tok-2 R=zettl-schabath/secrecy,
15:u:Tok-1 X=Paper,
16:u:tok-1LL=commit,
19:u:tok-1 L=genocide.,
12:u:tok-1 R=24,
25:u:tok-2 L=genocide./paper,
18:u:tok-2 R=paper/24,
21:u:Key-1 X=proceedings,
29:u:Key-2 X=proceedings/initial,
26:u:Key-3 L=none/proceedings,
26:u:Key-3 x=proceedings/none,
21:u:Key-1 L=proceedings,
26:u:Tmn-2 L=proceedings/none,
22:u:Num-2 R=ordinal/none,
0=-1.333302e-03
1=-1.259309e-02
3=-5.568507e-04
4=-1.431141e-03
5=-5.605202e-03
9=7.805458e-01
10=4.101598e-02
18=-8.103167e-01
19=7.937899e-01
20=3.500586e-04
21=-9.282584e-02
22=-1.204275e-01
24=-4.600199e-02
30=5.275073e-01
37=-1.215974e-01
39=1.337754e+00
40=1.538138e-01
46=-4.486325e-02
49=6.841943e-01
55=-5.440757e-01
59=7.762293e-01
60=2.947082e-01
61=-2.655223e-03
69=1.614869e+00
70=3.009541e-01
89=1.318317e+00
90=1.230314e-01
99=1.230314e-01
108=1.338667e-01
109=1.106961e-02
111=4.287693e-02
112=1.392664e-01
113=1.097195e-01
114=-9.593819e-02
116=-4.676831e-03
117=6.600818e-01
118=8.021709e-01
127=3.303918e-01
131=2.903472e-01
138=5.620000e-01
145=-9.518326e-02
147=7.647532e-01
148=1.673945e-01
157=9.448426e-01
167=6.378103e-01
198=4.067896e-01
201=9.924463e-03
203=1.985528e-02
206=-3.058633e-02
207=1.230314e-01
297=3.814022e-02
298=7.940906e-02
300=6.815946e-02
302=-8.744900e-02
306=1.230314e-01
316=-5.413252e-03
318=-7.694402e-04
319=3.598984e-02
325=-5.413252e-03
327=-7.694402e-04
328=3.598984e-02
333=1.230314e-01
342=1.230314e-01
351=-9.550917e-02
352=2.021664e-01
354=1.550221e-03
355=7.100732e-02
356=1.050772e-01
360=6.139059e-03
361=1.413136e-02
363=6.828473e-02
364=-2.823154e-03
365=1.121364e-01
368=-1.687378e-03
370=1.407374e-01
372=5.411599e-02
374=3.397759e-02
378=1.230314e-01
468=-1.871875e-03
469=1.439319e-01
471=2.657737e-03
472=4.833250e-02
473=3.966709e-02
476=-4.502771e-03
477=6.422124e-01
478=6.433106e-02
487=7.945076e-01
489=-3.337565e-02
498=5.298641e-01
505=-1.357871e-01
507=1.305394e+00
508=1.615022e-01
514=-3.288274e-02
517=4.383022e-01
523=-1.430289e-01
527=8.644321e-01
537=2.207116e-01
557=6.432366e-01
558=4.776584e-02
559=1.887351e-01
561=2.839498e-03
563=3.630479e-02
566=-2.575535e-03
567=1.989633e-02
568=2.586514e-01
569=-1.645086e-01
570=-4.076672e-02
571=1.359834e-01
572=3.473414e-01
575=-1.448105e-02
577=-6.655429e-03
580=3.983245e-02
585=1.203637e+00
586=-3.089924e-01
589=1.073542e-01
590=-4.885591e-02
593=-2.543124e-02
594=-4.159272e-02
595=1.441497e-01
597=1.474499e-01
598=-2.314606e-01
599=-4.697816e-03
603=7.409649e-02
604=-2.301239e-02
606=-2.389270e-01
608=-8.116701e-03
610=5.866849e-05
612=4.166450e-01
613=-6.878728e-02
615=-8.329718e-03
617=-1.607869e-01
621=1.230314e-01
630=-1.711131e-02
631=2.159037e-02
633=-6.977228e-03
634=5.458859e-02
635=-4.923110e-02
638=-1.081116e-02
639=2.062125e-03
640=1.152298e-01
643=-4.468556e-02
644=-3.283142e-02
648=-3.279004e-02
649=2.633020e-01
651=2.485395e-02
652=1.035735e-01
653=1.901754e-02
656=-4.332996e-02
657=1.230314e-01
667=-1.989906e-03
669=-2.060974e-03
670=3.558256e-02
675=1.230314e-01
684=1.230314e-01
693=1.230314e-01
703=-7.333357e-03
705=-3.270840e-03
711=1.327986e-01
712=-8.292096e-02
714=3.561382e-04
715=-6.471107e-02
716=-8.767799e-02
719=1.744229e-01
720=1.230314e-01
729=1.709431e-02
730=-7.354831e-02
732=-1.394002e-02
733=6.000016e-03
734=-1.619772e-02
737=-3.833098e-03
738=1.582095e-01
739=8.490732e-02
741=-7.940123e-03
742=-4.558088e-02
743=4.536362e-02
746=1.057143e-03
747=1.230314e-01
838=-1.989906e-03
840=-2.060974e-03
841=3.558256e-02
846=1.366499e-01
847=-1.592320e-02
849=5.930782e-04
850=-8.295760e-02
851=-2.653424e-03
854=9.162704e-04
855=1.230314e-01
868=3.487253e-02
874=-5.413252e-03
876=-7.694402e-04
877=3.598984e-02
882=9.149665e-02
883=-9.748863e-02
885=-1.837760e-02
886=-2.327472e-03
887=-4.304281e-02
891=1.297205e+00
892=-4.093895e-01
900=5.747061e-03
903=-2.094559e-02
904=5.303487e-02
905=-6.333018e-03
909=3.878929e-01
910=1.967116e-01
920=1.352174e-04
923=8.682145e-01
939=-1.197405e-02
940=3.249074e-01
949=2.458283e-01
969=1.140550e+00
990=1.918365e-02
991=-3.965639e-02
993=2.425382e-02
995=2.473873e-03
999=8.136028e-01
1000=-1.338864e+00
1008=-1.261236e-02
1009=-2.648901e-02
1011=-5.779256e-02
1012=2.936412e-01
1013=-4.784505e-03
1017=-1.058166e-01
1018=4.449552e-02
1020=-1.796490e-01
1021=2.055097e-01
1022=2.012419e-02
1027=-8.699893e-02
1029=1.794079e-02
1035=-2.170855e-02
1036=2.088378e-01
1039=1.272871e-01
1040=2.375531e-04
1043=-8.875372e-03
1044=6.072736e-01
1045=3.128915e-02
1053=-4.003025e-01
1054=8.057403e-01
1055=3.816781e-01
1056=-2.392129e-03
1057=-1.029425e-01
1059=-4.293618e-03
1072=-1.329476e-01
1074=1.502193e+00
1075=1.606475e-01
1081=-3.081728e-02
1084=6.803095e-01
1090=-1.446138e-01
1094=8.200220e-01
1095=3.571214e-01
1114=8.337976e-02
1124=6.411884e-01
1125=-1.272783e-02
1126=5.625221e-02
1128=-3.217046e-03
1129=5.818074e-02
1130=-7.849957e-03
1133=-6.549847e-03
1135=-1.938023e-02
1144=-3.799057e-02
1146=-9.546748e-02
1147=6.463330e-02
1148=2.449266e-03
1150=1.623739e-02
1151=-3.034977e-02
1152=2.071864e-03
1153=1.105830e-01
1161=3.211063e-02
1162=-7.596372e-04
1171=8.958946e-03
1180=-1.062571e-03
1188=-2.945185e-02
1189=5.229847e-02
1191=-1.711568e-04
1192=3.629270e-02
1197=-4.875066e-02
1198=-6.791288e-03
1200=-1.619383e-01
1201=5.999595e-02
1205=-3.803319e-03
1215=2.158300e+00
1216=-9.427500e-01
1245=1.821321e-01
1255=2.891002e-01
1275=2.275821e-01
1296=1.400702e-02
1297=-3.510386e-02
1299=-2.403456e-03
1300=2.619896e-02
1301=1.395663e-03
1303=1.071004e-02
1304=1.074601e-03
1305=1.273834e-02
1306=-6.165380e-02
1308=-1.440128e-02
1309=6.584598e-02
1310=-4.664499e-03
1312=1.737114e-02
1315=-2.606999e-02
1318=-3.689607e-02
1319=-3.430497e-03
1321=1.776227e-02
1322=1.465590e-03
1324=-4.609038e-02
1326=1.776883e-03
1328=1.210640e-01
1332=-9.569828e-02
1333=1.732030e-01
1336=8.650695e-03
1337=8.787100e-02
1340=1.688168e-01
1341=5.135821e-01
1342=4.324700e-03
1351=6.852124e-01
1355=-6.002651e-01
1371=5.405538e-01
1372=1.179092e-02
1381=9.303295e-02
1387=-9.886609e-02
1391=7.355497e-01
1392=5.097859e-01
1411=1.361475e-01
1421=1.114232e+00
1422=2.176554e-01
1423=-8.955317e-02
1431=-9.983170e-01
1432=1.695672e-01
1434=1.571516e-03
1435=7.403412e-03
1436=1.024676e-04
1438=-1.359120e-02
1439=3.501614e-04
1440=-3.121847e-01
1441=2.308870e-01
1443=-6.987172e-04
1444=-1.302327e-01
1445=3.244968e-03
1447=1.032946e-03
1448=2.301587e-03
1449=-1.260328e-01
1450=2.392594e-01
1452=-2.300911e-02
1453=4.427211e-03
1454=2.129334e-02
1459=2.774406e-01
1467=-1.183559e-02
1468=3.305352e-01
1477=9.129786e-02
1485=-4.155754e-02
1486=4.581963e-02
1488=7.655272e-02
1490=9.615175e-02
1493=3.405351e-01
1494=-8.686464e-02
1495=7.895561e-02
1497=-6.121915e-03
1498=-1.101431e-03
1499=9.905653e-02
1502=6.903649e-02
1503=9.094162e-01
1513=6.994426e-01
1517=-6.466462e-01
1531=-6.918300e-02
1533=1.140294e+00
1534=1.683043e-04
1543=7.269747e-02
1549=-1.085676e-01
1553=7.922213e-01
1554=3.999988e-01
1568=8.992955e-01
1573=4.350932e-03
1583=1.631141e+00
1584=-5.561184e-03
1585=4.856985e-02
1587=-3.499501e-02
1588=3.154145e-02
1589=-1.540710e-01
1591=6.876351e-02
1593=-5.561184e-03
1594=4.856985e-02
1596=-3.499501e-02
1597=3.154145e-02
1598=-1.540710e-01
1600=6.876351e-02
1602=-5.020342e-01
1603=1.478117e-01
1605=3.574603e-03
1607=2.166778e-01
1610=4.948839e-05
1611=3.667560e-01
1612=7.177635e-03
1621=1.876854e-03
1629=1.365135e-01
1634=-4.012288e-01
1638=4.921673e-02
1639=2.555514e-02
1641=-8.985525e-03
1643=-2.101477e-02
1647=-5.561184e-03
1648=4.856985e-02
1650=-3.499501e-02
1651=3.154145e-02
1652=-1.540710e-01
1654=6.876351e-02
1657=1.768700e-01
1665=-2.855395e-03
1666=1.476186e-01
1675=1.768700e-01
1683=4.559698e-02
1684=3.353880e-03
1686=7.414703e-02
1687=-3.007849e-02
1688=-1.502298e-01
1692=-2.855395e-03
1693=1.476186e-01
1701=4.559698e-02
1702=3.353880e-03
1704=7.414703e-02
1705=-3.007849e-02
1706=-1.502298e-01
1715=-1.630373e-03
1717=4.219255e-01
1718=5.478966e-03
1720=2.452371e-01
1731=1.008313e-01
1732=-1.203289e-03
1733=-5.009647e-03
1738=3.839689e-02
1740=1.805964e-01
1741=-1.234789e-03
1742=1.501909e-05
1748=9.996765e-04
1749=3.923385e-02
1750=-5.846388e-02
1751=-2.820362e-01
1756=1.998179e-01
1760=-5.236813e-02
1764=2.118301e-02
1774=1.884715e-01
1782=5.540482e-02
1785=7.578748e-02
1786=-2.904426e-02
1787=-4.147442e-03
1796=1.650931e-01
1801=2.232842e-01
1811=7.238207e-04
1812=3.184164e-02
1813=-8.914504e-02
1814=-3.773898e-01
1820=9.795037e-04
1821=6.620543e-02
1822=-5.279170e-02
1823=-1.508451e-02
1828=1.418014e-02
1832=-8.090669e-03
1836=4.559698e-02
1837=3.353880e-03
1839=7.414703e-02
1840=-3.007849e-02
1841=-1.502298e-01
1847=4.650186e-01
1865=6.044729e-01
1919=4.438636e-01
1937=4.650186e-01
1947=1.381112e-02
1954=3.492075e-04
1956=-4.636855e-02
1957=4.989132e-03
1964=4.650186e-01
1973=2.297929e-03
1976=-3.753268e-04
1977=1.501695e-01
1986=9.016632e-01
1991=1.259474e-01
2009=5.802003e-01
2063=8.109071e-02
2081=7.425591e-01
2090=1.456404e-01
2099=2.297929e-03
2102=-3.753268e-04
2103=1.501695e-01
2107=1.642542e-02
2109=-3.266243e-03
2113=2.397777e-01
2120=4.554399e-01
2123=-3.001908e-04
2129=2.113150e-03
2134=6.178094e-03
2136=-3.576603e-02
2137=6.287849e-03
2144=4.654052e-01
2151=1.254896e-02
2152=9.202131e-03
2154=-3.734726e-03
2158=2.050845e-01
2160=3.382149e-03
2161=6.302533e-01
2170=-1.768407e+00
2171=5.940783e-02
2174=1.287327e+00
2181=1.804510e+00
2190=-1.406073e-01
2191=1.998836e+00
2241=1.069206e-01
2242=8.621402e-03
2251=-1.086992e-01
2253=3.610673e-02
2255=-5.230495e-02
2257=7.612615e-02
2260=-1.086992e-01
2262=3.610673e-02
2264=-5.230495e-02
2266=7.612615e-02
2271=5.257381e-02
2282=-4.499453e-03
2286=-1.550034e-01
2287=2.411964e-02
2289=-4.135988e-03
2290=4.632574e-02
2325=2.173854e+00
2385=1.620677e-01
2386=-1.170830e-02
2388=-3.129688e-01
2389=1.493906e+00
2399=1.272402e-01
2408=1.291157e-01
2415=5.028124e-01
2424=7.528443e-03
2433=7.528443e-03
2442=1.880256e-02
2448=3.672291e-01
2449=-1.444545e-01
2451=2.119836e-01
2452=-3.580438e-02
2460=1.880256e-02
2469=4.854665e-03
2475=3.672291e-01
2476=-1.444545e-01
2478=2.119836e-01
2479=-3.580438e-02
2487=1.380177e-02
2488=-1.794158e-04
2494=-2.017312e-01
2498=-2.040213e-02
2500=1.671373e-01
2501=2.133888e-01
2503=-3.874688e-02
2507=2.287859e-01
2511=3.672291e-01
2512=-1.444545e-01
2514=2.119836e-01
2515=-3.580438e-02
2523=6.773469e-01
2530=-1.081596e-01
2534=2.720918e-01
2537=1.983430e-02
2543=1.644267e-01
2548=-3.217974e-03
2552=1.802991e-01
2557=-5.189374e-02
2559=5.612343e-06
2560=2.460080e-01
2569=5.352473e-02
2575=-5.094244e-01
2577=7.844439e-02
2584=-6.309381e-02
2596=9.240003e-02
2605=3.935233e-02
2611=-3.828164e-03
2613=2.555227e-02
2614=1.739002e-01
2620=-3.828164e-03
2622=2.555227e-02
2623=1.739002e-01
2629=-3.828164e-03
2631=2.555227e-02
2632=1.739002e-01
2640=-6.995755e-02
2641=4.483410e-01
2647=-3.828164e-03
2649=2.555227e-02
2650=1.739002e-01
2658=-6.995755e-02
2659=4.483410e-01
2665=-3.828164e-03
2667=2.555227e-02
2668=1.739002e-01
2674=-3.828164e-03
2676=2.555227e-02
2677=1.739002e-01
2683=-3.828164e-03
2685=2.555227e-02
2686=1.739002e-01
2692=-3.828164e-03
2694=2.555227e-02
2695=1.739002e-01
2701=-3.828164e-03
2703=2.555227e-02
2704=1.739002e-01
2710=-3.828164e-03
2712=2.555227e-02
2713=1.739002e-01
2719=-3.828164e-03
2721=2.555227e-02
2722=1.739002e-01
2728=-3.828164e-03
2730=2.555227e-02
2731=1.739002e-01
2737=-3.828164e-03
2739=2.555227e-02
2740=1.739002e-01
2749=4.772958e-01
2758=4.772958e-01
2764=-1.042398e-01
2768=2.413239e-03
2773=-6.321424e-02
2775=-2.250893e-03
2780=1.292832e-02
2782=-1.042398e-01
2786=2.413239e-03
2791=-1.083499e-02
2798=8.232055e-03
2799=-1.671853e-01
2800=6.355743e-02
2807=1.167417e-01
2808=-6.633659e-03
2809=2.060241e-02
2817=-1.671853e-01
2818=6.355743e-02
2825=1.167417e-01
2834=8.601989e-03
2835=-6.633659e-03
2836=2.060241e-02
2844=-6.264221e-03
2845=1.989741e-02
2854=1.569523e-01
2862=-6.633659e-03
2863=2.060241e-02
2872=9.647437e-02
2885=1.294580e-01
2894=1.294580e-01
2903=1.355659e-01
2908=3.257409e-02
2921=1.294580e-01
2925=3.169065e-01
2926=-1.296937e-02
2935=-9.506294e-04
2948=2.006194e-01
2953=-9.506294e-04
2962=-6.201281e-03
2966=2.064236e-01
2970=3.731936e-02
2980=9.603139e-02
2989=9.603139e-02
2997=1.505520e-01
3007=9.603139e-02
3015=8.997124e-04
3016=-1.947857e-02
3024=-5.419948e-02
3025=1.032968e-01
3029=-8.554879e-03
3034=-2.268773e-02
3042=8.297181e-02
3045=6.235180e-03
3054=1.656271e-01
3055=-6.499669e-02
3063=1.656271e-01
3064=-6.499669e-02
3069=-6.077340e-02
3070=1.034228e-01
3074=-7.882011e-03
3079=3.584549e-02
3083=8.279749e-06
3087=2.880798e-02
3099=1.656271e-01
3100=-6.499669e-02
3105=-6.515309e-02
3106=9.077526e-02
3110=1.830232e-04
3114=4.200640e-03
3123=3.931345e-02
3133=5.920582e-02
3137=-8.414883e-04
3142=-2.357503e-02
3151=8.263695e-01
3191=1.239684e-01
3221=2.139288e-01
3223=-5.169446e-03
3227=-6.566489e-04
3236=1.055021e-03
3245=2.045238e-03
3250=1.785492e-01
3259=8.711780e-04
3263=1.381991e-01
3268=7.965943e-02
3276=2.048190e+00
3277=-1.718608e-01
3290=2.084612e-01
3295=-2.261779e-02
3299=-5.180151e-02
3301=1.214828e-03
3302=1.903391e-01
3304=-1.084784e-01
3308=1.293415e-03
3313=4.551323e-02
3329=9.539695e-03
3331=-2.108264e-02
3347=9.315129e-03
3349=-4.572377e-02
3358=-4.572377e-02
3367=-2.309518e-01
3374=7.292577e-03
3380=6.094202e-02
3385=-8.697475e-02
3387=1.151293e-01
3396=2.696268e-01
3405=5.880412e-02
3406=6.663769e-02
3414=3.444735e-02
3423=-4.517162e-02
3424=1.275862e-02
3425=-2.773048e-02
3427=6.836592e-02
3429=-7.901651e-02
3438=-8.028007e-02
3447=-7.981647e-02
3475=1.238584e+00
3547=-2.631928e-01
3551=-1.130503e-02
3552=1.019422e+00
3554=6.894055e-03
3560=2.384300e-01
3571=7.861180e-01
3579=3.014316e-01
3633=1.554921e+00
3643=1.070417e+00
3652=9.904238e-04
3723=1.041888e+00
3759=2.095037e-01
3763=1.134502e-01
3841=1.062132e+00
3868=2.738001e-01
3940=1.828165e-01
3944=4.037250e+00
3962=8.356529e-02
4043=1.360293e-01
4062=1.122105e-01
4071=1.122105e-01
4077=3.581052e-01
4086=3.966577e-01
4087=-2.084249e-01
4095=1.026775e+00
4096=-3.333003e-01
4104=3.176880e-01
4105=-1.114614e-01
4113=1.644682e-01
4114=4.328738e-03
4122=8.039053e-02
4123=5.468278e-02
4132=1.534217e-01
4144=1.713410e-02
4150=1.534217e-01
4163=9.056262e-02
4168=-1.446425e-01
4177=-1.446425e-01
4188=-1.382786e-03
4193=7.505622e-02
4195=-3.754278e-04
4204=-3.754278e-04
4213=-3.754278e-04
4221=3.386002e-01
4222=-1.825564e-02
4239=1.582016e-01
4320=8.408559e-03
4330=1.101421e-01
4338=6.965315e-02
4348=5.724684e-02
4356=6.965315e-02
4365=4.298507e-02
4374=8.690735e-02
4456=2.252070e-02
4465=2.252070e-02
4473=2.320819e-02
4474=-2.385124e-02
4476=1.259341e-02
4482=2.320819e-02
4483=-2.385124e-02
4485=1.259341e-02
4498=7.128916e-02
4501=-7.797466e-02
4505=2.005520e-01
4510=-7.797466e-02
4514=2.005520e-01
4519=-3.459069e-02
4523=1.198341e-01
4528=-8.122917e-02
4532=2.491548e-01
4615=1.230718e-01
4631=4.528016e-02
4640=5.515825e-02
4648=9.142323e-02
4656=-1.750083e-01
4657=4.926159e-01
4665=-1.752630e-01
4666=4.919225e-01
4674=-1.644831e-01
4675=4.650194e-01
4684=1.515391e-01
4690=-8.493919e-02
4694=-7.675525e-02
4696=6.163418e-02
4703=-4.095773e-02
4705=4.960117e-02
4708=-1.540482e-02
4717=-1.540482e-02
4725=2.067372e-02
4726=-5.442972e-04
4734=1.656305e-02
4744=-8.437073e-02
4753=-8.437073e-02
4762=-8.437073e-02
4770=5.137942e-02
4779=1.105908e-01
4780=-3.394754e-02
4791=-1.205014e-03
4792=1.876900e-02
4801=1.819959e-02
4809=-1.205014e-03
4810=1.876900e-02
4818=-1.205014e-03
4819=1.876900e-02
4827=-1.205014e-03
4828=1.876900e-02
4836=-1.403609e-01
4837=2.131642e-01
4845=-1.345996e-01
4846=2.165404e-01
4855=1.805765e-02
4860=1.356648e-02
4861=-1.715236e-01
4870=-6.510941e-02
4874=6.802889e-02
4879=1.928499e-02
4890=-9.892418e-02
4891=1.396737e-01
4903=9.729085e-02
4912=8.826725e-02
4919=9.389971e-02
4924=-9.085499e-02
4928=2.975476e-01
4933=-8.108934e-02
4937=1.493878e-01
4942=-7.381614e-02
4946=1.886976e-01
4951=-6.386248e-02
4955=1.727823e-01
4964=1.537081e-01
4975=9.879854e-02
4977=3.634146e-05
4978=-6.785025e-02
4989=-2.626518e-02
4990=1.510986e-01
4998=-2.626518e-02
4999=1.510986e-01
5007=-2.626518e-02
5008=1.510986e-01
5016=-2.626518e-02
5017=1.510986e-01
5029=9.958687e-02
5031=2.177038e-02
5032=-1.480274e-02
5040=2.177038e-02
5041=-1.480274e-02
5049=2.177038e-02
5050=-1.480274e-02
5058=2.177038e-02
5059=-1.480274e-02
5067=2.177038e-02
5068=-1.480274e-02
5083=9.993745e-02
5092=9.993745e-02
5101=9.993745e-02
5110=9.993745e-02
5119=9.993745e-02
5128=9.993745e-02
5138=1.006869e-01
5147=1.006869e-01
5156=1.006869e-01
5165=1.006869e-01
5174=5.308448e-03
5183=5.308448e-03
5192=5.758616e-03
