#mdl#2#1419
#rdr#61/19/0
1:*,
18:u:Tok-1 X=%x[ 0,0],
18:u:tok-1 X=%x[ 0,1],
18:u:tok-1LL=%X[-2,0],
18:u:tok-1 L=%X[-1,0],
18:u:tok-1 R=%X[ 1,0],
18:u:tok-1RR=%X[ 2,0],
27:u:tok-2 L=%X[-1,0]/%X[ 0,0],
27:u:tok-2 R=%X[ 0,0]/%X[ 1,0],
18:*:Fst-1 X=%x[ 0,2],
18:u:Fst-1 R=%x[ 1,2],
27:u:Fst-2 X=%x[ 0,2]/%x[ 0,4],
27:u:Fst-2 R=%x[ 1,2]/%x[ 1,4],
18:*:Lst-1 L=%x[-1,3],
18:u:Lst-1 X=%x[ 0,3],
27:u:Lst-2 L=%x[-1,3]/%x[-1,6],
27:u:Lst-2 X=%x[ 0,3]/%x[ 0,6],
18:u:Pre-1 X=%x[ 0,4],
18:u:Pre-2 X=%x[ 0,5],
18:u:Pre-2 R=%x[ 1,5],
18:u:Suf-1 X=%x[ 0,6],
18:u:Suf-2 L=%x[-1,7],
18:u:Suf-2 X=%x[ 0,7],
18:u:Cap-1 L=%x[-1,8],
18:u:Cap-1 X=%x[ 0,8],
18:u:Cap-1 R=%x[ 1,8],
27:u:Cap-2 L=%x[-1,8]/%x[ 0,8],
27:u:Cap-2 R=%x[ 0,8]/%x[ 1,8],
28:u:Cap-3 L=%x[-1,18]/%x[ 0,8],
18:*:Num-1 L=%x[-1,9],
18:*:Num-1 X=%x[ 0,9],
18:u:Num-1 R=%x[ 1,9],
28:u:Num-2 R=%x[ 0,9]/%x[ 0,17],
28:u:Num-2 R=%x[ 0,9]/%x[ 0,18],
19:u:Nme-1 X=%x[ 0,10],
19:u:Loc-1 X=%x[ 0,11],
19:u:Pub-1 X=%x[ 0,12],
19:u:Jnl-1 X=%x[ 0,13],
19:u:Key-1 L=%x[-1,14],
19:u:Key-1 X=%x[ 0,14],
19:u:Key-1 R=%x[ 1,14],
28:u:Key-2 X=%x[ 0,14]/%x[ 0,8],
29:u:Key-3 L=%x[-1,18]/%x[ 0,14],
29:u:Key-3 x=%x[ 0,14]/%x[ 0,18],
19:u:Pos-1 X=%x[ 0,15],
29:u:Pos-2 L=%x[-1,15]/%x[ 0,15],
29:u:Pos-2 R=%x[ 0,15]/%x[ 1,15],
19:u:Pct-1 L=%x[-1,16],
19:u:Pct-1 X=%x[ 0,16],
19:u:Pct-1 R=%x[ 1,16],
19:u:Brk-1 L=%x[-1,17],
19:u:Brk-1 X=%x[ 0,17],
19:u:Brk-1 R=%x[ 1,17],
19:*:Tmn-1 L=%x[-1,18],
19:u:Tmn-1 X=%x[ 0,18],
19:u:Tmn-1 R=%x[ 1,18],
29:u:Tmn-2 L=%x[-1,14]/%x[ 0,18],
29:u:Tmn-2 R=%x[ 0,18]/%x[ 1,14],
28:u:Tmn-3 X=%x[ 0,18]/%x[ 0,6],
28:u:Tmn-4 R=%x[ 0,18]/%x[ 1,8],
19:u:Id--1 X=%x[ 0,19],
#qrk#8
6:author,
5:title,
4:date,
9:publisher,
15:container-title,
6:volume,
5:issue,
5:pages,
#qrk#637
1:*,
14:u:tok-1LL=_x-2,
14:u:tok-1 L=_x-1,
13:u:tok-1RR=the,
12:*:Fst-1 X=Lu,
12:u:Fst-1 R=Lu,
14:u:Fst-2 X=Lu/A,
14:u:Fst-2 R=Lu/D,
14:*:Lst-1 L=_x-1,
11:u:Lst-1 X=P,
19:u:Lst-2 L=_x-1/_x-1,
13:u:Lst-2 X=P/,,
11:u:Pre-1 X=A,
11:u:Suf-1 X=,,
14:u:Suf-2 L=_x-1,
14:u:Cap-1 L=_x-1,
17:u:Cap-1 X=initial,
16:u:Cap-1 R=single,
22:u:Cap-2 L=_x-1/initial,
24:u:Cap-2 R=initial/single,
22:u:Cap-3 L=_x-1/initial,
14:*:Num-1 L=_x-1,
14:*:Num-1 X=none,
19:u:Num-2 R=none/none,
19:u:Num-2 R=none/weak,
11:u:Nme-1 X=T,
11:u:Loc-1 X=F,
11:u:Pub-1 X=F,
11:u:Jnl-1 X=F,
14:u:Key-1 L=_x-1,
14:u:Key-1 X=none,
14:u:Key-1 R=none,
22:u:Key-2 X=none/initial,
19:u:Key-3 L=_x-1/none,
19:u:Key-3 x=none/weak,
15:u:Pos-1 X=first,
20:u:Pos-2 L=_x-1/first,
14:u:Pct-1 L=_x-1,
15:u:Pct-1 X=other,
16:u:Pct-1 R=period,
14:u:Brk-1 L=_x-1,
14:u:Brk-1 X=none,
14:u:Brk-1 R=none,
14:*:Tmn-1 L=_x-1,
14:u:Tmn-1 X=weak,
16:u:Tmn-1 R=strong,
19:u:Tmn-2 L=_x-1/weak,
16:u:Tmn-3 X=weak/,,
21:u:Tmn-4 R=weak/single,
11:u:Id--1 X=F,
13:u:tok-1 R=the,
14:u:Fst-2 X=Lu/D,
11:*:Lst-1 L=P,
13:u:Lst-2 L=P/,,
13:u:Lst-2 X=P/.,
11:u:Pre-1 X=D,
11:u:Suf-1 X=.,
17:u:Cap-1 L=initial,
16:u:Cap-1 X=single,
17:u:Cap-1 R=initial,
24:u:Cap-2 L=initial/single,
14:*:Num-1 L=none,
15:*:Num-1 X=roman,
14:u:Num-1 R=none,
11:u:Nme-1 X=F,
14:u:Key-1 L=none,
21:u:Key-2 X=none/single,
19:u:Key-3 L=weak/none,
15:u:Pct-1 L=other,
16:u:Pct-1 X=period,
14:u:Pct-1 R=none,
14:u:Brk-1 L=none,
14:*:Tmn-1 L=weak,
16:u:Tmn-1 X=strong,
14:u:Tmn-1 R=none,
21:u:Tmn-2 L=none/strong,
21:u:Tmn-2 R=strong/none,
18:u:Tmn-3 X=strong/.,
13:u:Tok-1 X=The,
13:u:tok-1 X=the,
14:u:Fst-2 X=Lu/T,
14:u:Fst-2 R=Lu/R,
12:u:Lst-1 X=Ll,
13:u:Lst-2 L=P/.,
14:u:Lst-2 X=Ll/e,
11:u:Pre-1 X=T,
12:u:Pre-2 X=Th,
11:u:Suf-1 X=e,
12:u:Suf-2 X=he,
16:u:Cap-1 L=single,
24:u:Cap-2 L=single/initial,
25:u:Cap-2 R=initial/initial,
24:u:Cap-3 L=strong/initial,
11:u:Pub-1 X=T,
11:u:Jnl-1 X=T,
21:u:Key-3 L=strong/none,
19:u:Key-3 x=none/none,
11:u:Pos-1 X=1,
13:u:Pos-2 R=1/1,
16:u:Pct-1 L=period,
14:u:Pct-1 X=none,
16:*:Tmn-1 L=strong,
14:u:Tmn-1 X=none,
19:u:Tmn-2 L=none/none,
19:u:Tmn-2 R=none/none,
16:u:Tmn-3 X=none/e,
22:u:Tmn-4 R=none/initial,
13:u:tok-1 L=the,
12:u:tok-1RR=of,
14:u:Fst-2 R=Lu/W,
12:*:Lst-1 L=Ll,
14:u:Lst-2 L=Ll/e,
14:u:Lst-2 X=Ll/n,
12:u:Pre-2 X=Ru,
11:u:Suf-1 X=n,
12:u:Suf-2 L=he,
12:u:Suf-2 X=an,
25:u:Cap-2 L=initial/initial,
22:u:Cap-3 L=none/initial,
19:u:Key-3 L=none/none,
13:u:Pos-2 L=1/1,
13:u:Pos-2 R=1/2,
14:u:Pct-1 L=none,
14:*:Tmn-1 L=none,
16:u:Tmn-3 X=none/n,
13:u:tok-1LL=the,
12:u:tok-1 R=of,
12:u:Fst-1 R=Ll,
14:u:Fst-2 X=Lu/W,
14:u:Fst-2 R=Ll/o,
14:u:Lst-2 L=Ll/n,
14:u:Lst-2 X=Ll/y,
11:u:Pre-1 X=W,
12:u:Pre-2 R=of,
11:u:Suf-1 X=y,
15:u:Cap-1 R=lower,
23:u:Cap-2 R=initial/lower,
11:u:Pos-1 X=2,
13:u:Pos-2 L=1/2,
13:u:Pos-2 R=2/2,
16:u:Tmn-3 X=none/y,
20:u:Tmn-4 R=none/lower,
12:u:Tok-1 X=of,
12:u:tok-1 X=of,
19:u:tok-1RR=strategic,
12:*:Fst-1 X=Ll,
14:u:Fst-2 X=Ll/o,
14:u:Lst-2 L=Ll/y,
14:u:Lst-2 X=Ll/f,
11:u:Pre-1 X=o,
12:u:Pre-2 X=of,
11:u:Suf-1 X=f,
12:u:Suf-2 X=of,
15:u:Cap-1 X=lower,
23:u:Cap-2 L=initial/lower,
23:u:Cap-2 R=lower/initial,
20:u:Cap-3 L=none/lower,
20:u:Key-2 X=none/lower,
15:u:Pct-1 R=colon,
18:u:Tmn-1 R=moderate,
16:u:Tmn-3 X=none/f,
12:u:tok-1 L=of,
14:u:Fst-2 R=Lu/S,
14:u:Lst-2 L=Ll/f,
13:u:Lst-2 X=P/:,
12:u:Pre-2 X=De,
11:u:Suf-1 X=:,
12:u:Suf-2 L=of,
12:u:Suf-2 X=e:,
15:u:Cap-1 L=lower,
23:u:Cap-2 L=lower/initial,
23:u:Num-2 R=none/moderate,
23:u:Key-3 x=none/moderate,
11:u:Pos-1 X=3,
13:u:Pos-2 L=2/3,
13:u:Pos-2 R=3/3,
15:u:Pct-1 X=colon,
18:u:Tmn-1 X=moderate,
23:u:Tmn-2 L=none/moderate,
23:u:Tmn-2 R=moderate/none,
20:u:Tmn-3 X=moderate/:,
26:u:Tmn-4 R=moderate/initial,
11:u:Id--1 X=T,
12:u:tok-1LL=of,
14:u:Fst-2 X=Lu/S,
14:u:Fst-2 R=Lu/C,
13:u:Lst-2 L=P/:,
11:u:Pre-1 X=S,
12:u:Pre-2 X=St,
26:u:Cap-3 L=moderate/initial,
23:u:Key-3 L=moderate/none,
15:u:Pct-1 L=colon,
15:u:Pct-1 R=other,
18:*:Tmn-1 L=moderate,
14:u:Tmn-1 R=weak,
13:u:tok-1RR=and,
14:u:Fst-2 X=Lu/C,
14:u:Lst-2 L=Ll/c,
11:u:Pre-1 X=C,
12:u:Pre-2 R=Co,
12:u:Suf-2 L=ic,
11:u:Pos-1 X=4,
13:u:Pos-2 L=3/4,
13:u:Pos-2 R=4/4,
19:u:Tmn-2 L=none/weak,
19:u:tok-1LL=strategic,
13:u:tok-1 R=and,
14:u:Fst-2 R=Ll/a,
12:u:Pre-2 X=Co,
12:u:Pre-2 R=an,
22:u:Cap-3 L=weak/initial,
13:u:Key-1 R=and,
13:u:Pos-2 L=4/4,
13:u:Pos-2 R=4/5,
18:u:Tmn-2 R=weak/and,
20:u:Tmn-4 R=weak/lower,
13:u:Tok-1 X=and,
13:u:tok-1 X=and,
14:u:Fst-2 X=Ll/a,
14:u:Lst-2 X=Ll/d,
11:u:Pre-1 X=a,
12:u:Pre-2 X=an,
11:u:Suf-1 X=d,
12:u:Suf-2 X=nd,
20:u:Cap-3 L=weak/lower,
13:u:Key-1 X=and,
19:u:Key-2 X=and/lower,
18:u:Key-3 L=weak/and,
18:u:Key-3 x=and/none,
11:u:Pos-1 X=5,
13:u:Pos-2 L=4/5,
13:u:Pos-2 R=5/5,
16:u:Tmn-3 X=none/d,
13:u:tok-1 X=war,
13:u:tok-1 L=and,
11:u:Fst-1 R=N,
13:u:Fst-2 R=N/2,
14:u:Lst-2 L=Ll/d,
13:u:Lst-2 X=P/',
12:u:Pre-2 R=20,
11:u:Suf-1 X=',
12:u:Suf-2 L=nd,
15:u:Cap-1 R=other,
23:u:Cap-2 R=initial/other,
14:u:Num-1 R=year,
13:u:Key-1 L=and,
13:u:Pos-2 L=5/5,
13:u:Pos-2 R=5/6,
20:u:Tmn-3 X=moderate/',
13:u:tok-1LL=and,
11:*:Fst-1 X=N,
13:u:Fst-2 X=N/2,
11:u:Lst-1 X=N,
13:u:Lst-2 L=P/',
11:u:Pre-1 X=2,
12:u:Pre-2 X=20,
15:u:Cap-1 X=other,
23:u:Cap-2 L=initial/other,
14:*:Num-1 X=year,
19:u:Num-2 R=year/none,
20:u:Key-2 X=none/other,
11:u:Pos-1 X=6,
13:u:Pos-2 L=5/6,
13:u:Pos-2 R=6/6,
11:*:Lst-1 L=N,
15:u:Cap-1 L=other,
14:*:Num-1 L=year,
13:u:Pos-2 L=6/6,
13:u:Pos-2 R=6/7,
11:u:Pos-1 X=7,
13:u:Pos-2 L=6/7,
13:u:Pos-2 R=7/7,
13:u:Pos-2 L=7/7,
13:u:Pos-2 R=7/8,
11:u:Pos-1 X=8,
13:u:Pos-2 L=7/8,
13:u:Pos-2 R=8/8,
13:u:Pos-2 L=8/8,
14:u:Fst-2 R=Lu/U,
11:u:Loc-1 X=T,
11:u:Pos-1 X=9,
13:u:Pos-2 R=9/9,
14:u:tok-1RR=_x+1,
14:u:Fst-2 R=Lu/P,
12:u:Pre-2 R=Pr,
13:u:Pos-2 L=9/9,
14:u:tok-1 R=_x+1,
14:u:tok-1RR=_x+2,
14:u:Fst-1 R=_x+1,
14:u:Fst-2 X=Lu/P,
19:u:Fst-2 R=_x+1/_x+1,
14:u:Lst-2 X=Ll/s,
11:u:Pre-1 X=P,
12:u:Pre-2 X=Pr,
14:u:Pre-2 R=_x+1,
11:u:Suf-1 X=s,
12:u:Suf-2 L=ty,
14:u:Cap-1 R=_x+1,
22:u:Cap-2 R=initial/_x+1,
14:u:Num-1 R=_x+1,
14:u:Key-1 R=_x+1,
14:u:Pos-1 X=last,
19:u:Pos-2 R=last/_x+1,
14:u:Pct-1 R=_x+1,
14:u:Brk-1 R=_x+1,
14:u:Tmn-1 R=_x+1,
19:u:Tmn-2 R=none/_x+1,
16:u:Tmn-3 X=none/s,
19:u:Tmn-4 R=none/_x+1,
14:u:Cap-1 R=caps,
22:u:Cap-2 R=initial/caps,
18:u:Tok-1 X=Economic,
18:u:tok-1 X=economic,
14:u:Cap-1 L=caps,
22:u:Cap-2 L=caps/initial,
18:u:tok-1 L=economic,
14:u:Fst-2 R=Lu/N,
14:u:Lst-2 X=Ll/w,
11:u:Suf-1 X=w,
16:u:Tmn-3 X=none/w,
20:u:Tmn-4 R=none/other,
12:u:Suf-2 L=on,
20:u:Cap-3 L=none/other,
21:u:Num-2 R=none/strong,
14:u:Fst-2 R=Ll/b,
14:u:Lst-2 X=Ll/t,
11:u:Suf-1 X=t,
16:u:Tmn-3 X=none/t,
14:u:Lst-2 L=Ll/t,
12:u:Suf-2 X=nt,
12:u:Suf-2 L=nt,
14:u:Fst-2 X=Lu/M,
11:u:Pre-1 X=M,
12:u:Suf-2 X=in,
12:u:Pre-2 X=Re,
12:u:Pre-2 X=Do,
14:u:Fst-2 R=Lu/I,
14:u:Fst-2 X=Lu/I,
11:u:Pre-1 X=I,
12:u:Pre-2 R=In,
14:u:Lst-2 X=Ll/l,
12:u:Pre-2 X=In,
11:u:Suf-1 X=l,
12:u:Suf-2 X=al,
16:u:Tmn-3 X=none/l,
14:u:Lst-2 L=Ll/l,
12:u:Suf-2 L=al,
12:u:Suf-2 X=ce,
12:u:Suf-2 L=ce,
14:u:Fst-2 X=Lu/K,
11:u:Pre-1 X=K,
12:u:Pre-2 R=Kn,
14:u:Lst-2 L=Ll/s,
14:u:Lst-2 X=Ll/r,
12:u:Pre-2 X=Kn,
11:u:Suf-1 X=r,
16:u:Tmn-3 X=none/r,
13:u:Fst-2 X=N/1,
13:u:Lst-2 X=N/2,
11:u:Pre-1 X=1,
12:u:Pre-2 X=19,
12:u:Pre-2 R=Po,
11:u:Suf-1 X=2,
16:u:Tmn-3 X=none/2,
12:u:Pre-2 X=Po,
12:u:Pre-2 R=Se,
12:u:Pre-2 X=Se,
14:u:Lst-2 X=Ll/g,
11:u:Suf-1 X=g,
12:u:Suf-2 X=ng,
16:u:Tmn-3 X=none/g,
15:u:tok-1 X=cyber,
14:u:Lst-2 L=Ll/g,
12:u:Pre-2 X=Cy,
12:u:Suf-2 L=ng,
12:u:Suf-2 X=er,
15:u:tok-1 L=cyber,
12:u:Suf-2 L=er,
15:u:tok-1LL=cyber,
12:u:Suf-2 X=ed,
14:u:Lst-2 X=Ll/m,
11:u:Suf-1 X=m,
12:u:Suf-2 L=ed,
12:u:Suf-2 X=em,
16:u:Tmn-3 X=none/m,
21:u:Cap-2 R=other/other,
16:*:Num-1 X=double,
21:u:Num-2 R=double/none,
11:u:tok-1 X=1,
21:u:Cap-2 L=other/other,
16:*:Num-1 L=double,
16:*:Num-1 X=single,
15:u:Num-1 R=range,
21:u:Num-2 R=single/none,
16:u:Pct-1 R=hyphen,
16:*:Num-1 L=single,
20:u:Num-2 R=range/none,
16:u:Pct-1 X=hyphen,
20:u:Cap-2 R=other/_x+1,
15:*:Num-1 L=range,
16:u:Pct-1 L=hyphen,
14:u:Fst-2 X=Lu/J,
11:u:Pre-1 X=J,
21:u:Cap-2 R=lower/lower,
21:u:Cap-2 L=lower/lower,
14:u:Fst-2 R=Ll/i,
12:u:Suf-2 X=t,,
23:u:tok-1RR=international,
14:u:Fst-2 X=Ll/i,
11:u:Pre-1 X=i,
12:u:Suf-2 L=t,,
23:u:tok-1 R=international,
23:u:tok-1 X=international,
18:u:Tmn-2 L=and/none,
23:u:tok-1 L=international,
23:u:tok-1LL=international,
12:u:Suf-2 X=es,
12:u:Suf-2 L=es,
14:u:Fst-2 X=Lu/L,
11:u:Pre-1 X=L,
12:u:tok-1RR=in,
12:u:tok-1 L=in,
12:u:Key-1 L=in,
12:u:tok-1LL=in,
13:u:Fst-2 X=N/3,
11:u:Pre-1 X=3,
12:u:Pre-2 R=Na,
18:u:Tmn-2 R=none/and,
18:u:Key-3 L=none/and,
14:u:Fst-2 R=Lu/H,
14:u:Fst-2 X=Lu/H,
11:u:Pre-1 X=H,
12:u:Tok-1 X=on,
12:u:tok-1 X=on,
12:u:Pre-2 X=on,
12:u:Suf-2 X=ar,
12:u:Suf-2 L=ar,
12:u:Pre-2 X=Ca,
12:u:Pre-2 R=Af,
12:u:Suf-2 X=rs,
14:u:Fst-2 R=Lu/V,
14:u:Fst-2 R=Ll/w,
14:u:Fst-2 X=Ll/w,
11:u:Pre-1 X=w,
12:u:Pre-2 R=Tr,
12:u:Pre-2 X=Tr,
11:u:tok-1 R=2,
11:u:Pre-2 R=2,
12:u:Pre-2 R=Pa,
12:u:Pre-2 X=Pa,
16:u:tok-1RR=future,
14:u:Fst-2 X=Lu/F,
11:u:Pre-1 X=F,
14:u:Fst-2 R=Ll/t,
12:u:Pre-2 R=th,
13:u:Tok-1 X=the,
14:u:Fst-2 X=Ll/t,
11:u:Pre-1 X=t,
12:u:Pre-2 X=th,
11:u:tok-1RR=a,
11:u:tok-1 R=a,
11:u:tok-1 X=a,
14:u:Lst-2 X=Ll/a,
11:u:Suf-1 X=a,
16:u:Tmn-3 X=none/a,
11:u:tok-1 L=a,
14:u:Lst-2 L=Ll/a,
11:u:tok-1 X=j,
18:u:Tok-1 X=Control:,
17:u:tok-1 X=control,
20:u:tok-1LL=liberation,
12:u:tok-1 L=vs,
21:u:tok-2 L=vs/control:,
22:u:tok-2 R=control:/the,
12:u:Suf-2 L=vs,
12:u:Suf-2 X=l:,
11:u:Fst-1 R=P,
13:u:Fst-2 R=P/*,
12:u:Suf-2 X=".,
17:u:Key-1 R=journal,
11:*:Fst-1 X=P,
13:u:Fst-2 X=P/*,
11:u:Pre-1 X=*,
19:u:tok-1 X=democracy,
13:u:Lst-2 X=P/*,
11:u:Suf-1 X=*,
16:u:Tmn-3 X=none/*,
12:u:Suf-2 L=r:,
13:u:tok-1RR=how,
12:u:Suf-2 X=ow,
16:u:tok-1RR=policy,
17:u:Tok-1 X=Foreign,
17:u:tok-1 X=foreign,
12:u:Pre-2 X=Fo,
12:u:Suf-2 X=gn,
22:u:Tmn-2 R=none/journal,
13:u:Lst-2 X=N/5,
11:u:Suf-1 X=5,
16:u:Tmn-3 X=none/5,
12:u:Lst-1 X=Lu,
14:u:Lst-2 X=Lu/A,
11:u:Suf-1 X=A,
23:u:Cap-2 L=single/single,
16:u:Tmn-3 X=none/A,
12:*:Lst-1 L=Lu,
14:u:Lst-2 L=Lu/A,
12:u:Pre-2 R=US,
19:u:Tmn-4 R=none/caps,
18:u:tok-1RR=politics,
12:u:Suf-2 X=ry,
16:*:Num-1 X=triple,
21:u:Num-2 R=triple/none,
12:u:Pre-2 X=Wo,
12:u:Pre-2 X=Pe,
16:u:tok-1LL=threat,
12:u:Suf-2 X=ll,
13:u:Lst-2 L=P/?,
12:u:tok-1 R=us,
11:u:Tok-1 X=A,
11:u:Pre-2 X=A,
11:u:Suf-2 X=A,
21:u:Tmn-4 R=none/single,
21:u:Cap-3 L=none/single,
11:u:tok-1 L=t,
14:u:Lst-2 L=Lu/T,
11:u:Suf-2 L=T,
14:u:Tok-1 X=Part,
14:u:tok-1 X=part,
12:u:tok-1LL=36,
12:u:tok-1 L=1,,
19:u:tok-1RR=453–486,
17:u:tok-2 L=1,/part,
16:u:tok-2 R=part/2,
12:u:Suf-2 L=1,,
12:u:Suf-2 X=rt,
17:*:Num-1 L=numeric,
12:u:Pre-2 R=be,
12:u:Pre-2 R=wa,
12:u:Suf-2 L=ct,
12:u:Pre-2 X=wa,
12:u:Pre-2 X=He,
14:u:Tok-1 X=Know,
14:u:tok-1 X=know,
12:u:tok-1 L=do,
14:u:tok-1RR=hill,
17:u:tok-2 L=do/know,
18:u:tok-2 R=know/the,
12:u:Suf-2 L=Do,
12:u:tok-1LL=do,
14:u:tok-1 L=know,
14:u:tok-1 R=hill,
20:u:tok-1RR=2017-11-01,
18:u:tok-2 L=know/the,
18:u:tok-2 R=the/hill,
14:u:Tok-1 X=Rand,
14:u:tok-1 X=rand,
15:u:tok-1LL=j.the,
16:u:tok-1 L=advent,
21:u:tok-1 R=corporation,
17:u:tok-1RR=deibert,
21:u:tok-2 L=advent/rand,
26:u:tok-2 R=rand/corporation,
12:u:Pre-2 X=Ra,
11:u:tok-1RR=j,
11:u:tok-1 R=j,
13:u:tok-1RR=int,
11:u:Pre-2 R=J,
11:u:Tok-1 X=J,
14:u:Lst-2 X=Lu/J,
11:u:Pre-2 X=J,
11:u:Suf-1 X=J,
11:u:Suf-2 X=J,
16:u:Tmn-3 X=none/J,
13:u:Tok-1 X=Int,
13:u:tok-1 X=int,
13:u:tok-1 R=war,
13:u:Tok-1 X=war,
13:u:tok-1 L=war,
16:u:Tok-1 X=System,
16:u:tok-1 X=system,
13:u:tok-1RR=sec,
30:u:tok-2 L=international/system,
20:u:tok-2 R=system/int,
12:u:Pre-2 X=Sy,
16:*:Num-1 X=volume,
21:u:Num-2 R=volume/none,
16:*:Num-1 L=volume,
12:u:Suf-2 L=s?,
19:u:tok-1 L=inflation,
14:u:tok-1 L=iraq,
18:u:tok-2 L=iraq/war,
14:u:Lst-2 L=Ll/q,
12:u:Suf-2 L=aq,
22:u:Cap-2 R=lower/single,
22:u:Cap-2 L=lower/single,
14:u:tok-1LL=warf,
16:u:Tok-1 X=Pegues,
16:u:tok-1 X=pegues,
21:u:tok-1 L=2005;12-25.,
28:u:tok-2 L=2005;12-25./pegues,
18:u:tok-2 R=pegues/j,
12:u:Suf-2 L=5.,
21:u:tok-1LL=2005;12-25.,
16:u:tok-1 L=pegues,
18:u:tok-2 L=pegues/j,
16:u:tok-2 R=j/2018,
18:u:Tok-1 X=American,
18:u:tok-1 X=american,
17:u:Tok-1 X=History,
17:u:tok-1 X=history,
18:u:tok-1LL=america:,
15:u:tok-1RR=naval,
19:u:tok-2 L=a/history,
20:u:tok-2 R=history/us,
17:u:Tok-1 X=Working,
17:u:tok-1 X=working,
14:u:tok-1LL=fake,
14:u:tok-1 L=news,
15:u:tok-1 R=paper,
16:u:tok-1RR=2017.2,
22:u:tok-2 L=news/working,
23:u:tok-2 R=working/paper,
12:u:Suf-2 L=ws,
16:u:tok-1 R=voting,
16:u:tok-1 X=voting,
16:u:tok-1 L=voting,
16:u:tok-1LL=voting,
28:u:tok-2 L=inflation/american,
26:u:tok-2 R=american/foreign,
17:u:tok-1LL=kousser,
25:u:tok-2 L=t/retrospective,
11:u:tok-1LL=t,
20:u:tok-2 R=voting/and,
18:u:tok-1RR=behavior,
20:u:tok-2 L=voting/and,
18:u:tok-1 R=behavior,
28:u:tok-2 R=strategic/behavior,
1=-4.742884e-02
2=-2.669221e-03
4=-1.211986e-03
5=-9.230489e-04
6=-1.323246e-04
7=-9.337562e-03
8=9.648952e-01
16=-6.866928e-01
17=4.536358e-01
18=1.471408e-02
19=-5.118052e-01
20=2.786459e-03
21=-8.848202e-01
22=-5.645683e-02
26=9.002435e-02
27=2.996821e-01
28=-6.851943e-01
30=-1.294213e-02
33=-2.861309e-01
35=7.081077e-01
36=-1.915641e-01
41=-8.379634e-01
42=-5.088137e-03
43=-2.595251e-01
44=6.244886e-01
45=1.523456e-01
46=-1.267377e-01
49=-1.939824e-01
50=-6.904683e-02
52=-3.099891e-01
53=1.004708e+00
54=2.548364e-01
58=-7.997553e-02
61=-3.303400e-01
62=1.243997e+00
63=5.076994e-01
66=3.307340e-01
72=8.083739e-02
80=8.083739e-02
89=1.582164e-01
92=-5.564052e-02
96=1.252390e-01
97=5.834074e-02
100=4.500794e-02
103=-6.594279e-03
104=1.173817e+00
112=-4.605902e-01
113=2.982988e-01
116=3.697825e-02
123=4.141504e-01
131=4.719255e-01
140=5.059075e-01
141=-2.046366e-01
149=6.117148e-01
158=8.623179e-02
168=1.883825e-01
169=-7.469600e-02
171=-1.537030e-02
172=5.583301e-03
177=3.871038e-04
185=2.702686e-02
192=8.083739e-02
264=-2.530717e-02
265=5.004218e-02
268=-4.485890e-02
272=8.083739e-02
281=3.623710e-02
284=-8.367296e-05
289=3.871038e-04
297=3.623710e-02
300=-8.367296e-05
304=8.083739e-02
312=8.083739e-02
320=-1.586474e-04
321=4.788979e-02
323=1.062208e-01
324=6.067268e-02
329=7.747251e-03
332=-8.701779e-02
336=8.083739e-02
348=-1.870034e-04
352=8.083739e-02
360=8.083739e-02
433=1.581101e-01
435=9.491110e-03
436=6.468551e-02
438=-9.980883e-02
440=6.122514e-01
448=-2.000367e-01
449=4.712046e-01
451=-3.726399e-01
452=6.784941e-04
459=8.431676e-01
465=-2.455970e-01
467=1.319786e+00
468=-1.517815e-01
473=-7.200608e-01
475=-5.063242e-02
476=6.684094e-01
477=-5.025297e-01
481=-9.402832e-02
484=-3.504960e-03
485=5.898291e-01
494=1.151571e-01
504=-3.096178e-03
505=3.113403e-01
506=-1.114855e+00
507=1.559729e-01
508=1.107134e-01
509=-1.225341e-04
510=-7.670479e-02
511=-1.002955e+00
513=2.340158e-02
516=-3.875651e-03
520=4.019198e-02
521=2.778755e-02
524=-9.949073e-02
528=-5.997455e-02
529=3.544619e-04
531=-3.351477e-02
532=1.878839e-02
533=-9.641174e-04
534=-8.635202e-05
535=-4.510003e-03
537=3.679661e-02
538=3.324654e-06
539=-3.339518e-01
540=-2.443351e-02
541=-4.016664e-04
544=1.526090e-01
545=3.061559e-02
546=1.873070e-03
547=-1.252047e-01
548=-1.400258e-01
549=6.361253e-02
550=-2.001412e-04
552=8.083739e-02
560=-3.217391e-03
561=2.812638e-02
563=7.243135e-03
564=-2.048121e-02
565=-2.126827e-04
567=-4.145289e-03
568=1.689003e-03
569=3.292637e-02
570=-4.706618e-02
571=-1.624725e-02
572=-7.081172e-02
576=-1.393454e-02
577=7.435157e-02
579=9.048149e-02
580=2.657131e-02
581=-2.902855e-01
584=8.083739e-02
593=4.413027e-02
596=-5.886902e-03
600=8.083739e-02
608=8.083739e-02
616=8.083739e-02
625=1.847386e-01
628=-7.212362e-03
632=2.529050e-02
633=-4.224945e-01
636=5.825057e-01
640=8.083739e-02
649=-3.438146e-02
650=-2.539015e-03
651=-2.533586e-04
652=1.777306e-03
653=-1.750480e-05
654=-5.811019e-05
655=-9.207653e-03
656=1.766943e-03
657=4.986540e-03
658=-8.955531e-02
659=-2.291756e-02
660=6.492365e-03
661=5.987251e-04
662=-3.607168e-05
663=-4.235416e-03
664=8.083739e-02
737=2.020871e-02
740=-1.056739e-02
745=-1.374373e-01
748=3.813271e-02
752=8.083739e-02
761=3.623710e-02
764=-8.367296e-05
768=1.455842e-02
777=1.981049e-03
779=8.893997e-03
780=1.287063e-04
781=-1.821127e-04
782=-9.606515e-05
783=-6.110912e-03
785=3.748444e-03
788=-6.875377e-03
793=5.136528e-01
796=-1.776918e-01
801=8.494054e-03
804=-8.784096e-03
809=2.227011e-01
817=4.448406e-02
818=7.716818e-02
835=1.713890e-01
842=-1.755336e-02
844=1.892208e-02
862=8.568734e-02
873=2.544639e-02
876=-1.103371e-01
881=-1.553918e-01
884=1.296128e-02
889=5.136528e-01
892=-1.776918e-01
897=-1.553918e-01
900=1.296128e-02
904=4.056087e-02
905=-3.643991e-02
908=-1.332386e-02
909=2.568742e-02
910=-2.043082e-01
913=-2.302870e-02
916=4.822582e-04
920=1.507830e-02
921=3.702095e-02
923=1.998756e-03
924=2.027157e-02
929=9.059568e-01
932=-1.581897e-01
936=-1.563324e-03
937=1.624874e-01
939=-3.339376e-03
940=1.058563e-01
942=-5.376311e-01
943=-6.397733e-01
944=1.020982e+00
952=-5.919425e-01
953=4.709225e-01
954=3.361014e-02
955=-3.960685e-01
957=-5.144520e-01
969=-2.399170e-01
971=1.346321e+00
972=-1.537637e-02
977=-4.708967e-01
979=-5.463946e-02
980=6.421155e-01
981=1.761667e-01
982=-4.420649e-02
998=6.852020e-02
1016=4.762572e-04
1080=8.353710e-04
1081=1.770837e-01
1083=-2.680533e-03
1084=6.599340e-03
1088=-4.364819e-03
1089=-3.668147e-02
1091=-4.395868e-02
1092=9.624667e-02
1093=-1.134450e-02
1094=-4.287128e-04
1096=-4.472369e-02
1097=1.261896e-02
1099=2.377175e-02
1100=3.442590e-03
1101=-2.405696e-04
1105=-2.136781e-02
1108=5.880222e-04
1112=4.056982e-02
1113=-1.298072e-03
1121=-1.348596e-01
1124=2.535677e-01
1128=6.053695e-02
1129=-4.052269e-01
1132=1.323663e-01
1136=-6.639830e-02
1137=1.001459e-01
1139=-2.815026e-03
1140=6.056552e-02
1141=8.692478e-03
1142=-3.545031e-01
1144=-4.701964e-02
1145=1.446122e-02
1147=8.553180e-03
1148=2.704604e-02
1149=-7.448381e-04
1150=-4.546083e-05
1151=-9.909343e-03
1152=3.738237e-02
1156=-2.775311e-02
1160=1.983502e+00
1161=-3.361968e-01
1169=1.597334e-01
1214=7.506025e-02
1225=-1.553918e-01
1228=1.296128e-02
1232=-3.695656e-02
1233=3.847339e-03
1234=-3.853020e-02
1235=-1.316288e-01
1236=2.950386e-02
1237=5.088483e-02
1241=-1.588084e-01
1249=-6.235699e-02
1257=-1.553918e-01
1260=1.296128e-02
1268=6.470757e-01
1273=1.435922e-03
1276=1.072555e-02
1284=2.065536e-02
1288=9.796464e-03
1296=-2.089619e-03
1297=1.423229e-01
1299=5.377618e-02
1300=7.136784e-02
1304=-2.026604e-01
1305=2.161149e-01
1308=-7.965661e-05
1312=-7.628677e-04
1313=5.149195e-02
1316=2.101724e-03
1324=2.065536e-02
1332=4.002679e-01
1336=-7.628677e-04
1337=5.149195e-02
1340=2.101724e-03
1348=6.506839e-03
1352=-3.770082e-02
1353=8.667194e-03
1356=2.881224e-02
1361=4.862952e-02
1368=-1.624208e-02
1369=3.268482e-02
1372=2.978477e-03
1376=-1.659938e-01
1377=3.892684e-01
1380=-1.189108e-02
1385=-1.773853e-02
1387=1.126755e-01
1388=5.487050e-03
1392=-1.574717e-01
1393=7.789746e-02
1395=9.405810e-02
1396=1.074369e-01
1397=-4.345526e-01
1400=-2.017536e-01
1401=3.686700e-01
1408=-6.864978e-02
1409=4.446200e-03
1411=-3.291522e-02
1412=-2.075586e-03
1413=-3.085761e-05
1416=3.110870e-01
1424=8.067241e-01
1425=-3.442314e-02
1432=-9.566347e-02
1433=1.098724e-01
1440=-1.411504e-01
1441=8.989492e-03
1442=1.101442e-01
1444=9.475255e-03
1445=2.552122e-01
1447=-6.910217e-02
1448=-2.026604e-01
1449=2.161149e-01
1452=-7.965661e-05
1456=-1.206932e-01
1457=1.582454e+00
1468=-1.488767e-01
1492=1.355135e-01
1501=2.172414e-02
1520=-1.168513e-01
1521=5.708483e-03
1523=-2.345716e-03
1524=2.413849e-02
1525=-5.038376e-04
1526=-1.558254e-04
1528=-1.090682e-01
1529=-2.924453e-02
1531=1.564680e-02
1533=-1.001915e-04
1536=-1.089230e-01
1537=4.154209e-02
1538=-1.514413e-02
1539=-1.597340e-02
1540=-5.040712e-03
1541=2.619143e-02
1544=-7.628677e-04
1545=5.149195e-02
1548=2.101724e-03
1553=3.607057e-02
1555=-3.551879e-03
1556=1.462803e-02
1557=-2.949480e-01
1561=6.933754e-02
1564=-9.692155e-03
1572=6.960975e-04
1577=3.937095e-03
1580=-6.250459e-04
1584=-4.790922e-03
1585=1.718563e-01
1588=2.243597e-02
1590=-3.031184e-01
1591=-1.256055e-01
1592=2.527016e-01
1601=4.241712e-01
1602=1.632930e-03
1604=-2.451690e-01
1619=2.321973e-01
1625=-7.951995e-02
1628=5.836036e-01
1629=1.990437e-01
1637=4.289117e-02
1646=4.987362e-02
1657=4.660977e-02
1664=1.215480e-01
1665=-1.851773e-02
1668=4.423396e-02
1676=-8.167148e-04
1680=1.215480e-01
1681=-1.851773e-02
1684=4.423396e-02
1689=2.817307e-02
1692=-5.260415e-03
1697=-1.059311e-01
1705=9.384567e-02
1708=5.432247e-03
1709=-6.719067e-01
1712=-4.381785e-05
1713=6.672741e-02
1715=1.109966e-01
1716=3.189347e-02
1718=-1.219454e-01
1720=-8.225831e-02
1721=1.330553e-02
1722=1.327866e-05
1723=3.123255e-02
1724=-4.398172e-02
1725=-1.057234e-03
1726=-5.727993e-06
1729=1.690167e-02
1737=3.130352e-01
1744=-1.353786e-01
1745=8.973494e-03
1747=4.814567e-02
1748=6.429561e-03
1749=-3.353968e-05
1750=-5.515308e-03
1752=-9.458928e-02
1753=1.380936e-03
1754=3.514097e-03
1755=2.624089e-02
1756=1.318309e-02
1757=7.476005e-03
1758=-3.467583e-03
1760=2.037694e-01
1769=3.846689e-01
1770=2.157962e-02
1771=-2.048322e-01
1772=5.299643e-03
1773=-7.266964e-02
1778=8.872666e-02
1779=4.239634e-01
1782=-3.062283e-02
1787=1.896076e-01
1793=-3.004443e-01
1795=-4.348705e-02
1796=5.900934e-01
1797=2.917895e-01
1798=-9.164325e-02
1802=-6.200337e-02
1805=4.275329e-01
1806=3.238520e-01
1813=-9.185229e-02
1814=1.014537e-01
1815=5.232822e-01
1818=3.849304e-01
1824=1.215480e-01
1825=-1.851773e-02
1828=4.423396e-02
1833=8.760017e-01
1836=-2.133786e-01
1841=-7.783515e-03
1844=2.455877e-02
1848=-8.573065e-02
1849=1.264774e-01
1852=4.253358e-02
1857=1.108087e-02
1860=-1.413830e-03
1865=-1.362436e-01
1868=1.515480e-01
1872=6.721119e-03
1873=-9.089825e-03
1876=3.826745e-02
1881=6.240547e-02
1884=-2.392667e-01
1889=1.108087e-02
1892=-1.413830e-03
1900=2.464700e-02
1905=6.240547e-02
1908=-2.392667e-01
1912=-8.927966e-02
1913=1.229230e-01
1916=4.422143e-02
1920=-4.524223e-02
1921=4.627974e-03
1924=5.959720e-02
1928=2.183758e-02
1929=4.829075e-01
1937=1.709370e-01
1944=9.338000e-03
1945=4.298925e-02
1953=6.240547e-02
1956=-2.392667e-01
1961=4.066999e-02
1964=4.445892e-02
1969=-1.698138e-04
1972=7.163233e-03
1977=-1.882918e-04
1980=3.481510e-03
1985=-2.139915e-02
1988=3.115594e-02
1993=2.105657e-01
1996=-9.047963e-03
2009=3.094167e-01
2012=-2.961143e+00
2036=2.404961e-01
2065=-4.294040e-02
2068=3.776104e-02
2073=-1.019440e-01
2076=5.318920e-03
2081=-2.130814e-02
2084=6.558517e-02
2089=-4.294040e-02
2092=3.776104e-02
2097=-2.272421e-04
2100=7.112712e-03
2105=-2.130814e-02
2108=6.558517e-02
2113=-1.698138e-04
2116=7.163233e-03
2121=1.861830e-01
2124=-7.000714e-03
2129=1.844586e-02
2132=8.968641e-03
2137=3.276025e-02
2140=3.714438e-03
2145=7.784251e-02
2153=1.759832e-01
2156=-1.817987e-02
2164=2.325570e-02
2169=3.277157e-02
2177=-2.130814e-02
2180=6.558517e-02
2185=3.164980e-02
2188=-2.962899e-02
2196=2.747121e-02
2201=6.611247e-03
2204=-6.595610e-02
2209=-2.977537e-02
2212=9.624615e-02
2217=3.699099e-03
2225=-2.977537e-02
2228=9.624615e-02
2233=3.164980e-02
2236=-2.962899e-02
2241=-6.667741e-02
2244=1.616034e-01
2249=1.138575e-01
2252=1.260868e-01
2257=-2.735965e-03
2260=6.321017e-02
2265=1.194606e-01
2273=1.188706e-01
2281=2.993664e-01
2284=-8.636905e-02
2289=9.752585e-02
2292=-2.062454e-02
2297=1.607808e-01
2300=-1.621210e-02
2308=6.180343e-02
2313=1.228726e-01
2321=3.204156e-02
2329=1.137542e-01
2337=-2.977537e-02
2340=9.624615e-02
2345=4.220225e-03
2353=-1.451250e-02
2356=1.236519e-01
2364=3.761879e-02
2369=5.049376e-02
2372=-6.588700e-04
2377=2.187551e-02
2380=-5.232197e-03
2385=6.047682e-02
2388=-7.117733e-03
2393=5.049376e-02
2396=-6.588700e-04
2401=5.248680e-02
2409=-3.989256e-02
2412=2.323935e-01
2417=4.441275e-05
2420=9.958800e-02
2425=5.776077e-02
2428=-2.235961e-03
2433=1.490906e-01
2436=-9.633962e-02
2441=9.744581e-05
2444=1.794367e-01
2457=1.418696e-02
2460=-1.876659e-03
2516=2.930598e-03
2524=7.450891e-02
2529=6.699446e-02
2532=-1.442120e-02
2537=3.438556e-02
2545=6.699446e-02
2548=-1.442120e-02
2552=-6.553649e-04
2561=5.475741e-02
2564=-2.611435e-03
2569=2.400633e-01
2572=-2.999519e-02
2577=3.024768e-01
2580=-3.245884e-02
2585=1.523592e-01
2588=-3.169840e-02
2592=-4.807772e-03
2593=9.217457e-02
2601=-8.993094e-03
2604=1.230018e-02
2612=3.196771e-03
2617=1.296501e-02
2620=3.767638e-03
2625=-2.453220e-03
2628=1.768848e-02
2636=3.101251e-03
2644=-5.575806e-07
2652=3.196771e-03
2657=5.565150e-02
2665=3.962484e-02
2673=5.729322e-02
2681=1.169577e-01
2689=3.913981e-05
2692=1.715011e-03
2700=1.392556e-03
2705=1.010657e-02
2708=3.704856e-04
2712=-7.088920e-02
2713=3.471928e-02
2716=-3.982184e-04
2721=1.010657e-02
2724=3.704856e-04
2732=1.732075e-03
2736=-7.088920e-02
2737=3.471928e-02
2740=-3.982184e-04
2744=-1.928637e-02
2745=1.083217e-02
2748=9.647986e-04
2753=1.287593e-01
2764=1.392556e-03
2769=3.913981e-05
2772=1.715011e-03
2777=1.393587e-02
2780=-1.099010e-03
2788=1.392556e-03
2793=2.821299e-02
2796=7.256529e-02
2801=8.163868e-02
2804=-1.024800e-02
2809=3.876051e-02
2812=3.568448e-02
2816=-7.088920e-02
2817=3.471928e-02
2820=-3.982184e-04
2825=5.149274e-01
2828=-1.806822e-01
2833=1.553646e-02
2836=-4.443726e-05
2841=2.019466e-02
2842=-3.337802e-02
2843=-2.375406e-01
2844=7.868181e-04
2845=2.307632e-01
2846=1.311585e-01
2849=1.757948e-03
2852=-1.047182e-02
2854=-1.270743e-05
2855=3.329957e-01
2856=-2.404243e-03
2857=5.400572e-02
2860=-1.134712e-02
2865=4.877939e-01
2868=-3.136009e-02
2873=1.774828e-02
2876=-3.900153e-02
2879=5.428421e-01
2881=4.877939e-01
2884=-3.136009e-02
2889=3.293572e-02
2892=-1.415164e-03
2897=4.440752e-03
2898=-3.381161e-02
2899=-3.077595e-01
2900=2.741257e-03
2901=2.297831e-01
2902=1.303594e-01
2905=1.680053e-03
2907=-1.376170e-02
2908=1.457914e-01
2909=-7.558503e-03
2913=1.889408e-02
2914=4.032936e-02
2916=-6.482944e-02
2917=-2.396489e-02
2919=3.259337e-01
2921=1.553646e-02
2924=-4.443726e-05
2929=-3.111990e-02
2932=9.977499e-02
2937=-7.294437e-04
2940=3.023637e-02
2945=4.877939e-01
2948=-3.136009e-02
2953=2.080416e-02
2956=-5.782400e-03
2962=1.115043e-01
2964=-6.168081e-03
2965=1.193032e-01
2978=1.054478e-01
2986=1.141293e-01
3002=4.278826e-03
3005=1.494163e+00
3010=-3.186571e-02
3013=5.794576e-02
3014=4.661903e-01
3018=-4.264210e-02
3021=-5.520109e-02
3022=1.680991e-01
3023=5.540422e-01
3026=3.616780e-01
3034=1.532539e-01
3037=1.161325e-01
3038=-4.286519e-02
3042=1.174344e-01
3044=-4.720607e-02
3049=-6.160960e-01
3052=7.431164e-01
3058=1.532539e-01
3061=1.161325e-01
3062=-4.286519e-02
3066=2.514693e-01
3071=-4.348092e-03
3074=1.079867e-01
3076=-3.405670e-02
3077=1.172179e-01
3084=-6.405984e-01
3085=4.020148e-01
3090=6.246231e-01
3106=1.983271e-01
3114=3.736454e-01
3138=-4.941312e-05
3154=3.854366e-01
3162=1.561122e+00
3163=-1.972584e-02
3164=5.465709e-01
3165=-8.427356e-02
3166=-6.933071e-01
3167=-8.163857e-02
3170=1.079867e-01
3172=-3.405670e-02
3173=1.172179e-01
3177=2.721457e-04
3180=1.203328e-01
3181=2.775399e-01
3185=7.905317e-03
3188=-3.829978e-03
3193=9.326158e-03
3196=5.933580e-02
3205=-1.263404e-03
3226=1.136758e-01
3227=5.538039e-01
3250=-3.023982e-01
3253=3.441746e-01
3254=9.706072e-01
3263=5.560707e-01
3266=1.978250e+00
3273=-3.553518e-01
3278=6.022401e-01
3283=2.852518e-02
3287=-6.319488e-02
3306=7.052980e-01
3307=5.748000e-01
3324=2.754450e-01
3334=3.487914e-01
3353=-7.846543e-03
3356=1.133482e-01
3364=5.643412e-02
3369=-1.246770e-01
3372=2.370440e-01
3373=-7.166254e-01
3377=-7.910926e-02
3380=1.138540e-01
3381=-1.580289e-02
3385=-7.903516e-02
3388=1.466700e-01
3389=-8.570549e-02
3393=1.652555e-03
3396=9.781299e-02
3401=5.416977e-03
3404=1.829416e-02
3409=-2.265599e-01
3411=3.683274e-02
3412=1.532871e-02
3413=-7.515498e-04
3417=4.672388e-03
3420=-6.143059e-04
3425=-1.054552e-01
3428=5.584885e-02
3433=-1.990723e-01
3434=9.871009e-06
3436=1.105673e-01
3437=-7.779480e-04
3441=6.241120e-02
3444=-6.057392e-01
3452=-2.566020e-02
3457=-6.740893e-02
3459=5.511793e-02
3461=2.717314e-01
3469=6.189720e-01
3470=-1.643795e-01
3473=-2.836826e-01
3474=-2.272419e-02
3475=7.024747e-02
3479=5.334820e-01
3481=-5.625799e-02
3484=4.366909e-03
3492=-1.541677e-02
3501=3.099708e-01
3506=5.221730e-02
3507=1.432094e-01
3514=5.221730e-02
3515=1.432094e-01
3522=5.221730e-02
3523=1.432094e-01
3529=-8.868052e-02
3532=2.381267e-05
3538=5.221730e-02
3539=1.432094e-01
3548=-1.092149e-03
3553=-8.868052e-02
3556=2.381267e-05
3564=-2.514152e-02
3570=5.221730e-02
3571=1.432094e-01
3580=-1.092149e-03
3585=-3.770651e-02
3594=5.221730e-02
3595=1.432094e-01
3603=1.679474e-01
3610=5.221730e-02
3611=1.432094e-01
3618=5.221730e-02
3619=1.432094e-01
3626=5.221730e-02
3627=1.432094e-01
3634=5.221730e-02
3635=1.432094e-01
3642=5.221730e-02
3643=1.432094e-01
3650=5.221730e-02
3651=1.432094e-01
3658=5.221730e-02
3659=1.432094e-01
3666=5.221730e-02
3667=1.432094e-01
3676=-1.092149e-03
3682=5.221730e-02
3683=1.432094e-01
3689=3.524171e-02
3692=-2.423847e-02
3700=-1.190115e-03
3705=5.927376e-03
3713=5.927376e-03
3720=-2.555087e-02
3728=-2.491215e-02
3729=6.492565e-02
3737=8.250399e-01
3740=-1.225772e-01
3745=-4.360316e-01
3748=3.824573e-01
3753=4.771799e-04
3756=-1.450422e-04
3761=4.771799e-04
3764=-1.450422e-04
3769=4.771799e-04
3772=-1.450422e-04
3777=-8.601218e-02
3778=-2.180532e-02
3779=-2.353758e-01
3780=1.358473e-04
3781=2.313199e-01
3782=1.337072e-01
3785=-8.127000e-02
3788=1.771688e-01
3794=1.128299e-01
3796=-2.627354e-01
3797=1.438601e-01
3804=7.558852e-03
3812=4.840231e-03
3820=-2.914992e-03
3822=3.186827e-03
3828=-2.914992e-03
3830=3.186827e-03
3836=-2.914992e-03
3838=3.186827e-03
3840=-7.143668e-01
3841=1.281980e-01
3844=1.882136e-03
3849=-1.761873e-02
3852=3.344022e-02
3856=-3.516855e-03
3857=4.189041e-02
3868=4.779617e-01
3876=4.779617e-01
3881=-3.577736e-03
3889=-1.327928e-01
3892=7.980635e-02
3900=-3.700859e-04
3905=4.671795e-01
3908=-1.020835e-02
3916=2.453967e-02
3924=2.453967e-02
3929=2.822754e-01
3937=-7.395317e-03
3940=8.614789e-02
3945=-1.893548e-02
3948=8.711178e-02
3953=-7.395317e-03
3956=8.614789e-02
3961=-1.050417e-02
3964=6.752128e-02
3969=-7.395317e-03
3972=8.614789e-02
3977=1.096183e-01
3980=-7.823058e-02
3985=5.724504e-02
3993=1.531499e-02
3996=-2.924387e-04
4001=-1.116740e-02
4004=6.551157e-01
4009=3.173572e-04
4012=-6.608784e-02
4017=3.173572e-04
4020=-6.608784e-02
4025=9.304056e-04
4033=-9.057411e-02
4036=1.552088e-02
4037=1.458828e-01
4041=1.444348e-02
4044=-4.692413e-03
4049=1.207034e-02
4052=-6.809526e-03
4057=1.444348e-02
4060=-4.692413e-03
4065=1.444348e-02
4068=-4.692413e-03
4078=2.538784e-01
4087=7.904232e-02
4094=2.538784e-01
4098=6.010841e-01
4105=-2.617863e-02
4108=6.028549e-02
4119=7.904232e-02
4127=7.904232e-02
4132=2.883544e-03
4137=-1.803092e-02
4140=5.574869e-02
4148=4.027333e-02
4153=-5.477917e-04
4156=6.629483e-02
4161=-5.477917e-04
4164=6.629483e-02
4169=-5.477917e-04
4172=6.629483e-02
4177=-5.477917e-04
4180=6.629483e-02
4185=1.036069e-01
4196=1.525024e-03
4201=3.758017e-02
4204=-2.824346e-03
4212=1.525024e-03
4217=6.648198e-03
4220=-1.161463e-02
4225=1.151005e-01
4228=-1.811637e-02
4233=8.380097e-03
4236=-3.032149e-03
4241=2.694534e-01
4244=-7.546171e-03
4249=1.058911e-01
4252=-7.680111e-02
4257=7.748786e-04
4265=7.748786e-04
4273=2.179855e-04
4281=9.027726e-02
4284=-7.256767e-02
4289=7.748786e-04
4298=-1.206439e-02
4301=2.064025e-01
4349=6.102944e-01
4381=6.564561e-01
4382=-8.533694e-02
4390=5.293537e-01
4397=-3.742678e-03
4398=3.171321e-01
4454=1.060174e-01
4455=2.136263e-01
4526=1.013345e-01
4550=3.365492e-01
4557=9.629499e-03
4558=3.376562e-01
4559=-6.992391e-01
4561=-7.904650e-02
4562=-4.197161e-02
4564=1.280367e-01
4566=6.190642e-01
4621=3.022377e-02
4631=1.278669e+00
4645=-9.232633e-01
4646=5.064735e-01
4647=5.400500e-01
4655=2.754127e-01
4658=1.150229e-01
4722=-8.237789e-02
4726=2.128249e-01
4730=1.100400e+00
4741=5.805058e-03
4745=-3.947235e-01
4753=-3.947235e-01
4761=8.719376e-02
4769=1.419417e-01
4772=-1.623617e-02
4777=2.141816e-04
4785=5.677146e-02
4793=3.507900e-02
4801=1.510786e-02
4809=1.510786e-02
4817=3.417905e-02
4820=-8.885595e-03
4825=2.653259e-01
4828=-2.972171e-02
4836=1.820038e-02
4841=1.330866e-02
4844=-1.195971e-04
4849=2.335591e-02
4852=-1.056679e-04
4857=-3.923020e-01
4860=3.855357e-01
4869=7.117069e-03
4877=1.105164e-01
4881=-1.036436e-01
4884=1.155923e-01
4889=-1.036436e-01
4892=1.155923e-01
4900=1.856166e-02
4905=4.085181e-03
4913=4.085181e-03
4921=3.217236e-02
4924=-1.143640e-02
4933=4.139589e-01
4941=4.139589e-01
4945=-9.718471e-03
4948=3.180352e-01
4953=-4.916951e-02
4956=5.128491e-02
4961=-4.994319e-03
4964=4.172966e-02
4969=1.677309e-04
4972=-1.004858e-04
4977=2.312215e-02
4980=-9.225196e-03
4985=2.312215e-02
4988=-9.225196e-03
4996=6.101972e-04
5004=4.527579e-04
5012=5.135096e-04
5017=2.968168e-02
5020=-5.078967e-03
5025=-1.992784e-02
5028=2.234262e-01
5033=3.466717e-02
5044=1.615704e-02
5052=1.776335e-02
5057=-1.464913e-02
5060=3.034285e-02
5065=6.954568e-03
5068=-3.160579e-03
5073=1.222636e-01
5076=-1.176216e-02
5081=1.222636e-01
5084=-1.176216e-02
5089=4.367839e-02
5097=2.889706e-02
5110=5.407260e-03
5118=5.407260e-03
5124=6.643987e-04
5129=-7.528745e-03
5134=1.115454e-02
5137=-1.065123e-01
5140=1.195356e-01
5145=-3.264957e-01
5148=4.677922e-01
5153=-3.264957e-01
5156=4.677922e-01
5161=9.253007e-03
5169=1.836141e-02
5177=1.671252e-02
5180=-7.322363e-04
5185=9.023060e-03
5193=9.023060e-03
5201=2.147540e-02
5204=-1.296422e-03
5209=1.379951e-02
5212=-3.515836e-05
5217=4.317749e-02
5220=-4.950987e-03
5225=4.846698e-01
5228=-3.277885e-01
5233=4.229463e-02
5236=-4.200295e-02
5241=4.229463e-02
5244=-4.200295e-02
5249=4.229463e-02
5252=-4.200295e-02
5257=3.119209e-01
5260=-1.005686e-01
5265=5.755363e-02
5268=-1.151120e-01
5273=-6.187990e-01
5281=-1.166032e-01
5284=1.521935e-01
5289=-1.009507e-03
5292=6.868646e-04
5297=-1.166032e-01
5300=1.521935e-01
5305=-1.166032e-01
5308=1.521935e-01
5313=-1.166032e-01
5316=1.521935e-01
5321=-1.166032e-01
5324=1.521935e-01
5329=-1.166032e-01
5332=1.521935e-01
5337=-4.838476e-02
5340=8.610504e-02
5345=7.103170e-02
5348=-7.442449e-02
5353=1.078337e-01
5356=-1.222196e-01
5361=-7.139700e-03
5364=2.034094e-03
5369=-4.686923e-02
5372=1.315689e-01
5377=-2.046730e-01
5380=1.660455e-01
5393=-5.120480e-01
5396=1.884381e+00
5420=-4.006380e-02
5449=-1.006666e-01
5452=1.706130e-01
5457=-1.006666e-01
5460=1.706130e-01
5465=4.029956e-02
5468=-5.592046e-02
5473=2.618099e-02
5481=2.618099e-02
5489=2.618099e-02
5497=8.426991e-04
5509=6.249300e-03
5513=2.872887e-01
5516=-2.426963e-02
5524=1.074442e-03
5532=1.455996e-03
5540=1.120959e-03
5545=-6.259600e-04
5556=1.163369e-03
5561=-2.128671e-02
5564=7.254629e-02
5573=-1.550551e-01
5574=2.517686e-01
5581=-1.550551e-01
5582=2.517686e-01
5589=-1.550551e-01
5590=2.517686e-01
5593=-1.900279e-02
5596=1.411787e-02
5601=1.442201e-01
5604=-4.330563e-02
5609=1.442201e-01
5612=-4.330563e-02
5620=6.016424e-01
5625=1.442201e-01
5628=-4.330563e-02
5633=-2.567715e-01
5636=6.761880e-01
5649=-8.943068e-02
5652=1.398062e-01
5705=5.658909e-04
5713=1.148335e-01
5716=-6.191793e-02
5721=1.308622e-02
5724=-9.533806e-03
5729=-1.510358e-02
5732=2.607459e-02
5737=4.235120e-02
5740=-2.276228e-02
5797=-9.441521e-03
5821=-4.987739e-05
5825=-3.689038e-03
5828=5.454168e-03
5837=2.276203e-02
5841=-3.635890e-02
5844=1.016788e-01
5852=7.368822e-03
5860=2.118564e-02
5865=8.873040e-02
5868=-5.056223e-02
5873=1.089886e-01
5876=-3.312995e-02
5881=1.089886e-01
5884=-3.312995e-02
5889=1.089886e-01
5892=-3.312995e-02
5897=5.390115e-02
5900=-9.354413e-02
5908=1.890139e-02
5913=-2.290417e-02
5921=-2.290417e-02
5929=-2.290417e-02
5942=3.655093e-02
5950=3.655093e-02
5958=3.655093e-02
5966=3.655093e-02
5974=3.655093e-02
5982=3.655093e-02
5990=3.655093e-02
5998=3.655093e-02
6006=3.566743e-02
6014=3.655093e-02
6070=7.448817e-02
6081=-7.158119e-03
6084=8.915678e-03
6089=3.566103e-03
6092=-4.341119e-03
6097=2.223313e-03
6105=1.656016e-02
6108=-9.963233e-03
6113=8.462885e-04
6121=2.858186e-03
6124=-1.264519e-04
6129=2.858186e-03
6132=-1.264519e-04
6137=2.858186e-03
6140=-1.264519e-04
6145=2.858186e-03
6148=-1.264519e-04
6153=2.858186e-03
6156=-1.264519e-04
6161=2.858186e-03
6164=-1.264519e-04
6169=2.858186e-03
6172=-1.264519e-04
6180=1.802716e-04
6188=1.802716e-04
6196=1.802716e-04
6204=1.802716e-04
6212=1.802716e-04
6220=1.802716e-04
6224=-2.334207e-04
6225=2.630603e-04
6232=-2.355626e-04
6233=2.568517e-04
6240=-2.302254e-04
6241=2.100978e-04
6248=-2.302254e-04
6249=2.100978e-04
6256=-2.355626e-04
6257=2.568517e-04
6264=-2.302254e-04
6265=2.100978e-04
6272=-2.302254e-04
6273=2.100978e-04
6280=-2.355626e-04
6281=2.568517e-04
6288=-2.330363e-04
6289=2.633977e-04
6297=2.081454e-03
6300=-2.222544e-02
6308=-2.532376e-02
6309=1.924128e-02
6313=1.034415e-02
6324=-2.532376e-02
6325=1.924128e-02
6329=-3.003690e-01
6337=-3.003690e-01
6345=-3.003690e-01
6353=-3.003690e-01
6361=-3.003690e-01
6369=-3.003690e-01
6377=-3.545070e-02
6380=5.695139e-01
6385=-3.545070e-02
6388=5.695139e-01
6393=1.006664e-02
6396=-1.010842e-02
6401=7.627285e-03
6404=-2.045862e-03
6409=-1.561132e-02
6412=2.107300e-02
6417=5.769266e-02
6420=-5.446973e-02
6425=5.769266e-02
6428=-5.446973e-02
6433=5.769266e-02
6436=-5.446973e-02
6441=5.769266e-02
6444=-5.446973e-02
6449=5.769266e-02
6452=-5.446973e-02
6457=5.769266e-02
6460=-5.446973e-02
6465=2.357425e-02
6481=4.529122e-02
6537=9.137385e-01
6541=4.891615e-01
6549=1.239653e-01
6597=2.206203e-01
6620=2.581922e+00
6625=-1.184403e-03
6628=8.136563e-04
6633=1.075693e-02
6636=-2.140429e-03
6641=4.569402e-03
6644=-2.050923e-03
6649=1.075693e-02
6652=-2.140429e-03
6657=1.075693e-02
6660=-2.140429e-03
6665=1.007106e-01
6668=-5.663469e-02
6673=-1.803767e-02
6676=7.171209e-02
6685=9.604698e-02
6693=2.418581e-02
6701=2.418581e-02
6709=2.418581e-02
6717=2.418581e-02
6725=2.418581e-02
6733=2.418581e-02
6741=7.570704e-03
6749=7.570704e-03
6757=7.570704e-03
6765=7.570704e-03
6769=-1.730454e-04
6772=1.065865e-04
6777=-1.730454e-04
6780=1.065865e-04
6785=4.964692e-02
6788=-4.544496e-02
6793=4.964692e-02
6796=-4.544496e-02
6801=4.964692e-02
6804=-4.544496e-02
6809=4.964692e-02
6812=-4.544496e-02
6817=4.964692e-02
6820=-4.544496e-02
6825=4.964692e-02
6828=-4.544496e-02
6833=-3.240704e-03
6841=-3.240704e-03
6849=-3.180169e-03
6857=-3.180169e-03
6865=-3.240704e-03
6873=-3.240704e-03
6881=-3.240704e-03
6889=-3.240704e-03
6897=-2.024949e-03
6900=2.284163e-03
6905=-9.570316e-02
6908=1.237217e-01
6913=-6.760679e-02
6916=7.299092e-02
6921=-4.727176e-02
6924=6.566652e-02
6929=-4.615801e-01
6932=5.482692e-01
6937=-1.099356e-03
6940=7.045719e-04
6945=-1.099356e-03
6948=7.045719e-04
6953=-1.895998e-02
6956=2.365504e-02
6961=-1.895998e-02
6964=2.365504e-02
6969=-2.200118e-02
6972=2.518236e-02
6977=-2.200118e-02
6980=2.518236e-02
6985=-2.240157e-02
6988=2.540617e-02
6993=-2.240157e-02
6996=2.540617e-02
7001=-8.471350e-03
7004=1.017596e-02
7009=-8.471350e-03
7012=1.017596e-02
