#mdl#2#10255
#rdr#61/19/0
1:*,
18:u:Tok-1 X=%x[ 0,0],
18:u:tok-1 X=%x[ 0,1],
18:u:tok-1LL=%X[-2,0],
18:u:tok-1 L=%X[-1,0],
18:u:tok-1 R=%X[ 1,0],
18:u:tok-1RR=%X[ 2,0],
27:u:tok-2 L=%X[-1,0]/%X[ 0,0],
27:u:tok-2 R=%X[ 0,0]/%X[ 1,0],
18:*:Fst-1 X=%x[ 0,2],
18:u:Fst-1 R=%x[ 1,2],
27:u:Fst-2 X=%x[ 0,2]/%x[ 0,4],
27:u:Fst-2 R=%x[ 1,2]/%x[ 1,4],
18:*:Lst-1 L=%x[-1,3],
18:u:Lst-1 X=%x[ 0,3],
27:u:Lst-2 L=%x[-1,3]/%x[-1,6],
27:u:Lst-2 X=%x[ 0,3]/%x[ 0,6],
18:u:Pre-1 X=%x[ 0,4],
18:u:Pre-2 X=%x[ 0,5],
18:u:Pre-2 R=%x[ 1,5],
18:u:Suf-1 X=%x[ 0,6],
18:u:Suf-2 L=%x[-1,7],
18:u:Suf-2 X=%x[ 0,7],
18:u:Cap-1 L=%x[-1,8],
18:u:Cap-1 X=%x[ 0,8],
18:u:Cap-1 R=%x[ 1,8],
27:u:Cap-2 L=%x[-1,8]/%x[ 0,8],
27:u:Cap-2 R=%x[ 0,8]/%x[ 1,8],
28:u:Cap-3 L=%x[-1,18]/%x[ 0,8],
18:*:Num-1 L=%x[-1,9],
18:*:Num-1 X=%x[ 0,9],
18:u:Num-1 R=%x[ 1,9],
28:u:Num-2 R=%x[ 0,9]/%x[ 0,17],
28:u:Num-2 R=%x[ 0,9]/%x[ 0,18],
19:u:Nme-1 X=%x[ 0,10],
19:u:Loc-1 X=%x[ 0,11],
19:u:Pub-1 X=%x[ 0,12],
19:u:Jnl-1 X=%x[ 0,13],
19:u:Key-1 L=%x[-1,14],
19:u:Key-1 X=%x[ 0,14],
19:u:Key-1 R=%x[ 1,14],
28:u:Key-2 X=%x[ 0,14]/%x[ 0,8],
29:u:Key-3 L=%x[-1,18]/%x[ 0,14],
29:u:Key-3 x=%x[ 0,14]/%x[ 0,18],
19:u:Pos-1 X=%x[ 0,15],
29:u:Pos-2 L=%x[-1,15]/%x[ 0,15],
29:u:Pos-2 R=%x[ 0,15]/%x[ 1,15],
19:u:Pct-1 L=%x[-1,16],
19:u:Pct-1 X=%x[ 0,16],
19:u:Pct-1 R=%x[ 1,16],
19:u:Brk-1 L=%x[-1,17],
19:u:Brk-1 X=%x[ 0,17],
19:u:Brk-1 R=%x[ 1,17],
19:*:Tmn-1 L=%x[-1,18],
19:u:Tmn-1 X=%x[ 0,18],
19:u:Tmn-1 R=%x[ 1,18],
29:u:Tmn-2 L=%x[-1,14]/%x[ 0,18],
29:u:Tmn-2 R=%x[ 0,18]/%x[ 1,14],
28:u:Tmn-3 X=%x[ 0,18]/%x[ 0,6],
28:u:Tmn-4 R=%x[ 0,18]/%x[ 1,8],
19:u:Id--1 X=%x[ 0,19],
#qrk#19
6:author,
5:title,
4:date,
9:publisher,
7:journal,
6:volume,
5:pages,
5:genre,
15:container-title,
6:editor,
8:location,
4:note,
3:url,
15:citation-number,
7:edition,
3:doi,
16:collection-title,
10:translator,
4:isbn,
#qrk#3741
1:*,
14:u:tok-1LL=_x-2,
14:u:tok-1 L=_x-1,
13:u:tok-1RR=the,
12:*:Fst-1 X=Lu,
12:u:Fst-1 R=Lu,
14:u:Fst-2 X=Lu/A,
14:u:Fst-2 R=Lu/D,
14:*:Lst-1 L=_x-1,
11:u:Lst-1 X=P,
19:u:Lst-2 L=_x-1/_x-1,
13:u:Lst-2 X=P/,,
11:u:Pre-1 X=A,
12:u:Pre-2 X=Ad,
11:u:Suf-1 X=,,
14:u:Suf-2 L=_x-1,
12:u:Suf-2 X=y,,
14:u:Cap-1 L=_x-1,
17:u:Cap-1 X=initial,
16:u:Cap-1 R=single,
22:u:Cap-2 L=_x-1/initial,
24:u:Cap-2 R=initial/single,
22:u:Cap-3 L=_x-1/initial,
14:*:Num-1 L=_x-1,
14:*:Num-1 X=none,
15:u:Num-1 R=roman,
19:u:Num-2 R=none/none,
19:u:Num-2 R=none/weak,
11:u:Nme-1 X=T,
11:u:Loc-1 X=F,
11:u:Pub-1 X=F,
11:u:Jnl-1 X=F,
14:u:Key-1 L=_x-1,
14:u:Key-1 X=none,
14:u:Key-1 R=none,
22:u:Key-2 X=none/initial,
19:u:Key-3 L=_x-1/none,
19:u:Key-3 x=none/weak,
15:u:Pos-1 X=first,
20:u:Pos-2 L=_x-1/first,
17:u:Pos-2 R=first/0,
14:u:Pct-1 L=_x-1,
15:u:Pct-1 X=other,
16:u:Pct-1 R=period,
14:u:Brk-1 L=_x-1,
14:u:Brk-1 X=none,
14:u:Brk-1 R=none,
14:*:Tmn-1 L=_x-1,
14:u:Tmn-1 X=weak,
16:u:Tmn-1 R=strong,
19:u:Tmn-2 L=_x-1/weak,
19:u:Tmn-2 R=weak/none,
16:u:Tmn-3 X=weak/,,
21:u:Tmn-4 R=weak/single,
11:u:Id--1 X=F,
14:u:tok-1LL=_x-1,
13:u:tok-1 R=the,
17:u:tok-1RR=russian,
14:u:Fst-2 X=Lu/D,
14:u:Fst-2 R=Lu/T,
11:*:Lst-1 L=P,
13:u:Lst-2 L=P/,,
13:u:Lst-2 X=P/.,
11:u:Pre-1 X=D,
12:u:Pre-2 R=Th,
11:u:Suf-1 X=.,
12:u:Suf-2 L=y,,
17:u:Cap-1 L=initial,
16:u:Cap-1 X=single,
17:u:Cap-1 R=initial,
24:u:Cap-2 L=initial/single,
24:u:Cap-2 R=single/initial,
21:u:Cap-3 L=weak/single,
14:*:Num-1 L=none,
15:*:Num-1 X=roman,
14:u:Num-1 R=none,
20:u:Num-2 R=roman/none,
11:u:Nme-1 X=F,
14:u:Key-1 L=none,
21:u:Key-2 X=none/single,
19:u:Key-3 L=weak/none,
21:u:Key-3 x=none/strong,
11:u:Pos-1 X=0,
17:u:Pos-2 L=first/0,
13:u:Pos-2 R=0/1,
15:u:Pct-1 L=other,
16:u:Pct-1 X=period,
14:u:Pct-1 R=none,
14:u:Brk-1 L=none,
14:*:Tmn-1 L=weak,
16:u:Tmn-1 X=strong,
14:u:Tmn-1 R=none,
21:u:Tmn-2 L=none/strong,
21:u:Tmn-2 R=strong/none,
18:u:Tmn-3 X=strong/.,
24:u:Tmn-4 R=strong/initial,
13:u:Tok-1 X=The,
13:u:tok-1 X=the,
14:u:Fst-2 X=Lu/T,
14:u:Fst-2 R=Lu/R,
12:u:Lst-1 X=Ll,
13:u:Lst-2 L=P/.,
14:u:Lst-2 X=Ll/e,
11:u:Pre-1 X=T,
12:u:Pre-2 X=Th,
12:u:Pre-2 R=Ru,
11:u:Suf-1 X=e,
12:u:Suf-2 L=D.,
12:u:Suf-2 X=he,
16:u:Cap-1 L=single,
24:u:Cap-2 L=single/initial,
25:u:Cap-2 R=initial/initial,
24:u:Cap-3 L=strong/initial,
15:*:Num-1 L=roman,
11:u:Pub-1 X=T,
11:u:Jnl-1 X=T,
21:u:Key-3 L=strong/none,
19:u:Key-3 x=none/none,
11:u:Pos-1 X=1,
13:u:Pos-2 L=0/1,
13:u:Pos-2 R=1/1,
16:u:Pct-1 L=period,
14:u:Pct-1 X=none,
16:*:Tmn-1 L=strong,
14:u:Tmn-1 X=none,
19:u:Tmn-2 L=none/none,
19:u:Tmn-2 R=none/none,
16:u:Tmn-3 X=none/e,
22:u:Tmn-4 R=none/initial,
17:u:Tok-1 X=Russian,
17:u:tok-1 X=russian,
13:u:tok-1 L=the,
12:u:tok-1RR=of,
14:u:Fst-2 X=Lu/R,
14:u:Fst-2 R=Lu/W,
12:*:Lst-1 L=Ll,
14:u:Lst-2 L=Ll/e,
14:u:Lst-2 X=Ll/n,
11:u:Pre-1 X=R,
12:u:Pre-2 X=Ru,
12:u:Pre-2 R=Wa,
11:u:Suf-1 X=n,
12:u:Suf-2 L=he,
12:u:Suf-2 X=an,
25:u:Cap-2 L=initial/initial,
22:u:Cap-3 L=none/initial,
19:u:Key-3 L=none/none,
13:u:Pos-2 L=1/1,
13:u:Pos-2 R=1/2,
14:u:Pct-1 L=none,
14:*:Tmn-1 L=none,
16:u:Tmn-3 X=none/n,
13:u:tok-1LL=the,
17:u:tok-1 L=russian,
12:u:tok-1 R=of,
12:u:Fst-1 R=Ll,
14:u:Fst-2 X=Lu/W,
14:u:Fst-2 R=Ll/o,
14:u:Lst-2 L=Ll/n,
14:u:Lst-2 X=Ll/y,
11:u:Pre-1 X=W,
12:u:Pre-2 X=Wa,
12:u:Pre-2 R=of,
11:u:Suf-1 X=y,
12:u:Suf-2 L=an,
12:u:Suf-2 X=ay,
15:u:Cap-1 R=lower,
23:u:Cap-2 R=initial/lower,
11:u:Pos-1 X=2,
13:u:Pos-2 L=1/2,
13:u:Pos-2 R=2/2,
16:u:Tmn-3 X=none/y,
20:u:Tmn-4 R=none/lower,
12:u:Tok-1 X=of,
12:u:tok-1 X=of,
19:u:tok-1RR=strategic,
12:*:Fst-1 X=Ll,
14:u:Fst-2 X=Ll/o,
14:u:Lst-2 L=Ll/y,
14:u:Lst-2 X=Ll/f,
11:u:Pre-1 X=o,
12:u:Pre-2 X=of,
12:u:Pre-2 R=De,
11:u:Suf-1 X=f,
12:u:Suf-2 X=of,
15:u:Cap-1 X=lower,
23:u:Cap-2 L=initial/lower,
23:u:Cap-2 R=lower/initial,
20:u:Cap-3 L=none/lower,
20:u:Key-2 X=none/lower,
13:u:Pos-2 L=2/2,
13:u:Pos-2 R=2/3,
15:u:Pct-1 R=colon,
18:u:Tmn-1 R=moderate,
16:u:Tmn-3 X=none/f,
20:u:tok-1 X=deterrence,
12:u:tok-1 L=of,
19:u:tok-1 R=strategic,
14:u:Fst-2 R=Lu/S,
14:u:Lst-2 L=Ll/f,
13:u:Lst-2 X=P/:,
12:u:Pre-2 X=De,
12:u:Pre-2 R=St,
11:u:Suf-1 X=:,
12:u:Suf-2 L=of,
12:u:Suf-2 X=e:,
15:u:Cap-1 L=lower,
23:u:Cap-2 L=lower/initial,
23:u:Num-2 R=none/moderate,
23:u:Key-3 x=none/moderate,
11:u:Pos-1 X=3,
13:u:Pos-2 L=2/3,
13:u:Pos-2 R=3/3,
15:u:Pct-1 X=colon,
18:u:Tmn-1 X=moderate,
23:u:Tmn-2 L=none/moderate,
23:u:Tmn-2 R=moderate/none,
20:u:Tmn-3 X=moderate/:,
26:u:Tmn-4 R=moderate/initial,
11:u:Id--1 X=T,
19:u:Tok-1 X=Strategic,
19:u:tok-1 X=strategic,
12:u:tok-1LL=of,
14:u:Fst-2 X=Lu/S,
14:u:Fst-2 R=Lu/C,
13:u:Lst-2 L=P/:,
14:u:Lst-2 X=Ll/c,
11:u:Pre-1 X=S,
12:u:Pre-2 X=St,
12:u:Pre-2 R=Cu,
11:u:Suf-1 X=c,
12:u:Suf-2 L=e:,
12:u:Suf-2 X=ic,
26:u:Cap-3 L=moderate/initial,
23:u:Key-3 L=moderate/none,
13:u:Pos-2 L=3/3,
13:u:Pos-2 R=3/4,
15:u:Pct-1 L=colon,
15:u:Pct-1 R=other,
18:*:Tmn-1 L=moderate,
14:u:Tmn-1 R=weak,
16:u:Tmn-3 X=none/c,
19:u:tok-1 L=strategic,
13:u:tok-1RR=and,
14:u:Fst-2 X=Lu/C,
14:u:Lst-2 L=Ll/c,
11:u:Pre-1 X=C,
12:u:Pre-2 X=Cu,
12:u:Pre-2 R=Co,
12:u:Suf-2 L=ic,
12:u:Suf-2 X=e,,
11:u:Pos-1 X=4,
13:u:Pos-2 L=3/4,
13:u:Pos-2 R=4/4,
19:u:Tmn-2 L=none/weak,
22:u:Tmn-4 R=weak/initial,
19:u:tok-1LL=strategic,
13:u:tok-1 R=and,
14:u:tok-1RR=war.,
14:u:Fst-2 R=Ll/a,
12:u:Pre-2 X=Co,
12:u:Pre-2 R=an,
12:u:Suf-2 L=e,,
12:u:Suf-2 X=n,,
22:u:Cap-3 L=weak/initial,
13:u:Key-1 R=and,
13:u:Pos-2 L=4/4,
13:u:Pos-2 R=4/5,
18:u:Tmn-2 R=weak/and,
20:u:Tmn-4 R=weak/lower,
13:u:Tok-1 X=and,
13:u:tok-1 X=and,
14:u:tok-1 R=war.,
14:u:Fst-2 X=Ll/a,
14:u:Lst-2 X=Ll/d,
11:u:Pre-1 X=a,
12:u:Pre-2 X=an,
11:u:Suf-1 X=d,
12:u:Suf-2 L=n,,
12:u:Suf-2 X=nd,
20:u:Cap-3 L=weak/lower,
13:u:Key-1 X=and,
19:u:Key-2 X=and/lower,
18:u:Key-3 L=weak/and,
18:u:Key-3 x=and/none,
11:u:Pos-1 X=5,
13:u:Pos-2 L=4/5,
13:u:Pos-2 R=5/5,
16:u:Tmn-3 X=none/d,
14:u:Tok-1 X=War.,
13:u:tok-1 X=war,
13:u:tok-1 L=and,
12:u:Fst-1 R=Ps,
14:u:Fst-2 R=Ps/(,
14:u:Lst-2 L=Ll/d,
12:u:Pre-2 R=(2,
12:u:Suf-2 L=nd,
12:u:Suf-2 X=r.,
15:u:Cap-1 R=other,
23:u:Cap-2 R=initial/other,
14:u:Num-1 R=year,
21:u:Num-2 R=none/strong,
13:u:Key-1 L=and,
13:u:Pos-2 L=5/5,
13:u:Pos-2 R=5/6,
16:u:Brk-1 R=parens,
22:u:Tmn-4 R=strong/other,
14:u:tok-1 X=2023,
13:u:tok-1LL=and,
12:*:Fst-1 X=Ps,
14:u:Fst-2 X=Ps/(,
11:u:Pre-1 X=(,
12:u:Pre-2 X=(2,
12:u:Suf-2 L=r.,
12:u:Suf-2 X=).,
15:u:Cap-1 X=other,
23:u:Cap-2 L=initial/other,
23:u:Cap-2 R=other/initial,
22:u:Cap-3 L=strong/other,
14:*:Num-1 X=year,
21:u:Num-2 R=year/parens,
21:u:Num-2 R=year/strong,
20:u:Key-2 X=none/other,
11:u:Pos-1 X=6,
13:u:Pos-2 L=5/6,
13:u:Pos-2 R=6/6,
16:u:Brk-1 X=parens,
17:u:tok-1 L=(2023).,
12:u:Suf-2 L=).,
15:u:Cap-1 L=other,
23:u:Cap-2 L=other/initial,
14:*:Num-1 L=year,
13:u:Pos-2 L=6/6,
13:u:Pos-2 R=6/7,
16:u:Brk-1 L=parens,
11:u:Pos-1 X=7,
13:u:Pos-2 L=6/7,
13:u:Pos-2 R=7/7,
13:u:Pos-2 L=7/7,
13:u:Pos-2 R=7/8,
11:u:Pos-1 X=8,
13:u:Pos-2 L=7/8,
13:u:Pos-2 R=8/8,
20:u:tok-1RR=university,
13:u:Pos-2 L=8/8,
13:u:Pos-2 R=8/9,
20:u:tok-1 R=university,
14:u:Fst-2 R=Lu/U,
12:u:Pre-2 R=Un,
12:u:Suf-2 X=rd,
11:u:Loc-1 X=T,
11:u:Pos-1 X=9,
13:u:Pos-2 L=8/9,
13:u:Pos-2 R=9/9,
20:u:tok-1 X=university,
14:u:tok-1RR=_x+1,
14:u:Fst-2 X=Lu/U,
14:u:Fst-2 R=Lu/P,
11:u:Pre-1 X=U,
12:u:Pre-2 X=Un,
12:u:Pre-2 R=Pr,
12:u:Suf-2 L=rd,
12:u:Suf-2 X=ty,
13:u:Pos-2 L=9/9,
16:u:Pos-2 R=9/last,
15:u:tok-1 X=press,
14:u:tok-1 R=_x+1,
14:u:tok-1RR=_x+2,
14:u:Fst-1 R=_x+1,
14:u:Fst-2 X=Lu/P,
19:u:Fst-2 R=_x+1/_x+1,
11:u:Pre-1 X=P,
12:u:Pre-2 X=Pr,
14:u:Pre-2 R=_x+1,
12:u:Suf-2 L=ty,
12:u:Suf-2 X=s.,
14:u:Cap-1 R=_x+1,
22:u:Cap-2 R=initial/_x+1,
14:u:Num-1 R=_x+1,
14:u:Key-1 R=_x+1,
14:u:Pos-1 X=last,
16:u:Pos-2 L=9/last,
19:u:Pos-2 R=last/_x+1,
14:u:Pct-1 R=_x+1,
14:u:Brk-1 R=_x+1,
14:u:Tmn-1 R=_x+1,
21:u:Tmn-2 R=strong/_x+1,
21:u:Tmn-4 R=strong/_x+1,
12:u:Suf-2 X=r,,
17:u:Pos-2 R=first/1,
11:u:tok-1 X=r,
12:u:tok-1RR=as,
14:u:Fst-2 R=Lu/E,
12:u:Suf-2 L=r,,
17:u:Pos-2 L=first/1,
12:u:tok-1 L=r.,
14:u:Fst-2 X=Lu/E,
14:u:Lst-2 X=Ll/m,
11:u:Pre-1 X=E,
11:u:Suf-1 X=m,
12:u:Suf-2 L=R.,
16:u:Tmn-3 X=none/m,
12:u:tok-1 X=as,
12:u:tok-1LL=r.,
14:u:Lst-2 L=Ll/m,
14:u:Lst-2 X=Ll/s,
11:u:Suf-1 X=s,
12:u:Suf-2 X=as,
16:u:Tmn-3 X=none/s,
12:u:tok-1 L=as,
12:u:tok-1 R=an,
14:u:Fst-2 R=Lu/A,
14:u:Lst-2 L=Ll/s,
12:u:Pre-2 R=An,
12:u:Suf-2 L=as,
12:u:Tok-1 X=An,
12:u:tok-1 X=an,
12:u:Pre-2 X=An,
12:u:Pre-2 R=Ac,
12:u:Suf-2 X=An,
12:u:tok-1 L=an,
13:u:tok-1RR=for,
12:u:Pre-2 X=Ac,
12:u:Suf-2 X=le,
12:u:tok-1LL=an,
13:u:tok-1 R=for,
14:u:Fst-2 R=Ll/f,
14:u:Lst-2 X=Ll/t,
12:u:Pre-2 R=fo,
11:u:Suf-1 X=t,
12:u:Suf-2 L=le,
12:u:Suf-2 X=ct,
16:u:Tmn-3 X=none/t,
13:u:Tok-1 X=for,
13:u:tok-1 X=for,
17:u:tok-1RR=journal,
14:u:Fst-2 X=Ll/f,
14:u:Lst-2 L=Ll/t,
14:u:Lst-2 X=Ll/r,
11:u:Pre-1 X=f,
12:u:Pre-2 X=fo,
11:u:Suf-1 X=r,
12:u:Suf-2 L=ct,
12:u:Suf-2 X=or,
16:u:Tmn-3 X=none/r,
13:u:tok-1 L=for,
17:u:tok-1 R=journal,
14:u:Fst-2 R=Lu/J,
14:u:Lst-2 L=Ll/r,
12:u:Pre-2 R=Jo,
12:u:Suf-2 L=or,
12:u:Suf-2 X=y.,
17:u:Key-1 R=journal,
24:u:Tmn-2 R=strong/journal,
17:u:tok-1 X=journal,
13:u:tok-1LL=for,
14:u:Fst-2 X=Lu/J,
14:u:Lst-2 X=Ll/l,
11:u:Pre-1 X=J,
12:u:Pre-2 X=Jo,
11:u:Suf-1 X=l,
12:u:Suf-2 L=y.,
12:u:Suf-2 X=al,
17:u:Key-1 X=journal,
25:u:Key-2 X=journal/initial,
24:u:Key-3 L=strong/journal,
22:u:Key-3 x=journal/none,
16:u:Tmn-3 X=none/l,
17:u:tok-1 L=journal,
20:u:tok-2 L=journal/of,
14:u:Fst-2 R=Lu/M,
14:u:Lst-2 L=Ll/l,
12:u:Pre-2 R=Ma,
12:u:Suf-2 L=al,
17:u:Key-1 L=journal,
22:u:Tmn-2 L=journal/none,
17:u:tok-1LL=journal,
11:u:Fst-1 R=N,
14:u:Fst-2 X=Lu/M,
11:u:Pre-1 X=M,
12:u:Pre-2 X=Ma,
12:u:Suf-2 X=nt,
16:u:Num-1 R=volume,
23:u:Brk-1 R=closing-paren,
20:u:Tmn-4 R=none/other,
11:*:Fst-1 X=N,
13:u:Fst-2 X=N/4,
13:u:Fst-2 R=N/3,
12:u:Lst-1 X=Pe,
14:u:Lst-2 X=Pe/),
11:u:Pre-1 X=4,
11:u:Suf-1 X=),
12:u:Suf-2 L=nt,
21:u:Cap-2 R=other/other,
20:u:Cap-3 L=none/other,
16:*:Num-1 X=volume,
15:u:Num-1 R=range,
23:u:Num-2 R=volume/strong,
16:u:Pct-1 R=hyphen,
23:u:Brk-1 X=closing-paren,
18:u:Tmn-3 X=strong/),
13:u:Fst-2 X=N/3,
12:*:Lst-1 L=Pe,
11:u:Lst-1 X=N,
14:u:Lst-2 L=Pe/),
11:u:Pre-1 X=3,
21:u:Cap-2 L=other/other,
16:*:Num-1 L=volume,
15:*:Num-1 X=range,
20:u:Num-2 R=range/none,
16:u:Pct-1 X=hyphen,
23:u:Brk-1 L=closing-paren,
14:u:tok-1 X=2017,
11:*:Lst-1 L=N,
20:u:Cap-2 R=other/_x+1,
15:*:Num-1 L=range,
16:u:Pct-1 L=hyphen,
14:u:Fst-2 X=Lu/B,
11:u:Pre-1 X=B,
12:u:Pre-2 X=Ba,
11:u:tok-1 X=a,
12:u:Suf-2 X=A.,
23:u:Cap-2 L=single/single,
23:u:Cap-3 L=strong/single,
13:u:tok-1RR=new,
12:u:Suf-2 L=A.,
20:u:tok-1 X=statecraft,
12:u:tok-1LL=a.,
13:u:tok-1 R=new,
14:u:Fst-2 R=Lu/N,
12:u:Pre-2 R=Ne,
12:u:Suf-2 X=t:,
13:u:Tok-1 X=New,
13:u:tok-1 X=new,
17:u:tok-1RR=(2020).,
14:u:Fst-2 X=Lu/N,
14:u:Lst-2 X=Ll/w,
11:u:Pre-1 X=N,
12:u:Pre-2 X=Ne,
11:u:Suf-1 X=w,
12:u:Suf-2 L=t:,
12:u:Suf-2 X=ew,
16:u:Tmn-3 X=none/w,
13:u:tok-1 L=new,
14:u:Lst-2 L=Ll/w,
12:u:Suf-2 L=ew,
12:u:Suf-2 X=on,
14:u:tok-1 X=2020,
13:u:tok-1LL=new,
12:u:Suf-2 L=on,
19:u:tok-1 X=princeton,
16:u:Pos-2 R=8/last,
16:u:Pos-2 L=8/last,
12:u:tok-1 R=w.,
12:u:Pre-2 X=Be,
12:u:Pre-2 R=W.,
12:u:Tok-1 X=W.,
11:u:tok-1 X=w,
12:u:Pre-2 X=W.,
12:u:Suf-2 X=W.,
12:u:tok-1 L=w.,
12:u:Pre-2 X=Sa,
12:u:Suf-2 L=W.,
12:u:Suf-2 X=me,
12:u:tok-1LL=w.,
14:u:Fst-2 R=Ll/b,
12:u:Suf-2 L=me,
14:u:Fst-2 X=Ll/b,
11:u:Pre-1 X=b,
12:u:Pre-2 R=Di,
13:u:Pos-2 R=4/6,
12:u:Pre-2 X=Di,
13:u:Pos-2 L=4/6,
12:u:Pre-2 R=Re,
12:u:Suf-2 X=in,
18:u:tok-1 X=research,
12:u:Pre-2 X=Re,
12:u:Suf-2 L=in,
12:u:Suf-2 X=h.,
12:u:Suf-2 X=s,,
12:u:Suf-2 L=s,,
12:u:Suf-2 X=.,,
12:u:Pre-2 R=Do,
12:u:Suf-2 L=.,,
12:u:tok-1 L=m.,
12:u:Pre-2 X=Do,
12:u:Suf-2 L=M.,
18:u:Tmn-2 R=none/and,
12:u:tok-1LL=m.,
12:u:tok-1RR=j.,
14:u:Fst-2 R=Lu/G,
18:u:Key-3 L=none/and,
21:u:Tmn-4 R=none/single,
12:u:tok-1 R=j.,
14:u:Fst-2 X=Lu/G,
11:u:Pre-1 X=G,
12:u:Pre-2 R=J.,
22:u:Cap-2 L=lower/single,
21:u:Cap-3 L=none/single,
12:u:Tok-1 X=J.,
11:u:tok-1 X=j,
14:u:Fst-2 R=Lu/I,
12:u:Pre-2 X=J.,
12:u:Suf-2 X=J.,
19:u:Tok-1 X=Ikenberry,
19:u:tok-1 X=ikenberry,
12:u:tok-1 L=j.,
22:u:tok-1RR=intellectual,
22:u:tok-2 L=j./ikenberry,
22:u:tok-2 R=ikenberry/an,
14:u:Fst-2 X=Lu/I,
11:u:Pre-1 X=I,
12:u:Pre-2 X=Ik,
12:u:Suf-2 L=J.,
12:u:Suf-2 X=ry,
12:u:tok-1LL=j.,
12:u:Pre-2 R=In,
12:u:Suf-2 L=ry,
12:u:Pre-2 X=In,
12:u:Suf-2 X=ce,
14:u:Fst-2 R=Lu/K,
12:u:Suf-2 L=ce,
14:u:Fst-2 X=Lu/K,
11:u:Pre-1 X=K,
12:u:Suf-2 X=us,
12:u:Pre-2 R=(1,
12:u:Suf-2 L=us,
12:u:Pre-2 R=Po,
15:u:tok-1 X=power,
12:u:Pre-2 X=Po,
12:u:Pre-2 R=Se,
18:u:tok-1 X=security,
12:u:Pre-2 X=Se,
12:u:Pre-2 R=Ro,
18:u:Tmn-2 L=and/weak,
19:u:tok-1 X=routledge,
12:u:Pre-2 X=Ro,
12:u:Suf-2 X=e.,
12:u:Pre-2 X=Bl,
12:u:Suf-2 X=d,,
14:u:Fst-2 R=Lu/F,
12:u:Suf-2 L=d,,
11:u:tok-1 X=f,
14:u:Fst-2 X=Lu/F,
11:u:Pre-1 X=F,
12:u:Pre-2 X=F.,
12:u:Suf-2 X=ld,
16:u:Key-1 R=volume,
21:u:Tmn-2 R=none/volume,
16:u:Key-1 X=volume,
21:u:Key-3 L=none/volume,
23:u:Key-3 x=volume/strong,
12:u:Pre-2 R=Ri,
12:u:Suf-2 L=N.,
16:u:Key-1 L=volume,
19:u:tok-1RR=political,
12:u:Pre-2 X=Ri,
19:u:tok-1 R=political,
17:u:tok-1RR=economy,
23:u:tok-2 R=the/political,
14:u:Fst-2 R=Ll/p,
19:u:tok-1 X=political,
17:u:tok-1 R=economy,
23:u:tok-2 L=the/political,
27:u:tok-2 R=political/economy,
14:u:Fst-2 X=Ll/p,
14:u:Fst-2 R=Ll/e,
11:u:Pre-1 X=p,
21:u:Cap-2 R=lower/lower,
19:u:tok-1 L=political,
18:u:tok-1RR=national,
14:u:Fst-2 X=Ll/e,
11:u:Pre-1 X=e,
21:u:Cap-2 L=lower/lower,
18:u:tok-1 R=national,
21:u:tok-2 R=of/national,
14:u:Fst-2 R=Ll/n,
12:u:Pre-2 R=na,
18:u:tok-1 X=national,
21:u:tok-2 L=of/national,
14:u:Fst-2 X=Ll/n,
14:u:Fst-2 R=Ll/s,
11:u:Pre-1 X=n,
12:u:Pre-2 X=na,
12:u:Pre-2 R=se,
18:u:tok-1 L=national,
14:u:Fst-2 X=Ll/s,
11:u:Pre-1 X=s,
12:u:Pre-2 X=se,
12:u:Suf-2 X=y:,
18:u:tok-1LL=national,
12:u:Suf-2 L=y:,
14:u:Fst-2 R=Ll/i,
12:u:Pre-2 R=in,
12:u:Suf-2 X=t,,
23:u:tok-1RR=international,
14:u:Fst-2 X=Ll/i,
11:u:Pre-1 X=i,
12:u:Pre-2 X=in,
23:u:tok-1 R=international,
27:u:tok-2 R=and/international,
23:u:Tok-1 X=international,
23:u:tok-1 X=international,
18:u:tok-1RR=security,
27:u:tok-2 L=and/international,
14:u:Fst-2 R=Ll/c,
18:u:Tmn-2 L=and/none,
18:u:tok-1 X=conflict,
23:u:tok-1 L=international,
18:u:tok-1 R=security,
14:u:Fst-2 X=Ll/c,
11:u:Pre-1 X=c,
12:u:Suf-2 X=t.,
18:u:Tok-1 X=Security,
23:u:tok-1LL=international,
17:u:tok-1 R=studies,
17:u:Tok-1 X=Studies,
17:u:tok-1 X=studies,
18:u:tok-1 L=security,
13:u:Fst-2 R=N/9,
12:u:Suf-2 X=es,
18:u:tok-1LL=security,
17:u:tok-1 L=studies,
13:u:Fst-2 X=N/9,
13:u:Fst-2 R=N/1,
11:u:Pre-1 X=9,
12:u:Pre-2 R=1-,
12:u:Suf-2 L=es,
17:u:tok-1LL=studies,
13:u:Fst-2 X=N/1,
13:u:Lst-2 X=N/4,
11:u:Pre-1 X=1,
11:u:Suf-1 X=4,
12:u:Suf-2 X=14,
16:u:Tmn-3 X=none/4,
12:u:Suf-2 L=14,
12:u:Pre-2 X=Bo,
12:u:tok-1RR=s.,
22:u:Cap-2 R=single/lower,
22:u:Tmn-4 R=strong/lower,
12:u:tok-1 R=s.,
12:u:tok-1RR=w.,
12:u:Pre-2 R=S.,
22:u:Cap-2 L=single/lower,
22:u:Cap-3 L=strong/lower,
14:u:Key-1 R=page,
19:u:Tmn-2 R=none/page,
12:u:Suf-2 X=S.,
14:u:Key-1 X=page,
19:u:Key-3 L=none/page,
21:u:Key-3 x=page/strong,
12:u:tok-1 L=s.,
14:u:Fst-2 R=Lu/L,
12:u:Pre-2 R=Lo,
12:u:Suf-2 L=S.,
14:u:Key-1 L=page,
14:u:Fst-2 X=Lu/L,
11:u:Pre-1 X=L,
12:u:Pre-2 X=Lo,
18:u:tok-1 R=coercion,
12:u:tok-1RR=in,
12:u:tok-1 R=in,
12:u:Key-1 R=in,
17:u:Tmn-2 R=none/in,
12:u:Tok-1 X=in,
12:u:tok-1 X=in,
12:u:Pre-2 R=Cy,
12:u:Key-1 X=in,
18:u:Key-2 X=in/lower,
17:u:Key-3 L=none/in,
17:u:Key-3 x=in/none,
20:u:tok-1 X=cyberspace,
12:u:tok-1 L=in,
12:u:Pre-2 X=Cy,
12:u:Key-1 L=in,
12:u:tok-1LL=in,
21:u:tok-1 L=cyberspace.,
12:u:Suf-2 L=e.,
21:u:tok-1LL=cyberspace.,
13:u:Fst-2 R=N/2,
13:u:Fst-2 X=N/2,
11:u:Pre-1 X=2,
12:u:Pre-2 X=Br,
17:u:tok-1 R=foreign,
22:u:tok-1RR=intelligence,
12:u:Pre-2 R=Fo,
17:u:tok-1 X=foreign,
12:u:Pre-2 X=Fo,
12:u:Suf-2 X=gn,
22:u:Tok-1 X=Intelligence,
22:u:tok-1 X=intelligence,
14:u:Fst-2 R=Lu/H,
12:u:Pre-2 R=Ha,
12:u:Suf-2 L=gn,
17:u:Tok-1 X=Hackers,
17:u:tok-1 X=hackers,
17:u:tok-1LL=foreign,
22:u:tok-1 L=intelligence,
14:u:Fst-2 X=Lu/H,
11:u:Pre-1 X=H,
12:u:Pre-2 X=Ha,
12:u:Suf-2 X=rs,
22:u:tok-1LL=intelligence,
12:u:Suf-2 L=rs,
12:u:Suf-2 X=ir,
12:u:Suf-2 L=ir,
16:u:tok-2 R=in/the,
14:u:Fst-2 R=Ll/t,
12:u:Pre-2 R=th,
13:u:Tok-1 X=the,
16:u:tok-2 L=in/the,
14:u:Fst-2 X=Ll/t,
11:u:Pre-1 X=t,
12:u:Pre-2 X=th,
14:u:Cap-1 R=caps,
20:u:Cap-2 R=lower/caps,
17:u:Tmn-2 L=in/none,
19:u:Tmn-4 R=none/caps,
12:u:Lst-1 X=Lu,
14:u:Lst-2 X=Lu/C,
11:u:Suf-1 X=C,
14:u:Cap-1 X=caps,
20:u:Cap-2 L=lower/caps,
22:u:Cap-2 R=caps/initial,
19:u:Cap-3 L=none/caps,
19:u:Key-2 X=none/caps,
16:u:Tmn-3 X=none/C,
12:*:Lst-1 L=Lu,
14:u:Lst-2 L=Lu/C,
14:u:Cap-1 L=caps,
22:u:Cap-2 L=caps/initial,
19:u:tok-1 X=community,
12:u:Pre-2 R=Ad,
12:u:tok-1 L=l.,
12:u:Suf-2 L=L.,
12:u:tok-1LL=l.,
12:u:Pre-2 R=Cr,
12:u:Pre-2 X=Cr,
16:u:tok-2 R=of/the,
17:u:tok-1RR=chinese,
16:u:tok-2 L=of/the,
13:u:Lst-2 X=P/?,
12:u:Pre-2 R=Ch,
11:u:Suf-1 X=?,
16:u:Tmn-3 X=weak/?,
13:u:Lst-2 L=P/?,
12:u:Pre-2 X=Ch,
12:u:Suf-2 X=se,
12:u:Suf-2 L=se,
12:u:tok-1RR=on,
12:u:Pre-2 R=Pe,
12:u:tok-1 R=on,
25:u:tok-2 R=perspectives/on,
12:u:Pre-2 X=Pe,
12:u:Pre-2 R=on,
12:u:Tok-1 X=on,
12:u:tok-1 X=on,
22:u:tok-1 L=perspectives,
17:u:tok-1RR=(2019).,
25:u:tok-2 L=perspectives/on,
12:u:Pre-2 X=on,
12:u:tok-1 L=on,
14:u:tok-1 X=2019,
12:u:tok-1LL=on,
14:u:Fst-2 R=Lu/B,
12:u:Pre-2 X=Bu,
19:u:tok-1LL=buchanan,,
12:u:tok-1 L=b.,
12:u:Pre-2 R=Es,
12:u:Suf-2 L=B.,
12:u:Pre-2 X=Es,
12:u:Suf-2 X=er,
17:u:tok-2 R=and/the,
12:u:Suf-2 L=er,
17:u:tok-2 L=and/the,
15:u:Tok-1 X=State,
15:u:tok-1 X=state,
13:u:Fst-2 R=N/8,
12:u:Suf-2 X=te,
15:u:tok-1 L=state,
12:u:Suf-2 L=te,
15:u:tok-1LL=state,
13:u:Lst-2 L=N/7,
15:u:tok-1RR=press,
15:u:Tok-1 X=Press,
12:u:Suf-2 X=ss,
19:u:Tmn-2 R=none/_x+1,
19:u:Tmn-4 R=none/_x+1,
12:u:Pre-2 X=Ca,
12:u:Pre-2 R=Fi,
12:u:tok-1RR=is,
14:u:Lst-2 X=Ll/g,
12:u:Pre-2 X=Fi,
11:u:Suf-1 X=g,
12:u:Suf-2 X=ng,
16:u:Tmn-3 X=none/g,
14:u:Lst-2 L=Ll/g,
12:u:Pre-2 X=Al,
12:u:Suf-2 L=ng,
12:u:Suf-2 X=ne,
12:u:Suf-2 L=ne,
12:u:Suf-2 X=is,
12:u:tok-1 L=is,
12:u:Suf-2 L=is,
12:u:Suf-2 X=ed,
12:u:Suf-2 L=ed,
12:u:Pre-2 R=Le,
12:u:Suf-2 X=ns,
12:u:Pre-2 R=Fr,
12:u:Suf-2 L=ns,
12:u:Pre-2 X=Fr,
15:u:tok-1RR=cyber,
12:u:Pre-2 X=Sy,
15:u:tok-1 R=cyber,
19:u:tok-2 R=the/cyber,
12:u:Suf-2 L=s.,
15:u:Tok-1 X=Cyber,
15:u:tok-1 X=cyber,
17:u:tok-1 R=defense,
16:u:tok-1RR=review,
19:u:tok-2 L=the/cyber,
17:u:Tok-1 X=Defense,
17:u:tok-1 X=defense,
15:u:tok-1 L=cyber,
16:u:tok-1 R=review,
22:u:Tmn-2 R=none/journal,
16:u:tok-1 X=review,
15:u:tok-1LL=cyber,
17:u:tok-1 L=defense,
22:u:Key-3 L=none/journal,
17:u:tok-1LL=defense,
13:u:Fst-2 X=N/7,
11:u:Pre-1 X=7,
24:u:Tmn-2 L=journal/strong,
13:u:Lst-2 X=N/2,
11:u:Suf-1 X=2,
16:u:Tmn-3 X=none/2,
12:u:Pre-2 X=Pu,
12:u:Pre-2 X=pa,
12:u:Suf-2 L=ps,
12:u:Pre-2 R=cy,
23:u:tok-1 X=cybersecurity,
12:u:Pre-2 X=cy,
23:u:Tok-1 X=International,
17:u:tok-1 R=affairs,
12:u:Pre-2 R=Af,
17:u:Tok-1 X=Affairs,
17:u:tok-1 X=affairs,
23:u:Brk-1 R=opening-paren,
19:u:tok-1 R=institute,
28:u:Num-2 R=none/opening-paren,
23:u:Brk-1 X=opening-paren,
23:u:Brk-1 L=opening-paren,
19:u:tok-1 L=institute,
26:u:tok-2 R=of/international,
19:u:tok-1LL=institute,
26:u:tok-2 L=of/international,
14:u:tok-1 X=2016,
14:u:Fst-2 R=Lu/V,
14:u:Fst-2 X=Lu/V,
11:u:Pre-1 X=V,
12:u:tok-1 L=v.,
12:u:Suf-2 X=ve,
19:u:tok-1 R=deterring,
12:u:Suf-2 L=ve,
12:u:Pre-2 R=We,
12:u:Suf-2 X='s,
12:u:Pre-2 X=We,
12:u:Suf-2 L='s,
32:u:tok-2 R=international/security,
21:u:Tmn-2 R=strong/page,
19:u:Tmn-2 L=page/none,
15:u:Tok-1 X=Evers,
15:u:tok-1 X=evers,
14:u:tok-1 R=wars,
17:u:tok-1RR=without,
18:u:tok-2 L=m./evers,
20:u:tok-2 R=evers/wars,
12:u:Pre-2 X=Ev,
14:u:Fst-2 R=Ll/w,
14:u:Fst-2 X=Ll/w,
11:u:Pre-1 X=w,
12:u:Pre-2 R=Gu,
13:u:Tok-1 X=Gun,
13:u:tok-1 X=gun,
16:u:tok-1RR=global,
12:u:Pre-2 X=Gu,
12:u:Suf-2 X=un,
13:u:tok-1 L=gun,
16:u:tok-1 R=global,
12:u:Pre-2 X=Sm,
12:u:Pre-2 R=Gl,
16:u:Tok-1 X=Global,
16:u:tok-1 X=global,
12:u:Pre-2 R=Su,
16:u:tok-1 L=global,
15:u:tok-1RR=power,
12:u:Pre-2 X=Su,
12:u:Suf-2 X=ly,
16:u:tok-1LL=global,
15:u:tok-1 R=power,
12:u:Suf-2 L=ly,
15:u:Tok-1 X=Power,
12:u:Pre-2 R=Tr,
15:u:tok-1 L=power,
12:u:Pre-2 X=Tr,
15:u:tok-1LL=power,
21:u:tok-1RR=cyberspace:,
21:u:tok-1 R=cyberspace:,
12:u:Pre-2 R=Pa,
12:u:Pre-2 X=Pa,
17:u:tok-1RR=(2010).,
12:u:Pre-2 R=fu,
16:u:tok-1 X=future,
12:u:Pre-2 X=fu,
21:u:Cap-2 R=lower/other,
21:u:Cap-2 L=lower/other,
17:u:tok-1 L=(2010).,
12:u:Suf-2 X=ts,
12:u:Suf-2 L=ts,
17:u:tok-1RR=working,
12:u:Pre-2 R=Te,
20:u:tok-1 X=technology,
15:u:tok-1RR=paper,
12:u:Pre-2 X=Te,
12:u:Pre-2 R=Wo,
17:u:Tok-1 X=Working,
17:u:tok-1 X=working,
15:u:tok-1 R=paper,
23:u:tok-2 R=working/paper,
12:u:Pre-2 X=Wo,
15:u:Tok-1 X=Paper,
15:u:tok-1 X=paper,
23:u:tok-2 L=working/paper,
19:u:Tmn-2 R=weak/page,
11:u:tok-1 X=i,
12:u:Pre-2 R=Be,
12:u:Pre-2 R=Ge,
12:u:Pre-2 X=Ge,
11:u:tok-1RR=a,
14:u:Lst-2 X=Ll/h,
11:u:Suf-1 X=h,
12:u:Suf-2 X=ch,
16:u:Tmn-3 X=none/h,
11:u:tok-1 R=a,
15:u:tok-2 R=for/a,
14:u:Lst-2 L=Ll/h,
11:u:Pre-2 R=a,
12:u:Suf-2 L=ch,
11:u:Tok-1 X=a,
15:u:tok-2 L=for/a,
15:u:tok-2 R=a/new,
14:u:Lst-2 X=Ll/a,
11:u:Pre-2 X=a,
11:u:Suf-1 X=a,
11:u:Suf-2 X=a,
16:u:Tmn-3 X=none/a,
11:u:tok-1 L=a,
14:u:Lst-2 L=Ll/a,
11:u:Suf-2 L=a,
11:u:tok-1LL=a,
14:u:Fst-2 R=Lu/O,
12:u:Pre-2 R=Or,
14:u:Fst-2 X=Lu/O,
11:u:Pre-1 X=O,
12:u:Pre-2 X=Or,
14:u:Fst-2 R=Lu/Y,
14:u:Fst-2 X=Lu/Y,
11:u:Pre-1 X=Y,
12:u:Pre-2 X=Da,
12:u:Suf-2 L=m,,
12:u:Suf-2 X=et,
12:u:Suf-2 L=et,
18:u:tok-1RR=critical,
12:u:Pre-2 R=So,
18:u:tok-1 R=critical,
12:u:Pre-2 X=So,
12:u:Pre-2 R=As,
18:u:tok-1 L=critical,
12:u:Pre-2 X=As,
18:u:tok-1LL=critical,
12:u:Pre-2 R=27,
14:u:Lst-2 X=Ll/i,
11:u:Suf-1 X=i,
16:u:Tmn-3 X=none/i,
14:u:Fst-2 R=Ll/v,
14:u:Lst-2 L=Ll/i,
12:u:Pre-2 X=Li,
12:u:Suf-2 L=ki,
18:u:tok-1 R=control:,
13:u:tok-1 L=vs.,
13:u:tok-1LL=vs.,
16:u:tok-1 R=future,
20:u:tok-2 R=the/future,
20:u:tok-2 L=the/future,
19:u:tok-2 R=future/of,
12:u:Suf-2 X=re,
16:u:tok-1 L=future,
19:u:tok-2 L=future/of,
12:u:Suf-2 L=re,
19:u:tok-1RR=democracy,
29:u:tok-2 L=cyberspace./journal,
19:u:tok-1 R=democracy,
15:u:tok-1RR=21(4),
22:u:tok-2 R=of/democracy,
19:u:Tok-1 X=Democracy,
19:u:tok-1 X=democracy,
15:u:tok-1 R=21(4),
15:u:tok-1RR=43-57,
22:u:tok-2 L=of/democracy,
25:u:tok-2 R=democracy/21(4),
12:u:Pre-2 R=21,
12:u:Suf-2 X=cy,
12:u:Suf-2 L=cy,
19:u:tok-1RR=cambridge,
12:u:Pre-2 R=Ca,
19:u:Tok-1 X=Cambridge,
19:u:tok-1 X=cambridge,
12:u:Suf-2 X=ge,
12:u:Suf-2 L=ge,
12:u:Pre-2 X=Fa,
17:u:tok-1RR=privacy,
12:u:Pre-2 R=Of,
12:u:Pre-2 X=Of,
19:u:tok-1RR=security.,
12:u:Suf-2 X=om,
19:u:tok-1 R=security.,
12:u:Suf-2 L=om,
19:u:Tok-1 X=Security.,
19:u:tok-1 L=security.,
19:u:tok-1LL=security.,
17:u:tok-1LL=(2019).,
21:u:Tmn-2 L=volume/none,
16:u:tok-1RR=policy,
21:u:Tmn-2 L=in/moderate,
16:u:tok-1 R=policy,
24:u:tok-2 R=foreign/policy,
16:u:Tok-1 X=Policy,
16:u:tok-1 X=policy,
16:u:tok-1 L=policy,
16:u:tok-1LL=policy,
17:u:tok-1RR=council,
17:u:tok-1 R=council,
17:u:Tok-1 X=Council,
17:u:tok-1 X=council,
12:u:Suf-2 X=il,
17:u:tok-1 L=council,
12:u:Suf-2 L=il,
17:u:tok-1LL=council,
14:u:Tok-1 X=Pope,
14:u:tok-1 X=pope,
20:u:tok-1 R=structural,
16:u:tok-1RR=causes,
17:u:tok-2 L=e./pope,
25:u:tok-2 R=pope/structural,
12:u:Suf-2 X=pe,
12:u:Pre-2 R=Wh,
12:u:Suf-2 X=s:,
12:u:Pre-2 X=Wh,
12:u:Suf-2 L=s:,
19:u:tok-1 R=quarterly,
14:u:Fst-2 R=Lu/Q,
12:u:Pre-2 R=Qu,
12:u:Pre-2 R=11,
12:u:Pre-2 X=11,
17:u:Tok-1 X=Lindsay,
17:u:tok-1 X=lindsay,
17:u:tok-1 R=weaving,
17:u:tok-1RR=tangled,
20:u:tok-2 L=r./lindsay,
25:u:tok-2 R=lindsay/weaving,
12:u:Pre-2 X=Ta,
18:u:tok-1LL=defense,,
12:u:Pre-2 R=24,
12:u:Pre-2 X=24,
14:u:tok-1 X=2015,
19:u:Tok-1 X=Political,
15:u:Tok-1 X=Smith,
15:u:tok-1 X=smith,
15:u:tok-1 R=great,
18:u:tok-2 L=w./smith,
21:u:tok-2 R=smith/great,
12:u:Suf-2 X=th,
12:u:Pre-2 X=Gr,
12:u:Suf-2 L=th,
12:u:Suf-2 X=at,
12:u:Suf-2 L=at,
12:u:Suf-2 X=n:,
12:u:Pre-2 R=Wi,
21:u:tok-1RR=information,
21:u:tok-1 R=information,
21:u:Tok-1 X=Information,
12:u:Pre-2 R=En,
21:u:tok-1 L=information,
12:u:Pre-2 X=En,
11:u:tok-1RR=&,
11:u:Fst-1 R=P,
13:u:Pct-1 R=amp,
11:u:Tok-1 X=&,
15:u:tok-1 X=BLANK,
11:*:Fst-1 X=P,
13:u:Fst-2 X=P/&,
13:u:Lst-2 X=P/&,
11:u:Pre-1 X=&,
11:u:Pre-2 X=&,
11:u:Suf-1 X=&,
11:u:Suf-2 X=&,
19:u:Key-2 X=and/other,
16:u:Tmn-3 X=none/&,
11:u:tok-1 L=&,
13:u:Lst-2 L=P/&,
11:u:Suf-2 L=&,
13:u:Pct-1 L=amp,
15:u:tok-1 X=group,
12:u:Pre-2 R=Cl,
14:u:Lst-2 X=Ll/b,
11:u:Suf-1 X=b,
16:u:Tmn-3 X=none/b,
14:u:Lst-2 L=Ll/b,
12:u:Suf-2 X=i,,
12:u:Suf-2 L=i,,
11:u:tok-1 X=c,
12:u:tok-1 L=c.,
11:u:Pre-2 R=A,
12:u:Suf-2 L=C.,
11:u:Tok-1 X=A,
14:u:Lst-2 X=Lu/A,
11:u:Pre-2 X=A,
11:u:Suf-1 X=A,
12:u:Suf-2 L=sh,
11:u:Suf-2 X=A,
16:u:Tmn-3 X=none/A,
14:u:Lst-2 L=Lu/A,
11:u:Suf-2 L=A,
20:u:Tok-1 X=Cyberspace,
20:u:tok-1 L=cyberspace,
16:u:tok-1 R=russia,
16:u:Tok-1 X=Russia,
16:u:tok-1 X=russia,
20:u:tok-1LL=cyberspace,
12:u:Suf-2 L=w:,
12:u:Suf-2 X=ia,
16:u:tok-1 L=russia,
15:u:tok-1 X=china,
16:u:tok-1LL=russia,
12:u:Suf-2 X=a.,
12:u:Suf-2 L=a.,
16:u:tok-1LL=china.,
14:u:Fst-2 R=Lu/Z,
12:u:Pre-2 R=Ze,
14:u:Fst-2 X=Lu/Z,
11:u:Pre-1 X=Z,
14:u:tok-1RR=norm,
12:u:Pre-2 R=No,
12:u:Pre-2 X=No,
12:u:Pre-2 R=Em,
12:u:Pre-2 X=Em,
14:u:tok-1LL=norm,
12:u:Pre-2 R=US,
22:u:Cap-2 R=initial/caps,
12:u:tok-1 X=us,
12:u:Pre-2 X=US,
22:u:Cap-2 L=initial/caps,
15:u:Tok-1 X=China,
12:u:Pre-2 R=Go,
12:u:Pre-2 X=Go,
22:u:tok-2 R=and/security,
12:u:Pre-2 R=19,
12:u:Pre-2 X=19,
13:u:Lst-2 X=N/0,
11:u:Suf-1 X=0,
16:u:Tmn-3 X=none/0,
12:u:Pre-2 X=Ho,
12:u:Pre-2 R=P.,
11:u:tok-1 X=p,
12:u:tok-1 L=p.,
14:u:Lst-2 X=Ll/k,
11:u:Suf-1 X=k,
12:u:Suf-2 L=P.,
16:u:Tmn-3 X=none/k,
12:u:tok-1LL=p.,
14:u:Lst-2 L=Ll/k,
24:u:Tmn-4 R=moderate/lower,
18:u:tok-1RR=politics,
18:u:tok-1 R=politics,
18:u:tok-1 X=politics,
12:u:Pre-2 R=ac,
12:u:Suf-2 X=cs,
12:u:Suf-2 L=cs,
12:u:Suf-2 L=ss,
12:u:Pre-2 R=30,
12:u:Pre-2 R=Br,
12:u:Pre-2 R=Ar,
12:u:Pre-2 X=Ar,
12:u:Pre-2 R=10,
12:u:Pre-2 X=Hu,
12:u:Suf-2 X=g,,
12:u:Suf-2 L=g,,
19:u:tok-1RR=diplomacy,
20:u:Cap-2 R=other/caps,
21:u:Tmn-4 R=strong/caps,
20:u:Cap-2 L=other/caps,
21:u:Cap-3 L=strong/caps,
12:u:Pre-2 R=Ve,
14:u:tok-1 R=with,
14:u:tok-1 X=with,
14:u:tok-1 L=with,
14:u:tok-1LL=with,
18:u:tok-1 L=warfare.,
18:u:tok-1LL=warfare.,
15:u:Tok-1 X=World,
15:u:tok-1 L=world,
12:u:Pre-2 X=15,
12:u:Suf-2 L=ls,
14:u:Lst-2 X=Ll/p,
11:u:Suf-1 X=p,
16:u:Tmn-3 X=none/p,
14:u:Lst-2 L=Ll/p,
20:u:tok-1LL=university,
12:u:Suf-2 X=de,
12:u:Suf-2 L=de,
12:u:Pre-2 R=Me,
12:u:tok-1RR=to,
12:u:tok-1 R=to,
12:u:Pre-2 R=to,
12:u:Tok-1 X=to,
12:u:tok-1 X=to,
16:u:tok-1 R=theory,
14:u:Lst-2 X=Ll/o,
12:u:Pre-2 X=to,
11:u:Suf-1 X=o,
12:u:Suf-2 X=to,
16:u:Tmn-3 X=none/o,
12:u:tok-1 L=to,
14:u:Lst-2 L=Ll/o,
12:u:Suf-2 L=to,
12:u:tok-1LL=to,
16:u:tok-1LL=theory,
12:u:tok-1 L=o.,
12:u:Suf-2 L=O.,
12:u:tok-1LL=o.,
13:u:Tok-1 X=Nye,
13:u:tok-1 X=nye,
16:u:tok-2 L=s./nye,
19:u:tok-2 R=nye/power,
12:u:Pre-2 X=Ny,
12:u:Suf-2 X=ye,
12:u:Suf-2 L=ye,
13:u:Lst-2 L=N/5,
15:u:tok-1 X=trust,
14:u:tok-1RR=from,
11:u:tok-1 X=t,
14:u:tok-1 R=from,
14:u:tok-1 X=from,
12:u:Suf-2 L=T.,
14:u:tok-1 L=from,
14:u:tok-1LL=from,
12:u:Suf-2 X=m.,
12:u:Suf-2 L=m.,
12:u:Pre-2 R=Na,
18:u:Tok-1 X=National,
12:u:Pre-2 X=Na,
12:u:Tok-1 X=F.,
16:u:tok-1 L=press.,
12:u:Suf-2 X=F.,
12:u:Pre-2 X=La,
16:u:tok-1RR=survey,
19:u:tok-1 X=available,
14:u:Fst-2 R=Ll/r,
12:u:Pre-2 R=re,
14:u:Fst-2 X=Ll/r,
11:u:Pre-1 X=r,
12:u:Pre-2 X=re,
16:u:tok-1 L=threat,
16:u:tok-1LL=threat,
16:u:Num-1 R=double,
11:u:tok-1LL=&,
16:*:Num-1 X=double,
21:u:Num-2 R=double/none,
16:*:Num-1 L=double,
12:u:Suf-2 X=rk,
12:u:Suf-2 L=rk,
14:u:Fst-2 R=Ll/l,
14:u:Fst-2 X=Ll/l,
11:u:Pre-1 X=l,
12:u:Pre-2 X=la,
18:u:Tok-1 X=European,
18:u:tok-1 X=european,
12:u:Pre-2 X=Eu,
14:u:tok-1LL=what,
18:u:tok-1 L=european,
12:u:Pre-2 R=fr,
14:u:Tok-1 X=from,
16:u:tok-1RR=public,
12:u:Pre-2 X=fr,
12:u:Pre-2 R=gl,
16:u:Tok-1 X=global,
16:u:tok-1 R=public,
18:u:tok-1RR=opinion,,
14:u:Fst-2 X=Ll/g,
11:u:Pre-1 X=g,
12:u:Pre-2 X=gl,
18:u:tok-1 R=opinion,,
19:u:Tmn-4 R=weak/caps,
16:u:tok-1LL=public,
20:u:Cap-2 R=caps/other,
19:u:Cap-3 L=weak/caps,
20:u:Cap-2 L=caps/other,
13:u:tok-1RR=law,
13:u:tok-1 R=law,
12:u:Pre-2 R=La,
13:u:Tok-1 X=Law,
13:u:tok-1 X=law,
12:u:Suf-2 X=aw,
13:u:tok-1 L=law,
20:u:tok-2 L=law/review,
12:u:Suf-2 L=aw,
13:u:tok-1LL=law,
12:u:Pre-2 R=14,
19:u:Num-2 R=year/none,
12:u:Suf-2 X=st,
12:u:Suf-2 L=st,
12:u:Pre-2 R=Sc,
12:u:Pre-2 X=Sc,
16:u:Num-1 R=single,
16:*:Num-1 X=single,
21:u:Num-2 R=single/none,
16:*:Num-1 L=single,
12:u:Suf-2 X=ke,
12:u:Suf-2 X=d.,
24:u:Key-3 x=journal/strong,
12:u:Suf-2 L=d.,
12:u:Pre-2 R=Hu,
16:u:tok-1RR=oxford,
16:u:tok-1 L=oxford,
12:u:tok-1RR=by,
12:u:tok-1 R=by,
12:u:Pre-2 R=by,
12:u:Tok-1 X=by,
12:u:tok-1 X=by,
14:u:Fst-2 R=Ll/d,
12:u:Pre-2 X=by,
12:u:Pre-2 R=de,
12:u:Suf-2 X=by,
12:u:tok-1 L=by,
14:u:Fst-2 X=Ll/d,
11:u:Pre-1 X=d,
12:u:Pre-2 X=de,
12:u:Suf-2 L=by,
12:u:tok-1LL=by,
17:u:tok-1 L=digital,
17:u:tok-1LL=digital,
12:u:Pre-2 R=Op,
12:u:Pre-2 X=Op,
12:u:Pre-2 R=Si,
12:u:Pre-2 R=Ho,
12:u:Pre-2 R=Is,
16:u:tok-1 X=issues,
12:u:Pre-2 X=Is,
12:u:Pre-2 R=20,
12:u:Pre-2 X=20,
18:u:Num-2 R=all/none,
13:u:Pos-2 R=1/3,
13:u:Pos-2 L=1/3,
17:u:tok-1 L=(2018).,
17:u:tok-1LL=(2018).,
12:u:Pre-2 X=Mu,
12:u:Suf-2 X=ll,
12:u:Suf-2 L=ll,
13:u:tok-1 R=how,
12:u:Suf-2 L=y?,
12:u:Suf-2 X=ow,
12:u:Pre-2 R=Bu,
12:u:Pre-2 X=To,
14:u:tok-1RR=law.,
14:u:tok-1 R=law.,
14:u:Tok-1 X=Law.,
12:u:Suf-2 X=w.,
12:u:Suf-2 L=w.,
12:u:Pre-2 R=On,
16:u:tok-1 X=online,
14:u:tok-1 R=law,,
12:u:Pre-2 X=On,
14:u:Tok-1 X=Law,,
12:u:Suf-2 X=w,,
14:u:tok-1 L=law,,
12:u:tok-1 R=3.,
12:u:Pre-2 R=3.,
12:u:Suf-2 L=w,,
17:u:Num-1 R=numeric,
14:u:tok-1LL=law,,
12:u:Suf-2 X=3.,
17:*:Num-1 X=numeric,
22:u:Num-2 R=numeric/none,
24:u:Num-2 R=numeric/strong,
12:u:Suf-2 L=3.,
17:*:Num-1 L=numeric,
12:u:Pre-2 R=Ja,
12:u:Pre-2 X=Ja,
12:u:Pre-2 R=Sh,
12:u:Pre-2 X=Sh,
14:u:tok-2 R=of/a,
14:u:tok-2 L=of/a,
15:u:Tok-1 X=cyber,
24:u:tok-1 R=infrastructure,
20:u:tok-1RR=protection,
33:u:tok-2 R=critical/infrastructure,
20:u:tok-1 R=protection,
20:u:Tok-1 X=Protection,
20:u:tok-1 X=protection,
12:u:Pre-2 R=di,
12:u:Pre-2 X=di,
12:u:tok-1RR=us,
12:u:tok-1 R=us,
14:u:Lst-2 X=Lu/S,
11:u:Suf-1 X=S,
20:u:Cap-2 R=caps/lower,
16:u:Tmn-3 X=none/S,
18:u:tok-1 X=military,
12:u:tok-1 L=us,
14:u:Lst-2 L=Lu/S,
12:u:Suf-2 L=US,
20:u:Cap-2 L=caps/lower,
12:u:tok-1LL=us,
17:u:Num-1 R=ordinal,
20:u:Tmn-4 R=weak/other,
21:u:Cap-2 R=other/lower,
20:u:Cap-3 L=weak/other,
17:*:Num-1 X=ordinal,
22:u:Num-2 R=ordinal/none,
21:u:Cap-2 L=other/lower,
17:*:Num-1 L=ordinal,
14:u:tok-1RR=uses,
14:u:tok-1 R=uses,
12:u:Pre-2 R=Us,
17:u:tok-1RR=(2021).,
17:u:tok-1 R=(2021).,
14:u:tok-1 X=2021,
17:u:tok-1 L=(2021).,
12:u:Suf-2 X=gs,
16:u:tok-1 R=press:,
24:u:Tmn-4 R=moderate/other,
12:u:Suf-2 X=6.,
24:u:Cap-3 L=moderate/other,
12:u:Suf-2 L=6.,
12:u:Pre-2 R=Fa,
19:u:Tmn-2 R=weak/_x+1,
19:u:Tmn-4 R=weak/_x+1,
12:u:Tok-1 X=On,
16:u:tok-2 R=on/the,
12:u:Suf-2 X=On,
16:u:tok-2 L=on/the,
12:u:Pre-2 R=tr,
12:u:Suf-2 L=On,
13:u:Fst-2 R=N/6,
13:u:Fst-2 X=N/6,
11:u:Pre-1 X=6,
17:u:tok-1RR=company,
12:u:Pre-2 R=AP,
12:u:Pre-2 X=AP,
15:*:Num-1 X=idnum,
17:u:tok-1 X=network,
12:u:Suf-2 X=k.,
12:u:Suf-2 L=k.,
12:u:Pre-2 R=Ce,
12:u:Pre-2 X=Ce,
16:u:tok-1RR=center,
16:u:tok-1 R=center,
16:u:tok-1 L=center,
16:u:tok-1LL=center,
12:u:Suf-2 X=ms,
12:u:Pre-2 X=Va,
12:u:Suf-2 X=n.,
12:u:Suf-2 L=n.,
12:u:Suf-2 X=0.,
12:u:Suf-2 L=0.,
12:u:Suf-2 L=en,
12:u:Pre-2 R=af,
12:u:Pre-2 X=af,
12:u:Pre-2 R=ap,
12:u:Pre-2 X=ap,
18:u:tok-1RR=magazine,
12:u:Pre-2 R=SA,
14:u:Lst-2 X=Lu/E,
12:u:Pre-2 X=SA,
11:u:Suf-1 X=E,
16:u:Tmn-3 X=none/E,
14:u:Lst-2 L=Lu/E,
14:u:tok-1RR=part,
12:u:Pre-2 R=36,
14:u:tok-1 R=part,
12:u:Suf-2 X=1,,
14:u:Tok-1 X=Part,
14:u:tok-1 X=part,
12:u:Suf-2 X=rt,
12:u:Suf-2 L=rt,
14:u:tok-1LL=part,
12:u:Pre-2 X=[T,
16:u:Tok-1 X=future,
12:u:Suf-2 X=gy,
12:u:Suf-2 L=gy,
12:u:Suf-2 X=o.,
17:u:tok-1LL=context,
12:u:Suf-2 X=ds,
12:u:Suf-2 L=ds,
12:u:Pre-2 R=Ag,
12:u:Pre-2 X=Ag,
27:u:tok-2 L=international/law,
16:u:Num-1 R=triple,
16:*:Num-1 X=triple,
21:u:Num-2 R=triple/none,
16:*:Num-1 L=triple,
12:u:Pre-2 X=Hi,
12:u:Pre-2 R=It,
19:u:Tmn-2 L=_x-1/none,
12:u:Suf-2 X=a:,
13:u:Pos-2 R=0/0,
13:u:Pos-2 L=0/0,
19:u:Tmn-2 R=strong/in,
20:u:Key-2 X=in/initial,
19:u:Key-3 L=strong/in,
15:u:tok-1 R=2018.,
15:u:tok-1RR=2017.,
15:u:tok-1 R=2017.,
12:u:Suf-2 X=8.,
12:u:Suf-2 L=8.,
12:u:Suf-2 X=7.,
15:u:tok-1 L=press,
15:u:tok-1LL=press,
14:u:Pos-2 R=9/10,
14:u:Lst-2 X=Lu/N,
12:u:Pre-2 X=PN,
11:u:Suf-1 X=N,
16:u:Key-1 R=editor,
12:u:Pos-1 X=10,
14:u:Pos-2 L=9/10,
17:u:Pos-2 R=10/last,
21:u:Tmn-2 R=none/editor,
16:u:Tmn-3 X=none/N,
13:u:tok-1 X=eds,
14:u:Lst-2 L=Lu/N,
20:u:Cap-2 R=lower/_x+1,
21:u:Num-2 R=none/parens,
16:u:Key-1 X=editor,
22:u:Key-2 X=editor/lower,
21:u:Key-3 L=none/editor,
23:u:Key-3 x=editor/strong,
17:u:Pos-2 L=10/last,
13:u:Lst-2 L=P/',
21:u:Key-1 R=proceedings,
26:u:Tmn-2 R=none/proceedings,
21:u:Key-1 X=proceedings,
29:u:Key-2 X=proceedings/initial,
26:u:Key-3 L=none/proceedings,
26:u:Key-3 x=proceedings/none,
21:u:Key-1 L=proceedings,
26:u:Tmn-2 L=proceedings/none,
15:u:tok-1 L=paper,
15:u:tok-1LL=paper,
14:u:Fst-2 R=Ll/u,
12:u:Pre-2 R=un,
14:u:Fst-2 X=Ll/u,
11:u:Pre-1 X=u,
12:u:Pre-2 X=un,
14:u:tok-1RR=york,
14:u:tok-1 R=york,
18:u:tok-2 R=new/york,
12:u:Pre-2 R=Yo,
14:u:tok-1 X=york,
15:u:tok-1RR=2013.,
12:u:Pre-2 X=Yo,
12:u:Pre-2 R=Ti,
14:u:tok-1 L=york,
12:u:tok-1RR=20,
12:u:Pre-2 X=Ti,
14:u:tok-1LL=york,
19:u:tok-1RR=september,
12:u:tok-1 X=20,
19:u:tok-1 R=september,
12:u:Suf-2 X=20,
14:u:Key-1 R=date,
19:u:Tmn-2 R=none/date,
19:u:Tok-1 X=September,
19:u:tok-1 X=september,
14:u:Key-1 X=date,
22:u:Key-2 X=date/initial,
19:u:Key-3 L=none/date,
19:u:Key-3 x=date/none,
19:u:tok-1 L=september,
14:u:Key-1 L=date,
21:u:Tmn-2 L=date/strong,
14:u:Fst-2 R=Ll/h,
14:u:Lst-2 X=Lu/Y,
12:u:Pre-2 R=ht,
11:u:Suf-1 X=Y,
16:u:Tmn-3 X=none/Y,
14:u:Fst-2 X=Ll/h,
11:u:Pre-1 X=h,
12:u:Pre-2 X=ht,
14:u:tok-1RR=u.s.,
14:u:tok-1 R=u.s.,
12:u:Pre-2 R=U.,
14:u:Tok-1 X=U.S.,
20:u:tok-2 R=u.s./cyber,
12:u:Pre-2 X=U.,
14:u:tok-1 L=u.s.,
14:u:tok-1LL=u.s.,
12:u:Pre-2 R=12,
21:u:Tmn-2 R=strong/date,
21:u:Key-3 L=strong/date,
12:u:Suf-2 X=id,
12:u:Suf-2 L=id,
25:u:Tmn-4 R=moderate/single,
19:u:tok-1 R=committee,
19:u:tok-1 X=committee,
19:u:tok-1 L=committee,
12:u:Suf-2 L=ee,
12:u:Pre-2 X=He,
16:u:tok-1 L=times.,
16:u:tok-1LL=times.,
15:u:tok-1RR=march,
15:u:tok-1 X=march,
15:u:tok-1LL=march,
17:u:tok-1 R=october,
12:u:Pre-2 R=Oc,
31:u:Num-2 R=numeric/opening-paren,
17:u:Tok-1 X=October,
17:u:tok-1 X=october,
15:u:tok-1 R=2017,,
12:u:Pre-2 X=Oc,
17:u:tok-1 L=october,
19:u:Num-2 R=year/weak,
19:u:Tmn-2 L=date/weak,
19:u:Key-3 L=weak/date,
14:u:Tok-1 X=last,
14:u:tok-1 X=last,
15:u:tok-1LL=2017,,
14:u:tok-1 L=date,
20:u:tok-1 R=accessed).,
19:u:tok-2 L=date/last,
25:u:tok-2 R=last/accessed).,
18:u:Key-1 R=accessed,
23:u:Tmn-2 R=none/accessed,
18:u:tok-1 X=accessed,
14:u:tok-1LL=date,
28:u:Num-2 R=none/closing-paren,
18:u:Key-1 X=accessed,
18:u:Key-1 L=accessed,
23:u:Tmn-2 L=accessed/none,
12:u:tok-1 X=de,
19:u:Cap-2 R=caps/caps,
19:u:Cap-2 L=caps/caps,
12:u:Suf-2 X=p.,
12:u:Suf-2 L=p.,
12:u:tok-1RR=13,
18:u:tok-1RR=december,
12:u:Pre-2 R=13,
15:u:tok-1RR=2016.,
15:u:tok-1 R=2016.,
14:u:tok-1RR=july,
11:u:tok-1 X=7,
15:u:tok-1 L=2016.,
14:u:tok-1 R=july,
12:u:Pre-2 R=Ju,
14:u:tok-1 X=july,
15:u:tok-1LL=2016.,
12:u:Pre-2 X=Ju,
12:u:tok-1RR=14,
12:u:tok-1 R=14,
14:u:tok-1RR=june,
14:u:Tok-1 X=June,
14:u:tok-1 X=june,
12:u:tok-1 L=14,
14:u:tok-1 L=june,
14:u:tok-1LL=june,
20:u:Tok-1 X=Department,
20:u:tok-1 X=department,
23:u:tok-2 R=department/of,
20:u:tok-1 L=department,
23:u:tok-2 L=department/of,
20:u:tok-1LL=department,
28:u:tok-2 R=homeland/security,,
18:u:tok-1 L=homeland,
28:u:tok-2 L=homeland/security,,
11:u:tok-1RR=7,
11:u:tok-1 L=7,
11:u:Suf-2 L=7,
12:u:Suf-2 X=nn,
17:u:Tok-1 X=Cavelty,
17:u:tok-1 X=cavelty,
14:u:tok-1 L=dunn,
22:u:tok-2 L=dunn/cavelty,
12:u:tok-1 R=et,
12:u:Pre-2 R=et,
12:u:Tok-1 X=et,
12:u:tok-1 X=et,
12:u:Pre-2 X=et,
12:u:Pre-2 R=al,
12:u:tok-1 X=al,
12:u:tok-1 L=et,
12:u:Pre-2 X=al,
12:u:Suf-2 X=l.,
12:u:tok-1LL=et,
12:u:Suf-2 L=l.,
18:u:tok-2 R=on/cyber,
14:u:Lst-2 X=Lu/J,
11:u:Suf-1 X=J,
16:u:Tmn-3 X=none/J,
15:u:tok-1RR=2010.,
12:u:Suf-2 L=it,
21:u:Num-2 R=volume/none,
15:u:tok-1RR=house,
15:u:tok-1 R=house,
12:u:Suf-2 X=am,
16:u:tok-1 X=london,
15:u:tok-1LL=house,
13:u:Lst-2 X=P//,
11:u:Suf-1 X=/,
16:u:Tmn-3 X=none//,
19:u:Cap-2 L=_x-1/caps,
19:u:Cap-3 L=_x-1/caps,
14:u:Lst-2 X=Lu/D,
11:u:Suf-1 X=D,
16:u:Tmn-3 X=none/D,
14:u:Lst-2 L=Lu/D,
14:u:Lst-2 X=Lu/K,
11:u:Suf-1 X=K,
16:u:Tmn-3 X=none/K,
14:u:Lst-2 L=Lu/K,
18:u:tok-1RR=analysis,
18:u:tok-1 R=analysis,
18:u:Tok-1 X=Analysis,
13:u:tok-1RR=(1),
12:u:Pre-2 X=DA,
21:u:Cap-2 R=caps/single,
12:u:Fst-1 R=Pd,
14:u:Lst-2 L=Lu/I,
12:*:Fst-1 X=Pd,
24:u:Key-2 X=volume/initial,
21:u:Key-3 x=volume/none,
12:u:Suf-2 X=ks,
12:u:Suf-2 L=ks,
12:u:Pre-2 R=Ex,
12:u:Pre-2 X=Ex,
18:u:tok-1RR=research,
18:u:tok-1 R=research,
18:u:Tok-1 X=Research,
18:u:tok-1 L=research,
18:u:tok-1LL=research,
15:u:tok-1RR=2019.,
15:u:tok-1 R=2019.,
12:u:Suf-2 X=9.,
17:u:tok-1RR=opinion,
17:u:Tok-1 X=Policy.,
12:u:Pre-2 R=Am,
17:u:tok-1 L=policy.,
12:u:Pre-2 X=Am,
12:u:Suf-2 X=ID,
12:u:Suf-2 L=ID,
15:u:tok-1LL=david,
12:u:Pre-2 R=At,
12:u:Suf-2 L=U.,
21:u:tok-1 X=attribution,
12:u:Pre-2 X=At,
22:u:tok-1 L=attribution.,
22:u:tok-1LL=attribution.,
27:u:tok-2 R=national/security,
22:u:tok-2 R=security/law,
15:u:tok-1 R=2011.,
12:u:Suf-2 X=1.,
12:u:Pre-2 R=Vo,
12:u:Pre-2 X=Vo,
12:u:Pre-2 R=17,
15:u:tok-1RR=2021.,
15:u:tok-1 R=2021.,
15:u:Tok-1 X=2021.,
21:u:tok-1RR=proceedings,
12:u:Pre-2 R=Bl,
21:u:tok-1 R=proceedings,
28:u:Tmn-2 R=strong/proceedings,
21:u:Tok-1 X=Proceedings,
21:u:tok-1 X=proceedings,
24:u:tok-2 R=proceedings/of,
21:u:tok-1 L=proceedings,
24:u:tok-2 L=proceedings/of,
21:u:tok-1LL=proceedings,
18:u:tok-2 L=of/cyber,
19:u:tok-1 X=incidents,
14:u:tok-1RR=role,
14:u:tok-1 R=role,
14:u:tok-1 X=role,
22:u:tok-1RR=contemporary,
22:u:tok-1 R=contemporary,
12:u:Pre-2 R=Au,
12:u:Pre-2 X=Au,
18:u:tok-1 X=policies,
12:u:Pre-2 R=Mi,
12:u:Pre-2 X=Mi,
19:u:Cap-2 R=caps/_x+1,
12:u:Pre-2 X=JA,
12:u:Pre-2 R=VE,
12:u:Pre-2 X=Ir,
12:u:Suf-2 L=q.,
15:u:tok-1 R=2009.,
17:u:tok-1 X=threats,
12:u:Suf-2 L=el,
17:u:tok-1LL=michael,
14:u:tok-1LL=dana,
23:u:tok-1RR=cybersecurity,
23:u:tok-1 R=cybersecurity,
23:u:tok-1LL=cybersecurity,
12:u:Pre-2 R=Vi,
12:u:Pre-2 X=Vi,
17:u:tok-1LL=against,
15:u:tok-1RR=2015.,
12:u:Pre-2 R=23,
15:u:tok-1 R=2015.,
18:u:tok-1 X=harknett,
14:u:Lst-2 L=Lu/H,
20:u:tok-1 R=deterrence,
20:u:Tok-1 X=Deterrence,
20:u:tok-1LL=deterrence,
12:u:Suf-2 X=2.,
12:u:Pre-2 X=NA,
12:u:Suf-2 X=c.,
19:u:tok-2 R=of/global,
19:u:tok-2 L=of/global,
11:u:tok-1RR=6,
11:u:tok-1 R=6,
11:u:Pre-2 R=6,
12:u:Suf-2 X=ar,
12:u:Suf-2 L=ar,
12:u:Pre-2 R=be,
12:u:Pre-2 X=be,
21:u:tok-1 L=attribution,
21:u:tok-1LL=attribution,
12:u:Pre-2 R=Fe,
12:u:Pre-2 X=Fe,
12:u:Pre-2 R=97,
12:u:Pre-2 X=97,
14:u:Lst-2 X=Lu/O,
11:u:Suf-1 X=O,
12:u:Suf-2 X=TO,
16:u:Tmn-3 X=none/O,
13:u:tok-1LL=are,
12:u:Suf-2 X=be,
12:u:tok-1 X=10,
16:u:tok-1 X=thomas,
14:u:tok-1 L=rid,,
17:u:tok-1 X=attacks,
18:u:tok-1 L=attacks.,
15:u:tok-1 R=peter,
19:u:tok-2 R=and/peter,
15:u:tok-1 L=2011.,
12:u:Suf-2 L=1.,
22:u:tok-1RR=cyberattacks,
12:u:Suf-2 L=2.,
21:u:Tmn-2 L=_x-1/strong,
14:u:tok-1RR=iran,
14:u:tok-1 L=iran,
12:u:Suf-2 X=ck,
12:u:Suf-2 L=ck,
15:u:tok-1 L=since,
21:u:Key-3 x=date/strong,
15:u:tok-1RR=2022.,
15:u:tok-1 R=2022.,
23:u:tok-1 R=understanding,
23:u:Tok-1 X=Understanding,
23:u:tok-1 X=understanding,
23:u:tok-1 L=understanding,
23:u:tok-1LL=understanding,
24:u:Num-2 R=ordinal/strong,
12:u:Suf-2 X=b.,
20:u:tok-1 R=government,
20:u:Tok-1 X=Government,
20:u:tok-1 X=government,
20:u:tok-1LL=government,
18:u:tok-1RR=managing,
18:u:tok-1 R=managing,
17:u:Key-3 L=weak/in,
18:u:Tok-1 X=Managing,
18:u:tok-1 X=managing,
18:u:tok-1 L=managing,
18:u:tok-1LL=managing,
12:u:Suf-2 X=8,,
22:u:Num-2 R=numeric/weak,
16:u:tok-1RR=attack,
16:u:tok-1 L=attack,
16:u:tok-1LL=attack,
12:u:tok-1 R=de,
24:u:tok-2 L=attribution/in,
18:u:tok-1 X=criminal,
18:u:tok-1 L=criminal,
18:u:tok-1LL=criminal,
15:u:tok-1 L=2019.,
12:u:Suf-2 L=9.,
16:u:tok-1 R=states,
16:u:Tok-1 X=States,
16:u:tok-1 X=states,
16:u:tok-1 L=states,
16:u:tok-1LL=states,
24:u:tok-1RR=responsibility,
12:u:Pre-2 X=no,
24:u:tok-1 R=responsibility,
24:u:tok-1 X=responsibility,
15:u:tok-1 L=2021.,
13:u:Lst-2 X=P/",
11:u:Suf-1 X=",
12:u:Pre-2 X=CC,
13:u:Fst-2 X=P/",
11:u:Pre-1 X=",
12:u:Suf-2 X=.",
18:u:Tmn-3 X=strong/",
13:u:tok-1RR=may,
18:u:Tok-1 X=Reuters.,
17:u:tok-1 X=reuters,
13:u:tok-1 R=may,
13:u:Tok-1 X=May,
13:u:tok-1 X=may,
15:u:tok-1RR=2024.,
15:u:tok-1 R=2024.,
12:u:Suf-2 L=4.,
12:u:Pre-2 R=Ra,
12:u:Pre-2 X=Ra,
12:u:Tok-1 X=In,
12:u:Suf-2 X=In,
12:u:Suf-2 L=In,
14:u:Tok-1 X=IEEE,
14:u:tok-1 X=ieee,
20:u:tok-1RR=conference,
12:u:Pre-2 X=IE,
12:u:Suf-2 X=EE,
20:u:tok-1 R=conference,
34:u:tok-2 R=international/conference,
20:u:Tok-1 X=Conference,
34:u:tok-2 L=international/conference,
23:u:tok-2 R=conference/on,
20:u:tok-1 L=conference,
23:u:tok-2 L=conference/on,
12:u:Pre-2 R=Ap,
12:u:Pre-2 X=Ap,
17:u:tok-1 L=iranian,
12:u:Pre-2 R=EU,
12:u:tok-1 X=eu,
12:u:Pre-2 X=EU,
13:u:tok-1 L=eu.,
15:u:tok-1RR=2020.,
15:u:tok-1 R=2020.,
12:u:tok-1 X=no,
15:u:tok-1RR=2014.,
12:u:Suf-2 L=o.,
15:u:tok-1 R=2014.,
15:u:tok-1 L=2014.,
12:u:Suf-2 L=TH,
16:u:tok-1 L=norms.,
16:u:tok-1LL=norms.,
13:u:tok-1 L=war,
13:u:tok-1LL=war,
15:u:tok-1LL=2014.,
14:u:tok-1 X=oewg,
15:u:tok-1RR=2023.,
18:u:tok-1 X=building,
15:u:tok-1 R=2023.,
15:u:tok-1LL=2023.,
16:u:tok-1 R=edited,
12:u:Pre-2 R=ed,
16:u:Tok-1 X=edited,
16:u:tok-1 X=edited,
19:u:tok-2 R=edited/by,
12:u:Pre-2 X=ed,
21:u:Key-3 x=editor/none,
16:u:Key-1 L=editor,
21:u:Tmn-2 L=editor/none,
16:u:tok-1LL=edited,
12:u:Suf-2 X=tt,
14:u:Tok-1 X=NATO,
14:u:tok-1 X=nato,
15:u:Key-1 R=roman,
20:u:Tmn-2 R=none/roman,
15:u:Key-1 X=roman,
20:u:Key-2 X=roman/caps,
15:u:Key-1 L=roman,
17:u:Tok-1 X=Tallinn,
17:u:tok-1 X=tallinn,
12:u:tok-1RR=at,
17:u:Tok-1 X=Experts,
17:u:tok-1 X=experts,
12:u:tok-1 R=at,
12:u:Pre-2 R=at,
12:u:Tok-1 X=at,
12:u:tok-1 X=at,
17:u:tok-1 L=experts,
12:u:Pre-2 X=at,
17:u:tok-1LL=experts,
12:u:tok-1 L=at,
12:u:tok-1LL=at,
17:u:tok-1RR=january,
17:u:tok-1 X=january,
17:u:tok-1 L=january,
17:u:tok-1LL=january,
21:u:tok-2 R=white/house,
21:u:tok-2 L=white/house,
19:u:tok-1 X=microsoft,
12:u:Pre-2 R=Ba,
23:u:tok-2 L=norms./center,
22:u:tok-2 R=new/american,
22:u:tok-2 L=new/american,
28:u:tok-2 R=american/security.,
62:u:tok-1RR=https://citizenlab.ca/cybernorms2011/cultivating.pdf,
28:u:tok-2 L=american/security.,
25:u:tok-2 R=security./2011.,
16:u:tok-1 X=office,
12:u:tok-1 R=uk,
12:u:Pre-2 R=UK,
12:u:Tok-1 X=UK,
12:u:tok-1 X=uk,
12:u:Pre-2 X=UK,
12:u:Suf-2 X=UK,
12:u:tok-1 L=uk,
12:u:Suf-2 L=UK,
12:u:tok-1LL=uk,
12:u:tok-1RR=7.,
12:u:tok-1 R=7.,
22:u:tok-2 R=september/7.,
12:u:Pre-2 R=7.,
12:u:Tok-1 X=7.,
22:u:tok-2 L=september/7.,
12:u:Pre-2 X=7.,
12:u:tok-1RR=un,
16:u:tok-1RR=report,
16:u:tok-1 R=report,
16:u:Key-1 R=report,
21:u:Tmn-2 R=none/report,
16:u:Tok-1 X=Report,
16:u:tok-1 X=report,
16:u:Key-1 X=report,
24:u:Key-2 X=report/initial,
21:u:Key-3 L=none/report,
21:u:Key-3 x=report/none,
16:u:tok-1 L=report,
16:u:Key-1 L=report,
16:u:tok-1LL=report,
12:u:Pre-2 R=Sp,
12:u:Pre-2 X=Sp,
17:u:tok-1RR=general,
17:u:tok-1 R=general,
17:u:Tok-1 X=General,
17:u:tok-1 X=general,
17:u:tok-1 L=general,
24:u:tok-2 R=cyber/security,
24:u:tok-2 L=cyber/security,
18:u:tok-1RR=november,
17:u:tok-1LL=prague,,
18:u:tok-1 L=czechia.,
27:u:tok-2 L=czechia./november,
21:u:tok-2 R=november/3.,
18:u:tok-1LL=november,
17:u:Tok-1 X=Review.,
15:u:tok-1 R=wired,
15:u:Tok-1 X=Wired,
15:u:tok-1 X=wired,
16:u:tok-1 R=august,
16:u:tok-1LL=august,
18:u:tok-1 X=response,
13:u:Tok-1 X=CSS,
13:u:tok-1 X=css,
12:u:Pre-2 X=CS,
12:u:Suf-2 X=SS,
13:u:tok-1 L=css,
12:u:Suf-2 L=SS,
13:u:tok-1LL=css,
23:u:tok-1LL=cyberattacks.,
17:u:tok-1 R=private,
25:u:tok-2 L=us/intelligence,
12:u:tok-1 L=it,
12:u:tok-1LL=it,
15:u:tok-1LL=2019.,
20:u:tok-1 X=washington,
20:u:Tmn-2 R=weak/roman,
20:u:Key-3 L=weak/roman,
21:u:tok-1LL=washington,,
16:u:tok-1 R=united,
16:u:Tok-1 X=United,
16:u:tok-1 X=united,
20:u:tok-2 L=the/united,
17:u:tok-1 X=nations,
16:u:tok-1 L=united,
16:u:tok-1LL=united,
12:u:Suf-2 X=ft,
12:u:Suf-2 L=ft,
20:u:Cap-2 L=_x-1/other,
20:u:Cap-3 L=_x-1/other,
20:u:tok-1 L=stability?,
16:u:tok-1 R=brief,,
12:u:tok-1RR=eu,
27:u:tok-2 L=stability?/policy,
23:u:tok-2 R=policy/brief,,
16:u:Tok-1 X=Brief,,
15:u:tok-1 X=brief,
20:u:tok-1LL=stability?,
12:u:tok-1 R=eu,
23:u:tok-2 L=policy/brief,,
19:u:tok-2 R=brief,/eu,
12:u:Suf-2 X=f,,
12:u:Tok-1 X=EU,
16:u:tok-1 L=brief,,
17:u:tok-1RR=direct.,
19:u:tok-2 L=brief,/eu,
18:u:tok-2 R=eu/cyber,
14:u:Lst-2 X=Lu/U,
11:u:Suf-1 X=U,
12:u:Suf-2 L=f,,
12:u:Suf-2 X=EU,
16:u:Tmn-3 X=none/U,
16:u:tok-1LL=brief,,
12:u:tok-1 L=eu,
17:u:tok-1 R=direct.,
18:u:tok-2 L=eu/cyber,
23:u:tok-2 R=cyber/direct.,
14:u:Lst-2 L=Lu/U,
12:u:Suf-2 L=EU,
17:u:Tok-1 X=Direct.,
16:u:tok-1 X=direct,
12:u:tok-1LL=eu,
160:u:tok-1RR=https://www.universiteitleiden.nl/binaries/content/assets/governance-and-global-affairs/isga/accountability-in-cyberspace-patryk-pawlak-march-2024.pdf,
23:u:tok-2 L=cyber/direct.,
23:u:tok-2 R=direct./2024.,
23:u:tok-2 R=united/states,
23:u:tok-2 L=united/states,
15:u:tok-1 R=paris,
15:u:Tok-1 X=Paris,
15:u:tok-1 X=paris,
14:u:tok-1 R=call,
20:u:tok-2 R=paris/call,
14:u:tok-1 X=call,
15:u:tok-1 L=paris,
15:u:tok-1LL=paris,
20:u:tok-1RR=department,
20:u:tok-1 R=department,
12:u:Suf-2 X=di,
18:u:Tok-1 X=Albanian,
18:u:tok-1 X=albanian,
13:u:tok-1LL=edi,
15:u:tok-1 L=rama.,
24:u:tok-2 L=rama./albanian,
29:u:tok-2 R=albanian/government,
15:u:tok-1LL=rama.,
18:u:tok-1 L=albanian,
29:u:tok-2 L=albanian/government,
28:u:tok-2 R=government/council,
18:u:tok-1LL=albanian,
20:u:tok-1RR=ministers.,
28:u:tok-2 L=government/council,
20:u:tok-1 R=ministers.,
23:u:tok-2 R=of/ministers.,
20:u:Tok-1 X=Ministers.,
19:u:tok-1 X=ministers,
23:u:tok-2 L=of/ministers.,
30:u:tok-2 R=ministers./september,
20:u:tok-1 L=ministers.,
30:u:tok-2 L=ministers./september,
20:u:tok-1LL=ministers.,
88:u:tok-1RR=https://www.kryeministria.al/en/newsroom/videomesazh-i-kryeministrit-edi-rama/,
18:u:tok-2 R=7./2022.,
17:u:tok-1RR=attacks,
17:u:tok-1 R=attacks,
17:u:Tok-1 X=Attacks,
17:u:tok-1 L=attacks,
17:u:Tok-1 X=Federal,
17:u:tok-1 X=federal,
17:u:tok-1LL=attacks,
17:u:tok-1 L=federal,
17:u:tok-1LL=federal,
23:u:Num-2 R=year/moderate,
17:u:tok-1RR=warfare,
24:u:tok-2 R=of/information,
17:u:tok-1 R=warfare,
17:u:tok-1LL=warfare,
12:u:Suf-2 X=pt,
12:u:Suf-2 L=pt,
17:u:tok-1LL=admiral,
16:u:tok-1 R=rogers,
17:u:tok-1RR=keynote,
19:u:tok-2 R=s./rogers,
15:u:tok-1 L=2015.,
14:u:tok-1 X=emma,
18:u:tok-1 L=council.,
18:u:tok-1LL=council.,
12:u:Pre-2 R=LL,
12:u:Pre-2 X=LL,
14:u:Lst-2 X=Lu/P,
11:u:Suf-1 X=P,
16:u:Tmn-3 X=none/P,
14:u:Lst-2 L=Lu/P,
19:u:tok-1 L=proposal.,
18:u:tok-1 R=america.,
23:u:tok-2 L=proposal./new,
22:u:tok-2 R=new/america.,
18:u:Tok-1 X=America.,
19:u:tok-1LL=proposal.,
136:u:tok-1RR=http://newamerica.org/cybersecurity-initiative/c2b/c2b-log/five-things-you-need-to-know-about-frances-new-cyber-norm-proposal/,
22:u:tok-2 L=new/america.,
24:u:tok-2 R=america./2018.,
18:u:tok-1 L=stevens,,
18:u:tok-1LL=stevens,,
18:u:tok-1 X=cyberwar,
12:u:Pre-2 X=Id,
12:u:Pre-2 X=33,
12:u:Suf-2 X=ok,
12:u:Suf-2 L=ok,
15:u:tok-1RR=1999.,
15:u:tok-1RR=group,
15:u:tok-1 R=group,
17:u:tok-1LL=working,
18:u:tok-1 L=conflict,
18:u:tok-1LL=conflict,
16:u:Fst-2 R=Pi/‘,
12:*:Fst-1 X=Pi,
16:u:Fst-2 X=Pi/‘,
13:u:Pre-1 X=‘,
16:u:tok-1RR=middle,
16:u:tok-1 R=middle,
16:u:Tok-1 X=Middle,
16:u:tok-1 X=middle,
12:u:Pre-2 R=Ea,
12:u:Pre-2 X=Ea,
18:u:tok-1 R=official,
18:u:tok-1 X=official,
13:u:tok-1 R=web,
13:u:Tok-1 X=web,
13:u:tok-1 X=web,
18:u:tok-1RR=undated.,
12:u:Suf-2 X=eb,
14:u:tok-1 X=page,
13:u:tok-1 L=web,
18:u:tok-1 R=undated.,
12:u:Suf-2 L=eb,
20:u:Key-2 X=page/lower,
18:u:Tok-1 X=undated.,
17:u:tok-1 X=undated,
21:u:tok-2 R=undated./as,
12:u:Tok-1 X=As,
18:u:tok-1 L=undated.,
21:u:tok-2 L=undated./as,
15:u:tok-2 R=as/of,
12:u:Suf-2 X=As,
18:u:tok-1LL=undated.,
15:u:tok-2 L=as/of,
12:u:Suf-2 L=As,
13:u:tok-1RR=15,,
12:u:Suf-2 X=5,,
14:u:tok-1RR=blog,
14:u:tok-1 X=blog,
14:u:tok-1 R=post,
12:u:Suf-2 X=og,
13:u:tok-1RR=20,,
18:u:tok-1 L=products,
22:u:tok-2 L=products/may,
17:u:tok-2 R=may/20,,
13:u:Tok-1 X=20,,
18:u:tok-1LL=products,
95:u:tok-1RR=http://www.av-comparatives.org/wp-content/uploads/2014/04/avc_datasending_2014_en.pdf,
17:u:tok-2 L=may/20,,
19:u:tok-2 R=20,/2014.,
12:u:Suf-2 X=0,,
12:u:Suf-2 L=0,,
12:u:Suf-2 X=ur,
12:u:Suf-2 L=ur,
29:u:tok-2 R=bulletin/conference,
29:u:tok-2 L=bulletin/conference,
13:u:tok-1 R=apt,
13:u:Tok-1 X=APT,
13:u:tok-1 X=apt,
12:u:Suf-2 X=PT,
12:u:tok-1RR=3,,
12:u:tok-1 R=3,,
12:u:Pre-2 R=3,,
12:u:Suf-2 X=3,,
19:u:tok-1 R=kaspersky,
13:u:tok-1RR=lab,
12:u:Pre-2 R=Ka,
19:u:Tok-1 X=Kaspersky,
12:u:Pre-2 X=Ka,
12:u:Suf-2 X=ky,
13:u:Tok-1 X=Lab,
13:u:tok-1 X=lab,
19:u:tok-1 L=kaspersky,
23:u:tok-2 L=kaspersky/lab,
12:u:Suf-2 L=ky,
12:u:Suf-2 X=ab,
17:u:Tok-1 X=website,
17:u:tok-1 X=website,
19:u:tok-1LL=kaspersky,
13:u:tok-1 L=lab,
20:u:tok-1 R=securelist,
21:u:tok-2 L=lab/website,
28:u:tok-2 R=website/securelist,
12:u:Suf-2 L=ab,
20:u:tok-1 X=securelist,
13:u:tok-1LL=lab,
24:u:tok-1RR=investigation,,
24:u:tok-1 R=investigation,,
24:u:Tok-1 X=Investigation,,
23:u:tok-1 X=investigation,
19:u:Tok-1 X=Technical,
19:u:tok-1 X=technical,
17:u:tok-1 R=reuters,
18:u:tok-1RR=february,
17:u:Tok-1 X=Reuters,
18:u:Tok-1 X=February,
18:u:tok-1 X=february,
13:u:Lst-2 X=P/;,
11:u:Suf-1 X=;,
16:u:Tmn-3 X=weak/;,
14:u:tok-1 R=grey,
12:u:Suf-2 X=4,,
15:u:tok-1 L=2012.,
12:u:Suf-2 L=2,,
14:u:Suf-2 L=—,,
12:u:Suf-2 L=9,,
12:u:Pre-2 X=Er,
19:u:tok-1RR=microsoft,
19:u:tok-1 R=microsoft,
19:u:Tok-1 X=Microsoft,
19:u:tok-1 L=microsoft,
19:u:tok-1LL=microsoft,
21:u:tok-1 L=corporation,
18:u:tok-1 R=military,
18:u:Tok-1 X=Military,
18:u:tok-1 L=military,
23:u:tok-1RR=cyberattacks:,
23:u:tok-1 R=cyberattacks:,
23:u:Tok-1 X=Cyberattacks:,
23:u:tok-1 L=cyberattacks:,
18:u:tok-1 X=ministry,
23:u:tok-1LL=cyberattacks:,
13:u:tok-1 R=ii,,
12:u:Pre-2 R=II,
19:u:tok-1RR=regarding,
19:u:tok-1 R=regarding,
19:u:Tok-1 X=Regarding,
19:u:tok-1 X=regarding,
19:u:tok-1 L=regarding,
12:u:Pre-2 X=Av,
13:u:tok-1 R=23,,
13:u:tok-1LL=23,,
14:u:tok-1 R=page,
18:u:tok-2 R=web/page,
14:u:Tok-1 X=page,
18:u:tok-2 L=web/page,
19:u:Key-3 x=page/none,
13:u:tok-1 R=was,
12:u:Lst-1 X=Pf,
16:u:Lst-2 X=Pf/’,
13:u:Suf-1 X=’,
12:*:Lst-1 L=Pf,
16:u:Lst-2 L=Pf/’,
13:u:tok-1RR=10,,
16:u:tok-1 X=treaty,
20:u:tok-1RR=convention,
20:u:tok-1 L=convention,
20:u:tok-1LL=convention,
20:u:tok-1 L=cybercrime,
15:u:tok-1RR=2001.,
15:u:tok-1 R=2001.,
18:u:Tok-1 X=Budapest,
18:u:tok-1 X=budapest,
15:u:tok-1 L=2001.,
83:u:tok-1 R=https://www.coe.int/en/web/conventions/full-list/-/conventions/treaty/185,
24:u:tok-2 L=2001./budapest,
92:u:tok-2 R=budapest/https://www.coe.int/en/web/conventions/full-list/-/conventions/treaty/185,
13:u:tok-1RR=24,,
20:u:Tok-1 X=Indicators,
20:u:tok-1 X=indicators,
23:u:tok-2 R=indicators/of,
20:u:tok-1 L=indicators,
23:u:tok-2 L=indicators/of,
20:u:tok-1LL=indicators,
20:u:tok-1RR=compromise,
24:u:tok-2 L=vs./indicators,
20:u:tok-1 R=compromise,
23:u:tok-2 R=of/compromise,
20:u:Tok-1 X=Compromise,
20:u:tok-1 X=compromise,
23:u:tok-2 L=of/compromise,
29:u:tok-2 R=compromise/december,
17:u:tok-1RR=systems,
25:u:tok-2 R=u.s./department,
25:u:tok-2 L=u.s./department,
12:u:tok-1RR=4,,
14:u:Tok-1 X=Just,
14:u:tok-1 X=just,
14:u:tok-1 L=just,
14:u:tok-1LL=just,
28:u:tok-1 L=5-eyes—explainer,
18:u:tok-1 R=guardian,
32:u:tok-2 L=5-eyes—explainer/the,
22:u:tok-2 R=the/guardian,
18:u:Tok-1 X=Guardian,
18:u:tok-1 X=guardian,
28:u:tok-1LL=5-eyes—explainer,
22:u:tok-2 L=the/guardian,
27:u:tok-2 R=guardian/december,
12:u:tok-1 R=2,,
12:u:Pre-2 R=2,,
12:u:tok-1 L=2,,
16:u:tok-1 R=bureau,
22:u:tok-2 L=_x-1/federal,
24:u:tok-2 R=federal/bureau,
16:u:Tok-1 X=Bureau,
16:u:tok-1 X=bureau,
24:u:tok-2 L=federal/bureau,
19:u:tok-2 R=bureau/of,
12:u:Suf-2 X=au,
16:u:tok-1 L=bureau,
16:u:tok-1RR=update,
19:u:tok-2 L=bureau/of,
27:u:tok-2 R=of/investigation,,
12:u:Suf-2 L=au,
16:u:tok-1LL=bureau,
16:u:tok-1 R=update,
27:u:tok-2 L=of/investigation,,
31:u:tok-2 R=investigation,/update,
12:u:Pre-2 R=Up,
23:u:Tok-1 X=Investigation,
15:u:Tok-1 X=Heist,
15:u:tok-1 X=heist,
15:u:tok-1 R=april,
15:u:Tok-1 X=April,
15:u:tok-1 X=april,
15:u:tok-1LL=heist,
15:u:tok-1LL=april,
17:u:Tok-1 X=15–16,
14:u:tok-1 X=1516,
18:u:tok-1LL=leaders',
21:u:tok-1 L=communiqué,
16:u:tok-1RR=2015,",
29:u:tok-2 L=communiqué/15–16,
26:u:tok-2 R=15–16/november,
15:u:Lst-2 L=Ll/é,
13:u:Suf-2 L=ué,
16:u:tok-1 L=summit,
13:u:tok-1RR=16,,
21:u:Tok-1 X=BlackEnergy,
21:u:tok-1 X=blackenergy,
16:u:tok-1 L=great,,
28:u:tok-2 L=great,/blackenergy,
25:u:tok-2 R=blackenergy/apt,
12:u:Pre-2 R=Uk,
12:u:Pre-2 X=Uk,
19:u:tok-1RR=documents,
21:u:Tok-1 X=SecureList,,
14:u:tok-1 L=hood,
26:u:tok-2 L=hood/securelist,,
31:u:tok-2 R=securelist,/kaspersky,
12:u:Suf-2 L=od,
19:u:Tok-1 X=Operation,
19:u:tok-1 X=operation,
13:u:tok-1RR=17,,
17:u:tok-1 L=summary,
21:u:tok-2 R=october/26,,
21:u:tok-2 L=october/26,,
19:u:tok-1 R=ukrainian,
19:u:Tok-1 X=Ukrainian,
19:u:tok-1 X=ukrainian,
19:u:tok-1 L=ukrainian,
19:u:tok-1LL=ukrainian,
13:u:tok-1 R=30,,
13:u:Tok-1 X=30,,
12:u:Suf-2 X=io,
12:u:Suf-2 L=io,
12:u:Suf-2 X=bs,
20:u:tok-1RR=assessment,
23:u:tok-2 R=in/cyberspace,
23:u:tok-2 L=in/cyberspace,
14:u:tok-1RR=vol.,
14:u:tok-1 R=vol.,
12:u:tok-1RR=8,,
13:u:tok-1 X=vol,
13:u:tok-1RR=no.,
13:u:tok-1 R=no.,
21:u:Tmn-2 L=volume/weak,
13:u:Tok-1 X=No.,
13:u:tok-1RR=pp.,
13:u:tok-1 L=no.,
13:u:tok-1 R=pp.,
12:u:Pre-2 R=pp,
13:u:tok-1LL=no.,
13:u:tok-1LL=pp.,
14:u:tok-1 L=nuts,
14:u:tok-1LL=nuts,
18:u:tok-1LL=computer,
14:u:tok-1 L=ties,
14:u:tok-1LL=ties,
12:u:Suf-2 X=rg,
21:u:tok-1RR=reliability,
18:u:tok-2 L=world/in,
17:u:tok-2 R=in/ieee,
20:u:Tok-1 X=Technology,
20:u:tok-1 L=technology,
20:u:tok-1LL=technology,
14:u:tok-1RR=2020,
14:u:Tok-1 X=2020,
23:u:tok-2 L=_x-1/national,
19:u:tok-1LL=standards,
12:u:tok-1 X=md,
16:u:tok-1 X=agency,
17:u:tok-1RR=fireeye,
17:u:Tok-1 X=FireEye,
17:u:tok-1 X=fireeye,
17:u:tok-1 L=fireeye,
18:u:tok-1LL=tv5monde,
17:u:tok-1 L=channel,
26:u:tok-2 L=channel/security,
26:u:tok-2 R=security/affairs,
14:u:tok-1 R=nos.,
13:u:tok-1 X=nos,
12:u:Suf-2 X=ma,
12:u:Suf-2 L=ma,
12:u:tok-1 R=up,
12:u:tok-1 X=up,
12:u:tok-1 L=up,
16:u:tok-1RR=before,
16:u:tok-1 R=before,
13:u:tok-1LL=net,
12:u:Suf-2 X=op,
12:u:Suf-2 L=op,
19:u:tok-1 R=homepage,,
12:u:Pre-2 R=ho,
19:u:Tok-1 X=homepage,,
18:u:tok-1 X=homepage,
28:u:tok-2 R=homepage,/undated.,
12:u:Pre-2 X=ho,
19:u:tok-1 L=homepage,,
28:u:tok-2 L=homepage,/undated.,
19:u:tok-1LL=homepage,,
16:u:tok-1LL=geneva,
24:u:tok-2 L=convention/the,
22:u:tok-2 R=the/official,
18:u:Tok-1 X=Symantec,
19:u:Tok-1 X=Response,,
22:u:Tmn-3 X=moderate/’,
19:u:Tok-1 X=Financial,
19:u:tok-1 X=financial,
19:u:tok-1 L=financial,
14:u:Tok-1 X=Time,
16:u:Lst-2 L=Pf/”,
17:u:tok-1 R=nations,
24:u:tok-2 R=united/nations,
17:u:Tok-1 X=Nations,
24:u:tok-2 L=united/nations,
25:u:tok-2 R=nations/general,
17:u:tok-1 L=nations,
25:u:tok-2 L=nations/general,
18:u:tok-1 X=assembly,
17:u:tok-1LL=nations,
22:u:tok-1LL=governmental,
19:u:tok-1RR=a/70/174,,
25:u:tok-2 L=security/report,
20:u:tok-2 R=report/no.,
18:u:tok-1RR=incident,
17:u:tok-1 R=charges,
22:u:tok-2 R=u.s./charges,
20:u:tok-1RR=conducting,
16:u:tok-1RR=sector,
16:u:tok-1 R=sector,
24:u:tok-2 L=u.s./financial,
26:u:tok-2 R=financial/sector,
16:u:Tok-1 X=Sector,
16:u:tok-1 X=sector,
26:u:tok-2 L=financial/sector,
22:u:tok-2 R=sector/march,
15:u:tok-1 X=court,
14:u:Tok-1 X=Wall,
14:u:tok-1 X=wall,
16:u:tok-1 R=street,
21:u:tok-2 R=wall/street,
12:u:Pre-2 X=Et,
20:u:tok-1 R=appraisal:,
28:u:tok-2 L=warfare./strategic,
30:u:tok-2 R=strategic/appraisal:,
20:u:Tok-1 X=appraisal:,
19:u:tok-1 X=appraisal,
30:u:tok-2 L=strategic/appraisal:,
24:u:tok-2 R=appraisal:/the,
20:u:tok-1 L=appraisal:,
24:u:tok-2 L=appraisal:/the,
22:u:tok-2 R=the/changing,
18:u:Tok-1 X=changing,
20:u:tok-1LL=appraisal:,
22:u:tok-2 L=the/changing,
23:u:tok-2 R=changing/role,
12:u:Pre-2 X=ch,
14:u:Tok-1 X=role,
23:u:tok-2 L=changing/role,
14:u:tok-1RR=(pp.,
14:u:tok-1 R=(pp.,
12:u:Pre-2 R=(p,
14:u:tok-1RR=rand,
14:u:tok-1 X=rand,
14:u:tok-1 L=rand,
12:u:Pre-2 X=(E,
12:u:Suf-2 X=),,
24:u:Key-2 X=editor/initial,
18:u:Tmn-3 X=strong/,,
24:u:tok-2 R=technology/and,
24:u:tok-2 L=technology/and,
15:u:Tok-1 X=Proc.,
14:u:tok-1 X=proc,
19:u:tok-1 L=defenses.,
15:u:tok-1 R=conf.,
25:u:tok-2 L=defenses./proc.,
21:u:tok-2 R=proc./conf.,
17:u:tok-1 R=network,
14:u:tok-1RR=army,
18:u:tok-1LL=boebert,,
12:u:tok-1 X=ed,
18:u:tok-1RR=workshop,
18:u:tok-1 R=workshop,
20:u:tok-2 R=a/workshop,
18:u:Tok-1 X=Workshop,
18:u:tok-1 X=workshop,
20:u:tok-2 L=a/workshop,
21:u:tok-2 R=workshop/on,
18:u:tok-1 L=workshop,
21:u:tok-2 L=workshop/on,
18:u:tok-1LL=workshop,
20:u:Tok-1 X=Washington,
13:u:Tok-1 X=US.,
22:u:Tmn-2 L=roman/strong,
15:u:tok-1 L=2020,,
15:u:tok-1LL=2020,,
14:u:Tok-1 X=nos.,
15:u:tok-1LL=2019,,
25:u:tok-2 L=attribution/the,
15:u:tok-1RR=2010,,
15:u:tok-1 R=2010,,
21:u:Key-3 L=weak/editor,
12:u:Tok-1 X=de,
12:u:Pre-2 X=ar,
17:u:tok-1RR=chicago,
17:u:tok-1 R=chicago,
20:u:tok-1RR=developing,
20:u:tok-1 R=developing,
20:u:Tok-1 X=Developing,
20:u:tok-1 X=developing,
20:u:tok-1 L=developing,
20:u:tok-1LL=developing,
24:u:tok-2 L=and/technology,
25:u:tok-2 R=technology/vol.,
19:u:tok-1RR=informing,
33:u:tok-2 R=deterring/cyberattacks:,
19:u:tok-1 R=informing,
33:u:tok-2 L=deterring/cyberattacks:,
33:u:tok-2 R=cyberattacks:/informing,
19:u:Tok-1 X=Informing,
19:u:tok-1 X=informing,
33:u:tok-2 L=cyberattacks:/informing,
30:u:tok-2 R=informing/strategies,
19:u:tok-1 L=informing,
30:u:tok-2 L=informing/strategies,
24:u:tok-2 R=strategies/and,
19:u:tok-1LL=informing,
17:u:tok-1RR=options,
24:u:tok-2 L=strategies/and,
24:u:tok-2 R=and/developing,
17:u:tok-1 R=options,
24:u:tok-2 L=and/developing,
28:u:tok-2 R=developing/options,
17:u:Tok-1 X=Options,
17:u:tok-1 X=options,
28:u:tok-2 L=developing/options,
21:u:tok-2 R=options/for,
17:u:tok-1 L=options,
21:u:tok-2 L=options/for,
17:u:tok-1LL=options,
18:u:tok-1 R=policies,
32:u:tok-2 R=cybersecurity/policies,
18:u:Tok-1 X=Policies,
32:u:tok-2 L=cybersecurity/policies,
22:u:tok-2 R=policies/and,
18:u:tok-1 L=policies,
22:u:tok-2 L=policies/and,
24:u:tok-2 R=and/strategies,
18:u:tok-1LL=policies,
22:u:tok-1RR=cyberwarfare,
24:u:tok-2 L=and/strategies,
24:u:tok-2 R=strategies/for,
22:u:tok-1 R=cyberwarfare,
24:u:tok-2 L=strategies/for,
26:u:tok-2 R=for/cyberwarfare,
22:u:Tok-1 X=Cyberwarfare,
22:u:tok-1 X=cyberwarfare,
26:u:tok-2 L=for/cyberwarfare,
20:u:tok-1 X=prevention,
22:u:tok-1 L=cyberwarfare,
24:u:tok-2 R=cyberspace/and,
24:u:tok-2 L=cyberspace/and,
16:u:Tok-1 X=Thomas,
12:u:Pre-2 X=do,
17:u:Key-1 X=locator,
23:u:Key-2 X=locator/other,
24:u:Key-3 x=locator/strong,
16:u:tok-1RR=manual,
24:u:tok-2 R=tallinn/manual,
12:u:Suf-2 X=.0,
27:u:tok-2 R=the/international,
27:u:tok-2 L=the/international,
15:u:tok-1RR=naval,
28:u:Num-2 R=year/closing-paren,
18:u:tok-1 R=schmitt,,
18:u:Tok-1 X=Harknett,
12:u:Pre-2 R=cr,
12:u:Pre-2 X=cr,
18:u:tok-1 R=foreign,,
22:u:tok-1RR=commonwealth,
22:u:tok-2 L=institute/uk,
21:u:tok-2 R=uk/foreign,,
12:u:Pre-2 R=ha,
12:u:Pre-2 X=ha,
12:u:tok-1 X=ja,
18:u:Tok-1 X=Lawfare.,
17:u:tok-1 X=lawfare,
18:u:tok-1 L=lawfare.,
13:u:tok-1 R=int,
21:u:tok-1 R=comparative,
21:u:Tok-1 X=Comparative,
21:u:tok-1 X=comparative,
21:u:tok-1 L=comparative,
18:u:Tok-1 X=criminal,
19:u:tok-2 L=_x-1/nato,
24:u:tok-2 R=nato/statement,
18:u:tok-2 L=_x-1/the,
23:u:tok-2 L=institute/for,
22:u:tok-1 L=capabilities,
22:u:tok-1LL=capabilities,
25:u:tok-2 L=assessment./the,
11:u:tok-1RR=p,
11:u:tok-1 R=p,
17:u:tok-2 R=house/p,
11:u:Pre-2 R=p,
19:u:Tok-1 X=Briefings,
19:u:tok-1 X=briefings,
208:u:tok-1 R=https://www.whitehouse.gov/briefing-room/press-briefings/2021/07/19/background-press-call-by-senior-administration-officials-on-malicious-cyber-activity-attributable-to-the-peoples-republic-of-china,
25:u:tok-2 L=press/briefings,
218:u:tok-2 R=briefings/https://www.whitehouse.gov/briefing-room/press-briefings/2021/07/19/background-press-call-by-senior-administration-officials-on-malicious-cyber-activity-attributable-to-the-peoples-republic-of-china,
16:u:tok-1 X=lanham,
15:u:tok-1RR=small,
15:u:tok-1 X=small,
15:u:tok-1 L=small,
15:u:tok-1LL=small,
18:u:Tok-1 X=Estonia.,
17:u:tok-1 X=estonia,
17:u:tok-2 R=the/new,
13:u:Tok-1 X=law,
16:u:tok-1 L=change,
12:u:tok-1LL=aj,
14:u:tok-1 R=some,
20:u:Key-1 R=translator,
26:u:tok-1RR=ghyamsarnegouni,,
16:u:Fst-2 R=Pi/“,
21:u:tok-2 R=experts/say,
24:u:tok-1LL=‘redefine’,
14:u:tok-1 R=baku,
20:u:tok-1RR=cyberscoop,
19:u:tok-2 L=ties/with,
19:u:tok-2 R=with/baku,
14:u:Tok-1 X=Baku,
14:u:tok-1 X=baku,
20:u:tok-1 R=cyberscoop,
19:u:tok-2 L=with/baku,
25:u:tok-2 R=baku/cyberscoop,
12:u:Suf-2 X=ku,
20:u:Tok-1 X=Cyberscoop,
20:u:tok-1 X=cyberscoop,
12:u:tok-1RR=23,
16:u:tok-1 L=vicens,
80:u:tok-1RR=https://cyberscoop.com/iran-government-hack-leak-documents-hacktivist/,
24:u:tok-2 L=vicens/experts,
15:u:Tok-1 X=Farsi,
15:u:tok-1 X=farsi,
22:u:tok-1LL=abbreviation,
15:u:tok-1 R=vevak,
20:u:tok-1RR=(vezarat-e,
18:u:tok-2 L=in/farsi,
21:u:tok-2 R=farsi/vevak,
12:u:Suf-2 X=si,
20:u:tok-1RR=translated,
20:u:tok-1 R=translated,
15:u:tok-1RR=space,
15:u:tok-1 R=space,
15:u:tok-1LL=space,
15:u:tok-1 R=corps,
17:u:tok-2 R=and/new,
23:u:tok-1RR=communication,
23:u:tok-1 R=communication,
26:u:tok-2 R=of/communication,
23:u:Tok-1 X=Communication,
23:u:tok-1 X=communication,
26:u:tok-2 L=of/communication,
18:u:tok-1LL=cultures,
18:u:tok-1 L=syllabus,
21:u:tok-2 L=syllabus/in,
24:u:tok-2 R=in/comparative,
18:u:Tok-1 X=Mullahs,,
17:u:tok-1 X=mullahs,
18:u:tok-1LL=frederic,
17:u:tok-1 L=wehrey,,
17:u:tok-1 R=guards,,
26:u:tok-2 L=wehrey,/mullahs,,
26:u:tok-2 R=mullahs,/guards,,
18:u:tok-2 L=power/in,
16:u:Tok-1 X=Marine,
16:u:tok-1 X=marine,
20:u:tok-1LL=disruptive,
24:u:tok-1RR=university’s,
23:u:tok-2 L=change/marine,
22:u:tok-2 R=marine/corps,
23:u:Tok-1 X=Congressional,
23:u:tok-1 X=congressional,
17:u:tok-1RR=service,
36:u:tok-2 L=capabilities/congressional,
32:u:tok-2 R=congressional/research,
23:u:tok-1 L=congressional,
32:u:tok-2 L=congressional/research,
26:u:tok-2 R=research/service,
23:u:tok-1LL=congressional,
12:u:tok-1 R=27,
12:u:tok-1 R=24,
16:u:tok-1LL=secret,
15:u:tok-1LL=armed,
15:u:tok-1LL=ehsan,
21:u:tok-1 L=movahedian,,
26:u:tok-2 L=movahedian,/u.s.,
33:u:tok-2 R=criminal/responsibility,
24:u:Tok-1 X=responsibility,
33:u:tok-2 L=criminal/responsibility,
18:u:tok-1 R=handbook,
29:u:tok-2 L=cyberspace/research,
27:u:tok-2 R=research/handbook,
18:u:Tok-1 X=handbook,
18:u:tok-1 X=handbook,
27:u:tok-2 L=research/handbook,
21:u:tok-2 R=handbook/on,
18:u:tok-1 L=handbook,
21:u:tok-2 L=handbook/on,
23:u:tok-2 R=on/cyberspace,
18:u:tok-1LL=handbook,
23:u:tok-2 L=on/cyberspace,
16:u:tok-1RR=edward,
21:u:tok-2 R=law/(2015).,
20:u:Tok-1 X=Individual,
20:u:tok-1 X=individual,
29:u:tok-2 R=individual/criminal,
20:u:tok-1 L=individual,
29:u:tok-2 L=individual/criminal,
20:u:tok-1LL=individual,
13:u:tok-1 L=25.,
24:u:tok-2 L=25./individual,
13:u:tok-1LL=25.,
14:u:tok-1RR=rome,
28:u:tok-2 R=responsibility/the,
14:u:tok-1 R=rome,
17:u:tok-1RR=statute,
28:u:tok-2 L=responsibility/the,
18:u:tok-2 R=the/rome,
14:u:Tok-1 X=Rome,
14:u:tok-1 X=rome,
17:u:tok-1 R=statute,
18:u:tok-2 L=the/rome,
22:u:tok-2 R=rome/statute,
17:u:Tok-1 X=Statute,
17:u:tok-1 X=statute,
14:u:tok-1 L=rome,
22:u:tok-2 L=rome/statute,
20:u:tok-2 R=statute/of,
14:u:tok-1LL=rome,
17:u:tok-1 L=statute,
20:u:tok-2 L=statute/of,
17:u:tok-1LL=statute,
12:u:tok-1 X=ch,
19:u:tok-1RR=retrieved,
25:u:Tmn-2 R=strong/accessed,
26:u:Key-2 X=accessed/initial,
25:u:Key-3 L=strong/accessed,
23:u:Key-3 x=accessed/none,
23:u:tok-2 R=the/ukrainian,
23:u:tok-2 L=the/ukrainian,
17:u:tok-1RR=(2009).,
16:u:tok-1 R=office,
13:u:tok-1LL=due,
14:u:tok-1 L=rule,
14:u:tok-1LL=rule,
15:u:tok-1 X=shelf,
20:u:tok-2 L=the/shelf?,
24:u:tok-2 R=shelf?/tallinn,
12:u:Suf-2 X=f?,
11:u:Tok-1 X=I,
11:u:Pre-2 X=I,
11:u:Suf-2 X=I,
11:u:tok-1 L=i,
11:u:Suf-2 L=I,
11:u:tok-1LL=i,
12:u:Suf-2 X=II,
13:u:Tok-1 X=III,
13:u:tok-1 X=iii,
17:u:tok-2 R=of/war.,
17:u:tok-2 L=of/war.,
12:u:Pre-2 R=ww,
12:u:Pre-2 X=ww,
13:u:tok-1 L=cnn,
12:u:Suf-2 L=NN,
13:u:tok-1LL=cnn,
20:u:tok-1RR=georgetown,
15:u:Tok-1 X=Human,
15:u:tok-1 X=human,
15:u:tok-1 L=human,
16:u:tok-1LL=rights,
16:u:tok-1LL=commit,
19:u:tok-1 L=genocide.,
25:u:tok-2 L=genocide./paper,
18:u:tok-2 R=paper/24,
22:u:tok-1RR=humanitarian,
22:u:tok-1 X=humanitarian,
22:u:tok-1 L=humanitarian,
22:u:tok-1LL=humanitarian,
12:u:Suf-2 X=um,
12:u:Suf-2 L=um,
18:u:tok-1 L=juncture,
22:u:tok-2 L=juncture/the,
18:u:tok-1LL=juncture,
18:u:tok-1RR=affairs:,
18:u:tok-1 R=affairs:,
25:u:tok-2 R=global/affairs:,
18:u:Tok-1 X=affairs:,
24:u:tok-1RR=discontinuity,,
25:u:tok-2 L=global/affairs:,
27:u:tok-2 R=affairs:/managing,
18:u:tok-1 L=affairs:,
24:u:tok-1 R=discontinuity,,
20:u:tok-1RR=disruption,
27:u:tok-2 L=affairs:/managing,
33:u:tok-2 R=managing/discontinuity,,
24:u:Tok-1 X=discontinuity,,
23:u:tok-1 X=discontinuity,
18:u:tok-1LL=affairs:,
20:u:tok-1 R=disruption,
33:u:tok-2 L=managing/discontinuity,,
35:u:tok-2 R=discontinuity,/disruption,
20:u:Tok-1 X=disruption,
20:u:tok-1 X=disruption,
24:u:tok-1 L=discontinuity,,
22:u:tok-1RR=destruction.,
35:u:tok-2 L=discontinuity,/disruption,
24:u:tok-2 R=disruption/and,
24:u:tok-1LL=discontinuity,,
20:u:tok-1 L=disruption,
22:u:tok-1 R=destruction.,
24:u:tok-2 L=disruption/and,
26:u:tok-2 R=and/destruction.,
22:u:Tok-1 X=destruction.,
20:u:tok-1LL=disruption,
18:u:tok-1RR=palgrave,
26:u:tok-2 L=and/destruction.,
30:u:tok-2 R=destruction./(2021).,
25:u:tok-2 R=washington/post,
19:u:tok-1 X=presented,
22:u:tok-2 R=presented/at,
19:u:tok-1 L=presented,
22:u:tok-2 L=presented/at,
19:u:tok-1LL=presented,
17:u:tok-1 L=joslyn.,
21:u:tok-2 L=joslyn./gun,
21:u:tok-2 R=gun/policy,,
17:u:tok-1LL=joslyn.,
21:u:tok-2 L=gun/policy,,
26:u:tok-2 R=policy,/opinion,,
14:u:tok-1 X=dark,
13:u:tok-1 X=fbi,
16:u:tok-1 R=george,
16:u:Tok-1 X=George,
16:u:tok-1 X=george,
16:u:tok-1 L=george,
16:u:tok-1LL=george,
16:u:tok-1RR=series,
16:u:Key-1 R=series,
21:u:Tmn-2 R=none/series,
16:u:Tok-1 X=Series,
16:u:tok-1 X=series,
16:u:Key-1 X=series,
24:u:Key-2 X=series/initial,
21:u:Key-3 L=none/series,
21:u:Key-3 x=series/none,
16:u:tok-1LL=series,
14:u:tok-1 X=grid,
17:u:tok-1LL=ccdcoe,,
16:u:tok-1 L=tallin,
25:u:tok-2 L=tallin/estonia.,
23:u:tok-2 R=estonia./_x+1,
17:u:tok-1RR=issues.,
17:u:tok-1 R=issues.,
15:u:tok-1 L=legal,
15:u:tok-1LL=legal,
17:u:tok-1 L=issues.,
17:u:tok-1LL=issues.,
20:u:tok-2 R=studies/in,
20:u:tok-2 L=studies/in,
14:u:tok-1 R=10th,
11:u:tok-1RR=4,
22:u:tok-1LL=corporation.,
22:u:tok-2 R=conflict/and,
22:u:tok-2 L=conflict/and,
13:u:tok-1LL=4).,
17:u:tok-1RR=series,,
25:u:tok-2 L=(2010)./working,
17:u:tok-1 R=series,,
23:u:tok-2 R=paper/series,,
17:u:Tok-1 X=Series,,
23:u:tok-2 L=paper/series,,
22:u:tok-2 R=series,/_x+1,
21:u:Key-3 x=series/weak,
15:u:tok-2 R=p./us,
12:u:Pre-2 R=(N,
25:u:tok-2 L=intelligence/in,
26:u:tok-2 R=in/understanding,
19:u:tok-1 X=analogies,
12:u:tok-1 L=dc,
12:u:Suf-2 L=DC,
16:u:tok-1RR=george,
18:u:tok-1RR=practice,
14:u:tok-1RR=al.,,
14:u:tok-1 R=al.,,
17:u:tok-2 R=et/al.,,
26:u:tok-2 R=intelligence/the,
26:u:tok-2 L=intelligence/the,
21:u:tok-2 R=the/chicago,
22:u:tok-2 L=summary/u.s.,
12:u:Pre-2 R=Lu,
19:u:tok-1 L=community,
24:u:tok-2 L=community/u.s.,
21:u:tok-2 R=u.s./office,
16:u:tok-1RR=world.,
16:u:tok-1 R=world.,
16:u:Tok-1 X=World.,
12:u:Tok-1 X=//,
16:u:tok-2 L=eu.///,
20:u:tok-2 R=///journal,
13:u:Fst-2 X=P//,
11:u:Pre-1 X=/,
12:u:Pre-2 X=//,
12:u:Suf-2 X=//,
17:u:tok-1 R=virtual,
22:u:tok-1RR=battlefield:,
22:u:tok-1 R=battlefield:,
30:u:tok-2 R=virtual/battlefield:,
22:u:Tok-1 X=Battlefield:,
30:u:tok-2 L=virtual/battlefield:,
35:u:tok-2 R=battlefield:/perspectives,
12:u:tok-1RR=11,
22:u:Tok-1 X=Humanitarian,
19:u:tok-1 L=principle,
19:u:tok-1LL=principle,
28:u:tok-2 R=international/law,,
16:u:Tok-1 X=Shelf?,
16:u:Tok-1 X=Opinio,
16:u:tok-1 X=opinio,
15:u:tok-1 R=juris,
13:u:tok-1RR=(24,
18:u:tok-2 L=i/opinio,
22:u:tok-2 R=opinio/juris,
15:u:Tok-1 X=Juris,
15:u:tok-1 X=juris,
16:u:tok-1 L=opinio,
13:u:tok-1 R=(24,
22:u:tok-2 L=opinio/juris,
19:u:tok-2 R=juris/(24,
25:u:tok-2 R=cyberspace/10th,
15:u:Tok-1 X=Welch,
15:u:tok-1 X=welch,
15:u:tok-1RR=ideas,
18:u:tok-2 L=a./welch,
19:u:tok-2 R=welch/how,
18:u:tok-2 R=law,/and,
18:u:tok-2 L=law,/and,
18:u:Tok-1 X=Beaumont,
18:u:tok-1 X=beaumont,
18:u:tok-1 L=inquiry.,
27:u:tok-2 L=inquiry./beaumont,
21:u:tok-2 R=beaumont/p.,
18:u:tok-1LL=inquiry.,
18:u:tok-1 L=beaumont,
18:u:tok-1RR=appoints,
21:u:tok-2 L=beaumont/p.,
26:u:tok-2 R=computer/network,
26:u:tok-2 L=computer/network,
19:u:tok-1 R=permanent,
23:u:tok-2 R=the/permanent,
19:u:Tok-1 X=Permanent,
19:u:tok-1 X=permanent,
23:u:tok-2 L=the/permanent,
25:u:tok-2 R=permanent/court,
19:u:tok-1 L=permanent,
22:u:tok-1RR=arbitration:,
25:u:tok-2 L=permanent/court,
19:u:tok-1LL=permanent,
22:u:tok-1 R=arbitration:,
25:u:tok-2 R=of/arbitration:,
22:u:Tok-1 X=Arbitration:,
21:u:tok-1 X=arbitration,
21:u:tok-1RR=arbitration,
25:u:tok-2 L=of/arbitration:,
36:u:tok-2 R=arbitration:/international,
20:u:tok-2 R=attack/and,
20:u:tok-2 L=attack/and,
24:u:tok-2 R=network/attack,
24:u:tok-2 L=network/attack,
23:u:tok-2 L=_x-1/computer,
20:u:tok-2 R=law./2001.,
18:u:Tok-1 X=Georgia:,
17:u:tok-1 X=georgia,
17:u:tok-1LL=swaine,,
21:u:tok-2 L=j./georgia:,
25:u:tok-2 R=georgia:/russia,
26:u:tok-2 R=humanitarian/law,
26:u:tok-2 L=humanitarian/law,
17:u:tok-1LL=angeles,
13:u:tok-1RR=ics,
12:u:Suf-2 L=..,
12:u:Pre-2 X=go,
12:u:Tok-1 X=ch,
14:u:Tok-1 X=Emma,
17:u:tok-1LL=crystal,
18:u:tok-1 R=charlene,
17:u:tok-1RR=lubaale,
16:u:tok-2 L=&/emma,
23:u:tok-2 R=emma/charlene,
21:u:Tok-1 X=Application,
21:u:tok-1 X=application,
21:u:tok-2 L=security/ch,
14:u:tok-2 R=ch/6,
17:u:tok-1 L=(2022).,
15:u:Tok-1 X=Small,
22:u:tok-2 R=small/states,
22:u:tok-2 L=small/states,
18:u:tok-1LL=studies.,
17:u:Pos-2 R=first/2,
16:u:Pos-2 R=7/last,
16:u:Tok-1 X=Hoover,
16:u:tok-1 X=hoover,
24:u:tok-2 R=hoover/working,
15:u:Tok-1 X=Aegis,
15:u:tok-1 X=aegis,
19:u:tok-2 L=law/aegis,
22:u:tok-2 R=aegis/series,
12:u:Pre-2 X=Ae,
19:u:tok-2 L=paper/no.,
18:u:tok-2 R=no./_x+1,
21:u:tok-2 R=review/_x+1,
20:u:tok-1 R=engagement,
30:u:tok-2 L=states/international,
25:u:Tok-1 X=www.ncsc.gov.uk,
22:u:tok-1 X=wwwncscgovuk,
18:u:tok-1LL=ukraine.,
73:u:tok-1 R=https://www.ncsc.gov.uk/news/russia-ddos-involvement-in-ukraine,
33:u:tok-2 L=(2022)./www.ncsc.gov.uk,
89:u:tok-2 R=www.ncsc.gov.uk/https://www.ncsc.gov.uk/news/russia-ddos-involvement-in-ukraine,
12:u:Suf-2 X=uk,
20:u:Tok-1 X=February).,
18:u:tok-1LL=langner,,
15:u:tok-1 R=ralph,
18:u:tok-1RR=langner:,
23:u:tok-2 L=r./february).,
26:u:tok-2 R=february)./ralph,
16:u:Tok-1 X=arXiv.,
15:u:tok-1 X=arxiv,
14:u:tok-1 L=27).,
21:u:tok-2 L=27)./arxiv.,
21:u:tok-2 R=arxiv./_x+1,
15:u:Key-1 X=arxiv,
21:u:Key-2 X=arxiv/other,
22:u:Key-3 L=strong/arxiv,
22:u:Key-3 x=arxiv/strong,
22:u:tok-2 R=microsoft/on,
22:u:tok-2 L=microsoft/on,
21:u:tok-2 R=the/issues.,
17:u:Tok-1 X=Issues.,
21:u:tok-2 L=the/issues.,
27:u:tok-2 R=issues./microsoft,
27:u:tok-2 L=issues./microsoft,
17:u:tok-1 R=beckons,
25:u:tok-2 R=nations/beckons,
17:u:Tok-1 X=beckons,
17:u:tok-1 X=beckons,
25:u:tok-2 L=nations/beckons,
27:u:tok-2 R=beckons/microsoft,
13:u:tok-1RR=16.,
28:u:tok-2 R=microsoft/december,
13:u:tok-1 R=16.,
28:u:tok-2 L=microsoft/december,
22:u:tok-2 R=december/16.,
13:u:Tok-1 X=16.,
19:u:tok-2 R=16./2021.,
15:u:Tok-1 X=Call.,
21:u:tok-2 L=paris/call.,
15:u:tok-1 L=call.,
19:u:tok-1 R=advancing,
19:u:Tok-1 X=Advancing,
19:u:tok-1 X=advancing,
16:u:tok-1 L=2021a.,
19:u:tok-1 L=advancing,
19:u:tok-1LL=advancing,
12:u:Suf-2 L=5:,
23:u:Key-3 x=report/strong,
21:u:tok-2 L=call./paris,
19:u:tok-1 X=publisher,
21:u:tok-2 L=summit/2020,
24:u:tok-2 R=2020/september,
12:u:Pre-2 X=IS,
17:u:tok-1LL=fidler,,
16:u:tok-1 L=david.,
16:u:tok-1RR=unjust,
21:u:tok-2 L=david./just,
16:u:tok-2 R=just/&,
16:u:tok-1LL=david.,
16:u:tok-1 R=unjust,
14:u:tok-1RR=war,,
16:u:tok-2 L=just/&,
18:u:tok-2 R=&/unjust,
16:u:Tok-1 X=Unjust,
16:u:tok-1 X=unjust,
14:u:tok-1 R=war,,
18:u:tok-2 L=&/unjust,
21:u:tok-2 R=unjust/war,,
14:u:Tok-1 X=War,,
16:u:tok-1 L=unjust,
21:u:tok-2 L=unjust/war,,
19:u:tok-2 R=war,/uses,
19:u:Tok-1 X=Publisher,
28:u:tok-2 L=security/publisher,
24:u:tok-2 R=publisher/_x+1,
25:u:Tok-1 X=Google-Books-ID,
23:u:tok-1 X=googlebooksid,
12:u:tok-1 L=id,
11:u:Tok-1 X=C,
11:u:Pre-2 X=C,
11:u:Suf-2 X=C,
17:u:tok-1 R=kingdom,
24:u:tok-2 R=united/kingdom,
18:u:Tok-1 X=3382340.,
17:u:tok-1 X=3382340,
21:u:tok-2 L=id/3382340.,
23:u:tok-2 R=3382340./_x+1,
18:u:Tok-1 X=[Thesis,,
17:u:tok-1 R=uppsala,
22:u:tok-1RR=universitet,,
22:u:tok-2 L=2.0/[thesis,,
26:u:tok-2 R=[thesis,/uppsala,
21:u:tok-2 L=research/in,
19:u:tok-1LL=beginning,
16:u:tok-1LL=bosnia,
20:u:tok-1 R=commission,
20:u:Tok-1 X=Commission,
20:u:tok-1 L=commission,
20:u:tok-1LL=commission,
18:u:tok-2 R=for/u.s.,
18:u:tok-2 L=for/u.s.,
73:u:Tok-1 X=www.lawfareblog.com/need-official-attribution-russias-dnc-hack.,
64:u:tok-1 X=wwwlawfareblogcomneedofficialattributionrussiasdnchack,
82:u:tok-2 L=lawfare./www.lawfareblog.com/need-official-attribution-russias-dnc-hack.,
78:u:tok-2 R=www.lawfareblog.com/need-official-attribution-russias-dnc-hack./_x+1,
15:u:Tok-1 X=PNAS.,
14:u:tok-1 X=pnas,
15:u:tok-1 R=111/4,
19:u:tok-1RR=1298--303,
24:u:tok-2 L=conflict/pnas.,
21:u:tok-2 R=pnas./111/4,
13:u:tok-1LL=tim,
29:u:tok-2 L=stevens,/cyberspace,
16:u:tok-1RR=state,,
16:u:tok-1 R=state,,
17:u:tok-1RR=adelphi,
20:u:tok-2 R=the/state,,
16:u:Tok-1 X=State,,
17:u:tok-1 R=adelphi,
20:u:tok-2 L=the/state,,
24:u:tok-2 R=state,/adelphi,
17:u:Tok-1 X=Adelphi,
17:u:tok-1 X=adelphi,
16:u:tok-1 L=state,,
17:u:tok-1RR=(london,
24:u:tok-2 L=state,/adelphi,
24:u:tok-2 R=adelphi/series,
12:u:Suf-2 X=hi,
16:u:tok-1LL=state,,
17:u:tok-1 L=adelphi,
17:u:tok-1 R=(london,
24:u:tok-1RR=iiss/routledge,
24:u:tok-2 L=adelphi/series,
24:u:tok-2 R=series/(london,
12:u:Pre-2 R=(L,
12:u:Suf-2 L=hi,
14:u:tok-1 X=earl,
22:u:tok-2 R=in/committee,
12:u:Suf-2 X=rl,
20:u:Tok-1 X=(Princeton,
16:u:tok-1RR=1976).,
24:u:tok-2 L=war/(princeton,
23:u:tok-2 R=(princeton/up,
12:u:Pre-2 X=(P,
12:u:Pre-2 R=UP,
12:u:Tok-1 X=UP,
20:u:tok-1 L=(princeton,
16:u:tok-1 R=1976).,
23:u:tok-2 L=(princeton/up,
19:u:tok-2 R=up/1976).,
12:u:Pre-2 X=UP,
12:u:Suf-2 X=UP,
16:u:Tok-1 X=1976).,
14:u:tok-1 X=1976,
20:u:tok-1LL=(princeton,
19:u:tok-2 L=up/1976).,
27:u:tok-2 R=1976)./translated,
12:u:Suf-2 L=UP,
27:u:Tmn-2 R=strong/translator,
16:u:tok-1 L=howard,
15:u:tok-1RR=paret,
20:u:tok-2 L=howard/and,
26:u:tok-2 R=technical/report,
21:u:tok-2 R=report/_x+1,
22:u:Tok-1 X=(CrowdStrike,
16:u:tok-1 L=2014).,
29:u:tok-2 L=2014)./(crowdstrike,
27:u:tok-2 R=(crowdstrike/_x+1,
14:u:tok-1LL=feb.,
17:u:tok-1 R=version,
13:u:tok-1RR=1.0,
15:u:tok-1LL=water,
19:u:tok-1 L=breach’,
28:u:tok-2 L=breach’/critical,
14:u:Suf-2 L=h’,
19:u:tok-1LL=breach’,
14:u:tok-1RR=253,,
25:u:tok-2 R=protection/vol.,
21:u:tok-2 R=for/defense,
21:u:tok-2 L=for/defense,
26:u:tok-2 R=defense/analysis,
26:u:tok-2 L=defense/analysis,
14:u:Suf-2 L=y’,
16:u:tok-1LL=julian,
20:u:tok-2 L=2021a./the,
29:u:Tok-1 X=Coronaperspectives.,
28:u:tok-1 X=coronaperspectives,
21:u:tok-1 L=activities.,
16:u:tok-1RR=konrad,
41:u:tok-2 L=activities./coronaperspectives.,
35:u:tok-2 R=coronaperspectives./2020.,
22:u:Tok-1 X=Counterspace,
22:u:tok-1 X=counterspace,
18:u:tok-1 L=project.,
19:u:tok-1 R=timeline,,
31:u:tok-2 L=project./counterspace,
32:u:tok-2 R=counterspace/timeline,,
19:u:Tok-1 X=Timeline,,
18:u:tok-1 X=timeline,
18:u:tok-1LL=project.,
22:u:tok-1 L=counterspace,
32:u:tok-2 L=counterspace/timeline,,
26:u:tok-2 R=timeline,/center,
12:u:Suf-2 X=h:,
12:u:Suf-2 L=h:,
14:u:Tok-1 X=DARK,
13:u:tok-1LL=up.,
17:u:tok-1 R=reading,
87:u:tok-1RR=https://www.darkreading.com/ics-ot/space-race-defenses-satellite-cyberattacks,
22:u:tok-2 L=(2023)./dark,
22:u:tok-2 R=dark/reading,
12:u:Suf-2 X=RK,
132:u:tok-1RR=https://www.chathamhouse.org/2019/12/application-international-law-state-cyberattacks/2-application-sovereignty-cyberspace,
25:u:tok-2 L=(2018)./chatham,
132:u:tok-1 R=https://www.chathamhouse.org/2019/12/application-international-law-state-cyberattacks/2-application-sovereignty-cyberspace,
90:u:tok-1RR=https://media.defense.gov/2019/jan/16/2002080386/-1/-1/1/190115-f-nv711-0002.pdf,
139:u:tok-2 R=house./https://www.chathamhouse.org/2019/12/application-international-law-state-cyberattacks/2-application-sovereignty-cyberspace,
14:u:tok-1 X=isbn,
17:u:tok-1LL=keskin,,
26:u:tok-1RR=infrastructures:,
15:u:tok-2 L=o./f.,
18:u:tok-2 R=f./space,
14:u:Tok-1 X=ISBN,
12:u:Suf-2 X=BN,
14:u:tok-1 L=isbn,
12:u:Suf-2 L=BN,
16:u:tok-1LL=myriam,
29:u:tok-2 R=cavelty/attribution,
21:u:tok-2 L=j./harknett,
29:u:tok-2 R=harknett/deterrence,
16:u:Tok-1 X=Vashdi,
16:u:tok-1 X=vashdi,
19:u:tok-2 L=r./vashdi,
16:u:tok-1RR=hidden,
16:u:Tok-1 X=Tucker,
16:u:tok-1 X=tucker,
18:u:tok-1LL=jonathan,
17:u:tok-1 R=tracing,
19:u:tok-2 L=b./tucker,
24:u:tok-2 R=tucker/tracing,
15:u:Tok-1 X=Weeks,
15:u:tok-1 X=weeks,
18:u:tok-2 L=l./weeks,
22:u:tok-2 R=weeks/public,
16:u:tok-1RR=(2013),
16:u:tok-1 R=(2013),
22:u:tok-1 L=herzegovina,,
19:u:tok-1RR=36357/04,,
34:u:tok-2 L=herzegovina,/application,
26:u:tok-2 R=application/nos.,
81:u:tok-1RR=http://www.wsj.com/articles/cyberwar-ignites-a-new-arms-race-1444611128,
18:u:tok-1 L=estonia,,
22:u:tok-2 L=estonia,/the,
18:u:tok-1LL=estonia,,
21:u:tok-2 R=guardian/17,
19:u:tok-1 L=agency’,
29:u:tok-2 L=agency’/september,
23:u:tok-2 R=september/24,,
23:u:Key-3 L=moderate/date,
19:u:tok-1LL=agency’,
89:u:tok-1RR=https://www.theguardian.com/technology/2010/sep/24/stuxnet-worm-national-agency,
23:u:tok-2 L=september/24,,
19:u:tok-2 R=24,/2010,,
22:u:tok-2 L=attacks./in:,
16:u:Tok-1 X=Zurich,
16:u:tok-1 X=zurich,
12:u:Pre-2 X=Zu,
16:u:tok-1 L=zurich,
20:u:tok-1LL=boudreaux,,
21:u:tok-2 R=in/security,
21:u:tok-2 L=in/security,
16:u:tok-1LL=zurich,
17:u:Tok-1 X=YouTube,
17:u:tok-1 X=youtube,
53:u:tok-1RR=https://www.youtube.com/watch?v=hdjb8wojyda,
25:u:tok-2 L=hackers/youtube,
23:u:tok-2 R=youtube/2016.,
20:u:Tok-1 X=Forensics.,
17:u:tok-1RR=politic,
28:u:tok-2 L=digital/forensics.,
24:u:tok-2 R=forensics./int,
152:u:tok-1RR=https://www.sans.org/event/threat-hunting-and-incident-response-summit-2019/course/advanced-network-forensics-threat-hunting-incident-response,
152:u:tok-1 R=https://www.sans.org/event/threat-hunting-and-incident-response-summit-2019/course/advanced-network-forensics-threat-hunting-incident-response,
163:u:tok-2 R=accessed)./https://www.sans.org/event/threat-hunting-and-incident-response-summit-2019/course/advanced-network-forensics-threat-hunting-incident-response,
25:u:tok-1LL=communications,,
26:u:tok-2 R=security,/before,
20:u:tok-2 L=2020,/last,
20:u:Tok-1 X=Analogies.,
16:u:Tok-1 X=Corpus,
16:u:tok-1 X=corpus,
15:u:tok-1LL=libri,
22:u:tok-1 L=politicorum.,
22:u:tok-1 R=thomisticum.,
17:u:tok-1RR=(1971).,
29:u:tok-2 L=politicorum./corpus,
29:u:tok-2 R=corpus/thomisticum.,
22:u:Tok-1 X=Thomisticum.,
21:u:tok-1 X=thomisticum,
22:u:tok-1LL=politicorum.,
16:u:tok-1 L=corpus,
17:u:tok-1 R=(1971).,
51:u:tok-1RR=http://www.corpusthomisticum.org/cpo.html,
29:u:tok-2 L=corpus/thomisticum.,
30:u:tok-2 R=thomisticum./(1971).,
14:u:tok-1RR=grid,
14:u:tok-1 R=grid,
14:u:Tok-1 X=Grid,
20:u:tok-2 R=power/grid,
20:u:tok-2 L=power/grid,
25:u:tok-2 R=ukrainian/power,
14:u:tok-1RR=sans,
25:u:tok-2 L=ukrainian/power,
14:u:tok-1 R=sans,
19:u:tok-2 R=grid/sans,
16:u:tok-1 R=michel,
19:u:tok-1RR=foucault.,
19:u:tok-2 R=in/michel,
16:u:Tok-1 X=Truman,
16:u:tok-1 X=truman,
21:u:tok-2 L=york/truman,
19:u:tok-2 R=truman/to,
16:u:tok-1 L=truman,
19:u:tok-2 L=truman/to,
19:u:tok-2 R=to/george,
16:u:tok-1LL=truman,
15:u:tok-1RR=bush.,
19:u:tok-2 L=to/george,
19:u:tok-2 R=george/w.,
15:u:tok-1 R=bush.,
19:u:tok-2 L=george/w.,
18:u:tok-2 R=w./bush.,
15:u:Tok-1 X=Bush.,
14:u:tok-1 X=bush,
18:u:tok-2 L=w./bush.,
20:u:tok-2 R=bush./_x+1,
27:u:tok-2 L=attacks/institute,
18:u:tok-1RR=strateg.,
21:u:tok-2 R=analysis/j.,
21:u:tok-2 L=nuts/hoover,
25:u:tok-2 L=security/united,
18:u:tok-1RR=assembly,
18:u:tok-1 R=assembly,
26:u:tok-2 R=general/assembly,
18:u:Tok-1 X=Assembly,
26:u:tok-2 L=general/assembly,
25:u:Tok-1 X=Cyber-Security.,
27:u:tok-2 R=deterrence/theory,
17:u:tok-1LL=robert.,
15:u:tok-1 L=twin.,
23:u:tok-2 L=twin./foreign,
15:u:tok-1LL=twin.,
103:u:tok-1RR=http://www.foreignpolicy.com/articles/2013/11/19/stuxnets_secret_twin_iran_nukes_cyber_attack,
24:u:tok-2 R=policy./(2013),
16:u:tok-1 X=prices,
17:u:Tok-1 X=Online.,
17:u:Tok-1 X=Prices,,
13:u:tok-1 R=llc,
26:u:tok-2 L=security/prices,,
21:u:tok-2 R=prices,/llc,
13:u:Tok-1 X=LLC,
13:u:tok-1 X=llc,
17:u:tok-1 L=prices,,
21:u:tok-2 L=prices,/llc,
16:u:tok-2 R=llc/in,
12:u:Suf-2 X=LC,
15:u:tok-1LL=2024.,
17:u:tok-1 L=nasdaq.,
19:u:tok-1 R=accessed:,
25:u:tok-2 L=nasdaq./online.,
27:u:tok-2 R=online./accessed:,
24:u:tok-2 R=cyberattack/on,
24:u:tok-2 L=cyberattack/on,
26:u:tok-1LL=dissemination].",
17:u:tok-2 L=cnn/the,
17:u:tok-1 L=review:,
23:u:tok-1RR=revisited”.,
28:u:tok-2 L=review:/deterrence,
19:u:tok-2 L=law/april,
21:u:tok-2 R=april/2020.,
20:u:tok-2 L=zurich/may,
20:u:tok-2 R=policy/eth,
13:u:tok-1 L=eth,
20:u:tok-2 L=eth/zurich,
13:u:tok-1LL=eth,
14:u:tok-1 R=(no.,
15:u:tok-1RR=244).,
18:u:tok-2 R=may/(no.,
21:u:tok-1 R=reimagined.,
27:u:tok-2 L=attacks./security,
30:u:tok-2 R=security/reimagined.,
29:u:tok-2 L=reimagined./fireeye,
24:u:tok-2 R=fireeye/report,
21:u:tok-1LL=reimagined.,
24:u:tok-2 L=fireeye/report,
36:u:tok-2 L=attribution./cybersecurity,
21:u:tok-1RR=prevention.,
21:u:tok-1 R=prevention.,
17:u:tok-1RR=37–60,
34:u:tok-2 R=cyberwarfare/prevention.,
21:u:Tok-1 X=Prevention.,
17:u:tok-1 R=37–60,
34:u:tok-2 L=cyberwarfare/prevention.,
29:u:tok-2 R=prevention./37–60,
22:u:tok-1 L=definitions.,
16:u:tok-1RR=iftrip,
30:u:tok-2 L=definitions./october,
23:u:tok-2 R=october/2018.,
28:u:tok-1 R=978-1-9774-0272-1.,
20:u:tok-2 L=2019./isbn,
33:u:tok-2 R=isbn/978-1-9774-0272-1.,
28:u:Tok-1 X=978-1-9774-0272-1.,
23:u:tok-1 X=9781977402721,
33:u:tok-2 L=isbn/978-1-9774-0272-1.,
33:u:tok-2 R=978-1-9774-0272-1./_x+1,
21:u:tok-2 L=b./february,
26:u:tok-2 R=february/private,
27:u:tok-2 R=law/international,
27:u:tok-2 L=law/international,
16:u:tok-1RR=facing,
16:u:tok-1 R=facing,
20:u:tok-2 R=law/facing,
16:u:Tok-1 X=Facing,
16:u:tok-1 X=facing,
20:u:tok-2 L=law/facing,
20:u:tok-2 R=facing/new,
14:u:tok-1LL=knut,
15:u:tok-1 L=ipsen,
20:u:tok-2 L=ipsen/part,
18:u:tok-2 R=part/ii,,
15:u:Tok-1 X=Latin,
15:u:tok-1 X=latin,
18:u:tok-1 R=america,,
18:u:tok-2 L=uk/latin,
24:u:tok-2 R=latin/america,,
15:u:Lst-2 X=Ll/о,
12:u:Suf-1 X=о,
17:u:Tmn-3 X=none/о,
15:u:Lst-2 L=Ll/о,
13:u:tok-1 L=...,
13:u:tok-1LL=...,
21:u:tok-2 L=.../october,
53:u:tok-1RR=https://web.archive.org/web/20200325083125/,
18:u:tok-2 R=26,/2015,
11:u:Fst-1 R=L,
11:*:Fst-1 X=L,
11:*:Lst-1 L=L,
19:u:tok-1RR=programme,
22:u:tok-2 L=oxford/cyber,
23:u:tok-2 R=cyber/studies,
21:u:tok-2 L=york/report,
30:u:tok-2 L=council./proceedings,
20:u:tok-2 R=u.s./2011.,
14:u:tok-1LL=may.,
128:u:tok-1RR=https://css.ethz.ch/content/dam/ethz/special-interest/gesc/cis/center-for-securities-studies/pdfs/cssanalyse244-en.pdf,
24:u:tok-2 R=zurich/studies,
20:u:tok-2 L=experts/in,
20:u:Tok-1 X=EUROPOLITY,
20:u:tok-1 X=europolity,
25:u:tok-2 L=_x-1/europolity,
25:u:tok-2 R=europolity/vol.,
12:u:Suf-2 X=TY,
14:u:tok-1 L=u.n.,
17:u:tok-1 R=treaty.,
25:u:tok-2 L=u.n./cybercrime,
28:u:tok-2 R=cybercrime/treaty.,
17:u:Tok-1 X=Treaty.,
14:u:tok-1LL=u.n.,
28:u:tok-2 L=cybercrime/treaty.,
25:u:tok-2 R=treaty./foreign,
17:u:tok-1 L=stimson,
113:u:tok-1 R=https://www.stimson.org/2023/discord-and-diplomacy-reviewing-outcomes-from-the-uns-cyber-working-group/,
24:u:tok-2 L=stimson/center,
120:u:tok-2 R=center/https://www.stimson.org/2023/discord-and-diplomacy-reviewing-outcomes-from-the-uns-cyber-working-group/,
15:u:tok-1 R=hunts,
17:u:tok-2 L=e./u.s.,
20:u:tok-2 R=u.s./hunts,
0=2.519330e-02
1=9.312763e-02
2=1.343182e-01
3=5.021064e-02
4=1.528522e-02
5=4.663106e-02
6=4.394504e-02
7=1.704999e-01
8=-6.200193e-04
9=9.671012e-02
10=-3.468700e-03
11=9.178217e-02
15=1.659153e-01
16=-1.464991e-01
17=-1.552215e-01
18=-8.070531e-02
19=1.092226e+00
20=1.586467e-02
21=-8.897527e-01
23=-3.121559e-05
27=-8.273235e-01
28=-1.431110e-01
30=-4.775488e-01
38=-1.580635e+00
39=5.375917e-01
40=2.288034e-02
41=-8.315679e-01
42=7.835134e-02
43=-2.101001e-01
44=-3.163155e-01
45=-1.385099e+00
46=-6.367897e-02
47=-1.063580e+00
48=-2.125012e-01
49=-1.495028e+00
54=-2.773536e-01
55=-8.159601e-01
56=-1.448034e-02
57=-3.447332e-01
58=-2.414114e+00
59=7.595630e-01
60=2.952215e-01
61=-1.475695e+00
62=-1.359319e+00
63=-1.095600e+00
64=2.223284e-02
65=-1.701016e+00
66=-4.623910e-01
67=1.013060e-02
68=-2.957845e-02
69=1.800188e-01
74=-2.155329e-02
76=-9.154011e-01
77=-1.401960e+00
78=-1.182503e+00
79=7.020388e-01
80=-7.402913e-01
83=4.778771e-02
84=-6.540646e-01
85=-3.578882e-01
86=4.251122e-01
87=-6.465280e-01
88=3.328163e-03
95=-1.277936e+00
96=-3.083766e+00
97=6.227346e-02
98=-6.066934e-01
99=6.481638e-01
100=7.198871e-01
101=-2.545747e-01
102=-1.745457e-01
103=-1.689297e+00
104=-4.157525e-01
105=-5.664260e-01
106=-1.499375e+00
107=-3.222475e-01
115=-1.567458e+00
116=6.018371e-03
119=1.242013e+00
120=2.582584e+00
122=-2.840531e-01
125=-1.130504e+00
134=-1.598779e-01
135=3.395504e-01
139=1.322313e+00
145=-2.093499e-02
153=-6.153392e-01
154=-1.024399e+00
159=1.711567e+00
164=9.579020e-02
171=-1.305661e+00
172=-2.132907e+00
173=-3.657188e-03
174=-5.361516e-01
175=-2.037289e-01
176=-3.111416e-02
177=1.581428e-01
178=-5.114616e-01
179=8.932726e-01
180=-3.576567e-01
181=-6.651959e-01
182=-2.488006e+00
183=-2.369565e-01
190=-1.403193e+00
191=-6.657819e-01
192=-1.082854e-01
193=-4.535555e-01
198=-9.930081e-03
199=1.457754e+00
200=-3.595041e-01
201=-6.210174e-01
209=-8.613392e-01
210=-1.244020e+00
211=-1.135855e+00
212=-8.395846e-01
213=-4.778467e-01
216=1.723271e-02
217=-7.978637e-01
219=8.066892e-01
220=-8.449542e-02
221=1.043241e-01
223=2.108025e-01
228=-2.359604e-01
229=-2.316423e+00
230=-3.707505e+00
231=-5.780911e-01
232=-4.760156e-01
235=-1.783202e-02
236=-3.803548e-01
238=-6.050645e-01
239=1.715190e+00
240=-4.677702e-01
248=-4.351019e-01
249=-1.212634e-01
258=4.473003e-01
259=2.888110e-01
266=5.654455e-02
299=1.203138e+00
319=6.475737e-01
324=-1.371352e-01
339=7.003549e-01
359=9.630427e-01
379=1.040411e+00
380=1.584628e-01
381=2.479704e-02
388=2.719965e-03
393=1.032398e-01
399=1.584628e-01
400=2.479704e-02
407=2.719965e-03
412=1.032398e-01
418=-6.662512e-01
419=5.119923e-02
422=-5.705271e-03
426=7.559129e-03
429=2.550041e-03
437=1.828430e-01
438=1.171436e-01
439=-2.004025e-01
440=1.981593e-01
441=9.217226e-02
442=-9.316763e-02
443=-1.485679e+00
444=5.553165e-02
445=2.328207e-02
446=8.229103e-02
447=3.984127e-02
448=-8.541958e-04
449=-2.694789e-01
453=-3.027033e-03
454=1.317213e-01
456=7.459072e-01
457=6.516887e-01
460=-1.636547e-05
464=-4.105297e-01
465=-2.051433e-03
475=-1.045293e-05
476=2.465378e-01
477=-9.406073e-04
479=5.291100e-01
480=-7.267143e-02
483=2.897145e-02
484=-3.214771e-01
485=-1.258779e+00
486=-7.421672e-01
491=-9.941762e-02
494=-4.756354e-03
495=-1.207242e-01
496=2.693021e-01
497=5.742425e-01
498=-4.568948e-01
501=1.108969e-02
502=-1.186618e-01
503=-1.929601e-01
504=1.460303e-01
505=-2.137430e-02
512=2.031050e-02
514=-1.403691e-01
515=-1.362132e-01
516=5.596681e-01
517=-1.840085e-01
520=6.752707e-02
521=-2.064004e-01
522=-1.882454e-01
523=3.247197e-01
524=-6.045221e-01
532=-1.016474e-04
534=4.576391e-01
536=5.424669e-01
556=5.966012e-01
596=9.775493e-02
608=-2.668434e-04
609=-2.897527e-01
610=-3.344664e-01
612=-1.031191e-01
613=1.357953e-01
614=-1.961216e-01
615=-9.142087e-02
616=5.786320e-01
627=-2.560917e-02
636=4.503829e-01
646=-1.204837e-01
649=-2.606786e-01
650=-5.677702e-07
653=3.152596e-01
654=-7.729948e-05
656=7.355251e-01
676=3.309643e-01
695=8.933155e-01
703=3.416525e-02
776=1.011218e+00
796=1.013669e+00
817=3.694072e-01
818=1.045339e-01
819=4.399509e-02
820=1.754940e-01
821=2.173583e-02
822=-1.747443e+00
823=-1.575528e+00
824=-5.517544e-01
825=2.644970e-02
826=7.521374e-02
827=3.006917e-02
828=-6.518559e-02
829=-1.397098e-02
833=2.280736e-05
835=-6.438794e-02
836=-8.868562e-02
837=1.260311e-02
838=1.694828e-03
839=-1.429456e-02
840=2.421884e-04
844=5.268851e-03
847=2.242377e-01
855=4.353483e-02
856=1.483642e-03
859=4.844077e-03
863=-2.571593e-04
874=1.584628e-01
875=2.479704e-02
882=2.719965e-03
887=1.032398e-01
1254=1.643947e-01
1255=1.457461e-02
1256=1.075045e-01
1257=-1.011177e-03
1258=-4.844561e-02
1259=3.966750e-02
1260=-1.858948e-01
1261=-6.663225e-02
1262=-3.262225e-02
1263=5.488837e-02
1264=-7.776688e-02
1265=4.036798e-02
1266=-3.748944e-03
1269=9.033840e-02
1270=-6.032479e-02
1271=-5.862682e-02
1273=1.584628e-01
1274=2.479704e-02
1281=2.719965e-03
1286=1.032398e-01
1292=9.580372e-03
1293=-9.409468e-02
1294=2.493502e-02
1295=-1.160057e-01
1296=7.559220e-02
1297=7.190045e-02
1299=-6.128564e-06
1300=8.651605e-03
1301=9.656867e-02
1302=-1.562049e-01
1311=-8.868562e-02
1312=1.260311e-02
1313=1.694828e-03
1314=-1.429456e-02
1315=2.421884e-04
1319=5.268851e-03
1322=2.242377e-01
1330=-2.468645e-05
1331=3.435369e-02
1349=9.580372e-03
1350=-9.409468e-02
1351=2.493502e-02
1352=-1.160057e-01
1353=7.559220e-02
1354=7.190045e-02
1356=-6.128564e-06
1357=8.651605e-03
1358=9.656867e-02
1359=-1.562049e-01
1368=1.584628e-01
1369=2.479704e-02
1376=2.719965e-03
1381=1.032398e-01
1387=1.597504e-01
1388=-1.424422e-01
1395=1.634076e-02
1406=1.584628e-01
1407=2.479704e-02
1414=2.719965e-03
1419=1.032398e-01
1425=-5.477673e-02
1426=9.989931e-02
1427=-1.271540e-02
1428=8.440666e-02
1429=8.479832e-02
1430=-1.378356e-02
1432=4.474448e-02
1433=2.342632e-02
1434=5.795542e-02
1435=6.737457e-02
1436=2.015453e-03
1441=-6.451673e-03
1442=6.452763e-02
1443=-1.044045e-01
1444=5.164088e-01
1445=-1.649576e-01
1452=1.441314e-01
1453=7.282642e-01
1454=-3.973785e-01
1464=1.086064e-01
1471=5.674698e-02
1482=1.307928e-01
1483=-3.682754e-02
1486=-4.173656e-02
1490=7.182263e-02
1492=-1.093740e-02
1502=1.086064e-01
1509=5.674698e-02
1520=1.584628e-01
1521=2.479704e-02
1528=2.719965e-03
1533=1.032398e-01
1900=1.350652e-01
1901=2.088084e-01
1902=-2.023263e-01
1903=6.999784e-02
1904=1.454941e-01
1905=-4.303247e-01
1906=-5.157671e-02
1907=3.136030e-02
1908=1.305788e-01
1909=1.163077e-01
1910=3.052567e-02
1911=-2.933796e-02
1913=-8.668816e-01
1916=2.214905e-01
1917=1.823054e-01
1918=-2.049311e-02
1919=1.003900e+00
1920=1.337456e-01
1923=-3.102605e-05
1927=-6.447219e-01
1928=-8.191659e-02
1930=-3.317074e-01
1938=-1.358517e+00
1939=5.353046e-01
1940=-5.240461e-01
1941=-6.739336e-01
1942=1.265982e-01
1944=2.139991e-02
1945=-3.709195e-01
1946=-1.072735e-02
1947=-8.391617e-01
1948=-1.196694e-01
1949=-3.514791e-01
1954=-2.082417e-01
1955=-2.700763e-01
1957=-2.537068e-01
1958=-1.104067e+00
1959=6.748143e-01
1960=3.210858e-01
1961=-1.182866e+00
1964=4.640726e-02
1965=-8.440907e-01
1966=-2.691096e-01
1967=1.498675e-02
1968=-1.379983e-01
1974=-1.450327e-02
1975=9.142896e-02
1976=-2.623936e-01
1977=-7.214656e-01
1979=7.019354e-01
1980=-6.664345e-01
1983=7.618683e-02
1984=-5.404703e-01
1985=-2.075866e-01
1986=4.970956e-01
1987=-2.530390e-01
1995=-4.332397e-01
1996=-6.495710e-01
1997=3.999487e-01
1998=-4.143079e-01
1999=7.600668e-01
2000=-4.007926e-01
2002=-3.848391e-01
2003=-6.926400e-01
2004=-2.374084e-01
2005=-2.593706e-01
2006=-1.318853e-01
2019=1.912990e+00
2039=4.383973e-01
2053=-1.611100e-01
2059=8.564791e-01
2071=-6.150052e-01
2072=-1.224200e+00
2073=-7.110411e-01
2074=-4.549166e-01
2075=-1.777632e-01
2076=4.095024e-01
2078=-8.691603e-02
2079=8.622577e-01
2080=-9.333464e-02
2081=-4.825990e-01
2090=-3.494028e-02
2091=-3.465626e-01
2093=-9.020455e-02
2099=9.627728e-01
2100=-2.466086e-01
2109=-2.466143e-01
2110=-7.674961e-01
2112=-3.267544e-01
2113=-4.015684e-01
2116=7.521846e-03
2117=-3.823698e-01
2118=2.065944e-03
2119=5.297045e-01
2120=-1.494286e-04
2129=-2.035146e-01
2131=-2.190486e-01
2132=-4.063383e-01
2135=-6.983399e-02
2136=-7.420041e-02
2138=-2.269025e-01
2139=6.676412e-01
2145=8.877274e-02
2148=-4.878305e-02
2158=1.108074e+00
2159=8.493481e-02
2166=4.272548e-02
2199=1.623047e+00
2224=-1.094759e-01
2239=1.175716e+00
2259=1.615251e+00
2284=5.301399e-02
2288=-2.713386e-01
2289=1.151956e-02
2299=1.150936e-01
2300=3.566442e-01
2301=-1.378974e-01
2302=1.357456e-01
2303=3.140461e-01
2304=-2.685497e-01
2305=-1.223807e-01
2306=-1.936031e-02
2307=2.209142e-01
2308=1.388176e-01
2309=1.726208e-01
2310=2.240023e-01
2311=4.941000e-02
2312=-1.269337e+00
2313=-1.230915e-01
2315=-1.234956e-04
2316=8.062570e-02
2317=-1.589466e-03
2318=2.186643e-02
2319=-9.772310e-03
2320=-1.404240e-01
2321=-4.536892e-02
2326=1.339262e-03
2327=9.263647e-02
2328=-1.330379e-02
2329=-2.869939e-02
2337=1.054008e+00
2338=-1.547706e-01
2339=5.938936e-01
2340=-1.339461e-03
2341=8.505054e-03
2342=1.492470e+00
2343=-4.494618e-02
2344=6.673317e-02
2345=-1.001154e-01
2346=2.804579e-01
2347=-1.884144e-01
2348=5.750248e-02
2353=-5.123796e-01
2354=6.239692e-02
2356=9.659583e-03
2357=1.311431e-01
2358=3.755569e-02
2359=1.131238e-02
2360=6.032129e-02
2361=4.763702e-02
2362=4.680448e-02
2363=1.634596e-01
2364=1.259647e-01
2365=7.318741e-02
2366=-2.164849e-01
2367=9.085583e-02
2371=1.611117e-01
2372=-1.351678e-01
2373=-1.601099e-01
2374=-6.674786e-02
2375=2.220937e-02
2376=1.404092e-01
2377=1.610881e-01
2378=-5.816498e-01
2379=1.142527e-03
2380=1.224505e-01
2381=4.346309e-02
2382=1.642999e-01
2383=-6.944993e-03
2384=7.413144e-02
2385=2.154445e-03
2386=1.804283e-01
2390=3.156450e-01
2391=-1.181903e-01
2392=-1.433986e-01
2394=2.677631e-01
2395=6.551027e-02
2396=1.956231e-01
2397=4.398990e-02
2398=-2.416950e-01
2399=1.274530e-01
2400=4.871647e-05
2401=-5.333990e-01
2402=-7.657090e-02
2403=1.540734e-01
2404=-3.142138e-02
2405=1.785953e-01
2409=1.469498e-01
2410=-1.994159e-01
2411=1.068288e-01
2413=1.584628e-01
2414=2.479704e-02
2421=2.719965e-03
2426=1.032398e-01
2432=-2.350479e-02
2433=1.535737e-01
2434=3.978087e-02
2435=6.749787e-02
2436=7.169995e-03
2437=-6.130096e-02
2439=6.944005e-02
2440=1.445656e-02
2441=-1.442901e-03
2442=4.919801e-02
2443=8.888398e-02
2446=-3.781476e-01
2447=-1.556879e-01
2448=-1.632143e-01
2449=-1.255448e-01
2451=8.237816e-02
2452=1.410390e-01
2453=4.289264e-02
2454=7.250872e-02
2455=-1.255151e-02
2456=1.846817e-02
2457=2.195798e-02
2459=1.085034e-01
2460=1.202862e-02
2461=-1.240522e-02
2462=1.377479e-02
2464=-1.382363e-02
2465=-1.446259e+00
2467=-2.155984e-01
2468=-1.281364e-01
2469=-9.962047e-02
2470=1.181351e-02
2471=1.597408e-01
2472=-1.676989e-01
2473=1.976910e-01
2474=5.236463e-02
2475=-1.494298e+00
2477=4.681724e-02
2478=2.512389e-02
2480=1.353445e-01
2481=1.566572e-03
2483=-2.769412e-03
2486=-1.053997e-03
2487=-1.074408e-02
2488=-6.395936e-02
2489=1.583176e-01
2490=2.475706e-02
2497=2.667852e-03
2502=1.029337e-01
2508=2.286764e-02
2509=-1.648320e-02
2510=8.369583e-03
2511=-3.834783e-02
2512=-5.975844e-05
2513=8.516056e-03
2516=-1.615908e-02
2517=8.621710e-02
2518=-4.213569e-03
2519=2.195694e-02
2527=1.584628e-01
2528=2.479704e-02
2535=2.719965e-03
2540=1.032398e-01
2546=1.584628e-01
2547=2.479704e-02
2554=2.719965e-03
2559=1.032398e-01
2565=7.953257e-02
2578=9.788001e-02
2584=1.584628e-01
2585=2.479704e-02
2592=2.719965e-03
2597=1.032398e-01
2603=-1.189797e-01
2604=-1.807448e-02
2605=2.040485e-01
2606=-1.604728e-01
2607=-4.255012e-03
2608=1.223647e-01
2609=-7.206388e-01
2610=-4.295984e-02
2611=-4.656307e-02
2612=4.971784e-02
2613=-1.468573e-03
2614=6.533039e-02
2622=-4.054559e-01
2623=5.258314e-02
2624=-1.165277e-02
2625=1.690063e-03
2626=-2.252174e-04
2627=2.282343e-04
2628=-3.972935e-06
2629=-2.801653e-02
2630=1.881489e-02
2632=-4.845328e-02
2633=-7.486384e-02
2638=-3.888904e-02
2639=-6.403709e-03
2641=1.584628e-01
2642=2.479704e-02
2649=2.719965e-03
2654=1.032398e-01
2660=6.494848e-02
2661=1.287446e-01
2662=-3.752000e-02
2663=6.964364e-02
2664=4.861968e-02
2665=-1.166174e-03
2666=2.733683e-02
2667=1.242850e-01
2668=1.579230e-03
2669=8.850792e-02
2670=-8.595973e-03
2671=9.056992e-02
2676=-1.345184e-01
2677=-1.429864e-01
2679=1.126174e-01
2680=1.624201e-01
2681=6.685910e-02
2682=4.999155e-02
2683=2.405465e-02
2684=2.657938e-02
2685=-5.559283e-03
2686=-8.034971e-02
2687=1.049846e-01
2688=3.745324e-02
2689=4.031519e-02
2690=-2.930901e-02
2691=-2.419887e-03
2695=-1.287937e-01
2696=-1.341196e-01
2697=-7.487072e-02
2698=1.584628e-01
2699=2.479704e-02
2706=2.719965e-03
2711=1.032398e-01
3078=9.511860e-03
3079=-1.725744e-02
3080=1.941255e-02
3081=-1.135764e-01
3083=3.610883e-02
3085=-6.873480e-06
3086=-2.540638e-02
3087=8.145692e-02
3088=-1.383885e-02
3089=9.087377e-03
3097=-6.025314e-01
3098=6.253665e-02
3099=-2.041528e-02
3100=-3.076224e-03
3101=-8.207767e-04
3102=3.442210e-02
3104=-4.584624e-01
3105=4.190649e-02
3106=-1.466317e-05
3107=-1.821878e-01
3108=-7.485756e-02
3113=-8.996457e-02
3114=-1.966623e-02
3116=1.648144e+00
3135=2.792717e-02
3136=-1.644125e-02
3137=2.436206e-02
3138=-1.252555e-02
3143=-2.405870e-02
3144=2.217859e-02
3145=-1.409195e-04
3146=7.272407e-02
3154=1.069565e-02
3155=-8.229499e-02
3156=3.028595e-02
3157=-1.167596e-01
3158=9.485487e-02
3159=3.689134e-02
3162=1.627146e-02
3163=1.043257e-01
3164=-3.740101e-02
3165=1.080673e-02
3173=6.028615e-02
3192=7.576506e-02
3193=1.107245e-01
3194=1.522052e-01
3195=6.839302e-02
3196=4.117945e-02
3197=4.922055e-02
3198=5.104380e-02
3199=1.650834e-01
3200=1.976316e-02
3201=9.027533e-02
3202=3.370224e-02
3203=1.012433e-01
3204=-2.321538e+00
3207=-2.873049e+00
3208=-1.374807e-01
3209=-1.460467e-01
3210=-2.833745e-01
3211=1.777631e+00
3212=-1.762146e-01
3219=4.244033e-02
3230=8.163370e-01
3231=2.338886e-02
3234=-3.306029e-02
3238=1.616760e-02
3241=1.812222e-02
3250=3.430591e-02
3268=1.063334e-01
3269=8.043272e-03
3272=6.448443e-04
3276=-4.900934e-03
3278=2.233052e-02
3279=-4.578383e-02
3287=5.368493e-01
3288=7.573599e-03
3290=2.236164e-02
3291=-1.574955e-02
3295=-6.235115e-04
3306=-6.730302e-02
3307=1.394960e-04
3308=-6.850324e-02
3309=3.170610e-04
3310=4.324971e-02
3311=1.090072e-02
3312=1.179817e-05
3313=2.569028e-02
3314=-5.899423e-03
3315=2.344521e-03
3316=7.144285e-03
3317=-6.382564e-03
3323=-1.123922e-02
3325=3.739949e-01
3326=9.480417e-01
3329=3.185907e-03
3345=-3.389718e-02
3346=2.827630e-01
3348=5.816216e-01
3350=5.332105e-04
3352=2.576505e-01
3364=-6.136954e-01
3365=2.094851e-02
3366=4.281013e-01
