#mdl#2#3427
#rdr#61/19/0
1:*,
18:u:Tok-1 X=%x[ 0,0],
18:u:tok-1 X=%x[ 0,1],
18:u:tok-1LL=%X[-2,0],
18:u:tok-1 L=%X[-1,0],
18:u:tok-1 R=%X[ 1,0],
18:u:tok-1RR=%X[ 2,0],
27:u:tok-2 L=%X[-1,0]/%X[ 0,0],
27:u:tok-2 R=%X[ 0,0]/%X[ 1,0],
18:*:Fst-1 X=%x[ 0,2],
18:u:Fst-1 R=%x[ 1,2],
27:u:Fst-2 X=%x[ 0,2]/%x[ 0,4],
27:u:Fst-2 R=%x[ 1,2]/%x[ 1,4],
18:*:Lst-1 L=%x[-1,3],
18:u:Lst-1 X=%x[ 0,3],
27:u:Lst-2 L=%x[-1,3]/%x[-1,6],
27:u:Lst-2 X=%x[ 0,3]/%x[ 0,6],
18:u:Pre-1 X=%x[ 0,4],
18:u:Pre-2 X=%x[ 0,5],
18:u:Pre-2 R=%x[ 1,5],
18:u:Suf-1 X=%x[ 0,6],
18:u:Suf-2 L=%x[-1,7],
18:u:Suf-2 X=%x[ 0,7],
18:u:Cap-1 L=%x[-1,8],
18:u:Cap-1 X=%x[ 0,8],
18:u:Cap-1 R=%x[ 1,8],
27:u:Cap-2 L=%x[-1,8]/%x[ 0,8],
27:u:Cap-2 R=%x[ 0,8]/%x[ 1,8],
28:u:Cap-3 L=%x[-1,18]/%x[ 0,8],
18:*:Num-1 L=%x[-1,9],
18:*:Num-1 X=%x[ 0,9],
18:u:Num-1 R=%x[ 1,9],
28:u:Num-2 R=%x[ 0,9]/%x[ 0,17],
28:u:Num-2 R=%x[ 0,9]/%x[ 0,18],
19:u:Nme-1 X=%x[ 0,10],
19:u:Loc-1 X=%x[ 0,11],
19:u:Pub-1 X=%x[ 0,12],
19:u:Jnl-1 X=%x[ 0,13],
19:u:Key-1 L=%x[-1,14],
19:u:Key-1 X=%x[ 0,14],
19:u:Key-1 R=%x[ 1,14],
28:u:Key-2 X=%x[ 0,14]/%x[ 0,8],
29:u:Key-3 L=%x[-1,18]/%x[ 0,14],
29:u:Key-3 x=%x[ 0,14]/%x[ 0,18],
19:u:Pos-1 X=%x[ 0,15],
29:u:Pos-2 L=%x[-1,15]/%x[ 0,15],
29:u:Pos-2 R=%x[ 0,15]/%x[ 1,15],
19:u:Pct-1 L=%x[-1,16],
19:u:Pct-1 X=%x[ 0,16],
19:u:Pct-1 R=%x[ 1,16],
19:u:Brk-1 L=%x[-1,17],
19:u:Brk-1 X=%x[ 0,17],
19:u:Brk-1 R=%x[ 1,17],
19:*:Tmn-1 L=%x[-1,18],
19:u:Tmn-1 X=%x[ 0,18],
19:u:Tmn-1 R=%x[ 1,18],
29:u:Tmn-2 L=%x[-1,14]/%x[ 0,18],
29:u:Tmn-2 R=%x[ 0,18]/%x[ 1,14],
28:u:Tmn-3 X=%x[ 0,18]/%x[ 0,6],
28:u:Tmn-4 R=%x[ 0,18]/%x[ 1,8],
19:u:Id--1 X=%x[ 0,19],
#qrk#9
6:author,
5:title,
4:date,
9:publisher,
15:container-title,
6:volume,
5:issue,
5:pages,
7:journal,
#qrk#1395
1:*,
19:u:Tok-1 X=Anonymous,
19:u:tok-1 X=anonymous,
14:u:tok-1LL=_x-2,
14:u:tok-1 L=_x-1,
12:u:tok-1RR=of,
24:u:tok-2 L=_x-1/anonymous,
12:*:Fst-1 X=Lu,
12:u:Fst-1 R=Lu,
14:u:Fst-2 X=Lu/A,
14:u:Fst-2 R=Lu/O,
14:*:Lst-1 L=_x-1,
12:u:Lst-1 X=Ll,
19:u:Lst-2 L=_x-1/_x-1,
14:u:Lst-2 X=Ll/s,
11:u:Pre-1 X=A,
12:u:Pre-2 X=An,
12:u:Pre-2 R=Of,
11:u:Suf-1 X=s,
14:u:Suf-2 L=_x-1,
14:u:Cap-1 L=_x-1,
17:u:Cap-1 X=initial,
17:u:Cap-1 R=initial,
22:u:Cap-2 L=_x-1/initial,
25:u:Cap-2 R=initial/initial,
22:u:Cap-3 L=_x-1/initial,
14:*:Num-1 L=_x-1,
14:*:Num-1 X=none,
14:u:Num-1 R=none,
19:u:Num-2 R=none/none,
11:u:Nme-1 X=F,
11:u:Loc-1 X=F,
11:u:Pub-1 X=F,
11:u:Jnl-1 X=F,
14:u:Key-1 L=_x-1,
14:u:Key-1 X=none,
14:u:Key-1 R=none,
22:u:Key-2 X=none/initial,
19:u:Key-3 L=_x-1/none,
19:u:Key-3 x=none/none,
15:u:Pos-1 X=first,
20:u:Pos-2 L=_x-1/first,
14:u:Pct-1 L=_x-1,
14:u:Pct-1 X=none,
14:u:Pct-1 R=none,
14:u:Brk-1 L=_x-1,
14:u:Brk-1 X=none,
14:u:Brk-1 R=none,
14:*:Tmn-1 L=_x-1,
14:u:Tmn-1 X=none,
14:u:Tmn-1 R=none,
19:u:Tmn-2 L=_x-1/none,
19:u:Tmn-2 R=none/none,
16:u:Tmn-3 X=none/s,
22:u:Tmn-4 R=none/initial,
11:u:Id--1 X=F,
14:u:tok-1LL=_x-1,
19:u:tok-1 L=anonymous,
12:u:tok-1 R=of,
13:u:tok-1RR=the,
12:u:Fst-1 R=Ll,
14:u:Fst-2 X=Lu/O,
14:u:Fst-2 R=Ll/o,
12:*:Lst-1 L=Ll,
14:u:Lst-2 L=Ll/s,
14:u:Lst-2 X=Ll/e,
11:u:Pre-1 X=O,
12:u:Pre-2 R=of,
11:u:Suf-1 X=e,
12:u:Suf-2 L=us,
12:u:Suf-2 X=ce,
17:u:Cap-1 L=initial,
15:u:Cap-1 R=lower,
25:u:Cap-2 L=initial/initial,
23:u:Cap-2 R=initial/lower,
22:u:Cap-3 L=none/initial,
14:*:Num-1 L=none,
11:u:Pub-1 X=T,
11:u:Jnl-1 X=T,
14:u:Key-1 L=none,
19:u:Key-3 L=none/none,
14:u:Pct-1 L=none,
14:u:Brk-1 L=none,
14:*:Tmn-1 L=none,
19:u:Tmn-2 L=none/none,
16:u:Tmn-3 X=none/e,
20:u:Tmn-4 R=none/lower,
12:u:Tok-1 X=of,
12:u:tok-1 X=of,
13:u:tok-1 R=the,
12:*:Fst-1 X=Ll,
14:u:Fst-2 X=Ll/o,
14:u:Fst-2 R=Ll/t,
14:u:Lst-2 L=Ll/e,
14:u:Lst-2 X=Ll/f,
11:u:Pre-1 X=o,
12:u:Pre-2 X=of,
12:u:Pre-2 R=th,
11:u:Suf-1 X=f,
12:u:Suf-2 L=ce,
12:u:Suf-2 X=of,
15:u:Cap-1 X=lower,
23:u:Cap-2 L=initial/lower,
21:u:Cap-2 R=lower/lower,
20:u:Cap-3 L=none/lower,
20:u:Key-2 X=none/lower,
11:u:Pos-1 X=1,
13:u:Pos-2 R=1/1,
16:u:Tmn-3 X=none/f,
13:u:Tok-1 X=the,
13:u:tok-1 X=the,
12:u:tok-1 L=of,
14:u:Fst-2 X=Ll/t,
14:u:Fst-2 R=Lu/D,
14:u:Lst-2 L=Ll/f,
11:u:Pre-1 X=t,
12:u:Pre-2 X=th,
12:u:Pre-2 R=Di,
12:u:Suf-2 L=of,
12:u:Suf-2 X=he,
15:u:Cap-1 L=lower,
21:u:Cap-2 L=lower/lower,
23:u:Cap-2 R=lower/initial,
13:u:Pos-2 L=1/1,
13:u:Pos-2 R=1/2,
12:u:tok-1LL=of,
13:u:tok-1 L=the,
14:u:Fst-2 X=Lu/D,
14:u:Lst-2 X=Ll/r,
11:u:Pre-1 X=D,
12:u:Pre-2 X=Di,
11:u:Suf-1 X=r,
12:u:Suf-2 L=he,
12:u:Suf-2 X=or,
23:u:Cap-2 L=lower/initial,
11:u:Pos-1 X=2,
13:u:Pos-2 L=1/2,
13:u:Pos-2 R=2/2,
16:u:Tmn-3 X=none/r,
13:u:tok-1LL=the,
14:u:Fst-2 R=Lu/N,
14:u:Lst-2 L=Ll/r,
12:u:Pre-2 R=Na,
13:u:Pos-2 L=2/2,
13:u:Pos-2 R=2/3,
18:u:Tok-1 X=National,
18:u:tok-1 X=national,
14:u:Fst-2 R=Lu/I,
14:u:Lst-2 X=Ll/l,
12:u:Pre-2 X=Na,
12:u:Pre-2 R=In,
11:u:Suf-1 X=l,
12:u:Suf-2 X=al,
11:u:Pos-1 X=3,
13:u:Pos-2 L=2/3,
13:u:Pos-2 R=3/3,
15:u:Pct-1 R=other,
14:u:Tmn-1 R=weak,
16:u:Tmn-3 X=none/l,
22:u:tok-1 X=intelligence,
18:u:tok-1 L=national,
11:u:Fst-1 R=P,
14:u:Fst-2 X=Lu/I,
11:u:Lst-1 X=P,
14:u:Lst-2 L=Ll/l,
13:u:Lst-2 X=P/,,
11:u:Pre-1 X=I,
12:u:Pre-2 X=In,
11:u:Suf-1 X=,,
12:u:Suf-2 L=al,
15:u:Cap-1 R=other,
23:u:Cap-2 R=initial/other,
19:u:Num-2 R=none/weak,
19:u:Key-3 x=none/weak,
13:u:Pos-2 L=3/3,
13:u:Pos-2 R=3/4,
15:u:Pct-1 X=other,
16:u:Pct-1 R=hyphen,
14:u:Tmn-1 X=weak,
19:u:Tmn-2 L=none/weak,
19:u:Tmn-2 R=weak/none,
16:u:Tmn-3 X=weak/,,
23:u:tok-1 R=international,
11:*:Fst-1 X=P,
13:u:Fst-2 X=P/',
11:*:Lst-1 L=P,
13:u:Lst-2 L=P/,,
14:u:Lst-2 X=Ll/d,
11:u:Pre-1 X=',
11:u:Suf-1 X=d,
12:u:Suf-2 X=ed,
15:u:Cap-1 X=other,
23:u:Cap-2 L=initial/other,
23:u:Cap-2 R=other/initial,
20:u:Key-2 X=none/other,
19:u:Key-3 L=weak/none,
11:u:Pos-1 X=4,
13:u:Pos-2 L=3/4,
13:u:Pos-2 R=4/4,
15:u:Pct-1 L=other,
16:u:Pct-1 X=hyphen,
14:*:Tmn-1 L=weak,
16:u:Tmn-3 X=none/d,
23:u:Tok-1 X=International,
23:u:tok-1 X=international,
14:u:Lst-2 L=Ll/d,
12:u:Pre-2 R=No,
12:u:Suf-2 L=ed,
15:u:Cap-1 L=other,
23:u:Cap-2 L=other/initial,
13:u:Pos-2 L=4/4,
13:u:Pos-2 R=4/5,
16:u:Pct-1 L=hyphen,
23:u:tok-1 L=international,
12:u:Pre-2 X=No,
11:u:Pos-1 X=5,
13:u:Pos-2 L=4/5,
13:u:Pos-2 R=5/5,
23:u:tok-1LL=international,
17:u:tok-1RR=(2022).,
14:u:Fst-2 R=Lu/C,
14:u:Lst-2 X=Ll/y,
12:u:Pre-2 R=Co,
11:u:Suf-1 X=y,
12:u:Suf-2 L=ms,
12:u:Suf-2 X=ly,
13:u:Pos-2 L=5/5,
13:u:Pos-2 R=5/6,
16:u:Tmn-3 X=none/y,
12:u:Fst-1 R=Ps,
14:u:Fst-2 X=Lu/C,
14:u:Fst-2 R=Ps/(,
14:u:Lst-2 L=Ll/y,
11:u:Pre-1 X=C,
12:u:Pre-2 X=Co,
12:u:Pre-2 R=(2,
14:u:Num-1 R=year,
11:u:Pos-1 X=6,
13:u:Pos-2 L=5/6,
13:u:Pos-2 R=6/6,
16:u:Pct-1 R=period,
16:u:Brk-1 R=parens,
16:u:Tmn-1 R=strong,
20:u:Tmn-4 R=none/other,
12:*:Fst-1 X=Ps,
14:u:Fst-2 X=Ps/(,
14:u:Fst-2 R=Lu/U,
13:u:Lst-2 X=P/.,
11:u:Pre-1 X=(,
12:u:Pre-2 X=(2,
11:u:Suf-1 X=.,
12:u:Suf-2 X=).,
21:u:Cap-2 R=other/other,
20:u:Cap-3 L=none/other,
14:*:Num-1 X=year,
21:u:Num-2 R=year/parens,
21:u:Num-2 R=year/strong,
21:u:Key-3 x=none/strong,
13:u:Pos-2 L=6/6,
13:u:Pos-2 R=6/7,
16:u:Pct-1 X=period,
16:u:Brk-1 X=parens,
16:u:Tmn-1 X=strong,
21:u:Tmn-2 L=none/strong,
21:u:Tmn-2 R=strong/none,
18:u:Tmn-3 X=strong/.,
14:u:Fst-2 X=Lu/U,
13:u:Lst-2 L=P/.,
11:u:Pre-1 X=U,
21:u:Cap-2 L=other/other,
14:*:Num-1 L=year,
21:u:Key-3 L=strong/none,
11:u:Pos-1 X=7,
13:u:Pos-2 L=6/7,
13:u:Pos-2 R=7/7,
16:u:Pct-1 L=period,
16:*:Tmn-1 L=strong,
13:u:Pos-2 L=7/7,
13:u:Pos-2 R=7/8,
11:u:Pos-1 X=8,
13:u:Pos-2 L=7/8,
13:u:Pos-2 R=8/8,
13:u:Pos-2 L=8/8,
13:u:Pos-2 R=8/9,
14:u:Fst-2 R=Lu/R,
12:u:Pre-2 R=Re,
21:u:Num-2 R=none/strong,
11:u:Pos-1 X=9,
13:u:Pos-2 L=8/9,
13:u:Pos-2 R=9/9,
18:u:Tmn-3 X=strong/",
24:u:Tmn-4 R=strong/initial,
14:u:tok-1RR=_x+1,
14:u:Fst-2 X=Lu/R,
14:u:Lst-2 X=Ll/t,
11:u:Pre-1 X=R,
12:u:Pre-2 X=Re,
11:u:Suf-1 X=t,
24:u:Cap-3 L=strong/initial,
14:u:Key-1 R=date,
13:u:Pos-2 L=9/9,
16:u:Pos-2 R=9/last,
19:u:Tmn-2 R=none/date,
16:u:Tmn-3 X=none/t,
14:u:tok-1 R=_x+1,
14:u:tok-1RR=_x+2,
14:u:Fst-1 R=_x+1,
19:u:Fst-2 R=_x+1/_x+1,
14:u:Lst-2 L=Ll/t,
14:u:Pre-2 R=_x+1,
14:u:Cap-1 R=_x+1,
14:u:Num-1 R=_x+1,
14:u:Key-1 X=date,
14:u:Key-1 R=_x+1,
22:u:Key-2 X=date/initial,
19:u:Key-3 L=none/date,
14:u:Pos-1 X=last,
16:u:Pos-2 L=9/last,
19:u:Pos-2 R=last/_x+1,
14:u:Pct-1 R=_x+1,
14:u:Brk-1 R=_x+1,
14:u:Tmn-1 R=_x+1,
17:u:Pos-2 R=first/1,
14:u:Fst-2 R=Lu/F,
14:u:Lst-2 X=Ll/a,
12:u:Pre-2 R=Fr,
11:u:Suf-1 X=a,
17:u:Pos-2 L=first/1,
16:u:Tmn-3 X=none/a,
14:u:tok-1 X=from,
18:u:tok-1RR=security,
14:u:Fst-2 X=Lu/F,
14:u:Lst-2 L=Ll/a,
11:u:Pre-1 X=F,
12:u:Pre-2 X=Fr,
12:u:Pre-2 R=Ch,
12:u:Suf-2 X=om,
11:u:Nme-1 X=T,
14:u:Fst-2 R=Lu/S,
14:u:Lst-2 L=Ll/m,
12:u:Pre-2 X=Ch,
12:u:Pre-2 R=Se,
12:u:Suf-2 X=se,
18:u:Tok-1 X=Security,
18:u:tok-1 X=security,
14:u:tok-1LL=from,
14:u:Fst-2 X=Lu/S,
11:u:Pre-1 X=S,
12:u:Pre-2 X=Se,
12:u:Suf-2 X=ty,
12:u:Suf-2 L=ty,
12:u:Suf-2 X=es,
18:u:tok-1LL=security,
14:u:Fst-2 R=Ll/i,
12:u:Suf-2 L=es,
12:u:tok-1RR=to,
14:u:Fst-2 X=Ll/i,
14:u:Fst-2 R=Lu/L,
14:u:Lst-2 X=Ll/n,
11:u:Pre-1 X=i,
12:u:Pre-2 R=Li,
11:u:Suf-1 X=n,
12:u:Suf-2 X=on,
15:*:Num-1 X=roman,
20:u:Num-2 R=roman/none,
16:u:Tmn-3 X=none/n,
14:u:Fst-2 X=Lu/L,
14:u:Lst-2 L=Ll/n,
11:u:Pre-1 X=L,
12:u:Suf-2 L=on,
14:u:Fst-2 R=Lu/P,
12:u:Pre-2 R=Pr,
12:u:tok-1 L=to,
14:u:Fst-2 X=Lu/P,
14:u:Lst-2 L=Ll/o,
11:u:Pre-1 X=P,
12:u:Pre-2 X=Pr,
12:u:Suf-2 L=to,
14:u:Fst-2 R=Lu/A,
14:u:Cap-1 R=caps,
22:u:Cap-2 R=initial/caps,
19:u:Tmn-4 R=none/caps,
12:u:Lst-1 X=Lu,
12:u:Pre-2 R=Ca,
14:u:Cap-1 X=caps,
22:u:Cap-2 L=initial/caps,
22:u:Cap-2 R=caps/initial,
19:u:Cap-3 L=none/caps,
11:u:Loc-1 X=T,
19:u:Key-2 X=none/caps,
12:*:Lst-1 L=Lu,
12:u:Pre-2 X=Ca,
12:u:Pre-2 R=Un,
12:u:Suf-2 X=ns,
14:u:Cap-1 L=caps,
22:u:Cap-2 L=caps/initial,
11:u:Fst-1 R=N,
12:u:Suf-2 L=ns,
12:u:Suf-2 X=it,
16:u:Num-1 R=double,
11:*:Fst-1 X=N,
11:u:Lst-1 X=N,
13:u:Lst-2 X=N/2,
11:u:Suf-1 X=2,
16:*:Num-1 X=double,
21:u:Num-2 R=double/none,
16:u:Tmn-3 X=none/2,
11:*:Lst-1 L=N,
13:u:Lst-2 L=N/2,
20:u:Cap-2 R=other/_x+1,
16:*:Num-1 L=double,
12:u:Pre-2 X=Ad,
24:u:Cap-2 R=initial/single,
14:u:Fst-2 R=Lu/E,
16:u:Cap-1 X=single,
24:u:Cap-2 L=initial/single,
24:u:Cap-2 R=single/initial,
21:u:Key-2 X=none/single,
14:u:Fst-2 X=Lu/E,
14:u:Fst-2 R=Ll/a,
11:u:Pre-1 X=E,
16:u:Cap-1 L=single,
24:u:Cap-2 L=single/initial,
14:u:Fst-2 X=Ll/a,
11:u:Pre-1 X=a,
12:u:Pre-2 R=St,
12:u:Suf-2 X=as,
15:u:Pct-1 R=colon,
18:u:Tmn-1 R=moderate,
13:u:Lst-2 X=P/:,
12:u:Pre-2 R=An,
11:u:Suf-1 X=:,
12:u:Suf-2 L=as,
23:u:Num-2 R=none/moderate,
23:u:Key-3 x=none/moderate,
15:u:Pct-1 X=colon,
18:u:Tmn-1 X=moderate,
23:u:Tmn-2 L=none/moderate,
23:u:Tmn-2 R=moderate/none,
20:u:Tmn-3 X=moderate/:,
26:u:Tmn-4 R=moderate/initial,
11:u:Id--1 X=T,
13:u:Lst-2 L=P/:,
12:u:Pre-2 R=Ac,
26:u:Cap-3 L=moderate/initial,
23:u:Key-3 L=moderate/none,
15:u:Pct-1 L=colon,
18:*:Tmn-1 L=moderate,
12:u:tok-1 L=an,
13:u:tok-1RR=for,
12:u:Suf-2 X=le,
12:u:tok-1LL=an,
13:u:tok-1 R=for,
14:u:Fst-2 R=Ll/f,
12:u:Pre-2 R=fo,
13:u:Tok-1 X=for,
13:u:tok-1 X=for,
17:u:tok-1RR=journal,
14:u:Fst-2 X=Ll/f,
11:u:Pre-1 X=f,
12:u:Pre-2 X=fo,
12:u:Suf-2 L=ct,
13:u:tok-1 L=for,
17:u:tok-1 R=journal,
14:u:Fst-2 R=Lu/J,
13:u:Lst-2 X=P/',
12:u:Pre-2 R=Jo,
11:u:Suf-1 X=',
17:u:Key-1 R=journal,
20:u:Tmn-3 X=moderate/',
17:u:Tok-1 X=Journal,
17:u:tok-1 X=journal,
13:u:tok-1LL=for,
20:u:tok-2 R=journal/of,
14:u:Fst-2 X=Lu/J,
13:u:Lst-2 L=P/',
11:u:Pre-1 X=J,
12:u:Pre-2 X=Jo,
17:u:Key-1 X=journal,
25:u:Key-2 X=journal/initial,
22:u:Key-3 x=journal/none,
17:u:tok-1 L=journal,
20:u:tok-2 L=journal/of,
14:u:Fst-2 R=Lu/M,
12:u:Pre-2 R=Ma,
17:u:Key-1 L=journal,
22:u:Tmn-2 L=journal/none,
17:u:tok-1LL=journal,
14:u:Fst-2 X=Lu/M,
11:u:Pre-1 X=M,
12:u:Pre-2 X=Ma,
12:u:Suf-2 X=nt,
13:u:Fst-2 R=N/1,
13:u:Lst-2 X=N/3,
11:u:Suf-1 X=3,
12:u:Suf-2 L=nt,
16:u:Num-1 R=single,
16:u:Tmn-3 X=none/3,
11:u:tok-1 X=1,
13:u:Fst-2 X=N/1,
13:u:Fst-2 R=N/3,
13:u:Lst-2 L=N/3,
13:u:Lst-2 X=N/1,
11:u:Pre-1 X=1,
11:u:Suf-1 X=1,
16:*:Num-1 X=single,
15:u:Num-1 R=range,
21:u:Num-2 R=single/none,
16:u:Tmn-3 X=none/1,
13:u:Fst-2 R=N/2,
13:u:Lst-2 X=N/8,
12:u:Pre-2 R=20,
11:u:Suf-1 X=8,
16:*:Num-1 L=single,
15:*:Num-1 X=range,
20:u:Num-2 R=range/none,
16:u:Tmn-3 X=none/8,
13:u:Fst-2 X=N/2,
13:u:Lst-2 L=N/8,
13:u:Lst-2 X=N/7,
11:u:Pre-1 X=2,
12:u:Pre-2 X=20,
11:u:Suf-1 X=7,
15:*:Num-1 L=range,
19:u:Num-2 R=year/none,
19:u:Tmn-2 R=none/_x+1,
16:u:Tmn-3 X=none/7,
19:u:Tmn-4 R=none/_x+1,
14:u:Fst-2 X=Lu/B,
14:u:Fst-2 R=Lu/W,
11:u:Pre-1 X=B,
12:u:Suf-2 X=n,,
14:u:Fst-2 X=Lu/W,
11:u:Pre-1 X=W,
14:u:Fst-2 R=Ll/b,
20:u:Tmn-4 R=weak/lower,
14:u:Fst-2 X=Ll/b,
11:u:Pre-1 X=b,
20:u:Cap-3 L=weak/lower,
14:u:tok-1 R=2024,
18:u:tok-1RR=research,
13:u:Lst-2 X=N/4,
11:u:Suf-1 X=4,
16:u:Tmn-3 X=none/4,
18:u:tok-1 R=research,
13:u:Lst-2 L=N/4,
12:u:Suf-2 X=in,
16:u:Pos-2 R=8/last,
18:u:Tok-1 X=Research,
18:u:tok-1 X=research,
14:u:Lst-2 X=Ll/h,
11:u:Suf-1 X=h,
12:u:Suf-2 L=in,
12:u:Suf-2 X=ch,
16:u:Tmn-3 X=none/h,
12:u:Pre-2 R=J.,
13:u:Lst-2 X=P/;,
12:u:Pre-2 X=J.,
11:u:Suf-1 X=;,
16:u:Tmn-3 X=weak/;,
22:u:Tmn-4 R=weak/initial,
22:u:Cap-3 L=weak/initial,
14:u:Fst-2 R=Lu/T,
12:u:Pre-2 R=Th,
13:u:Tok-1 X=The,
19:u:tok-1 R=political,
14:u:Fst-2 X=Lu/T,
11:u:Pre-1 X=T,
12:u:Pre-2 X=Th,
19:u:tok-1 X=political,
14:u:Fst-2 X=Ll/e,
11:u:Pre-1 X=e,
18:u:tok-1RR=economic,
12:u:Suf-2 X=y:,
14:u:Lst-2 X=Ll/c,
12:u:Pre-2 R=st,
11:u:Suf-1 X=c,
12:u:Suf-2 X=ic,
16:u:Tmn-3 X=none/c,
18:u:tok-1 L=economic,
13:u:tok-1RR=and,
12:u:Pre-2 X=st,
12:u:Pre-2 R=in,
12:u:Suf-2 X=t,,
13:u:tok-1 R=and,
12:u:Pre-2 X=in,
12:u:Pre-2 R=an,
13:u:Key-1 R=and,
18:u:Tmn-2 R=weak/and,
13:u:Tok-1 X=and,
13:u:tok-1 X=and,
12:u:Pre-2 X=an,
12:u:Suf-2 X=nd,
13:u:Key-1 X=and,
19:u:Key-2 X=and/lower,
18:u:Key-3 L=weak/and,
18:u:Key-3 x=and/none,
13:u:tok-1 L=and,
12:u:Suf-2 L=nd,
13:u:Key-1 L=and,
18:u:Tmn-2 L=and/none,
13:u:tok-1LL=and,
17:u:tok-1 R=studies,
17:u:tok-1 L=studies,
13:u:Lst-2 X=N/9,
11:u:Suf-1 X=9,
16:u:Tmn-3 X=none/9,
13:u:Lst-2 L=N/9,
12:u:Pre-2 R=19,
12:u:Pre-2 X=19,
12:u:tok-1RR=in,
12:u:tok-1 R=in,
12:u:Key-1 R=in,
17:u:Tmn-2 R=none/in,
12:u:Tok-1 X=in,
12:u:tok-1 X=in,
12:u:Pre-2 R=Cy,
12:u:Key-1 X=in,
18:u:Key-2 X=in/lower,
17:u:Key-3 L=none/in,
17:u:Key-3 x=in/none,
20:u:tok-1 X=cyberspace,
12:u:tok-1 L=in,
12:u:Pre-2 X=Cy,
12:u:Key-1 L=in,
12:u:tok-1LL=in,
11:u:tok-1 R=3,
13:u:Lst-2 X=N/6,
11:u:Pre-2 R=3,
11:u:Suf-1 X=6,
16:u:Tmn-3 X=none/6,
11:u:Tok-1 X=3,
11:u:tok-1 X=3,
11:u:Pre-2 X=3,
11:u:Suf-2 X=3,
12:u:Pre-2 X=Bu,
15:u:tok-1 R=cyber,
15:u:Tok-1 X=Cyber,
15:u:tok-1 X=cyber,
12:u:Suf-2 X=er,
15:u:tok-1 L=cyber,
12:u:Suf-2 L=er,
18:u:Tmn-2 R=none/and,
15:u:tok-1LL=cyber,
18:u:Key-3 L=none/and,
12:u:tok-1RR=on,
14:u:Fst-2 R=Lu/H,
18:u:tok-1 L=research,
12:u:tok-1 R=on,
14:u:Fst-2 X=Lu/H,
14:u:Lst-2 L=Ll/h,
14:u:Lst-2 X=Ll/k,
11:u:Pre-1 X=H,
12:u:Pre-2 R=on,
11:u:Suf-1 X=k,
12:u:Suf-2 L=ch,
16:u:Tmn-3 X=none/k,
12:u:Tok-1 X=on,
12:u:tok-1 X=on,
13:u:tok-1RR=law,
14:u:Lst-2 L=Ll/k,
12:u:Pre-2 X=on,
13:u:tok-1 R=law,
12:u:Pre-2 R=La,
12:u:tok-1LL=on,
14:u:Lst-2 X=Ll/w,
12:u:Pre-2 X=La,
11:u:Suf-1 X=w,
16:u:Tmn-3 X=none/w,
14:u:Lst-2 L=Ll/w,
12:u:Suf-2 X=rd,
12:u:Pre-2 R=Pu,
12:u:Suf-2 L=rd,
12:u:Suf-2 X=ar,
14:u:Lst-2 X=Ll/g,
11:u:Suf-1 X=g,
12:u:Suf-2 X=ng,
16:u:Tmn-3 X=none/g,
14:u:Lst-2 L=Ll/g,
12:u:Suf-2 L=ng,
19:u:tok-1RR=strategic,
14:u:Fst-2 R=Lu/B,
19:u:tok-1 R=strategic,
19:u:tok-1 X=strategic,
19:u:tok-1LL=strategic,
17:u:tok-2 R=and/the,
17:u:tok-2 L=and/the,
13:u:Fst-2 R=N/8,
20:u:tok-1RR=university,
13:u:Lst-2 X=N/0,
11:u:Suf-1 X=0,
16:u:Tmn-3 X=none/0,
15:u:tok-1RR=press,
13:u:Lst-2 L=N/0,
17:u:Tmn-2 L=in/none,
23:u:tok-1 X=cybersecurity,
17:u:tok-1RR=affairs,
17:u:tok-1 R=affairs,
12:u:Pre-2 R=Af,
12:u:Suf-2 X=rs,
26:u:tok-2 L=of/international,
12:u:tok-1 L=92,
12:u:Suf-2 L=92,
14:u:Tok-1 X=2016,
14:u:tok-1 X=2016,
12:u:Suf-2 X=16,
14:u:Fst-2 R=Lu/V,
15:u:Key-1 R=roman,
14:u:Fst-2 X=Lu/V,
11:u:Pre-1 X=V,
19:u:tok-1RR=deterring,
19:u:tok-1 R=deterring,
12:u:Pre-2 R=De,
19:u:Tok-1 X=Deterring,
19:u:tok-1 X=deterring,
12:u:Suf-2 L='s,
32:u:tok-2 L=international/security,
14:u:tok-1RR=2023,
12:u:Pre-2 R=Wa,
12:u:Suf-2 L=s,,
14:u:Fst-2 R=Ll/w,
12:u:Pre-2 X=Wa,
14:u:Fst-2 X=Ll/w,
14:u:Fst-2 R=Lu/G,
11:u:Pre-1 X=w,
14:u:Fst-2 X=Lu/G,
11:u:Pre-1 X=G,
12:u:Suf-2 X=':,
12:u:Suf-2 L=':,
12:u:Pre-2 R=Po,
12:u:Pre-2 X=Po,
12:u:Pre-2 X=Tr,
20:u:Tmn-3 X=moderate/",
12:u:Pre-2 R=Pa,
16:u:tok-1RR=future,
12:u:Suf-2 X=re,
12:u:Suf-2 L=re,
21:u:Cap-2 L=lower/other,
12:u:Suf-2 X=ts,
12:u:Suf-2 X=gy,
20:u:tok-1RR=cyberspace,
20:u:tok-1 R=cyberspace,
20:u:Tok-1 X=Cyberspace,
20:u:tok-1 L=cyberspace,
20:u:tok-1LL=cyberspace,
13:u:Fst-2 R=P/*,
13:u:Fst-2 X=P/*,
11:u:Pre-1 X=*,
12:u:Suf-2 X=ia,
12:u:Suf-2 L=ia,
22:u:Tmn-2 R=none/journal,
22:u:Key-3 L=none/journal,
13:u:Lst-2 L=P/*,
16:*:Num-1 X=triple,
21:u:Num-2 R=triple/none,
16:*:Num-1 L=triple,
12:u:tok-1 R=j.,
11:u:tok-1 X=j,
12:u:Suf-2 X=et,
12:u:Suf-2 L=an,
14:u:Fst-2 X=Ll/v,
11:u:Pre-1 X=v,
18:u:Tok-1 X=Control:,
17:u:tok-1 X=control,
20:u:tok-1LL=liberation,
12:u:tok-1 L=vs,
21:u:tok-2 L=vs/control:,
22:u:tok-2 R=control:/the,
12:u:Suf-2 L=vs,
12:u:Suf-2 X=l:,
12:u:tok-1RR=21,
19:u:tok-1 X=democracy,
11:u:tok-1 X=4,
12:u:tok-1LL=21,
12:u:Pre-2 R=Ne,
12:u:Suf-2 X=L.,
12:u:Suf-2 L=L.,
12:u:Suf-2 X=cy,
12:u:Suf-2 L=cy,
17:u:tok-1RR=foreign,
17:u:tok-1 R=foreign,
16:u:tok-1RR=policy,
12:u:Pre-2 R=Fo,
17:u:Tok-1 X=Foreign,
17:u:tok-1 X=foreign,
16:u:tok-1 R=policy,
24:u:tok-2 R=foreign/policy,
12:u:Pre-2 X=Fo,
12:u:Suf-2 X=gn,
16:u:Tok-1 X=Policy,
16:u:tok-1 X=policy,
11:u:tok-1RR=a,
12:u:Suf-2 L=gn,
11:u:tok-1 R=a,
11:u:Pre-2 R=a,
11:u:Tok-1 X=a,
16:u:tok-1LL=policy,
11:u:Pre-2 X=a,
11:u:Suf-2 X=a,
11:u:tok-1 L=a,
11:u:tok-1LL=a,
12:u:Suf-2 X=il,
14:u:tok-1RR=2022,
12:u:Suf-2 X=22,
12:u:Suf-2 X=s:,
12:u:Suf-2 L=s:,
12:u:Suf-2 X=is,
14:u:tok-1RR=2014,
12:u:Pre-2 R=11,
14:u:Lst-2 X=Ll/i,
11:u:Suf-1 X=i,
16:u:Tmn-3 X=none/i,
12:u:Suf-2 X=ks,
12:u:Suf-2 L=ks,
14:u:Lst-2 X=Lu/S,
11:u:Suf-1 X=S,
12:u:Suf-2 L=wn,
16:u:Tmn-3 X=none/S,
14:u:tok-1 R=2015,
13:u:Lst-2 X=N/5,
11:u:Suf-1 X=5,
16:u:Tmn-3 X=none/5,
12:u:Suf-2 L=at,
12:u:Suf-2 X=n:,
21:u:Tok-1 X=Information,
21:u:tok-1 X=information,
21:u:tok-1LL=information,
15:u:tok-1 R=&amp;,
13:u:Fst-2 R=P/&,
12:u:Pre-2 R=&a,
13:u:Pct-1 R=amp,
12:u:Pre-2 X=Gr,
17:u:tok-1RR=unknown,
14:u:Fst-2 R=Lu/K,
14:u:Fst-2 X=Lu/K,
11:u:Pre-1 X=K,
12:u:Suf-2 L=rm,
12:u:tok-1 X=us,
16:u:tok-1 X=russia,
12:u:Pre-2 X=Ru,
16:u:tok-1LL=russia,
12:u:Pre-2 X=Ho,
24:u:Tmn-4 R=moderate/lower,
18:u:tok-1RR=politics,
18:u:tok-1 R=politics,
12:u:Suf-2 X=ry,
18:u:tok-1 L=politics,
12:u:Suf-2 L=cs,
16:u:tok-1 R=review,
12:u:Suf-2 X=ew,
16:u:tok-1LL=review,
19:u:Tok-1 X=Political,
17:u:tok-1 X=warfare,
15:u:Tok-1 X=World,
15:u:tok-1 X=world,
12:u:Suf-2 X=ld,
12:u:Suf-2 X=ls,
12:u:Suf-2 L=ls,
12:u:Suf-2 X=65,
27:u:tok-2 R=national/security,
27:u:tok-2 L=national/security,
12:u:Suf-2 L=st,
14:u:tok-1 R=2018,
14:u:tok-1 L=2018,
12:u:Suf-2 L=18,
12:u:Suf-2 L=22,
16:u:tok-1LL=threat,
13:u:Fst-2 R=N/5,
17:u:tok-1 X=science,
12:u:Pre-2 X=Sc,
12:u:tok-1RR=by,
14:u:Fst-2 R=Ll/d,
14:u:Fst-2 X=Ll/d,
11:u:Pre-1 X=d,
12:u:Pre-2 X=de,
12:u:Pre-2 X=Op,
12:u:Suf-2 X=31,
18:u:Num-2 R=all/none,
13:*:Num-1 L=all,
12:u:Suf-2 X=ll,
13:u:tok-1 R=new,
13:u:tok-1 X=new,
13:u:tok-1LL=new,
13:u:tok-1RR=how,
13:u:Lst-2 X=P/?,
11:u:Suf-1 X=?,
16:u:Tmn-3 X=weak/?,
13:u:Tok-1 X=How,
13:u:Lst-2 L=P/?,
12:u:Suf-2 X=ow,
13:u:Tok-1 X=New,
12:u:Suf-2 X=ne,
16:u:tok-1LL=online,
12:u:Pre-2 X=Ar,
17:u:Num-1 R=numeric,
17:*:Num-1 X=numeric,
22:u:Num-2 R=numeric/none,
24:u:Num-2 R=numeric/strong,
17:u:Num-1 R=ordinal,
21:u:Cap-2 R=other/lower,
17:*:Num-1 X=ordinal,
22:u:Num-2 R=ordinal/none,
21:u:Cap-2 L=other/lower,
17:*:Num-1 L=ordinal,
12:u:Suf-2 X=gs,
12:u:Suf-2 L=gs,
12:u:Pre-2 R=Pl,
12:u:Pre-2 X=Pl,
13:u:tok-1 X=war,
13:u:tok-1 L=war,
17:*:Num-1 L=numeric,
14:u:Fst-2 R=Lu/Y,
12:u:Pre-2 R=we,
16:u:Tok-1 X=Advent,
16:u:tok-1 X=advent,
18:u:tok-1LL=arquilla,
15:u:tok-1 L=j.the,
14:u:tok-1 R=rand,
21:u:tok-1RR=corporation,
22:u:tok-2 L=j.the/advent,
21:u:tok-2 R=advent/rand,
21:u:Cap-3 L=none/single,
12:u:Suf-2 X=ck,
17:u:Tok-1 X=Libicki,
17:u:tok-1 X=libicki,
13:u:tok-1 R=mc.,
18:u:tok-1RR=conquest,
21:u:tok-2 R=libicki/mc.,
12:u:Pre-2 R=MC,
12:u:Suf-2 X=ki,
20:u:Tmn-2 R=none/roman,
17:u:Tok-1 X=Warfare,
11:u:tok-1 R=j,
11:u:Pre-2 R=J,
11:u:Tok-1 X=J,
14:u:Lst-2 X=Lu/J,
11:u:Pre-2 X=J,
11:u:Suf-1 X=J,
11:u:Suf-2 X=J,
16:u:Tmn-3 X=none/J,
13:u:Tok-1 X=Int,
13:u:tok-1 X=int,
14:u:tok-1 R=stud,
14:u:tok-1LL=stud,
13:u:tok-1RR=rid,
13:u:tok-1 R=rid,
12:u:tok-1RR=t.,
12:u:Pre-2 R=wa,
13:u:Tok-1 X=war,
12:u:Pre-2 X=wa,
22:u:Cap-2 R=lower/single,
22:u:Cap-2 L=lower/single,
15:u:tok-1 R=secur,
15:u:Tok-1 X=Secur,
15:u:tok-1 X=secur,
12:u:Suf-2 X=ur,
21:u:Num-2 R=volume/none,
16:*:Num-1 L=volume,
12:u:Pre-2 R=Ge,
12:u:Pre-2 X=Ce,
12:u:Pre-2 R=At,
12:u:Suf-2 L=s?,
20:u:tok-1RR=conference,
21:u:Key-1 X=proceedings,
29:u:Key-2 X=proceedings/initial,
26:u:Key-3 L=none/proceedings,
26:u:Key-3 x=proceedings/none,
21:u:Key-1 L=proceedings,
26:u:Tmn-2 L=proceedings/none,
18:u:tok-1 L=conflict,
14:u:tok-1 X=ieee,
14:u:Lst-2 X=Lu/E,
11:u:Suf-1 X=E,
12:u:Suf-2 X=EE,
16:u:Tmn-3 X=none/E,
12:u:Pre-2 R=Ka,
17:u:tok-1 X=russian,
12:u:Suf-2 L=rk,
14:u:tok-1 R=iraq,
12:u:Pre-2 R=Ir,
14:u:Tok-1 X=Iraq,
14:u:tok-1 X=iraq,
18:u:tok-2 L=the/iraq,
18:u:tok-2 R=iraq/war,
14:u:Lst-2 X=Ll/q,
12:u:Pre-2 X=Ir,
11:u:Suf-1 X=q,
12:u:Suf-2 X=aq,
16:u:Tmn-3 X=none/q,
18:u:tok-2 L=iraq/war,
14:u:tok-1LL=2016,
11:u:Tok-1 X=A,
14:u:Lst-2 X=Lu/A,
11:u:Pre-2 X=A,
11:u:Suf-1 X=A,
11:u:Suf-2 X=A,
16:u:Tmn-3 X=none/A,
14:u:Lst-2 L=Lu/A,
11:u:Suf-2 L=A,
12:u:Pre-2 R=Am,
12:u:Pre-2 X=Am,
14:u:Lst-2 L=Ll/v,
12:u:Suf-2 L=ev,
12:u:tok-1 L=us,
12:u:Suf-2 L=US,
12:u:tok-1LL=us,
12:u:Pre-2 R=Eu,
14:u:Lst-2 X=Ll/p,
11:u:Suf-1 X=p,
16:u:Tmn-3 X=none/p,
12:u:Suf-2 L=mp,
20:u:tok-1 R=parameters,
12:u:Tok-1 X=65,
12:u:tok-1 X=65,
12:u:tok-1LL=45,
16:u:tok-1 R=175-95,
15:u:tok-1RR=2–4,
15:u:tok-2 L=92/65,
19:u:tok-2 R=65/175-95,
12:u:Pre-2 X=65,
12:u:Pre-2 R=17,
14:u:tok-1LL=warf,
21:u:tok-1LL=2005;12-25.,
16:u:tok-1 L=pegues,
18:u:tok-2 L=pegues/j,
16:u:tok-2 R=j/2018,
22:u:Cap-2 R=single/other,
18:u:tok-1 R=american,
18:u:Tok-1 X=American,
18:u:tok-1 X=american,
23:u:tok-1RR=cybersecurity,
23:u:tok-1 R=cybersecurity,
26:u:tok-2 R=of/cybersecurity,
23:u:Tok-1 X=Cybersecurity,
26:u:tok-2 L=of/cybersecurity,
23:u:tok-1 L=cybersecurity,
23:u:tok-1LL=cybersecurity,
16:u:tok-1 L=header,
24:u:tok-2 L=header/journal,
16:u:tok-1LL=header,
31:u:tok-2 R=cybersecurity/journal,
14:u:tok-1LL=war:,
15:u:tok-1LL=media,
19:u:tok-1LL=automated,
19:u:tok-1 L=autocracy,
33:u:tok-2 L=autocracy/computational,
16:u:tok-1RR=public,
16:u:tok-1 R=public,
14:u:tok-1RR=news,
14:u:tok-1 R=news,
17:u:Tok-1 X=Working,
17:u:tok-1 X=working,
14:u:tok-1LL=fake,
14:u:tok-1 L=news,
15:u:tok-1 R=paper,
16:u:tok-1RR=2017.2,
22:u:tok-2 L=news/working,
23:u:tok-2 R=working/paper,
12:u:Suf-2 L=ws,
24:u:tok-1 L=disinformation,
12:u:tok-1 L=we,
12:u:tok-1LL=we,
17:u:Tok-1 X=Science,
17:u:tok-1RR=reuters,
17:u:tok-1 R=reuters,
17:u:Tok-1 X=Reuters,
17:u:tok-1 X=reuters,
15:u:tok-1 X=peace,
16:u:tok-1 R=voting,
16:u:tok-1 X=voting,
16:u:tok-1 L=voting,
18:u:tok-1 X=violence,
16:u:tok-1LL=voting,
12:u:Pre-2 R=Al,
16:u:Tok-1 X=Milton,
16:u:tok-1 X=milton,
22:u:tok-1RR=areopagitica,
22:u:tok-2 L=ideas/milton,
19:u:tok-2 R=milton/j.,
12:u:Suf-2 L=ay,
16:u:tok-1 X=market,
16:u:tok-1RR=commun,
11:u:tok-1LL=7,
12:u:Pre-2 R=Fe,
12:u:Pre-2 X=Fe,
17:u:tok-1LL=kousser,
11:u:tok-1 L=t,
25:u:tok-2 L=t/retrospective,
11:u:Suf-2 L=T,
11:u:tok-1LL=t,
20:u:tok-2 R=voting/and,
18:u:tok-1RR=behavior,
20:u:tok-2 L=voting/and,
23:u:tok-2 R=and/strategic,
19:u:Tok-1 X=strategic,
18:u:tok-1 R=behavior,
23:u:tok-2 L=and/strategic,
28:u:tok-2 R=strategic/behavior,
18:u:Tok-1 X=behavior,
18:u:tok-1 X=behavior,
28:u:tok-2 L=strategic/behavior,
21:u:tok-2 R=behavior/in,
18:u:tok-1 L=behavior,
18:u:tok-1 R=european,
20:u:tok-1RR=parliament,
21:u:tok-2 L=behavior/in,
21:u:tok-2 R=in/european,
12:u:Pre-2 X=He,
15:u:tok-1RR=polit,
20:u:tok-1 L=government,
18:u:Tok-1 X=138–51,
15:u:tok-1 X=13851,
13:u:tok-1LL=345,
17:u:tok-1 L=1251722,
18:u:tok-1 R=326–43,
26:u:tok-2 L=1251722/138–51,
27:u:tok-2 R=138–51/326–43,
12:u:Pre-2 X=13,
12:u:Suf-2 X=51,
17:u:Tmn-2 L=in/weak,
14:u:tok-1RR=york,
14:u:tok-1 R=york,
18:u:tok-2 R=new/york,
12:u:Pre-2 R=Yo,
14:u:Tok-1 X=York,
14:u:tok-1 X=york,
18:u:tok-2 L=new/york,
12:u:Pre-2 X=Yo,
12:u:Pre-2 R=U.,
12:u:Pre-2 X=U.,
14:u:tok-1LL=u.s,,
19:u:tok-1 R=september,
19:u:Tok-1 X=September,
19:u:tok-1 X=september,
15:u:tok-1 R=2018.,
27:u:tok-2 L=hacking/september,
25:u:tok-2 R=september/2018.,
19:u:Key-3 x=date/none,
15:u:Tok-1 X=2018.,
25:u:tok-2 L=september/2018.,
19:u:tok-2 R=2018./rid,
12:u:Suf-2 X=8.,
14:u:Key-1 L=date,
21:u:Tmn-2 L=date/strong,
22:u:Tok-1 X=Intelligence,
21:u:Tok-1 X=Proceedings,
21:u:tok-1 X=proceedings,
24:u:tok-2 R=proceedings/of,
21:u:tok-1 L=proceedings,
24:u:tok-2 L=proceedings/of,
21:u:tok-1LL=proceedings,
18:u:tok-1 L=targeted,
15:u:tok-1LL=about,
18:u:Tok-1 X=Atlantic,
18:u:tok-1 X=atlantic,
17:u:Tok-1 X=Cartogr,
17:u:tok-1 X=cartogr,
17:u:tok-1 L=content,
15:u:tok-1 R=geogr,
25:u:tok-2 L=content/cartogr,
23:u:tok-2 R=cartogr/geogr,
12:u:Suf-2 X=gr,
19:u:tok-1 R=diplomacy,
24:u:tok-1 R=digitalization,
28:u:tok-2 L=disinformation/the,
28:u:tok-2 R=the/digitalization,
22:u:tok-1LL=interference,
17:u:tok-1RR=(2016).,
12:u:tok-1 X=ap,
18:u:Tok-1 X=Campaign,
18:u:tok-1 X=campaign,
13:u:tok-1 L=was,
13:u:tok-1LL=was,
16:u:Tok-1 X=Mother,
16:u:tok-1 X=mother,
20:u:tok-1LL=previously,
15:u:tok-1 L=known,
15:u:tok-1 R=jones,
20:u:tok-1RR=2018-01-30,
22:u:tok-2 L=known/mother,
22:u:tok-2 R=mother/jones,
20:u:tok-1 L=discussion,
16:u:tok-1 R=11–7,
25:u:tok-2 L=discussion/2016,
21:u:tok-2 R=2016/11–7,
13:u:tok-1RR=may,
17:u:tok-1 L=defense,
20:u:tok-1LL=republican,
20:u:tok-1 L=nomination,
29:u:tok-2 L=nomination/campaign,
21:u:tok-2 R=campaign/am,
18:u:tok-1 L=opinions,
17:u:tok-1RR=#brexit,
27:u:tok-2 L=opinions/evidence,
18:u:tok-1LL=opinions,
17:u:tok-1 R=#brexit,
22:u:tok-2 R=from/#brexit,
13:u:Fst-2 R=P/#,
12:u:Pre-2 R=#B,
13:u:Fst-2 X=P/#,
11:u:Pre-1 X=#,
16:u:Tok-1 X=w24631,
16:u:tok-1 X=w24631,
21:u:tok-1 L=#uselection,
28:u:tok-2 L=#uselection/w24631,
21:u:tok-2 R=w24631/2018,
12:u:Pre-2 X=w2,
21:u:tok-1 X=attribution,
21:u:tok-1 L=attribution,
14:u:tok-2 R=of/a,
14:u:tok-2 L=of/a,
21:u:tok-1LL=cyberattack,
14:u:Lst-2 L=Lu/E,
12:u:Pre-2 R=ve,
12:u:Pre-2 X=ve,
13:u:tok-1 R=all,
16:u:tok-1 R=states,
15:u:tok-1RR=organ,
13:u:Tok-1 X=BL.,
12:u:tok-1 X=bl,
19:u:tok-1 L=slantchev,
18:u:tok-1 R=feigning,
18:u:tok-1RR=weakness,
23:u:tok-2 L=slantchev/bl.,
22:u:tok-2 R=bl./feigning,
12:u:Pre-2 X=BL,
18:u:Tok-1 X=Feigning,
18:u:tok-1 X=feigning,
19:u:tok-1LL=slantchev,
13:u:tok-1 L=bl.,
18:u:tok-1 R=weakness,
22:u:tok-2 L=bl./feigning,
27:u:tok-2 R=feigning/weakness,
18:u:Tok-1 X=weakness,
18:u:tok-1 X=weakness,
13:u:tok-1LL=bl.,
18:u:tok-1 L=feigning,
27:u:tok-2 L=feigning/weakness,
22:u:tok-2 R=weakness/int,
12:u:Pre-2 X=Ju,
16:u:Tok-1 X=Andres,
16:u:tok-1 X=andres,
17:u:tok-1 X=hackers,
24:u:Tok-1 X=Cybersecurity:,
20:u:tok-1 R=espionage,,
19:u:tok-1RR=strategy,,
28:u:tok-2 L=and/cybersecurity:,
35:u:tok-2 R=cybersecurity:/espionage,,
17:u:tok-1LL=boebert,
24:u:tok-2 L=we/proceedings,
12:u:Suf-2 L=WE,
18:u:tok-1RR=workshop,
18:u:tok-1 R=workshop,
20:u:tok-2 R=a/workshop,
18:u:Tok-1 X=Workshop,
18:u:tok-1 X=workshop,
20:u:tok-2 L=a/workshop,
21:u:tok-2 R=workshop/on,
12:u:Suf-2 X=op,
18:u:tok-1 L=workshop,
23:u:tok-1RR=cyberattacks:,
21:u:tok-2 L=workshop/on,
22:u:tok-2 R=on/deterring,
12:u:Suf-2 L=op,
18:u:tok-1LL=workshop,
23:u:tok-1 R=cyberattacks:,
19:u:tok-1RR=informing,
22:u:tok-2 L=on/deterring,
33:u:tok-2 R=deterring/cyberattacks:,
17:u:tok-1 R=council,
17:u:Tok-1 X=Lawfare,
17:u:tok-1 X=lawfare,
15:u:tok-1LL=obama,
12:u:tok-1 L=bh,
17:u:tok-1 R=remarks,
20:u:tok-2 L=bh/lawfare,
25:u:tok-2 R=lawfare/remarks,
14:u:Lst-2 L=Lu/H,
12:u:Suf-2 L=BH,
18:u:Tok-1 X=Business,
18:u:tok-1 X=business,
18:u:tok-1 L=business,
18:u:tok-1RR=analysis,
18:u:Tok-1 X=Analysis,
18:u:tok-1 X=analysis,
18:u:Tok-1 X=Conjoint,
18:u:tok-1 X=conjoint,
20:u:tok-2 L=a/conjoint,
18:u:tok-1 L=conjoint,
12:u:Pre-2 X=Ex,
12:u:Pre-2 R=FO,
27:u:tok-2 L=conjoint/analysis,
26:u:tok-2 R=analysis/foreign,
21:u:tok-2 R=the/journal,
12:u:Pre-2 R=Ip,
19:u:Tok-1 X=7/18/2018,
17:u:tok-1 X=7182018,
15:u:tok-1 R=ipsos,
24:u:tok-2 L=from/7/18/2018,
25:u:tok-2 R=7/18/2018/ipsos,
12:u:Pre-2 X=7/,
14:u:Tok-1 X=July,
14:u:tok-1 X=july,
15:u:tok-1 L=since,
20:u:tok-2 L=since/july,
14:u:tok-1 L=2022,
18:u:Tok-1 X=Networks,
18:u:tok-1 X=networks,
18:u:tok-1 R=reuters.,
29:u:tok-2 L=government/networks,
27:u:tok-2 R=networks/reuters.,
17:u:tok-1 X=czechia,
12:u:Pre-2 X=Cz,
16:u:Tok-1 X=vember,
16:u:tok-1 X=vember,
17:u:tok-1LL=prague,,
17:u:tok-1 L=czechia,
24:u:tok-2 L=czechia/vember,
18:u:tok-2 R=vember/3,
24:u:tok-1 X=statesponsored,
19:u:tok-1 L=technical,
14:u:tok-1 R=cnn.,
19:u:tok-2 R=july/cnn.,
12:u:Pre-2 R=CN,
20:u:Num-2 R=idnum/none,
20:u:tok-1 L=multipolar,
16:u:tok-1 R=centre,
26:u:tok-2 L=multipolar/world,
22:u:tok-2 R=world/centre,
12:u:Pre-2 X='S,
26:u:tok-2 R=atlantic/council,
18:u:tok-1 R=a/70/174,
27:u:tok-2 R=security/a/70/174,
12:u:Pre-2 R=A/,
21:u:Tok-1 X=Association,
21:u:tok-1 X=association,
16:u:tok-1RR=rights,
29:u:tok-2 L=studies/association,
25:u:tok-2 R=association/all,
19:u:tok-1 R=kaspersky,
13:u:tok-1RR=lab,
14:u:tok-1 L=open,
15:u:Tok-1 X=Proof,
15:u:tok-1 X=proof,
14:u:tok-1LL=lack,
20:u:tok-1RR=2013-02-20,
25:u:tok-2 L=technical/proof,
23:u:tok-2 R=proof/reuters,
23:u:Tmn-4 R=moderate/caps,
23:u:Cap-3 L=moderate/caps,
21:u:Tok-1 X=Hackers,’,
20:u:tok-1 L=‘russian,
13:u:tok-1 R=bbc,
32:u:tok-2 L=‘russian/hackers,’,
25:u:tok-2 R=hackers,’/bbc,
12:u:Lst-1 X=Pf,
16:u:Lst-2 X=Pf/’,
12:u:Pre-2 R=BB,
13:u:Suf-1 X=’,
14:u:Suf-2 X=,’,
20:u:Tmn-3 X=strong/’,
12:*:Lst-1 L=Pf,
17:u:tok-1 L=federal,
17:u:tok-1LL=federal,
16:u:Tok-1 X=Market,
14:u:tok-1 R=fomc,
21:u:tok-2 L=open/market,
21:u:tok-2 R=market/fomc,
15:u:tok-1LL=heist,
21:u:Tok-1 X=SecureList,,
20:u:tok-1 X=securelist,
14:u:tok-1 L=hood,
26:u:tok-2 L=hood/securelist,,
31:u:tok-2 R=securelist,/kaspersky,
12:u:Suf-2 L=od,
13:u:tok-1RR=dyn,
15:u:tok-1 R=news,,
24:u:tok-2 L=attack/company,
23:u:tok-2 R=company/news,,
28:u:Tok-1 X='State-Sponsored':,
13:u:tok-1 R=u.s,
20:u:tok-1RR=official,",
32:u:tok-2 L=was/'state-sponsored':,
32:u:tok-2 R='state-sponsored':/u.s,
13:u:Tok-1 X=U.S,
28:u:tok-1 L='state-sponsored':,
20:u:tok-1 R=official,",
32:u:tok-2 L='state-sponsored':/u.s,
24:u:tok-2 R=u.s/official,",
12:u:Suf-2 X=.S,
17:u:tok-1 L=signals,
13:u:tok-1 R=web,
14:u:tok-1RR=page,
30:u:tok-2 L=signals/intelligence,
26:u:tok-2 R=intelligence/web,
0=4.351624e-02
1=9.063338e-02
2=3.184661e-03
3=3.347907e-02
4=2.412737e-02
5=-1.319974e-03
6=-3.664666e-03
7=-2.056772e-07
8=-1.786184e-01
9=5.906034e-01
13=-4.458278e-01
18=-1.413964e+00
19=2.991258e-01
20=8.522612e-03
21=-1.079284e+00
22=-6.974472e-02
23=-7.346846e-01
24=-1.314185e-01
25=-4.988764e-06
26=-2.026729e-01
28=-8.086330e-01
29=2.373969e-01
30=3.246162e-01
31=-1.525688e+00
34=-2.826935e-01
37=-6.982104e-01
38=-4.666325e-01
39=9.091451e-01
40=-4.306303e-01
45=-8.774686e-01
46=-1.410784e+00
47=-4.424379e-03
48=-8.838583e-01
49=2.423407e-01
50=2.812300e-01
51=-1.695712e-01
52=-4.896856e-02
53=-3.921049e-02
55=-9.744253e-01
56=-1.278944e-01
57=-1.972858e-01
58=-8.421290e-01
59=1.152271e+00
60=4.764181e-01
64=-7.688734e-02
67=-3.606831e-01
68=-4.696845e-01
69=3.368035e-01
70=3.546419e-01
74=3.666852e-01
82=-1.067612e-01
83=-8.929008e-03
89=7.313269e-01
90=3.008848e-02
99=2.933197e-02
108=2.684437e-01
109=-9.532996e-02
117=2.684437e-01
118=-9.532996e-02
127=2.786453e-02
130=-3.079757e-02
134=1.515495e-01
135=3.008848e-02
144=1.281096e-01
145=3.162591e-02
146=-1.730924e-01
147=7.782542e-02
148=1.052729e-01
150=-6.525461e-03
151=-3.181091e-01
152=-9.189451e-04
153=1.131778e+00
162=-3.127616e-01
163=1.634417e-01
164=-1.219578e-02
165=-1.913401e-01
166=-2.977466e-02
172=-1.637269e-01
173=5.503698e-03
174=3.469659e-01
175=-8.104770e-03
183=8.055630e-01
184=-2.119674e-01
189=-1.243986e-01
190=-1.404425e-01
192=-2.747345e-01
193=2.287348e-01
194=-5.914236e-02
199=-5.866757e-02
202=-4.252794e-02
203=8.043766e-01
226=-3.806056e-02
233=8.923075e-02
234=1.620172e-01
235=1.522127e-02
236=-8.301425e-03
237=9.319173e-04
238=3.402092e-02
240=-1.600033e-01
242=-8.566328e-04
243=4.082852e-01
244=-3.580266e-05
247=1.089088e-02
253=4.458908e-03
256=-1.460671e-02
261=2.684437e-01
262=-9.532996e-02
351=2.925379e-02
352=1.896468e-01
353=-6.847689e-02
354=4.266050e-02
355=8.884319e-02
356=-2.654173e-01
357=-9.382582e-06
359=-3.911021e-04
360=2.684437e-01
361=-9.532996e-02
369=4.471974e-03
370=4.948302e-02
372=7.205077e-05
373=-3.850226e-02
378=4.082852e-01
379=-3.580266e-05
382=1.089088e-02
387=5.158630e-01
397=5.234493e-03
400=-2.408041e-03
405=4.471974e-03
406=4.948302e-02
408=7.205077e-05
409=-3.850226e-02
414=2.684437e-01
415=-9.532996e-02
423=2.684437e-01
424=-9.532996e-02
432=2.341178e-05
433=2.467311e-02
434=-5.240322e-02
435=9.186511e-02
436=1.225280e-01
437=-7.308587e-02
438=-3.363643e-06
440=-7.400024e-04
441=6.121305e-02
442=5.647819e-02
443=2.445780e-03
444=-5.295892e-03
445=6.136974e-02
446=-3.082387e-01
447=-1.510838e-01
449=-7.832587e-04
450=1.927668e-01
451=-6.542285e-02
459=1.078754e-01
460=5.310348e-02
462=1.818847e-04
463=3.252696e-02
468=1.927668e-01
469=-6.542285e-02
477=2.684437e-01
478=-9.532996e-02
567=4.327262e-02
568=1.484043e-01
569=-1.759887e-01
570=1.065342e-01
571=1.200556e-01
573=-4.638724e-04
576=5.255077e-01
580=-3.161011e-01
585=-6.330513e-01
586=3.069393e-01
587=-3.095735e-01
588=-8.320557e-01
589=-3.679694e-02
593=-1.118218e-01
595=-2.866109e-01
596=1.742215e-03
597=3.496498e-01
598=-2.832816e-01
604=-4.929194e-01
606=9.093628e-01
607=-1.898696e-01
612=-1.533625e-01
613=-1.854755e+00
615=-4.558795e-01
616=5.909942e-01
617=-1.366262e+00
618=-1.592103e-03
620=-6.826287e-02
622=-1.828402e-01
625=-8.575481e-02
626=1.489729e-01
631=-8.594563e-02
649=-9.796070e-02
656=1.561427e-01
657=4.875675e-02
658=2.143718e-01
659=-1.051006e-02
660=-7.610657e-03
661=5.585641e-02
662=-1.060888e-03
663=-8.622966e-01
665=6.879291e-05
666=1.818222e-02
667=3.264402e-01
668=-5.761201e-01
669=1.955850e-01
670=2.401149e-01
671=-1.004823e-02
672=-5.809713e-01
673=-1.255152e+00
674=5.561943e-02
675=-7.157211e-02
676=1.329768e-01
677=-5.147461e-03
678=-1.648391e-02
679=3.399229e-02
680=-2.298579e-03
681=4.335963e-03
683=6.682354e-05
684=3.816531e-02
685=1.032776e-01
687=-2.658003e-02
688=3.094208e-02
689=-8.388446e-03
690=-1.409569e-03
692=-1.652521e-01
693=4.471709e-02
694=1.333856e-01
695=5.412215e-02
696=-6.609295e-02
697=-3.381755e-02
698=3.850841e-04
699=9.877828e-03
701=6.566596e-05
702=4.735850e-02
703=6.049587e-02
704=7.399361e-02
705=-4.286174e-02
706=-8.366033e-02
707=2.662194e-02
708=-2.704384e-04
711=2.684437e-01
712=-9.532996e-02
720=5.028671e-02
721=7.236576e-02
722=-1.440159e-02
723=2.097658e-02
724=3.649951e-02
725=-5.552266e-03
726=-1.333084e-03
728=-2.876214e-01
729=5.813422e-02
730=1.112595e-01
731=-7.656238e-02
732=-3.044827e-02
733=6.134498e-02
734=1.148915e-02
735=3.480634e-03
737=-2.754181e-01
738=1.833813e-05
739=6.994966e-02
740=-1.839667e-01
741=9.332382e-02
742=9.009853e-02
746=-1.749297e-01
747=2.684437e-01
748=-9.532996e-02
756=7.702265e-02
757=1.174078e-01
758=1.023713e-02
759=7.274942e-02
760=-1.694256e-03
761=1.166355e-02
763=7.692222e-03
764=-6.793616e-02
765=2.684437e-01
766=-9.532996e-02
774=2.684437e-01
775=-9.532996e-02
783=2.684437e-01
784=-9.532996e-02
792=-1.157888e-02
793=1.586752e-01
794=1.433869e-01
795=3.686525e-02
796=2.900534e-02
797=5.458761e-02
798=3.386363e-02
799=-5.451103e-01
800=7.216247e-05
801=-3.863597e-03
802=1.260300e-01
803=-3.163934e-02
804=-1.507919e-01
805=7.422434e-02
806=1.547213e-04
807=-1.193969e-01
808=5.397892e-02
809=6.937809e-05
810=2.684437e-01
811=-9.532996e-02
819=2.641514e-02
820=9.654800e-02
821=-2.741913e-02
822=3.385422e-02
823=2.909998e-02
824=-2.645262e-03
825=9.521660e-04
827=-1.723000e-02
828=5.468188e-02
829=4.640626e-02
830=-3.494993e-02
831=-5.694326e-02
832=7.394097e-02
833=6.117957e-04
834=1.056601e-02
836=-1.563655e-02
837=2.684437e-01
838=-9.532996e-02
927=-1.092783e-01
928=3.968630e-02
929=2.554711e-02
930=7.609368e-02
931=1.375149e-01
932=1.853577e-02
933=1.031768e-02
935=6.780720e-05
936=-1.111951e-02
937=1.482511e-01
938=-1.745152e-02
939=-1.956520e-01
940=7.219436e-02
941=4.791901e-02
942=2.127562e-03
945=3.755678e-02
946=-1.930205e-02
954=5.273182e-02
955=1.573944e-01
956=-1.579104e-01
957=-4.165932e-02
958=1.135739e-01
959=2.951141e-02
960=-3.417855e-04
962=-1.335525e-03
963=4.471974e-03
964=4.948302e-02
966=7.205077e-05
967=-3.850226e-02
972=8.569224e-03
973=9.558040e-02
974=7.643262e-04
976=2.607894e-02
977=-1.036755e-01
978=-1.536163e-01
981=4.278554e-02
982=7.352371e-02
983=1.654066e-03
984=2.431160e-02
985=8.505575e-03
986=-3.654158e-04
987=-1.578211e-03
989=-1.734736e-01
990=-3.882200e-03
991=1.094343e-01
1000=8.192619e-01
1009=-8.154859e-02
1012=8.474301e-02
1016=1.530642e-01
1018=1.784263e-02
1021=-1.189519e-03
1026=-6.049675e-01
1027=7.729816e-02
1030=1.060696e-01
1034=-2.659090e-04
1036=7.047508e-03
1039=-4.719238e-03
1045=-7.228294e-02
1048=1.071189e-01
1052=9.315658e-02
1053=-9.946821e-02
1054=2.022927e-01
1055=-2.609165e-02
1056=-4.458319e-02
1057=7.471053e-02
1060=-3.617230e-01
1061=6.332592e-02
1062=2.290857e-01
1063=6.560126e-01
1066=-8.905812e-03
1072=2.608305e-01
1073=1.561079e-02
1075=-2.072972e-01
1082=1.518569e-01
1083=-1.085677e-02
1092=3.737808e-01
1093=-9.268097e-02
1098=-8.570468e-05
1099=-2.087418e-01
1100=1.169777e-03
1102=4.520216e-01
1103=2.352770e-01
1106=-8.338139e-02
1122=2.013710e+00
1135=-9.191974e-02
1142=1.344779e+00
1143=-1.506599e-01
1144=-4.866724e-02
1145=3.415538e-04
1147=7.878417e-01
1148=2.680755e-02
1153=3.951039e-02
1156=-8.132955e-04
1162=7.047508e-03
1165=-4.719238e-03
1171=-8.154859e-02
1174=8.474301e-02
1178=1.530642e-01
1180=3.951039e-02
1183=-8.132955e-04
1189=1.052056e+00
1198=5.627400e-02
1201=-6.393873e-02
1206=7.517837e-02
1207=1.981980e-02
1208=2.025737e-03
1209=4.283375e-02
1210=1.064501e-01
1211=3.113623e-02
1212=-4.851040e-01
1213=-1.606817e+00
1214=-1.165786e-01
1215=-6.115266e-01
1216=2.439423e-02
1219=1.131735e-01
1221=-3.485174e-02
1223=-2.558697e-04
1224=5.885971e-02
1225=2.696048e-02
1227=3.080327e-04
1228=6.318608e-02
1229=-1.113841e-02
1232=-6.291843e-02
1233=-3.796940e-01
1234=-2.792971e-02
1237=1.753616e-01
1242=-4.704220e-02
1243=2.709859e-02
1245=6.624942e-02
1246=8.951385e-02
1247=-4.644881e-01
1248=-8.828408e-02
1251=-4.071692e-03
1252=2.058393e-01
1253=-1.374586e-01
1254=-1.462154e-02
1255=1.191143e-01
1257=-2.096385e-01
1258=-5.679725e-01
1259=-3.539945e-03
1260=1.038421e+00
1264=-2.691800e-01
1269=-1.245374e+00
1270=2.988131e-01
1271=2.329539e-02
1272=-4.252509e-02
1273=-5.428671e-02
1274=-6.110597e-01
1275=-6.194481e-02
1277=-1.944953e-01
1280=2.423835e-04
1288=-4.793852e-01
1289=-3.437816e-01
1290=9.065875e-01
1291=-3.504267e-01
1296=-4.588093e-01
1297=-1.767330e+00
1298=4.191370e-04
1299=-5.127401e-01
1300=5.210009e-01
1301=3.882346e-01
1302=-7.344076e-02
1304=-3.300618e-02
1315=-6.333363e-02
1316=-2.830589e-04
1320=4.689241e-01
1333=-9.075333e-02
1340=2.607339e-01
1341=2.209942e-03
1342=-3.178350e-01
1344=1.366421e-01
1345=8.336584e-02
1349=-2.503720e-02
1350=-7.439791e-02
1351=4.008033e-02
1352=-3.604808e-01
1353=1.280324e-01
1354=1.238933e-01
1355=-5.276954e-01
1358=-1.065381e-01
1359=-4.554362e-02
1360=5.725055e-02
1361=2.405959e-03
1362=5.888201e-02
1363=5.718615e-02
1364=-1.158507e-03
1365=5.871427e-03
1367=-2.075803e-01
1368=-2.267324e-01
1369=1.188010e-01
1370=4.138736e-02
1371=6.535507e-02
1372=3.328211e-03
1373=-1.045546e-02
1374=4.129140e-03
1376=-1.160493e-01
1377=-2.064703e-01
1378=1.574034e-01
1379=6.392073e-03
1380=2.582109e-02
1381=6.708051e-02
1382=-6.223259e-03
1383=-2.174012e-02
1384=3.862369e-03
1385=6.947752e-05
1386=-4.125544e-02
1387=1.230576e-01
1388=3.349808e-03
1389=-1.706742e-02
1390=8.491623e-02
1391=-9.664394e-03
1392=-2.026415e-03
1393=-9.967866e-03
1394=-1.594034e-02
1395=-2.444732e-01
1396=3.841568e-02
1397=8.446614e-02
1398=3.372573e-02
1399=1.299210e-01
1400=-2.297360e-02
1401=7.055088e-03
1403=6.588726e-05
1404=1.535966e-01
1405=2.921741e-03
1408=-1.634942e-03
1414=2.558321e-01
1415=1.567137e-02
1416=-4.483189e-01
1417=-2.581168e-02
1418=-1.612225e-01
1419=-5.824646e-02
1420=-1.100058e-03
1421=-2.000012e-01
1423=-3.190405e-01
1424=2.737153e-01
1425=2.975341e-04
1426=-3.821012e-01
1429=-2.423291e-01
1433=-1.873434e-01
1434=3.813887e-01
1435=-1.155645e-01
1440=-1.501707e-04
1441=-1.419446e-01
1442=1.342909e-04
1443=-3.285545e-01
1444=2.294613e-01
1445=2.911320e-01
1446=-1.102803e-01
1447=-1.633055e-02
1448=-2.831540e-02
1450=-5.805647e-02
1451=-1.130069e-01
1453=-8.159125e-02
1454=2.925083e-01
1455=4.871298e-01
1463=-3.773695e-01
1464=1.998539e-02
1465=3.635151e-01
1469=3.755160e-01
1477=-1.405249e-01
1478=-3.924735e-03
1484=1.297048e+00
1485=-1.790682e-01
1486=8.141431e-02
1487=-6.688285e-03
1488=7.356718e-02
1489=9.820908e-02
1490=8.319537e-05
1491=9.464757e-03
1492=1.136242e-02
1493=-1.183856e-01
1495=3.951039e-02
1498=-8.132955e-04
1503=-2.804609e-01
1504=-1.027511e-02
1507=1.059108e-01
1511=-1.882695e-04
1513=-3.363603e-02
1516=2.568310e-02
1520=1.520236e-01
1522=-3.220939e-02
1525=2.398172e-02
1529=1.557269e-01
1530=3.440281e-02
1531=2.267372e-03
1534=-3.851925e-03
1540=8.687551e-02
1543=5.024782e-03
1544=-1.056841e-01
1545=2.406664e-01
1547=-4.360523e-04
1549=-3.162331e-01
1558=2.690865e-01
1561=-2.918878e+00
1578=1.457225e-01
1588=2.922906e-01
1590=1.600167e-02
1630=-3.374037e-02
1633=3.352848e-02
1637=9.211902e-02
1639=-2.067756e-05
1642=2.255734e-02
1647=5.833857e-01
1648=4.537572e-03
1649=2.821361e-04
1651=3.986658e-02
1657=-3.788823e-02
1660=4.809876e-02
1664=2.744521e-02
1666=-3.374037e-02
1669=3.352848e-02
1673=9.211902e-02
1675=-3.363603e-02
1678=2.568310e-02
1682=1.520236e-01
1684=-1.603150e-05
1687=1.312806e-02
1693=-3.788823e-02
1696=4.809876e-02
1700=2.744521e-02
1702=-2.611541e-01
1703=6.326702e-05
1705=1.593328e+00
1711=-2.529941e-02
1714=2.146459e-02
1718=1.538520e-01
1720=7.564074e-02
1723=1.080806e-02
1727=-4.344172e-04
1729=8.219117e-03
1732=3.491218e-02
1738=7.640368e-02
1741=7.085830e-03
1747=6.436545e-02
1750=1.390979e-02
1754=-3.773619e-04
1756=6.369803e-02
1759=2.506992e-03
1763=-3.078452e-04
1764=1.455001e-01
1765=7.695766e-02
1773=2.698328e-01
1783=-3.788823e-02
1786=4.809876e-02
1790=2.744521e-02
1792=-1.183826e-05
1795=2.264327e-05
1800=-7.911176e-02
1801=-3.662403e-02
1804=4.152930e-01
1810=2.734465e-02
1813=-4.221547e-01
1817=1.408871e-01
1819=1.101527e-02
1822=2.402947e-05
1827=-2.462156e-02
1828=-3.113145e-01
1831=3.765739e-01
1837=1.456709e-02
1840=-6.012018e-02
1844=1.933756e-02
1846=1.101527e-02
1849=2.402947e-05
1855=3.718945e-03
1858=7.070132e-06
1864=-2.605117e-01
1867=6.186258e-01
1873=1.847653e-02
1876=-5.617457e-02
1880=1.425434e-01
1881=-1.234688e-02
1882=-3.324176e-02
1885=4.149997e-01
1891=9.765312e-02
1892=-7.051151e-03
1894=4.396555e-02
1895=-3.131508e-01
1898=3.032053e-01
1900=1.101955e-01
1903=-2.229097e-02
1909=3.260143e-02
1912=2.328060e-02
1917=3.763056e-02
1918=1.325007e-02
1926=1.249027e-03
1927=3.356748e-01
1936=1.198500e-02
1939=4.303078e-06
1945=6.138058e-02
1948=-1.934139e-02
1953=-3.354115e-04
1954=3.428513e-03
1957=8.614292e-03
1962=-6.137216e-03
1963=-3.547421e-02
1966=2.455860e-02
1968=8.001690e-02
1971=-3.354115e-04
1972=3.428513e-03
1975=8.614292e-03
1981=-3.719513e-02
1984=6.925833e-02
1989=-6.137216e-03
1990=-3.547421e-02
1993=2.455860e-02
1995=8.001690e-02
1999=4.194997e-02
2002=-1.978378e-02
2008=-3.155055e-04
2011=1.780126e-02
2017=3.119181e-02
2020=3.708944e-02
2024=7.072911e-01
2025=5.418797e-02
2026=2.134176e-01
2029=-1.289146e-01
2035=2.308027e-01
2043=2.212804e-02
2052=-6.137216e-03
2053=-3.547421e-02
2056=2.455860e-02
2058=8.001690e-02
2062=7.869716e-01
2065=-3.835828e-01
2071=-1.857879e-02
2074=5.652854e-03
2080=2.395597e-02
2083=-3.619174e-03
2084=-2.105289e-02
2087=1.262219e-02
2089=-2.135174e-01
2092=1.913409e-01
2097=4.482765e-02
2107=1.086870e-01
2116=-4.968934e-02
2119=1.932776e-02
2125=-3.723254e-02
2128=6.115773e-03
2134=1.685061e-02
2137=-2.114490e-03
2142=-8.378802e-03
2143=-4.263875e-02
2146=1.057726e-01
2150=6.224194e-02
2152=-3.098076e-01
2155=1.313504e-01
2161=-1.368729e-04
2164=6.943000e-03
2169=-8.378802e-03
2170=-4.263875e-02
2173=1.057726e-01
2177=6.224194e-02
2178=-9.073443e-03
2179=-3.054086e-02
2182=7.890828e-02
2186=1.351321e-02
2188=2.782690e-01
2191=-2.898865e-01
2195=1.018532e-01
2197=1.301585e-01
2200=-7.329376e-01
2204=2.981123e-02
2206=1.519837e-01
2215=1.477528e-01
2218=-3.331980e-02
2224=-2.570443e-02
2227=1.020491e-01
2232=-8.378802e-03
2233=-4.263875e-02
2236=1.057726e-01
2240=6.224194e-02
2242=1.050247e-02
2245=-1.029120e-02
2251=-1.990584e-01
2260=5.986668e-02
2263=-2.719268e-01
2269=7.795143e-03
2272=-1.569076e-03
2277=-4.475927e-02
2278=7.082341e-04
2280=1.620544e-03
2281=4.234214e-02
2282=-1.313406e-01
2285=-5.155754e-02
2286=8.953285e-01
2287=-1.877505e-02
2290=7.423261e-04
2294=3.282717e-02
2296=4.369217e-02
2299=5.698143e-03
2305=7.795143e-03
2308=-1.569076e-03
2314=1.825736e-03
2317=3.110524e-02
2323=4.369217e-02
2326=5.698143e-03
2331=9.328644e-01
2332=7.431359e-04
2335=-8.846768e-02
2339=8.887488e-03
2340=-1.992234e-01
2341=-7.909664e-02
2342=-1.887998e-02
2344=4.458420e-03
2345=2.556141e-01
2346=1.550224e-01
2347=1.094735e-01
2348=-1.130467e-01
2349=-6.054628e-03
2350=3.821994e-03
2351=2.280146e-04
2352=-8.817580e-02
2353=1.018623e-01
2354=-2.357026e-01
2359=4.553892e-02
2362=-2.016821e-02
2368=6.170312e-02
2371=-2.942808e-02
2377=1.732011e-01
2386=-1.301477e-05
2389=-5.284416e-02
2393=3.174088e-02
2395=5.287797e-02
2398=6.749902e-02
2400=-1.784121e-01
2404=-9.310091e-03
2405=-1.520263e-02
2407=7.156265e-05
2408=3.269748e-02
2409=4.013187e-04
2410=-1.193673e-01
2413=5.687869e-02
2416=-2.834314e-02
2422=5.067171e-02
2425=3.838706e-04
2434=-2.389829e-02
2440=4.369217e-02
2443=5.698143e-03
2449=3.861885e-01
2452=-1.986498e-02
2458=-2.195313e-01
2461=3.594520e-01
2467=7.839359e-01
2476=-3.764662e-01
2479=1.078286e+00
2506=-5.953216e-02
2548=2.801504e-01
2551=-1.068289e-02
2556=-5.489863e-02
2557=1.092599e-02
2559=1.062451e-02
2560=3.763134e-02
2561=2.454636e-01
2562=-1.534065e-04
2564=-4.335931e-02
2575=6.356856e-02
2576=2.918702e-03
2578=-1.279033e-01
2586=5.385134e-02
2595=2.353813e-01
2605=1.558166e-01
2607=-1.316643e-02
2615=8.156154e-01
2646=1.195301e-01
2647=1.001446e-02
2650=-6.007697e-01
2655=-2.273912e-02
2656=1.913886e-02
2659=3.107289e-03
2665=2.801504e-01
2668=-1.068289e-02
2673=-2.273912e-02
2674=1.913886e-02
2677=3.107289e-03
2683=1.983350e-01
2686=-4.604024e-02
2691=6.228143e-05
2692=-1.648141e-01
2693=5.684574e-03
2694=-1.456064e-01
2695=-5.839445e-02
2696=1.075299e-01
2697=8.652879e-02
2698=9.594699e-02
2700=2.381341e-03
2701=-5.920772e-02
2702=1.789630e-01
2704=-6.059764e-02
2705=1.368819e-01
2706=-2.753225e-01
2707=-2.282762e-02
2709=5.346528e-03
2710=-4.391104e-04
2711=1.934607e-02
2718=6.228143e-05
2719=-1.648141e-01
2720=5.684574e-03
2721=-1.456064e-01
2722=-5.839445e-02
2723=1.075299e-01
2724=8.652879e-02
2725=9.594699e-02
2727=2.018779e-01
2728=-1.013046e-01
2731=-2.666950e-02
2737=2.576912e-01
2740=-3.520487e-02
2744=1.395621e+00
2746=2.252839e-01
2749=-2.033086e-01
2753=4.514743e-02
2758=4.588761e-05
2762=8.424106e-02
2763=1.857129e-01
2764=-3.022849e-01
2767=7.266594e-02
2768=5.683543e-02
2769=2.789940e-02
2773=9.182280e-04
2774=-1.686285e-01
2776=-7.273220e-01
2778=1.743832e-01
2779=4.134643e-01
2781=2.022170e-01
2782=-4.239589e-03
2785=-3.096985e-02
2790=1.332887e+00
2791=-1.693244e+00
2800=1.759686e-01
2803=-7.810889e-03
2830=8.202477e-03
2871=-2.273912e-02
2872=1.913886e-02
2875=3.107289e-03
2881=-2.865353e-03
2884=1.938331e-02
2890=-7.131384e-03
2893=1.822387e-02
2898=-1.718922e-02
2899=3.594685e-02
2902=2.955340e-04
2911=-4.342192e-02
2917=5.692723e-01
2920=-2.761724e-01
2925=-2.805213e-01
2926=-1.445951e-01
2927=6.297358e-02
2928=5.848534e-02
2929=-2.117563e-01
2930=3.773735e-03
2931=2.356570e-01
2932=2.727591e-03
2933=-1.478368e-02
2935=-4.665612e-02
2936=3.178346e-03
2937=8.581723e-02
2938=-5.590522e-02
2944=-4.654534e-04
2947=2.435468e-02
2951=9.046486e-02
2953=1.266508e-01
2956=-1.389616e-02
2960=4.639054e-02
2965=-5.428142e-01
2971=8.285394e-01
2974=-1.446677e-01
2980=1.167254e-01
2983=-4.903286e-01
2989=4.868060e-02
2991=-1.045795e-01
2992=1.070107e-01
2996=-1.002144e-04
2998=1.306303e-01
3001=-3.815956e-02
3007=-1.285695e-02
3009=-1.452464e-02
3010=1.427796e-01
3016=1.491106e-02
3030=8.251756e-02
3034=1.702182e-02
3037=-7.482388e-05
3041=9.483029e-02
3043=3.794529e-02
3046=-8.333860e-02
3050=5.154261e-02
3051=-4.039611e-02
3055=5.217150e-02
3061=3.794529e-02
3064=-8.333860e-02
3068=5.154261e-02
3070=-1.569326e-03
3079=2.163900e-01
3082=-3.085986e-01
3088=-3.342629e-02
3090=-5.287558e-02
3091=1.542041e-01
3097=5.379691e-02
3100=-1.240430e-02
3106=3.794529e-02
3109=-8.333860e-02
3113=5.154261e-02
3115=1.463201e-01
3123=-2.018666e-02
3124=2.818025e-02
3131=1.058393e-01
3133=1.450653e-01
3141=-3.687353e-02
3142=-1.848533e-02
3145=2.731155e-02
3149=-1.024276e-04
3150=-2.018666e-02
3151=2.818025e-02
3158=1.058393e-01
3159=-9.598828e-03
3160=-1.054428e-01
3163=8.279646e-02
3169=6.046498e-01
3172=-3.257463e-01
3178=1.308348e-02
3181=-5.803374e-03
3182=-3.244456e-02
3183=-2.183959e-03
3184=3.876696e-01
3187=1.517104e-02
3188=-5.669104e-02
3190=4.656254e-02
3191=1.477306e-01
3192=-1.962809e-02
3194=-2.130171e-02
3196=5.219618e-02
3199=-2.549267e-02
3205=-1.698449e-02
3206=-1.129680e-01
3208=1.785461e-01
3214=-3.148961e-02
3217=3.176598e-01
3223=1.641538e-01
3231=-1.599092e-01
3232=-7.720694e-03
3235=1.155975e-01
3236=-1.944427e-01
3240=-4.087249e-02
3241=-7.979923e-02
3242=-1.513792e-02
3243=-6.194214e-01
3244=8.194895e-03
3245=2.558798e-01
3246=1.566385e-01
3247=8.829983e-02
3251=7.834446e-02
3269=3.759720e-01
3341=7.838491e-02
3352=-6.949116e-03
3358=-1.539426e-01
3361=1.552269e-02
3368=7.838491e-02
3377=6.747889e-01
3385=-1.539426e-01
3388=1.552269e-02
3395=7.036645e-01
3403=-6.549497e-01
3404=-9.635932e-02
3406=-5.688021e-02
3407=4.092181e-01
3408=7.231258e-02
3409=2.624516e-01
3411=-2.046058e-02
3412=-1.594653e-01
3413=1.646238e-01
3414=-4.100043e-01
3415=-1.165775e-01
3416=9.948339e-02
3417=4.655104e-02
3418=9.740291e-02
3421=-2.812300e-02
3422=5.499732e-01
3423=-6.949460e-02
3424=2.253637e-02
3425=-1.529738e-01
3426=-2.188766e-01
3427=8.309869e-05
3440=1.144912e-01
3445=6.058855e-04
3467=5.557311e-02
3470=-5.667001e-01
3494=4.917627e-01
3512=7.036645e-01
3521=8.041342e-05
3529=-1.241942e-01
3531=4.919206e-02
3532=3.332373e-03
3538=-1.186176e-02
3541=1.895078e-01
3542=1.767277e-02
3547=6.672380e-02
3550=-3.164346e-02
3551=1.429532e-04
3555=2.490107e-01
3556=-3.583791e-01
3559=2.518151e-01
3566=7.036645e-01
3574=-1.590856e-01
3576=4.983543e-02
3577=9.873795e-03
3583=-1.534603e-01
3586=1.110291e-02
3592=7.642852e-04
3595=1.773974e-03
3601=-1.539426e-01
3604=1.552269e-02
3613=-3.471643e-02
3618=-4.305056e-01
3619=1.658892e-01
3622=-2.236885e-04
3631=-3.471643e-02
3637=-3.600953e-02
3641=-1.131548e-02
3642=1.750973e-01
3643=8.052792e-02
3646=-2.976572e-02
3647=7.440493e-04
3648=9.839780e-02
3649=-1.569557e-03
3652=-9.389203e-02
3664=4.315445e-02
3673=-3.345362e-02
3674=2.200316e+00
3675=1.471493e+00
3676=-2.208575e-01
3694=5.422719e-01
3705=6.282276e-02
3724=2.146409e-01
3735=-4.244074e-01
3736=2.555591e-01
3739=-1.773298e-02
3745=-1.368367e-02
3746=-7.201842e-03
3748=1.805548e-01
3749=-2.872721e-01
3750=1.367992e+00
3751=1.512001e-01
3754=9.140445e-03
3757=-3.275403e-03
3758=-7.827264e-02
3763=-9.228679e-03
3766=1.165235e-01
3767=-3.718889e-02
3771=-4.805310e-02
3772=3.638128e-02
3774=2.715383e-02
3780=-4.366896e-01
3781=5.882755e-02
3783=4.487990e-02
3784=-4.644004e-04
3789=-2.858147e-01
3790=2.111209e+00
3799=1.701110e-01
3802=-9.802922e-01
3810=5.792589e-02
3819=5.874621e-02
3829=1.890244e-01
3871=-1.249195e-01
3874=1.663372e-01
3877=3.706937e-02
3880=-3.669726e-02
3883=5.660052e-02
3885=7.158914e-02
3886=1.652047e-01
3888=-3.247343e-02
3889=-4.979206e-01
3890=5.672123e-04
3891=5.602242e-02
3892=1.420386e-01
3894=-1.120258e-04
3896=-1.590146e-02
3898=-6.533757e-02
3900=5.860608e-05
3901=4.909638e-02
3903=6.222282e-02
3907=-6.307142e-02
3910=1.301836e-01
3912=2.997782e-01
3916=-1.921074e-01
3917=2.924674e-02
3918=1.255155e-04
3919=3.383730e-02
3921=-1.949730e-01
3925=-2.084619e-01
3926=3.628759e-02
3928=2.859939e-02
3929=1.953480e-01
3930=-6.332230e-03
3933=1.738131e-02
3937=9.864044e-05
3943=8.182560e-03
3952=-7.958823e-02
3955=1.594924e-02
3961=-1.086836e+00
3962=1.656548e-01
3963=1.064482e-01
3964=-4.175067e-04
3965=3.632495e-02
3967=-1.821282e-02
3970=-2.292348e-01
3973=-2.129327e-04
3975=2.667086e-03
3979=-3.874883e-03
3980=4.599653e-02
3983=2.705475e-01
3985=-1.164546e-01
3988=-1.228057e-04
3997=-2.037324e-01
4000=5.345283e-02
4006=-3.406757e+00
4007=-2.604155e-01
4008=7.991435e-02
4009=4.019554e-01
4010=-5.043651e-02
4011=-2.591732e-01
4012=7.413022e-01
4014=8.352475e-02
4015=-1.508121e-01
4018=2.528895e-02
4023=3.007086e-02
4024=-5.908189e-03
4027=7.485182e-04
4032=8.352475e-02
4033=-1.508121e-01
4036=2.528895e-02
4041=1.834569e+00
4042=-2.183390e-01
4045=3.515857e-01
4050=3.007086e-02
4051=-5.908189e-03
4054=7.485182e-04
4059=-3.828281e-01
4060=5.550195e-02
4063=-8.303207e-04
4072=-1.282058e-01
4079=5.045614e-04
4080=8.196564e-02
4082=7.271884e-02
4083=-1.073151e-01
4084=-1.571905e-03
4088=1.642618e-04
4089=4.097292e-02
4090=8.626872e-02
4091=-3.878556e-02
4099=-7.525669e-01
4104=3.007086e-02
4105=-5.908189e-03
4108=7.485182e-04
4115=1.816568e-01
4116=3.048771e-01
4117=-8.063433e-05
4118=-3.066491e-02
4124=1.816568e-01
4125=3.048771e-01
4126=-8.063433e-05
4127=-3.066491e-02
4133=1.816568e-01
4134=3.048771e-01
4135=-8.063433e-05
4136=-3.066491e-02
4142=1.816568e-01
4143=3.048771e-01
4144=-8.063433e-05
4145=-3.066491e-02
4149=-1.145510e-02
4150=1.375049e-02
4153=1.693108e-02
4160=1.816568e-01
4161=3.048771e-01
4162=-8.063433e-05
4163=-3.066491e-02
4169=1.816568e-01
4170=3.048771e-01
4171=-8.063433e-05
4172=-3.066491e-02
4178=1.816568e-01
4179=3.048771e-01
4180=-8.063433e-05
4181=-3.066491e-02
4189=-1.633318e-02
4196=1.816568e-01
4197=3.048771e-01
4198=-8.063433e-05
4199=-3.066491e-02
4207=-1.688924e-02
4216=-2.682621e-02
4223=1.816568e-01
4224=3.048771e-01
4225=-8.063433e-05
4226=-3.066491e-02
4232=1.285911e-01
4233=1.469622e-01
4235=-8.915105e-05
4241=1.816568e-01
4242=3.048771e-01
4243=-8.063433e-05
4244=-3.066491e-02
4250=1.816568e-01
4251=3.048771e-01
4252=-8.063433e-05
4253=-3.066491e-02
4259=1.816568e-01
4260=3.048771e-01
4261=-8.063433e-05
4262=-3.066491e-02
4268=1.816568e-01
4269=3.048771e-01
4270=-8.063433e-05
4271=-3.066491e-02
4275=1.834937e-01
4284=2.540980e-05
4285=5.740215e-02
4288=-1.744230e-01
4294=6.599184e-03
4303=4.123044e-01
4306=-8.938278e-03
4312=6.599184e-03
4320=-5.744923e-03
4321=5.589688e-03
4330=6.599184e-03
4339=-1.953105e-02
4342=1.096424e-01
4348=3.088284e-01
4351=-2.110004e-01
4357=-1.163765e-02
4360=5.320541e-02
4366=-4.372024e-03
4371=1.137074e-01
4375=-1.163765e-02
4378=5.320541e-02
4387=2.540135e-04
4393=7.864531e-02
4396=-1.576447e-01
4405=2.221440e-02
4410=8.069489e-01
4411=-1.551472e-02
4413=4.893967e-02
4414=2.549624e-03
4420=-1.556661e-02
4423=6.860349e-02
4429=2.841710e-03
4438=5.504236e-01
4441=-4.356324e-04
4450=2.068134e-02
4456=1.025256e-01
4459=-4.391475e-03
4465=-2.939822e-05
4474=-7.244382e-05
4486=1.328669e-01
4491=4.165187e-02
4492=-5.836839e-04
4495=9.321556e-03
4500=4.165187e-02
4501=-5.836839e-04
4504=9.321556e-03
4510=-4.168055e-02
4513=6.345876e-02
4519=-1.457546e-04
4522=-2.363100e-01
4526=8.959072e-02
4528=3.779243e-02
4531=2.675381e-04
4540=-1.196769e-02
4546=1.430061e+00
4549=-2.393159e-02
4555=1.200577e-02
4558=2.037380e-03
4563=-4.417378e-03
4564=-3.188072e-03
4567=8.237311e-03
4568=3.696062e-01
4573=-4.357674e-02
4576=4.485738e-02
4582=1.657340e-02
4591=-9.559298e-02
4594=1.504157e-01
4599=3.270087e-02
4600=1.473090e-02
4603=-6.974464e-03
4609=1.657340e-02
4618=2.311937e-03
4626=3.270087e-02
4627=1.473090e-02
4630=-6.974464e-03
4636=4.557357e-02
4639=-2.502670e-02
4644=9.490708e-03
4734=6.096836e-01
4735=-2.528804e-01
4743=3.270087e-02
4744=1.473090e-02
4747=-6.974464e-03
4753=-2.226532e-01
4756=1.781335e-01
4761=1.268328e-02
4762=1.980282e-03
4765=-6.970183e-03
4768=4.027832e-02
4771=-2.226532e-01
4774=1.781335e-01
4780=-6.727492e-04
4783=3.087891e-03
4786=1.188325e-01
4788=-1.851181e-03
4789=-5.503702e-03
4791=2.494032e-02
4792=1.164174e-02
4801=-5.651034e-02
4807=1.051126e-02
4810=-8.944968e-04
4816=-2.575328e-04
4819=-4.730899e-03
4825=5.948337e-01
4828=-3.947516e-01
4834=-2.575328e-04
4837=-4.730899e-03
4843=1.546767e-02
4846=-3.436681e-02
4852=1.107694e-02
4855=-1.227047e-03
4860=1.060840e-02
4861=2.204602e-01
4862=-1.212657e-02
4864=-9.158049e-02
4870=9.459121e-02
4873=-5.075099e-02
4878=3.617505e-03
4879=2.589814e-02
4882=-1.741343e-02
4888=1.595016e-02
4891=-5.173040e-03
4899=9.722015e-05
4900=9.242879e-03
4901=1.348826e-03
4906=1.238976e-02
4909=-1.359669e-02
4915=4.343668e-03
4924=5.009261e-03
4927=-1.953459e-05
4933=1.110411e-03
4936=-2.371963e-05
4942=1.390825e-03
4945=8.380054e-03
4951=-1.672224e-02
4953=4.999028e-02
4954=-6.950077e-03
4960=7.485656e-03
4963=-1.269946e-02
4969=-1.893812e-02
4972=2.250472e-01
4987=-1.066914e-02
4990=2.328849e-02
5017=7.406220e-02
5024=1.331867e-02
5059=1.275491e-02
5062=-1.287331e-02
5071=-5.788423e-02
5077=1.623351e+00
5080=-5.438608e-01
5085=-6.662113e-02
5086=7.215467e-02
5089=1.154600e-01
5094=-8.093038e-02
5095=5.248997e-02
5098=1.172549e-02
5103=-2.588717e-01
5104=-3.494485e-01
5105=-3.834877e-03
5106=-2.182911e-01
5107=3.624564e-02
5108=4.086083e-01
5109=8.936693e-02
5110=1.092560e-01
5111=-2.492328e-02
5113=-6.653973e-02
5116=5.196882e-02
5122=-3.312489e-01
5125=6.156507e-01
5132=1.999126e+00
5135=5.748678e-02
5140=-1.146496e-01
5141=-4.824650e-02
5142=-1.487790e-01
5143=-1.087267e-01
5144=1.135588e-01
5145=2.928523e-02
5146=2.249980e-01
5158=7.851772e-02
5168=2.742521e-01
5173=-1.379929e-01
5177=-1.283696e-01
5186=2.154398e-03
5189=1.587627e+00
5190=-7.564992e-01
5195=-9.673193e-02
5198=9.638023e-02
5199=8.675660e-01
5204=-4.671764e-01
5207=-2.516415e-01
5208=1.785394e-01
5209=3.847966e-01
5213=4.192406e-01
5230=1.930374e-01
5231=8.875675e-02
5232=-9.162183e-01
5233=-2.759851e-01
5234=1.114669e-01
5235=1.006118e-01
5236=1.050292e-01
5243=-3.381942e-04
5252=-3.381942e-04
5261=1.056552e-01
5285=3.137370e+00
5305=-1.523619e-02
5306=2.026192e+00
5315=1.908454e-02
5348=1.444867e-01
5350=-6.131148e-01
5351=3.429566e-01
5352=-3.385954e-02
5353=1.184351e-01
5360=-3.381942e-04
5365=-1.060616e-01
5366=7.013059e-02
5368=-3.714177e-01
5369=-4.468382e-02
5370=1.323229e-01
5371=7.878049e-02
5383=1.124014e-01
5386=1.381006e-01
5393=1.700644e-01
5394=2.362071e-01
5398=-1.392134e-01
5411=-2.946913e-02
5413=1.825442e-03
5420=-2.537243e-01
5423=3.001720e-01
5424=1.404485e+00
5425=6.381212e-04
5432=-1.550223e-01
5433=1.191712e-02
5434=4.436612e-01
5438=4.812093e-01
5456=4.064159e-05
5459=-6.385776e-03
5461=8.407553e-01
5465=2.149709e-01
5466=-3.641035e-04
5468=-2.355296e-02
5478=-6.808105e-06
5479=2.271893e-02
5528=2.153110e-03
5531=2.206576e-05
5562=4.902730e-03
5563=-3.937736e-03
5572=-4.599708e-02
5575=2.159727e-05
5581=-2.318480e-04
5584=1.060188e-02
5590=-3.122004e-03
5594=2.550145e-02
5603=1.389692e-02
5608=-1.336521e-05
5611=4.610667e-02
5617=-2.390877e-02
5621=1.644157e-02
5626=2.885843e-03
5635=3.086896e-02
5638=1.433775e-02
5644=2.885843e-03
5653=-5.097231e-04
5656=1.757668e-02
5662=-2.656645e-06
5665=2.679573e-02
5671=2.968513e-02
5674=1.346818e-06
5680=2.968513e-02
5683=1.346818e-06
5689=-1.444868e-01
5692=4.234176e-01
5698=2.530330e-04
5701=-4.790176e-05
5706=-1.140638e-01
5707=-3.218583e-02
5710=8.648827e-01
5715=-1.636285e-01
5716=-2.315199e-03
5719=5.167173e-01
5724=-8.006789e-02
5725=-4.772822e-02
5728=8.605770e-02
5735=-2.082675e-02
5737=1.951353e-02
5742=-8.006789e-02
5743=-4.772822e-02
5746=8.605770e-02
5752=7.254444e-04
5755=-5.935860e-04
5761=5.518789e-02
5764=2.118728e-02
5769=-5.491722e-02
5770=5.696550e-02
5773=2.094089e-02
5778=-1.129060e-01
5779=4.885707e-02
5782=5.808473e-02
5787=-1.303748e-01
5788=5.853749e-02
5791=2.229622e-02
5796=-8.619431e-02
5797=5.744805e-02
5800=-6.349211e-04
5805=-1.267146e-01
5806=5.497677e-02
5809=1.058652e-02
5814=-8.006789e-02
5815=-4.772822e-02
5818=8.605770e-02
5823=-3.769182e-02
5824=3.360300e-02
5827=1.002554e-02
5832=-7.789393e-02
5833=-4.243144e-02
5836=2.683716e-01
5842=7.541347e-02
5845=-2.549606e-02
5851=-6.754101e-03
5860=-8.620697e-02
5863=1.754667e-01
5869=-2.481418e-05
5872=8.592551e-02
5878=3.395316e-02
5887=-1.332703e-03
5890=8.999935e-02
5905=4.871569e-02
5935=4.619145e-02
5977=9.559539e-02
5980=-7.815223e-02
5986=-6.287432e-02
5989=6.018475e-02
5995=2.641018e-02
5998=-6.817872e-03
6004=5.820893e-01
6007=-5.227135e-01
6013=-3.610066e-03
6016=3.522745e-02
6022=-1.402271e-02
6025=4.611873e-02
6031=-1.365920e-02
6034=2.740254e-02
6043=6.321370e-03
6049=-1.971431e-03
6052=6.767276e-03
6058=1.110762e-01
6061=-3.678103e-01
6065=9.225912e-02
6070=3.517062e-04
6079=3.517062e-04
6088=3.936681e-03
6097=5.713990e-02
6103=2.169327e-03
6112=1.560713e-01
6115=-1.120196e-01
6119=8.541493e-02
6121=7.985447e-02
6124=-4.235874e-01
6128=1.900422e-01
6130=5.302423e-01
6133=-1.648610e-01
6139=-9.697479e-06
6142=-4.740127e-02
6146=7.993667e-02
6148=5.302423e-01
6151=-1.648610e-01
6157=-7.328875e-03
6160=1.984696e-02
6164=5.931401e-02
6166=5.302423e-01
6169=-1.648610e-01
6175=-1.201008e-01
6178=8.408217e-04
6182=9.297622e-02
6184=-1.588050e-01
6187=8.752022e-04
6191=9.609051e-02
6193=4.092423e-03
6196=-2.693591e-04
6202=-1.151305e-01
6205=7.405877e-04
6209=9.807902e-02
6210=1.154025e-01
6211=-4.165315e-01
6214=8.734981e-03
6215=4.312532e-02
6218=1.931047e-01
6220=-7.181808e-01
6223=1.158245e+00
6228=1.154025e-01
6229=-4.165315e-01
6232=8.734981e-03
6233=4.312532e-02
6236=1.931047e-01
6238=-1.397667e-01
6241=1.250625e-03
6245=8.934372e-02
6247=-3.658717e-01
6250=2.145999e-01
6254=6.697396e-02
6256=-3.658717e-01
6259=2.145999e-01
6263=6.697396e-02
6265=-1.650861e-01
6268=1.283984e-01
6272=6.057947e-02
6274=-1.256317e-01
6277=9.765609e-04
6281=8.572815e-02
6283=-1.229364e-01
6286=9.993835e-04
6290=9.054645e-02
6291=3.517582e-03
6292=-4.143576e-05
6301=-5.502894e-03
6310=-1.429584e-01
6313=2.460392e-04
6317=7.970141e-02
6319=-1.420160e-01
6322=1.666311e-03
6326=7.808943e-02
6328=-1.049917e-01
6331=1.420524e-05
6335=8.364578e-02
6337=-1.520093e-05
6340=2.871954e-04
6346=-1.520093e-05
6349=2.871954e-04
6355=-3.943925e-03
6364=-6.308282e-03
6367=2.976615e-04
6373=-1.211812e-01
6376=1.594244e-02
6377=6.396348e-02
6378=-1.149924e-02
6379=5.846668e-03
6382=-5.307952e-03
6383=1.174643e-02
6391=-5.307952e-03
6392=1.174643e-02
6399=-3.719333e-03
6400=-2.399909e-04
6403=2.486120e-02
6409=-4.441575e-02
6414=3.124261e-01
6418=-5.307952e-03
6419=1.174643e-02
6432=9.032949e-02
6441=2.534376e-01
6442=2.114854e-02
6445=-3.164951e-02
6449=1.535035e-01
6450=-1.554428e-04
6459=-1.234774e-02
6460=1.752847e-02
6466=-4.676655e-03
6477=2.534376e-01
6478=2.114854e-02
6484=-4.676655e-03
6494=8.788764e-02
6495=1.051665e-01
6539=3.914824e-01
6548=1.535060e-02
6549=5.054687e-02
6558=1.480996e+00
6581=-2.345890e-01
6584=3.497806e-02
6592=-6.676449e-01
6593=2.373404e-01
6594=3.499189e-01
6595=-4.369675e-01
6601=-4.676655e-03
6607=-4.184899e-03
6609=-3.282662e-01
6610=2.889356e-04
6611=-4.436871e-02
6612=7.835942e-03
6613=3.341570e-01
6614=-3.556640e-03
6617=3.699962e-04
6625=-3.816021e-04
6626=-2.156629e-03
6628=8.560851e-03
6629=-7.637397e-02
6631=4.984161e-01
6635=3.699962e-04
6701=1.186114e-01
6702=2.512859e-03
6703=-2.573270e-01
6707=4.435442e-01
6712=1.861610e+00
6738=2.076564e-01
6739=2.620443e-01
6792=3.795824e-01
6801=1.083389e-02
6802=4.375086e-01
6811=5.652741e-02
6827=-1.039597e+00
6828=4.277440e-01
6829=8.196209e-01
6833=3.699962e-04
6841=6.913399e-04
6842=2.264813e-01
6843=-1.719601e-01
6844=1.018773e-03
6845=-6.271620e-04
6846=-2.917377e-01
6855=2.930045e-01
6856=-2.132293e-02
6860=1.434454e-02
6868=6.913399e-04
6869=2.264813e-01
6870=-1.719601e-01
6871=1.018773e-03
6872=-6.271620e-04
6873=-2.917377e-01
6877=-2.691277e-04
6878=2.289019e-01
6880=1.235608e-02
6882=-2.203050e-01
6887=1.434454e-02
6959=-8.788295e-02
6963=3.761661e+00
6968=2.346538e+00
6986=9.204546e-01
6987=-1.024380e-01
6988=-8.465345e-03
6989=-4.868531e-01
6990=-1.094986e+00
6991=6.158720e-02
6995=5.120575e-01
6996=6.875626e-05
6998=-2.378800e-03
7004=1.434454e-02
7013=5.120575e-01
7014=6.875626e-05
7016=-2.378800e-03
7020=4.171541e-02
7021=5.932131e-03
7024=-2.599692e-02
7030=-3.599127e-02
7033=1.624219e-02
7038=4.171541e-02
7039=5.932131e-03
7042=-2.599692e-02
7048=7.861138e-03
7057=1.536443e-02
7060=-1.963452e-03
7066=1.536443e-02
7069=-1.963452e-03
7075=-9.791471e-02
7078=1.003215e-01
7084=1.099649e-01
7093=-8.285706e-02
7096=6.581818e-02
7102=-8.285706e-02
7105=6.581818e-02
7111=2.991625e-01
7120=3.295708e-02
7123=-6.755447e-03
7132=-1.068549e-03
7142=7.891880e-03
7143=-3.268969e-02
7151=7.891880e-03
7152=-3.268969e-02
7160=7.891880e-03
7161=-3.268969e-02
7164=1.472990e-01
7165=-7.938814e-02
7178=-6.206642e-02
7179=1.892324e-02
7183=-1.258795e-02
7186=4.103963e-03
7192=-2.435474e-02
7195=4.306871e-01
7200=2.477183e-01
7201=-2.014487e+00
7209=2.420636e-01
7210=-1.176183e-01
7222=-2.085117e-06
7231=-2.085117e-06
7237=2.860213e-02
7240=-7.392222e-03
7245=2.173429e-01
7249=-7.014526e-04
7258=-2.085117e-06
7264=-3.759580e-02
7267=4.147061e-03
7272=6.928528e-02
7281=1.278189e-01
7282=-7.381727e-02
7290=6.928528e-02
7299=6.928528e-02
7312=6.865962e-05
7317=1.670259e-02
7318=-1.937959e-02
7321=-2.089539e-03
7326=5.921473e-03
7327=3.261189e-01
7329=-8.100622e-03
7330=-1.096544e-01
7335=7.372239e-02
7336=1.526501e-02
7339=-3.675619e-01
7344=-6.594319e-02
7345=-2.049907e-01
7348=7.365954e-01
7357=1.312111e-03
7362=-4.293943e-02
7363=5.067715e-02
7366=-4.846113e-03
7371=-4.293943e-02
7372=5.067715e-02
7375=-4.846113e-03
7384=9.351988e-02
7393=8.865177e-03
7399=3.784593e-02
7402=-1.966669e-04
7408=3.784593e-02
7411=-1.966669e-04
7417=3.237048e-02
7420=-2.196946e-02
7426=-1.189568e-02
7429=3.627334e-02
7435=-6.262584e-03
7438=1.202681e-02
7447=1.147624e-02
7453=-6.262584e-03
7456=1.202681e-02
7462=-6.437229e-03
7465=1.157517e-02
7471=-6.262584e-03
7474=1.202681e-02
7480=2.029857e-01
7483=-1.837919e-01
7489=-8.950300e-03
7492=9.260638e-02
7501=2.742135e-03
7507=-2.103615e-04
7510=5.397987e-03
7516=-4.746151e-02
7519=1.042660e-01
7525=1.294853e-02
7528=2.480986e-02
7534=5.333808e-03
7543=1.417145e-02
7546=2.339294e-02
7552=1.294853e-02
7555=2.480986e-02
7561=6.198291e-02
7570=4.339386e-03
7573=3.057136e-03
7579=4.339386e-03
7582=3.057136e-03
7588=5.217430e-03
7591=4.219362e-04
7596=-3.075305e-02
7597=1.760095e-02
7600=5.596719e-06
7606=4.339386e-03
7609=3.057136e-03
7615=4.339386e-03
7618=3.057136e-03
7624=2.597036e-02
7633=4.339386e-03
7636=3.057136e-03
7642=5.774594e-02
7645=-4.217805e-02
7650=-3.949651e-03
7651=1.207413e-01
7654=-5.562358e-02
7660=5.774594e-02
7663=-4.217805e-02
7669=4.777010e-01
7672=-7.105731e-02
7678=3.645500e-01
7681=-2.838944e-01
7687=-5.178193e-01
7690=2.961823e-01
7696=3.697417e-02
7699=-4.327676e-03
7708=5.457812e-03
7709=5.032712e-03
7717=5.457812e-03
7718=5.032712e-03
7726=5.457812e-03
7727=5.032712e-03
7735=1.767148e-03
7736=1.479528e-01
7737=-1.233826e-01
7746=-9.971818e-06
7751=4.620836e-01
7759=-1.129642e-01
7762=6.691315e-01
7768=-4.363522e-03
7771=7.467227e-02
7777=-4.941979e-03
7780=7.474643e-02
7789=5.485611e-02
7795=-4.131778e-04
7798=1.264500e-03
7807=2.123727e-03
7812=9.774232e-03
7813=-1.701169e-01
7816=4.931474e-03
7820=4.436193e-02
7825=2.123727e-03
7831=-4.740666e-04
7834=1.272187e-03
7840=-5.428633e-04
7843=2.816245e-03
7852=2.112429e-03
7858=3.298818e-02
7861=-2.660341e-03
7867=1.016123e-01
7870=-6.136306e-03
7876=2.610677e-01
7879=-1.174900e-01
7883=1.197901e-01
7885=1.027203e-01
7888=-6.154050e-03
7894=7.442969e-03
7897=-5.524826e-03
7908=1.657122e-02
7913=-4.429951e-03
7918=2.022751e-01
7926=1.657122e-02
7931=-4.429951e-03
7936=2.022751e-01
7940=-4.429951e-03
7945=2.022751e-01
7953=2.138084e-01
7962=6.304776e-03
7971=2.138084e-01
7980=2.138084e-01
7984=-6.726910e-01
7993=-1.016113e-04
8002=1.154997e-01
8011=1.222466e-01
8014=-1.231185e-02
8020=-2.479735e-03
8023=1.030766e-05
8025=1.063165e-01
8029=7.508656e-01
8032=-5.735057e-01
8038=1.096333e-01
8041=-3.673193e-01
8042=-2.003870e-02
8045=1.636321e-01
8050=2.360495e-02
8059=2.194717e-01
8065=-1.684878e-04
8068=5.263447e-03
8074=-2.457398e-01
8077=7.304333e-02
8083=2.645369e-02
8092=-9.435231e-02
8095=3.282737e-02
8101=-3.286047e-02
8104=1.281937e-01
8110=2.182601e-01
8113=-7.376799e-02
8119=-1.864402e-05
8128=2.667791e-01
8131=-5.057872e-02
8137=2.182601e-01
8140=-7.376799e-02
8146=-6.069429e-02
8149=1.288663e-01
8155=2.667791e-01
8158=-5.057872e-02
8164=-6.634072e-02
8173=2.667791e-01
8176=-5.057872e-02
8182=-9.803774e-02
8185=9.368046e-02
8191=-6.576860e-02
8194=8.414637e-02
8200=-7.478768e-02
8203=1.237640e-01
8209=-5.806096e-04
8212=1.258391e-02
8218=-4.883129e-02
8221=8.841604e-02
8227=-8.617465e-02
8230=1.940815e-01
8236=-1.679230e-01
8239=1.740026e-01
8245=-2.832470e-05
8248=5.370208e-03
8257=4.592351e-02
8263=-1.042490e-01
8266=1.562713e-01
8275=4.592351e-02
8284=4.592351e-02
8290=-1.091289e-02
8293=3.202476e-03
8299=-2.298805e-01
8302=1.873480e-01
8308=-6.202036e-02
8320=5.339010e-02
8326=4.831997e-02
8329=-5.837943e-02
8335=-1.117502e-05
8338=6.414147e-04
8344=-1.117502e-05
8347=6.414147e-04
8353=1.835397e-02
8356=1.827696e-05
8362=-1.117502e-05
8365=6.414147e-04
8371=2.449559e-02
8374=1.373625e-04
8380=2.540263e-02
8383=-1.779675e-03
8389=-2.104953e-03
8392=4.819194e-03
8398=3.145086e-02
8401=-9.459096e-03
8407=-3.778255e-03
8410=3.510316e-04
8419=2.464148e-04
8425=-4.367037e-02
8428=3.399123e-02
8434=2.334291e-03
8437=-1.950902e-05
8443=3.485582e-03
8446=-3.229405e-04
8457=2.734768e-02
8458=-3.932928e-03
8464=-6.264692e-01
8475=4.925446e-04
8476=-1.037848e-03
8484=4.925446e-04
8485=-1.037848e-03
8493=4.925446e-04
8494=-1.037848e-03
8500=-5.167482e-02
8506=-2.728613e-03
8515=2.484872e-02
8518=-2.248949e-03
8524=-5.055597e-03
8531=8.840402e-02
8533=5.012029e-02
8536=-1.712219e-02
8542=-3.252308e-01
8545=3.813290e-01
8551=-5.795106e-01
8554=6.281038e-01
8560=-1.341069e-01
8563=2.731682e-01
8569=8.780747e-03
8572=-8.337386e-03
8582=-2.797556e-02
8583=1.551031e-01
8591=-2.785046e-02
8592=1.529005e-01
8602=7.674546e-02
8611=5.899695e-02
8620=1.048845e-01
8623=-4.844309e-02
8626=7.260462e-02
8632=-1.073418e-03
8641=-1.358723e-01
8644=2.212494e-01
8650=-1.358723e-01
8653=2.212494e-01
8659=-8.901445e-03
8662=1.200637e-02
8668=-1.085898e-02
8671=1.144924e-02
8677=-6.883944e-02
8680=1.113230e-01
8686=-5.917412e-03
8689=6.749268e-03
8695=-5.917412e-03
8698=6.749268e-03
8704=8.785512e-03
8707=-7.074872e-05
8713=4.293160e-03
8716=-3.586911e-03
8722=-3.554988e-01
8725=1.151974e-04
8731=-2.184645e-02
8740=2.182738e-02
8749=3.250624e-02
8752=-2.320565e-02
8758=4.114720e-03
8767=5.118958e-03
8770=-6.617940e-03
8776=-8.164550e-04
8779=4.374747e-03
8785=5.118958e-03
8788=-6.617940e-03
8794=1.333661e-02
8797=-5.420168e-04
8803=1.333661e-02
8806=-5.420168e-04
8812=5.871485e-06
8815=-7.951646e-05
8821=3.668680e-03
8824=-7.744858e-04
8829=-8.421837e-03
8830=-2.574557e-02
8833=1.219450e-01
8839=-1.783782e-02
8842=3.201870e-01
8848=8.366694e-02
8851=-1.971678e-02
8857=7.005142e-02
8860=-3.879346e-02
8866=-1.160932e-06
8875=-7.286116e-02
8878=9.768317e-02
8887=4.477269e-05
8893=-7.605377e-01
8896=2.284850e-01
8903=-2.209996e-03
8911=1.028160e+00
8914=-8.283724e-01
8920=1.038640e-03
8929=9.411484e-03
8932=-5.308084e-03
8938=2.674624e-02
8941=-2.378123e-02
8947=6.018172e-01
8950=-4.103135e-01
8956=-5.014993e-01
8959=5.716847e-01
8965=-1.286848e-01
8968=8.194669e-02
8974=5.012402e-01
8977=-3.594966e-01
8983=-4.389170e-01
8986=6.427837e-01
8992=-4.389170e-01
8995=6.427837e-01
9001=1.386207e-02
9004=-2.073265e-02
9010=-9.650386e-06
9015=7.375404e-02
9019=-3.143727e-02
9022=1.198958e-02
9026=5.459068e-02
9028=-1.611675e-01
9031=2.021107e-01
9035=6.342607e-02
9038=5.124590e-02
9052=3.456928e-02
9106=3.460816e-02
9142=5.873662e-01
9149=-4.815810e-02
9204=2.536161e-01
9218=7.829590e-02
9235=-8.410391e-04
9244=-7.312303e-01
9247=3.526369e-02
9248=1.869566e-02
9252=7.704008e-02
9256=-2.182827e-03
9261=4.108052e-02
9262=3.149918e-03
9265=-3.022272e-02
9271=-1.619725e-03
9276=8.605706e-02
9280=-1.619725e-03
9285=8.605706e-02
9289=-1.391752e-01
9292=1.675322e-01
9298=-1.141450e-01
9301=1.217736e-01
9307=-1.391752e-01
9310=1.675322e-01
9316=-1.391752e-01
9319=1.675322e-01
9325=-1.391752e-01
9328=1.675322e-01
9334=-1.391752e-01
9337=1.675322e-01
9343=-1.391752e-01
9346=1.675322e-01
9352=-9.148144e-02
9355=1.321708e-01
9361=-3.239074e-01
9364=4.680182e-01
9370=4.214718e-03
9373=-1.370710e-02
9383=2.205083e-03
9388=-3.533508e-04
9397=-2.961505e-02
9400=4.490567e-03
9406=9.091644e-04
9409=-8.134936e-04
9415=2.442696e-02
9418=-4.324368e-03
9427=2.794282e-04
9433=-3.903136e-01
9436=2.360187e-01
9442=6.048043e-02
9445=-6.613423e-02
9451=7.197187e-02
9454=-7.178465e-02
9459=8.897215e-02
9469=6.045568e-02
9472=-1.218468e-01
9478=-1.418961e-01
9481=2.190224e-01
9487=-1.536255e-01
9490=2.343228e-01
9496=-3.214419e-03
9499=1.942033e-02
9505=-2.890889e-02
9508=4.419527e-02
9514=-1.653259e-01
9517=2.721412e-01
9526=4.212677e-04
9532=-4.849769e-03
9535=1.000617e-02
9541=-6.674290e-03
9544=1.710565e-02
9553=1.295056e-02
9559=-8.690055e-02
9562=1.859360e-01
9571=4.145715e-03
9577=-3.756404e-02
9580=3.589620e-02
9586=-3.909411e-02
9589=2.487106e-02
9595=-6.622723e-02
9598=6.937916e-02
9604=-3.909411e-02
9607=2.487106e-02
9613=-3.909411e-02
9616=2.487106e-02
9622=9.448971e-03
9625=-1.127520e-03
9631=7.407072e-02
9634=-2.430661e-02
9640=-2.675850e-01
9643=3.750505e-01
9649=-3.180043e-01
9652=4.312439e-01
9661=-1.068292e-03
9670=-8.823742e-05
9676=4.086942e-02
9679=-2.874751e-02
9685=2.144656e-01
9688=-2.767161e-01
9700=2.025633e-02
9704=-4.325255e-02
9709=2.176604e-02
9712=-3.736309e-03
9715=4.219767e-03
9721=-3.736309e-03
9724=4.219767e-03
9730=-3.736309e-03
9733=4.219767e-03
9739=1.030385e-02
9742=-5.554676e-03
9748=-2.444936e-01
9751=4.041875e-01
9757=1.918886e-04
9760=-8.023716e-05
9766=1.918886e-04
9769=-8.023716e-05
9775=-9.554545e-02
9778=3.300640e-03
9784=1.918886e-04
9787=-8.023716e-05
9796=6.191624e-01
9806=-5.117049e-03
9807=1.555126e-01
9815=-5.117049e-03
9816=1.555126e-01
9824=-5.117049e-03
9825=1.555126e-01
9832=-3.322194e-01
9841=7.639113e-03
9847=2.423076e-03
9850=-1.978006e-03
9856=4.360062e-03
9859=-2.362419e-03
9865=-7.166442e-06
9868=3.216095e-03
9874=-1.007253e-02
9877=9.320362e-03
9883=-1.127432e-02
9886=7.350899e-03
9892=-1.127432e-02
9895=7.350899e-03
9901=-1.127432e-02
9904=7.350899e-03
9910=7.189980e-03
9913=-2.856077e-03
9919=1.447716e+00
9922=-6.127410e-01
9928=-4.007266e-02
9931=1.650487e-03
9937=-9.908238e-02
9940=2.089850e-04
9946=-9.908238e-02
9949=2.089850e-04
9955=2.549733e-01
9958=-1.715189e-01
9964=8.154791e-02
9967=-1.106129e-02
9973=2.101975e-02
9982=6.453000e-02
9985=-9.895320e-02
9994=-3.246313e-02
10000=1.213792e-02
10009=1.089449e-02
10018=-9.525600e-02
10021=2.063815e-01
10030=4.625310e-03
10036=2.606236e-02
10039=-2.832492e-02
10045=-7.676071e-03
10048=4.785508e-03
10054=-2.301255e-01
10066=5.581679e-03
10072=-1.200145e-03
10075=1.210778e-02
10085=4.750701e-02
10090=-2.568218e-04
10093=1.150524e-02
10099=6.212443e-03
10102=-4.575705e-03
10108=2.387261e-03
10111=-1.837815e-03
10117=5.856268e-04
10120=-4.996532e-04
10126=2.017892e-03
10129=-1.745953e-03
10135=2.011941e-02
10138=-5.968448e-03
10144=1.191257e-02
10147=-8.890861e-03
10157=-2.241988e-02
10158=2.298119e-02
10162=-1.375624e-01
10165=3.467729e-02
10171=-6.476217e-01
10174=3.646831e-03
10180=-1.722837e-04
10183=1.689510e-02
10192=-5.649271e-03
10193=1.019383e-04
10204=-9.576056e-04
10213=-2.352370e-02
10219=-9.029004e-03
10221=-8.625996e-02
10225=-2.455116e-01
10228=1.318485e+00
10240=-2.399126e-02
10243=-5.052459e-01
10251=2.364253e-02
10252=-7.719263e-01
10261=-1.207719e-03
10264=3.465704e-04
10270=1.340578e-02
10273=-4.072752e-04
10279=1.072581e-01
10282=-1.865000e-02
10288=1.072581e-01
10291=-1.865000e-02
10297=7.803319e-03
10309=-1.425840e-04
10320=6.146038e-03
10328=-1.898231e-01
10329=1.314922e-02
10338=-1.861665e-02
10339=5.129378e-02
10402=8.960875e-02
10426=6.026758e-03
10432=5.626266e-01
10435=-4.298907e-01
10441=-7.799797e-03
10444=3.857234e-02
10450=4.386312e-02
10453=-3.970433e-04
10462=-5.829991e-03
10463=2.398266e-02
10468=2.006724e-01
10471=-6.102250e-03
10477=2.006724e-01
10480=-6.102250e-03
10486=1.790421e-01
10489=-5.324590e-03
10495=7.290947e-03
10504=-1.769631e-01
10507=1.713768e+00
10513=5.295675e-03
10522=-1.414670e-03
10525=6.955326e-03
10531=-3.426574e-01
10534=6.925829e-01
10546=3.060895e-01
10552=7.388480e-04
10560=5.497697e-02
10561=-1.363532e-01
10568=-2.301960e-02
10569=8.840048e-02
10588=1.063224e-01
10605=1.294556e-01
10615=-1.032093e-01
10617=7.592137e-02
10657=2.898104e-01
10658=-2.234218e-01
10659=6.699057e-02
10661=-1.219590e-02
10662=3.110262e-01
10663=-8.688008e-01
10668=1.077169e-01
10678=4.715710e-01
10684=5.415694e-02
10696=1.752779e-03
10741=5.491286e-01
10786=1.034586e+00
10792=5.987879e-03
10849=2.578820e-03
10891=-1.704465e-01
10894=1.242329e-01
10900=-1.722811e-01
10903=1.143594e-01
10909=1.782662e-03
10918=1.839484e-01
10927=5.199001e-01
10930=-2.677274e-02
10936=-2.940647e-01
10939=4.472122e-01
10948=-7.349169e-01
10963=6.169691e-01
11000=-5.786331e-03
11018=-6.315161e-03
11038=2.120244e-01
11044=3.370956e-02
11047=-5.108403e-02
11052=6.063868e-03
11053=-3.528365e-03
11061=6.063868e-03
11062=-3.528365e-03
11070=6.063868e-03
11071=-3.528365e-03
11079=6.063868e-03
11080=-3.528365e-03
11088=4.152428e-03
11089=-1.100442e-02
11097=1.091014e-02
11098=-1.559615e-02
11106=6.063868e-03
11107=-3.528365e-03
11115=6.063868e-03
11116=-3.528365e-03
11125=-6.264617e-02
11128=4.722075e-02
11129=1.873756e-02
11134=2.243463e-01
11137=-1.572480e-01
11143=-2.660938e-04
11146=5.259653e-04
11152=-4.650049e-04
11155=2.000638e-04
11161=-2.660938e-04
11164=5.259653e-04
11170=-2.660938e-04
11173=5.259653e-04
11179=-2.660938e-04
11182=5.259653e-04
11188=-2.660938e-04
11191=5.259653e-04
11197=-2.660938e-04
11200=5.259653e-04
11206=-4.822867e-04
11209=2.792704e-04
11218=-1.472770e-03
11224=1.663910e-02
11227=-2.274503e-01
11233=1.663910e-02
11236=-2.274503e-01
11242=-4.191622e-01
11246=1.940557e-02
11251=-4.191622e-01
11255=1.940557e-02
11260=-4.191622e-01
11264=1.940557e-02
11269=-4.191622e-01
11273=1.940557e-02
11278=-4.191622e-01
11282=1.940557e-02
11287=-4.191622e-01
11291=1.940557e-02
11296=-4.065682e-01
11299=5.569270e-01
11305=-4.065682e-01
11308=5.569270e-01
11314=-1.333308e-01
11317=2.673085e-01
11327=7.229180e-04
11328=-1.922983e-01
11335=8.113137e-04
11344=2.144438e-04
11353=1.358795e-05
11359=5.879256e-02
11362=-8.830720e-03
11368=4.455388e-02
11371=-1.724106e-02
11377=1.922848e-01
11380=-7.911962e-02
11386=5.057683e-02
11389=-1.403556e-04
11395=-9.279581e-02
11398=1.233229e-01
11404=-1.935943e-01
11407=4.336583e-01
11413=-1.941549e-01
11416=3.323331e-01
11422=-1.941549e-01
11425=3.323331e-01
11431=-8.312379e-02
11434=1.370635e-01
11440=6.416531e-01
11443=-1.915744e-01
11444=1.553037e-01
11449=-7.765589e-02
11453=8.917564e-02
11470=1.269958e+00
11507=8.448857e-01
11539=-2.448020e-03
11548=-2.463695e-01
11557=7.430647e-01
11560=-4.165381e-02
11569=1.099002e-01
11578=1.855942e-02
11584=-2.429149e-02
11587=4.689056e-02
11593=-2.429149e-02
11596=4.689056e-02
11602=-2.429149e-02
11605=4.689056e-02
11611=-2.429149e-02
11614=4.689056e-02
11620=-7.890565e-03
11623=2.677603e-01
11629=-7.556339e-03
11632=2.728962e-01
11641=5.491940e-02
11647=-7.435318e-02
11650=6.868574e-02
11656=-1.519535e-02
11659=1.135410e-02
11665=-1.519535e-02
11668=1.135410e-02
11674=-7.435318e-02
11677=6.868574e-02
11683=-1.519535e-02
11686=1.135410e-02
11692=-1.751882e-01
11695=1.290966e-01
11704=-8.287729e-04
11713=1.383632e-01
11719=8.751745e-07
11731=-7.113708e-06
11737=5.549555e-02
11740=-5.057772e-02
11746=5.549555e-02
11749=-5.057772e-02
11755=6.421944e-03
11758=-6.171534e-03
11764=6.251189e-05
11773=5.549555e-02
11776=-5.057772e-02
11782=2.751442e-01
11785=-7.481973e-02
11791=5.549555e-02
11794=-5.057772e-02
11800=5.549555e-02
11803=-5.057772e-02
11809=5.549555e-02
11812=-5.057772e-02
11818=1.607441e-02
11821=-1.526368e-02
11827=1.263008e-02
11830=-6.606910e-02
11836=5.973947e-02
11845=8.648486e-02
11854=5.973947e-02
11863=8.648486e-02
11872=5.973947e-02
11881=8.648486e-02
11890=6.790886e-01
11893=-1.470902e-01
11899=2.038153e-03
11908=1.808167e-03
11911=-1.674979e-03
11917=-2.597247e-01
11920=4.252605e-01
11929=-9.635332e-04
11938=-1.026922e-03
11944=5.262254e-02
11953=5.058322e-02
11962=3.166748e-01
11965=-4.171633e-01
11971=-1.625613e-01
11974=2.357547e-01
11980=-6.601394e-06
11983=8.559803e-06
11989=-6.601394e-06
11992=8.559803e-06
11998=-6.601394e-06
12001=8.559803e-06
12007=1.105444e-01
12010=-1.253206e-02
12016=4.926268e-02
12019=-2.621478e-02
12029=-3.558460e-02
12030=2.868470e-02
12038=-3.558460e-02
12039=2.868470e-02
12047=-9.478351e-03
12048=2.912328e-02
12056=-9.373948e-03
12057=3.337016e-02
12065=-9.373948e-03
12066=3.337016e-02
12074=-9.373948e-03
12075=3.337016e-02
12083=-9.373948e-03
12084=3.337016e-02
12092=-3.558460e-02
12093=2.868470e-02
12101=-3.648044e-03
12102=2.469617e-02
12110=8.317399e-02
12119=2.843187e-02
12128=2.843187e-02
12137=2.843187e-02
12146=2.843187e-02
12154=-9.154218e-04
12155=2.655385e-02
12160=2.681753e-03
12163=-9.882759e-03
12169=-8.611638e-02
12172=7.358184e-02
12178=-8.611638e-02
12181=7.358184e-02
12187=-1.125039e-05
12194=8.679998e-02
12203=8.019505e-02
12205=-7.673984e-03
12212=8.378466e-02
12214=-1.150026e-05
12221=8.055416e-02
12223=-2.485689e-03
12230=8.372595e-02
12232=2.933400e-02
12235=-2.622998e-02
12241=-3.071750e-03
12248=7.564803e-02
12250=-2.455980e-03
12257=9.303577e-02
12259=-2.455980e-03
12266=9.303577e-02
12268=-1.879114e-03
12275=8.977317e-02
12284=1.613139e-01
12286=4.389302e-02
12295=-9.324492e-03
12298=2.695758e-02
12304=-4.244083e-04
12307=1.677714e-03
12313=-4.244083e-04
12316=1.677714e-03
12322=-4.244083e-04
12325=1.677714e-03
12331=-1.745884e-02
12334=1.705350e-02
12340=-9.485755e-06
12343=8.105284e-06
12349=7.790670e-01
12352=-4.441619e-01
12358=-4.380142e-01
12361=6.882831e-01
12367=-5.075984e-02
12370=5.578608e-02
12376=-5.075984e-02
12379=5.578608e-02
12385=-5.455409e-02
12388=6.276656e-02
12394=-4.154315e-02
12403=-3.790920e-02
12406=4.858219e-02
12412=-5.507361e-02
12415=7.525993e-02
12421=-5.507361e-02
12424=7.525993e-02
12430=-5.507361e-02
12433=7.525993e-02
12439=-4.100281e-02
12448=-4.508267e-03
12451=5.702640e-03
12457=-1.863649e-02
12460=2.183462e-02
12466=-1.835362e-02
12469=2.092796e-02
12475=-4.758219e-01
12484=3.896552e-01
12487=-3.046921e-01
12493=8.357794e-01
12496=-6.139602e-01
12505=8.037207e-02
12514=1.653002e-01
12520=8.800634e-03
12523=-1.461837e-04
12529=-2.007239e-01
12532=2.397426e-01
12538=-1.389032e-01
12541=1.585583e-01
12547=-1.259027e-01
12550=1.467127e-01
12556=-3.887318e-02
12559=4.778781e-02
12565=-3.036869e-01
12568=3.613190e-01
12574=1.233708e-01
12577=-2.649740e-01
12586=6.556622e-04
12595=4.389306e-04
12604=6.556622e-04
12613=6.556622e-04
12622=6.556622e-04
12632=4.510982e-02
12636=1.194288e-01
12637=-7.780607e-02
12646=2.084010e-04
12660=8.227758e-03
12667=-2.057848e-04
12673=2.092513e-04
12676=-2.852794e-03
12682=-3.246907e-02
12685=3.671451e-02
12691=-3.246907e-02
12694=3.671451e-02
12700=-3.246907e-02
12703=3.671451e-02
12709=-3.246907e-02
12712=3.671451e-02
12718=-3.414133e-02
12721=3.747641e-02
12727=-3.414133e-02
12730=3.747641e-02
12736=-1.935989e-02
12739=1.975466e-02
12745=-3.406768e-02
12748=3.734490e-02
12754=-5.849197e-04
12757=8.340583e-04
12763=-3.154651e-02
12766=2.987802e-02
12772=-1.557273e-02
12775=1.612137e-02
12781=-3.526068e-04
12784=2.987621e-04
12790=-3.348908e-02
12793=3.668893e-02
12799=-3.147346e-02
12802=3.474687e-02
12808=-8.734536e-03
12811=9.217974e-03
12817=-3.147346e-02
12820=3.474687e-02
12826=-9.978753e-03
12829=1.042863e-02
12835=-1.570341e-03
12838=1.539364e-03
12844=-1.407793e-01
12847=1.898525e-01
12853=-2.579289e-02
12856=2.992509e-02
12862=-1.570341e-03
12865=1.539364e-03
12871=-2.579289e-02
12874=2.992509e-02
12880=2.421909e-04
12883=-2.017741e-04
12889=2.194641e-02
12892=-3.321670e-02
12898=6.471437e-01
12901=-5.459021e-01
12912=-1.860855e-02
12913=6.064116e-02
12921=-1.860855e-02
12922=6.064116e-02
12930=-1.860855e-02
12931=6.064116e-02
12939=-1.860855e-02
12940=6.064116e-02
12948=-1.860855e-02
12949=6.064116e-02
12957=-1.860855e-02
12958=6.064116e-02
12966=-1.860855e-02
12967=6.064116e-02
12975=-4.834366e-02
12976=3.376641e-01
12984=-1.859299e-02
12985=5.449028e-02
12988=1.098075e-02
12997=3.212057e-01
13000=-2.928540e-01
13006=-2.325863e-01
13009=5.889196e-01
13015=-1.365402e-01
13018=2.574530e-01
13027=4.409253e-01
13036=1.351267e-02
13045=1.351267e-02
13054=5.989039e-03
13063=5.376682e-03
13069=2.145522e-05
13072=-6.503951e-06
13078=9.601051e-03
13081=-1.029302e-03
13086=5.947122e-01
13087=-8.992761e-02
13099=-4.654063e-04
13105=-9.903829e-03
13114=-9.903829e-03
13126=1.415697e-03
13135=1.415697e-03
13144=1.415697e-03
13153=-1.810198e-02
13162=1.293534e-03
13171=1.293534e-03
13180=1.293534e-03
13189=1.293534e-03
13198=2.902909e-03
13207=3.685276e-03
13213=1.044852e-02
13216=-1.027868e-02
13222=-1.142079e-01
13225=1.233298e-01
13231=-1.606159e-01
13234=1.729255e-01
13240=-1.142079e-01
13243=1.233298e-01
13249=-1.117952e-01
13252=1.197977e-01
13258=-1.117952e-01
13261=1.197977e-01
13267=-1.027041e-01
13270=1.114161e-01
13276=9.276444e-02
13279=-7.031678e-02
13285=3.149081e-02
13288=-2.337845e-02
13294=-1.887585e-01
13297=2.373921e-01
13303=-1.887585e-01
13306=2.373921e-01
13312=-8.381376e-03
13315=7.242868e-03
13321=-8.381376e-03
13324=7.242868e-03
13330=-8.381376e-03
13333=7.242868e-03
13339=-8.381376e-03
13342=7.242868e-03
13348=-8.381376e-03
13351=7.242868e-03
13357=-8.381376e-03
13360=7.242868e-03
13366=-4.367089e-01
13369=5.050461e-01
13378=2.726831e-02
13384=-6.053667e-03
13387=7.117580e-03
13393=-6.053667e-03
13396=7.117580e-03
13402=-6.053667e-03
13405=7.117580e-03
13411=4.632592e-02
13426=2.849134e-01
13432=4.312041e-02
13438=9.012632e-02
13441=-7.931950e-02
13447=9.012632e-02
13450=-7.931950e-02
13456=8.331397e-04
13459=-2.872079e-04
13465=2.813463e-01
13468=-1.109897e-01
13474=-5.581610e-03
13477=7.786008e-03
13483=-5.581610e-03
13486=7.786008e-03
13492=-5.581610e-03
13495=7.786008e-03
13501=-5.581610e-03
13504=7.786008e-03
13510=-5.581610e-03
13513=7.786008e-03
13519=-5.581610e-03
13522=7.786008e-03
13528=-5.581610e-03
13531=7.786008e-03
13537=-5.581610e-03
13540=7.786008e-03
13552=3.154183e-01
13561=2.869899e-01
13570=3.154183e-01
13579=3.154183e-01
13582=1.811395e-02
13585=-1.730936e-05
13591=-1.979005e-02
13600=2.228003e-04
13609=2.228003e-04
13618=2.228003e-04
13627=2.228003e-04
13636=-2.768430e-03
13639=3.263222e-03
13645=-2.768430e-03
13648=3.263222e-03
13654=-2.768430e-03
13657=3.263222e-03
13663=-2.482074e-03
13666=3.015364e-03
13672=-2.482074e-03
13675=3.015364e-03
13681=-2.482074e-03
13684=3.015364e-03
13690=-2.785808e-01
13693=3.199365e-01
13699=-2.482074e-03
13702=3.015364e-03
13708=-1.051268e-02
13711=9.390158e-03
13717=-1.051268e-02
13720=9.390158e-03
13731=9.475462e-03
13740=9.475462e-03
13749=9.475462e-03
13758=9.475462e-03
13767=9.475462e-03
13776=9.475462e-03
13780=1.045182e-01
13783=-6.920925e-03
13789=-8.512921e-01
13792=9.200317e-01
13798=-2.166473e-02
13801=2.094993e-02
13807=-2.160522e-02
13810=2.087333e-02
13816=3.301165e-01
13819=-2.068649e-01
13825=-4.354598e-02
13828=6.975325e-02
13834=1.060775e-04
13848=8.428225e-02
13852=5.695107e-03
13855=-5.328086e-03
13864=5.411654e-02
13870=1.004935e-03
13873=-4.803292e-04
13879=9.362369e-04
13882=-8.069584e-04
13888=9.335337e-04
13891=-8.072476e-04
13897=9.362369e-04
13900=-8.069584e-04
13906=9.362369e-04
13909=-8.069584e-04
13915=9.362369e-04
13918=-8.069584e-04
13924=9.362369e-04
13927=-8.069584e-04
13933=9.362369e-04
13936=-8.069584e-04
13942=9.362369e-04
13945=-8.069584e-04
13951=3.393748e-03
13954=-3.348313e-03
13960=3.393748e-03
13963=-3.348313e-03
13969=3.393748e-03
13972=-3.348313e-03
13978=3.393748e-03
13981=-3.348313e-03
13987=3.393748e-03
13990=-3.348313e-03
13996=3.393748e-03
13999=-3.348313e-03
14005=3.393748e-03
14008=-3.348313e-03
14014=4.256359e-03
14017=-4.217551e-03
14023=4.256359e-03
14026=-4.217551e-03
14032=4.256359e-03
14035=-4.217551e-03
14041=4.256359e-03
14044=-4.217551e-03
14050=4.256359e-03
14053=-4.217551e-03
14059=4.256359e-03
14062=-4.217551e-03
14068=2.746489e-02
14071=-4.895393e-02
14077=-3.443098e-02
14086=-3.443098e-02
14095=1.023056e-01
14098=-2.854626e-02
14104=-5.679588e-03
14107=6.753857e-03
14113=-2.468142e-03
14116=5.620038e-03
14122=-2.468142e-03
14125=5.620038e-03
14131=-2.468142e-03
14134=5.620038e-03
14140=-2.468142e-03
14143=5.620038e-03
14149=-2.204925e-02
14152=2.512918e-02
14158=-2.204925e-02
14161=2.512918e-02
14167=-2.204925e-02
14170=2.512918e-02
14176=-2.331178e-02
14179=2.561515e-02
14185=-2.331625e-02
14188=2.556618e-02
14194=-2.331625e-02
14197=2.556618e-02
14203=-1.352134e-02
14206=1.485440e-02
14212=-1.352134e-02
14215=1.485440e-02
14221=-1.352134e-02
14224=1.485440e-02
14230=-1.352134e-02
14233=1.485440e-02
14239=-4.240279e-03
14242=5.008188e-03
14248=-1.309431e-02
14251=1.453828e-02
14257=-9.596475e-03
14260=1.120829e-02
14266=-1.309431e-02
14269=1.453828e-02
14275=-1.309431e-02
14278=1.453828e-02
14284=-1.042626e-03
14287=2.148126e-03
14293=-7.551514e-03
14296=8.876772e-03
14302=-5.421165e-03
14305=5.768087e-03
14311=-7.551514e-03
14314=8.876772e-03
14320=-7.551514e-03
14323=8.876772e-03
14329=-7.551514e-03
14332=8.876772e-03
14338=-1.477261e-01
14341=1.733403e-01
14347=-1.699971e-02
14350=1.999911e-02
14356=-1.699971e-02
14359=1.999911e-02
14365=-1.699971e-02
14368=1.999911e-02
14374=-1.699971e-02
14377=1.999911e-02
14383=-1.699971e-02
14386=1.999911e-02
14392=-1.699971e-02
14395=1.999911e-02
14401=-1.699971e-02
14404=1.999911e-02
14410=-1.699971e-02
14413=1.999911e-02
14419=-1.699971e-02
14422=1.999911e-02
14428=-4.779964e-02
14431=7.754063e-02
14437=-4.779964e-02
14440=7.754063e-02
14449=6.861783e-03
14455=6.777539e-02
14458=-7.216488e-02
14464=1.937517e-02
14467=-5.951507e-02
14473=4.549698e-03
14476=-2.934056e-03
14482=3.128519e-02
14485=-1.811059e-02
14491=3.128519e-02
14494=-1.811059e-02
14500=2.624761e-02
14503=-1.926399e-02
14509=3.274745e-02
14512=-2.747281e-02
14518=2.812470e-01
14521=-4.130387e-02
14526=1.531954e-01
14527=-9.026438e-02
14536=3.249451e-02
14539=-2.834958e-02
14545=3.249451e-02
14548=-2.834958e-02
14554=-8.153305e-02
14557=1.593417e-01
14563=2.440440e-02
14572=2.510083e-02
14581=2.510083e-02
14590=2.510083e-02
14599=2.510083e-02
14608=2.510083e-02
14617=2.510083e-02
14626=1.217537e-01
14629=-1.885134e-01
14635=1.217537e-01
14638=-1.885134e-01
14644=1.365466e-01
14647=-1.234159e-01
14653=1.365466e-01
14656=-1.234159e-01
14665=-2.936448e-03
14671=4.753852e-03
14674=-1.311803e-05
14680=4.753852e-03
14683=-1.311803e-05
14689=4.753852e-03
14692=-1.311803e-05
14698=4.753852e-03
14701=-1.311803e-05
14707=4.753852e-03
14710=-1.311803e-05
14719=-3.901120e-04
14728=-3.901120e-04
14739=8.515965e-02
14748=8.515965e-02
14757=8.515965e-02
14766=8.515965e-02
14775=8.515965e-02
14784=8.515965e-02
14788=8.112587e-05
14791=-7.671659e-05
14797=3.133540e-02
14800=-2.539456e-02
14806=4.293104e-05
14809=-2.933773e-05
14815=4.293104e-05
14818=-2.933773e-05
14824=4.293104e-05
14827=-2.933773e-05
14832=-5.742621e-02
14833=4.215392e-01
14842=8.974016e-04
14845=-8.890720e-04
14851=8.974016e-04
14854=-8.890720e-04
14860=8.974016e-04
14863=-8.890720e-04
14869=8.974016e-04
14872=-8.890720e-04
14878=3.611962e-03
14881=-2.792088e-03
14887=-1.251025e-01
14890=7.722434e-02
14896=1.312712e-03
14899=-8.489414e-04
14905=1.312712e-03
14908=-8.489414e-04
14914=1.312712e-03
14917=-8.489414e-04
14923=5.987043e-03
14926=-5.469610e-03
14932=5.987043e-03
14935=-5.469610e-03
14941=5.987043e-03
14944=-5.469610e-03
14950=5.987043e-03
14953=-5.469610e-03
14959=5.987043e-03
14962=-5.469610e-03
14968=-2.201313e-01
14971=1.272004e-01
14977=-2.201313e-01
14980=1.272004e-01
14985=1.185231e-01
14986=-7.491258e-02
14995=2.636410e-02
14998=-2.092514e-02
15004=2.636410e-02
15007=-2.092514e-02
15013=2.636410e-02
15016=-2.092514e-02
15022=2.636410e-02
15025=-2.092514e-02
15031=2.636410e-02
15034=-2.092514e-02
15040=2.636410e-02
15043=-2.092514e-02
15049=8.323000e-05
15052=-7.814138e-05
15058=1.732320e-03
15061=-7.119354e-04
15067=1.419170e-02
15070=-3.016925e-03
15076=1.419170e-02
15079=-3.016925e-03
15085=1.419170e-02
15088=-3.016925e-03
15094=1.419170e-02
15097=-3.016925e-03
15103=1.419170e-02
15106=-3.016925e-03
15112=1.419170e-02
15115=-3.016925e-03
15121=1.419170e-02
15124=-3.016925e-03
15130=1.419170e-02
15133=-3.016925e-03
15139=1.419170e-02
15142=-3.016925e-03
15148=1.419170e-02
15151=-3.016925e-03
15157=1.419170e-02
15160=-3.016925e-03
15187=9.737640e-02
15214=-2.845252e-03
15255=3.585411e-01
15256=-1.081407e-01
15264=1.168865e-01
15265=-1.104841e-02
15273=1.216822e-01
15274=-8.186907e-02
15282=1.216822e-01
15283=-8.186907e-02
15291=1.216822e-01
15292=-8.186907e-02
15300=1.216822e-01
15301=-8.186907e-02
15310=2.130597e-05
15313=-1.986175e-05
15319=-1.322818e-01
15322=1.744459e-01
15328=-1.322818e-01
15331=1.744459e-01
15337=-1.322818e-01
15340=1.744459e-01
15346=-1.322818e-01
15349=1.744459e-01
15355=-1.322818e-01
15358=1.744459e-01
15364=-1.322818e-01
15367=1.744459e-01
15376=1.240640e-05
15385=5.705047e-05
15394=5.705047e-05
15403=5.705047e-05
15409=7.965130e-05
15412=-7.648707e-05
15418=7.965130e-05
15421=-7.648707e-05
15427=7.965130e-05
15430=-7.648707e-05
15436=7.965130e-05
15439=-7.648707e-05
15445=7.965130e-05
15448=-7.648707e-05
15454=6.597903e-04
15457=-6.534418e-04
15463=6.597903e-04
15466=-6.534418e-04
15472=6.597903e-04
15475=-6.534418e-04
15481=6.597903e-04
15484=-6.534418e-04
15490=6.597903e-04
15493=-6.534418e-04
15499=6.597903e-04
15502=-6.534418e-04
15508=1.048769e-02
15511=-1.039529e-02
15517=1.048769e-02
15520=-1.039529e-02
15526=1.048769e-02
15529=-1.039529e-02
15535=1.048769e-02
15538=-1.039529e-02
15544=1.048769e-02
15547=-1.039529e-02
